%YAML:1.0
my_svm: !!opencv-ml-svm
   svm_type: C_SVC
   kernel: { type:RBF, gamma:8.9999999999999997e-002 }
   C: 10.
   term_criteria: { epsilon:1.1920928955078125e-007,
       iterations:2147483647 }
   var_all: 324
   var_count: 324
   class_count: 10
   class_labels: !!opencv-matrix
      rows: 1
      cols: 10
      dt: i
      data: [ 0, 1, 2, 3, 4, 5, 6, 7, 8, 9 ]
   sv_total: 18
   support_vectors:
      - [ 1.03131674e-001, 2.83891886e-001, 2.83891886e-001,
          2.83891886e-001, 8.43478814e-002, 2.41820514e-003,
          1.79637223e-003, 3.72720743e-003, 5.32627814e-002,
          2.83891886e-001, 8.63465369e-002, 1.04756571e-001,
          9.84080285e-002, 5.68550043e-002, 1.04531157e-003,
          7.90195481e-004, 7.48667633e-004, 2.45188713e-001,
          1.92163929e-001, 2.83891886e-001, 2.83891886e-001,
          2.83891886e-001, 1.20355420e-001, 3.56643717e-003,
          2.22124578e-003, 6.86204107e-003, 9.45119187e-002,
          2.83891886e-001, 1.50754184e-001, 1.93227604e-001,
          1.95289016e-001, 3.34907398e-002, 8.13020160e-004,
          6.14596473e-004, 1.10056705e-003, 2.83891886e-001,
          3.46907109e-001, 3.76261002e-003, 8.60014930e-004,
          2.10603792e-003, 5.68153150e-003, 0., 0., 0., 3.36619675e-001,
          3.56325954e-001, 0., 0., 0., 8.95470101e-003, 3.36544449e-003,
          1.37430138e-003, 6.01023901e-003, 3.56325954e-001,
          3.56325954e-001, 1.22032445e-002, 5.44859748e-003,
          5.74181601e-003, 3.47406277e-003, 0., 0., 0., 3.56325954e-001,
          3.56325954e-001, 0., 0., 0., 5.46953315e-003, 9.17540211e-003,
          8.70684255e-003, 1.94648206e-002, 3.56325954e-001,
          1.94942981e-001, 8.66190414e-004, 8.55509017e-004,
          1.13171386e-003, 5.61935119e-002, 1.05317481e-001,
          1.12276524e-001, 9.02406797e-002, 2.53767729e-001,
          5.32209910e-002, 4.34601726e-003, 1.95778836e-003,
          2.64454912e-003, 9.16643366e-002, 2.88346738e-001,
          2.88346738e-001, 2.88346738e-001, 1.02902167e-001,
          2.88346738e-001, 1.28296646e-003, 6.65395812e-004,
          8.80221836e-004, 3.41441333e-002, 2.01317281e-001,
          2.00924456e-001, 1.53212681e-001, 2.88346738e-001,
          9.47423652e-002, 8.12713429e-003, 2.59889825e-003,
          4.25816746e-003, 1.43234581e-001, 2.88346738e-001,
          2.88346738e-001, 2.88346738e-001, 1.93873331e-001,
          7.18582124e-002, 2.28126720e-001, 2.70069331e-001,
          2.70069331e-001, 2.70069331e-001, 6.98524490e-002,
          5.73016107e-002, 3.02573908e-002, 3.90170291e-002,
          2.24236459e-001, 1.07458651e-001, 1.64585575e-001,
          1.48753315e-001, 9.92191508e-002, 1.43120065e-002,
          2.21626144e-002, 1.38929999e-002, 1.76511616e-001,
          5.18598035e-002, 2.68892031e-002, 4.98207696e-002,
          6.28029481e-002, 2.70069331e-001, 2.70069331e-001,
          2.70069331e-001, 2.70069331e-001, 9.91192982e-002,
          2.50090301e-001, 1.19864205e-002, 1.92135144e-002,
          1.25955073e-002, 1.05797775e-001, 1.91687286e-001,
          2.07999408e-001, 1.37765929e-001, 2.70069331e-001,
          3.52420688e-001, 8.64667818e-003, 6.08691666e-003,
          1.00426059e-002, 9.55769978e-003, 8.23561917e-004, 0., 0.,
          3.52420688e-001, 3.52420688e-001, 0., 0., 1.31604995e-003,
          1.50393555e-002, 1.60480570e-002, 9.72687081e-003,
          1.37693901e-002, 3.52420688e-001, 3.52420688e-001, 0., 0.,
          6.93984912e-004, 1.12831360e-002, 1.27504235e-002,
          8.21923558e-003, 1.23526510e-002, 3.52420688e-001,
          3.52420688e-001, 1.96759347e-002, 1.31342756e-002,
          2.03751437e-002, 1.77562311e-002, 1.10898784e-003, 0., 0.,
          3.52420688e-001, 1.34100273e-001, 1.43039851e-002,
          2.30744779e-002, 1.52369868e-002, 1.03234254e-001,
          1.47788256e-001, 1.66776463e-001, 1.08102612e-001,
          1.76099285e-001, 3.88049483e-002, 3.16345170e-002,
          6.11587130e-002, 7.90787488e-002, 2.84793854e-001,
          2.84793854e-001, 2.84793854e-001, 2.42327169e-001,
          7.11840913e-002, 2.49394581e-001, 1.38076201e-001,
          2.10301667e-001, 1.90065458e-001, 1.09411016e-001,
          1.34461131e-002, 2.00072620e-002, 1.23538729e-002,
          1.89415216e-001, 9.80271846e-002, 2.84793854e-001,
          2.84793854e-001, 2.84793854e-001, 2.84793854e-001,
          7.11868331e-002, 5.32031432e-002, 2.82311216e-002,
          5.14539555e-002, 8.99490267e-002, 6.62032515e-003,
          2.19436339e-003, 3.43181752e-003, 9.32617709e-002,
          2.85746902e-001, 2.85746902e-001, 2.85746902e-001,
          1.82515904e-001, 2.85746902e-001, 1.09472789e-003,
          6.64687890e-004, 8.79284460e-004, 2.67008264e-002,
          1.69326186e-001, 1.66554600e-001, 1.33903608e-001,
          2.85746902e-001, 5.51409870e-002, 3.70567688e-003,
          1.92892039e-003, 2.58694496e-003, 1.19544640e-001,
          2.85746902e-001, 2.85746902e-001, 2.85746902e-001,
          1.05716757e-001, 2.43021965e-001, 7.55224028e-004,
          8.54598649e-004, 1.13050861e-003, 8.55604708e-002,
          1.22656353e-001, 1.29391640e-001, 1.01800382e-001,
          2.85746902e-001, 3.53684336e-001, 0., 0., 0., 2.84364703e-003,
          4.93818102e-003, 4.92165191e-003, 1.16713261e-002,
          3.53684336e-001, 3.53684336e-001, 1.86191443e-002,
          7.86476210e-003, 7.89120141e-003, 4.47697798e-003, 0., 0., 0.,
          3.53684336e-001, 3.46082419e-001, 0., 0., 0., 8.98063369e-003,
          2.92461948e-003, 8.47732939e-004, 3.64341494e-003,
          3.53684336e-001, 3.53684336e-001, 5.82004664e-003,
          1.35467213e-003, 4.67352429e-003, 1.41581567e-002, 0., 0., 0.,
          3.53684336e-001, 2.92341471e-001, 1.34090364e-001,
          1.71019286e-001, 1.72785595e-001, 2.68869642e-002,
          9.40448837e-004, 7.10926659e-004, 1.25931366e-003,
          2.92341471e-001, 1.81414172e-001, 2.92341471e-001,
          2.92341471e-001, 2.92341471e-001, 1.09488904e-001,
          4.00083186e-003, 2.50848359e-003, 7.73130078e-003,
          8.87774453e-002, 2.49422729e-001, 1.06024936e-001,
          1.37423828e-001, 1.29504174e-001, 8.33608583e-002,
          1.20914844e-003, 9.14048462e-004, 8.62836605e-004,
          1.91169560e-001, 1.04529396e-001, 2.92341471e-001,
          2.92341471e-001, 2.92341471e-001, 1.27006784e-001,
          2.78891623e-003, 2.07386957e-003, 4.26379126e-003,
          5.48119582e-002 ]
      - [ 1.79144163e-002, 5.25875995e-003, 8.85002129e-003,
          3.56176831e-002, 3.88087243e-001, 8.63269940e-002,
          2.00381503e-002, 1.94308236e-002, 3.34892087e-002,
          1.20088317e-001, 0., 0., 0., 3.88087243e-001, 7.24425167e-002,
          2.04156637e-002, 2.55357604e-002, 1.51791841e-001,
          1.09596342e-001, 2.89731789e-002, 3.22120190e-002,
          8.21887255e-002, 3.88087243e-001, 1.78611383e-001,
          7.74133205e-002, 8.34055096e-002, 1.73630372e-001,
          3.88087243e-001, 0., 0., 0., 2.45444268e-001, 1.35068968e-001,
          6.88688606e-002, 9.67757255e-002, 3.88087243e-001,
          2.30119735e-001, 0., 0., 0., 4.65426072e-002, 5.51204104e-003,
          2.44347448e-003, 5.11761568e-003, 2.39589632e-001,
          2.74062634e-001, 0., 0., 0., 0., 0., 0., 0., 2.73742825e-001,
          4.27963018e-001, 0., 0., 0., 1.26112103e-002, 7.08691031e-003,
          5.37564419e-003, 1.56511832e-002, 4.27963018e-001,
          4.27963018e-001, 0., 0., 0., 0., 0., 0., 0., 4.27963018e-001,
          1.72540233e-001, 1.37876691e-002, 1.44879920e-002,
          1.82233397e-002, 2.05289319e-001, 0., 0., 0., 1.62234232e-001,
          8.68948177e-002, 3.54654118e-002, 5.10954745e-002,
          1.05385594e-001, 3.71324331e-001, 0., 0., 0., 6.40683547e-002,
          3.71324331e-001, 4.60461788e-002, 3.25551964e-002,
          3.07885800e-002, 6.63434342e-002, 0., 0., 0., 3.71324331e-001,
          3.71324331e-001, 1.41029552e-001, 1.52822018e-001,
          2.06448093e-001, 3.71324331e-001, 0., 0., 0., 2.94773430e-001,
          1.36561736e-001, 2.52715629e-002, 2.26926208e-002,
          4.40958552e-002, 9.69618335e-002, 8.47992972e-002,
          5.62140010e-002, 6.66745752e-002, 1.89051345e-001,
          3.87979507e-001, 0., 0., 0., 2.58185938e-002, 5.77082038e-002,
          4.57285419e-002, 7.19849989e-002, 3.87979507e-001,
          3.87979507e-001, 0., 0., 0., 0., 0., 0., 0., 3.87979507e-001,
          3.87979507e-001, 0., 0., 0., 0., 0., 0., 0., 3.87979507e-001,
          3.52923542e-001, 0., 0., 0., 4.78791617e-006, 1.03551324e-003,
          1.29502011e-003, 5.56313014e-003, 3.52923542e-001,
          3.52923542e-001, 0., 0., 0., 0., 0., 0., 0., 3.52923542e-001,
          3.52923542e-001, 0., 0., 0., 0., 0., 0., 0., 3.52923542e-001,
          3.52923542e-001, 0., 0., 0., 0., 0., 0., 0., 3.52923542e-001,
          3.40061039e-001, 2.97363866e-002, 1.62456036e-002,
          1.09658046e-002, 3.62103083e-003, 0., 0., 0., 3.40061039e-001,
          3.40061039e-001, 1.02981150e-001, 9.63214412e-002,
          8.58377442e-002, 7.48318434e-002, 0., 0., 0., 2.87741005e-001,
          3.40061039e-001, 0., 0., 0., 5.72203705e-003, 1.66380964e-002,
          2.35201139e-002, 4.17848229e-002, 3.40061039e-001,
          3.40061039e-001, 0., 0., 0., 1.12266563e-001, 1.27648234e-001,
          1.35479510e-001, 1.42559409e-001, 3.40061039e-001,
          4.21923310e-001, 0., 0., 0., 0., 0., 0., 0., 4.21923310e-001,
          4.21923310e-001, 0., 0., 0., 0., 0., 0., 0., 4.21923310e-001,
          2.47675404e-001, 0., 0., 0., 0., 0., 0., 0., 2.47634143e-001,
          2.83883601e-001, 0., 0., 0., 0., 0., 0., 0., 2.83641666e-001,
          4.21961069e-001, 0., 0., 0., 0., 0., 0., 0., 4.21961069e-001,
          4.21961069e-001, 0., 0., 0., 0., 0., 0., 0., 4.21961069e-001,
          2.47696176e-001, 0., 0., 0., 0., 0., 0., 0., 2.47460231e-001,
          2.83559173e-001, 0., 0., 0., 0., 0., 0., 0., 2.83874005e-001,
          3.87888402e-001, 0., 0., 0., 7.00599626e-002, 2.86741257e-002,
          2.92636435e-002, 3.99361663e-002, 3.87888402e-001,
          2.46595040e-001, 0., 0., 0., 3.87888402e-001, 1.88855141e-001,
          1.33456081e-001, 1.20472252e-001, 3.59707355e-001,
          1.45577416e-001, 0., 0., 0., 2.45510653e-001, 1.71986669e-002,
          1.34184649e-002, 1.22611560e-002, 1.54409245e-001,
          5.74349612e-002, 0., 0., 0., 3.87888402e-001, 9.81763676e-002,
          4.63595726e-002, 3.12672965e-002, 7.69656897e-002 ]
      - [ 4.10233997e-002, 1.84659451e-001, 3.37929994e-001,
          3.54280442e-001, 4.94575888e-001, 1.64257754e-002,
          3.29587655e-003, 6.17717669e-005, 2.69343983e-002,
          6.15771906e-003, 6.32914081e-002, 1.21043868e-001,
          1.10266872e-001, 2.70629764e-001, 0., 2.19725101e-004,
          4.11811789e-006, 6.09497866e-003, 5.82221197e-003,
          5.68555761e-003, 1.66974887e-002, 3.12423166e-002,
          4.94575888e-001, 2.05339622e-002, 1.88234181e-003, 0.,
          5.03992103e-003, 2.42201216e-003, 2.54985783e-003,
          7.53969327e-003, 6.67158654e-003, 3.51141542e-001,
          5.12532983e-003, 8.55610007e-004, 0., 2.42201216e-003,
          1.52235967e-003, 9.63953731e-004, 5.85386204e-003,
          1.64940506e-002, 6.54846728e-002, 0., 0., 0., 2.52895785e-004,
          2.23605484e-002, 2.14219138e-001, 3.70444834e-001,
          3.70444834e-001, 3.70444834e-001, 6.12780044e-004, 0.,
          7.74786604e-005, 3.42302956e-003, 1.99981723e-002,
          3.79045978e-002, 7.23877326e-002, 7.93556571e-002,
          1.43319085e-001, 0., 0., 0., 2.90664681e-003, 4.89627719e-002,
          2.92131156e-001, 3.70444834e-001, 3.70444834e-001,
          3.70444834e-001, 1.45194400e-002, 3.36757395e-003,
          1.70453044e-004, 6.32820558e-003, 3.52618508e-002,
          2.47145385e-001, 2.80590624e-001, 2.80590624e-001,
          2.40473166e-001, 2.25764327e-003, 1.57250999e-003,
          5.65794762e-003, 1.93309151e-002, 5.51123880e-002,
          1.21330306e-001, 1.91741750e-001, 2.07623735e-001,
          1.27967030e-001, 1.21253459e-002, 1.48317767e-002,
          2.79381685e-002, 4.23092283e-002, 7.82087520e-002,
          2.52907693e-001, 2.80590624e-001, 2.80590624e-001,
          2.80590624e-001, 3.98135483e-002, 1.81546584e-002,
          2.53365077e-002, 2.44480353e-002, 1.37565479e-001,
          1.60651714e-001, 2.11895153e-001, 2.47778445e-001,
          2.80590624e-001, 1.93555623e-001, 9.09935087e-002,
          1.14962667e-001, 6.38781711e-002, 3.58126685e-003, 0., 0., 0.,
          3.14834923e-001, 1.82799280e-001, 1.46248549e-001,
          7.60622025e-002, 5.27417008e-003, 7.26080500e-003,
          1.24245193e-002, 2.10552737e-002, 1.44921169e-002,
          2.06027195e-001, 5.99361174e-002, 5.78422509e-002,
          3.58028002e-002, 9.83287860e-003, 5.68616949e-002, 0., 0., 0.,
          3.14834923e-001, 3.14834923e-001, 3.14834923e-001,
          2.64275163e-001, 1.24115534e-001, 3.14834923e-001,
          7.05541372e-002, 1.01006769e-001, 1.15569808e-001,
          1.43798426e-001, 2.78151095e-001, 2.23737851e-001,
          1.57330573e-001, 3.14834923e-001, 1.25056664e-002,
          8.15177932e-002, 1.59468740e-001, 1.54189020e-001,
          5.37011027e-002, 1.33525871e-003, 2.09563383e-004,
          1.53243306e-007, 4.87033650e-003, 2.24207826e-002,
          2.58137017e-001, 3.12671363e-001, 3.12671363e-001,
          3.03119034e-001, 7.37975305e-003, 1.59619818e-003,
          1.80273873e-005, 2.81066447e-003, 1.58632964e-001,
          2.02327460e-001, 3.12671363e-001, 3.12671363e-001,
          6.49876297e-002, 5.86374337e-003, 3.85923334e-003,
          7.30761234e-003, 1.36263773e-001, 2.74453312e-002,
          3.12671363e-001, 3.12671363e-001, 3.12671363e-001,
          6.85524270e-002, 3.07461061e-003, 1.06413208e-004,
          1.28189975e-004, 8.75148922e-003, 2.87355110e-002,
          2.11516216e-001, 3.33398283e-001, 3.33398283e-001,
          2.78646022e-001, 2.88925879e-002, 7.81358406e-003,
          8.42398684e-003, 5.41868061e-003, 3.67664210e-002,
          1.12041883e-001, 1.79614708e-001, 1.79783002e-001,
          3.33398283e-001, 1.10477753e-001, 3.01540885e-002,
          3.33354175e-002, 1.15421452e-002, 1.37051335e-002,
          2.03378171e-001, 3.33398283e-001, 3.33398283e-001,
          2.30279312e-001, 7.63578061e-003, 1.51501590e-004,
          9.15313372e-004, 4.71981149e-003, 7.73614598e-003,
          4.97895367e-002, 9.19677392e-002, 8.21129605e-002,
          3.33398283e-001, 1.64853912e-002, 3.49619077e-005,
          2.01368937e-003, 3.78723186e-003, 1.07369803e-001, 0.,
          7.92619248e-005, 3.98923767e-005, 8.80512148e-002,
          2.59726346e-001, 2.59726346e-001, 2.00432435e-001,
          2.21448511e-001, 2.59726346e-001, 8.89772400e-002,
          1.08293921e-001, 1.10453621e-001, 6.72665164e-002,
          1.74378499e-001, 1.40354335e-001, 1.42237633e-001,
          2.59726346e-001, 5.47674149e-002, 0., 1.18892884e-003,
          4.80042119e-003, 2.10099250e-001, 2.59726346e-001,
          2.59726346e-001, 2.05600649e-001, 1.00132890e-001,
          1.71014383e-001, 1.54240534e-001, 2.51956731e-001,
          2.59726346e-001, 2.31988639e-001, 2.67723147e-002,
          2.62873117e-002, 3.00710239e-002, 1.94641650e-001,
          2.52653033e-001, 2.10399956e-001, 2.81163543e-001,
          2.81163543e-001, 5.20259663e-002, 4.09157947e-003,
          2.79777870e-003, 1.12075433e-002, 2.07782775e-001,
          4.21028212e-002, 2.81163543e-001, 2.81163543e-001,
          2.81163543e-001, 6.90905228e-002, 1.81423360e-003, 0.,
          6.12933305e-004, 1.57138146e-002, 8.64681378e-002,
          2.45142713e-001, 2.81163543e-001, 2.81163543e-001,
          1.35414064e-001, 7.49182713e-004, 5.09104830e-005,
          3.20680253e-003, 6.94128573e-002, 2.54004598e-002,
          1.67534515e-001, 2.81163543e-001, 2.81163543e-001,
          7.23746568e-002, 5.82697627e-004, 0., 4.76725836e-004,
          9.77862254e-003, 1.71431825e-002, 1.45388409e-001,
          2.80443519e-001, 2.88959682e-001, 3.40311497e-001,
          6.40893006e-004, 0., 0., 7.31190201e-003, 3.70587176e-003,
          9.75639932e-003, 1.99150089e-002, 1.90555137e-002,
          5.31894386e-001, 8.37788335e-004, 0., 0., 1.35710055e-003,
          8.14939663e-003, 3.36829238e-002, 6.30210489e-002,
          5.89434393e-002, 3.46245706e-001, 0., 0., 0., 4.06375760e-003,
          8.01061979e-005, 0., 3.59752128e-004, 6.42073283e-004,
          5.31894386e-001, 0., 0., 0., 8.01061979e-005 ]
      - [ 9.34733376e-002, 8.63155052e-002, 2.12815776e-001,
          2.46750653e-001, 4.31579351e-001, 4.40955944e-002,
          1.58166029e-002, 1.39653469e-002, 5.11802137e-002,
          2.50220876e-002, 6.13018498e-002, 2.01293990e-001,
          2.50051230e-001, 4.31579351e-001, 3.09071038e-003,
          2.02835727e-004, 3.47860157e-004, 5.49269328e-003,
          1.87052283e-002, 1.02092382e-002, 1.49502307e-002,
          3.58085111e-002, 4.31579351e-001, 5.77075742e-002,
          1.90337896e-002, 1.07017439e-002, 1.34253884e-002,
          4.67244769e-003, 1.84263438e-002, 4.83431667e-002,
          8.45274553e-002, 4.31579351e-001, 1.64422195e-003, 0.,
          4.76905610e-004, 3.25448159e-003, 9.34942812e-002,
          6.55914024e-002, 9.30469632e-002, 1.50588378e-001,
          4.63873148e-001, 4.60658222e-002, 3.89161743e-002,
          3.39949578e-002, 7.52038732e-002, 7.29141980e-002,
          3.16073708e-002, 3.57793793e-002, 4.06501293e-002,
          4.63873148e-001, 1.52347550e-001, 8.59705210e-002,
          6.62080720e-002, 9.64285955e-002, 6.82527805e-003,
          2.31615659e-002, 5.74201196e-002, 1.04662970e-001,
          4.63873148e-001, 2.03186478e-002, 9.39781219e-003,
          6.12183567e-003, 6.40657684e-003, 5.62191801e-003,
          1.67111345e-002, 3.20982262e-002, 5.01587056e-002,
          4.63873148e-001, 7.20224008e-002, 3.33918445e-002,
          2.56312508e-002, 8.14503245e-003, 3.30595765e-003, 0., 0., 0.,
          4.10826892e-001, 1.55481324e-001, 1.17081955e-001,
          4.49174494e-002, 1.85710564e-002, 1.89795047e-002,
          3.31740594e-003, 2.89042218e-004, 4.55002394e-003,
          4.10826892e-001, 3.74623269e-001, 3.26402754e-001,
          1.14599802e-001, 3.22489105e-002, 3.27878841e-003,
          9.30215511e-003, 2.36665811e-002, 2.05677059e-002,
          4.10826892e-001, 4.74243462e-002, 3.21447924e-002,
          2.28666104e-002, 4.84103383e-003, 4.14914265e-003,
          1.65174771e-002, 5.57594746e-002, 8.30207467e-002,
          4.10826892e-001, 5.26471399e-002, 3.02771553e-002,
          1.18807880e-002, 6.95349509e-003, 5.62411407e-003,
          4.32353001e-003, 6.49562152e-003, 1.45566054e-002,
          3.75860989e-001, 4.38207723e-002, 1.13483109e-002,
          6.40465878e-003, 3.70488688e-003, 1.43670253e-002,
          6.39749691e-002, 1.74586713e-001, 2.13180438e-001,
          3.75860989e-001, 2.81844325e-002, 8.65988992e-003,
          8.48288648e-003, 7.12228380e-003, 6.35880530e-002,
          2.28881892e-002, 2.07057633e-002, 3.16430032e-002,
          3.75860989e-001, 1.78500772e-001, 9.49589089e-002,
          7.61483759e-002, 8.22755843e-002, 1.54283419e-001,
          1.47136152e-001, 2.64211655e-001, 3.73634934e-001,
          3.75860989e-001, 1.10225029e-001, 5.87862022e-002,
          6.67144954e-002, 1.14755347e-001, 1.22932708e-002,
          9.27414894e-002, 2.37324208e-001, 2.81755298e-001,
          2.81755298e-001, 3.83286625e-002, 8.54265969e-003,
          1.18075339e-002, 8.82604718e-003, 1.83359291e-002,
          5.98358773e-002, 1.19606078e-001, 1.63467944e-001,
          2.81755298e-001, 1.73784807e-001, 8.60753655e-002,
          9.84839424e-002, 4.07531112e-002, 9.40828398e-002,
          1.52938813e-001, 2.81755298e-001, 2.81755298e-001,
          2.43145838e-001, 1.17830671e-001, 4.21900935e-002,
          4.97669540e-002, 4.20781821e-002, 1.07714638e-001,
          1.01525933e-001, 1.59512877e-001, 2.64680803e-001,
          2.23424047e-001, 2.81755298e-001, 1.72291696e-001,
          1.86034888e-001, 1.31243438e-001, 1.27161909e-002,
          4.43593971e-002, 1.18058905e-001, 1.43609777e-001,
          2.76154727e-001, 1.64941862e-001, 8.71924460e-002,
          8.54937807e-002, 3.87886465e-002, 5.46460878e-003,
          8.42773318e-002, 2.76154727e-001, 2.76154727e-001,
          2.76154727e-001, 1.57411024e-002, 7.02203624e-003,
          4.88216663e-003, 7.53713911e-003, 1.57672793e-001,
          1.23922624e-001, 1.98089242e-001, 2.76154727e-001,
          1.45976901e-001, 2.76154727e-001, 1.74570903e-001,
          1.75824925e-001, 2.12007865e-001, 1.13936998e-001,
          1.74873307e-001, 2.76154727e-001, 2.76154727e-001,
          1.99380323e-001, 3.23420390e-002, 2.26174016e-002,
          2.53387671e-002, 8.19032490e-002, 9.86386687e-002,
          2.31810827e-002, 1.33633399e-002, 1.64019261e-002,
          2.92361706e-001, 2.92361706e-001, 2.87403107e-001,
          1.55444920e-001, 1.39112473e-001, 2.58244485e-001,
          1.52836040e-001, 1.50135204e-001, 2.32257977e-001,
          2.29069039e-001, 9.15739685e-002, 6.65254146e-002,
          7.55761564e-002, 1.93857089e-001, 2.03435160e-002,
          1.66866952e-003, 1.99576330e-004, 8.99230712e-004,
          2.74541855e-001, 2.92361706e-001, 2.92361706e-001,
          1.66268751e-001, 2.74420269e-002, 6.61779493e-002,
          3.99110951e-002, 4.80116978e-002, 1.09359324e-001,
          2.92361706e-001, 1.34041429e-001, 1.13000423e-001,
          3.70032117e-002, 3.50748114e-002, 2.06374139e-001,
          1.45480871e-001, 1.44489199e-001, 2.20234886e-001,
          2.09726110e-001, 1.05601266e-001, 6.07009120e-002,
          8.12017471e-002, 1.19876653e-001, 1.95443287e-001,
          8.34612995e-002, 8.90182704e-002, 1.31477654e-001,
          1.29267648e-001, 2.88827032e-001, 1.94061682e-001,
          1.98963404e-001, 2.00483873e-001, 1.17562361e-001,
          7.90044442e-002, 9.93867591e-002, 1.73973158e-001,
          2.88827032e-001, 1.26797929e-001, 8.29337165e-002,
          5.58179654e-002, 8.60265866e-002, 9.82431918e-002,
          4.08213325e-002, 4.97121774e-002, 5.53897992e-002,
          2.88827032e-001, 2.88827032e-001, 2.88827032e-001,
          1.93933353e-001, 1.20068543e-001, 2.52181709e-001,
          1.06124997e-001, 1.08797029e-001, 1.53746963e-001,
          8.54073316e-002, 2.43559256e-001, 1.63404375e-001,
          1.70268491e-001, 2.60421753e-001, 2.13452548e-001,
          1.75113723e-001, 2.15191588e-001, 2.60421753e-001,
          1.25336945e-001, 1.39350342e-002, 1.47573007e-002,
          2.42710877e-002, 1.39371753e-001, 4.77310866e-002,
          9.47158970e-003, 1.22673735e-002, 2.54711043e-002,
          2.60421753e-001, 2.60421753e-001, 2.60421753e-001,
          1.34611025e-001, 6.95562959e-002, 6.83541968e-002,
          1.72858521e-001, 2.60421753e-001, 2.60421753e-001,
          2.60421753e-001, 2.00191122e-002, 6.64293859e-003,
          3.28413816e-003, 4.89675701e-002 ]
      - [ 2.66869627e-002, 9.31602344e-002, 2.39150330e-001,
          2.76823372e-001, 4.27480757e-001, 8.32996704e-003,
          7.55721121e-004, 2.00946047e-003, 1.28751118e-002,
          5.53620011e-002, 8.29030573e-002, 1.49703100e-001,
          2.58187890e-001, 4.27480757e-001, 1.74603285e-003,
          2.37458502e-003, 6.95375726e-003, 3.99686061e-002,
          5.36913518e-003, 1.42634576e-002, 2.42571644e-002,
          5.00974618e-002, 4.27480757e-001, 2.14604265e-003, 0.,
          1.33964015e-004, 3.53645999e-003, 5.80918230e-003,
          2.46700551e-002, 5.74329235e-002, 1.15489669e-001,
          4.27480757e-001, 7.64565193e-004, 1.05645624e-003,
          1.33590645e-003, 4.63217823e-003, 1.15622267e-001,
          7.14761168e-002, 7.39076436e-002, 1.52267724e-001,
          4.59381670e-001, 8.86270329e-002, 5.59416935e-002,
          6.27168417e-002, 1.32043988e-001, 4.64572348e-002,
          1.48167536e-002, 1.00159543e-002, 1.22973546e-002,
          4.59381670e-001, 1.54873446e-001, 7.49536157e-002,
          6.75628409e-002, 8.79249945e-002, 1.02142869e-002,
          1.09133068e-002, 2.96330322e-002, 8.58908445e-002,
          4.59381670e-001, 5.55926263e-002, 1.80300009e-002,
          9.11025610e-003, 8.84580240e-003, 6.92023849e-003,
          1.16617896e-003, 1.87017466e-003, 6.80762716e-003,
          4.59381670e-001, 1.10754319e-001, 4.75056097e-002,
          2.26217564e-002, 9.40306392e-003, 2.47653225e-003, 0.,
          7.60222611e-005, 9.65560466e-005, 3.90392303e-001,
          1.52409196e-001, 1.25857383e-001, 5.26124388e-002,
          4.25537676e-003, 2.28787102e-002, 3.22769932e-003,
          1.14033418e-003, 1.32866278e-002, 4.06511217e-001,
          3.88036460e-001, 3.34211856e-001, 1.33178458e-001,
          4.68146540e-002, 4.44754027e-003, 1.04169305e-002,
          1.86382551e-002, 2.43018791e-002, 4.06511217e-001,
          4.96291146e-002, 2.97872610e-002, 1.63426530e-002,
          5.92240505e-003, 6.61405036e-003, 1.85761098e-002,
          4.59230877e-002, 1.04339771e-001, 4.06511217e-001,
          6.40587211e-002, 2.27955859e-002, 1.35217002e-002,
          9.94537026e-003, 9.09423735e-003, 2.12584194e-002,
          4.88573611e-002, 6.34660348e-002, 3.32932562e-001,
          4.56064716e-002, 1.10974312e-002, 1.04296720e-002,
          1.03131048e-002, 9.30469763e-003, 9.41884145e-002,
          2.67465681e-001, 2.96833068e-001, 3.32932562e-001,
          1.00296931e-002, 3.46047664e-003, 4.69881948e-003,
          9.25426744e-003, 1.30311996e-001, 7.25326762e-002,
          9.69713554e-002, 1.48955420e-001, 3.32932562e-001,
          1.89937472e-001, 1.04170196e-001, 1.04194552e-001,
          1.72991693e-001, 1.46391809e-001, 1.87080324e-001,
          3.32932562e-001, 3.32932562e-001, 2.23137975e-001,
          3.20553929e-002, 2.57088039e-002, 3.71434987e-002,
          1.15875967e-001, 1.86559011e-003, 4.97694649e-002,
          1.50732309e-001, 1.91808909e-001, 3.26649517e-001,
          1.15947455e-001, 6.52678832e-002, 2.73092352e-002,
          4.32688557e-003, 1.03569003e-002, 2.49784440e-003,
          3.91151989e-003, 1.45595428e-002, 3.26649517e-001,
          3.26649517e-001, 2.81241596e-001, 1.23896621e-001,
          2.19050534e-002, 6.54348657e-002, 8.78978372e-002,
          1.90480262e-001, 2.16431737e-001, 2.06898332e-001,
          9.33191478e-002, 7.76984319e-002, 4.52464186e-002,
          6.20550737e-002, 8.97172987e-002, 2.22078357e-002,
          1.28877405e-002, 1.65875908e-002, 1.94951668e-001,
          3.26649517e-001, 3.26649517e-001, 2.26996452e-001,
          1.74380273e-001, 1.93445887e-002, 4.86100651e-002,
          1.16520613e-001, 1.46680981e-001, 2.73992389e-001,
          1.63768858e-001, 1.27766833e-001, 5.55423647e-002,
          2.08024848e-002, 9.59234126e-003, 1.01585053e-001,
          2.73992389e-001, 2.73992389e-001, 2.73992389e-001,
          3.90357291e-003, 3.50480760e-003, 1.65697944e-003,
          6.38937205e-003, 1.80649072e-001, 1.29576504e-001,
          2.01496750e-001, 2.73992389e-001, 1.19982623e-001,
          2.73992389e-001, 2.22612262e-001, 1.44402698e-001,
          2.13470474e-001, 1.06338643e-001, 1.86603874e-001,
          2.73992389e-001, 2.73992389e-001, 1.74220577e-001,
          6.73622591e-003, 9.85314790e-003, 1.14575857e-002,
          6.75166175e-002, 1.96754307e-001, 6.20648973e-002,
          5.29688187e-002, 7.04475790e-002, 1.53444305e-001,
          1.95883632e-001, 1.47328630e-001, 1.41672492e-001,
          2.58967817e-001, 2.77282715e-001, 1.81976110e-001,
          2.25795016e-001, 2.93754429e-001, 1.82829678e-001,
          1.61749572e-002, 2.62718331e-002, 4.05405536e-002,
          2.02634528e-001, 4.58715782e-002, 4.17006249e-003,
          2.09744461e-003, 6.62795827e-003, 2.73382664e-001,
          2.93754429e-001, 2.93754429e-001, 1.47340238e-001,
          5.74410558e-002, 1.02940135e-001, 7.49924406e-002,
          9.55461934e-002, 2.42043242e-001, 2.93754429e-001,
          2.66743898e-002, 1.88895352e-002, 1.85198504e-002,
          7.40193352e-002, 1.94634140e-001, 1.06247857e-001,
          1.11128315e-001, 1.45836711e-001, 1.16317838e-001,
          8.88364539e-002, 6.75918609e-002, 7.68134370e-002,
          2.01338366e-001, 1.44714043e-001, 2.82783099e-002,
          1.17057832e-002, 9.16582346e-003, 9.86822844e-002,
          2.76479453e-001, 2.00349331e-001, 1.89525202e-001,
          2.67998189e-001, 1.44232228e-001, 8.67637172e-002,
          9.16108936e-002, 1.91499129e-001, 2.76479453e-001,
          2.36001775e-001, 1.66846260e-001, 1.12369411e-001,
          1.60701796e-001, 7.60949850e-002, 1.79316178e-002,
          1.25495736e-002, 1.70020405e-002, 2.76479453e-001,
          2.76479453e-001, 2.76479453e-001, 2.40964770e-001,
          1.42224431e-001, 2.64281183e-001, 1.15733795e-001,
          1.07087955e-001, 1.38517901e-001, 7.80673996e-002,
          1.95894226e-001, 1.42348662e-001, 1.48680255e-001,
          2.64281183e-001, 2.03522906e-001, 1.88016683e-001,
          2.57272661e-001, 2.64281183e-001, 1.01314381e-001,
          2.28417246e-003, 5.36756450e-003, 1.00258747e-002,
          1.23050153e-001, 5.26565425e-002, 1.53261730e-002,
          2.25313101e-002, 3.89447846e-002, 2.64281183e-001,
          2.64281183e-001, 2.30874538e-001, 1.11530915e-001,
          6.51711524e-002, 6.83103278e-002, 2.39919767e-001,
          2.64281183e-001, 2.64281183e-001, 2.64281183e-001,
          5.46704140e-003, 1.17868383e-003, 4.18508454e-004,
          4.39640954e-002 ]
      - [ 2.66869627e-002, 9.31602344e-002, 2.39150330e-001,
          2.76823372e-001, 4.27480757e-001, 8.32996704e-003,
          7.55721121e-004, 2.00946047e-003, 1.28751118e-002,
          5.53620011e-002, 8.29030573e-002, 1.49703100e-001,
          2.58187890e-001, 4.27480757e-001, 1.74603285e-003,
          2.37458502e-003, 6.95375726e-003, 3.99686061e-002,
          5.36913518e-003, 1.42634576e-002, 2.42571644e-002,
          5.00974618e-002, 4.27480757e-001, 2.14604265e-003, 0.,
          1.33964015e-004, 3.53645999e-003, 5.80918230e-003,
          2.46700551e-002, 5.74329235e-002, 1.15489669e-001,
          4.27480757e-001, 7.64565193e-004, 1.05645624e-003,
          1.33590645e-003, 4.63217823e-003, 1.15622267e-001,
          7.14761168e-002, 7.39076436e-002, 1.52267724e-001,
          4.59381670e-001, 8.86270329e-002, 5.59416935e-002,
          6.27168417e-002, 1.32043988e-001, 4.64572348e-002,
          1.48167536e-002, 1.00159543e-002, 1.22973546e-002,
          4.59381670e-001, 1.54873446e-001, 7.49536157e-002,
          6.75628409e-002, 8.79249945e-002, 1.02142869e-002,
          1.09133068e-002, 2.96330322e-002, 8.58908445e-002,
          4.59381670e-001, 5.55926263e-002, 1.80300009e-002,
          9.11025610e-003, 8.84580240e-003, 6.92023849e-003,
          1.16617896e-003, 1.87017466e-003, 6.80762716e-003,
          4.59381670e-001, 1.10754319e-001, 4.75056097e-002,
          2.26217564e-002, 9.40306392e-003, 2.47653225e-003, 0.,
          7.60222611e-005, 9.65560466e-005, 3.90392303e-001,
          1.52409196e-001, 1.25857383e-001, 5.26124388e-002,
          4.25537676e-003, 2.28787102e-002, 3.22769932e-003,
          1.14033418e-003, 1.32866278e-002, 4.06511217e-001,
          3.88036460e-001, 3.34211856e-001, 1.33178458e-001,
          4.68146540e-002, 4.44754027e-003, 1.04169305e-002,
          1.86382551e-002, 2.43018791e-002, 4.06511217e-001,
          4.96291146e-002, 2.97872610e-002, 1.63426530e-002,
          5.92240505e-003, 6.61405036e-003, 1.85761098e-002,
          4.59230877e-002, 1.04339771e-001, 4.06511217e-001,
          6.40587211e-002, 2.27955859e-002, 1.35217002e-002,
          9.94537026e-003, 9.09423735e-003, 2.12584194e-002,
          4.88573611e-002, 6.34660348e-002, 3.32932562e-001,
          4.56064716e-002, 1.10974312e-002, 1.04296720e-002,
          1.03131048e-002, 9.30469763e-003, 9.41884145e-002,
          2.67465681e-001, 2.96833068e-001, 3.32932562e-001,
          1.00296931e-002, 3.46047664e-003, 4.69881948e-003,
          9.25426744e-003, 1.30311996e-001, 7.25326762e-002,
          9.69713554e-002, 1.48955420e-001, 3.32932562e-001,
          1.89937472e-001, 1.04170196e-001, 1.04194552e-001,
          1.72991693e-001, 1.46391809e-001, 1.87080324e-001,
          3.32932562e-001, 3.32932562e-001, 2.23137975e-001,
          3.20553929e-002, 2.57088039e-002, 3.71434987e-002,
          1.15875967e-001, 1.86559011e-003, 4.97694649e-002,
          1.50732309e-001, 1.91808909e-001, 3.26649517e-001,
          1.15947455e-001, 6.52678832e-002, 2.73092352e-002,
          4.32688557e-003, 1.03569003e-002, 2.49784440e-003,
          3.91151989e-003, 1.45595428e-002, 3.26649517e-001,
          3.26649517e-001, 2.81241596e-001, 1.23896621e-001,
          2.19050534e-002, 6.54348657e-002, 8.78978372e-002,
          1.90480262e-001, 2.16431737e-001, 2.06898332e-001,
          9.33191478e-002, 7.76984319e-002, 4.52464186e-002,
          6.20550737e-002, 8.97172987e-002, 2.22078357e-002,
          1.28877405e-002, 1.65875908e-002, 1.94951668e-001,
          3.26649517e-001, 3.26649517e-001, 2.26996452e-001,
          1.74380273e-001, 1.93445887e-002, 4.86100651e-002,
          1.16520613e-001, 1.46680981e-001, 2.73992389e-001,
          1.63768858e-001, 1.27766833e-001, 5.55423647e-002,
          2.08024848e-002, 9.59234126e-003, 1.01585053e-001,
          2.73992389e-001, 2.73992389e-001, 2.73992389e-001,
          3.90357291e-003, 3.50480760e-003, 1.65697944e-003,
          6.38937205e-003, 1.80649072e-001, 1.29576504e-001,
          2.01496750e-001, 2.73992389e-001, 1.19982623e-001,
          2.73992389e-001, 2.22612262e-001, 1.44402698e-001,
          2.13470474e-001, 1.06338643e-001, 1.86603874e-001,
          2.73992389e-001, 2.73992389e-001, 1.74220577e-001,
          6.73622591e-003, 9.85314790e-003, 1.14575857e-002,
          6.75166175e-002, 1.96754307e-001, 6.20648973e-002,
          5.29688187e-002, 7.04475790e-002, 1.53444305e-001,
          1.95883632e-001, 1.47328630e-001, 1.41672492e-001,
          2.58967817e-001, 2.77282715e-001, 1.81976110e-001,
          2.25795016e-001, 2.93754429e-001, 1.82829678e-001,
          1.61749572e-002, 2.62718331e-002, 4.05405536e-002,
          2.02634528e-001, 4.58715782e-002, 4.17006249e-003,
          2.09744461e-003, 6.62795827e-003, 2.73382664e-001,
          2.93754429e-001, 2.93754429e-001, 1.47340238e-001,
          5.74410558e-002, 1.02940135e-001, 7.49924406e-002,
          9.55461934e-002, 2.42043242e-001, 2.93754429e-001,
          2.66743898e-002, 1.88895352e-002, 1.85198504e-002,
          7.40193352e-002, 1.94634140e-001, 1.06247857e-001,
          1.11128315e-001, 1.45836711e-001, 1.16317838e-001,
          8.88364539e-002, 6.75918609e-002, 7.68134370e-002,
          2.01338366e-001, 1.44714043e-001, 2.82783099e-002,
          1.17057832e-002, 9.16582346e-003, 9.86822844e-002,
          2.76479453e-001, 2.00349331e-001, 1.89525202e-001,
          2.67998189e-001, 1.44232228e-001, 8.67637172e-002,
          9.16108936e-002, 1.91499129e-001, 2.76479453e-001,
          2.36001775e-001, 1.66846260e-001, 1.12369411e-001,
          1.60701796e-001, 7.60949850e-002, 1.79316178e-002,
          1.25495736e-002, 1.70020405e-002, 2.76479453e-001,
          2.76479453e-001, 2.76479453e-001, 2.40964770e-001,
          1.42224431e-001, 2.64281183e-001, 1.15733795e-001,
          1.07087955e-001, 1.38517901e-001, 7.80673996e-002,
          1.95894226e-001, 1.42348662e-001, 1.48680255e-001,
          2.64281183e-001, 2.03522906e-001, 1.88016683e-001,
          2.57272661e-001, 2.64281183e-001, 1.01314381e-001,
          2.28417246e-003, 5.36756450e-003, 1.00258747e-002,
          1.23050153e-001, 5.26565425e-002, 1.53261730e-002,
          2.25313101e-002, 3.89447846e-002, 2.64281183e-001,
          2.64281183e-001, 2.30874538e-001, 1.11530915e-001,
          6.51711524e-002, 6.83103278e-002, 2.39919767e-001,
          2.64281183e-001, 2.64281183e-001, 2.64281183e-001,
          5.46704140e-003, 1.17868383e-003, 4.18508454e-004,
          4.39640954e-002 ]
      - [ 1.12910688e-001, 7.46130571e-002, 8.37990940e-002,
          7.11377189e-002, 8.73029698e-003, 0., 0., 2.23091411e-004,
          3.82222161e-002, 2.68293381e-001, 2.80838937e-001,
          2.87154555e-001, 2.68599629e-001, 2.26062108e-002, 0., 0.,
          3.34637123e-003, 8.25871304e-002, 2.02642918e-001,
          2.87154555e-001, 2.87154555e-001, 2.87154555e-001,
          4.12296839e-002, 0., 4.86553321e-003, 4.46042791e-003,
          6.75524697e-002, 2.87154555e-001, 2.87154555e-001,
          2.87154555e-001, 2.87154555e-001, 4.07271311e-002, 0.,
          6.25568535e-003, 2.02625357e-002, 1.60352200e-001,
          8.03337023e-002, 2.90888160e-001, 2.90888160e-001,
          2.84901083e-001, 4.70125899e-002, 4.85133845e-003,
          2.87363888e-003, 3.51279229e-003, 3.54966298e-002,
          6.27696216e-002, 1.82896972e-001, 2.90888160e-001,
          1.85116708e-001, 2.90888160e-001, 9.21107531e-002,
          4.71080169e-002, 2.61068810e-002, 1.00300141e-001,
          1.13330029e-001, 2.90888160e-001, 2.90888160e-001,
          2.90888160e-001, 8.76413956e-002, 2.19564233e-003,
          1.59880368e-003, 8.91125761e-003, 4.55854163e-002,
          2.27620676e-002, 1.54242605e-001, 2.43778214e-001,
          1.58143520e-001, 2.90888160e-001, 4.85054553e-002,
          1.63643379e-002, 7.68183917e-003, 4.25385647e-002,
          2.68857572e-002, 2.17276029e-002, 4.01413105e-002,
          2.79905349e-002, 4.93556887e-001, 8.65537450e-002,
          3.90481502e-002, 2.04718634e-002, 5.28454669e-002,
          1.35058135e-005, 0., 0., 0., 4.93556887e-001, 2.87900446e-003,
          4.63180273e-004, 2.03692005e-004, 1.38759700e-004,
          7.31089013e-003, 1.52557949e-002, 2.50908621e-002,
          2.37740707e-002, 4.93556887e-001, 5.14585376e-002,
          1.37486914e-002, 5.53607009e-003, 1.75729208e-002,
          4.42766678e-003, 0., 0., 8.77536222e-005, 4.93556887e-001,
          1.20393885e-002, 2.01864261e-003, 2.21796939e-003,
          4.43601748e-003, 1.79567769e-001, 2.80100465e-001,
          2.80100465e-001, 2.80100465e-001, 8.16414803e-002,
          5.54548949e-002, 4.35641818e-002, 2.14392878e-002,
          1.03135347e-001, 2.80100465e-001, 2.80100465e-001,
          2.80100465e-001, 2.68788874e-001, 5.95310852e-002,
          3.30505148e-002, 4.52149585e-002, 3.34117487e-002,
          2.80100465e-001, 1.53541893e-001, 1.15994930e-001,
          1.66795060e-001, 1.25228122e-001, 7.67882764e-002,
          8.18399042e-002, 7.18038827e-002, 4.69670668e-002,
          1.74573064e-001, 2.80100465e-001, 6.31230846e-002,
          8.32719952e-002, 5.88093325e-002, 4.00868654e-002,
          4.72847708e-002, 6.54582232e-002, 5.10015562e-002,
          2.80100465e-001, 2.98809856e-001, 2.19628781e-001,
          2.86490291e-001, 2.08396539e-001, 9.36663672e-002, 0.,
          4.04704269e-003, 1.34571446e-002, 2.64634460e-001,
          1.82423368e-001, 1.11974500e-001, 1.21914439e-001,
          1.72412440e-001, 2.98809856e-001, 2.05810554e-003,
          8.00888574e-006, 1.93419005e-003, 1.38346359e-001,
          2.98809856e-001, 4.53225486e-002, 4.18525673e-002,
          3.93671617e-002, 2.14821622e-002, 0., 4.28132480e-003,
          9.98405833e-003, 2.98809856e-001, 2.98809856e-001,
          1.04696997e-001, 8.24059695e-002, 1.40530527e-001,
          2.38396063e-001, 3.97613505e-003, 3.47051719e-005,
          1.50437001e-003, 2.96635151e-001, 4.17669304e-002,
          3.04181352e-002, 3.23928557e-002, 9.34293419e-002,
          3.78563374e-001, 7.49475285e-002, 3.38180140e-002,
          2.30492037e-002, 4.86753359e-002, 1.65961668e-001,
          4.53210741e-005, 2.60690955e-004, 2.26229639e-003,
          3.78563374e-001, 1.06607489e-001, 6.52173311e-002,
          5.53756170e-002, 2.48100415e-001, 1.16792172e-001,
          5.61073832e-002, 5.74280545e-002, 1.10058136e-001,
          3.78563374e-001, 8.88531953e-002, 5.64913489e-002,
          5.01815006e-002, 1.27939373e-001, 3.73099059e-001,
          1.96391309e-004, 8.62838293e-004, 3.34647228e-003,
          2.41464332e-001, 1.15888827e-001, 9.69329178e-002,
          1.02773078e-001, 3.78563374e-001, 2.90250063e-001,
          8.87496863e-003, 1.02339834e-002, 9.68911219e-003,
          1.12202130e-002, 1.62866078e-002, 1.83205642e-002,
          1.57169905e-002, 3.09842974e-001, 3.68392557e-001,
          1.04043836e-004, 0., 0., 3.86939547e-003, 9.07398667e-003,
          1.49598559e-002, 1.48672983e-002, 3.68392557e-001,
          3.68392557e-001, 0., 0., 0., 0., 0., 0., 0., 3.68392557e-001,
          3.68392557e-001, 0., 0., 0., 0., 0., 0., 0., 3.68392557e-001,
          3.23597759e-001, 4.31742705e-003, 1.45141943e-003,
          5.93470293e-004, 9.58290038e-005, 4.70223342e-004,
          3.14272917e-003, 6.05432363e-003, 3.23597759e-001,
          2.93054014e-001, 3.00184153e-002, 2.11714972e-002,
          1.94823258e-002, 1.94700100e-002, 2.09949594e-002,
          3.21012288e-002, 3.82652655e-002, 3.04021329e-001,
          3.23597759e-001, 0., 0., 0., 3.70693468e-002, 1.03383213e-002,
          2.04608720e-002, 2.15844028e-002, 3.23597759e-001,
          3.23597759e-001, 0., 0., 5.51881501e-003, 3.23597759e-001,
          1.84836268e-001, 1.66176781e-001, 1.27130300e-001,
          3.23597759e-001, 1.26095071e-001, 4.58959900e-002,
          3.49168628e-002, 3.71204279e-002, 5.01842685e-002,
          3.69898118e-002, 4.11668494e-002, 4.23704050e-002,
          1.29884914e-001, 3.42802256e-001, 5.09097427e-002,
          2.41239984e-002, 2.19211113e-002, 2.44969483e-002,
          1.76225714e-002, 2.29935907e-002, 3.18037942e-002,
          3.42802256e-001, 1.72528163e-001, 8.98655504e-002,
          8.12328160e-002, 1.46719322e-001, 3.42802256e-001,
          1.69975802e-001, 1.15111537e-001, 7.35997930e-002,
          1.69776335e-001, 3.42802256e-001, 1.93676859e-001,
          1.31088510e-001, 2.08471745e-001, 3.42802256e-001,
          5.65570220e-003, 1.20543130e-003, 0., 3.42802256e-001 ]
      - [ 1.12910688e-001, 7.46130571e-002, 8.37990940e-002,
          7.11377189e-002, 8.73029698e-003, 0., 0., 2.23091411e-004,
          3.82222161e-002, 2.68293381e-001, 2.80838937e-001,
          2.87154555e-001, 2.68599629e-001, 2.26062108e-002, 0., 0.,
          3.34637123e-003, 8.25871304e-002, 2.02642918e-001,
          2.87154555e-001, 2.87154555e-001, 2.87154555e-001,
          4.12296839e-002, 0., 4.86553321e-003, 4.46042791e-003,
          6.75524697e-002, 2.87154555e-001, 2.87154555e-001,
          2.87154555e-001, 2.87154555e-001, 4.07271311e-002, 0.,
          6.25568535e-003, 2.02625357e-002, 1.60352200e-001,
          8.03337023e-002, 2.90888160e-001, 2.90888160e-001,
          2.84901083e-001, 4.70125899e-002, 4.85133845e-003,
          2.87363888e-003, 3.51279229e-003, 3.54966298e-002,
          6.27696216e-002, 1.82896972e-001, 2.90888160e-001,
          1.85116708e-001, 2.90888160e-001, 9.21107531e-002,
          4.71080169e-002, 2.61068810e-002, 1.00300141e-001,
          1.13330029e-001, 2.90888160e-001, 2.90888160e-001,
          2.90888160e-001, 8.76413956e-002, 2.19564233e-003,
          1.59880368e-003, 8.91125761e-003, 4.55854163e-002,
          2.27620676e-002, 1.54242605e-001, 2.43778214e-001,
          1.58143520e-001, 2.90888160e-001, 4.85054553e-002,
          1.63643379e-002, 7.68183917e-003, 4.25385647e-002,
          2.68857572e-002, 2.17276029e-002, 4.01413105e-002,
          2.79905349e-002, 4.93556887e-001, 8.65537450e-002,
          3.90481502e-002, 2.04718634e-002, 5.28454669e-002,
          1.35058135e-005, 0., 0., 0., 4.93556887e-001, 2.87900446e-003,
          4.63180273e-004, 2.03692005e-004, 1.38759700e-004,
          7.31089013e-003, 1.52557949e-002, 2.50908621e-002,
          2.37740707e-002, 4.93556887e-001, 5.14585376e-002,
          1.37486914e-002, 5.53607009e-003, 1.75729208e-002,
          4.42766678e-003, 0., 0., 8.77536222e-005, 4.93556887e-001,
          1.20393885e-002, 2.01864261e-003, 2.21796939e-003,
          4.43601748e-003, 1.79567769e-001, 2.80100465e-001,
          2.80100465e-001, 2.80100465e-001, 8.16414803e-002,
          5.54548949e-002, 4.35641818e-002, 2.14392878e-002,
          1.03135347e-001, 2.80100465e-001, 2.80100465e-001,
          2.80100465e-001, 2.68788874e-001, 5.95310852e-002,
          3.30505148e-002, 4.52149585e-002, 3.34117487e-002,
          2.80100465e-001, 1.53541893e-001, 1.15994930e-001,
          1.66795060e-001, 1.25228122e-001, 7.67882764e-002,
          8.18399042e-002, 7.18038827e-002, 4.69670668e-002,
          1.74573064e-001, 2.80100465e-001, 6.31230846e-002,
          8.32719952e-002, 5.88093325e-002, 4.00868654e-002,
          4.72847708e-002, 6.54582232e-002, 5.10015562e-002,
          2.80100465e-001, 2.98809856e-001, 2.19628781e-001,
          2.86490291e-001, 2.08396539e-001, 9.36663672e-002, 0.,
          4.04704269e-003, 1.34571446e-002, 2.64634460e-001,
          1.82423368e-001, 1.11974500e-001, 1.21914439e-001,
          1.72412440e-001, 2.98809856e-001, 2.05810554e-003,
          8.00888574e-006, 1.93419005e-003, 1.38346359e-001,
          2.98809856e-001, 4.53225486e-002, 4.18525673e-002,
          3.93671617e-002, 2.14821622e-002, 0., 4.28132480e-003,
          9.98405833e-003, 2.98809856e-001, 2.98809856e-001,
          1.04696997e-001, 8.24059695e-002, 1.40530527e-001,
          2.38396063e-001, 3.97613505e-003, 3.47051719e-005,
          1.50437001e-003, 2.96635151e-001, 4.17669304e-002,
          3.04181352e-002, 3.23928557e-002, 9.34293419e-002,
          3.78563374e-001, 7.49475285e-002, 3.38180140e-002,
          2.30492037e-002, 4.86753359e-002, 1.65961668e-001,
          4.53210741e-005, 2.60690955e-004, 2.26229639e-003,
          3.78563374e-001, 1.06607489e-001, 6.52173311e-002,
          5.53756170e-002, 2.48100415e-001, 1.16792172e-001,
          5.61073832e-002, 5.74280545e-002, 1.10058136e-001,
          3.78563374e-001, 8.88531953e-002, 5.64913489e-002,
          5.01815006e-002, 1.27939373e-001, 3.73099059e-001,
          1.96391309e-004, 8.62838293e-004, 3.34647228e-003,
          2.41464332e-001, 1.15888827e-001, 9.69329178e-002,
          1.02773078e-001, 3.78563374e-001, 2.90250063e-001,
          8.87496863e-003, 1.02339834e-002, 9.68911219e-003,
          1.12202130e-002, 1.62866078e-002, 1.83205642e-002,
          1.57169905e-002, 3.09842974e-001, 3.68392557e-001,
          1.04043836e-004, 0., 0., 3.86939547e-003, 9.07398667e-003,
          1.49598559e-002, 1.48672983e-002, 3.68392557e-001,
          3.68392557e-001, 0., 0., 0., 0., 0., 0., 0., 3.68392557e-001,
          3.68392557e-001, 0., 0., 0., 0., 0., 0., 0., 3.68392557e-001,
          3.23597759e-001, 4.31742705e-003, 1.45141943e-003,
          5.93470293e-004, 9.58290038e-005, 4.70223342e-004,
          3.14272917e-003, 6.05432363e-003, 3.23597759e-001,
          2.93054014e-001, 3.00184153e-002, 2.11714972e-002,
          1.94823258e-002, 1.94700100e-002, 2.09949594e-002,
          3.21012288e-002, 3.82652655e-002, 3.04021329e-001,
          3.23597759e-001, 0., 0., 0., 3.70693468e-002, 1.03383213e-002,
          2.04608720e-002, 2.15844028e-002, 3.23597759e-001,
          3.23597759e-001, 0., 0., 5.51881501e-003, 3.23597759e-001,
          1.84836268e-001, 1.66176781e-001, 1.27130300e-001,
          3.23597759e-001, 1.26095071e-001, 4.58959900e-002,
          3.49168628e-002, 3.71204279e-002, 5.01842685e-002,
          3.69898118e-002, 4.11668494e-002, 4.23704050e-002,
          1.29884914e-001, 3.42802256e-001, 5.09097427e-002,
          2.41239984e-002, 2.19211113e-002, 2.44969483e-002,
          1.76225714e-002, 2.29935907e-002, 3.18037942e-002,
          3.42802256e-001, 1.72528163e-001, 8.98655504e-002,
          8.12328160e-002, 1.46719322e-001, 3.42802256e-001,
          1.69975802e-001, 1.15111537e-001, 7.35997930e-002,
          1.69776335e-001, 3.42802256e-001, 1.93676859e-001,
          1.31088510e-001, 2.08471745e-001, 3.42802256e-001,
          5.65570220e-003, 1.20543130e-003, 0., 3.42802256e-001 ]
      - [ 2.03185901e-001, 8.89780372e-002, 7.95639679e-002,
          1.01887107e-001, 1.19360901e-001, 4.86090481e-002,
          3.84275205e-002, 5.33241779e-002, 1.58142075e-001,
          1.21107921e-001, 2.77205501e-002, 1.61154959e-002,
          1.42045300e-002, 4.33686644e-001, 1.32446855e-001,
          8.51568952e-002, 8.59165788e-002, 1.56109720e-001,
          1.58490121e-001, 1.00158945e-001, 1.01284064e-001,
          2.10864067e-001, 4.33686644e-001, 1.11688808e-001,
          4.89034764e-002, 6.09972440e-002, 1.20952524e-001,
          9.60680023e-002, 3.71781774e-002, 2.41947696e-002,
          3.76935229e-002, 4.33686644e-001, 2.82931596e-001,
          9.97103006e-002, 8.86757225e-002, 1.16440289e-001,
          3.32681416e-003, 0., 0., 0., 4.91071850e-001, 3.86184566e-002,
          2.07920149e-002, 1.59370825e-002, 1.48630915e-002,
          3.92912152e-005, 0., 0., 0., 4.91071850e-001, 3.74847488e-003,
          0., 0., 3.92912152e-005, 1.67166872e-003, 0., 0., 0.,
          4.91071850e-001, 1.41147390e-001, 5.63368760e-002,
          2.57730000e-002, 9.50388797e-003, 1.62543298e-003, 0., 0.,
          6.07314229e-004, 4.91071850e-001, 4.97653410e-002,
          3.81532721e-002, 1.65378042e-002, 1.62543298e-003,
          2.50576739e-003, 0., 8.73401441e-005, 1.10930894e-004,
          2.55711049e-001, 1.33954197e-001, 1.29035279e-001,
          5.11659160e-002, 2.96915090e-003, 2.62847953e-002,
          3.70822521e-003, 1.31010218e-003, 1.52646843e-002,
          4.46027905e-001, 4.45805699e-001, 3.83967906e-001,
          1.53005496e-001, 5.37842214e-002, 3.08626844e-003,
          1.19677577e-002, 2.14130413e-002, 2.79198401e-002,
          3.08952391e-001, 2.02033222e-002, 1.40434373e-002,
          9.71367117e-003, 3.08626844e-003, 7.55506521e-003,
          2.13416424e-002, 5.27599268e-002, 1.19873434e-001,
          4.46027905e-001, 7.32877776e-002, 2.59271190e-002,
          1.55140487e-002, 1.13823377e-002, 8.71741120e-003,
          8.46053753e-003, 9.93784610e-003, 3.41495648e-002,
          4.48384136e-001, 3.18098180e-002, 6.91203168e-003,
          5.44668594e-003, 7.13166362e-003, 7.04951631e-003,
          3.79113364e-003, 2.92944815e-003, 7.45067094e-003,
          4.48384136e-001, 1.22215338e-001, 4.51815426e-002,
          2.01079585e-002, 6.96672685e-003, 2.60542147e-004, 0., 0., 0.,
          4.48384136e-001, 6.19242266e-002, 3.91125157e-002,
          1.09827193e-002, 2.60542147e-004, 3.48433247e-003, 0., 0.,
          4.97993373e-004, 4.48384136e-001, 2.86441147e-001,
          2.72845566e-001, 9.60068181e-002, 2.84127565e-003,
          3.40567250e-003, 0., 0., 4.52658074e-004, 2.90016830e-001,
          2.43007541e-001, 1.90451086e-001, 6.53921589e-002,
          3.30250640e-003, 2.89790910e-002, 1.69171928e-003,
          2.05667363e-003, 5.78249805e-003, 2.90016830e-001,
          2.19605714e-001, 1.90499917e-001, 6.92501292e-002,
          2.61801705e-002, 1.41095277e-002, 0., 0., 9.95847746e-004,
          2.90016830e-001, 2.90016830e-001, 2.90016830e-001,
          1.50921449e-001, 2.75978241e-002, 2.60496855e-001,
          1.67686995e-002, 9.11290199e-003, 9.35645867e-003,
          1.25234008e-001, 2.90016830e-001, 2.90016830e-001,
          1.61213517e-001, 2.90016830e-001, 4.27367724e-002,
          4.97514829e-002, 1.19256660e-001, 1.50125220e-001,
          1.56771332e-001, 3.65273915e-002, 2.47162674e-002,
          1.17589552e-002, 3.19934376e-002, 1.96008533e-002,
          1.08149573e-001, 2.89370239e-001, 2.89370239e-001,
          2.89370239e-001, 1.52323453e-003, 0., 3.56853765e-004,
          1.17539754e-002, 2.89370239e-001, 1.32619113e-001,
          2.06228107e-001, 2.89370239e-001, 7.58382529e-002,
          8.95251408e-002, 5.44050299e-002, 4.73365262e-002,
          2.89370239e-001, 1.61591679e-001, 2.24518552e-001,
          2.89370239e-001, 2.89370239e-001, 2.89370239e-001,
          3.35111609e-003, 0., 1.54636637e-003, 8.31066966e-002,
          8.89989838e-004, 0., 0., 0., 4.19781178e-001, 4.16154191e-002,
          4.12862450e-002, 1.60330888e-002, 8.89989838e-004,
          3.07927351e-003, 0., 0., 1.39635042e-004, 4.19781178e-001,
          2.98571348e-001, 2.69207865e-001, 9.34699550e-002,
          4.35937708e-003, 4.27721418e-004, 0., 0., 0., 4.19781178e-001,
          7.88441859e-003, 4.26721806e-003, 2.57840124e-003,
          4.27721418e-004, 2.49333377e-003, 0., 0., 0., 4.19781178e-001,
          2.79433638e-001, 1.81349128e-001, 7.55515248e-002,
          9.56839230e-003, 1.88995786e-002, 0., 0., 3.40810599e-004,
          3.12917948e-001, 3.12917948e-001, 3.02410811e-001,
          1.25808969e-001, 5.19001149e-002, 3.12917948e-001,
          1.64707862e-002, 5.24518779e-003, 2.69533624e-003,
          1.14271484e-001, 2.08611414e-001, 1.51259258e-001,
          1.35197133e-001, 3.12917948e-001, 7.60560529e-003, 0., 0., 0.,
          3.12917948e-001, 3.12917948e-001, 3.12917948e-001,
          1.76138505e-001, 3.33268195e-002, 4.70354185e-002,
          3.86495551e-004, 0., 0., 1.84779540e-001, 1.24923855e-001,
          1.06350541e-001, 5.54182865e-002, 6.73915669e-002,
          3.20757002e-001, 1.17882743e-001, 1.09265722e-001,
          1.40476540e-001, 3.07841655e-002, 4.29882556e-002,
          3.41186598e-002, 4.57542017e-002, 3.20757002e-001,
          2.12431625e-001, 1.81107387e-001, 2.71573722e-001,
          3.20757002e-001, 3.20757002e-001, 1.14273489e-003, 0.,
          8.69392068e-004, 1.11235574e-001, 7.11764768e-002,
          1.54385725e-002, 2.32129321e-002, 3.93718295e-002,
          8.15078914e-002, 2.25899508e-004, 1.10688887e-003,
          2.42731441e-003, 6.20917045e-002, 3.46930586e-002,
          2.03337193e-001, 3.20757002e-001, 3.20757002e-001,
          3.20757002e-001, 0., 0., 0., 2.17630230e-002 ]
      - [ 2.03185901e-001, 8.89780372e-002, 7.95639679e-002,
          1.01887107e-001, 1.19360901e-001, 4.86090481e-002,
          3.84275205e-002, 5.33241779e-002, 1.58142075e-001,
          1.21107921e-001, 2.77205501e-002, 1.61154959e-002,
          1.42045300e-002, 4.33686644e-001, 1.32446855e-001,
          8.51568952e-002, 8.59165788e-002, 1.56109720e-001,
          1.58490121e-001, 1.00158945e-001, 1.01284064e-001,
          2.10864067e-001, 4.33686644e-001, 1.11688808e-001,
          4.89034764e-002, 6.09972440e-002, 1.20952524e-001,
          9.60680023e-002, 3.71781774e-002, 2.41947696e-002,
          3.76935229e-002, 4.33686644e-001, 2.82931596e-001,
          9.97103006e-002, 8.86757225e-002, 1.16440289e-001,
          3.32681416e-003, 0., 0., 0., 4.91071850e-001, 3.86184566e-002,
          2.07920149e-002, 1.59370825e-002, 1.48630915e-002,
          3.92912152e-005, 0., 0., 0., 4.91071850e-001, 3.74847488e-003,
          0., 0., 3.92912152e-005, 1.67166872e-003, 0., 0., 0.,
          4.91071850e-001, 1.41147390e-001, 5.63368760e-002,
          2.57730000e-002, 9.50388797e-003, 1.62543298e-003, 0., 0.,
          6.07314229e-004, 4.91071850e-001, 4.97653410e-002,
          3.81532721e-002, 1.65378042e-002, 1.62543298e-003,
          2.50576739e-003, 0., 8.73401441e-005, 1.10930894e-004,
          2.55711049e-001, 1.33954197e-001, 1.29035279e-001,
          5.11659160e-002, 2.96915090e-003, 2.62847953e-002,
          3.70822521e-003, 1.31010218e-003, 1.52646843e-002,
          4.46027905e-001, 4.45805699e-001, 3.83967906e-001,
          1.53005496e-001, 5.37842214e-002, 3.08626844e-003,
          1.19677577e-002, 2.14130413e-002, 2.79198401e-002,
          3.08952391e-001, 2.02033222e-002, 1.40434373e-002,
          9.71367117e-003, 3.08626844e-003, 7.55506521e-003,
          2.13416424e-002, 5.27599268e-002, 1.19873434e-001,
          4.46027905e-001, 7.32877776e-002, 2.59271190e-002,
          1.55140487e-002, 1.13823377e-002, 8.71741120e-003,
          8.46053753e-003, 9.93784610e-003, 3.41495648e-002,
          4.48384136e-001, 3.18098180e-002, 6.91203168e-003,
          5.44668594e-003, 7.13166362e-003, 7.04951631e-003,
          3.79113364e-003, 2.92944815e-003, 7.45067094e-003,
          4.48384136e-001, 1.22215338e-001, 4.51815426e-002,
          2.01079585e-002, 6.96672685e-003, 2.60542147e-004, 0., 0., 0.,
          4.48384136e-001, 6.19242266e-002, 3.91125157e-002,
          1.09827193e-002, 2.60542147e-004, 3.48433247e-003, 0., 0.,
          4.97993373e-004, 4.48384136e-001, 2.86441147e-001,
          2.72845566e-001, 9.60068181e-002, 2.84127565e-003,
          3.40567250e-003, 0., 0., 4.52658074e-004, 2.90016830e-001,
          2.43007541e-001, 1.90451086e-001, 6.53921589e-002,
          3.30250640e-003, 2.89790910e-002, 1.69171928e-003,
          2.05667363e-003, 5.78249805e-003, 2.90016830e-001,
          2.19605714e-001, 1.90499917e-001, 6.92501292e-002,
          2.61801705e-002, 1.41095277e-002, 0., 0., 9.95847746e-004,
          2.90016830e-001, 2.90016830e-001, 2.90016830e-001,
          1.50921449e-001, 2.75978241e-002, 2.60496855e-001,
          1.67686995e-002, 9.11290199e-003, 9.35645867e-003,
          1.25234008e-001, 2.90016830e-001, 2.90016830e-001,
          1.61213517e-001, 2.90016830e-001, 4.27367724e-002,
          4.97514829e-002, 1.19256660e-001, 1.50125220e-001,
          1.56771332e-001, 3.65273915e-002, 2.47162674e-002,
          1.17589552e-002, 3.19934376e-002, 1.96008533e-002,
          1.08149573e-001, 2.89370239e-001, 2.89370239e-001,
          2.89370239e-001, 1.52323453e-003, 0., 3.56853765e-004,
          1.17539754e-002, 2.89370239e-001, 1.32619113e-001,
          2.06228107e-001, 2.89370239e-001, 7.58382529e-002,
          8.95251408e-002, 5.44050299e-002, 4.73365262e-002,
          2.89370239e-001, 1.61591679e-001, 2.24518552e-001,
          2.89370239e-001, 2.89370239e-001, 2.89370239e-001,
          3.35111609e-003, 0., 1.54636637e-003, 8.31066966e-002,
          8.89989838e-004, 0., 0., 0., 4.19781178e-001, 4.16154191e-002,
          4.12862450e-002, 1.60330888e-002, 8.89989838e-004,
          3.07927351e-003, 0., 0., 1.39635042e-004, 4.19781178e-001,
          2.98571348e-001, 2.69207865e-001, 9.34699550e-002,
          4.35937708e-003, 4.27721418e-004, 0., 0., 0., 4.19781178e-001,
          7.88441859e-003, 4.26721806e-003, 2.57840124e-003,
          4.27721418e-004, 2.49333377e-003, 0., 0., 0., 4.19781178e-001,
          2.79433638e-001, 1.81349128e-001, 7.55515248e-002,
          9.56839230e-003, 1.88995786e-002, 0., 0., 3.40810599e-004,
          3.12917948e-001, 3.12917948e-001, 3.02410811e-001,
          1.25808969e-001, 5.19001149e-002, 3.12917948e-001,
          1.64707862e-002, 5.24518779e-003, 2.69533624e-003,
          1.14271484e-001, 2.08611414e-001, 1.51259258e-001,
          1.35197133e-001, 3.12917948e-001, 7.60560529e-003, 0., 0., 0.,
          3.12917948e-001, 3.12917948e-001, 3.12917948e-001,
          1.76138505e-001, 3.33268195e-002, 4.70354185e-002,
          3.86495551e-004, 0., 0., 1.84779540e-001, 1.24923855e-001,
          1.06350541e-001, 5.54182865e-002, 6.73915669e-002,
          3.20757002e-001, 1.17882743e-001, 1.09265722e-001,
          1.40476540e-001, 3.07841655e-002, 4.29882556e-002,
          3.41186598e-002, 4.57542017e-002, 3.20757002e-001,
          2.12431625e-001, 1.81107387e-001, 2.71573722e-001,
          3.20757002e-001, 3.20757002e-001, 1.14273489e-003, 0.,
          8.69392068e-004, 1.11235574e-001, 7.11764768e-002,
          1.54385725e-002, 2.32129321e-002, 3.93718295e-002,
          8.15078914e-002, 2.25899508e-004, 1.10688887e-003,
          2.42731441e-003, 6.20917045e-002, 3.46930586e-002,
          2.03337193e-001, 3.20757002e-001, 3.20757002e-001,
          3.20757002e-001, 0., 0., 0., 2.17630230e-002 ]
      - [ 2.17530176e-001, 2.63721496e-001, 2.63721496e-001,
          2.63721496e-001, 6.39746189e-002, 0., 0., 0., 9.07692164e-002,
          2.63721496e-001, 1.59901410e-001, 1.35898009e-001,
          1.41396970e-001, 9.71889198e-002, 9.12201684e-003,
          1.19097885e-002, 2.11423505e-002, 1.71478853e-001,
          8.33951905e-002, 2.63721496e-001, 2.63721496e-001,
          2.63721496e-001, 6.55966252e-002, 1.67448446e-003,
          1.00193945e-004, 0., 3.14442590e-002, 2.63721496e-001,
          2.63721496e-001, 2.63721496e-001, 2.63721496e-001,
          1.44402102e-001, 4.29630540e-002, 3.19300853e-002,
          5.49222119e-002, 1.73604384e-001, 1.69158950e-001,
          4.77953926e-002, 4.09259610e-002, 4.93871123e-002,
          6.91899881e-002, 4.15901802e-002, 4.37069647e-002,
          5.70026971e-002, 1.62768498e-001, 1.27582163e-001,
          6.74834624e-002, 5.46680950e-002, 6.04637191e-002,
          5.15181981e-002, 3.10940072e-002, 2.48378590e-002,
          2.78582871e-002, 9.38230529e-002, 2.68376440e-001,
          2.68376440e-001, 2.68376440e-001, 2.68376440e-001,
          2.68376440e-001, 1.65499076e-001, 1.14711575e-001,
          1.34784982e-001, 2.53703982e-001, 2.51489967e-001,
          2.68376440e-001, 2.68376440e-001, 2.68376440e-001,
          2.68376440e-001, 1.16193049e-001, 7.25202635e-002,
          6.55954480e-002, 1.58799842e-001, 1.44488111e-001,
          4.60780896e-002, 3.03569548e-002, 2.60891188e-002,
          6.46554455e-002, 1.08811066e-001, 1.15851492e-001,
          9.30414274e-002, 1.36375576e-001, 5.86951263e-002,
          7.49169942e-003, 2.96522933e-003, 2.91686156e-003,
          9.45092738e-002, 2.77306259e-001, 2.77306259e-001,
          2.77306259e-001, 9.81601775e-002, 2.61479557e-001,
          1.84104294e-001, 2.11635187e-001, 2.10993797e-001,
          7.87014216e-002, 2.09028736e-001, 2.08515003e-001,
          1.57967836e-001, 2.39178598e-001, 1.02947854e-001,
          2.09753010e-002, 9.31942835e-003, 9.24220961e-003,
          1.50608957e-001, 2.77306259e-001, 2.77306259e-001,
          2.77306259e-001, 1.77365601e-001, 3.83036621e-002,
          2.19103754e-001, 3.08317423e-001, 2.90423602e-001,
          1.32756293e-001, 3.45168356e-003, 2.06533892e-004, 0.,
          7.24728638e-003, 7.67336413e-002, 2.73104817e-001,
          3.32278520e-001, 3.32278520e-001, 3.32278520e-001,
          2.64965370e-002, 7.56781083e-003, 1.18636191e-002,
          2.50809528e-002, 1.91185307e-002, 1.22279175e-001,
          1.77947864e-001, 1.96157753e-001, 3.32278520e-001,
          1.13713583e-002, 1.51721621e-003, 0., 1.88406871e-003,
          1.83576997e-002, 7.48777688e-002, 1.06183276e-001,
          1.13445610e-001, 3.32278520e-001, 1.93410926e-002,
          1.05378067e-003, 0., 1.96747901e-003, 5.56886122e-002,
          1.86416373e-001, 2.37486064e-001, 2.35172346e-001,
          3.13991606e-001, 6.82928413e-002, 2.91577820e-002,
          2.53589433e-002, 2.99635101e-002, 5.47115281e-002,
          2.06126824e-001, 2.71758288e-001, 2.55420536e-001,
          3.13991606e-001, 7.75480866e-002, 5.13462164e-002,
          3.48493047e-002, 3.18385847e-002, 8.43493454e-003,
          2.62937024e-002, 3.66003439e-002, 5.26570603e-002,
          3.13991606e-001, 9.95792449e-002, 6.29878119e-002,
          4.67282198e-002, 9.18450020e-003, 3.72063220e-002,
          3.25986035e-002, 4.18804362e-002, 4.82171141e-002,
          3.13991606e-001, 2.93126583e-001, 2.91819155e-001,
          2.19335631e-001, 6.07685149e-002, 7.48651475e-002,
          1.28318250e-001, 1.73253715e-001, 1.59100205e-001,
          1.99916691e-001, 1.46790773e-001, 1.67135432e-001,
          1.09494530e-001, 7.35667124e-002, 3.43465805e-002,
          3.30898650e-002, 5.74977435e-002, 7.34703466e-002,
          2.62348980e-001, 2.62348980e-001, 2.62348980e-001,
          2.13209748e-001, 5.54715097e-002, 9.93264243e-002,
          1.33539364e-001, 2.02006504e-001, 1.81174338e-001,
          2.10934564e-001, 2.00444371e-001, 2.11025506e-001,
          1.58334196e-001, 1.02438413e-001, 5.45597300e-002,
          2.50407398e-001, 2.62348980e-001, 2.62348980e-001,
          2.62348980e-001, 6.56636432e-002, 5.07505089e-002,
          2.91349795e-002, 3.37649509e-002, 1.36380829e-002,
          1.22331176e-002, 1.69231929e-002, 4.19043005e-002,
          3.19950074e-001, 1.41999826e-001, 1.25971124e-001,
          7.89331123e-002, 2.05925796e-002, 5.49902394e-003,
          5.36210835e-003, 6.98360335e-003, 9.22646932e-003,
          3.19950074e-001, 1.67505324e-001, 1.02401175e-001,
          7.65687972e-002, 7.34342588e-003, 1.44723803e-001,
          8.74335393e-002, 3.19380090e-002, 1.01323895e-001,
          3.19950074e-001, 2.89682835e-001, 3.19950074e-001,
          1.94691479e-001, 1.62225813e-001, 4.05728035e-002,
          3.70771103e-002, 2.41283048e-002, 6.35043830e-002,
          3.19950074e-001, 3.06454360e-001, 2.69222707e-001,
          1.80077165e-001, 2.77668741e-002, 3.10511841e-003,
          1.54213631e-005, 4.61464188e-005, 1.48333653e-004,
          2.79197454e-001, 2.15179116e-001, 1.56086326e-001,
          1.27156451e-001, 2.31958777e-002, 8.15782845e-002,
          1.47489458e-002, 6.21515419e-003, 6.19907398e-003,
          1.68714643e-001, 2.79197454e-001, 2.79197454e-001,
          2.58774608e-001, 1.63289368e-001, 1.19312359e-002, 0., 0.,
          1.80305436e-003, 2.79197454e-001, 2.79197454e-001,
          2.79197454e-001, 2.79197454e-001, 2.68309247e-002,
          5.15598096e-002, 4.61028470e-003, 8.50655080e-004,
          2.94823694e-004, 1.52875423e-001, 2.72026002e-001,
          2.79197454e-001, 2.16222763e-001, 9.75180045e-002,
          2.50997990e-001, 1.68787375e-001, 2.15255052e-001,
          2.13411734e-001, 7.45778158e-002, 2.27027327e-001,
          2.26102024e-001, 2.03242436e-001, 2.50997990e-001,
          1.96214914e-001, 2.50997990e-001, 2.50997990e-001,
          2.50997990e-001, 1.33352444e-001, 5.01362560e-003,
          7.22862128e-003, 1.42046753e-002, 1.11770615e-001,
          1.67373061e-001, 5.57910502e-002, 4.88713458e-002,
          4.87014614e-002, 9.29065719e-002, 4.96787988e-002,
          5.65238185e-002, 7.15810359e-002, 1.83251619e-001,
          1.61186755e-001, 2.50997990e-001, 2.50997990e-001,
          2.50997990e-001, 1.77264899e-001, 2.02237075e-004,
          1.05769315e-003, 3.53208650e-003, 9.07284096e-002 ]
      - [ 2.17530176e-001, 2.63721496e-001, 2.63721496e-001,
          2.63721496e-001, 6.39746189e-002, 0., 0., 0., 9.07692164e-002,
          2.63721496e-001, 1.59901410e-001, 1.35898009e-001,
          1.41396970e-001, 9.71889198e-002, 9.12201684e-003,
          1.19097885e-002, 2.11423505e-002, 1.71478853e-001,
          8.33951905e-002, 2.63721496e-001, 2.63721496e-001,
          2.63721496e-001, 6.55966252e-002, 1.67448446e-003,
          1.00193945e-004, 0., 3.14442590e-002, 2.63721496e-001,
          2.63721496e-001, 2.63721496e-001, 2.63721496e-001,
          1.44402102e-001, 4.29630540e-002, 3.19300853e-002,
          5.49222119e-002, 1.73604384e-001, 1.69158950e-001,
          4.77953926e-002, 4.09259610e-002, 4.93871123e-002,
          6.91899881e-002, 4.15901802e-002, 4.37069647e-002,
          5.70026971e-002, 1.62768498e-001, 1.27582163e-001,
          6.74834624e-002, 5.46680950e-002, 6.04637191e-002,
          5.15181981e-002, 3.10940072e-002, 2.48378590e-002,
          2.78582871e-002, 9.38230529e-002, 2.68376440e-001,
          2.68376440e-001, 2.68376440e-001, 2.68376440e-001,
          2.68376440e-001, 1.65499076e-001, 1.14711575e-001,
          1.34784982e-001, 2.53703982e-001, 2.51489967e-001,
          2.68376440e-001, 2.68376440e-001, 2.68376440e-001,
          2.68376440e-001, 1.16193049e-001, 7.25202635e-002,
          6.55954480e-002, 1.58799842e-001, 1.44488111e-001,
          4.60780896e-002, 3.03569548e-002, 2.60891188e-002,
          6.46554455e-002, 1.08811066e-001, 1.15851492e-001,
          9.30414274e-002, 1.36375576e-001, 5.86951263e-002,
          7.49169942e-003, 2.96522933e-003, 2.91686156e-003,
          9.45092738e-002, 2.77306259e-001, 2.77306259e-001,
          2.77306259e-001, 9.81601775e-002, 2.61479557e-001,
          1.84104294e-001, 2.11635187e-001, 2.10993797e-001,
          7.87014216e-002, 2.09028736e-001, 2.08515003e-001,
          1.57967836e-001, 2.39178598e-001, 1.02947854e-001,
          2.09753010e-002, 9.31942835e-003, 9.24220961e-003,
          1.50608957e-001, 2.77306259e-001, 2.77306259e-001,
          2.77306259e-001, 1.77365601e-001, 3.83036621e-002,
          2.19103754e-001, 3.08317423e-001, 2.90423602e-001,
          1.32756293e-001, 3.45168356e-003, 2.06533892e-004, 0.,
          7.24728638e-003, 7.67336413e-002, 2.73104817e-001,
          3.32278520e-001, 3.32278520e-001, 3.32278520e-001,
          2.64965370e-002, 7.56781083e-003, 1.18636191e-002,
          2.50809528e-002, 1.91185307e-002, 1.22279175e-001,
          1.77947864e-001, 1.96157753e-001, 3.32278520e-001,
          1.13713583e-002, 1.51721621e-003, 0., 1.88406871e-003,
          1.83576997e-002, 7.48777688e-002, 1.06183276e-001,
          1.13445610e-001, 3.32278520e-001, 1.93410926e-002,
          1.05378067e-003, 0., 1.96747901e-003, 5.56886122e-002,
          1.86416373e-001, 2.37486064e-001, 2.35172346e-001,
          3.13991606e-001, 6.82928413e-002, 2.91577820e-002,
          2.53589433e-002, 2.99635101e-002, 5.47115281e-002,
          2.06126824e-001, 2.71758288e-001, 2.55420536e-001,
          3.13991606e-001, 7.75480866e-002, 5.13462164e-002,
          3.48493047e-002, 3.18385847e-002, 8.43493454e-003,
          2.62937024e-002, 3.66003439e-002, 5.26570603e-002,
          3.13991606e-001, 9.95792449e-002, 6.29878119e-002,
          4.67282198e-002, 9.18450020e-003, 3.72063220e-002,
          3.25986035e-002, 4.18804362e-002, 4.82171141e-002,
          3.13991606e-001, 2.93126583e-001, 2.91819155e-001,
          2.19335631e-001, 6.07685149e-002, 7.48651475e-002,
          1.28318250e-001, 1.73253715e-001, 1.59100205e-001,
          1.99916691e-001, 1.46790773e-001, 1.67135432e-001,
          1.09494530e-001, 7.35667124e-002, 3.43465805e-002,
          3.30898650e-002, 5.74977435e-002, 7.34703466e-002,
          2.62348980e-001, 2.62348980e-001, 2.62348980e-001,
          2.13209748e-001, 5.54715097e-002, 9.93264243e-002,
          1.33539364e-001, 2.02006504e-001, 1.81174338e-001,
          2.10934564e-001, 2.00444371e-001, 2.11025506e-001,
          1.58334196e-001, 1.02438413e-001, 5.45597300e-002,
          2.50407398e-001, 2.62348980e-001, 2.62348980e-001,
          2.62348980e-001, 6.56636432e-002, 5.07505089e-002,
          2.91349795e-002, 3.37649509e-002, 1.36380829e-002,
          1.22331176e-002, 1.69231929e-002, 4.19043005e-002,
          3.19950074e-001, 1.41999826e-001, 1.25971124e-001,
          7.89331123e-002, 2.05925796e-002, 5.49902394e-003,
          5.36210835e-003, 6.98360335e-003, 9.22646932e-003,
          3.19950074e-001, 1.67505324e-001, 1.02401175e-001,
          7.65687972e-002, 7.34342588e-003, 1.44723803e-001,
          8.74335393e-002, 3.19380090e-002, 1.01323895e-001,
          3.19950074e-001, 2.89682835e-001, 3.19950074e-001,
          1.94691479e-001, 1.62225813e-001, 4.05728035e-002,
          3.70771103e-002, 2.41283048e-002, 6.35043830e-002,
          3.19950074e-001, 3.06454360e-001, 2.69222707e-001,
          1.80077165e-001, 2.77668741e-002, 3.10511841e-003,
          1.54213631e-005, 4.61464188e-005, 1.48333653e-004,
          2.79197454e-001, 2.15179116e-001, 1.56086326e-001,
          1.27156451e-001, 2.31958777e-002, 8.15782845e-002,
          1.47489458e-002, 6.21515419e-003, 6.19907398e-003,
          1.68714643e-001, 2.79197454e-001, 2.79197454e-001,
          2.58774608e-001, 1.63289368e-001, 1.19312359e-002, 0., 0.,
          1.80305436e-003, 2.79197454e-001, 2.79197454e-001,
          2.79197454e-001, 2.79197454e-001, 2.68309247e-002,
          5.15598096e-002, 4.61028470e-003, 8.50655080e-004,
          2.94823694e-004, 1.52875423e-001, 2.72026002e-001,
          2.79197454e-001, 2.16222763e-001, 9.75180045e-002,
          2.50997990e-001, 1.68787375e-001, 2.15255052e-001,
          2.13411734e-001, 7.45778158e-002, 2.27027327e-001,
          2.26102024e-001, 2.03242436e-001, 2.50997990e-001,
          1.96214914e-001, 2.50997990e-001, 2.50997990e-001,
          2.50997990e-001, 1.33352444e-001, 5.01362560e-003,
          7.22862128e-003, 1.42046753e-002, 1.11770615e-001,
          1.67373061e-001, 5.57910502e-002, 4.88713458e-002,
          4.87014614e-002, 9.29065719e-002, 4.96787988e-002,
          5.65238185e-002, 7.15810359e-002, 1.83251619e-001,
          1.61186755e-001, 2.50997990e-001, 2.50997990e-001,
          2.50997990e-001, 1.77264899e-001, 2.02237075e-004,
          1.05769315e-003, 3.53208650e-003, 9.07284096e-002 ]
      - [ 0., 0., 0., 0., 5.97390592e-001, 0., 0., 0., 0.,
          1.67437938e-005, 0., 0., 7.84985095e-005, 3.36122036e-001, 0.,
          0., 0., 1.67437938e-005, 9.77193238e-004, 0., 0., 0.,
          5.97390592e-001, 0., 0., 0., 9.77193238e-004, 1.21845510e-002,
          1.46907829e-002, 2.84216031e-002, 2.36013401e-002,
          4.06815857e-001, 0., 0., 0., 8.71043187e-003, 2.95927729e-002,
          1.85088795e-002, 2.24497356e-002, 1.54495984e-002,
          9.20877047e-003, 0., 0., 0., 1.27740949e-002, 2.49922827e-001,
          1.40715420e-001, 1.80179000e-001, 1.89558148e-001,
          4.96543460e-002, 0., 0., 0., 9.14742500e-002, 1.00329176e-001,
          1.82270139e-001, 3.27948213e-001, 3.27948213e-001,
          1.02743708e-001, 1.09611523e-004, 0., 0., 3.79408151e-002,
          3.27948213e-001, 3.27948213e-001, 3.27948213e-001,
          3.27948213e-001, 1.57757729e-001, 4.74983244e-004, 0., 0.,
          3.27948213e-001, 2.53339767e-001, 1.50160208e-001,
          1.80540308e-001, 2.27850795e-001, 3.57477590e-002, 0., 0., 0.,
          9.91243571e-002, 2.53339767e-001, 2.40191624e-001,
          2.53339767e-001, 2.53339767e-001, 5.94662912e-002, 0., 0., 0.,
          1.77552581e-001, 2.53339767e-001, 2.48458192e-001,
          2.53339767e-001, 2.53339767e-001, 6.35382608e-002,
          8.84244437e-005, 0., 0., 1.78820223e-001, 2.53339767e-001,
          1.74249485e-001, 1.77678138e-001, 2.16162875e-001,
          5.01891486e-002, 0., 0., 0., 2.53339767e-001, 1.09278345e-002,
          1.23991361e-002, 1.19130341e-002, 1.36519587e-002,
          3.69631857e-001, 7.39597250e-004, 0., 0., 3.42820329e-003,
          1.43776149e-001, 8.72313604e-002, 9.04201865e-002,
          1.05894491e-001, 2.24028185e-001, 3.36180557e-004, 0., 0.,
          5.78972660e-002, 2.55969018e-002, 1.03105888e-001,
          1.60185963e-001, 1.56495199e-001, 3.69631857e-001,
          3.52216326e-002, 1.26603283e-002, 1.63033692e-004,
          9.29957442e-003, 3.35628659e-001, 2.89156079e-001,
          3.69631857e-001, 3.69631857e-001, 2.68150508e-001,
          1.22621749e-002, 4.56282264e-003, 2.44550547e-003,
          1.29259020e-001, 1.16736233e-001, 1.60649598e-001,
          2.54364341e-001, 2.54364341e-001, 6.22740723e-002,
          2.09196500e-004, 0., 0., 5.05529605e-002, 2.24783987e-001,
          2.26753503e-001, 2.54364341e-001, 2.54364341e-001,
          9.39210653e-002, 9.06518137e-004, 0., 0., 9.70881134e-002,
          2.54364341e-001, 2.47513548e-001, 2.54364341e-001,
          2.54364341e-001, 7.33858943e-002, 3.40681896e-003, 0.,
          1.33492518e-003, 1.53343752e-001, 2.54364341e-001,
          2.54364341e-001, 2.54364341e-001, 2.54364341e-001,
          1.08448207e-001, 1.45371060e-003, 0., 0., 1.33202389e-001,
          2.59555906e-001, 2.05784291e-001, 2.25160584e-001,
          2.59555906e-001, 6.96465299e-002, 3.99784185e-004, 0., 0.,
          1.39288172e-001, 2.59555906e-001, 1.50125086e-001,
          1.75504014e-001, 2.34617874e-001, 3.89538147e-002, 0., 0., 0.,
          2.59555906e-001, 2.59555906e-001, 2.59555906e-001,
          2.59555906e-001, 2.59555906e-001, 7.49189034e-002,
          3.10943258e-004, 0., 0., 1.43607780e-001, 2.59555906e-001,
          1.40031621e-001, 1.63455427e-001, 2.35522032e-001,
          3.75559032e-002, 0., 0., 0., 1.85581833e-001, 5.24260513e-002,
          1.39646903e-001, 2.19362944e-001, 2.14123651e-001,
          2.62404442e-001, 9.54659432e-002, 5.03750816e-002,
          2.79285796e-002, 1.72256585e-002, 2.49128416e-001,
          2.62404442e-001, 2.62404442e-001, 2.62404442e-001,
          1.27984270e-001, 1.93367787e-002, 1.11090606e-002,
          1.19401580e-002, 9.26672742e-002, 8.58416259e-002,
          1.51578158e-001, 2.42416918e-001, 2.62404442e-001,
          2.02729285e-001, 7.48882592e-002, 5.76979890e-002,
          4.86477427e-002, 4.43353914e-002, 2.62404442e-001,
          2.62404442e-001, 2.62404442e-001, 2.62404442e-001,
          9.13960561e-002, 1.32309739e-002, 9.59578715e-003,
          1.31913265e-002, 9.37027261e-002, 2.67588526e-001,
          2.67588526e-001, 2.67588526e-001, 2.67588526e-001,
          8.18169415e-002, 4.96135047e-003, 0., 5.04579674e-003,
          1.93321526e-001, 2.67588526e-001, 2.67588526e-001,
          2.67588526e-001, 2.67588526e-001, 7.77690038e-002,
          1.04100269e-003, 0., 0., 1.68642417e-001, 2.67588526e-001,
          2.28631631e-001, 2.60987133e-001, 2.67588526e-001,
          5.10343872e-002, 1.29147945e-003, 0., 2.29354412e-003,
          1.37339145e-001, 1.50853440e-001, 8.50106329e-002,
          1.08943038e-001, 1.24061778e-001, 2.84185763e-002,
          6.94001792e-005, 0., 0., 5.26465699e-002, 3.73058081e-001,
          3.73058081e-001, 3.73058081e-001, 3.73058081e-001,
          2.24427700e-001, 0., 0., 0., 3.73058081e-001, 3.28723937e-001,
          1.60340250e-001, 1.32306814e-001, 1.87307760e-001,
          6.46752417e-002, 0., 0., 0., 1.35338321e-001, 1.45612136e-001,
          7.71049485e-002, 7.86930621e-002, 5.16131409e-002,
          3.61925177e-002, 0., 0., 0., 6.19361810e-002, 8.15960811e-004,
          0., 1.68377580e-003, 3.08852759e-003, 4.73184790e-003, 0., 0.,
          0., 8.15960811e-004 ]
      - [ 0., 0., 0., 0., 5.97390592e-001, 0., 0., 0., 0.,
          1.67437938e-005, 0., 0., 7.84985095e-005, 3.36122036e-001, 0.,
          0., 0., 1.67437938e-005, 9.77193238e-004, 0., 0., 0.,
          5.97390592e-001, 0., 0., 0., 9.77193238e-004, 1.21845510e-002,
          1.46907829e-002, 2.84216031e-002, 2.36013401e-002,
          4.06815857e-001, 0., 0., 0., 8.71043187e-003, 2.95927729e-002,
          1.85088795e-002, 2.24497356e-002, 1.54495984e-002,
          9.20877047e-003, 0., 0., 0., 1.27740949e-002, 2.49922827e-001,
          1.40715420e-001, 1.80179000e-001, 1.89558148e-001,
          4.96543460e-002, 0., 0., 0., 9.14742500e-002, 1.00329176e-001,
          1.82270139e-001, 3.27948213e-001, 3.27948213e-001,
          1.02743708e-001, 1.09611523e-004, 0., 0., 3.79408151e-002,
          3.27948213e-001, 3.27948213e-001, 3.27948213e-001,
          3.27948213e-001, 1.57757729e-001, 4.74983244e-004, 0., 0.,
          3.27948213e-001, 2.53339767e-001, 1.50160208e-001,
          1.80540308e-001, 2.27850795e-001, 3.57477590e-002, 0., 0., 0.,
          9.91243571e-002, 2.53339767e-001, 2.40191624e-001,
          2.53339767e-001, 2.53339767e-001, 5.94662912e-002, 0., 0., 0.,
          1.77552581e-001, 2.53339767e-001, 2.48458192e-001,
          2.53339767e-001, 2.53339767e-001, 6.35382608e-002,
          8.84244437e-005, 0., 0., 1.78820223e-001, 2.53339767e-001,
          1.74249485e-001, 1.77678138e-001, 2.16162875e-001,
          5.01891486e-002, 0., 0., 0., 2.53339767e-001, 1.09278345e-002,
          1.23991361e-002, 1.19130341e-002, 1.36519587e-002,
          3.69631857e-001, 7.39597250e-004, 0., 0., 3.42820329e-003,
          1.43776149e-001, 8.72313604e-002, 9.04201865e-002,
          1.05894491e-001, 2.24028185e-001, 3.36180557e-004, 0., 0.,
          5.78972660e-002, 2.55969018e-002, 1.03105888e-001,
          1.60185963e-001, 1.56495199e-001, 3.69631857e-001,
          3.52216326e-002, 1.26603283e-002, 1.63033692e-004,
          9.29957442e-003, 3.35628659e-001, 2.89156079e-001,
          3.69631857e-001, 3.69631857e-001, 2.68150508e-001,
          1.22621749e-002, 4.56282264e-003, 2.44550547e-003,
          1.29259020e-001, 1.16736233e-001, 1.60649598e-001,
          2.54364341e-001, 2.54364341e-001, 6.22740723e-002,
          2.09196500e-004, 0., 0., 5.05529605e-002, 2.24783987e-001,
          2.26753503e-001, 2.54364341e-001, 2.54364341e-001,
          9.39210653e-002, 9.06518137e-004, 0., 0., 9.70881134e-002,
          2.54364341e-001, 2.47513548e-001, 2.54364341e-001,
          2.54364341e-001, 7.33858943e-002, 3.40681896e-003, 0.,
          1.33492518e-003, 1.53343752e-001, 2.54364341e-001,
          2.54364341e-001, 2.54364341e-001, 2.54364341e-001,
          1.08448207e-001, 1.45371060e-003, 0., 0., 1.33202389e-001,
          2.59555906e-001, 2.05784291e-001, 2.25160584e-001,
          2.59555906e-001, 6.96465299e-002, 3.99784185e-004, 0., 0.,
          1.39288172e-001, 2.59555906e-001, 1.50125086e-001,
          1.75504014e-001, 2.34617874e-001, 3.89538147e-002, 0., 0., 0.,
          2.59555906e-001, 2.59555906e-001, 2.59555906e-001,
          2.59555906e-001, 2.59555906e-001, 7.49189034e-002,
          3.10943258e-004, 0., 0., 1.43607780e-001, 2.59555906e-001,
          1.40031621e-001, 1.63455427e-001, 2.35522032e-001,
          3.75559032e-002, 0., 0., 0., 1.85581833e-001, 5.24260513e-002,
          1.39646903e-001, 2.19362944e-001, 2.14123651e-001,
          2.62404442e-001, 9.54659432e-002, 5.03750816e-002,
          2.79285796e-002, 1.72256585e-002, 2.49128416e-001,
          2.62404442e-001, 2.62404442e-001, 2.62404442e-001,
          1.27984270e-001, 1.93367787e-002, 1.11090606e-002,
          1.19401580e-002, 9.26672742e-002, 8.58416259e-002,
          1.51578158e-001, 2.42416918e-001, 2.62404442e-001,
          2.02729285e-001, 7.48882592e-002, 5.76979890e-002,
          4.86477427e-002, 4.43353914e-002, 2.62404442e-001,
          2.62404442e-001, 2.62404442e-001, 2.62404442e-001,
          9.13960561e-002, 1.32309739e-002, 9.59578715e-003,
          1.31913265e-002, 9.37027261e-002, 2.67588526e-001,
          2.67588526e-001, 2.67588526e-001, 2.67588526e-001,
          8.18169415e-002, 4.96135047e-003, 0., 5.04579674e-003,
          1.93321526e-001, 2.67588526e-001, 2.67588526e-001,
          2.67588526e-001, 2.67588526e-001, 7.77690038e-002,
          1.04100269e-003, 0., 0., 1.68642417e-001, 2.67588526e-001,
          2.28631631e-001, 2.60987133e-001, 2.67588526e-001,
          5.10343872e-002, 1.29147945e-003, 0., 2.29354412e-003,
          1.37339145e-001, 1.50853440e-001, 8.50106329e-002,
          1.08943038e-001, 1.24061778e-001, 2.84185763e-002,
          6.94001792e-005, 0., 0., 5.26465699e-002, 3.73058081e-001,
          3.73058081e-001, 3.73058081e-001, 3.73058081e-001,
          2.24427700e-001, 0., 0., 0., 3.73058081e-001, 3.28723937e-001,
          1.60340250e-001, 1.32306814e-001, 1.87307760e-001,
          6.46752417e-002, 0., 0., 0., 1.35338321e-001, 1.45612136e-001,
          7.71049485e-002, 7.86930621e-002, 5.16131409e-002,
          3.61925177e-002, 0., 0., 0., 6.19361810e-002, 8.15960811e-004,
          0., 1.68377580e-003, 3.08852759e-003, 4.73184790e-003, 0., 0.,
          0., 8.15960811e-004 ]
      - [ 2.36754343e-001, 2.36754343e-001, 2.36754343e-001,
          2.36754343e-001, 4.24948484e-002, 8.50355905e-003,
          9.26420651e-003, 1.17406491e-002, 1.98602065e-001,
          2.36754343e-001, 4.65302356e-002, 3.36508304e-002,
          4.20136228e-002, 3.70211974e-002, 2.36754343e-001,
          2.25884914e-001, 1.75786316e-001, 2.36754343e-001,
          2.36754343e-001, 2.17801496e-001, 2.26282194e-001,
          2.25058973e-001, 1.21691756e-001, 4.64046635e-002,
          5.41666523e-002, 5.76222166e-002, 2.28555918e-001,
          2.00683504e-001, 3.11767105e-002, 2.20951773e-002,
          1.75178181e-002, 5.61741069e-002, 1.80455640e-001,
          1.87229559e-001, 1.60297185e-001, 2.36754343e-001,
          2.51440048e-001, 1.26674533e-001, 1.44146994e-001,
          1.36809558e-001, 5.16366400e-002, 2.12936565e-001,
          1.87895358e-001, 1.61601186e-001, 2.51440048e-001,
          2.51440048e-001, 2.51440048e-001, 2.51440048e-001,
          2.51440048e-001, 1.27664089e-001, 1.53822629e-002,
          1.48933623e-002, 2.73965374e-002, 1.54113859e-001,
          1.56585708e-001, 9.17936191e-002, 8.76264945e-002,
          7.71762654e-002, 9.36516300e-002, 8.67836922e-002,
          8.94184113e-002, 8.39154497e-002, 1.67109773e-001,
          2.51440048e-001, 2.51440048e-001, 2.51440048e-001,
          2.51440048e-001, 1.55741438e-001, 3.75148356e-002,
          3.25895324e-002, 4.95567843e-002, 1.54960319e-001,
          1.81290090e-001, 1.28865197e-001, 1.34044155e-001,
          1.35758251e-001, 1.03728250e-001, 4.16919440e-002,
          4.33494113e-002, 4.97811660e-002, 1.53732315e-001,
          7.68182203e-002, 3.75202135e-003, 1.59570272e-003,
          2.18594656e-003, 1.15462638e-001, 2.39460140e-001,
          2.39460140e-001, 2.26349488e-001, 1.36434048e-001,
          2.39460140e-001, 2.12931052e-001, 2.39460140e-001,
          2.39460140e-001, 8.97686258e-002, 2.34120026e-001,
          2.36488998e-001, 1.83897465e-001, 2.39460140e-001,
          1.02425136e-001, 1.43176503e-002, 7.50671094e-003,
          5.54158073e-003, 1.58659920e-001, 2.39460140e-001,
          2.39460140e-001, 2.39460140e-001, 1.79341912e-001,
          2.19800144e-001, 8.92815366e-002, 9.36546102e-002,
          1.24302097e-001, 2.41616055e-001, 1.18642233e-001,
          1.15447402e-001, 7.57377297e-002, 1.74297139e-001,
          1.60152793e-001, 3.47912163e-002, 3.37027758e-002,
          2.94986889e-002, 1.76530093e-001, 2.41616055e-001,
          2.41616055e-001, 2.03590125e-001, 1.82923719e-001,
          2.41616055e-001, 2.01956406e-002, 2.43251659e-002,
          4.22307998e-002, 2.41616055e-001, 1.78255439e-001,
          1.59867942e-001, 1.31550774e-001, 2.41616055e-001,
          2.41616055e-001, 9.14729238e-002, 8.37985650e-002,
          6.69928342e-002, 2.41616055e-001, 1.54709339e-001,
          2.20289335e-001, 1.53152123e-001, 2.41616055e-001,
          2.81937700e-002, 5.97834364e-002, 7.48941824e-002,
          7.79771507e-002, 2.48959899e-001, 1.79159448e-001,
          2.08030149e-001, 1.44592136e-001, 4.65635248e-002,
          5.00913672e-002, 2.38518551e-001, 2.48959899e-001,
          2.48959899e-001, 2.48959899e-001, 2.30376616e-001,
          2.44349778e-001, 2.06484109e-001, 3.98343652e-002,
          1.53684214e-001, 7.53545985e-002, 8.69000778e-002,
          8.69940594e-002, 2.48959899e-001, 1.45696506e-001,
          1.82511449e-001, 1.25284612e-001, 8.29874873e-002,
          8.66966322e-003, 2.77346354e-002, 3.04961745e-002,
          2.65160222e-002, 2.09947273e-001, 2.48959899e-001,
          2.48959899e-001, 2.48959899e-001, 5.15680723e-002,
          5.61918840e-002, 9.64025781e-002, 1.22356370e-001,
          1.15144797e-001, 1.67885482e-001, 2.12598383e-001,
          2.35019088e-001, 1.67065099e-001, 5.74981906e-002,
          2.05843113e-002, 4.60597919e-003, 3.17606214e-003,
          3.45633435e-003, 3.15135926e-001, 2.72290498e-001,
          2.92356014e-001, 1.80388793e-001, 3.32828611e-002,
          5.27749471e-002, 2.22630035e-002, 3.09991054e-002,
          2.06622072e-002, 2.44788960e-001, 3.15135926e-001,
          3.15135926e-001, 2.73073226e-001, 6.54633045e-002,
          8.28810185e-002, 3.89637761e-002, 7.30228648e-002,
          1.04144931e-001, 3.15135926e-001, 1.22058004e-001,
          1.17976509e-001, 7.22230077e-002, 5.76332323e-002,
          2.01662704e-001, 7.00517325e-003, 3.82949202e-003,
          4.24456736e-003, 8.13700706e-002, 1.88946530e-001,
          1.96831316e-001, 1.82262108e-001, 2.53612876e-001,
          2.53612876e-001, 9.94418412e-002, 9.48192850e-002,
          7.78267160e-002, 7.23604485e-002, 2.52570380e-002,
          3.10107730e-002, 3.40898335e-002, 2.53612876e-001,
          2.35277340e-001, 1.28759630e-002, 1.01717385e-002,
          9.02813207e-003, 4.45340797e-002, 2.53612876e-001,
          2.53612876e-001, 2.53612876e-001, 2.53612876e-001,
          2.53612876e-001, 1.95889339e-001, 2.49576241e-001,
          2.53612876e-001, 4.03246954e-002, 4.58756611e-002,
          3.74749564e-002, 5.30792363e-002, 2.53612876e-001,
          2.46813372e-001, 9.69745740e-002, 8.88414904e-002,
          7.31123164e-002, 8.29625726e-002, 3.77210267e-002,
          4.42040749e-002, 5.32915443e-002, 2.01929942e-001,
          7.26995021e-002, 9.17667337e-003, 5.01685124e-003,
          4.67943912e-003, 7.73744136e-002, 2.46813372e-001,
          2.46813372e-001, 2.15839460e-001, 1.55068576e-001,
          2.46813372e-001, 2.01197267e-001, 2.36992374e-001,
          2.46813372e-001, 6.47911653e-002, 1.70615137e-001,
          1.82319060e-001, 1.54609159e-001, 2.46813372e-001,
          1.18364044e-001, 2.58602127e-002, 1.74271893e-002,
          1.79934837e-002, 1.68661043e-001, 2.46813372e-001,
          2.46813372e-001, 2.46813372e-001, 2.44699299e-001,
          1.67288229e-001, 3.63968424e-002, 3.82786728e-002,
          2.35532299e-002, 1.22776344e-001, 2.47489974e-001,
          2.47489974e-001, 2.45271087e-001, 2.06345856e-001,
          2.47489974e-001, 1.53233618e-001, 1.83709770e-001,
          2.18030497e-001, 2.47489974e-001, 9.41023007e-002,
          9.70993340e-002, 8.73587206e-002, 2.15558857e-001,
          1.00167848e-001, 2.31717639e-002, 1.77954920e-002,
          1.98186971e-002, 1.45826682e-001, 1.82543635e-001,
          1.75258309e-001, 1.48229614e-001, 1.39873996e-001,
          2.18661562e-001, 2.47489974e-001, 2.47489974e-001,
          2.47489974e-001, 1.77780196e-001, 1.70818698e-002,
          1.77008491e-002, 2.78775319e-002, 1.53487369e-001 ]
      - [ 2.35465288e-001, 2.35465288e-001, 2.35465288e-001,
          2.35465288e-001, 4.19587679e-002, 8.39628559e-003,
          9.14733671e-003, 1.15925381e-002, 1.96096659e-001,
          2.35465288e-001, 4.63436507e-002, 3.32263187e-002,
          4.14836109e-002, 3.66980769e-002, 2.35465288e-001,
          2.23035336e-001, 1.73568755e-001, 2.35465288e-001,
          2.35465288e-001, 2.15053886e-001, 2.23427594e-001,
          2.22219825e-001, 1.20156586e-001, 4.58192602e-002,
          5.34833334e-002, 5.68952970e-002, 2.25672632e-001,
          2.11874232e-001, 4.80448119e-002, 4.08974141e-002,
          3.38014886e-002, 9.40101668e-002, 1.82760671e-001,
          1.87222451e-001, 1.59813449e-001, 2.35465288e-001,
          2.45084688e-001, 1.11888833e-001, 1.26792222e-001,
          1.20634399e-001, 4.56577539e-002, 1.87760815e-001,
          1.65680274e-001, 1.42494872e-001, 2.45084688e-001,
          2.45084688e-001, 2.45084688e-001, 2.45084688e-001,
          2.45084688e-001, 1.12531990e-001, 1.35635994e-002,
          1.31325023e-002, 2.41574105e-002, 1.40120730e-001,
          2.45084688e-001, 1.12649724e-001, 9.18627307e-002,
          7.34958425e-002, 1.08683370e-001, 8.37488323e-002,
          8.09289515e-002, 7.83459321e-002, 2.14105219e-001,
          2.45084688e-001, 2.45084688e-001, 2.45084688e-001,
          2.45084688e-001, 9.38885733e-002, 2.56419536e-002,
          2.09653862e-002, 3.84258106e-002, 2.45084688e-001,
          1.84678242e-001, 1.30545124e-001, 1.35582358e-001,
          1.37674555e-001, 1.05192445e-001, 4.22804505e-002,
          4.39613163e-002, 5.04838564e-002, 1.56615108e-001,
          7.79025480e-002, 3.80498357e-003, 1.61822711e-003,
          2.21680268e-003, 1.17092460e-001, 2.44471774e-001,
          2.44471774e-001, 2.29544550e-001, 1.38359889e-001,
          2.44471774e-001, 1.89072564e-001, 2.15165481e-001,
          2.37349704e-001, 7.70217478e-002, 2.32461423e-001,
          2.36110076e-001, 1.81808382e-001, 2.44471774e-001,
          1.03870928e-001, 1.45197539e-002, 7.61267263e-003,
          5.61980298e-003, 1.60899490e-001, 2.44471774e-001,
          2.44471774e-001, 2.44471774e-001, 1.81873426e-001,
          2.12101161e-001, 8.61542448e-002, 9.03741419e-002,
          1.19948134e-001, 2.39125088e-001, 1.14486523e-001,
          1.11403592e-001, 7.30848387e-002, 1.68191999e-001,
          1.61991507e-001, 4.52830903e-002, 4.91745621e-002,
          4.79708761e-002, 2.17613444e-001, 2.39125088e-001,
          2.39125088e-001, 2.06323758e-001, 1.81708053e-001,
          2.39125088e-001, 1.94882397e-002, 2.34731231e-002,
          4.07515727e-002, 2.39125088e-001, 1.72011629e-001,
          1.54268205e-001, 1.26942903e-001, 2.39125088e-001,
          2.39125088e-001, 8.94545093e-002, 8.36085826e-002,
          6.97781667e-002, 2.39125088e-001, 1.57761246e-001,
          2.26091236e-001, 1.57976419e-001, 2.39125088e-001,
          2.08002001e-001, 8.35789964e-002, 8.51295516e-002,
          7.98348337e-002, 2.34180689e-001, 1.65537357e-001,
          1.89956680e-001, 1.50115386e-001, 1.99092954e-001,
          2.34180689e-001, 1.63142040e-001, 1.84373200e-001,
          1.72955245e-001, 1.22441389e-001, 1.58749029e-001,
          1.55649945e-001, 1.36524349e-001, 2.34180689e-001,
          2.00163499e-001, 6.80175945e-002, 7.88052231e-002,
          7.91721120e-002, 2.34180689e-001, 1.26009896e-001,
          1.68263406e-001, 1.31863296e-001, 2.12669581e-001,
          1.26966417e-001, 1.79758649e-002, 1.80392545e-002,
          1.48461116e-002, 1.21888630e-001, 2.34180689e-001,
          2.34180689e-001, 2.34180689e-001, 2.34180689e-001,
          1.23884261e-001, 7.25778192e-002, 9.64284465e-002,
          1.05819918e-001, 1.42190069e-001, 2.02563316e-001,
          2.20142916e-001, 1.45497635e-001, 1.20468475e-001,
          2.09745113e-002, 4.69329115e-003, 3.23626818e-003,
          3.52185313e-003, 3.17856520e-001, 2.77452081e-001,
          2.97897995e-001, 1.83808282e-001, 3.39137763e-002,
          7.74668530e-002, 1.87786091e-002, 2.74363887e-002,
          1.86880752e-002, 2.36432210e-001, 3.17856520e-001,
          3.17856520e-001, 2.54501611e-001, 1.12367488e-001,
          8.44521374e-002, 3.97023819e-002, 7.44071007e-002,
          1.06119126e-001, 3.17856520e-001, 1.24371760e-001,
          1.20212898e-001, 7.35920817e-002, 5.87257408e-002,
          2.01583996e-001, 7.00243982e-003, 3.82799772e-003,
          4.24291054e-003, 8.13383162e-002, 1.88872784e-001,
          1.96754500e-001, 1.82190984e-001, 2.53674477e-001,
          2.53674477e-001, 9.94678959e-002, 9.49763730e-002,
          7.77963474e-002, 7.05796853e-002, 2.52473913e-002,
          3.23557295e-002, 3.52032185e-002, 2.53674477e-001,
          2.35185519e-001, 1.28709385e-002, 1.01677692e-002,
          9.02460888e-003, 4.45167013e-002, 2.53674477e-001,
          2.53674477e-001, 2.53674477e-001, 2.53674477e-001,
          2.53674477e-001, 1.95812896e-001, 2.49478862e-001,
          2.53674477e-001, 4.03089561e-002, 4.58577536e-002,
          3.74603309e-002, 5.30585200e-002, 2.53674477e-001,
          2.45373204e-001, 9.59423110e-002, 8.82929787e-002,
          7.21898302e-002, 7.77008384e-002, 3.59924473e-002,
          4.49616611e-002, 5.44625670e-002, 2.20308363e-001,
          8.74887928e-002, 9.14784148e-003, 5.21375006e-003,
          4.62039700e-003, 7.46195242e-002, 2.45373204e-001,
          2.45373204e-001, 2.09143832e-001, 1.79091498e-001,
          2.45373204e-001, 1.98658690e-001, 2.34002158e-001,
          2.45373204e-001, 6.39736727e-002, 1.68462425e-001,
          1.80018678e-001, 1.52658403e-001, 2.45373204e-001,
          1.16870612e-001, 2.55339257e-002, 1.72073040e-002,
          1.77664533e-002, 1.66532978e-001, 2.45373204e-001,
          2.45373204e-001, 2.45373204e-001, 2.41611853e-001,
          1.69654116e-001, 3.63681428e-002, 3.82484905e-002,
          2.35346556e-002, 1.22679539e-001, 2.47318178e-001,
          2.47318178e-001, 2.43117228e-001, 2.10049316e-001,
          2.47318178e-001, 1.53112784e-001, 1.83564916e-001,
          2.17858598e-001, 2.47318178e-001, 9.40281004e-002,
          9.70227793e-002, 8.72898400e-002, 2.15388894e-001,
          1.00088872e-001, 2.31534913e-002, 1.77814607e-002,
          1.98030714e-002, 1.45711690e-001, 1.82399705e-001,
          1.75120115e-001, 1.48112744e-001, 1.39763698e-001,
          2.18489140e-001, 2.47318178e-001, 2.47318178e-001,
          2.47318178e-001, 1.77640006e-001, 1.70684010e-002,
          1.76868923e-002, 2.78555490e-002, 1.53366342e-001 ]
      - [ 2.36754343e-001, 2.36754343e-001, 2.36754343e-001,
          2.36754343e-001, 4.24948484e-002, 8.50355905e-003,
          9.26420651e-003, 1.17406491e-002, 1.98602065e-001,
          2.36754343e-001, 4.65302356e-002, 3.36508304e-002,
          4.20136228e-002, 3.70211974e-002, 2.36754343e-001,
          2.25884914e-001, 1.75786316e-001, 2.36754343e-001,
          2.36754343e-001, 2.17801496e-001, 2.26282194e-001,
          2.25058973e-001, 1.21691756e-001, 4.64046635e-002,
          5.41666523e-002, 5.76222166e-002, 2.28555918e-001,
          2.00683504e-001, 3.11767105e-002, 2.20951773e-002,
          1.75178181e-002, 5.61741069e-002, 1.80455640e-001,
          1.87229559e-001, 1.60297185e-001, 2.36754343e-001,
          2.51440048e-001, 1.26674533e-001, 1.44146994e-001,
          1.36809558e-001, 5.16366400e-002, 2.12936565e-001,
          1.87895358e-001, 1.61601186e-001, 2.51440048e-001,
          2.51440048e-001, 2.51440048e-001, 2.51440048e-001,
          2.51440048e-001, 1.27664089e-001, 1.53822629e-002,
          1.48933623e-002, 2.73965374e-002, 1.54113859e-001,
          1.56585708e-001, 9.17936191e-002, 8.76264945e-002,
          7.71762654e-002, 9.36516300e-002, 8.67836922e-002,
          8.94184113e-002, 8.39154497e-002, 1.67109773e-001,
          2.51440048e-001, 2.51440048e-001, 2.51440048e-001,
          2.51440048e-001, 1.55741438e-001, 3.75148356e-002,
          3.25895324e-002, 4.95567843e-002, 1.54960319e-001,
          1.81290090e-001, 1.28865197e-001, 1.34044155e-001,
          1.35758251e-001, 1.03728250e-001, 4.16919440e-002,
          4.33494113e-002, 4.97811660e-002, 1.53732315e-001,
          7.68182203e-002, 3.75202135e-003, 1.59570272e-003,
          2.18594656e-003, 1.15462638e-001, 2.39460140e-001,
          2.39460140e-001, 2.26349488e-001, 1.36434048e-001,
          2.39460140e-001, 2.12931052e-001, 2.39460140e-001,
          2.39460140e-001, 8.97686258e-002, 2.34120026e-001,
          2.36488998e-001, 1.83897465e-001, 2.39460140e-001,
          1.02425136e-001, 1.43176503e-002, 7.50671094e-003,
          5.54158073e-003, 1.58659920e-001, 2.39460140e-001,
          2.39460140e-001, 2.39460140e-001, 1.79341912e-001,
          2.19800144e-001, 8.92815366e-002, 9.36546102e-002,
          1.24302097e-001, 2.41616055e-001, 1.18642233e-001,
          1.15447402e-001, 7.57377297e-002, 1.74297139e-001,
          1.60152793e-001, 3.47912163e-002, 3.37027758e-002,
          2.94986889e-002, 1.76530093e-001, 2.41616055e-001,
          2.41616055e-001, 2.03590125e-001, 1.82923719e-001,
          2.41616055e-001, 2.01956406e-002, 2.43251659e-002,
          4.22307998e-002, 2.41616055e-001, 1.78255439e-001,
          1.59867942e-001, 1.31550774e-001, 2.41616055e-001,
          2.41616055e-001, 9.14729238e-002, 8.37985650e-002,
          6.69928342e-002, 2.41616055e-001, 1.54709339e-001,
          2.20289335e-001, 1.53152123e-001, 2.41616055e-001,
          2.81937700e-002, 5.97834364e-002, 7.48941824e-002,
          7.79771507e-002, 2.48959899e-001, 1.79159448e-001,
          2.08030149e-001, 1.44592136e-001, 4.65635248e-002,
          5.00913672e-002, 2.38518551e-001, 2.48959899e-001,
          2.48959899e-001, 2.48959899e-001, 2.30376616e-001,
          2.44349778e-001, 2.06484109e-001, 3.98343652e-002,
          1.53684214e-001, 7.53545985e-002, 8.69000778e-002,
          8.69940594e-002, 2.48959899e-001, 1.45696506e-001,
