%YAML:1.0
my_svm: !!opencv-ml-svm
   svm_type: C_SVC
   kernel: { type:RBF, gamma:8.9999999999999997e-002 }
   C: 10.
   term_criteria: { epsilon:1.1920928955078125e-007,
       iterations:2147483647 }
   var_all: 324
   var_count: 324
   class_count: 10
   class_labels: !!opencv-matrix
      rows: 1
      cols: 10
      dt: i
      data: [ 0, 1, 2, 3, 4, 5, 6, 7, 8, 9 ]
   sv_total: 502
   support_vectors:
      - [ 1.95770890e-001, 1.77025318e-001, 2.39898473e-001,
          2.39898473e-001, 1.08034112e-001, 5.92634082e-002,
          4.48468886e-002, 5.09946421e-002, 1.33962229e-001,
          2.39898473e-001, 1.56075716e-001, 2.39898473e-001,
          2.07543358e-001, 1.46236554e-001, 8.42816457e-002,
          7.59488344e-002, 4.24788743e-002, 1.68166593e-001,
          8.79223272e-002, 2.39898473e-001, 2.39898473e-001,
          2.39898473e-001, 2.05717951e-001, 7.64531866e-002,
          2.59381011e-002, 2.56503858e-002, 4.53846566e-002,
          2.39898473e-001, 2.16129676e-001, 2.39898473e-001,
          2.00032100e-001, 2.19627202e-001, 1.21972419e-001,
          5.74382544e-002, 1.09750919e-001, 1.26460552e-001,
          2.63064861e-001, 8.65270495e-002, 1.07926726e-001,
          1.31064326e-001, 1.48120269e-001, 4.35156859e-002,
          4.84082177e-002, 4.37834561e-002, 2.63064861e-001,
          2.63064861e-001, 3.53168808e-002, 1.75433513e-002,
          2.57823467e-002, 6.22789599e-002, 1.13081351e-001,
          2.63064861e-001, 1.71339378e-001, 2.63064861e-001,
          2.63064861e-001, 1.00662880e-001, 9.73787010e-002,
          1.28237799e-001, 2.63064861e-001, 1.71902493e-001,
          1.10908546e-001, 1.50298595e-001, 1.46040007e-001,
          1.51253313e-001, 4.90984842e-002, 2.43379027e-002,
          9.45350230e-002, 2.63064861e-001, 2.63064861e-001,
          2.63064861e-001, 1.09322771e-001, 1.55217320e-001,
          1.44043133e-001, 1.57796908e-002, 3.38565782e-002,
          6.37256354e-002, 1.06603332e-001, 1.60291120e-001,
          2.56807894e-001, 2.10241616e-001, 2.56807894e-001,
          2.56807894e-001, 5.81327341e-002, 7.64128715e-002,
          1.04961134e-001, 1.40321508e-001, 8.49835500e-002,
          1.03651010e-001, 1.46892965e-001, 2.56807894e-001,
          4.34513055e-002, 2.84025632e-002, 4.89422120e-002,
          1.70836449e-001, 2.56807894e-001, 2.56807894e-001,
          2.56807894e-001, 1.28813550e-001, 7.04350695e-002,
          1.12706453e-001, 4.09549475e-002, 8.67966115e-002,
          2.09586456e-001, 2.56807894e-001, 2.56807894e-001,
          1.69960424e-001, 2.36731693e-001, 1.01739913e-001,
          5.70941493e-002, 2.50705838e-001, 2.54144162e-001,
          2.54144162e-001, 2.54144162e-001, 7.06146955e-002,
          2.55673472e-002, 2.36814115e-002, 3.43284421e-002,
          1.63528457e-001, 1.84946164e-001, 2.54144162e-001,
          1.88294083e-001, 1.95242494e-001, 1.43318176e-001,
          6.61628470e-002, 9.84699875e-002, 7.19918609e-002,
          1.35304183e-001, 1.14355735e-001, 2.06103101e-001,
          2.37907380e-001, 2.54144162e-001, 1.67778045e-001,
          7.26698786e-002, 6.35320321e-002, 1.76080748e-001,
          2.54144162e-001, 1.14717767e-001, 1.12556010e-001,
          1.32458687e-001, 1.43982410e-001, 1.39078200e-001,
          6.69254512e-002, 1.03268243e-001, 2.54144162e-001,
          8.81404877e-002, 6.89281896e-002, 6.05081432e-002,
          6.79464936e-002, 2.53474087e-001, 2.53474087e-001,
          1.69435531e-001, 1.44356936e-001, 7.53113627e-002,
          2.33605132e-002, 8.63324404e-002, 9.81082693e-002,
          1.34260252e-001, 2.53474087e-001, 2.53474087e-001,
          1.60331160e-001, 9.35059488e-002, 3.54689471e-002,
          1.58637941e-001, 7.00462088e-002, 7.99732581e-002,
          1.27631247e-001, 2.50888705e-001, 1.99823007e-001,
          1.94731057e-001, 1.50255442e-001, 1.98151261e-001,
          7.45399967e-002, 1.61402091e-001, 2.02496439e-001,
          2.53474087e-001, 2.53474087e-001, 1.77106768e-001,
          2.50940919e-001, 1.64161563e-001, 1.23716392e-001,
          1.22028403e-002, 7.60329515e-002, 1.47004515e-001,
          2.11584374e-001, 2.88390815e-001, 1.74287453e-001,
          7.51531124e-002, 6.48481324e-002, 2.33840458e-002,
          8.77089892e-003, 2.62333732e-002, 1.70343041e-001,
          2.88390815e-001, 2.88390815e-001, 1.83005095e-001,
          8.75675529e-002, 1.05388060e-001, 2.37683337e-002,
          3.30905914e-002, 1.62093699e-001, 2.88390815e-001,
          2.88390815e-001, 2.88390815e-001, 7.43827075e-002,
          7.06619099e-002, 5.49125858e-002, 4.72004637e-002,
          1.01297395e-002, 6.36376515e-002, 2.88390815e-001,
          2.88390815e-001, 2.88390815e-001, 6.04668930e-002,
          3.06492690e-002, 2.51750350e-002, 1.94354914e-002,
          1.61663875e-001, 5.98910861e-002, 5.90303950e-002,
          9.37026665e-002, 2.49109045e-001, 1.68998420e-001,
          1.10188864e-001, 1.50787666e-001, 2.55404770e-001,
          2.55404770e-001, 9.09853950e-002, 6.26810044e-002,
          8.09247345e-002, 5.33558354e-002, 6.91265389e-002,
          5.29744178e-002, 1.12849899e-001, 2.55404770e-001,
          1.18548706e-001, 5.00344448e-002, 4.45742905e-002,
          6.31980747e-002, 1.56497404e-001, 2.43209675e-001,
          2.55404770e-001, 2.55404770e-001, 2.29299188e-001,
          2.55404770e-001, 1.67347655e-001, 1.61213428e-001,
          1.67401776e-001, 9.25128609e-002, 1.07842468e-001,
          1.82369918e-001, 1.92868590e-001, 2.55404770e-001,
          2.45198324e-001, 1.24440290e-001, 1.21466696e-001,
          1.84749529e-001, 1.17357187e-001, 4.29434441e-002,
          7.40617812e-002, 9.81790647e-002, 2.45198324e-001,
          1.26600489e-001, 1.63883179e-001, 1.76068515e-001,
          2.45198324e-001, 2.45198324e-001, 4.22556885e-002,
          1.15361728e-001, 9.93255973e-002, 1.38617337e-001,
          2.45198324e-001, 2.45198324e-001, 2.45198324e-001,
          2.44426340e-001, 1.02013096e-001, 1.50186392e-002,
          3.69906425e-002, 3.50315087e-002, 2.02265143e-001,
          2.45198324e-001, 2.45198324e-001, 2.45198324e-001,
          2.34449282e-001, 8.38064775e-002, 4.46260022e-003,
          2.06797048e-002, 2.37141028e-002, 7.91934133e-002,
          8.29051733e-002, 1.76097289e-001, 2.75267363e-001,
          2.75267363e-001, 2.75267363e-001, 5.42877503e-002,
          7.43445680e-002, 4.31723706e-002, 7.84396157e-002,
          2.40208171e-002, 1.03719607e-001, 2.75267363e-001,
          2.75267363e-001, 2.32875049e-001, 5.39936461e-002,
          5.29900454e-002, 1.98961329e-002, 2.83894856e-002,
          2.75267363e-001, 2.75267363e-001, 2.75267363e-001,
          2.75267363e-001, 1.31009534e-001, 3.15028727e-002,
          3.82138267e-002, 1.87298488e-002, 3.73228155e-002,
          9.27632600e-002, 9.51228291e-002, 2.35610008e-001,
          2.71324962e-001, 1.17526181e-001, 5.45420796e-002,
          4.92439419e-002, 1.85909439e-002, 2.71017179e-002 ]
      - [ 5.03807738e-002, 2.07218364e-001, 2.68366992e-001,
          2.68366992e-001, 9.86171737e-002, 1.27765425e-002,
          4.29382501e-003, 4.81807115e-003, 1.53559558e-002,
          2.64837444e-001, 2.56985813e-001, 2.68366992e-001,
          1.82334751e-001, 6.33886829e-002, 1.86791867e-002,
          7.57672591e-003, 5.28328680e-003, 6.30230978e-002,
          2.75575761e-002, 2.52962708e-001, 2.68366992e-001,
          2.68366992e-001, 2.13653505e-001, 7.29045365e-003,
          1.29472988e-003, 2.96771806e-003, 9.80752707e-003,
          2.62008637e-001, 2.68366992e-001, 2.68366992e-001,
          2.68366992e-001, 5.52217215e-002, 1.65182725e-002,
          5.12036448e-003, 4.67795599e-003, 7.12798089e-002,
          2.81591803e-001, 2.81591803e-001, 2.81591803e-001,
          2.31318846e-001, 6.93894550e-002, 2.12413296e-002,
          6.66698860e-003, 1.31846871e-002, 1.19973466e-001,
          2.81591803e-001, 1.96193695e-001, 2.81591803e-001,
          1.26864821e-001, 4.88290153e-002, 3.61258350e-002,
          1.80772375e-002, 4.04239371e-002, 2.81591803e-001,
          2.81591803e-001, 2.81591803e-001, 2.81591803e-001,
          2.07047492e-001, 4.43687923e-002, 1.75887737e-002,
          5.24718780e-003, 1.11784805e-002, 1.06519826e-001,
          1.10172749e-001, 9.86556932e-002, 2.17361242e-001,
          9.15879309e-002, 9.69779566e-002, 3.33967023e-002,
          1.08020119e-002, 2.33728103e-002, 6.77007884e-002,
          2.76500881e-001, 2.08476074e-002, 2.00566482e-002,
          2.37227567e-002, 1.41529486e-001, 2.77615756e-001,
          1.41238004e-001, 8.15637037e-002, 2.88496554e-001,
          5.08762114e-002, 6.85541192e-003, 1.55956286e-003,
          2.94960253e-002, 2.88496554e-001, 2.88496554e-001,
          2.88496554e-001, 2.17899978e-001, 1.25365838e-001,
          4.62364256e-002, 1.48720713e-002, 2.25195363e-002,
          1.19306870e-001, 2.88496554e-001, 2.15314984e-001,
          4.66389321e-002, 1.65379103e-002, 4.10958864e-002,
          3.06231230e-002, 5.66666247e-003, 3.59770022e-002,
          2.37731323e-001, 2.88496554e-001, 2.88496554e-001,
          1.17176071e-001, 5.57155535e-002, 5.50718941e-002,
          2.68361885e-002, 2.51893818e-001, 3.17374498e-001,
          3.17374498e-001, 3.17374498e-001, 3.32703702e-002,
          3.43610416e-003, 2.29345588e-003, 1.44092860e-002,
          1.08251065e-001, 2.78114855e-001, 3.17374498e-001,
          2.37358853e-001, 1.51538610e-001, 1.78338680e-002,
          1.02512352e-002, 2.72200210e-003, 3.09684519e-002,
          3.22402753e-002, 5.22783361e-002, 1.08360820e-001,
          2.78160334e-001, 3.17374498e-001, 1.60337359e-001,
          3.40267196e-002, 2.34323125e-002, 3.90828513e-002,
          5.35034053e-002, 6.32568002e-002, 1.05290249e-001,
          1.21891439e-001, 3.17374498e-001, 3.47235240e-002,
          2.61101816e-002, 1.20888995e-002, 2.31694449e-002,
          2.86902606e-001, 2.92885900e-001, 2.92885900e-001,
          2.10063994e-001, 8.88375342e-002, 4.58386689e-002,
          2.24247705e-002, 1.35363592e-002, 1.13060102e-001,
          9.43784788e-002, 9.39589366e-002, 9.34869200e-002,
          1.48304746e-001, 2.42956311e-001, 8.34311470e-002,
          2.52717510e-002, 4.40667421e-002, 5.38253114e-002,
          1.58261046e-001, 1.78534463e-001, 2.16444507e-001,
          1.46506622e-001, 7.09012598e-002, 3.66637334e-002,
          4.56155799e-002, 2.51934808e-002, 6.02625161e-002,
          2.92885900e-001, 2.92885900e-001, 2.92885900e-001,
          2.92885900e-001, 2.38483295e-001, 7.11769089e-002,
          3.41508202e-002, 6.14100769e-002, 8.78223628e-002,
          1.56854857e-002, 1.46439904e-002, 6.20026477e-002,
          2.24327996e-001, 2.91614503e-001, 6.76417202e-002,
          1.03770765e-002, 8.34057759e-003, 5.95017523e-003,
          4.00875583e-002, 2.24689301e-002, 1.53252751e-001,
          2.91614503e-001, 2.91614503e-001, 1.16746031e-001,
          1.51884407e-002, 1.12451063e-002, 3.17415111e-002,
          2.61046976e-001, 2.24685773e-001, 2.11538106e-001,
          2.91614503e-001, 2.91614503e-001, 2.75185108e-002,
          1.16348062e-002, 1.13831367e-002, 3.32527943e-002,
          1.35672495e-001, 2.05961138e-001, 2.65571028e-001,
          2.91614503e-001, 2.91614503e-001, 5.56911193e-002,
          1.81706585e-002, 3.34921083e-003, 3.87437120e-002,
          4.71895710e-002, 9.68792196e-003, 6.21664431e-003,
          7.57400692e-002, 2.68734843e-001, 2.09360018e-001,
          1.75056800e-001, 1.17686875e-001, 1.13072254e-001,
          7.50052929e-002, 3.69251892e-002, 5.72542697e-002,
          5.26102148e-002, 2.21708775e-001, 9.55519676e-002,
          9.54911634e-002, 7.54537657e-002, 1.41139448e-001,
          7.74394423e-002, 1.42042032e-002, 8.37293104e-004,
          3.07463929e-002, 2.26929650e-001, 2.68734843e-001,
          2.68734843e-001, 2.68734843e-001, 1.82494104e-001,
          2.68734843e-001, 1.28299043e-001, 1.22437641e-001,
          4.87905145e-002, 9.58696529e-002, 2.68734843e-001,
          2.68734843e-001, 2.63321400e-001, 2.68734843e-001,
          1.58443302e-001, 1.42065614e-001, 1.98229194e-001,
          7.57564083e-002, 1.42514789e-002, 3.38163823e-002,
          3.17396335e-002, 2.82359440e-002, 6.61247894e-002,
          2.72608250e-001, 2.87944555e-001, 2.87944555e-001,
          1.66287571e-001, 2.59932820e-002, 1.57891996e-002,
          8.28507356e-003, 1.69941541e-002, 4.72184382e-002,
          2.87944555e-001, 2.87944555e-001, 2.87944555e-001,
          1.07426472e-001, 4.04503383e-002, 8.24216977e-002,
          6.58712983e-002, 7.57908449e-002, 1.69298857e-001,
          2.87944555e-001, 2.87944555e-001, 2.87944555e-001,
          2.20875919e-001, 6.95355311e-002, 2.88954470e-002,
          1.28860762e-002, 2.00781189e-002, 1.29468247e-001,
          2.46883318e-001, 2.46883318e-001, 2.46883318e-001,
          1.69648573e-001, 1.07188724e-001, 1.59234758e-002,
          1.07773123e-002, 9.60145611e-003, 4.83295284e-002,
          1.19054660e-001, 2.46883318e-001, 2.46883318e-001,
          2.46883318e-001, 2.46883318e-001, 3.73032689e-002,
          2.02746019e-002, 5.61994733e-003, 3.42822783e-002,
          2.46883318e-001, 2.46883318e-001, 2.46883318e-001,
          2.18512475e-001, 3.69552150e-002, 2.95399819e-002,
          1.35621624e-002, 9.37725045e-003, 1.30164385e-001,
          2.11574450e-001, 2.46883318e-001, 2.46883318e-001,
          2.46883318e-001, 1.51382044e-001, 2.89412644e-002,
          1.46614173e-002, 1.10656936e-002, 9.41153467e-002 ]
      - [ 1.79597035e-001, 1.88682616e-001, 2.22399235e-001,
          1.51887789e-001, 5.23507074e-002, 8.49275589e-002,
          6.38413578e-002, 4.03007604e-002, 1.53021708e-001,
          2.22399235e-001, 1.48631975e-001, 1.10882178e-001,
          1.88822001e-001, 1.16006717e-001, 1.29904568e-001,
          9.90060642e-002, 5.68036586e-002, 2.02406794e-001,
          2.18587607e-001, 8.26827362e-002, 1.32372037e-001,
          1.31972343e-001, 2.22399235e-001, 2.22399235e-001,
          1.40193433e-001, 1.37818381e-001, 2.22399235e-001,
          1.81288198e-001, 1.57117188e-001, 2.02500194e-001,
          2.22399235e-001, 2.22399235e-001, 2.06615239e-001,
          1.67993531e-001, 1.43689290e-001, 2.21047580e-001,
          2.59681404e-001, 1.15027986e-001, 6.68394491e-002,
          1.25089884e-001, 8.31569731e-002, 8.44765753e-002,
          7.06110969e-002, 9.02446806e-002, 2.62614727e-001,
          1.76550075e-001, 4.34691124e-002, 6.01911880e-002,
          6.32195622e-002, 3.74638475e-002, 1.13398537e-001,
          2.37106085e-001, 2.62614727e-001, 2.62614727e-001,
          2.29908034e-001, 1.69843614e-001, 2.14473993e-001,
          2.62614727e-001, 1.60051242e-001, 6.16831854e-002,
          6.95447847e-002, 2.07372874e-001, 2.62614727e-001,
          1.68055251e-001, 5.22207767e-002, 3.83883305e-002,
          8.24912712e-002, 3.36261615e-002, 4.06740382e-002,
          1.68785453e-001, 2.62614727e-001, 2.62614727e-001,
          2.35706463e-001, 1.14870034e-001, 2.26240605e-001,
          9.25453007e-002, 2.99702734e-002, 1.01293147e-001,
          1.76250041e-001, 1.85291380e-001, 1.18922494e-001,
          2.59408444e-001, 2.59408444e-001, 2.59408444e-001,
          1.01343542e-001, 3.24118920e-002, 4.09609601e-002,
          8.17577243e-002, 8.39447677e-002, 2.59408444e-001,
          8.89034718e-002, 6.10683188e-002, 9.20255929e-002,
          4.56581824e-002, 4.44136113e-002, 7.48148188e-002,
          2.08264336e-001, 2.59408444e-001, 1.53609857e-001,
          2.59408444e-001, 1.62089780e-001, 1.82635710e-001,
          8.22666734e-002, 7.32534155e-002, 8.20071548e-002,
          2.59408444e-001, 2.59408444e-001, 1.94734663e-001,
          5.71703799e-002, 1.75140407e-002, 5.27396724e-002,
          6.92663416e-002, 2.29935080e-001, 2.29935080e-001,
          2.29935080e-001, 2.08672985e-001, 1.06342323e-001,
          7.88488612e-002, 6.96237311e-002, 1.19404480e-001,
          2.29935080e-001, 2.29935080e-001, 1.74128294e-001,
          2.29935080e-001, 2.29935080e-001, 1.96651354e-001,
          1.99751277e-002, 1.25993891e-002, 2.43369024e-002,
          6.32871240e-002, 1.95269495e-001, 2.29935080e-001,
          2.29935080e-001, 2.29935080e-001, 8.48487318e-002,
          6.78903461e-002, 4.88313101e-002, 3.91434282e-002,
          1.08594820e-001, 2.29935080e-001, 2.19582438e-001,
          2.29935080e-001, 2.29935080e-001, 1.76204756e-001,
          1.40780032e-001, 1.38780937e-001, 1.88123688e-001,
          2.63919324e-001, 2.63919324e-001, 8.90631154e-002,
          1.49868414e-001, 2.49162644e-001, 2.63919324e-001,
          8.96203592e-002, 4.75544035e-002, 3.00537199e-002,
          8.64742249e-002, 8.84723291e-002, 1.10606022e-001,
          2.63919324e-001, 2.63919324e-001, 2.63919324e-001,
          1.09698355e-001, 1.19483665e-001, 1.02896325e-001,
          1.88204229e-001, 2.33973622e-001, 1.63462922e-001,
          1.65951520e-001, 1.62341356e-001, 1.97114408e-001,
          6.46164343e-002, 6.24285601e-002, 8.59336704e-002,
          8.96274522e-002, 1.13878742e-001, 1.61629856e-001,
          1.60720259e-001, 1.68021157e-001, 1.02889501e-001,
          1.75097268e-002, 7.67819723e-003, 9.65147838e-003,
          2.44881082e-002, 1.27166197e-001, 1.73936725e-001,
          2.61446297e-001, 2.61446297e-001, 1.17475092e-001,
          5.27791008e-002, 2.33628321e-002, 3.89608443e-002,
          1.19915344e-001, 2.55768269e-001, 1.51874408e-001,
          2.46692166e-001, 2.61446297e-001, 1.09161399e-001,
          1.95216388e-002, 8.21002200e-003, 1.58810318e-002,
          5.20881526e-002, 2.61446297e-001, 2.61446297e-001,
          2.61446297e-001, 2.52735108e-001, 4.52778600e-002,
          1.95046663e-002, 4.69767302e-003, 1.35051478e-002,
          1.73888221e-001, 2.61446297e-001, 2.61446297e-001,
          2.32175201e-001, 2.30629250e-001, 3.90939415e-002,
          1.88187286e-002, 1.53440619e-002, 2.03527007e-002,
          8.13742131e-002, 1.91731662e-001, 2.44254515e-001,
          2.94818282e-001, 2.62256324e-001, 7.05371350e-002,
          5.36388233e-002, 4.64854240e-002, 2.55145635e-002,
          6.79139420e-002, 1.94804028e-001, 2.30581939e-001,
          2.94818282e-001, 2.94818282e-001, 1.09890796e-001,
          1.10469693e-002, 8.18313845e-003, 5.38070034e-003,
          2.21385360e-002, 4.03979570e-002, 1.20662071e-001,
          2.94818282e-001, 2.94818282e-001, 6.85778037e-002,
          3.06093227e-002, 1.11897280e-002, 1.47470413e-002,
          1.23494193e-002, 4.57642712e-002, 9.11693200e-002,
          2.94818282e-001, 2.94818282e-001, 2.52772808e-001,
          7.83714503e-002, 7.94317648e-002, 5.78484647e-002,
          6.76440746e-002, 7.97099620e-002, 1.29426643e-001,
          2.81109750e-001, 2.81109750e-001, 1.76848039e-001,
          1.25310749e-001, 8.11920092e-002, 8.71460587e-002,
          9.20610204e-002, 5.33086509e-002, 8.37520733e-002,
          1.13164939e-001, 1.18553534e-001, 1.49725839e-001,
          8.01325142e-002, 1.89514179e-002, 2.47654989e-002,
          2.08878741e-002, 5.91950677e-002, 9.89177898e-002,
          2.81109750e-001, 2.81109750e-001, 2.81109750e-001,
          2.81109750e-001, 2.17107713e-001, 1.60346985e-001,
          1.06745899e-001, 6.33115023e-002, 6.60627708e-002,
          2.81109750e-001, 2.81109750e-001, 2.81109750e-001,
          9.67058241e-002, 5.85918464e-002, 5.99059649e-002,
          1.06204450e-001, 2.34114096e-001, 1.23194769e-001,
          1.05595864e-001, 9.06546488e-002, 6.71255738e-002,
          5.68398722e-002, 8.77467990e-002, 9.28079784e-002,
          1.99897632e-001, 2.78088510e-001, 2.61154652e-001,
          9.71985236e-002, 7.90732279e-002, 3.78398560e-002,
          2.78088510e-001, 2.78088510e-001, 2.78088510e-001,
          1.51532575e-001, 1.21159844e-001, 2.87788250e-002,
          5.19822352e-002, 5.19657470e-002, 1.49954036e-001,
          1.90943748e-001, 2.78088510e-001, 2.78088510e-001,
          2.78088510e-001, 2.78088510e-001, 6.37159422e-002,
          1.86512563e-002, 1.40437055e-002, 6.91489428e-002 ]
      - [ 4.35686409e-002, 2.37606660e-001, 2.67462730e-001,
          2.68997997e-001, 1.97224006e-001, 6.68710396e-002,
          5.50312959e-002, 4.46305014e-002, 3.85863781e-002,
          9.37175229e-002, 2.68997997e-001, 2.68997997e-001,
          2.68997997e-001, 1.59540370e-001, 2.70090476e-002,
          2.79189460e-002, 2.16642637e-002, 2.45575123e-002,
          3.76455784e-002, 1.12956703e-001, 1.08307868e-001,
          2.68997997e-001, 2.68997997e-001, 2.19943017e-001,
          1.03253596e-001, 5.66022806e-002, 3.60875614e-002,
          5.09980321e-002, 1.87064141e-001, 2.36263081e-001,
          2.54124165e-001, 2.68997997e-001, 1.42470658e-001,
          6.93085045e-002, 3.57377194e-002, 1.95953678e-002,
          2.59337723e-001, 2.59337723e-001, 2.59337723e-001,
          2.16628715e-001, 1.11600913e-001, 4.73164171e-002,
          7.65247643e-002, 7.27821887e-002, 2.12995797e-001,
          2.23689154e-001, 5.05604930e-002, 5.65386638e-002,
          3.75878625e-002, 7.41942003e-002, 2.58451164e-001,
          2.59337723e-001, 2.59337723e-001, 2.59337723e-001,
          6.42467961e-002, 1.46604508e-001, 2.13246837e-001,
          1.41356260e-001, 2.49139935e-001, 9.34781060e-002,
          8.49821121e-002, 6.08825907e-002, 3.72462869e-002,
          2.68534943e-002, 2.54561212e-002, 4.09464613e-002,
          3.58764119e-002, 1.05813637e-001, 1.90374702e-001,
          2.59337723e-001, 2.24343807e-001, 5.16368598e-002,
          3.37054059e-002, 2.10306346e-002, 6.03050413e-003,
          3.03020813e-002, 6.25313446e-002, 2.28077933e-001,
          2.88167596e-001, 2.88167596e-001, 6.49413764e-002,
          4.25295010e-002, 3.73458117e-002, 2.32452713e-002,
          5.55879958e-002, 6.86248317e-002, 2.88167596e-001,
          2.88167596e-001, 2.88167596e-001, 6.71580657e-002,
          1.75231341e-002, 1.84698142e-002, 7.51750916e-003,
          2.26555858e-002, 5.55934757e-002, 2.50809252e-001,
          2.88167596e-001, 2.88167596e-001, 3.14437039e-002,
          3.85915190e-002, 2.46069543e-002, 2.22065318e-002,
          4.08946611e-002, 9.85784009e-002, 2.88167596e-001,
          2.88167596e-001, 2.88167596e-001, 7.61632398e-002,
          1.52993370e-002, 2.06084587e-002, 4.88093011e-002,
          2.33113378e-001, 2.59183556e-001, 2.59183556e-001,
          1.52607456e-001, 7.20392615e-002, 1.36033101e-002,
          2.88203470e-002, 2.11769231e-002, 2.37670150e-002,
          9.39920545e-002, 2.59183556e-001, 2.59183556e-001,
          2.59183556e-001, 1.73744708e-001, 1.53469555e-002,
          1.83914434e-002, 1.60147157e-002, 3.51311378e-002,
          1.44844860e-001, 2.59183556e-001, 2.59183556e-001,
          2.32739717e-001, 2.20640630e-001, 3.48083861e-002,
          9.09470022e-003, 1.06684361e-002, 1.12409983e-002,
          5.73405065e-002, 2.59183556e-001, 2.59183556e-001,
          2.59183556e-001, 2.59183556e-001, 2.90358588e-002,
          4.45490442e-002, 2.60259286e-002, 3.77081670e-002,
          7.89666548e-002, 2.99390435e-001, 3.04989755e-001,
          3.04989755e-001, 2.43741989e-001, 4.25653346e-002,
          2.36644112e-002, 2.49924324e-002, 3.24275084e-002,
          5.32527529e-002, 1.11455686e-001, 1.50244713e-001,
          1.36685714e-001, 1.27153710e-001, 6.75711557e-002,
          2.48518009e-002, 2.01301388e-002, 2.94547006e-002,
          5.79785258e-002, 3.04989755e-001, 3.04989755e-001,
          3.04989755e-001, 3.04989755e-001, 4.53425944e-002,
          4.60777283e-002, 2.83569358e-002, 5.49763478e-002,
          8.10639784e-002, 1.73071206e-001, 2.32164115e-001,
          2.24754497e-001, 2.01093242e-001, 5.95253631e-002,
          2.14502811e-002, 1.24100829e-002, 1.46572879e-002,
          3.25706378e-002, 1.03724614e-001, 2.70835429e-001,
          3.03797811e-001, 1.95668891e-001, 3.71059813e-002,
          3.10396906e-002, 6.81571802e-003, 2.31850892e-002,
          5.78829646e-002, 3.03797811e-001, 3.03797811e-001,
          3.03797811e-001, 3.03797811e-001, 4.89714257e-002,
          2.86798663e-002, 8.83164909e-003, 1.92879401e-002,
          5.90236560e-002, 1.02717362e-001, 1.57609597e-001,
          1.09070912e-001, 8.45721662e-002, 4.80936468e-002,
          3.25531438e-002, 4.08119801e-003, 1.45460758e-002,
          1.42867669e-001, 3.03797811e-001, 3.03797811e-001,
          3.03797811e-001, 1.99607417e-001, 5.10642529e-002,
          5.17611504e-002, 2.29364987e-002, 2.82761715e-002,
          9.08105895e-002, 2.80448288e-001, 2.75487155e-001,
          2.21035361e-001, 2.59680510e-001, 7.28454515e-002,
          2.99979467e-002, 2.97677591e-002, 3.29820327e-002,
          7.56846368e-002, 2.80448288e-001, 2.80448288e-001,
          2.80448288e-001, 2.80448288e-001, 6.80233389e-002,
          7.16415942e-002, 2.53840182e-002, 5.00653051e-002,
          5.80583028e-002, 1.13808341e-001, 1.45354956e-001,
          1.66446373e-001, 1.45909965e-001, 7.55774155e-002,
          8.24796483e-002, 3.90493311e-002, 6.21175431e-002,
          7.81378448e-002, 1.15058869e-001, 2.80448288e-001,
          2.80448288e-001, 2.80448288e-001, 1.14218190e-001,
          2.55774669e-002, 1.54918032e-002, 1.83476489e-002,
          2.97947228e-002, 1.83630526e-001, 2.62445658e-001,
          2.62445658e-001, 2.62445658e-001, 4.45173904e-002,
          7.60536864e-002, 1.33096362e-002, 2.51730662e-002,
          2.59941462e-002, 5.87405749e-002, 1.95785180e-001,
          2.53935754e-001, 2.29554191e-001, 1.49611652e-001,
          7.81312287e-002, 1.84726808e-002, 2.42659245e-002,
          4.59265485e-002, 7.65908435e-002, 2.62445658e-001,
          2.62445658e-001, 2.62445658e-001, 1.82493091e-001,
          1.77549109e-001, 2.89801098e-002, 2.41783094e-002,
          2.94367895e-002, 1.07279539e-001, 2.39592895e-001,
          2.62445658e-001, 2.62445658e-001, 2.62445658e-001,
          7.91693777e-002, 3.83610204e-002, 3.66541520e-002,
          5.03013469e-002, 4.95955721e-002, 8.75259563e-002,
          1.07673384e-001, 1.03736967e-001, 1.21237159e-001,
          1.39752567e-001, 1.02437228e-001, 7.93809965e-002,
          2.05313951e-001, 2.62951374e-001, 2.05961153e-001,
          1.09071188e-001, 6.93333372e-002, 1.01717189e-001,
          2.43159339e-001, 1.41232938e-001, 1.67196438e-001,
          1.24707997e-001, 7.78078139e-002, 1.22500606e-001,
          2.48633727e-001, 1.80297866e-001, 2.62951374e-001,
          2.62951374e-001, 2.62951374e-001, 2.62951374e-001,
          2.62951374e-001, 2.42223874e-001, 9.69784036e-002,
          7.11747855e-002, 4.65123653e-002, 2.50005066e-001 ]
      - [ 2.52117068e-001, 2.51939714e-001, 2.52117068e-001,
          2.13216558e-001, 1.46460399e-001, 1.21779200e-002,
          2.54318700e-003, 9.60894860e-003, 1.55059412e-001,
          2.52117068e-001, 1.62124932e-001, 2.08151445e-001,
          1.54692352e-001, 7.64625818e-002, 9.66937188e-003,
          2.53835507e-003, 1.15355430e-002, 2.52117068e-001,
          2.52117068e-001, 1.42102376e-001, 2.52117068e-001,
          2.52117068e-001, 2.52117068e-001, 3.74436751e-002,
          9.67750605e-003, 5.53372968e-003, 1.58221543e-001,
          2.52117068e-001, 1.18120611e-001, 1.68978468e-001,
          1.40921533e-001, 1.04441129e-001, 2.76848134e-002,
          1.10368365e-002, 9.18059982e-003, 2.23869443e-001,
          3.07336718e-001, 1.18678696e-001, 1.49478525e-001,
          1.18838854e-001, 6.18779734e-002, 2.46060751e-002,
          9.87619907e-003, 2.22417265e-002, 3.07336718e-001,
          3.07336718e-001, 3.84633914e-002, 2.83827633e-002,
          1.91757493e-002, 9.38295871e-002, 1.13868408e-001,
          2.49727055e-001, 1.33765221e-001, 3.07336718e-001,
          3.07336718e-001, 8.74267966e-002, 1.14356533e-001,
          1.00965470e-001, 5.03267683e-002, 4.66373265e-002,
          2.35534813e-002, 2.02971660e-002, 3.07336718e-001,
          2.47533187e-001, 3.43897343e-002, 2.99867019e-002,
          4.16180752e-002, 7.28497505e-002, 9.46150050e-002,
          2.11373821e-001, 1.21930242e-001, 3.07336718e-001,
          1.93841964e-001, 1.48822833e-002, 1.09661538e-002,
          1.18656252e-002, 6.77255392e-002, 1.53481722e-001,
          2.55450666e-001, 1.46467671e-001, 2.55450666e-001,
          1.77382275e-001, 1.95489042e-002, 1.57849099e-002,
          5.18828072e-002, 2.07103774e-001, 2.55450666e-001,
          2.55450666e-001, 1.86836571e-001, 2.55450666e-001,
          1.35408327e-001, 1.91912726e-002, 1.62147321e-002,
          2.94546355e-002, 1.00158229e-001, 1.82331324e-001,
          2.55450666e-001, 1.58798173e-001, 2.24632308e-001,
          7.07597658e-002, 1.83530580e-002, 1.34259509e-002,
          8.07028934e-002, 2.55450666e-001, 2.55450666e-001,
          2.55450666e-001, 2.18322426e-001, 1.06873803e-001,
          8.46675038e-002, 1.11923710e-001, 2.58691490e-001,
          2.75660247e-001, 2.75660247e-001, 1.50143892e-001,
          1.49860069e-001, 1.04509711e-001, 9.12248567e-002,
          1.48802981e-001, 9.68987346e-002, 8.20609778e-002,
          8.05967450e-002, 1.27004057e-001, 6.57434464e-002,
          4.65392098e-002, 3.19481529e-002, 7.83584267e-002,
          1.06732786e-001, 2.94995662e-002, 4.50197868e-002,
          7.08124116e-002, 2.39762321e-001, 2.75660247e-001,
          2.75660247e-001, 2.75660247e-001, 1.62477240e-001,
          2.75660247e-001, 6.01717383e-002, 4.55920808e-002,
          3.43773924e-002, 6.31213188e-002, 1.50953382e-001,
          2.75660247e-001, 1.64601862e-001, 2.75660247e-001,
          1.54690012e-001, 1.22986481e-001, 7.09093288e-002,
          9.52173099e-002, 8.73446316e-002, 5.55235147e-002,
          3.58402319e-002, 3.55114825e-002, 6.60157725e-002,
          1.61798120e-001, 9.59544554e-002, 9.41229761e-002,
          1.12591051e-001, 9.22855586e-002, 6.60158470e-002,
          7.14377016e-002, 6.58987090e-002, 1.00330770e-001,
          3.98566067e-001, 1.07717745e-001, 5.21359593e-002,
          7.47815222e-002, 7.05803409e-002, 5.05659916e-002,
          3.52445431e-002, 5.99973984e-002, 3.98566067e-001,
          3.98566067e-001, 2.21397892e-001, 2.39742532e-001,
          2.18661144e-001, 7.30621442e-002, 4.04553190e-002,
          2.94982120e-002, 7.79756159e-002, 3.98566067e-001,
          6.62375093e-002, 3.25755514e-002, 4.14539464e-002,
          5.92090152e-002, 1.82484671e-001, 9.34985280e-002,
          8.75399485e-002, 6.33526072e-002, 4.90875170e-002,
          3.65312360e-002, 3.29017825e-002, 1.61734801e-002,
          1.62403375e-001, 3.17383260e-001, 2.71616489e-001,
          1.33051336e-001, 8.89549777e-002, 2.92530172e-002,
          3.17383260e-001, 2.14497924e-001, 1.98287219e-001,
          1.92771673e-001, 1.39294505e-001, 2.18516402e-002,
          1.57552138e-002, 3.06190513e-002, 2.02323511e-001,
          2.32495978e-001, 3.00347090e-001, 2.19242275e-001,
          3.17383260e-001, 3.17383260e-001, 9.07777175e-002,
          2.40301751e-002, 2.07861811e-002, 1.08300328e-001,
          1.14048660e-001, 7.20824162e-003, 1.27280429e-002,
          1.40415486e-002, 7.28827193e-002, 2.36381561e-001,
          2.72533327e-001, 2.41061270e-001, 2.24957898e-001,
          2.72533327e-001, 1.16445171e-002, 1.63476057e-002,
          1.13253435e-002, 1.32637732e-002, 8.85629132e-002,
          1.73311383e-001, 1.25192299e-001, 2.72533327e-001,
          1.98614955e-001, 1.53570836e-002, 2.59954799e-002,
          2.31555514e-002, 5.75319044e-002, 2.07031310e-001,
          2.72533327e-001, 2.49243841e-001, 2.72533327e-001,
          2.72533327e-001, 3.11682038e-002, 2.54532248e-002,
          1.71258915e-002, 2.69390382e-002, 1.28017321e-001,
          1.67887017e-001, 2.08253354e-001, 2.72533327e-001,
          3.37449312e-001, 1.08734099e-002, 4.21277666e-003,
          9.10731032e-003, 9.79470555e-003, 1.13577116e-002,
          1.63144264e-002, 2.46661473e-002, 3.37449312e-001,
          3.37449312e-001, 7.35892951e-002, 7.42256343e-002,
          6.32732362e-002, 2.24735346e-002, 9.95119661e-003,
          1.09168645e-002, 2.73509026e-002, 3.37449312e-001,
          3.37449312e-001, 7.17143342e-002, 3.92760076e-002,
          6.29142532e-003, 3.46944295e-002, 3.07619721e-002,
          1.16304696e-001, 1.21923417e-001, 3.37449312e-001,
          3.37449312e-001, 7.39901364e-002, 1.01712875e-001,
          5.73327206e-002, 5.76287881e-002, 2.42409855e-002,
          7.01080188e-002, 5.23048826e-002, 3.37449312e-001,
          2.38674000e-001, 1.86510682e-001, 1.74093470e-001,
          1.61115423e-001, 4.62408140e-002, 1.73501521e-002,
          2.05249339e-002, 4.53655422e-002, 2.29563460e-001,
          1.99055940e-001, 2.38674000e-001, 2.38674000e-001,
          2.38674000e-001, 1.80260956e-001, 7.34163150e-002,
          5.10580577e-002, 6.35356233e-002, 9.35556442e-002,
          2.38674000e-001, 7.18662441e-002, 1.53501526e-001,
          1.44622207e-001, 7.87949711e-002, 5.06422035e-002,
          9.13884565e-002, 1.30765676e-001, 2.38674000e-001,
          1.92916349e-001, 1.50758788e-001, 2.09334835e-001,
          2.23974347e-001, 1.55976743e-001, 1.85961500e-001,
          1.80388883e-001, 2.21036881e-001, 1.90111667e-001 ]
      - [ 2.01476872e-001, 2.71970391e-001, 2.71970391e-001,
          2.71970391e-001, 2.57982492e-001, 1.72545873e-002,
          1.14311893e-002, 2.66958307e-002, 5.31109124e-002,
          2.71970391e-001, 2.25165069e-001, 2.56680757e-001,
          2.35799342e-001, 5.65435179e-002, 1.64719522e-002,
          4.12672684e-002, 3.12118605e-002, 2.11632699e-001,
          5.13070375e-002, 1.14124693e-001, 2.71970391e-001,
          2.71970391e-001, 2.71970391e-001, 1.33819669e-001,
          1.14136532e-001, 6.48352951e-002, 3.44008766e-002,
          3.32718827e-002, 1.03893600e-001, 1.17105298e-001,
          1.91134706e-001, 9.46262032e-002, 1.00739621e-001,
          7.84287900e-002, 6.65010810e-002, 3.84145193e-002,
          3.29511434e-001, 4.77857366e-002, 5.60129732e-002,
          5.11315092e-002, 6.17429353e-002, 5.14506064e-002,
          1.16023362e-001, 9.09428671e-002, 3.29511434e-001,
          3.29511434e-001, 2.09776126e-002, 3.26375477e-002,
          3.77805941e-002, 8.81542340e-002, 2.62351036e-001,
          2.37439930e-001, 2.49369904e-001, 3.29511434e-001,
          1.01484604e-001, 9.78304222e-002, 8.55934471e-002,
          1.16279654e-001, 1.30223915e-001, 1.94108739e-001,
          1.60813004e-001, 1.17910363e-001, 9.72668827e-002,
          9.71080288e-002, 5.92538379e-002, 7.16663003e-002,
          1.24789715e-001, 1.78219572e-001, 2.21095473e-001,
          1.51833981e-001, 1.46882996e-001, 1.56759337e-001,
          1.13954134e-001, 1.05491439e-002, 7.70587241e-003,
          1.06469970e-002, 4.93222997e-002, 2.66046911e-001,
          2.83491224e-001, 2.52293736e-001, 2.83491224e-001,
          3.59824784e-002, 1.17115378e-002, 4.88981232e-003,
          6.03972049e-003, 6.11751415e-002, 2.83491224e-001,
          2.83491224e-001, 2.83491224e-001, 2.83491224e-001,
          2.69857962e-002, 1.63789485e-002, 1.30469361e-002,
          2.49192622e-002, 6.66033998e-002, 1.34230897e-001,
          1.61436126e-001, 1.14063807e-001, 9.11619514e-002,
          3.76039147e-002, 1.50364619e-002, 1.42069608e-002,
          7.73770958e-002, 2.83491224e-001, 2.83491224e-001,
          2.83491224e-001, 1.69909284e-001, 1.00841597e-001,
          3.05915717e-002, 2.10465267e-002, 5.10585755e-002,
          1.38904810e-001, 2.12978750e-001, 2.81674415e-001,
          2.81674415e-001, 1.82523370e-001, 2.69050542e-002,
          4.03459370e-002, 5.50896078e-002, 6.50866181e-002,
          1.21886872e-001, 1.45237237e-001, 1.68212160e-001,
          1.25685140e-001, 8.32628682e-002, 2.89807785e-002,
          7.34343156e-002, 1.69409178e-002, 1.16931088e-002,
          1.34663787e-002, 9.62139443e-002, 2.81674415e-001,
          2.81674415e-001, 2.62359083e-001, 8.17956850e-002,
          2.81674415e-001, 7.96276927e-002, 7.53661096e-002,
          1.11879602e-001, 1.92802414e-001, 2.81674415e-001,
          2.81674415e-001, 1.72254235e-001, 2.45457843e-001,
          9.18318853e-002, 1.16761774e-001, 1.01948425e-001,
          2.17372879e-001, 2.85302877e-001, 1.30041257e-001,
          6.29410744e-002, 5.71839213e-002, 6.14561066e-002,
          6.50412068e-002, 6.06474318e-002, 5.81424497e-002,
          1.79840162e-001, 2.85302877e-001, 1.31351590e-001,
          5.77962920e-002, 5.49424738e-002, 7.09859058e-002,
          2.38893300e-001, 1.24197088e-001, 1.34214193e-001,
          2.85302877e-001, 2.85302877e-001, 2.05379307e-001,
          1.18816011e-001, 1.18360288e-001, 2.49682575e-001,
          1.57312587e-001, 5.00489660e-002, 6.53946400e-002,
          2.08723426e-001, 2.85302877e-001, 2.08233684e-001,
          8.82515535e-002, 7.54410923e-002, 2.34852538e-001,
          2.28289664e-002, 2.24457495e-002, 3.94827835e-002,
          9.69676375e-002, 1.63643211e-001, 9.44093168e-002,
          7.55367279e-002, 4.81727123e-002, 3.33236791e-002,
          2.22852379e-002, 1.62136182e-002, 4.13533188e-002,
          2.27421120e-001, 3.79122704e-001, 2.22618103e-001,
          1.35225877e-001, 4.95809652e-002, 2.68582571e-002,
          2.03379735e-001, 5.63194826e-002, 1.81648821e-001,
          1.63077772e-001, 1.53163612e-001, 8.25876892e-002,
          3.51910591e-002, 2.54062153e-002, 2.14218169e-001,
          1.46579146e-001, 1.40380621e-001, 3.79122704e-001,
          3.79122704e-001, 3.79122704e-001, 7.75235146e-002,
          2.31674630e-002, 1.05932364e-002, 9.60003659e-002,
          7.09128231e-002, 1.68170203e-002, 1.58223473e-002,
          4.41953307e-003, 5.43164238e-002, 2.62121171e-001,
          2.62121171e-001, 1.84643567e-001, 1.72662511e-001,
          2.62121171e-001, 7.54702240e-002, 4.14774716e-002,
          2.82415319e-002, 7.91381374e-002, 2.62121171e-001,
          2.62121171e-001, 2.46159256e-001, 2.62121171e-001,
          3.06560937e-002, 1.84454061e-002, 1.84378624e-002,
          8.05554166e-003, 5.07986248e-002, 1.50662646e-001,
          2.18803853e-001, 1.27622113e-001, 1.26638234e-001,
          2.27217481e-001, 3.84252220e-002, 1.39397820e-002,
          1.43729541e-002, 9.47485641e-002, 2.50533193e-001,
          2.62121171e-001, 2.60381699e-001, 2.62121171e-001,
          1.59617320e-001, 6.05346039e-002, 3.43119390e-002,
          5.33309765e-002, 1.92177311e-001, 1.61176339e-001,
          1.50225267e-001, 1.94009826e-001, 2.61310786e-001,
          2.61310786e-001, 7.14834556e-002, 2.23163310e-002,
          3.28457206e-002, 1.70636937e-001, 1.06744714e-001,
          8.25153887e-002, 1.31447926e-001, 2.61310786e-001,
          1.88116163e-001, 5.29838465e-002, 2.15712897e-002,
          3.64133231e-002, 1.73695192e-001, 1.82479769e-001,
          1.78992227e-001, 2.61310786e-001, 2.61310786e-001,
          2.61310786e-001, 1.67442113e-001, 5.71508445e-002,
          8.56339037e-002, 2.61310786e-001, 1.19198747e-001,
          8.45616013e-002, 1.67532012e-001, 2.61310786e-001,
          2.84234077e-001, 9.88364145e-002, 1.03163540e-001,
          5.71594574e-002, 2.11718269e-002, 1.90996248e-002,
          1.21038612e-002, 2.50712931e-002, 2.84234077e-001,
          2.59064704e-001, 2.16442108e-001, 2.84234077e-001,
          2.84234077e-001, 7.87699521e-002, 1.06448717e-002,
          1.11826407e-002, 5.80346677e-003, 1.46855280e-001,
          2.84234077e-001, 1.22089133e-001, 4.58989926e-002,
          4.20926213e-002, 7.21510425e-002, 1.81717873e-002,
          9.58523713e-003, 2.46850327e-002, 2.84234077e-001,
          2.84234077e-001, 2.29642376e-001, 2.84234077e-001,
          1.54578760e-001, 2.09657382e-002, 1.71303935e-002,
          1.35153010e-002, 1.48196062e-002, 2.84234077e-001 ]
      - [ 2.02693164e-001, 1.87729567e-001, 2.73821801e-001,
          1.47007257e-001, 3.71283777e-002, 2.08805352e-002,
          2.27187946e-003, 4.13860660e-003, 4.91816998e-002,
          2.73821801e-001, 2.73821801e-001, 2.73821801e-001,
          1.70831621e-001, 3.87178473e-002, 1.41307628e-002,
          9.70509462e-003, 1.90718751e-003, 5.23591638e-002,
          1.99112847e-001, 2.73821801e-001, 2.73821801e-001,
          2.50071675e-001, 1.11435257e-001, 4.01236638e-002,
          3.24028567e-003, 1.13702882e-002, 6.49754852e-002,
          2.73821801e-001, 2.73821801e-001, 2.73821801e-001,
          2.37466544e-001, 4.48611751e-002, 4.06052060e-002,
          2.22451203e-002, 1.18022878e-002, 7.27081075e-002,
          2.98862278e-001, 2.98862278e-001, 2.98862278e-001,
          1.65758833e-001, 6.18128292e-002, 1.61020737e-002,
          2.26668157e-002, 1.41174048e-002, 1.90404713e-001,
          2.98862278e-001, 9.97303799e-002, 1.14334792e-001,
          4.31375615e-002, 3.55453715e-002, 1.20655978e-002,
          2.48791594e-002, 2.84232404e-002, 2.98862278e-001,
          2.98862278e-001, 2.70784765e-001, 2.98862278e-001,
          1.61930948e-001, 7.55800754e-002, 6.64947852e-002,
          6.33576140e-002, 4.72263023e-002, 1.84955522e-001,
          2.03262672e-001, 5.89859113e-002, 8.42408612e-002,
          4.35036793e-002, 7.92391449e-002, 5.96507788e-002,
          5.84135614e-002, 5.89247756e-002, 2.34320775e-001,
          2.75759220e-001, 2.62135174e-002, 8.11554585e-003,
          8.32659286e-003, 3.40858549e-002, 4.47598621e-002,
          3.01782098e-002, 3.61769572e-002, 2.75759220e-001,
          2.75759220e-001, 4.10788916e-002, 2.90819388e-002,
          5.02125733e-002, 1.20715387e-001, 2.75759220e-001,
          2.75759220e-001, 2.75759220e-001, 2.75759220e-001,
          1.53278217e-001, 4.99104746e-002, 2.81917676e-002,
          3.98324132e-002, 7.86842853e-002, 6.77650794e-002,
          3.00071612e-002, 2.62350906e-002, 1.64831847e-001,
          8.82073864e-002, 1.36867523e-001, 2.24222243e-001,
          2.75759220e-001, 2.69364804e-001, 2.10861266e-001,
          1.89660877e-001, 2.06772134e-001, 1.50407091e-001,
          7.93121010e-002, 2.59469539e-001, 2.59469539e-001,
          2.59469539e-001, 2.06622034e-001, 9.79352072e-002,
          1.45127075e-002, 2.76888888e-002, 4.08619530e-002,
          1.49830565e-001, 2.59469539e-001, 2.59469539e-001,
          2.14848056e-001, 1.49687722e-001, 2.01355368e-001,
          8.02381113e-002, 8.80460069e-002, 1.14700794e-001,
          9.59575921e-002, 2.14335382e-001, 1.90469638e-001,
          2.44210958e-001, 2.59469539e-001, 1.22049227e-001,
          3.62938270e-002, 6.51584342e-002, 1.04729958e-001,
          1.15976445e-001, 9.42766219e-002, 6.17732815e-002,
          8.33816975e-002, 1.63097471e-001, 2.49729961e-001,
          1.54353157e-001, 1.59952521e-001, 1.39133036e-001,
          1.54601499e-001, 1.40187457e-001, 9.00623724e-002,
          1.05196625e-001, 1.37671441e-001, 2.28576884e-001,
          1.26534328e-001, 1.54844195e-001, 1.79199472e-001,
          1.34189442e-001, 6.25031665e-002, 5.20791262e-002,
          4.25039120e-002, 9.17900801e-002, 1.42652318e-001,
          9.35834050e-002, 1.16845779e-001, 1.63802028e-001,
          1.95814863e-001, 8.63808319e-002, 1.68307554e-002,
          6.18400946e-002, 1.62168011e-001, 2.50431836e-001,
          2.50431836e-001, 2.50431836e-001, 2.10887074e-001,
          2.50431836e-001, 1.41241387e-001, 9.89497602e-002,
          1.11523531e-001, 1.49748370e-001, 2.50431836e-001,
          2.50431836e-001, 2.50431836e-001, 2.50431836e-001,
          5.48996143e-002, 1.31511480e-001, 1.55708805e-001,
          6.59572408e-002, 5.33613041e-002, 3.64756733e-002,
          2.35338118e-002, 1.81472301e-002, 5.12435772e-002,
          4.34075035e-002, 3.16829532e-001, 3.16829532e-001,
          3.16829532e-001, 1.38359398e-001, 3.84909138e-002,
          2.78472193e-002, 1.84727199e-002, 3.82708870e-002,
          1.47886038e-001, 1.98669523e-001, 3.16829532e-001,
          2.30223477e-001, 7.63613358e-002, 1.34330332e-001,
          1.57947302e-001, 1.10905491e-001, 1.50305897e-001,
          7.10321441e-002, 3.16829532e-001, 3.16829532e-001,
          3.16829532e-001, 8.06976482e-002, 1.48392310e-002,
          3.15070376e-002, 1.49128912e-002, 3.78771089e-002,
          1.68361172e-001, 4.32482101e-002, 4.71768565e-002,
          7.90341720e-002, 2.33693480e-001, 1.08308516e-001,
          1.49952546e-001, 1.22020073e-001, 2.31028914e-001,
          1.98075935e-001, 1.03797071e-001, 1.12424113e-001,
          1.01099804e-001, 6.32870346e-002, 9.72830355e-002,
          1.29315376e-001, 1.08542144e-001, 1.66930839e-001,
          2.46973783e-001, 4.03109044e-002, 3.67358066e-002,
          5.23947179e-002, 1.05021179e-001, 2.20414996e-001,
          2.46973783e-001, 2.46511012e-001, 2.46973783e-001,
          2.46973783e-001, 1.86482638e-001, 2.46973783e-001,
          2.30397820e-001, 1.24461271e-001, 1.01060607e-001,
          1.78438708e-001, 1.46851391e-001, 2.46973783e-001,
          2.55725920e-001, 1.05282508e-001, 6.01424202e-002,
          7.26899803e-002, 6.38026223e-002, 1.00533329e-001,
          1.52188197e-001, 1.04785487e-001, 2.31102183e-001,
          2.55725920e-001, 1.32233888e-001, 8.09209794e-002,
          8.64086375e-002, 1.61173046e-001, 1.86468825e-001,
          2.32373238e-001, 1.57433003e-001, 2.55725920e-001,
          2.55725920e-001, 1.75610021e-001, 1.97753385e-001,
          1.64106011e-001, 6.98911995e-002, 1.35106901e-002,
          2.90233530e-002, 3.64121534e-002, 2.55725920e-001,
          2.55725920e-001, 2.32298240e-001, 2.18872294e-001,
          1.69754446e-001, 9.72779319e-002, 3.10033504e-002,
          3.22153084e-002, 2.59543303e-002, 2.55725920e-001,
          1.98703900e-001, 1.48314983e-001, 1.92406148e-001,
          2.10119426e-001, 1.73719764e-001, 1.06536508e-001,
          1.16578855e-001, 8.07618201e-002, 1.57925606e-001,
          8.16137046e-002, 2.36624047e-001, 2.36624047e-001,
          2.36624047e-001, 1.81560710e-001, 3.28768492e-002,
          2.52827574e-002, 5.23257777e-002, 5.62619306e-002,
          2.36624047e-001, 1.60268560e-001, 9.80417505e-002,
          1.92981809e-001, 1.54427156e-001, 1.05091453e-001,
          6.95752129e-002, 5.80968820e-002, 2.36624047e-001,
          1.61271304e-001, 1.20182030e-001, 6.73072487e-002,
          2.36624047e-001, 2.36624047e-001, 2.36624047e-001,
          1.33096963e-001, 2.10847288e-001, 2.24552974e-001 ]
      - [ 1.27721176e-001, 2.46041998e-001, 2.80089587e-001,
          2.80089587e-001, 2.80089587e-001, 1.66877165e-001,
          4.46184427e-002, 1.33173661e-002, 8.44104290e-002,
          2.80089587e-001, 1.34599686e-001, 1.82325095e-001,
          1.32295474e-001, 1.98855013e-001, 9.55260769e-002,
          6.33694679e-002, 5.11795096e-002, 1.94340348e-001,
          2.28592157e-002, 5.66769429e-002, 7.67059103e-002,
          1.69806898e-001, 2.80089587e-001, 2.80089587e-001,
          2.18902946e-001, 2.02579632e-001, 3.50913964e-002,
          3.74871939e-002, 4.77384515e-002, 5.23624755e-002,
          1.22326128e-001, 2.44392633e-001, 1.14403769e-001,
          1.00197747e-001, 1.26145676e-001, 4.21461910e-002,
          1.76104143e-001, 3.21572274e-002, 2.34330744e-002,
          4.43680957e-002, 1.53246194e-001, 1.78858042e-001,
          2.89620370e-001, 2.13416308e-001, 1.74068317e-001,
          6.65068030e-002, 3.32434922e-002, 2.97424085e-002,
          3.96871306e-002, 1.29668653e-001, 2.89620370e-001,
          2.89620370e-001, 2.89620370e-001, 2.89620370e-001,
          5.06044663e-002, 2.77908556e-002, 2.85613239e-002,
          8.36999342e-002, 1.36540517e-001, 7.51609355e-002,
          8.47852081e-002, 8.31312984e-002, 4.73229997e-002,
          8.21707696e-002, 4.79657352e-002, 4.32818830e-002,
          8.45824480e-002, 1.03124425e-001, 2.89620370e-001,
          2.89620370e-001, 2.89620370e-001, 2.34261498e-001,
          6.09157421e-002, 2.87444573e-002, 2.75547635e-002,
          2.02399436e-002, 5.32555543e-002, 2.52459407e-001,
          2.52459407e-001, 2.52459407e-001, 1.68694571e-001,
          4.71993983e-002, 2.07441915e-002, 4.67533022e-002,
          1.94683149e-002, 3.72362919e-002, 2.52459407e-001,
          2.52459407e-001, 2.52459407e-001, 7.47307166e-002,
          9.52740237e-002, 2.75130793e-002, 2.62704473e-002,
          5.20470664e-002, 1.11819848e-001, 2.52459407e-001,
          2.52459407e-001, 2.52459407e-001, 2.52459407e-001,
          8.52951035e-002, 2.28885394e-002, 2.86514461e-002,
          7.79640377e-002, 1.68661073e-001, 2.52459407e-001,
          2.52459407e-001, 2.52459407e-001, 2.25469097e-001,
          1.32301971e-002, 2.61413846e-002, 6.36728853e-003,
          9.89425182e-002, 2.76460022e-001, 2.76460022e-001,
          2.76460022e-001, 2.44754031e-001, 4.47657853e-002,
          2.15591192e-002, 4.39824872e-002, 2.02116407e-002,
          8.57082754e-002, 1.35644943e-001, 1.28793895e-001,
          1.16226189e-001, 1.42563969e-001, 4.83669713e-002,
          1.65273063e-002, 3.00631262e-002, 1.04730306e-002,
          8.14906210e-002, 2.76460022e-001, 2.76460022e-001,
          2.76460022e-001, 2.76460022e-001, 9.93611738e-002,
          7.33348504e-002, 5.53160980e-002, 2.29898393e-002,
          7.13127032e-002, 1.09617420e-001, 2.76460022e-001,
          2.76460022e-001, 2.76460022e-001, 1.87502742e-001,
          1.35741264e-001, 1.17177404e-001, 1.14369124e-001,
          1.08649097e-001, 1.26878351e-001, 1.51154593e-001,
          7.99979568e-002, 1.01455182e-001, 1.35047391e-001,
          1.66059911e-001, 1.50395408e-001, 1.21933565e-001,
          1.44125044e-001, 1.97634876e-001, 2.34284803e-001,
          1.51508853e-001, 2.29026631e-001, 2.44190335e-001,
          2.21444309e-001, 1.60648137e-001, 1.36348322e-001,
          9.80056599e-002, 8.77440944e-002, 2.44190335e-001,
          2.44190335e-001, 2.44190335e-001, 2.44190335e-001,
          1.32917866e-001, 1.58096284e-001, 1.69605315e-001,
          1.58895254e-001, 2.44190335e-001, 9.26882625e-002,
          1.15927495e-001, 1.00867845e-001, 1.18561171e-001,
          5.17144725e-002, 2.87081432e-002, 3.96792330e-002,
          8.60500038e-002, 2.36014783e-001, 1.86080098e-001,
          1.28572062e-001, 1.57630801e-001, 2.11794019e-001,
          5.94154298e-002, 3.53140607e-002, 4.36673723e-002,
          1.71578437e-001, 2.82021165e-001, 2.82021165e-001,
          2.82021165e-001, 2.82021165e-001, 2.08769053e-001,
          3.59100327e-002, 3.29904668e-002, 5.71212843e-002,
          1.05384715e-001, 2.37564370e-001, 6.19339198e-002,
          5.70633151e-002, 6.19276091e-002, 4.10771780e-002,
          2.85884775e-002, 3.76097634e-002, 5.40381782e-002,
          2.82021165e-001, 2.82021165e-001, 2.65955865e-001,
          1.92939386e-001, 2.15676367e-001, 7.61110708e-002,
          1.38368485e-002, 1.50628528e-002, 8.35893955e-003,
          1.56811569e-002, 5.36770076e-002, 2.90388316e-001,
          2.90388316e-001, 2.90388316e-001, 7.12352619e-002,
          6.78059310e-002, 1.99532881e-002, 7.06689013e-003,
          1.16838198e-002, 2.23258492e-002, 2.81184644e-001,
          2.90388316e-001, 2.90388316e-001, 2.58778870e-001,
          1.92503762e-002, 2.39904691e-002, 1.61182433e-002,
          1.69869643e-002, 3.69475782e-002, 1.32084683e-001,
          2.50383526e-001, 2.04229206e-001, 5.62151670e-002,
          1.96129140e-002, 7.84306135e-003, 4.93227178e-003,
          8.10541026e-003, 2.59963218e-002, 1.81697235e-001,
          2.90388316e-001, 2.90388316e-001, 2.90388316e-001,
          6.53346628e-002, 2.32530423e-002, 2.03174893e-002,
          2.06186157e-002, 2.78753024e-002, 1.97003588e-001,
          2.82900065e-001, 2.82900065e-001, 2.09063187e-001,
          7.04631582e-002, 2.37521734e-002, 4.02037539e-002,
          3.71206962e-002, 6.69291168e-002, 1.16402894e-001,
          1.25688776e-001, 1.39614269e-001, 1.10108450e-001,
          6.21823855e-002, 4.34595719e-003, 5.69309294e-003,
          4.98867128e-003, 3.81903313e-002, 2.17274889e-001,
          2.82900065e-001, 2.82900065e-001, 2.82900065e-001,
          2.22685307e-001, 1.80325340e-002, 2.29301453e-002,
          1.91491153e-002, 1.02744900e-001, 2.82900065e-001,
          2.82900065e-001, 2.82900065e-001, 2.82900065e-001,
          5.87633476e-002, 2.44799033e-002, 7.95228109e-002,
          1.20539486e-001, 1.65573612e-001, 4.47169319e-002,
          3.28439474e-002, 2.75094397e-002, 6.03263266e-002,
          3.08377966e-002, 5.09568043e-002, 1.27628341e-001,
          2.93063164e-001, 2.93063164e-001, 1.60594851e-001,
          3.28167826e-002, 2.32812166e-002, 2.69268677e-002,
          2.51562864e-001, 1.09207019e-001, 2.36993492e-001,
          1.75992221e-001, 1.21235482e-001, 2.27718785e-001,
          1.85221046e-001, 1.33941233e-001, 2.45574564e-001,
          1.68406159e-001, 2.81497836e-001, 2.93063164e-001,
          2.93063164e-001, 2.93063164e-001, 6.13026805e-002,
          3.00600231e-002, 1.90549884e-002, 7.61027932e-002 ]
      - [ 2.59925514e-001, 2.59925514e-001, 2.59925514e-001,
          1.18032597e-001, 1.48880184e-001, 6.13621548e-002,
          4.94978204e-002, 5.67753762e-002, 2.59925514e-001,
          2.59925514e-001, 1.13639072e-001, 9.88821760e-002,
          1.33221522e-002, 5.00378832e-002, 2.19870862e-002,
          5.22753447e-002, 5.66549301e-002, 2.59925514e-001,
          1.67087391e-001, 1.40167668e-001, 1.18310474e-001,
          8.61980394e-002, 2.58276999e-001, 1.91153914e-001,
          2.08162040e-001, 1.70439363e-001, 2.59925514e-001,
          1.54416099e-001, 9.44341049e-002, 5.99239320e-002,
          4.02581468e-002, 6.59631193e-002, 1.36473536e-001,
          1.99250415e-001, 1.85220063e-001, 2.59925514e-001,
          2.97934502e-001, 4.89372313e-002, 2.08262336e-002,
          7.96480756e-003, 6.38652220e-002, 1.42056113e-002,
          1.52686626e-001, 1.70091882e-001, 2.97934502e-001,
          2.97934502e-001, 6.08805753e-002, 2.77461782e-002,
          1.80617515e-002, 5.36648259e-002, 4.01160158e-002,
          2.54141778e-001, 2.97934502e-001, 2.97934502e-001,
          1.28879562e-001, 7.91498348e-002, 5.16301468e-002,
          5.55907339e-002, 6.69202656e-002, 5.66452183e-002,
          1.21364348e-001, 1.67912111e-001, 2.49296874e-001,
          2.97934502e-001, 9.99368355e-002, 1.19664364e-001,
          9.27501842e-002, 1.18194751e-001, 5.26212826e-002,
          1.61926627e-001, 1.58468127e-001, 2.97934502e-001,
          1.89453423e-001, 2.43271142e-002, 2.71596927e-002,
          1.32121379e-002, 3.09922285e-002, 7.66365677e-002,
          2.56750554e-001, 2.56750554e-001, 2.56750554e-001,
          4.98066880e-002, 1.58685297e-002, 2.58982182e-002,
          2.27744281e-002, 5.13899624e-002, 1.39715075e-001,
          2.56750554e-001, 2.56750554e-001, 2.22698554e-001,
          2.56750554e-001, 4.92844842e-002, 7.63423443e-002,
          4.58826795e-002, 7.48593882e-002, 9.87619460e-002,
          2.25587234e-001, 1.97207361e-001, 2.56750554e-001,
          1.56727806e-001, 5.90080097e-002, 7.50890598e-002,
          6.41087145e-002, 1.58863544e-001, 1.99463055e-001,
          2.56750554e-001, 2.56750554e-001, 2.56750554e-001,
          9.86482278e-002, 5.86985126e-002, 2.96961647e-002,
          3.57299261e-002, 1.64869040e-001, 1.80562660e-001,
          2.24198669e-001, 2.36979246e-001, 2.42769137e-001,
          1.46620914e-001, 1.41415313e-001, 2.73369160e-002,
          3.02961767e-002, 9.64927524e-002, 1.56205013e-001,
          2.51187414e-001, 2.51187414e-001, 2.02791810e-001,
          1.11839928e-001, 4.16452065e-002, 2.01191381e-002,
          1.79573800e-002, 6.83351532e-002, 1.17731653e-001,
          2.51187414e-001, 2.51187414e-001, 2.51187414e-001,
          2.51187414e-001, 1.49119377e-001, 3.19206193e-002,
          2.47231312e-002, 6.74968287e-002, 9.60892960e-002,
          2.51187414e-001, 2.51187414e-001, 2.51187414e-001,
          1.24124058e-001, 1.05194315e-001, 2.71139238e-002,
          4.31494378e-002, 6.92919791e-002, 6.36153966e-002,
          1.84102252e-001, 2.97505766e-001, 2.18252629e-001,
          1.99557900e-001, 5.28077744e-002, 5.47743365e-002,
          5.69196939e-002, 7.39201531e-002, 2.40170676e-002,
          7.58163109e-002, 2.75988400e-001, 2.97505766e-001,
          2.25363433e-001, 1.16817787e-001, 1.29265692e-002,
          2.76790299e-002, 4.65450026e-002, 4.69107069e-002,
          2.06336245e-001, 2.97505766e-001, 2.97505766e-001,
          2.97505766e-001, 6.69637099e-002, 1.66777205e-002,
          1.45732341e-002, 2.46273577e-002, 1.25340736e-002,
          5.61651886e-002, 2.97505766e-001, 2.97505766e-001,
          2.47565091e-001, 5.26087172e-002, 4.58378531e-002,
          5.20921350e-002, 7.29407817e-002, 3.62364687e-002,
          4.44485359e-002, 1.19269855e-001, 2.20042467e-001,
          1.99808821e-001, 1.90212518e-001, 1.53822064e-001,
          1.87155887e-001, 2.56092876e-001, 1.13913566e-001,
          9.13558602e-002, 1.90316767e-001, 1.96576774e-001,
          2.56092876e-001, 1.16508402e-001, 7.02895522e-002,
          6.19744696e-002, 6.42758310e-002, 2.47852616e-002,
          2.24979334e-002, 1.25376970e-001, 2.56092876e-001,
          2.56092876e-001, 2.56092876e-001, 2.56092876e-001,
          2.56092876e-001, 2.56092876e-001, 8.07258263e-002,
          4.21662740e-002, 2.92118900e-002, 2.21800506e-001,
          1.20898291e-001, 3.95931602e-002, 4.22352850e-002,
          2.16720439e-002, 6.41506463e-002, 3.89543362e-002,
          2.84662813e-001, 2.84662813e-001, 2.84662813e-001,
          2.57629275e-001, 6.99082911e-002, 5.22747897e-002,
          3.38824131e-002, 4.06148285e-002, 7.37506971e-002,
          2.84662813e-001, 2.84662813e-001, 2.84662813e-001,
          6.95255771e-002, 6.79019839e-002, 1.16271861e-001,
          6.92013428e-002, 1.02867030e-001, 4.75584716e-002,
          1.51718825e-001, 1.35928690e-001, 1.27298579e-001,
          1.75030172e-001, 8.84013996e-002, 2.02755347e-001,
          1.45406544e-001, 1.59944028e-001, 8.09348300e-002,
          2.19690353e-001, 2.10309401e-001, 2.84662813e-001,
          2.04702541e-001, 5.09288274e-002, 3.19540352e-002,
          2.43271589e-002, 4.14468348e-002, 5.48979454e-002,
          2.03280881e-001, 2.36274630e-001, 2.63133615e-001,
          2.63133615e-001, 1.03960507e-001, 8.17827284e-002,
          1.83314905e-002, 5.48833497e-002, 4.43706438e-002,
          7.80518726e-002, 1.82791442e-001, 2.63133615e-001,
          1.46712273e-001, 4.96630296e-002, 7.49041811e-002,
          7.95433149e-002, 1.53045148e-001, 1.24904439e-001,
          1.94698125e-001, 1.90787166e-001, 2.63133615e-001,
          2.63133615e-001, 1.25481725e-001, 1.03130609e-001,
          5.53143471e-002, 1.76526070e-001, 1.73836201e-001,
          2.49610439e-001, 2.63133615e-001, 2.63133615e-001,
          2.63262212e-001, 1.90586880e-001, 1.73937023e-001,
          4.62302007e-002, 3.54084857e-002, 2.58014463e-002,
          3.79483663e-002, 9.55284387e-002, 2.63262212e-001,
          2.63262212e-001, 2.63262212e-001, 2.63262212e-001,
          2.46709436e-001, 1.19783081e-001, 3.85429263e-002,
          3.53516340e-002, 4.31794077e-002, 2.17634454e-001,
          2.63262212e-001, 1.36081815e-001, 1.23300612e-001,
          3.74367498e-002, 7.63345733e-002, 7.43311271e-002,
          1.47967368e-001, 2.55276650e-001, 2.63262212e-001,
          2.58369744e-001, 1.53017148e-001, 1.50112227e-001,
          4.74641137e-002, 5.40311858e-002, 3.22447717e-002,
          4.80505526e-002, 7.24751279e-002, 2.09357291e-001 ]
      - [ 3.34922075e-002, 1.49627596e-001, 2.70060301e-001,
          2.70060301e-001, 2.70060301e-001, 8.29354823e-002,
          1.36141861e-002, 4.99421684e-003, 1.77007187e-002,
          1.38000429e-001, 1.78041384e-001, 2.70060301e-001,
          2.70060301e-001, 2.32558012e-001, 3.42999734e-002,
          5.61958691e-003, 1.81179103e-002, 1.11400686e-001,
          1.40983807e-002, 1.62416585e-002, 2.68097162e-001,
          2.70060301e-001, 2.70060301e-001, 1.97257638e-001,
          6.05373457e-002, 2.56427266e-002, 1.76083259e-002,
          1.94243751e-002, 2.61546466e-002, 1.95803076e-001,
          2.64140844e-001, 2.70060301e-001, 1.89609155e-001,
          4.07474115e-002, 2.15879232e-002, 3.20274457e-002,
          2.69724935e-001, 1.38703704e-001, 2.11780027e-001,
          1.45488158e-001, 1.15751579e-001, 3.26424502e-002,
          1.14645243e-001, 1.66196167e-001, 2.69724935e-001,
          1.37160763e-001, 6.79369643e-002, 2.55751684e-002,
          2.50489525e-002, 7.02816546e-002, 1.80245966e-001,
          2.69724935e-001, 2.69724935e-001, 2.69724935e-001,
          5.05594052e-002, 5.10521717e-002, 1.51463494e-001,
          1.62856609e-001, 2.69724935e-001, 1.19531952e-001,
          7.89001957e-002, 8.45342353e-002, 1.05452932e-001,
          5.84202707e-002, 6.56499714e-002, 7.19979256e-002,
          1.03049763e-001, 1.28533006e-001, 2.11430982e-001,
          2.69724935e-001, 2.69724935e-001, 1.85779631e-001,
          2.87034363e-002, 2.77826637e-002, 1.05786249e-002,
          7.92101398e-003, 5.14991917e-002, 2.33308345e-001,
          2.89181024e-001, 2.89181024e-001, 1.59096792e-001,
          2.44579539e-002, 2.02184282e-002, 8.12597945e-003,
          1.43616572e-002, 9.14787874e-002, 2.89181024e-001,
          2.89181024e-001, 2.41159335e-001, 7.35555291e-002,
          1.56677738e-002, 2.61195935e-002, 2.67301854e-002,
          2.54589226e-002, 3.79131064e-002, 2.89181024e-001,
          2.89181024e-001, 2.73870289e-001, 7.47540593e-002,
          1.56638324e-002, 1.76184215e-002, 7.42823491e-003,
          1.01121962e-002, 5.44770658e-002, 2.89181024e-001,
          2.89181024e-001, 2.85395741e-001, 3.56296003e-002,
          9.57157239e-002, 1.77659784e-002, 1.31533042e-001,
          2.09027067e-001, 2.64992833e-001, 2.25156426e-001,
          1.65004745e-001, 5.46169057e-002, 7.76800364e-002,
          9.14148428e-003, 1.34601388e-002, 5.81528544e-002,
          1.20434955e-001, 2.64992833e-001, 2.48447523e-001,
          2.59039283e-001, 5.34417778e-002, 3.35408635e-002,
          2.64992833e-001, 1.63309574e-001, 7.10554793e-002,
          1.62404940e-001, 2.15822548e-001, 1.62638962e-001,
          2.48600677e-001, 8.29845965e-002, 2.64992833e-001,
          1.15688801e-001, 6.70561790e-002, 5.50439619e-002,
          5.29747680e-002, 1.18398301e-001, 2.64992833e-001,
          2.64992833e-001, 1.42488211e-001, 9.90147218e-002,
          4.06254642e-002, 4.64860313e-002, 7.57303312e-002,
          5.82548976e-002, 1.76751941e-001, 1.44317791e-001,
          1.65395722e-001, 5.17702214e-002, 6.84465989e-002,
          5.34025431e-002, 6.47945702e-002, 8.43959078e-002,
          7.64546394e-002, 1.09467499e-001, 8.99859145e-002,
          9.40082222e-002, 7.81476274e-002, 8.39570090e-002,
          3.48456144e-001, 1.44301847e-001, 1.24761805e-001,
          2.38947123e-002, 5.83787113e-002, 2.44523153e-001,
          3.48456144e-001, 1.46288633e-001, 3.48456144e-001,
          3.48456144e-001, 1.78016335e-001, 8.66981894e-002,
          6.25853390e-002, 1.18132204e-001, 1.25720039e-001,
          1.07923850e-001, 1.46618694e-001, 3.48456144e-001,
          1.24215335e-002, 4.28554118e-002, 5.78414761e-002,
          3.67646962e-002, 4.96979877e-002, 2.15889782e-001,
          2.75900483e-001, 1.24268025e-001, 4.74721678e-002,
          1.84935890e-002, 1.83304530e-002, 2.14366112e-002,
          3.17870304e-002, 1.28662303e-001, 2.75900483e-001,
          2.75900483e-001, 1.93077907e-001, 3.91485952e-002,
          2.54384935e-001, 1.04654655e-001, 7.58888274e-002,
          1.12469427e-001, 1.77705824e-001, 1.82822794e-001,
          1.63260773e-001, 9.32599381e-002, 2.75900483e-001,
          3.93433161e-002, 1.22926570e-001, 2.00136378e-001,
          2.75900483e-001, 2.75900483e-001, 2.75900483e-001,
          2.75900483e-001, 5.87474816e-002, 5.20140193e-002,
          2.85910428e-001, 1.84790447e-001, 3.58849876e-002,
          1.19392164e-001, 7.33785480e-002, 1.64375871e-001,
          2.85910428e-001, 1.20538950e-001, 2.85910428e-001,
          1.54852122e-001, 8.69821608e-002, 6.83408305e-002,
          4.41313200e-002, 5.88238202e-002, 2.85910428e-001,
          2.85910428e-001, 1.86422989e-001, 9.66938287e-002,
          1.53258622e-001, 7.95195624e-002, 4.31612171e-002,
          6.96918741e-002, 9.81578082e-002, 1.83779031e-001,
          2.85910428e-001, 1.01929247e-001, 1.22022644e-001,
          6.42085075e-002, 3.25525478e-002, 3.27052996e-002,
          2.51700133e-002, 5.90393096e-002, 2.85910428e-001,
          2.85910428e-001, 1.99044377e-001, 7.50003308e-002,
          2.98101753e-001, 1.43894881e-001, 9.35419500e-002,
          2.31980383e-002, 3.70367095e-002, 1.20707214e-001,
          1.85164973e-001, 1.02610216e-001, 2.62705326e-001,
          2.98101753e-001, 2.49898016e-001, 5.88833950e-002,
          5.00470847e-002, 1.00530632e-001, 1.01176158e-001,
          7.49462619e-002, 1.24464333e-001, 2.98101753e-001,
          1.20316781e-001, 7.41031691e-002, 3.03156245e-002,
          1.74408965e-002, 5.63632473e-002, 1.49801552e-001,
          2.98101753e-001, 1.93197131e-001, 1.29560262e-001,
          2.98101753e-001, 1.72182471e-001, 3.93035077e-002,
          4.98727709e-002, 1.02890849e-001, 9.85798016e-002,
          1.10911824e-001, 1.64293423e-001, 2.98101753e-001,
          2.62025714e-001, 1.81704611e-001, 9.74039659e-002,
          1.51585400e-001, 2.04374269e-001, 1.35953814e-001,
          9.43204686e-002, 8.73842984e-002, 2.62025714e-001,
          8.24588612e-002, 1.55814275e-001, 2.62025714e-001,
          2.62025714e-001, 2.10788131e-001, 9.50056538e-002,
          4.33889031e-002, 2.11913195e-002, 7.43413642e-002,
          2.62025714e-001, 1.97809622e-001, 1.14506356e-001,
          9.27138701e-002, 1.21046834e-001, 7.64112696e-002,
          7.06718713e-002, 1.12209216e-001, 2.62025714e-001,
          1.26461387e-001, 2.62025714e-001, 2.62025714e-001,
          2.62025714e-001, 8.62579644e-002, 1.63141154e-002,
          1.32758562e-002, 4.68450785e-002, 1.40787885e-001 ]
      - [ 2.60225266e-001, 2.11619094e-001, 2.60225266e-001,
          2.60225266e-001, 9.70724598e-002, 1.43275913e-002,
          1.37718609e-002, 1.45272845e-002, 1.46367192e-001,
          2.60225266e-001, 2.22168013e-001, 2.60225266e-001,
          2.60225266e-001, 5.22400886e-002, 1.11142412e-001,
          1.03533112e-001, 9.94507149e-002, 1.76858738e-001,
          6.76071122e-002, 6.89562783e-002, 2.60225266e-001,
          2.60225266e-001, 2.60225266e-001, 9.66010094e-002,
          4.76202294e-002, 4.12960164e-002, 3.54826972e-002,
          1.42346382e-001, 1.12393059e-001, 1.21382765e-001,
          1.67422786e-001, 1.00721866e-001, 1.45035774e-001,
          1.93529502e-001, 1.23070158e-001, 1.09783381e-001,
          2.74849981e-001, 7.78756514e-002, 7.45697618e-002,
          1.16545148e-001, 4.92349975e-002, 2.23604739e-001,
          2.00405195e-001, 2.28872031e-001, 2.74849981e-001,
          2.74849981e-001, 1.80093218e-002, 1.32065434e-002,
          1.58315003e-002, 5.87212294e-002, 2.74849981e-001,
          2.74849981e-001, 2.74849981e-001, 2.74849981e-001,
          1.11606196e-001, 6.51300624e-002, 4.34734039e-002,
          6.25798330e-002, 9.16308165e-002, 1.37170583e-001,
          1.54648662e-001, 1.24522276e-001, 1.37057513e-001,
          1.00415237e-001, 3.49955894e-002, 3.76159810e-002,
          4.38592620e-002, 1.08532310e-001, 1.63389072e-001,
          1.90290228e-001, 1.74182996e-001, 2.57852376e-001,
          1.20067038e-001, 7.84877315e-003, 1.04319379e-002,
          6.47403207e-003, 4.31872606e-002, 2.48284966e-001,
          2.54585147e-001, 2.54585147e-001, 2.54585147e-001,
          1.14476517e-001, 3.59584317e-002, 2.37063859e-002,
          2.88389940e-002, 6.15248308e-002, 2.54585147e-001,
          2.54585147e-001, 2.54585147e-001, 1.95755735e-001,
          3.45187262e-002, 1.09856324e-002, 1.31387375e-002,
          1.92073733e-002, 1.16356432e-001, 1.98522523e-001,
          2.54585147e-001, 2.30114326e-001, 1.79056942e-001,
          2.02520490e-002, 1.99393146e-002, 6.30105147e-003,
          5.15966602e-002, 2.54585147e-001, 2.54585147e-001,
          2.54585147e-001, 2.54585147e-001, 7.17114061e-002,
          2.75502428e-002, 1.11618005e-002, 4.65716943e-002,
          1.43711984e-001, 2.59325504e-001, 2.32271910e-001,
          2.03402415e-001, 1.88412383e-001, 7.04682022e-002,
          4.37281169e-002, 3.46816517e-002, 4.30320688e-002,
          9.05636400e-002, 2.02554300e-001, 2.16205418e-001,
          1.90855533e-001, 1.50413305e-001, 8.81492794e-002,
          7.15632215e-002, 1.81201231e-002, 1.12931672e-002,
          2.68148016e-002, 9.79557782e-002, 2.59325504e-001,
          2.59325504e-001, 2.59325504e-001, 2.09061801e-001,
          1.61377832e-001, 6.78815544e-002, 3.35874446e-002,
          4.45288531e-002, 1.96965560e-001, 2.59325504e-001,
          2.59325504e-001, 2.59325504e-001, 2.59325504e-001,
          3.41793820e-002, 5.12839667e-002, 6.22714907e-002,
          7.94733688e-002, 2.63773829e-001, 2.63773829e-001,
          2.24165067e-001, 2.06884176e-001, 7.74679482e-002,
          4.91415635e-002, 4.69315276e-002, 4.00158614e-002,
          6.51013851e-002, 2.00691789e-001, 1.48062721e-001,
          7.62098804e-002, 8.61429125e-002, 7.16841295e-002,
          1.92479044e-001, 1.55237705e-001, 6.67482093e-002,
          8.39172825e-002, 2.63773829e-001, 2.63773829e-001,
          2.63773829e-001, 2.63773829e-001, 1.94538847e-001,
          1.12785503e-001, 1.19341142e-001, 4.08527292e-002,
          7.62410834e-002, 2.63773829e-001, 2.63242096e-001,
          1.92452118e-001, 2.03797504e-001, 1.16007261e-001,
          3.05123739e-002, 2.56436151e-002, 2.36512478e-002,
          5.37767336e-002, 2.41472110e-001, 1.50279701e-001,
          1.42422765e-001, 9.31817591e-002, 4.38750200e-002,
          4.91531417e-002, 5.04337996e-002, 4.82988767e-002,
          1.68520167e-001, 2.88808167e-001, 2.88808167e-001,
          2.88808167e-001, 2.56237715e-001, 3.91622111e-002,
          5.95653243e-002, 1.28153652e-001, 1.77126646e-001,
          1.84497863e-001, 1.22690380e-001, 7.23409504e-002,
          6.53853491e-002, 4.09459397e-002, 4.90368642e-002,
          7.79909790e-002, 2.65266478e-001, 2.88808167e-001,
          2.88808167e-001, 2.88808167e-001, 1.74995720e-001,
          1.95876911e-001, 1.13762602e-001, 6.73513412e-002,
          1.18568130e-001, 2.85256300e-002, 6.57768175e-003,
          1.05628138e-002, 2.92497706e-002, 2.58051336e-001,
          2.58051336e-001, 2.58051336e-001, 2.17089087e-001,
          2.58051336e-001, 8.76221955e-002, 1.85762309e-002,
          8.14144313e-003, 5.96062317e-002, 2.58051336e-001,
          2.58051336e-001, 2.58051336e-001, 2.58051336e-001,
          1.16327018e-001, 2.21478958e-002, 7.61558162e-003,
          2.63929423e-002, 2.95523908e-002, 6.63325265e-002,
          2.03422427e-001, 1.33746520e-001, 1.54004052e-001,
          2.58051336e-001, 3.86765897e-002, 7.38278544e-003,
          1.13193225e-002, 4.00273390e-002, 1.78205118e-001,
          2.58051336e-001, 2.28471875e-001, 2.58051336e-001,
          1.81454644e-001, 7.42783993e-002, 2.07536519e-002,
          1.68092120e-002, 1.14254378e-001, 2.17871010e-001,
          2.48294473e-001, 2.24676579e-001, 2.48294473e-001,
          2.45993361e-001, 1.01586051e-001, 3.24249864e-002,
          3.58201563e-002, 1.08857103e-001, 1.01603143e-001,
          1.18335947e-001, 1.74254224e-001, 2.48294473e-001,
          2.48294473e-001, 3.22057754e-002, 5.44351153e-003,
          8.20618030e-003, 5.51968478e-002, 1.63620815e-001,
          2.48294473e-001, 2.48294473e-001, 2.48294473e-001,
          2.48294473e-001, 1.53378800e-001, 7.44014829e-002,
          7.07625896e-002, 1.15206644e-001, 1.08074740e-001,
          1.12483285e-001, 2.23999679e-001, 2.48294473e-001,
          2.41491646e-001, 1.72203735e-001, 1.88073143e-001,
          1.85455710e-001, 3.72245759e-002, 1.36900907e-002,
          2.85701863e-002, 4.73515205e-002, 2.06687823e-001,
          1.10143177e-001, 2.61652350e-001, 2.61652350e-001,
          2.61652350e-001, 1.66828886e-001, 2.20240671e-002,
          1.72563624e-002, 2.15720199e-002, 9.66205895e-002,
          2.61652350e-001, 1.88765541e-001, 1.37278616e-001,
          1.30002737e-001, 6.51004463e-002, 2.54430082e-002,
          2.40593012e-002, 5.61353229e-002, 2.61652350e-001,
          2.61652350e-001, 2.10885748e-001, 2.61652350e-001,
          2.54808307e-001, 6.57519698e-002, 8.31027795e-003,
          3.09171341e-003, 1.60380974e-002, 2.61652350e-001 ]
      - [ 2.73419261e-001, 2.65580028e-001, 2.73419261e-001,
          1.74739480e-001, 1.41029179e-001, 6.04101159e-002,
          2.74555814e-002, 1.61686316e-002, 1.28253594e-001,
          2.73419261e-001, 1.67797029e-001, 1.60464749e-001,
          5.45589887e-002, 4.33152057e-002, 1.25117851e-002,
          1.11536086e-002, 4.23809178e-002, 2.73419261e-001,
          1.19503736e-001, 2.32377633e-001, 2.73419261e-001,
          2.73419261e-001, 2.23971099e-001, 5.98432608e-002,
          3.04049645e-002, 2.37450432e-002, 6.82949275e-002,
          2.73419261e-001, 1.29409865e-001, 2.28992492e-001,
          8.65052342e-002, 4.91193719e-002, 1.91212893e-002,
          8.88145249e-003, 3.85330245e-002, 2.48736888e-001,
          3.32538247e-001, 5.77501953e-002, 1.72648877e-002,
          1.44075500e-002, 3.13804559e-002, 1.29289534e-002,
          2.05231942e-002, 5.16632348e-002, 3.32538247e-001,
          3.32538247e-001, 5.60803786e-002, 2.26059649e-002,
          3.12355589e-002, 1.16813123e-001, 8.58598426e-002,
          6.99267834e-002, 9.20987651e-002, 3.32538247e-001,
          3.32538247e-001, 6.07250296e-002, 5.87966852e-002,
          3.61530595e-002, 3.59307788e-002, 2.55326666e-002,
          9.36494861e-003, 4.96577173e-002, 3.32538247e-001,
          3.32538247e-001, 4.75124493e-002, 6.63236454e-002,
          5.32069877e-002, 1.42479733e-001, 1.15524746e-001,
          5.14965840e-002, 7.86546096e-002, 3.32538247e-001,
          2.11588025e-001, 3.00384369e-002, 7.27027701e-003,
          2.95776483e-002, 1.95706144e-001, 1.85033336e-001,
          1.30316705e-001, 1.42453417e-001, 2.66507447e-001,
          5.55851385e-002, 1.29151046e-002, 9.06164665e-003,
          6.83706775e-002, 2.66507447e-001, 2.66507447e-001,
          2.49896452e-001, 2.48373196e-001, 1.49694443e-001,
          1.01447366e-001, 1.64501667e-002, 3.79180945e-002,
          5.79236411e-002, 2.66507447e-001, 2.60288715e-001,
          1.41790465e-001, 1.36373714e-001, 1.42438218e-001,
          4.27053012e-002, 1.34850852e-002, 3.66329476e-002,
          9.64090899e-002, 2.66507447e-001, 2.66507447e-001,
          2.43955091e-001, 2.02649057e-001, 6.99130148e-002,
          3.49898115e-002, 9.80827063e-002, 2.89610445e-001,
          2.89610445e-001, 2.89610445e-001, 1.20529436e-001,
          4.18520011e-002, 3.82497832e-002, 5.85559234e-002,
          9.79687721e-002, 5.60373738e-002, 1.02895245e-001,
          9.41233858e-002, 1.12925537e-001, 3.88278551e-002,
          4.42918949e-002, 4.64660265e-002, 6.05243146e-002,
          1.06682092e-001, 5.89854643e-003, 1.14180353e-002,
          1.15474090e-001, 2.89610445e-001, 2.86127359e-001,
          2.89610445e-001, 2.52999723e-001, 2.89610445e-001,
          2.69244760e-001, 3.42147052e-002, 4.13578078e-002,
          4.94283363e-002, 8.10581446e-002, 1.12840213e-001,
          1.79991648e-001, 1.53190225e-001, 2.89610445e-001,
          1.63541749e-001, 9.49263275e-002, 9.13979262e-002,
          1.20053627e-001, 1.04501113e-001, 4.10488844e-002,
          3.45364101e-002, 4.59490046e-002, 5.62689416e-002,
          1.14406161e-001, 1.36751160e-001, 2.29321495e-001,
          1.69765547e-001, 1.22720435e-001, 8.26102793e-002,
          5.69319688e-002, 8.10765773e-002, 4.54937890e-002,
          3.09238523e-001, 2.08165258e-001, 1.75129980e-001,
          1.35743827e-001, 9.75967348e-002, 6.67962506e-002,
          8.31925124e-002, 9.81474221e-002, 3.09238523e-001,
          3.09238523e-001, 3.09238523e-001, 3.09238523e-001,
          3.09238523e-001, 1.05267748e-001, 4.75923009e-002,
          9.66117606e-002, 1.09710462e-001, 2.02202484e-001,
          9.29382630e-003, 7.95828328e-002, 1.96045429e-001,
          1.43821746e-001, 2.03981072e-001, 1.27482787e-001,
          6.06469177e-002, 7.06477016e-002, 8.57277215e-003,
          1.73570495e-002, 8.95617232e-002, 1.74690649e-001,
          2.11836398e-001, 3.02170336e-001, 2.76587963e-001,
          8.34370479e-002, 8.74693245e-002, 2.75317039e-002,
          1.11945994e-001, 2.55783767e-001, 3.02170336e-001,
          2.84895539e-001, 1.06312148e-001, 2.55046897e-002,
          1.50357522e-002, 2.88494639e-002, 2.40762290e-002,
          8.60694330e-003, 2.31396258e-001, 3.02170336e-001,
          3.02170336e-001, 3.02170336e-001, 6.66867122e-002,
          1.39623312e-002, 3.63966078e-002, 2.05141269e-002,
          1.37954071e-001, 4.12823353e-003, 2.24584690e-003,
          2.82249767e-002, 1.51966751e-001, 1.78137764e-001,
          2.72736549e-001, 2.00248167e-001, 2.72736549e-001,
          2.72736549e-001, 1.82733964e-002, 1.24716964e-002,
          8.25584400e-003, 1.69714410e-002, 6.99531883e-002,
          1.27378315e-001, 1.26191631e-001, 2.72736549e-001,
          2.72736549e-001, 2.85975449e-002, 6.72351010e-003,
          1.72581468e-002, 7.38252476e-002, 2.04810202e-001,
          2.72736549e-001, 2.24769160e-001, 2.72736549e-001,
          2.72736549e-001, 2.67753620e-002, 8.90105125e-003,
          3.63779254e-003, 2.91920956e-002, 1.54347464e-001,
          1.21858232e-001, 1.89020798e-001, 2.72736549e-001,
          2.81841278e-001, 1.20786332e-001, 9.30157974e-002,
          4.32888605e-002, 1.94589887e-002, 2.22566593e-002,
          2.08697524e-002, 4.61516194e-002, 2.81841278e-001,
          2.81841278e-001, 2.81841278e-001, 2.81841278e-001,
          1.44821629e-001, 3.22776996e-002, 1.83472019e-002,
          2.39367373e-002, 3.23104821e-002, 1.57847941e-001,
          2.81841278e-001, 9.80571508e-002, 1.03137165e-001,
          5.52561991e-002, 2.53240410e-002, 4.43062000e-002,
          3.38298008e-002, 7.17214048e-002, 2.81841278e-001,
          2.81841278e-001, 2.47264683e-001, 2.52345294e-001,
          2.04197213e-001, 4.65772524e-002, 1.79049969e-002,
          2.63815019e-002, 5.41728809e-002, 2.81841278e-001,
          1.89379618e-001, 2.53896117e-001, 2.53896117e-001,
          2.53896117e-001, 7.02214465e-002, 2.00792346e-002,
          1.21488906e-002, 2.76099350e-002, 4.23849039e-002,
          2.71913670e-002, 1.81838036e-001, 2.53896117e-001,
          2.53896117e-001, 2.53896117e-001, 2.78495979e-002,
          1.17830085e-002, 2.88021732e-002, 1.79384518e-002,
          2.53896117e-001, 2.53896117e-001, 2.53896117e-001,
          2.53896117e-001, 5.16910180e-002, 2.42448952e-002,
          3.10034305e-002, 8.17569941e-002, 2.53896117e-001,
          7.87958056e-002, 1.80236846e-001, 2.53896117e-001,
          2.53896117e-001, 9.67629105e-002, 4.07783315e-002,
          4.14018072e-002, 9.15674493e-002, 9.45583805e-002 ]
      - [ 1.18339822e-001, 2.79304951e-001, 2.79304951e-001,
          1.09682016e-001, 3.71574387e-002, 1.29599478e-002,
          2.42094807e-002, 2.28277743e-002, 3.72380801e-002,
          2.64477670e-001, 2.79304951e-001, 2.79304951e-001,
          1.13310389e-001, 7.19131008e-002, 4.54227999e-002,
          6.66351765e-002, 9.97804627e-002, 9.57539380e-002,
          7.21360296e-002, 2.79304951e-001, 2.79304951e-001,
          2.43696913e-001, 1.84027448e-001, 2.23694928e-002,
          2.41462477e-002, 1.57214496e-002, 1.62257291e-002,
          1.53890505e-001, 2.79304951e-001, 2.79304951e-001,
          1.63960651e-001, 2.15635091e-001, 1.14227839e-001,
          1.05944246e-001, 8.52617100e-002, 2.82311719e-002,
          2.04435259e-001, 2.40595222e-001, 2.40595222e-001,
          1.24525033e-001, 1.08594291e-001, 7.51378760e-002,
          8.74772668e-002, 1.12046376e-001, 9.90533456e-002,
          2.40595222e-001, 2.40595222e-001, 2.40595222e-001,
          9.87006724e-002, 1.06105909e-001, 6.09297231e-002,
          6.39122576e-002, 4.28956784e-002, 1.96428418e-001,
          1.01313114e-001, 2.05051422e-001, 2.40595222e-001,
          1.84967086e-001, 2.40595222e-001, 2.33522832e-001,
          1.76409930e-001, 1.57809436e-001, 4.35735546e-002,
          1.24870129e-001, 1.37082428e-001, 1.79558009e-001,
          1.60989746e-001, 2.40595222e-001, 1.71242490e-001,
          1.26961485e-001, 1.22684784e-001, 9.22581851e-002,
          2.65853912e-001, 1.13707878e-001, 7.38514736e-002,
          2.31971461e-002, 5.17203882e-002, 5.91220073e-002,
          1.33035228e-001, 1.00464121e-001, 2.65853912e-001,
          2.59415209e-001, 2.15546675e-002, 1.51997211e-003,
          2.69784499e-002, 1.05864957e-001, 2.65853912e-001,
          2.65853912e-001, 2.65853912e-001, 2.65853912e-001,
          1.37259170e-001, 6.86754957e-002, 8.07548836e-002,
          5.62863350e-002, 8.89244676e-002, 8.16956311e-002,
          1.00537978e-001, 7.85420462e-002, 1.43123567e-001,
          8.13910440e-002, 3.88431139e-002, 1.32943153e-001,
          2.65853912e-001, 2.65853912e-001, 2.65431464e-001,
          2.65853912e-001, 1.80903271e-001, 1.22804396e-001,
          4.32074964e-002, 2.24649489e-001, 2.73200005e-001,
          2.49586970e-001, 2.73200005e-001, 7.19316304e-002,
          8.78823921e-003, 7.25748343e-003, 1.53425550e-002,
          8.68680924e-002, 2.13532493e-001, 2.73200005e-001,
          1.54176503e-001, 2.73200005e-001, 1.12603001e-001,
          6.49505481e-002, 4.66872118e-002, 2.84482669e-002,
          5.04026823e-002, 4.26055342e-002, 3.17658484e-002,
          1.34251922e-001, 2.73200005e-001, 2.73200005e-001,
          2.73200005e-001, 1.29389420e-001, 4.91979010e-002,
          1.69232160e-001, 9.54336971e-002, 6.51717037e-002,
          9.97151658e-002, 2.51303673e-001, 1.43769905e-001,
          1.96710825e-001, 1.11027956e-001, 1.68824360e-001,
          5.61469421e-002, 4.77067046e-002, 1.03687093e-001,
          1.46692753e-001, 2.41976693e-001, 1.93793252e-001,
          1.45262912e-001, 1.51951239e-001, 5.00826351e-002,
          7.95359313e-002, 2.17460766e-002, 6.24800995e-002,
          1.63900122e-001, 2.41976693e-001, 2.05227017e-001,
          1.57906711e-001, 1.75318718e-001, 1.11326061e-001,
          1.65584221e-001, 1.74761981e-001, 1.30778730e-001,
          1.39575586e-001, 2.41976693e-001, 1.29039362e-001,
          1.30131826e-001, 1.33174121e-001, 1.18941456e-001,
          2.41976693e-001, 2.00496465e-001, 2.31654733e-001,
          1.81940839e-001, 2.41976693e-001, 1.93299681e-001,
          1.49571404e-001, 1.72771990e-001, 2.41976693e-001,
          7.77681544e-002, 9.62087214e-002, 1.95868284e-001,
          7.03401566e-002, 1.14315584e-001, 6.90197423e-002,
          5.56781664e-002, 5.83618283e-002, 8.68356526e-002,
          3.84553708e-002, 1.37546912e-001, 3.02003473e-001,
          3.02003473e-001, 2.12250814e-001, 4.71909530e-002,
          3.13997939e-002, 2.60424037e-002, 4.43672687e-002,
          3.02003473e-001, 3.02003473e-001, 3.02003473e-001,
          6.46585152e-002, 1.00002356e-001, 5.92397675e-002,
          3.32180522e-002, 5.76693639e-002, 2.69655228e-001,
          1.56042784e-001, 3.02003473e-001, 3.02003473e-001,
          2.71677822e-001, 2.55137477e-002, 2.03959364e-003,
          3.38241039e-003, 2.71925656e-003, 5.54200895e-002,
          1.55352533e-001, 3.61316353e-002, 1.38871670e-002,
          7.42956474e-002, 2.03591570e-001, 2.36227766e-001,
          2.58880138e-001, 1.67318583e-001, 2.02669740e-001,
          2.58880138e-001, 1.11658916e-001, 5.19000068e-002,
          5.34460172e-002, 6.56045973e-002, 7.12504983e-002,
          1.70102790e-001, 1.94874674e-001, 2.58880138e-001,
          2.58880138e-001, 6.85911551e-002, 5.06967381e-002,
          8.65248218e-002, 1.46607369e-001, 1.65146351e-001,
          1.15890063e-001, 1.62724718e-001, 2.58880138e-001,
          2.58880138e-001, 1.48023576e-001, 1.12360306e-001,
          9.27034169e-002, 1.22123726e-001, 7.56845847e-002,
          1.21290751e-001, 2.33608305e-001, 2.58880138e-001,
          2.64327645e-001, 2.64327645e-001, 1.23181686e-001,
          3.56838331e-002, 4.54571620e-002, 4.28099819e-002,
          4.74261940e-002, 1.17729522e-001, 2.64327645e-001,
          2.53074676e-001, 2.64327645e-001, 2.01654032e-001,
          8.14345255e-002, 1.06929563e-001, 6.72379136e-002,
          4.84649464e-002, 9.20998529e-002, 2.50300050e-001,
          2.64327645e-001, 1.83165401e-001, 5.13889045e-002,
          1.99554320e-002, 6.67172223e-002, 4.40079123e-002,
          1.10924833e-001, 1.56975806e-001, 2.64327645e-001,
          2.64327645e-001, 1.92142978e-001, 8.66966248e-002,
          9.14081931e-002, 1.23108216e-001, 6.85689151e-002,
          1.29783005e-001, 1.78205341e-001, 2.64327645e-001,
          2.62404710e-001, 2.62404710e-001, 2.48087928e-001,
          8.79455507e-002, 8.65387991e-002, 2.88975015e-002,
          1.55894235e-002, 4.82433029e-002, 1.97899684e-001,
          2.25125372e-001, 2.62404710e-001, 2.62404710e-001,
          1.15277909e-001, 1.95170939e-002, 2.74355011e-003,
          5.81483357e-003, 8.18439387e-003, 4.77621779e-002,
          2.62404710e-001, 2.62404710e-001, 1.96097538e-001,
          2.08197415e-001, 1.94304302e-001, 5.17337024e-002,
          9.54778567e-002, 1.45661533e-001, 2.09970385e-001,
          2.05855384e-001, 2.62404710e-001, 2.62404710e-001,
          9.19075832e-002, 5.76196276e-002, 2.27793921e-002,
          4.13691439e-002, 5.70496581e-002, 6.45438284e-002 ]
      - [ 2.59935588e-001, 2.59935588e-001, 2.59935588e-001,
          2.03627348e-001, 1.20434225e-001, 6.32740259e-002,
          2.44710427e-002, 2.07642894e-002, 9.43598524e-002,
          2.59935588e-001, 1.93639547e-001, 1.56508923e-001,
          6.13656305e-002, 4.99263592e-002, 7.00048804e-002,
          9.76848081e-002, 1.33091480e-001, 2.59935588e-001,
          9.30672809e-002, 2.24935964e-001, 2.45406345e-001,
          2.58240044e-001, 2.59935588e-001, 1.97519690e-001,
          2.75976360e-002, 2.96219420e-002, 4.69334759e-002,
          1.59654543e-001, 1.82319269e-001, 1.33493453e-001,
          8.33669528e-002, 1.46581337e-001, 1.35203034e-001,
          8.60258341e-002, 1.46165386e-001, 2.01579958e-001,
          1.90758437e-001, 4.06336375e-002, 1.60683822e-002,
          1.44289918e-002, 3.96777205e-002, 1.39780223e-001,
          2.52800941e-001, 2.52800941e-001, 2.52800941e-001,
          7.83457384e-002, 2.70806402e-002, 2.42189839e-002,
          3.08153853e-002, 5.47888540e-002, 1.57064468e-001,
          2.52800941e-001, 2.52800941e-001, 2.40705967e-001,
          9.70642567e-002, 4.63388711e-002, 2.82754004e-002,
          2.63185129e-002, 5.20278402e-002, 2.26233467e-001,
          2.52800941e-001, 2.52800941e-001, 2.15377256e-001,
          1.44037619e-001, 5.85748628e-002, 8.45711604e-002,
          3.62696350e-002, 9.08850580e-002, 2.52800941e-001,
          2.52800941e-001, 2.52800941e-001, 2.24746332e-001,
          3.82586047e-002, 2.07611136e-002, 2.40137614e-002,
          3.52228098e-002, 7.99761862e-002, 2.13623703e-001,
          2.69119263e-001, 2.69119263e-001, 1.57434613e-001,
          2.81367563e-002, 1.17760496e-002, 1.22187352e-002,
          5.87804951e-002, 1.23801105e-001, 2.45654911e-001,
          2.51907527e-001, 1.70411795e-001, 6.95835948e-002,
          6.22623488e-002, 4.72948179e-002, 8.08780715e-002,
          5.48903160e-002, 1.53344408e-001, 2.69119263e-001,
          2.69119263e-001, 2.69119263e-001, 1.28708199e-001,
          4.64483500e-002, 1.50079867e-002, 2.52406131e-002,
          1.38266101e-001, 2.69119263e-001, 2.69119263e-001,
          2.69119263e-001, 2.69119263e-001, 9.75836590e-002,
          3.13944779e-002, 6.59534335e-002, 5.43938987e-002,
          1.37112811e-001, 2.91187763e-001, 2.91187763e-001,
          1.90116808e-001, 6.44944906e-002, 3.35903615e-002,
          6.37157634e-002, 1.60755187e-001, 7.11613446e-002,
          9.07602757e-002, 1.89859942e-001, 1.28041849e-001,
          1.21435598e-001, 7.05490261e-002, 7.13013709e-002,
          2.78810468e-002, 3.10804974e-002, 1.64965913e-002,
          4.23314720e-002, 2.91187763e-001, 2.91187763e-001,
          2.91187763e-001, 2.50796020e-001, 3.09324637e-002,
          1.42307520e-001, 1.41266778e-001, 9.78806168e-002,
          7.73654357e-002, 1.78763121e-001, 2.91187763e-001,
          2.91187763e-001, 2.07224458e-001, 1.27453804e-001,
          8.69645178e-002, 9.82576832e-002, 5.83436564e-002,
          6.40824586e-002, 7.74909779e-002, 8.76642838e-002,
          6.81432486e-002, 8.62889588e-002, 1.38961047e-001,
          1.04550123e-001, 4.61077429e-002, 7.08649531e-002,
          4.92519774e-002, 9.91580561e-002, 2.74602592e-001,
          2.74602592e-001, 2.62830973e-001, 1.99533761e-001,
          2.74602592e-001, 1.98439643e-001, 9.82527658e-002,
          6.31850511e-002, 1.30638719e-001, 1.04940318e-001,
          1.42609775e-001, 1.05259806e-001, 2.74602592e-001,
          2.74602592e-001, 7.93016925e-002, 8.58345404e-002,
          7.05506951e-002, 1.79538086e-001, 1.88841015e-001,
          2.74602592e-001, 2.47614622e-001, 2.74602592e-001,
          2.23036520e-002, 1.78980995e-002, 3.37595008e-002,
          6.00440055e-002, 1.74458653e-001, 2.55192518e-001,
          2.55192518e-001, 1.91358104e-001, 5.96122332e-002,
          3.49354781e-002, 5.83229866e-003, 1.52004454e-002,
          1.36967763e-001, 2.55192518e-001, 2.55192518e-001,
          2.55192518e-001, 1.37757212e-001, 4.43762131e-002,
          9.46034640e-002, 2.73798499e-002, 7.24080801e-002,
          1.57586291e-001, 2.55192518e-001, 2.35108331e-001,
          2.55192518e-001, 1.40286952e-001, 1.91702545e-001,
          6.55338541e-002, 2.43996326e-002, 4.99347895e-002,
          1.96773440e-001, 2.55192518e-001, 2.55192518e-001,
          2.55192518e-001, 1.62911907e-001, 6.87727779e-002,
          2.29119044e-002, 2.09692419e-002, 9.37820785e-003,
          9.42039955e-003, 6.78899661e-002, 2.83254653e-001,
          2.83254653e-001, 2.14743391e-001, 2.21241601e-002,
          9.36676338e-002, 4.63020802e-002, 4.06614877e-002,
          3.68782617e-002, 9.59302783e-002, 2.83254653e-001,
          2.83254653e-001, 2.44287670e-001, 1.12589389e-001,
          4.69686911e-002, 2.81913839e-002, 9.93703958e-003,
          4.36822213e-002, 6.52557015e-002, 2.83254653e-001,
          2.83254653e-001, 2.65903383e-001, 6.14506789e-002,
          6.71922192e-002, 2.23738216e-002, 3.18213999e-002,
          5.21869026e-002, 6.73779622e-002, 2.62277067e-001,
          2.83254653e-001, 2.83254653e-001, 2.04048485e-001,
          2.43571267e-001, 6.44735098e-002, 4.43746187e-002,
          2.96241771e-002, 6.91127554e-002, 1.07005179e-001,
          2.43571267e-001, 1.80595323e-001, 2.43571267e-001,
          2.43571267e-001, 7.94532821e-002, 7.96952993e-002,
          3.52351032e-002, 9.17674899e-002, 1.47241473e-001,
          2.00282857e-001, 1.80648953e-001, 2.43571267e-001,
          1.28377393e-001, 3.58631872e-002, 4.44935970e-002,
          3.29536684e-002, 4.63856384e-002, 1.00488059e-001,
          2.43571267e-001, 2.43571267e-001, 2.28612408e-001,
          2.43571267e-001, 2.43571267e-001, 2.12607086e-001,
          5.50631285e-002, 6.22941405e-002, 9.55729783e-002,
          2.11833969e-001, 2.11751506e-001, 2.33917683e-001,
          1.80385187e-001, 8.85021910e-002, 1.10432059e-001,
          1.41270503e-001, 2.28951409e-001, 1.58349738e-001,
          1.54378057e-001, 1.30561098e-001, 2.28951409e-001,
          1.59192249e-001, 8.11137035e-002, 1.20940112e-001,
          2.06590503e-001, 2.28951409e-001, 2.04151541e-001,
          1.62619948e-001, 1.67863831e-001, 1.25778988e-001,
          2.12540895e-001, 2.28951409e-001, 2.28951409e-001,
          1.54319316e-001, 1.55400664e-001, 8.45658183e-002,
          6.46526068e-002, 8.88678953e-002, 1.48806915e-001,
          1.50816754e-001, 2.18436062e-001, 2.28951409e-001,
          2.28951409e-001, 2.28951409e-001, 9.37046930e-002,
          7.31267929e-002, 9.59452689e-002, 1.01151496e-001 ]
      - [ 1.65658727e-001, 1.86009347e-001, 2.61533111e-001,
          2.35551894e-001, 1.28293052e-001, 1.56317540e-002,
          4.67926776e-003, 1.13581698e-002, 1.24100119e-001,
          2.61533111e-001, 1.95965469e-001, 2.32610151e-001,
          2.00521916e-001, 5.57807535e-002, 1.52809219e-002,
          6.92076981e-003, 1.40973041e-002, 2.19066381e-001,
          1.26514494e-001, 1.31559789e-001, 1.65821046e-001,
          2.58346468e-001, 2.61533111e-001, 1.75580993e-001,
          9.28087160e-004, 1.27793802e-002, 8.99437591e-002,
          2.61533111e-001, 1.82393700e-001, 1.28318101e-001,
          2.02757657e-001, 2.61533111e-001, 7.51941502e-002,
          9.35483538e-003, 3.04910839e-002, 2.39069849e-001,
          2.69859105e-001, 1.97413251e-001, 1.62153542e-001,
          1.67699397e-001, 7.19553828e-002, 3.61178517e-002,
          3.29886526e-002, 4.92638461e-002, 2.69859105e-001,
          2.69859105e-001, 5.89852631e-002, 4.19865996e-002,
          4.53557484e-002, 8.48861262e-002, 1.49641335e-001,
          1.42838717e-001, 1.87895745e-001, 2.69859105e-001,
          2.69859105e-001, 1.94811374e-001, 1.38797760e-001,
          1.84452325e-001, 6.41384646e-002, 4.85158898e-002,
          4.58053127e-002, 6.96131811e-002, 2.52755553e-001,
          2.69859105e-001, 5.97833320e-002, 4.55719642e-002,
          6.31639138e-002, 5.86443655e-002, 1.71856448e-001,
          1.38475955e-001, 2.47423649e-001, 2.69859105e-001,
          1.99853167e-001, 5.80369309e-003, 1.07010603e-002,
          1.83679666e-002, 5.53340055e-002, 1.02721766e-001,
          1.17671922e-001, 1.41838416e-001, 2.65217096e-001,
          1.53079584e-001, 7.19493069e-003, 2.77498551e-002,
          2.66178120e-002, 6.20714873e-002, 2.65217096e-001,
          2.65217096e-001, 2.61388808e-001, 2.63850957e-001,
          2.65217096e-001, 1.56969726e-002, 1.38693918e-002,
          1.62555538e-002, 5.14054373e-002, 1.12793438e-001,
          9.91017893e-002, 1.84476942e-001, 2.65217096e-001,
          1.58120468e-001, 7.35180592e-003, 2.13344134e-002,
          1.59804020e-002, 1.54395163e-001, 2.65217096e-001,
          2.65217096e-001, 2.65217096e-001, 2.65217096e-001,
          3.26836221e-002, 3.10080666e-002, 4.11579087e-002,
          2.27546275e-001, 3.89563441e-001, 2.46935531e-001,
          1.04772125e-003, 1.08664781e-002, 2.77118701e-002,
          1.26656428e-001, 6.62106201e-002, 5.15648425e-002,
          1.33919910e-001, 3.89563441e-001, 1.31985769e-001,
          1.02530858e-002, 2.33751703e-002, 8.19092691e-002,
          9.54667199e-003, 1.13180829e-002, 1.31082553e-002,
          1.63628176e-001, 3.89563441e-001, 3.35050851e-001,
          4.97792475e-002, 4.09369543e-002, 6.82833744e-003,
          3.13259363e-002, 3.21574919e-002, 2.62577850e-002,
          9.18874294e-002, 3.89563441e-001, 2.06843033e-001,
          6.52339086e-002, 5.88437505e-002, 2.50830669e-002,
          2.31501624e-001, 2.16751486e-001, 1.86652809e-001,
          2.31501624e-001, 1.86797798e-001, 1.13649376e-001,
          6.76755607e-002, 9.49041322e-002, 1.69768617e-001,
          2.31501624e-001, 1.35115340e-001, 1.19586289e-001,
          2.01523885e-001, 1.26986220e-001, 1.36554495e-001,
          1.11549608e-001, 2.31501624e-001, 2.31501624e-001,
          2.12091476e-001, 1.61922783e-001, 1.49759486e-001,
          1.89209163e-001, 2.31501624e-001, 1.37539670e-001,
          8.29406157e-002, 9.47663933e-002, 1.48583561e-001,
          2.31501624e-001, 1.03878632e-001, 1.21202201e-001,
          1.50342137e-001, 1.52487263e-001, 1.04328863e-001,
          9.32221264e-002, 1.20370097e-001, 1.96032628e-001,
          1.49804607e-001, 2.67869197e-002, 1.82702933e-002,
          3.21448818e-002, 1.08416311e-001, 8.98068771e-002,
          7.30624720e-002, 1.30839556e-001, 2.93005764e-001,
          8.31450894e-002, 1.36208730e-002, 9.39318724e-003,
          8.31323266e-002, 3.34463924e-001, 3.34463924e-001,
          3.34463924e-001, 2.58932412e-001, 2.18189031e-001,
          8.75538290e-002, 2.09910795e-002, 4.92861122e-002,
          6.91673607e-002, 9.90480036e-002, 4.73181307e-002,
          3.70025635e-002, 6.30758703e-002, 8.40179548e-002,
          5.03156148e-002, 3.16548981e-002, 2.57368565e-001,
          3.34463924e-001, 3.34463924e-001, 1.94064260e-001,
          3.53815034e-002, 4.98347655e-002, 7.05552772e-002,
          2.13993210e-002, 1.08146369e-002, 1.05334567e-002,
          1.05469897e-001, 2.49790549e-001, 2.49790549e-001,
          2.31337041e-001, 1.40919134e-001, 3.26850899e-002,
          1.80509746e-001, 2.27538515e-002, 9.79261752e-003,
          5.19777164e-002, 2.42636561e-001, 2.32485726e-001,
          2.10176140e-001, 1.39317319e-001, 1.97814226e-001,
          1.22280456e-001, 3.87697183e-002, 2.87834797e-002,
          5.97581863e-002, 1.89705208e-001, 2.49790549e-001,
          2.49790549e-001, 2.49790549e-001, 1.28517792e-001,
          2.49790549e-001, 1.95616856e-002, 5.77589218e-003,
          2.87626106e-002, 1.04414895e-001, 1.89583465e-001,
          2.46576756e-001, 2.01743633e-001, 2.49790549e-001,
          3.46145451e-001, 3.62749323e-002, 2.67741401e-002,
          3.27593200e-002, 4.85629588e-002, 4.49802801e-002,
          6.00811057e-002, 5.09958863e-002, 3.46145451e-001,
          3.46145451e-001, 2.15969980e-002, 2.81598438e-002,
          1.66878849e-002, 2.85761636e-002, 1.72888152e-002,
          1.80476569e-002, 3.27739492e-002, 3.46145451e-001,
          3.46145451e-001, 2.30470560e-002, 6.98011974e-003,
          1.67989600e-002, 5.88779449e-002, 4.50831652e-002,
          5.52406535e-002, 5.29950671e-002, 3.46145451e-001,
          3.46145451e-001, 1.90222096e-002, 8.88755359e-003,
          1.53437695e-002, 6.14930876e-002, 4.07178439e-002,
          1.80940293e-002, 3.99117321e-002, 3.46145451e-001,
          2.72675246e-001, 3.46249342e-002, 7.80995041e-002,
          6.29286468e-002, 3.38592827e-002, 1.61010064e-002,
          1.99060831e-002, 3.55189145e-002, 2.72675246e-001,
          2.33369529e-001, 9.57508683e-002, 2.72675246e-001,
          2.72675246e-001, 2.72675246e-001, 3.66748311e-002,
          1.42024485e-002, 2.43342910e-002, 1.39480367e-001,
          2.72675246e-001, 5.20212390e-002, 6.70682937e-002,
          4.33142111e-002, 6.37699142e-002, 3.97609808e-002,
          2.70303264e-002, 4.34836000e-002, 2.72675246e-001,
          2.72675246e-001, 2.29882821e-001, 2.72675246e-001,
          2.72675246e-001, 2.27687225e-001, 2.24189702e-002,
          2.53795199e-002, 2.80081816e-002, 1.73907667e-001 ]
      - [ 2.68270224e-001, 2.68270224e-001, 2.68270224e-001,
          1.69686675e-001, 8.35236460e-002, 1.44894049e-002,
          9.05446894e-003, 1.33599583e-002, 8.72971192e-002,
          2.49874502e-001, 2.68270224e-001, 2.68270224e-001,
          2.37031773e-001, 6.73066378e-002, 7.00117927e-003,
          6.45085750e-003, 1.55626414e-002, 9.38287526e-002,
          1.09418109e-001, 2.68270224e-001, 2.68270224e-001,
          2.10739613e-001, 1.41929120e-001, 5.75855598e-002,
          4.41244617e-002, 2.48120259e-002, 5.80014959e-002,
          9.88573954e-002, 2.68270224e-001, 2.68270224e-001,
          2.68270224e-001, 2.48605944e-002, 2.15709060e-002,
          3.68489511e-002, 1.95208918e-002, 5.58188707e-002,
