<?xml version="1.0"?>
<opencv_storage>
<my_svm type_id="opencv-ml-svm">
  <svm_type>C_SVC</svm_type>
  <kernel><type>RBF</type>
    <gamma>8.9999999999999997e-02</gamma></kernel>
  <C>10.</C>
  <term_criteria><epsilon>1.1920928955078125e-07</epsilon>
    <iterations>2147483647</iterations></term_criteria>
  <var_all>144</var_all>
  <var_count>144</var_count>
  <class_count>13</class_count>
  <class_labels type_id="opencv-matrix">
    <rows>1</rows>
    <cols>13</cols>
    <dt>i</dt>
    <data>
      0 1 2 3 4 5 6 7 8 9 10 11 12</data></class_labels>
  <sv_total>136</sv_total>
  <support_vectors>
    <_>
      0. 0. 0. 2.17857957e-03 1.69299453e-01 1.30118174e-03 0. 0. 0.
      7.49657527e-02 1.20505184e-01 3.83119881e-01 3.83119881e-01
      3.83119881e-01 7.62053281e-02 0. 0. 5.74470535e-02 0. 0. 0.
      1.85802614e-03 2.66987234e-01 2.78219371e-03 0. 0. 0.
      1.40770391e-01 4.46681827e-02 3.83119881e-01 2.80337244e-01
      3.83119881e-01 5.05681299e-02 0. 0. 1.73492312e-01 1.38758540e-01
      1.35716438e-01 2.67158657e-01 2.47940809e-01 1.40535712e-01
      9.50840637e-02 2.14533247e-02 5.07508516e-02 1.99037179e-01
      1.24673001e-01 6.77693039e-02 1.95984498e-01 4.66893911e-02
      2.33972862e-01 2.67158657e-01 2.46813416e-01 2.51615375e-01
      2.67158657e-01 7.18852803e-02 6.38488308e-02 2.67158657e-01
      1.79299310e-01 2.67158657e-01 6.60475418e-02 6.93790102e-03
      2.52172127e-02 1.20019175e-01 5.25122620e-02 3.88119332e-02
      1.11257270e-01 5.36925085e-02 2.67158657e-01 1.83553666e-01
      6.92540705e-02 1.46936297e-01 1.35478258e-01 0. 0. 0.
      1.60405017e-03 1.99155629e-01 2.01115198e-03 0. 0. 0.
      1.49621114e-01 1.79664034e-03 4.06279378e-02 6.35721833e-02
      4.27288055e-01 4.33800742e-02 2.80761160e-02 0. 1.65671498e-01 0.
      0. 0. 3.06407479e-03 3.23772520e-01 1.45605090e-03 0. 0. 0.
      1.70292363e-01 1.92567270e-04 3.01420630e-04 1.36369523e-02
      4.27288055e-01 4.27288055e-01 4.27288055e-01 9.71034318e-02
      1.55268177e-01 5.60844578e-02 2.04056804e-03 4.69321795e-02
      5.69834523e-02 3.48197579e-01 3.85351218e-02 2.30196454e-02
      1.44038512e-03 6.25842810e-02 2.99927965e-02 1.00412138e-03
      5.61235920e-02 3.83872055e-02 3.48197579e-01 4.57891785e-02
      6.00593910e-03 5.25700720e-03 3.08421813e-02 6.29198775e-02
      9.41165537e-02 1.62068114e-01 6.18711412e-02 3.48197579e-01
      2.27064848e-01 3.48197579e-01 1.22251794e-01 7.12520108e-02
      2.84716990e-02 2.02940539e-01 3.48197579e-01 2.48914585e-01
      3.48197579e-01 3.78001742e-02 1.41668648e-01 6.28239885e-02
      4.48521115e-02</_>
    <_>
      0. 0. 0. 2.83733523e-03 7.90306330e-02 4.53962915e-04 0. 0. 0.
      7.78930336e-02 2.55517691e-01 3.66589904e-01 3.66589904e-01
      3.66589904e-01 1.81585073e-03 0. 0. 2.30994597e-02 0. 0. 0.
      3.59976524e-03 2.84085691e-01 3.60138435e-03 0. 0. 0.
      6.09150492e-02 2.70875156e-01 3.66589904e-01 2.92948842e-01
      3.66589904e-01 1.62804425e-02 7.65431323e-04 2.55793682e-04
      4.84735668e-02 1.91430315e-01 2.16514468e-01 2.41859481e-01
      2.41859481e-01 9.25948843e-02 2.73741409e-02 2.84444038e-02
      3.22368629e-02 1.34387225e-01 2.14151621e-01 8.48405659e-02
      1.30512148e-01 7.58526102e-02 1.63817868e-01 2.41859481e-01
      2.41859481e-01 2.41640240e-01 2.30020806e-01 8.07287246e-02
      1.82958752e-01 2.38930404e-01 2.01666087e-01 2.41859481e-01
      2.41723880e-02 1.42946709e-02 1.21683059e-02 6.27720803e-02
      7.63788223e-02 5.13867624e-02 6.32070005e-02 9.09216255e-02
      2.41859481e-01 2.24965706e-01 1.99993879e-01 2.41859481e-01
      8.60532224e-02 0. 0. 0. 1.83286355e-03 2.87027955e-01
      1.84494921e-03 0. 0. 0. 2.54265368e-02 3.18272486e-02
      3.67588438e-02 5.60009107e-02 4.74867016e-01 2.96464730e-02
      3.76640037e-02 5.64353832e-04 2.80901156e-02 0. 0. 0.
      1.92982843e-03 2.84818441e-01 1.95768895e-03 0. 0. 0.
      8.28731507e-02 1.03750871e-02 0. 7.71931233e-03 4.74867016e-01
      1.73993662e-01 4.74867016e-01 3.25520456e-01 5.22868671e-02
      1.38697075e-02 2.36285757e-02 3.25460210e-02 6.18672892e-02
      3.02770257e-01 2.88217794e-02 3.89622115e-02 6.22004038e-04
      1.51039818e-02 3.72160203e-03 1.50494292e-01 3.45172286e-02
      1.43702343e-01 3.02770257e-01 6.03631623e-02 8.05351809e-02
      1.38816357e-01 6.73681917e-03 1.41780838e-01 5.20810783e-02
      3.14907692e-02 5.95924295e-02 3.02770257e-01 1.69368535e-01
      3.02770257e-01 3.02770257e-01 3.87380607e-02 1.89827919e-01
      3.02770257e-01 2.40273580e-01 3.02770257e-01 3.02770257e-01
      8.22449476e-02 9.95244160e-02 1.13858931e-01 2.25696396e-02</_>
    <_>
      7.29204272e-04 8.33095110e-04 0. 0. 5.16557833e-03 0. 0. 0.
      5.56578045e-04 8.42726883e-03 5.69674484e-02 4.74702567e-01
      3.47745508e-01 4.74702567e-01 9.45433043e-03 0. 0. 7.73676345e-03
      5.60935645e-04 9.55967698e-04 1.18462500e-04 0. 5.55741694e-03 0.
      2.76518724e-04 9.24079432e-05 3.71051981e-04 3.87151539e-02
      3.96218151e-02 3.83046836e-01 2.08384082e-01 4.74702567e-01
      6.95807813e-03 1.10607455e-03 4.48371051e-04 3.88676375e-02
      1.26195744e-01 1.10121429e-01 2.65975803e-01 2.60097027e-01
      2.65975803e-01 2.19290541e-03 0. 0. 6.55197576e-02 2.65975803e-01
      2.09297553e-01 2.65975803e-01 1.37454018e-01 1.19943298e-01
      2.04940945e-01 1.71832919e-01 1.78285062e-01 2.19932884e-01
      4.86350320e-02 6.73596859e-02 2.65975803e-01 1.93877608e-01
      2.65975803e-01 1.87909778e-03 1.15275740e-04 7.91691273e-05
      3.94912437e-02 1.39647245e-01 9.04842392e-02 2.22779602e-01
      1.32756144e-01 2.65975803e-01 8.26884881e-02 5.33342287e-02
      8.12099278e-02 1.26870275e-01 6.20099308e-05 4.41770389e-04
      4.26443235e-04 0. 4.98586334e-03 0. 7.55243062e-04 5.00784430e-04
      5.14700660e-05 3.70567515e-02 8.40379391e-03 2.82170363e-02
      4.61474322e-02 5.85451901e-01 1.51972855e-02 2.89226715e-02
      2.28658435e-03 3.90958339e-02 0. 1.95199507e-04 9.71375150e-04
      7.92143808e-04 3.57344653e-03 0. 5.73777827e-04 1.18532579e-03
      2.05880191e-04 4.25430611e-02 1.19291700e-03 3.88549990e-03
      1.04003353e-02 5.85451901e-01 2.00489655e-01 5.04149556e-01
      6.14480302e-02 3.94948609e-02 2.34269947e-02 7.97909498e-03
      3.70207280e-02 5.14744483e-02 3.33244562e-01 1.85645223e-02
      3.51055078e-02 4.13508504e-04 2.45160963e-02 5.56604005e-02
      5.09715639e-03 5.43005466e-02 7.28584826e-02 3.33244562e-01
      2.59436835e-02 2.32308693e-02 4.25978869e-05 5.85960224e-02
      3.17999795e-02 2.69477610e-02 3.14604193e-02 8.24579783e-03
      3.33244562e-01 1.93618298e-01 3.33244562e-01 1.45969957e-01
      2.35312190e-02 7.46759623e-02 1.63374230e-01 3.33244562e-01
      2.42922142e-01 3.33244562e-01 1.25160500e-01 3.33244562e-01
      1.54938981e-01 5.80902174e-02</_>
    <_>
      1.40446052e-02 4.77284845e-03 1.05326220e-01 1.19076893e-01
      2.77397394e-01 3.39961378e-03 3.45012010e-03 5.66049712e-03
      9.56080155e-04 1.91180974e-01 2.05196410e-01 3.00414890e-01
      3.00414890e-01 3.00414890e-01 4.18179808e-03 3.55816372e-02
      6.86034411e-02 1.93502784e-01 8.26937854e-02 1.88423786e-02
      1.26125347e-02 1.27995044e-01 3.00414890e-01 7.95790181e-03
      7.00592808e-03 1.05009275e-02 1.95822516e-03 3.00414890e-01
      1.38119608e-01 3.00414890e-01 3.00414890e-01 3.00414890e-01
      1.45772304e-02 4.30767760e-02 5.80739677e-02 4.40272912e-02
      1.76446766e-01 1.35980234e-01 2.57402480e-01 1.62264496e-01
      1.29106775e-01 8.06840509e-02 2.13782474e-01 2.05345541e-01
      2.26503655e-01 5.65916747e-02 1.88127141e-02 5.64815244e-03
      2.39128526e-02 2.92118400e-01 1.61211416e-01 2.92118400e-01
      2.92118400e-01 9.96282548e-02 1.17276393e-01 7.71455318e-02
      1.58483922e-01 1.73489362e-01 2.92118400e-01 1.06279023e-01
      1.22148216e-01 1.22144386e-01 5.79837710e-02 2.02549286e-02
      1.28956493e-02 8.47222842e-03 9.41607635e-03 2.92118400e-01
      1.61436006e-01 1.89200297e-01 2.05998152e-01 3.64648849e-02
      4.60799374e-02 1.36095202e-02 9.32895986e-04 2.60333549e-02
      3.06055367e-01 2.11617891e-02 1.07374154e-02 1.42951254e-02
      4.41800803e-02 1.79783076e-01 4.71730120e-02 2.85769179e-02
      1.33339763e-01 3.37727696e-01 1.19592518e-01 4.48004343e-02
      5.47215380e-02 1.72848150e-01 9.61797079e-04 1.02442235e-03
      2.14446729e-04 2.20095413e-03 3.37727696e-01 1.83054909e-01
      7.09697884e-03 2.29471810e-02 9.35527161e-02 6.28333306e-04
      4.52759750e-02 3.35531496e-02 3.69219854e-02 3.37727696e-01
      3.37727696e-01 3.37727696e-01 2.51358211e-01 3.37727696e-01
      3.52465808e-02 9.06703342e-03 3.72763462e-02 5.67110181e-02
      3.73417854e-01 6.96941316e-02 2.37520784e-02 1.23029351e-02
      3.40184532e-02 5.45144547e-03 2.52174999e-04 3.55657935e-02
      2.05918364e-02 3.73417854e-01 4.51080017e-02 1.99119709e-02
      7.04163732e-03 5.68985473e-03 1.78557485e-02 1.62744343e-01
      3.14130068e-01 1.05180211e-01 3.47721905e-01 2.11036325e-01
      1.97033778e-01 1.25967354e-01 1.30094826e-01 3.55239548e-02
      1.72798753e-01 3.73417854e-01 1.25765368e-01 3.73417854e-01
      2.76497565e-03 1.04616405e-02 1.87907107e-02 2.44601946e-02</_>
    <_>
      3.02741711e-04 3.13669839e-03 3.78247118e-04 0. 4.29299008e-03 0.
      0. 4.87011042e-04 1.00913923e-04 5.39161079e-02 2.13327985e-02
      3.91126990e-01 4.27382797e-01 4.27382797e-01 1.51119102e-02
      1.32080661e-02 2.16972027e-02 5.13300626e-03 1.84421043e-03
      4.12401650e-03 1.15519541e-03 0. 1.10531468e-02 0. 0.
      1.94804359e-03 1.95485423e-03 3.09641004e-01 7.46634826e-02
      4.81204204e-02 4.27382797e-01 4.27382797e-01 3.79059240e-02
      2.59872768e-02 4.12050001e-02 1.02944169e-02 7.29172304e-02
      8.13450292e-02 2.41985157e-01 2.41985157e-01 2.41985157e-01
      3.18303169e-03 7.26670818e-03 1.46097476e-02 5.46182767e-02
      2.41985157e-01 1.79100260e-01 2.41985157e-01 2.28062361e-01
      1.48128241e-01 6.58095628e-02 1.95061713e-01 2.10726097e-01
      2.41985157e-01 1.92711368e-01 6.32793009e-02 1.35929227e-01
      2.41985157e-01 2.41985157e-01 9.22199246e-03 1.57013703e-02
      2.11566538e-02 1.13262972e-02 2.02385232e-01 1.07424945e-01
      2.09982902e-01 2.37696156e-01 2.41985157e-01 1.06386989e-01
      1.22841500e-01 1.16141297e-01 9.51031819e-02 1.53980497e-03
      2.40196893e-03 1.09384907e-03 0. 8.02885182e-03 0. 6.92544738e-04
      9.04387736e-04 1.33202306e-03 1.55396163e-01 4.81482632e-02
      4.37539537e-03 9.62544233e-02 5.23349226e-01 7.89883509e-02
      3.65960635e-02 4.87013273e-02 1.48822308e-01 8.24523100e-04
      1.20116654e-03 2.51445337e-04 0. 1.35495458e-02 0. 1.03881722e-03
      1.52527203e-03 8.37158528e-04 4.54891380e-03 4.80466429e-03
      1.00578112e-03 8.59308057e-03 5.23349226e-01 5.23349226e-01
      2.48606820e-02 7.82626271e-02 3.13230097e-01 1.03661627e-01
      2.73979027e-02 1.19415233e-02 6.87500536e-02 2.83401459e-01
      6.05256297e-02 2.41024233e-02 3.15273441e-02 9.96394604e-02
      7.22402930e-02 1.83697678e-02 4.97232415e-02 8.42098519e-02
      2.83401459e-01 9.82571542e-02 3.69290076e-02 2.15360690e-02
      6.95936009e-02 4.83451033e-04 3.01322318e-04 6.30771101e-05
      6.30416442e-03 2.83401459e-01 2.83401459e-01 1.84471637e-01
      1.15070872e-01 2.36734241e-01 4.82786931e-02 2.32034966e-01
      2.83401459e-01 1.41455948e-01 2.83401459e-01 2.83401459e-01
      2.83401459e-01 2.04398468e-01 2.65228838e-01</_>
    <_>
      1.00791478e-03 7.95484753e-04 3.01581138e-04 0. 6.88942522e-03 0.
      0. 0. 8.63965193e-04 2.95154694e-02 2.44906947e-01 4.01191741e-01
      2.99436569e-01 4.59750891e-01 0. 2.58066319e-03 8.62414017e-04
      4.28140759e-02 4.82723757e-04 6.01331005e-04 1.79940450e-03 0.
      7.04203034e-03 0. 5.90546348e-04 1.97350731e-04 4.82723757e-04
      9.09047425e-02 3.44866604e-01 2.58999288e-01 2.53087103e-01
      4.59750891e-01 9.29738488e-03 2.82871816e-03 3.13119404e-03
      2.86226422e-02 9.73403081e-02 2.25711927e-01 2.41948679e-01
      2.20925972e-01 1.68729588e-01 0. 5.12645871e-04 1.71317573e-04
      9.80459228e-02 2.41948679e-01 1.95922047e-01 2.41948679e-01
      1.53930172e-01 6.04566522e-02 1.37264416e-01 2.41948679e-01
      1.81089535e-01 2.41948679e-01 6.84462190e-02 2.25624129e-01
      2.06700325e-01 2.22727060e-01 2.41948679e-01 4.19852277e-03
      3.97773721e-04 1.09931128e-03 4.77190539e-02 1.27824157e-01
      1.35634676e-01 1.43056229e-01 1.70184493e-01 2.41948679e-01
      1.52043521e-01 1.92563131e-01 9.85422805e-02 1.37237236e-01 0.
      2.49003468e-04 7.45110563e-04 0. 4.96047502e-03 0. 1.67052576e-03
      5.58261760e-04 0. 2.54780222e-02 5.29459603e-02 3.35350558e-02
      6.22613803e-02 5.85298359e-01 6.18087240e-02 3.48157734e-02
      1.62435584e-02 3.07853576e-02 0. 0. 0. 0. 1.63570256e-03 0.
      1.18669309e-03 3.96573014e-04 0. 0. 3.81846307e-03 2.47469321e-02
      4.85925470e-03 5.85298359e-01 2.54590333e-01 3.00049186e-01
      3.46280992e-01 1.37369335e-01 1.54834492e-02 3.84985618e-02
      3.50733213e-02 7.98344836e-02 2.98365444e-01 6.98536932e-02
      3.68125215e-02 8.34236667e-03 1.84171684e-02 1.61375608e-02
      1.94837674e-02 7.83045590e-02 1.19060278e-01 2.98365444e-01
      1.15116715e-01 7.51892775e-02 1.21073220e-02 1.64732784e-02
      2.42374204e-02 5.40571334e-03 3.13633047e-02 3.61160655e-03
      2.98365444e-01 2.61211425e-01 2.97752231e-01 2.98365444e-01
      1.15481056e-01 1.43933207e-01 1.93701297e-01 2.43168905e-01
      2.11985439e-01 2.98365444e-01 2.04539627e-01 1.98657021e-01
      2.24965885e-01 1.72093138e-01</_>
    <_>
      3.02741711e-04 3.13669839e-03 3.78247118e-04 0. 4.29299008e-03 0.
      0. 4.87011042e-04 1.00913923e-04 5.39161079e-02 2.13327985e-02
      3.91126990e-01 4.27382797e-01 4.27382797e-01 1.51119102e-02
      1.32080661e-02 2.16972027e-02 5.13300626e-03 1.84421043e-03
      4.12401650e-03 1.15519541e-03 0. 1.10531468e-02 0. 0.
      1.94804359e-03 1.95485423e-03 3.09641004e-01 7.46634826e-02
      4.81204204e-02 4.27382797e-01 4.27382797e-01 3.79059240e-02
      2.59872768e-02 4.12050001e-02 1.02944169e-02 7.29172304e-02
      8.13450292e-02 2.41985157e-01 2.41985157e-01 2.41985157e-01
      3.18303169e-03 7.26670818e-03 1.46097476e-02 5.46182767e-02
      2.41985157e-01 1.79100260e-01 2.41985157e-01 2.28062361e-01
      1.48128241e-01 6.58095628e-02 1.95061713e-01 2.10726097e-01
      2.41985157e-01 1.92711368e-01 6.32793009e-02 1.35929227e-01
      2.41985157e-01 2.41985157e-01 9.22199246e-03 1.57013703e-02
      2.11566538e-02 1.13262972e-02 2.02385232e-01 1.07424945e-01
      2.09982902e-01 2.37696156e-01 2.41985157e-01 1.06386989e-01
      1.22841500e-01 1.16141297e-01 9.51031819e-02 1.53980497e-03
      2.40196893e-03 1.09384907e-03 0. 8.02885182e-03 0. 6.92544738e-04
      9.04387736e-04 1.33202306e-03 1.55396163e-01 4.81482632e-02
      4.37539537e-03 9.62544233e-02 5.23349226e-01 7.89883509e-02
      3.65960635e-02 4.87013273e-02 1.48822308e-01 8.24523100e-04
      1.20116654e-03 2.51445337e-04 0. 1.35495458e-02 0. 1.03881722e-03
      1.52527203e-03 8.37158528e-04 4.54891380e-03 4.80466429e-03
      1.00578112e-03 8.59308057e-03 5.23349226e-01 5.23349226e-01
      2.48606820e-02 7.82626271e-02 3.13230097e-01 1.03661627e-01
      2.73979027e-02 1.19415233e-02 6.87500536e-02 2.83401459e-01
      6.05256297e-02 2.41024233e-02 3.15273441e-02 9.96394604e-02
      7.22402930e-02 1.83697678e-02 4.97232415e-02 8.42098519e-02
      2.83401459e-01 9.82571542e-02 3.69290076e-02 2.15360690e-02
      6.95936009e-02 4.83451033e-04 3.01322318e-04 6.30771101e-05
      6.30416442e-03 2.83401459e-01 2.83401459e-01 1.84471637e-01
      1.15070872e-01 2.36734241e-01 4.82786931e-02 2.32034966e-01
      2.83401459e-01 1.41455948e-01 2.83401459e-01 2.83401459e-01
      2.83401459e-01 2.04398468e-01 2.65228838e-01</_>
    <_>
      1.05853681e-03 1.09546143e-03 0. 0. 3.22450586e-02 2.73456844e-03
      0. 0. 2.83324858e-04 6.20675012e-02 2.34303251e-01 3.58256787e-01
      3.58256787e-01 3.58256787e-01 5.83258606e-02 0. 0. 1.10284016e-02
      2.47678312e-04 5.33868035e-04 0. 1.94347941e-03 1.78721040e-01
      6.00074045e-03 0. 0. 0. 3.88598815e-02 3.58256787e-01
      3.50599051e-01 3.58256787e-01 3.58256787e-01 8.11566710e-02 0.
      1.72551500e-03 3.03086708e-03 1.95284769e-01 1.86347440e-01
      2.39427716e-01 2.39427716e-01 1.72877491e-01 4.38653640e-02
      2.40493845e-02 3.96066122e-02 9.30218995e-02 2.39427716e-01
      9.05955061e-02 1.18695773e-01 8.84724408e-02 3.51119898e-02
      2.39427716e-01 2.39427716e-01 2.39427716e-01 2.36162722e-01
      8.74780864e-02 2.39427716e-01 1.70635343e-01 2.39427716e-01
      2.19016775e-01 4.57903333e-02 1.29404264e-02 1.89258475e-02
      1.97900459e-02 1.15384609e-01 9.15317759e-02 5.17250523e-02
      9.19746980e-02 2.39427716e-01 2.39427716e-01 2.22473130e-01
      2.11390495e-01 8.36133808e-02 0. 0. 0. 2.74618738e-03
      2.06606567e-01 3.13896756e-03 0. 0. 0. 6.64467318e-03
      1.61650062e-01 9.40641537e-02 1.60121396e-01 4.00423616e-01
      2.05412343e-01 4.18528728e-02 1.68695167e-01 1.31193083e-03 0. 0.
      0. 5.87694906e-03 1.73846290e-01 1.85241201e-03 0. 4.81273048e-04
      9.97249372e-05 4.84526274e-04 6.20337742e-05 1.85628713e-04
      4.88653965e-02 4.00423616e-01 4.00423616e-01 3.78374815e-01
      4.00423616e-01 5.52795678e-02 6.75949454e-03 1.22059606e-01
      5.82231730e-02 7.87314922e-02 2.79870719e-01 1.19369499e-01
      2.64421552e-02 1.24428108e-01 1.27379328e-03 1.42736770e-02
      3.30063254e-02 6.22686706e-02 4.88958135e-02 2.97444016e-01
      1.20491162e-01 3.56478617e-02 5.39839752e-02 1.28754303e-02
      1.57691315e-02 3.66570652e-02 2.73705591e-02 4.41184901e-02
      2.97444016e-01 2.97444016e-01 2.28226125e-01 2.97444016e-01
      1.35520712e-01 4.45220210e-02 2.97444016e-01 2.97444016e-01
      2.11810797e-01 2.97444016e-01 1.38670400e-01 7.81520158e-02
      1.66738048e-01 2.08010674e-01</_>
    <_>
      1.05853681e-03 1.09546143e-03 0. 0. 3.22450586e-02 2.73456844e-03
      0. 0. 2.83324858e-04 6.20675012e-02 2.34303251e-01 3.58256787e-01
      3.58256787e-01 3.58256787e-01 5.83258606e-02 0. 0. 1.10284016e-02
      2.47678312e-04 5.33868035e-04 0. 1.94347941e-03 1.78721040e-01
      6.00074045e-03 0. 0. 0. 3.88598815e-02 3.58256787e-01
      3.50599051e-01 3.58256787e-01 3.58256787e-01 8.11566710e-02 0.
      1.72551500e-03 3.03086708e-03 1.95284769e-01 1.86347440e-01
      2.39427716e-01 2.39427716e-01 1.72877491e-01 4.38653640e-02
      2.40493845e-02 3.96066122e-02 9.30218995e-02 2.39427716e-01
      9.05955061e-02 1.18695773e-01 8.84724408e-02 3.51119898e-02
      2.39427716e-01 2.39427716e-01 2.39427716e-01 2.36162722e-01
      8.74780864e-02 2.39427716e-01 1.70635343e-01 2.39427716e-01
      2.19016775e-01 4.57903333e-02 1.29404264e-02 1.89258475e-02
      1.97900459e-02 1.15384609e-01 9.15317759e-02 5.17250523e-02
      9.19746980e-02 2.39427716e-01 2.39427716e-01 2.22473130e-01
      2.11390495e-01 8.36133808e-02 0. 0. 0. 2.74618738e-03
      2.06606567e-01 3.13896756e-03 0. 0. 0. 6.64467318e-03
      1.61650062e-01 9.40641537e-02 1.60121396e-01 4.00423616e-01
      2.05412343e-01 4.18528728e-02 1.68695167e-01 1.31193083e-03 0. 0.
      0. 5.87694906e-03 1.73846290e-01 1.85241201e-03 0. 4.81273048e-04
      9.97249372e-05 4.84526274e-04 6.20337742e-05 1.85628713e-04
      4.88653965e-02 4.00423616e-01 4.00423616e-01 3.78374815e-01
      4.00423616e-01 5.52795678e-02 6.75949454e-03 1.22059606e-01
      5.82231730e-02 7.87314922e-02 2.79870719e-01 1.19369499e-01
      2.64421552e-02 1.24428108e-01 1.27379328e-03 1.42736770e-02
      3.30063254e-02 6.22686706e-02 4.88958135e-02 2.97444016e-01
      1.20491162e-01 3.56478617e-02 5.39839752e-02 1.28754303e-02
      1.57691315e-02 3.66570652e-02 2.73705591e-02 4.41184901e-02
      2.97444016e-01 2.97444016e-01 2.28226125e-01 2.97444016e-01
      1.35520712e-01 4.45220210e-02 2.97444016e-01 2.97444016e-01
      2.11810797e-01 2.97444016e-01 1.38670400e-01 7.81520158e-02
      1.66738048e-01 2.08010674e-01</_>
    <_>
      6.99649914e-04 2.63123889e-03 1.05470784e-01 2.68338379e-02
      1.86924592e-01 1.95036308e-04 0. 0. 3.75725445e-04 1.32620126e-01
      2.19586328e-01 3.52920592e-01 3.52920592e-01 3.43039244e-01
      7.80144939e-04 5.41343616e-05 1.80908009e-05 7.31730238e-02
      2.79859873e-03 1.75415887e-03 6.64939433e-02 1.03225317e-02
      3.52920592e-01 6.48104295e-04 0. 0. 1.50290120e-03 4.48834337e-02
      1.66301653e-01 3.52920592e-01 3.20669591e-01 3.52920592e-01
      2.59241648e-03 2.16537403e-04 1.57838993e-04 3.21181193e-02
      2.62041062e-01 1.62646398e-01 2.62041062e-01 1.93548217e-01
      9.32901204e-02 8.80497470e-02 1.36999756e-01 8.85476023e-02
      1.82408333e-01 1.90546155e-01 2.18066052e-02 2.83245109e-02
      1.25731686e-02 2.62041062e-01 2.62041062e-01 2.62041062e-01
      1.46420151e-01 1.54299006e-01 8.48331600e-02 1.11025140e-01
      2.62041062e-01 1.89947695e-01 2.62041062e-01 5.17458990e-02
      4.09048460e-02 5.00316694e-02 1.24516353e-01 5.95226102e-02
      1.37373833e-02 2.12587249e-02 2.30020452e-02 2.62041062e-01
      2.26081297e-01 9.38394666e-02 1.16424963e-01 2.62041062e-01
      1.78589718e-03 0. 3.03250412e-03 8.72750999e-04 4.21222597e-01
      4.66691738e-04 0. 0. 1.36666629e-03 7.88001250e-03 1.34332143e-02
      5.46830967e-02 8.08423683e-02 4.21222597e-01 2.50674095e-02
      4.97260690e-02 5.48439799e-04 6.24562521e-03 3.52157233e-03 0. 0.
      0. 4.21222597e-01 7.77959498e-03 8.32015872e-02 2.78788083e-03
      3.52157233e-03 3.43196057e-02 2.58431174e-02 1.39613627e-02
      2.98214681e-03 4.21222597e-01 1.66247487e-01 4.21222597e-01
      2.38783121e-01 4.47796062e-02 3.55639905e-02 1.77506972e-02
      3.96557525e-02 8.93142894e-02 3.08587611e-01 2.69125719e-02
      3.25412862e-02 1.04700467e-02 3.70020270e-02 1.26598954e-01
      3.34309675e-02 2.93394681e-02 7.73233473e-02 3.08587611e-01
      5.18696792e-02 1.50556967e-04 3.59874368e-02 1.33855507e-01
      1.35977224e-01 1.31437495e-01 1.93993360e-01 1.80728689e-01
      3.08587611e-01 1.32540286e-01 3.08587611e-01 2.15031818e-01
      2.49428079e-02 3.08587611e-01 1.65400669e-01 2.65433043e-01
      3.08587611e-01 3.08587611e-01 2.10420787e-02 2.10321695e-02
      2.94114351e-02 1.27136393e-03</_>
    <_>
      1.08255036e-02 9.40916389e-02 1.56942472e-01 1.12611145e-01
      1.84220150e-01 0. 7.18490570e-04 2.40107373e-04 1.68914851e-02
      2.29192719e-01 2.95977205e-01 2.95977205e-01 2.95977205e-01
      2.01570556e-01 3.06553952e-02 3.17581892e-02 3.72144282e-02
      2.32915565e-01 3.39901075e-02 1.31621271e-01 9.99391973e-02
      9.70170349e-02 2.95977205e-01 2.96448963e-03 8.08141020e-04
      1.08965777e-03 1.13237137e-02 1.22850187e-01 2.95977205e-01
      2.95977205e-01 2.95977205e-01 2.95977205e-01 2.86409985e-02
      1.57625247e-02 1.53570063e-02 1.02755867e-01 2.23728463e-01
      1.56777889e-01 1.97765633e-01 1.18875034e-01 9.13333073e-02
      1.51042774e-01 2.58496523e-01 1.76159799e-01 2.44693995e-01
      5.16124666e-02 2.45163348e-02 1.24238264e-02 0. 2.58496523e-01
      2.28191838e-01 2.58496523e-01 2.08290324e-01 7.78851509e-02
      8.47017244e-02 1.00101717e-01 1.04389183e-01 1.27593890e-01
      2.31110632e-01 1.64440125e-01 2.43971571e-01 1.19062640e-01
      9.13600400e-02 1.86898559e-02 1.64038911e-02 8.28255061e-03
      1.04422485e-02 2.58496523e-01 2.40535736e-01 2.58496523e-01
      2.05588087e-01 2.53802687e-02 1.08609963e-02 2.28514038e-02
      1.47924591e-02 2.75893584e-02 3.52061242e-01 2.70873792e-02
      1.51024750e-02 6.70149364e-03 1.31234527e-02 1.83914360e-02
      4.83275540e-02 4.92781550e-02 1.18684359e-01 3.52061242e-01
      1.02901414e-01 5.26365303e-02 9.27693490e-03 2.15433277e-02 0.
      1.75102905e-03 1.13433665e-02 1.93596759e-03 3.52061242e-01
      1.09833293e-01 1.31145924e-01 1.50885880e-01 5.90675771e-02
      5.52575737e-02 3.87111306e-02 6.07609898e-02 4.07004692e-02
      3.52061242e-01 3.52061242e-01 3.52061242e-01 3.52061242e-01
      1.65535614e-01 5.17403334e-03 1.78951565e-02 7.79850110e-02
      1.01930797e-01 3.10709417e-01 9.79751498e-02 7.91579634e-02
      1.71820708e-02 5.26738400e-03 8.61719192e-04 2.30864435e-02
      1.09360777e-01 9.27478597e-02 3.10709417e-01 9.65720564e-02
      1.22574054e-01 3.74882221e-02 7.76318077e-04 8.79280195e-02
      2.05030665e-01 2.98269451e-01 2.07081318e-01 3.10709417e-01
      1.52545691e-01 1.38551921e-01 1.59069806e-01 1.01756468e-01
      3.43074352e-02 3.10709417e-01 3.10709417e-01 2.73730606e-01
      3.10709417e-01 3.84997390e-02 5.33665204e-03 1.34045084e-04
      2.09208056e-02</_>
    <_>
      6.97296485e-02 1.56707186e-02 1.37951085e-03 1.09771743e-01
      3.54625911e-01 2.56775902e-03 1.87764619e-03 6.27478003e-04
      2.12123971e-02 2.75285512e-01 6.08998500e-02 1.06357725e-03
      1.67230606e-01 3.62686127e-01 6.48521213e-03 6.67488493e-04
      2.23063340e-04 8.05908740e-02 6.77699447e-02 5.69091067e-02
      7.76939094e-03 6.61453381e-02 3.62686127e-01 9.99137666e-03
      2.00278126e-03 1.33356787e-02 3.14267799e-02 3.62686127e-01
      2.27640212e-01 2.99639367e-02 9.96079445e-02 3.62686127e-01
      1.21902106e-02 6.32746553e-04 7.05001131e-02 3.62686127e-01
      9.28424448e-02 1.42294113e-02 3.97472060e-04 1.93201248e-02
      3.93840432e-01 4.40105470e-03 5.69859170e-04 1.58579292e-04
      5.17226905e-02 1.26939729e-01 4.18181851e-04 4.40732954e-04
      1.93625991e-03 3.93840432e-01 3.13840713e-03 4.59347852e-04
      1.05719540e-04 1.34649798e-01 3.31772804e-01 6.47713840e-02
      1.14892408e-01 3.87714580e-02 3.93840432e-01 2.84925615e-03
      3.16352758e-04 2.05022171e-02 3.62087935e-01 1.70142785e-01
      2.27527358e-02 1.63112596e-01 4.14276198e-02 3.93840432e-01
      2.49227043e-03 2.10901824e-04 7.04796839e-05 1.05700694e-01
      1.54464664e-02 5.47290854e-02 1.20130545e-02 1.26602883e-02
      3.26530278e-01 6.27787784e-02 1.39875608e-02 4.83402200e-02
      3.46865430e-02 3.26530278e-01 2.18916297e-01 4.80522066e-02
      2.67413799e-02 3.26530278e-01 8.67726058e-02 5.35008051e-02
      1.94431916e-01 3.26530278e-01 2.28829030e-02 1.20367343e-02
      3.00326338e-03 3.50405346e-03 2.23072216e-01 7.64506906e-02
      2.01374479e-02 7.12717175e-02 5.11147864e-02 3.26530278e-01
      4.81469221e-02 1.20130498e-02 1.23314811e-02 3.26530278e-01
      1.08704351e-01 8.00402462e-02 2.34078944e-01 3.26530278e-01
      3.46490830e-01 5.33842444e-02 6.63396642e-02 1.76765621e-02
      1.77466407e-01 6.29915530e-03 3.50717157e-02 3.91667373e-02
      3.46490830e-01 2.00490445e-01 2.70033646e-02 8.79787505e-02
      2.11514700e-02 3.46490830e-01 1.44749496e-03 3.96662578e-02
      8.44821706e-03 1.79551587e-01 3.46490830e-01 1.22770891e-02
      1.94315775e-03 1.94016239e-03 2.27715120e-01 2.43322309e-02
      1.18717976e-01 4.56495434e-02 3.46490830e-01 1.29092634e-01
      6.73370482e-03 0. 0. 3.46490830e-01 2.53715627e-02 1.58664986e-01
      1.57686323e-02 1.99456856e-01</_>
    <_>
      2.38009896e-02 2.30124369e-05 6.88617220e-05 0. 4.12319213e-01 0.
      0. 0. 2.29929984e-02 9.56250355e-02 2.53884587e-04 7.59717717e-04
      0. 4.64384854e-01 3.78118129e-03 9.68345033e-04 3.23604327e-04
      9.23930779e-02 4.84822365e-03 1.82560834e-04 5.46289491e-04 0.
      4.64384854e-01 8.80463794e-03 0. 0. 3.63623677e-03 1.47245228e-01
      9.24391032e-04 2.76612211e-03 0. 4.64384854e-01 1.01263314e-01
      2.54113615e-01 3.57970297e-02 2.48373359e-01 4.37711440e-02
      4.77459561e-03 1.05283009e-02 5.70061244e-03 3.51298124e-01
      6.11196784e-03 2.43876548e-03 8.14993866e-04 3.60779427e-02
      3.24461721e-02 1.74433496e-02 3.71607244e-02 2.36709062e-02
      3.32449138e-01 4.48667929e-02 3.03722452e-02 1.66859273e-02
      2.47958004e-02 3.51298124e-01 3.61418501e-02 4.20190301e-03
      2.60183495e-03 3.51298124e-01 7.39137977e-02 2.24545300e-01
      6.45361841e-02 3.51298124e-01 3.51298124e-01 8.70440379e-02
      9.41093732e-03 3.11341453e-02 3.51298124e-01 4.34119515e-02
      4.65080664e-02 1.36711553e-01 2.05424979e-01 3.78545979e-03
      9.13928016e-05 2.73481070e-04 0. 3.31386179e-01 3.02233789e-02
      2.44029295e-02 2.11027991e-02 1.01646958e-02 3.27885747e-01
      4.26029583e-04 1.27483881e-03 0. 3.31386179e-01 1.64335400e-01
      2.73428410e-01 1.39377907e-01 3.31386179e-01 1.65131520e-02 0. 0.
      0. 2.33522579e-01 2.01489162e-02 3.66044007e-02 3.16542014e-02
      4.27084267e-02 3.31386179e-01 0. 0. 0. 3.31386179e-01
      8.05956498e-02 1.46417558e-01 1.40352935e-01 3.31386179e-01
      3.03999752e-01 2.82571018e-02 1.26383984e-02 2.25465337e-04
      2.05957547e-01 5.24582751e-02 1.13463961e-01 7.54124373e-02
      3.03999752e-01 3.03999752e-01 9.08513293e-02 4.88932654e-02
      9.49785113e-03 3.03999752e-01 2.85989493e-02 3.40052508e-02
      1.21171013e-01 3.01309884e-01 3.03999752e-01 2.12562531e-02
      1.83169506e-02 0. 8.69952291e-02 4.59846780e-02 3.54341306e-02
      4.59142327e-02 3.03999752e-01 2.03010842e-01 8.50249901e-02
      7.32677951e-02 6.37428975e-03 3.03999752e-01 7.47657865e-02
      1.13251712e-02 3.69233787e-02 3.03999752e-01</_>
    <_>
      1.36216846e-03 0. 0. 0. 1.49445906e-02 0. 2.50365981e-03
      8.36681225e-04 1.36216846e-03 2.66553342e-01 6.09854087e-02
      7.58811599e-03 4.50869143e-01 4.98742908e-01 1.41241746e-02
      1.00146355e-02 3.34672397e-03 8.24589729e-02 6.92206202e-04 0. 0.
      0. 1.70055740e-02 9.16160701e-04 2.67051510e-03 7.42762175e-04
      6.92206202e-04 2.57719457e-01 2.15941831e-01 3.00436635e-02
      2.79846549e-01 4.98742908e-01 4.86382842e-02 1.06820576e-02
      5.14153950e-02 1.19941033e-01 1.74198657e-01 3.85644808e-02
      1.02376856e-03 1.35512263e-01 3.49722326e-01 4.12601978e-03
      6.07110036e-04 2.02886018e-04 5.10799997e-02 1.52691334e-01
      2.69775596e-02 5.28955075e-04 3.79300155e-02 3.49722326e-01
      5.71436435e-03 8.36694147e-04 2.43313028e-04 6.93990365e-02
      2.35122740e-01 1.44120365e-01 1.90649331e-02 8.07620287e-02
      3.49722326e-01 1.02557614e-02 6.47570589e-04 4.14853022e-02
      2.43458241e-01 3.49722326e-01 1.13529079e-01 1.35876819e-01
      5.36458679e-02 3.49722326e-01 3.83347226e-03 4.85389610e-04
      3.51425558e-02 3.49722326e-01 7.58535927e-04 0. 0. 0.
      1.44492667e-02 1.64000073e-03 9.63564613e-04 5.40692781e-05
      7.58535927e-04 6.56625330e-02 2.29542747e-01 5.03847227e-02
      6.42255247e-02 4.94439214e-01 2.96508074e-01 5.97808287e-02
      2.04464853e-01 1.46701574e-01 1.25802739e-03 0. 0. 0.
      5.92707004e-03 4.10000124e-04 2.00442286e-04 0. 1.25802739e-03
      9.77401882e-02 5.04840389e-02 1.25961797e-02 1.56524852e-02
      4.94439214e-01 3.56417835e-01 8.46916363e-02 3.05547237e-01
      2.17521489e-01 1.64661139e-01 1.15405880e-01 2.53316350e-02
      1.60288997e-02 3.19005787e-01 6.03443384e-02 2.82936767e-02
      1.01722792e-01 2.76164383e-01 3.19005787e-01 9.98164713e-02
      9.14452597e-02 2.55815014e-02 1.94331095e-01 1.38982981e-02
      5.24389409e-02 7.73196742e-02 3.19005787e-01 2.00359955e-01
      2.53815707e-02 6.33290876e-03 6.63535297e-03 2.38546059e-01
      7.51120970e-02 4.22133952e-02 1.28093019e-01 2.60098964e-01
      3.19005787e-01 2.26408485e-02 4.22193855e-03 4.21543140e-03
      2.52896428e-01 3.89610268e-02 1.62892565e-01 9.01114717e-02
      3.19005787e-01</_>
    <_>
      1.42114058e-01 4.24215607e-02 1.67738665e-02 3.94787006e-02
      3.57488275e-01 1.50188170e-02 1.46434165e-03 3.33362492e-03 0.
      2.13706329e-01 6.23386055e-02 2.45611239e-02 1.41172945e-01
      3.57488275e-01 3.31091359e-02 4.38014418e-03 1.33344950e-02
      7.46764359e-04 7.22417980e-02 2.83071008e-02 2.47252663e-03
      5.22652529e-02 3.57488275e-01 3.97199318e-02 6.58170283e-02
      9.08134133e-03 2.78014913e-02 3.57488275e-01 4.08426262e-02
      3.77453305e-03 2.02360570e-01 3.57488275e-01 9.61332843e-02
      2.56168067e-01 3.41218449e-02 3.57488275e-01 5.79486638e-02
      8.00476223e-03 4.39529074e-03 3.90334427e-02 3.72228354e-01
      9.30353999e-03 1.15203846e-03 3.69483931e-03 3.41303572e-02
      1.24811858e-01 6.45577384e-04 7.56927417e-04 1.31295912e-03
      3.72228354e-01 2.22999253e-03 0. 4.28058702e-04 1.32503718e-01
      3.72228354e-01 1.45129273e-02 1.32827431e-01 5.71298562e-02
      3.72228354e-01 2.74480376e-02 6.92101270e-02 9.56947077e-03
      3.72228354e-01 1.99510559e-01 1.41006634e-02 1.95953906e-01
      2.56752805e-03 3.72228354e-01 9.80090536e-03 6.18069316e-04
      1.71223446e-03 1.42559305e-01 3.11045628e-02 2.53073825e-03
      7.57464208e-04 1.04760453e-02 3.38532299e-01 7.24154189e-02
      8.76881778e-02 5.23023047e-02 7.85566419e-02 3.38532299e-01
      3.62256635e-03 1.22271490e-03 3.25079523e-02 3.38532299e-01
      1.27997816e-01 2.26538524e-01 1.06614836e-01 3.38532299e-01
      8.24267641e-02 0. 0. 3.98721604e-04 2.96293169e-01 4.30180468e-02
      7.02375472e-02 6.32285327e-02 1.39845029e-01 3.38532299e-01 0. 0.
      2.65814335e-04 2.36936539e-01 5.93947731e-02 1.04628660e-01
      1.01937331e-01 3.38532299e-01 3.47859681e-01 4.95772343e-03
      6.63564429e-02 7.45158736e-03 1.44158229e-01 3.01042926e-02
      6.13574386e-02 2.46333573e-02 3.47859681e-01 2.46395752e-01
      6.79507293e-03 9.88729671e-02 1.70070410e-03 3.47859681e-01
      2.01898906e-02 2.93444768e-02 1.27040651e-02 1.93729788e-01
      3.47859681e-01 0. 0. 2.49906909e-04 1.88491136e-01 3.26551646e-02
      8.52654353e-02 4.44562547e-02 3.47859681e-01 1.82174847e-01 0. 0.
      9.99627286e-04 3.47859681e-01 4.28853072e-02 1.12212770e-01
      4.92585674e-02 1.85899690e-01</_>
    <_>
      0. 0. 0. 5.03519876e-03 2.22043619e-01 4.15252149e-03 0. 0. 0.
      1.91320747e-01 0. 0. 2.30712425e-02 5.40409565e-01 1.85908880e-02
      2.76300707e-04 9.23348416e-05 2.02542484e-01 0. 0. 0.
      5.26303798e-03 3.95112544e-01 7.45391753e-03 0. 0. 0.
      1.25364125e-01 0. 0. 2.82045305e-02 5.40409565e-01 1.27262965e-01
      2.05929220e-01 2.71254499e-02 2.24988833e-01 9.19154733e-02
      2.41957841e-05 7.24030178e-05 6.77105412e-03 3.34870726e-01
      5.65276202e-03 8.08493060e-04 2.70184159e-04 9.72587243e-02
      5.27193286e-02 2.07350196e-04 6.20469567e-04 4.84232733e-04
      3.34870726e-01 5.25446516e-03 1.06188329e-03 3.54862714e-04
      4.53494489e-02 3.01226586e-01 9.67831147e-05 2.89611984e-04
      8.17635842e-03 3.34870726e-01 8.08972046e-02 2.18696892e-01
      2.89033111e-02 3.34870726e-01 3.34870726e-01 1.87516242e-01
      5.41432910e-02 1.36424217e-03 3.34870726e-01 2.67655384e-02
      5.57375997e-02 3.00387256e-02 3.34870726e-01 0. 0. 0.
      1.28057518e-03 2.80322313e-01 4.35671676e-03 0. 0. 0.
      1.77028552e-01 0. 0. 9.61187389e-03 3.79992574e-01 2.02235058e-01
      2.59799212e-01 1.52613357e-01 3.37787181e-01 0. 0. 0.
      2.05332937e-04 1.30281597e-01 1.37034128e-03 0. 0. 0.
      3.28777760e-01 0. 0. 1.62896968e-03 3.79992574e-01 1.08820640e-01
      1.93635032e-01 1.81088671e-01 3.79992574e-01 2.89286822e-01
      1.87712303e-05 5.61706802e-05 2.19706213e-03 2.89286822e-01
      7.41368756e-02 1.35894135e-01 6.45514056e-02 2.89286822e-01
      2.89286822e-01 1.17973521e-01 2.29244567e-02 1.63322221e-03
      2.58710116e-01 3.07109132e-02 2.36097146e-02 6.52448237e-02
      2.89286822e-01 2.89286822e-01 0. 0. 3.80678393e-04 1.18893489e-01
      3.42288539e-02 6.26443028e-02 6.23782054e-02 2.89286822e-01
      2.89286822e-01 5.57727851e-02 0. 7.40445510e-04 2.75956899e-01
      5.01307696e-02 0. 1.54138952e-01 2.89286822e-01</_>
    <_>
      0. 0. 0. 1.58988917e-03 2.83221930e-01 2.95371213e-03 0. 0. 0.
      2.14996412e-01 4.20812692e-04 1.32291659e-03 1.28278695e-02
      4.87225115e-01 1.80224665e-02 1.99194983e-04 6.65674597e-05
      2.04886958e-01 0. 0. 0. 1.87755469e-03 2.86374092e-01
      3.68524855e-03 0. 0. 0. 2.78444052e-01 1.05203166e-04
      1.31169811e-01 6.27820194e-02 4.87225115e-01 4.01380025e-02
      3.93266976e-02 1.38656825e-01 3.85160714e-01 8.08789432e-02
      1.57228729e-04 5.88343362e-04 7.37075647e-03 3.58767569e-01
      7.29860319e-03 3.68631649e-04 1.23190213e-04 7.71017447e-02
      1.16739690e-01 0. 7.85700104e-05 4.64522513e-03 3.58767569e-01
      4.10089316e-03 3.45580891e-04 8.21268040e-05 1.16739690e-01
      2.94824332e-01 7.70949246e-03 1.04424447e-01 2.60283444e-02
      3.58767569e-01 1.56969093e-02 3.30058783e-02 1.15399264e-01
      3.46470058e-01 3.21025461e-01 3.06807347e-02 2.20470592e-01
      6.37847837e-03 3.58767569e-01 6.54975548e-02 8.48186295e-03
      2.89268084e-02 2.24872231e-01 0. 0. 0. 1.64376735e-03
      2.43774608e-01 2.06106319e-03 0. 0. 0. 2.82386541e-01 0.
      2.01500490e-01 8.40602070e-02 3.53396952e-01 7.28203580e-02
      1.68897167e-01 2.18664125e-01 3.53396952e-01 0. 0. 0.
      2.23597031e-04 1.38445571e-01 1.49221229e-03 0. 0. 0.
      3.53396952e-01 0. 5.03552854e-02 1.98639575e-02 3.53396952e-01
      4.84922118e-02 2.12714255e-01 1.83947816e-01 3.53396952e-01
      2.88230002e-01 6.31636055e-03 8.63939598e-02 2.36065611e-02
      2.34563634e-01 1.98320914e-02 6.59490675e-02 9.93993655e-02
      2.88230002e-01 2.88230002e-01 3.04779187e-02 1.16157919e-01
      4.38063405e-02 2.88230002e-01 7.30692223e-02 3.81728448e-02
      3.02688442e-02 2.88230002e-01 2.88230002e-01 1.03148841e-03
      1.43153481e-02 5.50704775e-03 1.69233084e-01 2.09203195e-02
      9.43275541e-02 6.66973740e-02 2.88230002e-01 2.75562316e-01
      2.49758959e-02 0. 6.34557977e-02 2.88230002e-01 5.26331328e-02
      1.35422677e-01 5.76136224e-02 2.88230002e-01</_>
    <_>
      1.28512052e-04 9.05132678e-04 8.52624478e-04 0. 2.86930660e-03
      2.02963385e-03 2.99162668e-04 0. 0. 3.30716193e-01 9.95320231e-02
      3.98193486e-02 8.93460885e-02 6.25916362e-01 3.97258215e-02
      3.50787793e-03 7.19791790e-03 0. 1.92768101e-04 1.25876663e-03
      9.82894329e-04 0. 7.13696750e-03 5.64149930e-04 1.43787125e-03
      4.46248538e-04 0. 1.68123454e-01 6.70292675e-02 6.67259796e-03
      1.16119646e-01 6.25916362e-01 9.31744203e-02 1.43774658e-01
      2.01245565e-02 6.00286014e-02 2.02796698e-01 5.92864454e-02
      2.29762178e-02 1.05595209e-01 3.44285578e-01 2.67856121e-02
      3.30118649e-03 9.81974229e-03 3.20438470e-04 8.40834379e-02
      1.53032457e-02 7.79379206e-03 6.94156811e-02 3.44285578e-01
      1.58537626e-02 2.10205768e-03 6.54649409e-03 3.34802754e-02
      2.34764576e-01 3.88053134e-02 2.85684085e-03 1.49342075e-01
      3.44285578e-01 7.84373358e-02 1.89009622e-01 2.52406243e-02
      2.09072873e-01 3.44285578e-01 1.99338496e-02 1.43187553e-01
      1.01634085e-01 3.44285578e-01 4.56412099e-02 1.25972763e-01
      1.66798048e-02 3.44285578e-01 2.78268708e-05 2.04642754e-04
      2.10513695e-04 0. 4.02462808e-03 7.42710894e-04 1.92337052e-03
      5.21416659e-04 0. 8.00255537e-02 7.07594212e-03 2.25770730e-03
      2.97879744e-02 5.33417583e-01 2.00686738e-01 2.32698485e-01
      1.40505210e-01 2.02118024e-01 0. 0. 0. 0. 2.80942186e-04
      4.95140499e-04 5.16964938e-04 9.18666192e-05 0. 2.14305490e-01 0.
      0. 1.46068819e-03 5.33417583e-01 1.22503445e-01 1.91547498e-01
      1.71518460e-01 3.69017839e-01 2.14043319e-01 2.72484589e-03
      7.95912812e-04 1.99004058e-02 3.18533957e-01 9.13275406e-02
      1.45295963e-01 7.30053037e-02 3.12310010e-01 3.18533957e-01
      5.43701975e-03 6.86243400e-02 1.22515690e-02 9.45651159e-02
      4.43618149e-02 9.45927352e-02 3.79860029e-02 3.18533957e-01
      2.91973203e-01 0. 0. 2.74422200e-04 2.25139767e-01 4.60704118e-02
      7.93991163e-02 7.53305107e-02 3.18533957e-01 3.18533957e-01 0. 0.
      0. 1.39220819e-01 3.75438966e-02 9.69304144e-02 5.55091687e-02
      3.18533957e-01</_>
    <_>
      7.88108271e-04 0. 0. 0. 4.53854119e-03 0. 1.83833967e-04
      6.14342425e-05 7.88108271e-04 1.15643054e-01 0. 0. 7.12947734e-03
      6.75745010e-01 8.15443881e-03 7.35335634e-04 2.45736912e-04
      1.21506922e-01 4.34484304e-04 0. 0. 0. 7.10133323e-03
      4.55990143e-04 3.60801525e-04 4.60756819e-05 4.34484304e-04
      5.16116582e-02 0. 0. 1.01933964e-01 6.75745010e-01 4.10257950e-02
      1.37904003e-01 1.77154653e-02 1.32643804e-01 6.80324733e-02
      6.12359581e-05 1.83240641e-04 2.30819476e-03 3.66500705e-01
      4.22970345e-03 8.86571434e-05 2.96277321e-05 7.15342090e-02
      5.77003025e-02 4.70063853e-04 7.32962391e-04 4.32032812e-03
      3.66500705e-01 2.35456158e-03 0. 0. 5.76902255e-02 1.48973063e-01
      4.08239684e-05 1.22160403e-04 5.38658909e-02 3.66500705e-01
      2.34548766e-02 1.81534439e-01 2.33216602e-02 2.42510438e-01
      3.66500705e-01 1.61917821e-01 3.94009128e-02 1.44490553e-02
      3.66500705e-01 2.59115659e-02 1.64634451e-01 1.55329565e-02
      3.66500705e-01 3.74579395e-05 0. 0. 0. 4.21346072e-03
      8.04917887e-04 9.35160962e-04 1.81010357e-04 3.74579395e-05
      9.54255089e-02 0. 0. 1.44898862e-01 5.12158811e-01 1.48414060e-01
      2.40533397e-01 1.38025433e-01 2.51563579e-01 0. 0. 0. 0.
      8.43853282e-04 2.01229443e-04 4.59477655e-04 1.20673561e-04 0.
      2.17858613e-01 0. 0. 3.34603265e-02 5.12158811e-01 1.04820542e-01
      1.94674343e-01 1.76098406e-01 3.86592090e-01 2.25471199e-01 0. 0.
      5.81635237e-02 2.96311021e-01 5.67016378e-02 1.54070407e-01
      6.89183846e-02 2.96311021e-01 2.96311021e-01 8.91401991e-02
      4.82364297e-02 3.84364650e-02 1.64660349e-01 3.83940525e-02
      1.34565577e-01 6.96584731e-02 2.96311021e-01 2.96311021e-01 0. 0.
      1.39257759e-02 2.25406364e-01 3.89428884e-02 8.04105699e-02
      7.52280429e-02 2.96311021e-01 2.96311021e-01 0. 4.00898866e-02
      3.97555567e-02 1.88451782e-01 5.36930487e-02 3.57528999e-02
      1.94706023e-01 2.96311021e-01</_>
    <_>
      0. 7.63057396e-02 3.29150110e-02 1.17905270e-02 2.19086334e-01 0.
      1.55459755e-04 5.19520545e-05 0. 4.05104086e-02 3.05509359e-01
      2.28556141e-01 3.18164349e-01 3.25685263e-01 8.80988035e-03
      8.44244321e-04 2.82132212e-04 4.28167060e-02 0. 3.77591178e-02
      2.18017884e-02 5.70350140e-03 3.25685263e-01 8.00776761e-03
      6.21838844e-04 2.07808160e-04 0. 1.76764429e-01 1.52182400e-01
      2.20248982e-01 3.25685263e-01 3.25685263e-01 3.55807692e-02
      3.01433921e-01 2.08967384e-02 2.63789982e-01 1.93438865e-02
      6.45123646e-02 7.30674863e-02 1.41055405e-01 3.36481124e-01
      1.00615835e-02 6.46603759e-04 2.16083878e-04 2.03896724e-02
      1.36055321e-01 1.19411014e-03 0. 4.61509591e-03 3.36481124e-01
      3.93090677e-03 3.43852764e-04 1.14909642e-04 1.27743557e-01
      3.12689304e-01 3.96966264e-02 1.31828293e-01 2.19109342e-01
      3.36481124e-01 1.15143768e-02 1.41437575e-01 9.88483988e-03
      3.31808150e-01 3.02145988e-01 2.79526450e-02 2.04755619e-01
      5.69762141e-02 3.36481124e-01 6.19304320e-03 1.36903336e-03
      2.63085356e-04 2.15054616e-01 2.64787069e-03 0. 1.71106239e-03
      1.94464880e-03 3.28448385e-01 2.61946283e-02 3.48272920e-02
      9.91704687e-03 9.69583169e-03 3.25152844e-01 3.40059865e-04
      2.47962642e-02 1.20189674e-01 3.28448385e-01 1.04778476e-01
      3.28448385e-01 5.28457724e-02 3.28448385e-01 1.25806546e-02 0. 0.
      3.25572037e-04 2.18218967e-01 1.74630806e-02 5.19641414e-02
      1.47830695e-02 4.07724865e-02 3.28448385e-01 0. 1.09689077e-03
      2.57489104e-02 3.28448385e-01 6.98523074e-02 2.07856506e-01
      5.91322631e-02 3.28448385e-01 3.04983467e-01 7.89679307e-03
      3.36574987e-02 4.85459119e-02 1.14549458e-01 1.71307474e-02
      1.05784215e-01 1.35273077e-02 3.04983467e-01 3.04983467e-01
      3.05625852e-02 1.04265451e-01 2.91674547e-02 3.04983467e-01
      2.81463284e-03 4.77439016e-02 9.16953012e-03 3.04983467e-01
      3.04983467e-01 1.90589286e-03 3.95991170e-04 9.03678220e-03
      1.01691589e-01 1.87885631e-02 8.10290724e-02 1.39368977e-02
      3.04983467e-01 2.48284057e-01 7.62356911e-03 0. 1.18477223e-03
      3.04983467e-01 3.30093354e-02 1.89247876e-01 1.73794162e-02
      3.04983467e-01</_>
    <_>
      0. 0. 0. 1.91965606e-03 3.09728831e-01 3.19938292e-03 0. 0. 0.
      3.17083329e-01 9.72078531e-04 5.00929833e-04 1.04678469e-02
      5.39719820e-01 1.54502140e-02 4.76282934e-04 1.01429701e-04
      3.22675347e-01 0. 0. 0. 2.80689145e-03 2.83407539e-01
      3.31039005e-03 0. 0. 0. 1.23825483e-01 1.23727694e-03
      9.05582929e-05 1.65521819e-02 5.39719820e-01 1.90358926e-02
      2.59151595e-04 0. 1.21445037e-01 7.31563121e-02 3.16913798e-03
      6.11366406e-02 7.15772137e-02 3.67207080e-01 6.06161216e-03
      5.42741443e-04 1.15582778e-04 7.42912143e-02 4.21443135e-02
      8.98415502e-03 2.42643714e-01 3.01624447e-01 3.67207080e-01
      1.40362307e-02 3.61827551e-04 7.70551633e-05 6.16357177e-02
      3.97606194e-02 1.61356311e-02 1.33630440e-01 1.39394432e-01
      3.67207080e-01 3.21226493e-02 1.13102049e-02 6.96243020e-03
      3.99068333e-02 3.12683992e-02 2.64642108e-02 2.92056888e-01
      3.67207080e-01 3.67207080e-01 1.12566665e-01 4.42564338e-02
      2.78497152e-02 4.82693166e-02 0. 0. 0. 3.46094579e-03
      2.08200142e-01 2.00586091e-03 0. 0. 0. 3.98329683e-02
      2.44185881e-04 2.71406751e-02 4.94280197e-02 5.25355160e-01
      1.00304503e-02 3.53360447e-05 0. 5.11530899e-02 0. 0. 0.
      4.33573360e-03 3.66714269e-01 3.10028205e-03 0. 0. 0.
      2.32366323e-01 6.84386939e-02 1.45825773e-01 1.35885969e-01
      5.25355160e-01 1.53274406e-02 1.09086549e-02 1.08055323e-01
      3.83359522e-01 6.22341409e-02 3.79018039e-02 1.58831492e-01
      1.05127759e-01 3.39906305e-01 1.95046049e-02 8.98230635e-03
      1.25678098e-02 3.77957597e-02 1.33815840e-01 5.65742254e-02
      2.24187583e-01 1.75617442e-01 3.39906305e-01 7.39488974e-02
      3.59761193e-02 5.03407717e-02 9.49883014e-02 1.33255199e-01
      1.50769949e-01 3.39906305e-01 1.20971985e-01 3.39906305e-01
      4.51427978e-03 1.49288764e-02 7.89154246e-02 1.62760451e-01
      1.28695711e-01 1.48104295e-01 3.39906305e-01 9.04725045e-02
      3.39906305e-01 7.87759107e-03 1.13519728e-02 3.88472825e-02
      5.24761863e-02</_>
    <_>
      4.88548656e-04 6.62225939e-04 0. 0. 3.53625207e-03 5.81043598e-04
      1.71179883e-03 1.51441665e-04 3.51328286e-04 2.75260150e-01
      8.05876106e-02 1.82144325e-02 1.27227440e-01 6.45244777e-01
      3.24049629e-02 1.20424340e-02 7.99074210e-03 8.70477930e-02
      7.75943394e-04 1.20143825e-03 0. 0. 8.33585486e-03 1.45260885e-04
      9.87818348e-04 2.24959149e-04 5.26992488e-04 1.94280803e-01
      2.08401363e-02 2.45701801e-03 8.15847814e-02 6.45244777e-01
      1.19215846e-02 3.95127153e-03 8.99836305e-04 9.03860033e-02
      1.39848337e-01 4.00695279e-02 1.29687125e-02 1.17003784e-01
      3.77927661e-01 2.24498231e-02 6.60969270e-03 8.76306091e-03
      4.46486734e-02 4.87453565e-02 6.38075843e-02 2.56867409e-01
      2.21379936e-01 3.77927661e-01 4.51974533e-02 3.06614880e-02
      8.99397209e-03 4.34988178e-02 9.81777832e-02 8.68277997e-03
      8.75303708e-03 1.06778875e-01 3.77927661e-01 7.01296749e-03
      9.08671878e-04 4.65911347e-04 4.55762558e-02 9.89786908e-02
      2.09220394e-01 3.38831097e-01 2.35049099e-01 3.77927661e-01
      5.08257039e-02 4.08404283e-02 1.51181752e-02 9.72114280e-02
      1.32656569e-04 3.28112539e-04 0. 0. 5.79531817e-03 0.
      1.76317268e-03 5.89222822e-04 6.46681146e-05 3.82747576e-02
      1.65810098e-03 1.71740679e-03 1.43235419e-02 6.33584976e-01
      3.19839641e-02 7.05268886e-03 2.35689082e-03 5.49961366e-02 0. 0.
      0. 0. 1.13828701e-03 0. 1.25250686e-03 4.18566866e-04 0.
      1.18613943e-01 3.74383070e-02 7.13970978e-04 2.53369287e-03
      6.33584976e-01 1.53670922e-01 5.01002558e-03 9.98144671e-02
      3.68666321e-01 1.85914319e-02 2.05979757e-02 2.18297746e-02
      4.25970107e-02 3.44282001e-01 2.50941999e-02 8.40811059e-04
      2.80984794e-04 2.28518825e-02 7.68717825e-02 2.48482272e-01
      1.84145063e-01 1.72223032e-01 3.44282001e-01 2.32293531e-02
      4.38130368e-03 7.98532926e-03 3.21446024e-02 1.03405923e-01
      9.05903429e-02 6.26215339e-02 7.35895783e-02 3.44282001e-01
      9.57453176e-02 4.20894852e-04 8.21359232e-02 1.58267677e-01
      1.35795221e-01 3.25701416e-01 2.53477335e-01 3.44282001e-01
      3.44282001e-01 5.31650595e-02 0. 5.60189709e-02 5.36805205e-02</_>
    <_>
      0. 0. 0. 4.54736035e-03 8.89278576e-02 5.98672545e-04
      2.92681099e-04 2.43049508e-04 3.32987140e-04 3.22719187e-01
      2.18924493e-01 2.64536232e-01 3.63880277e-01 4.30178165e-01
      2.86613102e-03 1.17072416e-03 9.72197682e-04 1.77321032e-01 0. 0.
      0. 7.21235713e-03 2.88145244e-01 6.93718437e-03 0. 0. 0.
      1.75958380e-01 1.45949662e-01 2.73628294e-01 1.25106230e-01
      4.30178165e-01 2.77487319e-02 0. 0. 7.11717606e-02 1.43912822e-01
      6.71175346e-02 9.50050950e-02 1.01078995e-01 3.31165284e-01
      2.14695930e-03 1.14258983e-04 9.48834568e-05 7.50782117e-02
      4.87168916e-02 9.25846957e-03 3.30645084e-01 3.26770574e-01
      3.31165284e-01 3.77286114e-02 1.33367134e-02 1.04806535e-02
      5.87848760e-02 7.37072900e-02 8.87679085e-02 1.41627207e-01
      9.55051556e-02 3.31165284e-01 5.02551300e-03 0. 2.06367404e-04
      1.99022554e-02 7.23647177e-02 1.82552278e-01 2.10133642e-01
      3.31165284e-01 3.31165284e-01 1.38395578e-01 5.33468351e-02
      1.44166157e-01 7.80601874e-02 0. 0. 0. 3.63647961e-03
      2.44796365e-01 5.94273256e-03 0. 0. 0. 2.76089143e-02 0.
      2.36015562e-02 1.90657545e-02 4.27697867e-01 9.43426862e-02
      2.90023675e-03 8.72071236e-02 5.66236041e-02 3.08107497e-04 0. 0.
      3.87035380e-03 1.87170938e-01 6.58277248e-04 0. 0. 3.08107497e-04
      1.52088910e-01 5.09489514e-02 5.35144284e-02 5.90386838e-02
      4.27697867e-01 3.81435692e-01 2.70516008e-01 3.48828375e-01
      3.75528693e-01 1.79004818e-02 5.61040454e-02 1.03888616e-01
      1.09808870e-01 2.96339244e-01 4.19498533e-02 1.57239952e-03
      4.00990322e-02 1.64248068e-02 1.01651438e-01 2.11461246e-01
      2.06269875e-01 1.99117616e-01 2.96339244e-01 6.48488998e-02
      1.78041570e-02 1.15309484e-01 9.75573435e-02 1.55755326e-01
      1.48620009e-01 2.61885226e-01 1.29029855e-01 2.96339244e-01
      1.38944402e-01 6.93637133e-02 1.57921255e-01 1.67689621e-01
      1.41212896e-01 2.85498828e-01 2.96339244e-01 2.11388245e-01
      2.96339244e-01 5.35779819e-02 1.57239893e-03 3.48708332e-02
      6.65914267e-02</_>
    <_>
      1.22228213e-01 3.55682671e-02 8.30327813e-03 5.82701676e-02
      3.67793977e-01 1.27577335e-02 4.82181041e-03 3.74524528e-03
      3.86051163e-02 1.82737604e-01 6.23355173e-02 6.02401569e-02
      2.14642465e-01 4.65109497e-01 3.77139896e-02 1.05413897e-02
      1.50301671e-02 5.88869229e-02 8.60899910e-02 8.76875687e-03
      1.14328612e-03 3.74178477e-02 4.65109497e-01 3.99984233e-03
      1.34584529e-03 3.06493894e-04 3.99828106e-02 1.32033706e-01
      6.65837973e-02 1.08864851e-01 2.22187012e-01 4.65109497e-01
      1.32938745e-02 1.48780993e-03 2.57429807e-03 6.13109954e-02
      1.69852339e-02 4.45972867e-02 1.93398416e-01 1.51693657e-01
      4.10895556e-01 3.98923568e-02 4.38866057e-02 1.00096837e-02
      3.01668085e-02 2.26929278e-05 4.06162217e-02 2.08572090e-01
      1.27412483e-01 4.10895556e-01 5.79483137e-02 1.08144395e-01
      2.04683989e-02 5.75029291e-02 7.47369453e-02 1.41110390e-01
      2.25428492e-01 1.53120995e-01 4.10895556e-01 4.34817336e-02
      3.60578261e-02 1.19538587e-02 8.00098777e-02 8.73426870e-02
      1.05640076e-01 1.49102405e-01 6.81831986e-02 4.10895556e-01
      5.67641184e-02 5.32971621e-02 1.40172141e-02 1.08377241e-01
      1.37442974e-02 4.86612931e-04 6.18722173e-04 4.65126149e-03
      4.10746783e-01 1.13487430e-02 1.94573926e-03 6.50233531e-04
      1.97913777e-02 3.68924551e-02 9.73050743e-02 8.48827437e-02
      1.12634815e-01 4.10746783e-01 4.22682613e-02 1.05324213e-03
      2.06586462e-03 3.14382687e-02 4.35045324e-02 1.45290401e-02
      2.57219072e-04 8.00301670e-04 4.10746783e-01 5.56499213e-02
      1.38219679e-03 3.80156375e-02 1.32935345e-01 1.93351597e-01
      2.35327736e-01 1.82222202e-01 2.27038905e-01 4.10746783e-01
      1.48081020e-01 3.45549168e-04 1.35916546e-01 2.11117744e-01
      7.80303627e-02 2.31038123e-01 1.68361768e-01 1.57755092e-01
      3.68152380e-01 2.00278051e-02 5.19826496e-03 7.85911083e-03
      3.33689600e-02 7.85402283e-02 1.41653761e-01 8.23540688e-02
      4.90504056e-02 3.68152380e-01 9.93928779e-03 7.26435659e-03
      7.39874039e-03 3.99221256e-02 1.20415129e-01 2.95192808e-01
      2.33391792e-01 3.21487218e-01 3.68152380e-01 3.89085151e-02 0.
      4.10587676e-02 3.86463329e-02 2.71487851e-02 1.17340900e-01
      8.60786289e-02 1.28526479e-01 3.68152380e-01 4.45946772e-03 0.
      3.21088615e-03 5.41483285e-03</_>
    <_>
      4.88548656e-04 6.62225939e-04 0. 0. 3.53625207e-03 5.81043598e-04
      1.71179883e-03 1.51441665e-04 3.51328286e-04 2.75260150e-01
      8.05876106e-02 1.82144325e-02 1.27227440e-01 6.45244777e-01
      3.24049629e-02 1.20424340e-02 7.99074210e-03 8.70477930e-02
      7.75943394e-04 1.20143825e-03 0. 0. 8.33585486e-03 1.45260885e-04
      9.87818348e-04 2.24959149e-04 5.26992488e-04 1.94280803e-01
      2.08401363e-02 2.45701801e-03 8.15847814e-02 6.45244777e-01
      1.19215846e-02 3.95127153e-03 8.99836305e-04 9.03860033e-02
      1.39848337e-01 4.00695279e-02 1.29687125e-02 1.17003784e-01
      3.77927661e-01 2.24498231e-02 6.60969270e-03 8.76306091e-03
      4.46486734e-02 4.87453565e-02 6.38075843e-02 2.56867409e-01
      2.21379936e-01 3.77927661e-01 4.51974533e-02 3.06614880e-02
      8.99397209e-03 4.34988178e-02 9.81777832e-02 8.68277997e-03
      8.75303708e-03 1.06778875e-01 3.77927661e-01 7.01296749e-03
      9.08671878e-04 4.65911347e-04 4.55762558e-02 9.89786908e-02
      2.09220394e-01 3.38831097e-01 2.35049099e-01 3.77927661e-01
      5.08257039e-02 4.08404283e-02 1.51181752e-02 9.72114280e-02
      1.32656569e-04 3.28112539e-04 0. 0. 5.79531817e-03 0.
      1.76317268e-03 5.89222822e-04 6.46681146e-05 3.82747576e-02
      1.65810098e-03 1.71740679e-03 1.43235419e-02 6.33584976e-01
      3.19839641e-02 7.05268886e-03 2.35689082e-03 5.49961366e-02 0. 0.
      0. 0. 1.13828701e-03 0. 1.25250686e-03 4.18566866e-04 0.
      1.18613943e-01 3.74383070e-02 7.13970978e-04 2.53369287e-03
      6.33584976e-01 1.53670922e-01 5.01002558e-03 9.98144671e-02
      3.68666321e-01 1.85914319e-02 2.05979757e-02 2.18297746e-02
      4.25970107e-02 3.44282001e-01 2.50941999e-02 8.40811059e-04
      2.80984794e-04 2.28518825e-02 7.68717825e-02 2.48482272e-01
      1.84145063e-01 1.72223032e-01 3.44282001e-01 2.32293531e-02
      4.38130368e-03 7.98532926e-03 3.21446024e-02 1.03405923e-01
      9.05903429e-02 6.26215339e-02 7.35895783e-02 3.44282001e-01
      9.57453176e-02 4.20894852e-04 8.21359232e-02 1.58267677e-01
      1.35795221e-01 3.25701416e-01 2.53477335e-01 3.44282001e-01
      3.44282001e-01 5.31650595e-02 0. 5.60189709e-02 5.36805205e-02</_>
    <_>
      0. 0. 0. 1.38629507e-03 2.21176758e-01 3.57630919e-03 0. 0. 0.
      2.00543463e-01 1.01082122e-04 3.69062094e-04 1.17020402e-02
      5.79398394e-01 1.96301434e-02 0. 0. 2.08721772e-01 0. 0. 0.
      2.59740191e-04 4.11278456e-01 2.38420023e-03 0. 0. 0.
      1.03105865e-01 2.52705267e-05 3.41966748e-04 9.73260775e-03
      5.79398394e-01 1.32677993e-02 3.78094090e-04 1.26352403e-04
      9.75354165e-02 7.16063455e-02 1.06485458e-02 2.97011212e-02
      4.97694723e-02 3.60491127e-01 8.77508149e-03 0. 0. 7.12169334e-02
      6.12456799e-02 1.31098226e-01 1.75447062e-01 2.39851296e-01
      3.60491127e-01 1.08502641e-01 1.05142239e-02 3.54811549e-02
      5.47705889e-02 4.80036661e-02 4.41730767e-02 8.60603228e-02
      1.11430474e-01 3.60491127e-01 6.55564200e-03 6.35111646e-04
      2.12243162e-04 3.33213285e-02 9.43824947e-02 3.05659205e-01
      3.15756470e-01 3.17120910e-01 3.60491127e-01 3.93471532e-02
      4.23407735e-04 3.71163748e-02 8.17438960e-02 0. 0. 0.
      7.76886067e-04 3.10348541e-01 1.50288106e-03 0. 0. 0.
      3.27746272e-02 0. 7.22704863e-05 7.84687418e-03 5.75462580e-01
      8.12446419e-03 2.28321544e-04 7.63010466e-05 3.39157730e-02 0. 0.
      0. 2.08276953e-03 3.08545679e-01 1.87752105e-03 0. 0. 0.
      2.45926842e-01 8.95075779e-03 2.79082283e-02 7.46254250e-02
      5.75462580e-01 5.92265502e-02 1.41618356e-01 4.66294494e-03
      2.18097895e-01 1.63900442e-02 6.73791319e-02 1.20196037e-01
      9.96096581e-02 3.37026209e-01 2.62319343e-03 3.52736126e-04
      1.17878211e-04 1.40193794e-02 2.94705350e-02 2.34033465e-01
      2.90006548e-01 2.37085342e-01 3.37026209e-01 1.32511929e-03
      2.35157378e-04 4.22464404e-03 1.43914949e-02 1.60885170e-01
      9.28539038e-02 1.61968231e-01 1.63474247e-01 3.37026209e-01
      1.92293059e-02 9.83075798e-02 3.23688868e-03 1.13895349e-01
      7.67425150e-02 2.00229809e-01 2.86989659e-01 2.73547500e-01
      3.37026209e-01 1.15381787e-02 2.45768949e-02 8.09222111e-04
      4.83107567e-02</_>
    <_>
      2.67413305e-03 3.93323367e-04 1.91613100e-04 0. 8.02433863e-03 0.
      0. 4.33747773e-04 1.96663174e-03 1.44659698e-01 1.68539514e-03
      1.10190432e-03 1.27756251e-02 6.87988043e-01 1.16546713e-02 0.
      1.73499074e-03 1.51230007e-01 7.18205469e-04 1.60127805e-04
      4.79161594e-04 0. 4.45742300e-03 0. 0. 6.50621718e-04
      1.60958210e-03 3.08365598e-02 1.32536201e-03 3.96597851e-03
      1.17311934e-02 6.87988043e-01 5.93741750e-03 0. 2.60248617e-03
      3.35610546e-02 6.13680966e-02 2.75011640e-04 4.68059152e-04
      6.85051596e-03 3.73341560e-01 4.87371953e-03 0. 1.56215217e-04
      6.53054789e-02 4.64317985e-02 2.25145859e-03 2.68537730e-01
      2.86943734e-01 3.73341560e-01 5.44058904e-03 0. 0. 4.74798381e-02
      1.58453211e-02 9.11786221e-03 2.56596245e-02 5.65411560e-02
      3.73341560e-01 6.60976674e-03 0. 2.34322855e-04 1.33556398e-02
      2.32001916e-02 6.23227395e-02 3.42010617e-01 3.73341560e-01
      3.73341560e-01 5.87500110e-02 0. 2.01401208e-02 5.18853217e-02 0.
      3.29889357e-04 9.87150939e-04 0. 2.93456321e-03 0. 1.60603464e-04
      1.42586185e-04 1.21817204e-04 1.51720215e-02 1.81212765e-03
      5.42255817e-03 2.15694029e-03 6.96325660e-01 7.64545007e-03
      6.42413681e-04 5.70344564e-04 5.37496340e-03 2.97964609e-04
      1.49561049e-04 4.47541999e-04 0. 3.52883735e-03 0. 6.42413681e-04
      2.14683940e-04 2.97964609e-04 7.05344528e-02 6.87291322e-04
      2.05662986e-03 1.38291921e-02 6.96325660e-01 1.86390989e-02
      9.55243781e-02 2.44241599e-02 8.77018943e-02 1.47388652e-02
      2.71620490e-02 4.30528559e-02 6.66167364e-02 3.45164120e-01
      7.85477739e-03 5.66448289e-05 5.02901312e-05 2.29336624e-03
      6.38026446e-02 1.92373276e-01 2.08209217e-01 2.86849588e-01
      3.45164120e-01 4.06935699e-02 0. 2.97122393e-02 7.11412430e-02
      3.78625132e-02 5.54874316e-02 1.49211988e-01 1.21378735e-01
      3.45164120e-01 8.37914646e-03 9.05756354e-02 2.29805689e-02
      9.75408554e-02 5.21254949e-02 2.78257668e-01 3.45164120e-01
      2.54776508e-01 3.45164120e-01 4.66450723e-03 6.02327026e-02
      2.26979591e-02 1.00938410e-01</_>
    <_>
      2.67413305e-03 3.93323367e-04 1.91613100e-04 0. 8.02433863e-03 0.
      0. 4.33747773e-04 1.96663174e-03 1.44659698e-01 1.68539514e-03
      1.10190432e-03 1.27756251e-02 6.87988043e-01 1.16546713e-02 0.
      1.73499074e-03 1.51230007e-01 7.18205469e-04 1.60127805e-04
      4.79161594e-04 0. 4.45742300e-03 0. 0. 6.50621718e-04
      1.60958210e-03 3.08365598e-02 1.32536201e-03 3.96597851e-03
      1.17311934e-02 6.87988043e-01 5.93741750e-03 0. 2.60248617e-03
      3.35610546e-02 6.13680966e-02 2.75011640e-04 4.68059152e-04
      6.85051596e-03 3.73341560e-01 4.87371953e-03 0. 1.56215217e-04
      6.53054789e-02 4.64317985e-02 2.25145859e-03 2.68537730e-01
      2.86943734e-01 3.73341560e-01 5.44058904e-03 0. 0. 4.74798381e-02
      1.58453211e-02 9.11786221e-03 2.56596245e-02 5.65411560e-02
      3.73341560e-01 6.60976674e-03 0. 2.34322855e-04 1.33556398e-02
      2.32001916e-02 6.23227395e-02 3.42010617e-01 3.73341560e-01
      3.73341560e-01 5.87500110e-02 0. 2.01401208e-02 5.18853217e-02 0.
      3.29889357e-04 9.87150939e-04 0. 2.93456321e-03 0. 1.60603464e-04
      1.42586185e-04 1.21817204e-04 1.51720215e-02 1.81212765e-03
      5.42255817e-03 2.15694029e-03 6.96325660e-01 7.64545007e-03
      6.42413681e-04 5.70344564e-04 5.37496340e-03 2.97964609e-04
      1.49561049e-04 4.47541999e-04 0. 3.52883735e-03 0. 6.42413681e-04
      2.14683940e-04 2.97964609e-04 7.05344528e-02 6.87291322e-04
      2.05662986e-03 1.38291921e-02 6.96325660e-01 1.86390989e-02
      9.55243781e-02 2.44241599e-02 8.77018943e-02 1.47388652e-02
      2.71620490e-02 4.30528559e-02 6.66167364e-02 3.45164120e-01
      7.85477739e-03 5.66448289e-05 5.02901312e-05 2.29336624e-03
      6.38026446e-02 1.92373276e-01 2.08209217e-01 2.86849588e-01
      3.45164120e-01 4.06935699e-02 0. 2.97122393e-02 7.11412430e-02
      3.78625132e-02 5.54874316e-02 1.49211988e-01 1.21378735e-01
      3.45164120e-01 8.37914646e-03 9.05756354e-02 2.29805689e-02
      9.75408554e-02 5.21254949e-02 2.78257668e-01 3.45164120e-01
      2.54776508e-01 3.45164120e-01 4.66450723e-03 6.02327026e-02
      2.26979591e-02 1.00938410e-01</_>
    <_>
      2.67413305e-03 3.93323367e-04 1.91613100e-04 0. 8.02433863e-03 0.
      0. 4.33747773e-04 1.96663174e-03 1.44659698e-01 1.68539514e-03
      1.10190432e-03 1.27756251e-02 6.87988043e-01 1.16546713e-02 0.
      1.73499074e-03 1.51230007e-01 7.18205469e-04 1.60127805e-04
      4.79161594e-04 0. 4.45742300e-03 0. 0. 6.50621718e-04
      1.60958210e-03 3.08365598e-02 1.32536201e-03 3.96597851e-03
      1.17311934e-02 6.87988043e-01 5.93741750e-03 0. 2.60248617e-03
      3.35610546e-02 6.13680966e-02 2.75011640e-04 4.68059152e-04
      6.85051596e-03 3.73341560e-01 4.87371953e-03 0. 1.56215217e-04
      6.53054789e-02 4.64317985e-02 2.25145859e-03 2.68537730e-01
      2.86943734e-01 3.73341560e-01 5.44058904e-03 0. 0. 4.74798381e-02
      1.58453211e-02 9.11786221e-03 2.56596245e-02 5.65411560e-02
      3.73341560e-01 6.60976674e-03 0. 2.34322855e-04 1.33556398e-02
      2.32001916e-02 6.23227395e-02 3.42010617e-01 3.73341560e-01
      3.73341560e-01 5.87500110e-02 0. 2.01401208e-02 5.18853217e-02 0.
      3.29889357e-04 9.87150939e-04 0. 2.93456321e-03 0. 1.60603464e-04
      1.42586185e-04 1.21817204e-04 1.51720215e-02 1.81212765e-03
      5.42255817e-03 2.15694029e-03 6.96325660e-01 7.64545007e-03
      6.42413681e-04 5.70344564e-04 5.37496340e-03 2.97964609e-04
      1.49561049e-04 4.47541999e-04 0. 3.52883735e-03 0. 6.42413681e-04
      2.14683940e-04 2.97964609e-04 7.05344528e-02 6.87291322e-04
      2.05662986e-03 1.38291921e-02 6.96325660e-01 1.86390989e-02
      9.55243781e-02 2.44241599e-02 8.77018943e-02 1.47388652e-02
      2.71620490e-02 4.30528559e-02 6.66167364e-02 3.45164120e-01
      7.85477739e-03 5.66448289e-05 5.02901312e-05 2.29336624e-03
      6.38026446e-02 1.92373276e-01 2.08209217e-01 2.86849588e-01
      3.45164120e-01 4.06935699e-02 0. 2.97122393e-02 7.11412430e-02
      3.78625132e-02 5.54874316e-02 1.49211988e-01 1.21378735e-01
      3.45164120e-01 8.37914646e-03 9.05756354e-02 2.29805689e-02
      9.75408554e-02 5.21254949e-02 2.78257668e-01 3.45164120e-01
      2.54776508e-01 3.45164120e-01 4.66450723e-03 6.02327026e-02
      2.26979591e-02 1.00938410e-01</_>
    <_>
      2.59557683e-02 0. 0. 0. 3.96786451e-01 0. 0. 0. 2.38251425e-02
      1.04346156e-01 3.02663801e-04 0. 4.45254473e-03 5.20354390e-01
      3.14324256e-03 3.11476266e-04 8.57749605e-04 9.59170982e-02
      6.01236802e-03 2.51219841e-04 0. 0. 5.20354390e-01 0. 0. 0.
      5.67044830e-03 2.43207254e-02 9.33554024e-03 3.53593901e-02
      3.38025503e-02 5.20354390e-01 4.91799228e-03 1.03266002e-03
      8.47537245e-04 2.30571572e-02 4.34551463e-02 4.21192944e-02
      1.17646903e-01 1.09464221e-01 3.61973256e-01 3.42089660e-03
      3.38640850e-04 9.32555995e-04 2.55907867e-02 8.06725994e-02
      1.44998789e-01 2.06719100e-01 1.62924409e-01 3.61973256e-01
      6.57861978e-02 8.46602125e-05 2.33138999e-04 1.63170900e-02
      1.44779216e-02 1.06941812e-01 2.67780095e-01 1.47086322e-01
      3.61973256e-01 3.67388176e-03 1.12272066e-03 9.21453058e-04
      1.91990789e-02 1.37241548e-02 2.42398575e-01 3.61973256e-01
      2.11917594e-01 3.61973256e-01 5.63710649e-03 2.80680164e-04
      2.30363235e-04 2.11147219e-02 2.01441953e-03 3.35189223e-04 0. 0.
      4.30079013e-01 0. 0. 0. 1.94496464e-03 8.13074689e-03
      3.17860655e-02 5.97686172e-02 4.34766822e-02 4.88175124e-01
      3.81219876e-03 3.95545067e-04 4.43686818e-04 8.72645248e-03
      8.76902789e-03 8.37972839e-05 0. 0. 4.88175124e-01 2.78136483e-03
      0. 0. 8.75166524e-03 9.32596847e-02 5.52319102e-02 9.80408490e-02
      1.36024296e-01 4.88175124e-01 6.69185221e-02 1.44359693e-01
      2.57895943e-02 1.50223106e-01 1.56052839e-02 1.39371768e-01
      2.70662636e-01 1.23751700e-01 3.37960213e-01 2.96582258e-03
      4.88837424e-04 1.02013315e-03 2.53826212e-02 2.05636732e-02
      1.54189378e-01 3.01443070e-01 1.42465308e-01 3.37960213e-01
      7.48330588e-03 1.22209341e-04 6.12021482e-04 3.33315022e-02
      1.03725776e-01 1.76563993e-01 2.64451146e-01 2.53745645e-01
      3.37960213e-01 3.52994502e-02 8.01638886e-02 1.70562994e-02
      9.33878049e-02 4.35428470e-02 1.38894886e-01 2.19362482e-01
      1.77880153e-01 3.37960213e-01 9.78501420e-03 0. 2.28472403e-03
      1.84680652e-02</_>
    <_>
      1.02040313e-01 1.34782130e-02 5.88294491e-03 1.29194856e-01
      3.65202129e-01 3.53824161e-03 2.23759632e-03 2.34737946e-03
      5.84141985e-02 4.02142912e-01 5.18712327e-02 1.17855929e-02
      2.10917056e-01 4.02142912e-01 8.32873303e-03 1.78893609e-03
      1.42834277e-03 2.27091834e-01 4.93882447e-02 1.92986000e-02
      8.82441737e-03 9.64219868e-02 3.28828961e-01 1.07983081e-02
      3.04670096e-03 2.02074228e-03 1.34855350e-02 1.93075478e-01
      1.43934369e-01 8.66694376e-02 2.42982998e-01 4.02142912e-01
      1.39011526e-02 1.83607615e-03 8.64231552e-04 4.86360341e-02
      6.05170652e-02 6.92327321e-03 1.10064894e-01 2.06203252e-01
      4.02532667e-01 1.95290055e-02 5.65125374e-04 4.75781504e-04
      5.09189628e-02 2.51206122e-02 0. 1.60637841e-01 2.67225504e-01
      4.02532667e-01 2.61909589e-02 1.41281314e-04 1.18945361e-04
      8.08493793e-02 2.86790393e-02 1.09356329e-01 1.50237560e-01
      2.20924959e-01 4.02532667e-01 6.93694651e-02 5.72490357e-02
      1.86609048e-02 4.18746658e-02 3.99812777e-03 6.59809411e-02
      1.33409098e-01 2.09213078e-01 4.02532667e-01 1.01811633e-01
      8.50581005e-02 2.77188476e-02 5.29497415e-02 2.73242407e-03
      2.81264330e-03 1.84220844e-03 1.70851350e-02 2.63899326e-01
      3.24167237e-02 1.68922581e-02 1.16802065e-03 1.64194703e-02
      1.25873508e-02 1.00376539e-01 1.07508220e-01 1.84730396e-01
      3.24659348e-01 4.63282689e-02 5.07791229e-02 3.22519056e-03
      6.23160265e-02 2.54344158e-02 3.29043512e-04 9.84619954e-04
      2.22246014e-02 3.24659348e-01 1.62720144e-01 3.33216526e-02
      3.12115834e-03 1.01856820e-01 3.24659348e-01 1.99043259e-01
      2.91754663e-01 2.84959108e-01 3.24659348e-01 2.83304363e-01
      9.04216468e-02 1.21859619e-02 3.24659348e-01 2.32167859e-02
      1.59973919e-01 1.43069208e-01 1.61058798e-01 3.68783802e-01
      3.02789491e-02 5.44422790e-02 1.81346368e-02 9.13081542e-02
      2.54047588e-02 1.03343725e-01 7.82105029e-02 6.89219013e-02
      3.68783802e-01 3.96123752e-02 6.97744638e-02 2.63605528e-02
      1.21563375e-01 1.68550760e-01 2.37453043e-01 3.32479358e-01
      2.17202365e-01 3.68783802e-01 5.58904223e-02 1.27674695e-02
      3.11619206e-03 1.69491127e-01 4.97420728e-02 1.15250267e-01
      1.53330848e-01 8.02884251e-02 3.68783802e-01 1.19895581e-02 0.
      1.64483511e-03 5.21963537e-02</_>
    <_>
      4.94239368e-02 1.91498213e-02 4.44442108e-02 1.76414941e-03
      2.25251406e-01 6.64117280e-04 0. 0. 1.01935966e-02 2.81992555e-01
      1.68588817e-01 2.58651972e-01 1.45907015e-01 4.50696081e-01
      7.08871102e-03 0. 0. 1.39833272e-01 4.16691750e-02 1.28703853e-02
      1.14606181e-02 3.65166896e-04 4.50696081e-01 0. 3.66639200e-04
      1.22524696e-04 1.55156124e-02 1.74691379e-01 1.12569712e-01
      1.02442078e-01 2.31086388e-01 4.50696081e-01 6.00488065e-03
      1.58961432e-03 4.90098668e-04 7.31708929e-02 5.66714033e-02
      4.20548283e-02 1.53622657e-01 1.39203012e-01 3.80034328e-01
      1.49225686e-02 7.23388605e-03 1.49033102e-03 3.83511111e-02
      1.39982030e-02 6.63280836e-04 3.22282851e-01 2.07920894e-01
      3.80034328e-01 4.85331044e-02 3.48793603e-02 6.48335963e-02
      3.83341946e-02 4.14275862e-02 7.47085214e-02 1.61509782e-01
      1.99001282e-01 3.80034328e-01 1.76386666e-02 2.92400196e-02
      1.81249753e-02 5.22794612e-02 3.33471671e-02 7.07335845e-02
      2.21469238e-01 1.94403291e-01 3.80034328e-01 6.67565838e-02
      1.15764461e-01 7.26863667e-02 1.37638450e-01 5.56174014e-03
      3.00755364e-05 8.99971274e-05 0. 4.12728518e-01 0. 1.96944384e-04
      6.58155259e-05 1.57496985e-02 2.25703400e-02 2.49968618e-02
      3.42008881e-02 7.25712702e-02 4.12728518e-01 7.06298202e-02
      3.20396535e-02 2.63262016e-04 6.33221567e-02 9.22234077e-03 0. 0.
      0. 3.56148601e-01 1.58521030e-02 3.69247748e-03 5.33991940e-02
      4.77872342e-02 1.02512851e-01 1.47905722e-01 2.13605091e-01
      3.08710076e-02 4.12728518e-01 2.33211562e-01 1.38686031e-01
      2.39380389e-01 3.53201956e-01 3.20340246e-02 1.14464335e-01
      1.52251258e-01 1.26208514e-01 3.39455873e-01 3.43513377e-02
      2.30430625e-02 1.05393268e-02 5.68653084e-02 6.07603267e-02
      1.27876669e-01 1.68569252e-01 9.26005617e-02 3.39455873e-01
      1.38739841e-02 3.70077118e-02 4.27021980e-02 1.33868128e-01
      8.08930025e-02 2.32742950e-01 3.39455873e-01 1.78360298e-01
      3.39455873e-01 9.11012441e-02 5.64477481e-02 5.25378771e-02
      1.17295206e-01 3.77732478e-02 1.64456710e-01 2.94589669e-01
      2.17952356e-01 3.39455873e-01 8.85472540e-03 5.24011812e-05
      1.87268815e-04 2.13509928e-02</_>
    <_>
      1.35074884e-01 2.39898101e-03 7.78254529e-04 2.64718104e-02
      3.88746917e-01 2.57973745e-03 1.26616075e-03 4.40156972e-03
      3.82335708e-02 2.64558643e-01 3.76197090e-03 5.52745943e-04
      9.43967476e-02 4.83653754e-01 5.87512739e-03 4.60470933e-03
      1.70707311e-02 1.18267544e-01 3.71106640e-02 4.31340683e-04
      1.29073078e-03 1.56394895e-02 4.83653754e-01 3.43698869e-03
      2.75959377e-04 1.30868366e-03 1.98525060e-02 1.19063720e-01
      1.07835149e-04 3.22682608e-04 6.50652573e-02 4.83653754e-01
      9.08155181e-03 4.13939124e-04 1.96302566e-03 8.97894353e-02
      1.35287955e-01 1.14792958e-03 3.03397392e-04 2.96579953e-02
      4.54063267e-01 8.54426250e-02 1.72326621e-02 6.95123672e-02
      1.37740120e-01 8.19366202e-02 5.25777810e-04 3.24476205e-05
      2.17442214e-03 4.54063267e-01 1.56953231e-01 3.92523706e-02
      1.56786963e-01 1.47872895e-01 1.06829397e-01 3.82033089e-04 0.
      2.59806458e-02 4.54063267e-01 5.26618809e-02 6.79828646e-03
      1.66568384e-02 1.04213066e-01 5.47632910e-02 1.52813212e-03 0.
      5.36919432e-03 4.54063267e-01 7.14900196e-02 1.06458450e-02
      4.02003713e-02 7.01960623e-02 1.92148238e-02 8.47563933e-05
      2.53622507e-04 1.88969611e-03 3.70705605e-01 1.21792685e-02
      3.23502936e-05 8.07406614e-04 4.29113284e-02 4.16976810e-02
      6.68307114e-03 5.86574823e-02 8.75237286e-02 3.70705605e-01
      5.29220104e-02 2.57569365e-03 1.21111004e-03 8.51826146e-02
      3.45557220e-02 3.86147872e-02 2.02552639e-02 1.44325215e-02
      3.70705605e-01 8.29776749e-02 2.45457701e-02 2.54661980e-04
      1.28702760e-01 7.49334693e-02 2.95595884e-01 3.67529988e-01
      2.21278548e-01 3.70705605e-01 2.00501651e-01 6.03825301e-02
      2.46119627e-04 2.70288229e-01 1.92446318e-02 6.96711708e-03
      5.90420142e-02 1.06366813e-01 3.67134362e-01 2.81534884e-02
      3.63779883e-03 4.10963868e-04 2.33305693e-02 4.13579727e-03
      1.12072658e-02 4.16750386e-02 7.94626921e-02 3.67134362e-01
      7.05113076e-03 1.33956270e-03 1.03231973e-03 3.10188718e-03
      3.55728418e-02 2.13992998e-01 3.34377825e-01 2.86480516e-01
      3.67134362e-01 1.05135761e-01 6.30227849e-02 2.74410378e-02
      1.04369976e-01 1.24914926e-02 2.13532478e-01 2.59063780e-01
      2.15422496e-01 3.67134362e-01 3.44292819e-02 3.44571508e-02
      4.12772037e-02 3.73773277e-02</_>
    <_>
      8.81247073e-02 1.11928619e-02 2.21788883e-02 1.15223728e-01
      2.07043901e-01 4.12949920e-03 1.81640254e-03 2.99479393e-03
      3.31437998e-02 4.56002921e-01 4.40704450e-02 3.28805670e-02
      1.71294704e-01 4.56002921e-01 1.43375043e-02 1.15552405e-03
      1.48110790e-03 2.53928691e-01 2.75297090e-02 7.72420270e-03
      1.55708073e-02 4.36164886e-02 3.57500643e-01 1.06537854e-02
      3.07288906e-03 2.61876336e-03 8.49646516e-04 2.32320607e-01
      3.09175216e-02 2.22437344e-02 5.84104024e-02 4.56002921e-01
      3.16583291e-02 7.68222089e-04 7.77143869e-04 1.34841546e-01
      1.50154233e-01 6.25710515e-03 2.19784793e-03 1.50693879e-02
      4.79955673e-01 5.61653310e-03 2.90789205e-04 1.04158430e-03
      1.23378448e-01 7.82752410e-02 0. 0. 4.14500572e-03 4.79955673e-01
      2.63705081e-03 6.65595071e-05 8.83327273e-04 8.52800682e-02
      1.04196332e-01 5.24335634e-03 1.67460821e-03 8.20039585e-03
      4.79955673e-01 8.81576538e-03 1.82233722e-04 4.85253695e-04
      9.61075723e-02 2.95436867e-02 2.76185048e-04 7.68723039e-05
      5.01872832e-03 4.79955673e-01 2.11869832e-03 7.28934654e-04
      1.30412984e-03 3.32517475e-02 4.68865735e-03 2.61520909e-04
      7.82567309e-04 4.43936605e-03 2.13934228e-01 3.11341807e-02
      1.34100206e-02 7.69280735e-03 2.60851029e-02 3.34745198e-02
      3.35431658e-02 6.85228093e-04 5.33014350e-03 3.83023947e-01
      6.80188090e-02 1.85850728e-02 3.39309946e-02 1.25440806e-01
      1.89725962e-02 2.52096768e-04 3.07642831e-03 3.46846730e-02
      3.83023947e-01 1.25577644e-01 1.87686682e-02 1.26846433e-02
      6.53622150e-02 1.88564122e-01 2.23511070e-01 5.86831532e-02
      1.39240608e-01 3.83023947e-01 3.63696247e-01 1.22963361e-01
      2.44220957e-01 3.83023947e-01 1.44063095e-02 1.37943467e-02
      5.28903794e-04 3.48944706e-03 4.38879937e-01 4.42885719e-02
      1.58533000e-03 9.47898719e-03 3.80841754e-02 4.71960707e-03
      3.22034146e-04 4.88331309e-04 3.02694645e-03 4.38879937e-01
      2.60523744e-02 4.62226802e-04 1.46039121e-03 6.00280054e-03
      2.03106418e-01 1.46543294e-01 4.93405424e-02 9.52330902e-02
      4.38879937e-01 1.96004942e-01 6.34736717e-02 9.66675058e-02
      1.42052993e-01 2.17709079e-01 5.86570054e-02 1.73565000e-02
      1.04783610e-01 4.38879937e-01 9.78113338e-02 1.94344632e-02
      4.16017277e-03 4.69887890e-02</_>
    <_>
      4.52229381e-02 0. 0. 0. 3.85502428e-01 0. 0. 0. 4.29242216e-02
      1.95814833e-01 3.56382714e-03 1.32544804e-02 6.48415321e-03
      5.05632579e-01 7.46590458e-03 6.22459128e-03 2.52809678e-03
      1.83030680e-01 6.37832191e-03 0. 0. 0. 5.05632579e-01 0. 0. 0.
      6.06563454e-03 3.44462059e-02 5.34574082e-03 1.98817216e-02
      1.81069411e-02 5.05632579e-01 1.54831577e-02 8.03433545e-03
      3.70430877e-03 3.08026001e-02 1.31374359e-01 6.76056091e-03
      2.51436792e-02 9.54202749e-03 4.18804020e-01 1.36945331e-02
      2.62792241e-02 2.24436168e-02 1.88243270e-01 1.41475976e-01
      1.69014023e-03 6.28591888e-03 1.09450137e-02 4.18804020e-01
      1.98863015e-01 5.56076653e-02 5.41970618e-02 3.63377422e-01
      3.19730379e-02 1.01408428e-02 3.77155207e-02 3.08786239e-02
      4.18804020e-01 3.45415920e-02 3.39196660e-02 2.34859269e-02
      6.20638803e-02 2.43377723e-02 2.53521046e-03 9.42887831e-03
      3.52349654e-02 4.18804020e-01 8.67845416e-02 4.80052345e-02
      4.18137163e-02 1.33510098e-01 3.42038460e-03 0. 0. 0.
      4.08582926e-01 0. 0. 0. 3.42038460e-03 4.43111770e-02
      2.32496243e-02 2.87766848e-02 8.56080744e-03 4.08582926e-01
      5.30698849e-03 1.05907060e-02 2.04623602e-02 5.07168472e-02
      8.31783284e-03 0. 0. 0. 4.08582926e-01 1.65049061e-02
      6.33214936e-02 0. 8.31783284e-03 3.39998245e-01 5.67983389e-02
      1.10849813e-01 5.10196155e-03 4.08582926e-01 1.62124380e-01
      2.91851670e-01 6.60608113e-02 2.64978230e-01 8.10391754e-02
      4.33912091e-02 4.51460369e-02 1.05076218e-02 3.09702456e-01
      1.24280462e-02 3.67130265e-02 4.87368442e-02 6.61329105e-02
      1.27872705e-01 3.74926813e-02 1.16903586e-02 3.18217836e-02
      3.09702456e-01 1.79778375e-02 2.44753435e-02 2.87478417e-02
      3.05320136e-02 3.09702456e-01 1.09993175e-01 1.89249039e-01
      2.21849978e-02 3.09702456e-01 2.33483732e-01 2.13342056e-01
      1.40215635e-01 3.04320186e-01 3.09702456e-01 1.07805826e-01
      7.77253136e-02 2.39054158e-01 3.09702456e-01 1.04404129e-01
      8.91263559e-02 7.85035491e-02 1.43008277e-01</_>
    <_>
      5.55768420e-05 0. 0. 2.77452287e-03 2.05296338e-01 1.52821024e-03
      0. 0. 5.55768420e-05 2.55548775e-01 1.53409201e-03 2.32973485e-04
      1.68215893e-02 5.77415228e-01 9.60780960e-03 7.37429873e-05
      4.34247369e-04 2.44091257e-01 0. 0. 0. 4.16178908e-03
      3.89810413e-01 2.84392200e-03 0. 0. 0. 6.27672523e-02
      4.82796552e-03 0. 2.22868510e-02 5.77415228e-01 1.50478818e-02 0.
      6.07331865e-04 5.77352084e-02 1.50553942e-01 9.07982874e-04
      8.50999379e-04 8.47319793e-03 4.48930949e-01 5.70385111e-03
      1.56409078e-04 4.13850037e-04 1.46427035e-01 1.08350441e-01
      5.05469216e-04 1.51255412e-03 2.25266092e-03 4.48930949e-01
      4.23591547e-02 1.47848830e-01 6.86013177e-02 2.63720810e-01
      6.81008920e-02 2.06744671e-03 0. 1.11084031e-02 4.48930949e-01
      8.71289708e-03 0. 2.60073546e-04 6.88750222e-02 7.32468963e-02 0.
      0. 5.41342609e-03 4.48930949e-01 1.22440103e-02 6.68746457e-02
      4.51893769e-02 1.17672041e-01 0. 0. 0. 6.63296960e-04
      3.09844971e-01 2.21241452e-03 0. 0. 0. 6.41624257e-02
      2.86190528e-02 3.49444225e-02 7.11809006e-03 5.11830270e-01
      1.14235897e-02 0. 2.00515427e-03 7.85745829e-02 0. 0. 0.
      5.54255093e-04 2.68121183e-01 2.06694836e-04 0. 0. 0.
      2.66330093e-01 2.37738281e-01 1.23169377e-01 4.36861664e-02
      5.11830270e-01 2.43910491e-01 1.84074745e-01 1.33676932e-03
      2.29401350e-01 3.66534293e-02 4.63212654e-02 5.99995330e-02
      5.06243389e-03 3.42020839e-01 6.33974653e-03 1.88727770e-02
      1.71405682e-03 5.03896996e-02 2.07343847e-02 1.13742746e-01
      8.42770860e-02 1.82058718e-02 3.42020839e-01 8.98240507e-03
      2.83091683e-02 1.75175397e-03 2.54914742e-02 2.02940747e-01
      2.61609733e-01 2.05735192e-01 7.04662055e-02 3.42020839e-01
      8.78287852e-02 1.39301717e-01 1.96316335e-02 1.42134786e-01
      1.36633039e-01 3.42020839e-01 3.04568022e-01 1.87015057e-01
      3.42020839e-01 2.92802528e-02 1.27809927e-01 6.64833486e-02
      8.16129819e-02</_>
    <_>
      0. 0. 1.33570997e-04 2.73216399e-04 2.72250652e-01 2.65831873e-03
      0. 0. 0. 3.59535307e-01 0. 8.16007028e-04 7.14265229e-03
      5.03323317e-01 1.50146717e-02 0. 0. 3.72974336e-01 0. 0. 0.
      3.52565199e-03 3.33460748e-01 1.59600121e-03 0. 0. 0.
      1.27435640e-01 0. 0. 1.77516211e-02 5.03323317e-01 9.34859645e-03
      0. 0. 1.32931277e-01 1.49672031e-01 0. 2.01068542e-04
      4.26265458e-03 4.70632792e-01 4.34207823e-03 0. 0. 1.55752093e-01
      1.28407970e-01 7.27803708e-05 2.54134997e-04 3.15232784e-03
      4.70632792e-01 3.35154706e-03 0. 0. 1.29893854e-01 9.96490493e-02
      0. 0. 5.97327901e-03 4.70632792e-01 3.82044073e-03 0. 0.
      9.97239947e-02 6.74197301e-02 2.91121396e-04 8.71142838e-04
      5.07764751e-03 4.70632792e-01 3.45148193e-03 1.96787427e-04
      6.57630662e-05 6.87721521e-02 0. 0. 0. 2.94292555e-03
      2.05870733e-01 2.41680653e-03 0. 0. 0. 1.11542225e-01
      2.47013662e-03 0. 1.17716985e-02 4.71383870e-01 1.24160629e-02
      8.95393547e-03 0. 8.09999332e-02 0. 0. 0. 5.18502085e-04
      3.66316825e-01 2.80130212e-03 0. 0. 0. 3.44398201e-01
      4.63269651e-02 1.61174731e-03 7.17242435e-03 4.71383870e-01
      2.39657372e-01 2.04468638e-01 1.62995860e-01 3.29074740e-01
      5.16057834e-02 1.52642233e-03 0. 3.06992559e-03 3.74352723e-01
      6.82707280e-02 3.00290231e-02 0. 3.15563902e-02 2.20591184e-02
      4.61606018e-04 2.39391127e-04 5.47695952e-03 3.74352723e-01
      9.79021117e-02 3.53778787e-02 1.99208240e-04 1.84841678e-02
      2.21595839e-01 7.20619708e-02 1.82179678e-02 1.41838435e-02
      3.74352723e-01 2.66448915e-01 2.02835038e-01 1.00723378e-01
      1.84277132e-01 2.47300357e-01 1.05067544e-01 6.54832050e-02
      5.23219034e-02 3.74352723e-01 2.84873217e-01 1.64674371e-01
      2.53136475e-02 1.24768652e-01</_>
    <_>
      2.30280589e-03 3.56984790e-04 1.06823049e-03 0. 2.03592218e-02 0.
      2.43502809e-03 4.54311958e-03 2.30280589e-03 3.94660473e-01
      5.01155853e-02 1.07108742e-01 4.90794331e-01 4.90794331e-01
      2.66063716e-02 1.09712807e-02 1.85839068e-02 1.50514305e-01
      7.42737961e-04 6.47656794e-04 1.93802873e-03 0. 1.93712637e-02 0.
      4.79940930e-03 4.09013079e-03 7.42737961e-04 1.23106651e-01
      3.50490548e-02 7.63093159e-02 2.26591364e-01 4.90794331e-01
      6.17315322e-02 1.91976335e-02 1.63605195e-02 4.63215774e-03
      1.92356542e-01 1.99548472e-02 1.91521458e-02 9.96001288e-02
      3.54080886e-01 6.00510417e-03 6.94443705e-04 7.47500046e-04
      9.37881097e-02 2.63763160e-01 1.33112706e-02 4.94265230e-03
      3.08088083e-02 4.60157692e-01 8.36239569e-03 4.90999024e-04
      1.66038016e-03 2.02039853e-01 8.45644102e-02 1.37800919e-02
      1.29714133e-02 3.44877280e-02 4.60157692e-01 1.38360066e-02
      7.10044580e-04 6.05110952e-04 3.88987623e-02 1.77336469e-01
      1.06256856e-02 3.64175369e-03 1.48725798e-02 4.60157692e-01
      1.42634939e-02 0. 3.21664062e-04 1.55748799e-01 2.56839907e-04
      4.26061335e-04 1.27493311e-03 0. 1.10806134e-02 0. 1.99404522e-03
      6.66376611e-04 2.56839907e-04 2.20147017e-02 1.70424499e-03
      5.09973057e-03 2.73766387e-02 5.18223941e-01 1.64204180e-01
      6.87891170e-02 3.64035182e-02 1.21121705e-01 7.13532674e-04
      4.10707871e-04 1.22898980e-03 0. 1.23669542e-02 0. 7.97618064e-04
      2.86566373e-03 1.25209684e-03 8.95629823e-02 1.64283102e-03
      1.56716052e-02 1.60657287e-01 5.18223941e-01 5.18223941e-01
      9.44098905e-02 6.20696731e-02 3.05059850e-01 1.42578026e-02
      1.23091061e-02 3.54312593e-04 3.14250914e-03 3.86463583e-01
      3.03526428e-02 1.21042728e-02 1.61466114e-02 5.87190054e-02
      2.14960594e-02 1.90589316e-02 6.18652441e-04 4.85209469e-03
      3.86463583e-01 6.67742342e-02 2.94800289e-03 1.56373233e-02
      6.25864044e-02 6.63502067e-02 7.62996823e-02 2.03785785e-02
      6.93310648e-02 3.86463583e-01 1.60231650e-01 4.74118106e-02
      9.47632715e-02 1.85223728e-01 2.66907662e-01 1.94658101e-01
      6.95546493e-02 1.23460844e-01 3.86463583e-01 2.97587603e-01
      9.16817114e-02 1.38099834e-01 2.28472680e-01</_>
    <_>
      1.20956311e-03 1.07916945e-03 2.20330025e-04 0. 9.80667770e-03 0.
      0. 0. 1.00120483e-03 2.17410445e-01 4.31667641e-03 8.81319807e-04
      1.34085016e-02 6.70286715e-01 1.46994479e-02 8.66588671e-04
      2.89599440e-04 2.10620463e-01 1.64221122e-03 2.51384656e-04 0. 0.
      7.60172727e-03 0. 0. 0. 1.59012154e-03 3.50673087e-02
      1.27741694e-03 8.13560793e-04 1.02584474e-02 6.70286715e-01
      2.00626403e-02 3.48535221e-04 1.16474344e-04 2.81549376e-02
      1.79440543e-01 5.28497447e-04 1.07901382e-04 4.92151175e-03
      4.56442982e-01 5.12228301e-03 7.50314386e-04 2.50742480e-04
      1.74855113e-01 1.89303711e-01 0. 0. 3.42926756e-03 4.56442982e-01
      4.68793232e-03 1.15198013e-03 3.84972198e-04 1.82817787e-01
      7.05831200e-02 2.87978793e-04 4.93349391e-04 5.45792235e-03
      4.56442982e-01 1.07383756e-02 2.11354374e-04 7.06309220e-05
      6.30070791e-02 1.04676388e-01 4.12172740e-05 1.23337319e-04
      8.35928973e-03 4.56442982e-01 1.21725090e-02 6.80008437e-04
      2.27247408e-04 9.84322950e-02 4.73042281e-04 0. 0. 0.
      1.70557643e-03 0. 0. 0. 4.73042281e-04 1.69022139e-02
      3.75334406e-04 1.12313929e-03 1.35943778e-02 6.41114593e-01
      3.16937896e-03 1.07084308e-03 1.34717510e-03 4.08371352e-02 0. 0.
      0. 0. 2.10478436e-03 0. 0. 0. 0. 3.71792838e-02 9.38335870e-05
      2.80784792e-04 6.16320688e-03 6.41114593e-01 1.76553890e-01
      2.73242801e-01 6.31186143e-02 2.41134733e-01 2.48328596e-02
      1.99005401e-04 3.95497866e-03 2.30345931e-02 3.16313803e-01
      2.51716212e-03 2.64941528e-02 1.65413041e-02 4.82569039e-02
      4.62494530e-02 4.97513429e-05 5.18809631e-03 3.23715694e-02
      3.16313803e-01 3.08794109e-03 1.04000285e-01 6.16134405e-02
      6.06078506e-02 8.48027393e-02 4.97513429e-05 1.35867950e-02
      6.85369670e-02 3.16313803e-01 1.31467104e-01 2.48615324e-01
      1.69095680e-01 2.75170118e-01 2.05933169e-01 1.03681177e-01
      2.28503980e-02 1.01480387e-01 3.16313803e-01 1.86081141e-01
      3.16313803e-01 2.76490331e-01 3.16313803e-01</_>
    <_>
      4.21349978e-04 2.25642871e-04 6.75206946e-04 0. 2.46686768e-03 0.
      0. 0. 4.21349978e-04 3.59294683e-01 6.58682128e-03 2.70082662e-03
      7.00387508e-02 6.45951271e-01 8.88614450e-03 3.15832580e-03
      1.08981393e-02 1.02003768e-01 1.23149453e-04 3.74227442e-04
      1.11982680e-03 0. 4.91915504e-03 0. 0. 0. 1.23149453e-04
      9.87390429e-02 1.49690919e-03 4.47930628e-03 4.04006131e-02
      6.45951271e-01 1.17808767e-02 7.33377528e-04 3.47790006e-03
      5.28745279e-02 1.94977626e-01 2.97702290e-03 4.22108569e-04
      6.18654229e-02 4.58941698e-01 3.62557033e-03 3.03692883e-03
      1.11262668e-02 7.28832856e-02 1.77472681e-01 1.38919579e-03
      3.39105289e-04 4.25532237e-02 4.58941698e-01 6.38512224e-02
      1.04633300e-02 4.27053683e-02 1.53995261e-01 7.25028068e-02
      1.42745295e-04 4.27146733e-04 4.09441814e-02 4.58941698e-01
      5.51491464e-03 3.46389832e-04 1.64268631e-03 4.94520664e-02
      1.25985056e-01 0. 0. 3.45191807e-02 4.58941698e-01 4.75001894e-02
      5.77654922e-03 9.26064420e-03 1.17087938e-01 4.68720304e-04
      8.85612535e-05 2.65008013e-04 0. 4.16870927e-03 0. 0. 0.
      4.68720304e-04 6.16554841e-02 3.54244869e-04 1.06003170e-03
      6.14610408e-03 5.90210199e-01 3.97027880e-02 1.03542043e-04
      2.58422806e-03 1.36462361e-01 7.03080383e-04 2.11798717e-04
      6.33780088e-04 0. 3.02749733e-03 0. 3.39868420e-04 1.13578346e-04
      7.03080383e-04 1.10125095e-01 1.14960507e-01 6.09068312e-02
      4.70982902e-02 5.90210199e-01 2.64467061e-01 7.88808912e-02
      9.21491068e-04 4.07307327e-01 2.96700075e-02 3.20771569e-03
      2.80500446e-02 4.25922684e-02 3.62732708e-01 3.20472941e-02
      1.07886619e-03 1.01598923e-03 6.41670004e-02 2.68612020e-02
      4.76939650e-03 5.92935719e-02 1.10158272e-01 3.62732708e-01
      3.65712754e-02 4.16280981e-03 2.53997277e-04 3.52252014e-02
      5.22205085e-02 1.64826721e-01 1.88484713e-01 1.10677399e-01
      3.62732708e-01 1.35356635e-01 3.47380824e-02 2.19732305e-04
      1.93402573e-01 7.38747194e-02 2.07360744e-01 3.37175906e-01
      3.01852614e-01 3.62732708e-01 1.36943668e-01 7.77565390e-02
      2.47789938e-02 1.70797184e-01</_>
    <_>
      0. 0. 0. 3.11055733e-03 1.34216279e-01 2.20277184e-03
      3.80177516e-04 1.27048988e-04 0. 2.08456308e-01 1.45588502e-01
      4.45909560e-01 1.78194538e-01 5.08173168e-01 1.50339110e-02
      1.52070960e-03 5.08195721e-04 1.76584542e-01 0. 0. 0.
      3.14685027e-03 3.08335096e-01 4.81440639e-03 0. 0. 0.
      6.41903356e-02 7.36393332e-02 1.54381126e-01 2.61755884e-02
      5.08173168e-01 2.67470255e-02 0. 0. 6.23384342e-02 1.49592012e-01
      6.84411079e-02 1.22111067e-01 3.82034965e-02 3.76429409e-01
      6.40341267e-03 1.48485618e-04 4.96214088e-05 1.28818735e-01
      1.72262996e-01 1.67085752e-02 1.17771961e-02 8.38197954e-03
      4.79431003e-01 1.04005635e-02 0. 0. 1.62604794e-01 8.74505267e-02
      3.49043347e-02 5.02937101e-02 7.90523272e-03 4.79431003e-01
      7.08521716e-03 0. 0. 8.29820484e-02 1.20563857e-01 8.58134497e-03
      7.60236988e-03 8.02137237e-03 4.79431003e-01 7.76648708e-03 0. 0.
      1.18259273e-01 0. 0. 0. 3.32932337e-03 1.99710459e-01
      2.92153121e-03 0. 0. 0. 5.63056767e-02 1.00740185e-02
      1.03703123e-02 1.88115053e-02 4.55838889e-01 1.55244386e-02
      1.50220573e-01 5.47663160e-02 9.98793021e-02 0. 0. 0.
      2.57566455e-03 1.11963928e-01 3.12276371e-03 5.17096312e-04
      1.72804954e-04 0. 9.32274759e-02 3.84736918e-02 2.04342306e-01
      4.68803756e-02 4.55838889e-01 2.29578882e-01 4.55838889e-01
      8.77362341e-02 4.06912982e-01 2.18904279e-02 1.03716133e-02
      9.91511997e-03 5.37849870e-03 4.12739128e-01 3.74184898e-03
      4.72505838e-02 2.56024152e-02 4.48653735e-02 1.70318596e-02
      6.90426445e-03 6.55722152e-03 5.84097253e-03 4.12739128e-01
      4.00514482e-03 7.03020161e-03 6.35988358e-03 2.17148829e-02
      4.51954305e-02 1.00770675e-01 1.75848380e-01 1.99707877e-02
      4.12739128e-01 8.26938227e-02 1.69332504e-01 3.95191610e-02
      2.65617669e-01 1.59362227e-01 1.38942644e-01 1.41440168e-01
      1.25695303e-01 4.12739128e-01 1.22211769e-01 5.38915955e-02
      9.53982584e-03 2.41368845e-01</_>
    <_>
      6.16026518e-04 7.71062681e-04 0. 0. 4.87642502e-03 6.55722572e-04
      3.20571940e-04 4.88126854e-04 1.12500670e-03 4.48720716e-03
      1.77058086e-01 3.79282951e-01 1.30348176e-01 2.80903190e-01
      7.92675372e-03 5.84268896e-03 3.94226797e-02 7.67468242e-03
      1.43279927e-03 5.14041691e-04 0. 1.67659856e-03 9.86937284e-02
      5.23028313e-04 8.01429705e-05 0. 1.32628437e-03 4.02290672e-01
      3.36145550e-01 4.41168696e-01 5.27810715e-02 4.41168696e-01
      6.35122359e-02 1.85300279e-02 5.40008023e-02 1.97017193e-01
      3.02117709e-02 2.10922375e-01 2.71151215e-01 1.20171987e-01
      2.18016356e-01 3.11709959e-02 1.59332040e-03 9.36637893e-02
      3.27383243e-02 5.79807609e-02 1.78215832e-01 1.66396558e-01
      7.41365552e-02 3.40351999e-01 8.22095200e-02 2.74665741e-04
      1.07725196e-01 6.11798503e-02 1.63094878e-01 2.39065543e-01
      3.40351999e-01 4.49180193e-02 3.40351999e-01 3.22483070e-02
      8.72864760e-03 9.40452516e-02 1.00806393e-01 7.72623792e-02
      1.31481901e-01 3.28616709e-01 3.18236277e-02 3.40351999e-01
      2.26209294e-02 3.46445218e-02 9.36883762e-02 4.97246459e-02
      2.92676879e-04 0. 0. 1.29903189e-03 1.62363470e-01 1.72009075e-03
      0. 0. 2.92676879e-04 2.87889779e-01 1.00115813e-01 3.35300624e-01
      5.19612618e-03 3.35300624e-01 1.74691722e-01 3.09787374e-02
      5.64018488e-02 1.68436050e-01 0. 0. 1.11604211e-04 5.53041755e-04
      2.29088262e-01 2.58020707e-03 0. 0. 0. 3.02012950e-01
      1.85425617e-02 2.21731924e-02 2.21216655e-03 3.35300624e-01
      3.35300624e-01 8.83745700e-02 3.35300624e-01 3.15975606e-01
      2.14749128e-01 1.11474216e-01 2.52701521e-01 1.75207984e-02
      2.52701521e-01 1.07735850e-01 2.56162621e-02 5.07120937e-02
      1.52605757e-01 1.14023261e-01 6.37810975e-02 2.05370620e-01
      2.49799732e-02 2.52701521e-01 5.49448580e-02 1.79847643e-01
      5.84446602e-02 7.35347718e-02 2.52701521e-01 4.75730859e-02
      5.33233881e-02 1.07442280e-02 2.47544423e-01 1.60557806e-01
      8.93891901e-02 1.89704165e-01 2.52701521e-01 2.27023274e-01
      1.26049817e-01 2.52701521e-01 2.06974670e-02 2.52701521e-01
      6.62258938e-02 2.52701521e-01 1.14981271e-01 2.52701521e-01</_>
    <_>
      5.69435542e-05 1.05361403e-04 3.15280253e-04 5.41517686e-04
      2.20407210e-02 4.25905746e-04 2.08218305e-04 0. 5.69435542e-05
      3.85059454e-02 2.47768953e-01 3.46235096e-01 3.73949140e-01
      2.12950066e-01 1.70362240e-03 2.45813467e-02 4.50032577e-02
      4.61530611e-02 1.39237219e-03 5.90528846e-02 9.31815207e-02
      2.76341401e-02 1.90061137e-01 2.83937115e-04 1.38812175e-04 0. 0.
      6.35497645e-02 3.73949140e-01 3.73949140e-01 3.73949140e-01
      3.73949140e-01 9.79781337e-03 2.72042621e-02 3.62467989e-02
      9.20827836e-02 5.89391999e-02 1.82893336e-01 2.57564604e-01
      2.27657929e-01 3.50276560e-01 4.18082885e-02 3.97704728e-02
      7.50487596e-02 6.38810620e-02 4.55427691e-02 5.07000461e-02
      1.07840016e-01 6.19912036e-02 3.50276560e-01 6.52777404e-02
      2.64636595e-02 5.00325039e-02 4.60794307e-02 6.66863099e-02
      3.50276560e-01 3.50276560e-01 1.62349030e-01 3.50276560e-01
      9.31913778e-03 5.15592545e-02 5.66166863e-02 8.99832994e-02
      3.57348211e-02 6.36581630e-02 6.65211156e-02 3.08646988e-02
      3.50276560e-01 2.49235891e-02 5.77653870e-02 3.64424698e-02
      4.06742580e-02 2.72641424e-03 5.78054860e-02 3.79664227e-02
      1.46091282e-02 2.81564951e-01 1.38173811e-02 0. 0. 0.
      6.35429323e-02 3.12384486e-01 3.12384486e-01 9.76902768e-02
      3.12384486e-01 7.22307563e-02 2.30571534e-03 9.45574269e-02
      1.16861224e-01 1.17537845e-02 1.88943595e-02 5.26473566e-04
      6.23390637e-03 3.12384486e-01 5.52695058e-02 1.26905292e-02
      5.43289371e-02 9.93617531e-03 3.12384486e-01 1.27341479e-01
      4.22439836e-02 3.93092074e-02 3.12384486e-01 2.42080286e-01
      7.33652785e-02 3.12384486e-01 3.12384486e-01 8.90905112e-02
      2.27980986e-01 2.68889159e-01 8.40289295e-02 2.68889159e-01
      4.37084362e-02 4.92102318e-02 7.24084973e-02 1.25806183e-01
      4.60841693e-02 4.61443774e-02 7.49366209e-02 4.06667441e-02
      2.68889159e-01 1.33533269e-01 1.75835133e-01 5.82927130e-02
      3.73306647e-02 2.68889159e-01 1.31096557e-01 1.14045180e-01
      5.32061793e-02 2.66051292e-01 1.08665578e-01 1.19912677e-01
      2.14013770e-01 2.68889159e-01 9.05126557e-02 1.51961610e-01
      2.53364116e-01 1.47010103e-01 2.68889159e-01 1.82428688e-01
      2.23385289e-01 1.25267491e-01 1.19611025e-01</_>
    <_>
      1.94378570e-03 3.12957587e-03 2.31979284e-02 1.58353373e-02
      3.30807455e-02 1.03157398e-03 1.26794947e-03 2.55328300e-03
      2.25134846e-03 3.57746333e-02 9.80202034e-02 3.49025130e-01
      3.49025130e-01 3.10155571e-01 5.72124915e-03 8.45299626e-04
      1.58112310e-02 9.81644690e-02 2.94014532e-02 1.11174226e-01
      1.95077628e-01 1.16357021e-01 1.75108328e-01 6.87716005e-04
      5.27120021e-04 2.39893491e-03 1.22652086e-03 1.86841369e-01
      3.49025130e-01 3.49025130e-01 3.49025130e-01 3.49025130e-01
      3.27510457e-03 1.45341167e-02 4.54514138e-02 1.18321054e-01
      5.35710528e-02 4.77823056e-02 3.44592780e-01 2.94431865e-01
      3.44592780e-01 6.42771507e-03 2.60444969e-04 2.56948341e-02
      1.38905525e-01 2.45885570e-02 1.14144827e-03 6.91375211e-02
      8.53372440e-02 3.44592780e-01 3.94636299e-03 1.04177941e-03
      1.31045673e-02 5.63872866e-02 1.34534806e-01 2.12374091e-01
      3.44592780e-01 2.47506842e-01 3.44592780e-01 1.23627996e-02
      3.08586713e-02 3.16461734e-02 1.38830915e-01 4.25171591e-02 0.
      2.07212307e-02 6.48873299e-02 3.44592780e-01 1.45226177e-02
      3.60055864e-02 4.22412576e-03 4.90014255e-02 3.98821533e-02
      9.15790051e-02 1.21677347e-01 1.11163117e-01 2.68560737e-01
      2.73520034e-02 3.57335573e-03 1.72842816e-02 3.99116194e-04
      1.99927226e-01 2.70686030e-01 2.70686030e-01 2.70686030e-01
      2.70686030e-01 4.16219421e-02 4.38680537e-02 1.37595654e-01
      9.17499810e-02 7.29953796e-02 3.79730724e-02 2.76517533e-02
      8.15880597e-02 2.70686030e-01 1.09407976e-01 3.06988228e-02
      1.30617827e-01 5.23560606e-02 2.70686030e-01 9.55615416e-02
      1.02093093e-01 2.10062385e-01 2.70686030e-01 1.68746188e-01
      1.32253960e-01 2.70686030e-01 2.70686030e-01 1.61808208e-01
      1.39450058e-01 2.61645705e-01 1.67484477e-01 2.61645705e-01
      3.38865705e-02 1.03313394e-01 1.36799529e-01 1.14975102e-01
      6.93879500e-02 1.00393901e-02 2.51756664e-02 1.20950537e-02
      2.61645705e-01 4.53332588e-02 1.38944432e-01 1.51484862e-01
      8.68081227e-02 2.61645705e-01 1.67543143e-01 1.67277321e-01
      8.03539902e-02 1.45032316e-01 7.28129670e-02 1.68886930e-01
      2.31503174e-01 2.61645705e-01 1.79175690e-01 2.42217451e-01
      2.01212361e-01 1.23970676e-02 2.61645705e-01 8.28699619e-02
      1.42859012e-01 2.38170639e-01 1.59008697e-01</_>
    <_>
      0. 0. 0. 2.35633517e-04 3.46615836e-02 5.10575715e-04
      2.61627283e-04 8.74314646e-05 0. 3.81586887e-02 2.97169536e-01
      3.74047250e-01 2.18340069e-01 2.23280236e-01 1.36613240e-02
      3.39193828e-02 4.23782360e-04 2.83240266e-02 3.93025205e-02
      5.61935687e-03 1.03330262e-01 5.60968518e-02 1.78591996e-01
      7.65863631e-04 2.39903759e-03 1.19961356e-03 5.40106464e-03
      3.15563679e-01 3.74047250e-01 3.74047250e-01 2.16359228e-01
      3.74047250e-01 6.93896487e-02 7.95138478e-02 4.79845237e-03
      2.02729657e-01 9.76996645e-02 3.20311040e-01 2.98432022e-01
      1.82339832e-01 3.20311040e-01 5.36352172e-02 3.43363248e-02
      1.50140244e-04 7.49838278e-02 7.31012449e-02 1.57149598e-01
      5.27314730e-02 4.54408936e-02 3.20311040e-01 6.29338399e-02
      8.52925889e-03 1.92148673e-05 5.79573624e-02 1.52514830e-01
      3.20311040e-01 3.20311040e-01 1.17460832e-01 3.20311040e-01
      4.35368195e-02 6.77985027e-02 6.09098421e-03 1.35232911e-01
      3.84388976e-02 8.46627802e-02 1.40391186e-01 3.46726105e-02
      3.20311040e-01 1.82383433e-02 3.34746838e-02 2.03421004e-02
      3.86719443e-02 4.00786251e-02 2.70075747e-03 4.75789830e-02
      9.11816210e-02 2.51450956e-01 1.72736663e-02 6.30672509e-03
      2.64326879e-03 5.63334115e-03 2.85320252e-01 1.72899812e-01
      2.85320252e-01 1.59150586e-01 2.85320252e-01 1.95396394e-01
      7.63925835e-02 8.68682265e-02 2.06538573e-01 2.44098268e-02
      2.02971059e-04 6.07364462e-04 5.37959114e-02 2.85320252e-01
      1.29277661e-01 8.45889188e-03 6.35592341e-02 1.90201662e-02
      2.85320252e-01 3.93413082e-02 4.19251956e-02 7.93870986e-02
      2.85320252e-01 2.85320252e-01 7.04092383e-02 2.85320252e-01
      2.85320252e-01 2.59069532e-01 1.49764597e-01 2.76150256e-01
      4.94060405e-02 2.43127763e-01 1.00366764e-01 6.94212168e-02
      8.07699785e-02 1.84890717e-01 1.11233614e-01 4.15785946e-02
      6.94631487e-02 1.62166785e-02 2.76150256e-01 1.45047717e-02
      1.20124422e-01 1.34371445e-01 6.14153892e-02 2.76150256e-01
      9.87718031e-02 8.58440474e-02 1.04969563e-02 1.50325373e-01
      1.26617953e-01 8.11902657e-02 2.13814318e-01 2.76150256e-01
      2.31143847e-01 2.07852915e-01 1.75058588e-01 2.01047794e-03
      2.76150256e-01 3.81002538e-02 1.44209787e-01 1.82121873e-01
      2.50436574e-01</_>
    <_>
      0. 0. 0. 0. 9.82708670e-03 1.39787351e-03 6.83397404e-04 0. 0.
      4.45662020e-03 1.42128497e-01 1.12933822e-01 2.51335740e-01
      2.21046478e-01 1.47262057e-02 1.63859036e-02 5.15505951e-03
      2.62217131e-03 0. 0. 0. 7.60731869e-04 3.01099885e-02
      3.20042670e-03 1.56463578e-03 0. 0. 4.09714371e-01 4.09714371e-01
      4.09714371e-01 4.09714371e-01 4.09714371e-01 9.25759226e-02
      3.81813459e-02 2.47207098e-03 2.43839837e-04 4.75128368e-02
      1.38753444e-01 2.50115633e-01 1.92596078e-01 7.40571916e-02
      2.34637549e-03 2.12602736e-03 9.91157955e-04 4.78286383e-04
      1.65476099e-01 2.25811318e-01 2.74885327e-01 2.14100257e-01
      2.74885327e-01 1.80170499e-02 5.24353283e-03 7.59622222e-03
      2.01654097e-04 2.08670259e-01 2.74885327e-01 2.74885327e-01
      2.74885327e-01 1.74244031e-01 2.78366469e-02 1.46370130e-02
      2.74775433e-04 6.03194203e-05 1.45207971e-01 2.74885327e-01
      2.74885327e-01 2.10167557e-01 2.74885327e-01 2.09942926e-02
      9.00146924e-03 1.30836703e-02 2.52338629e-02 0. 0. 0.
      1.54680130e-03 7.14753792e-02 5.57566003e-04 1.26217754e-04 0. 0.
      1.79121047e-01 9.55448225e-02 3.24539930e-01 3.24539930e-01
      3.24539930e-01 1.36520475e-01 4.22411598e-02 2.28953362e-02
      3.22529376e-02 0. 0. 0. 1.57172082e-03 1.51115060e-01
      1.19756174e-03 0. 0. 0. 1.74865305e-01 2.49955095e-02
      1.37244478e-01 3.18852752e-01 3.24539930e-01 3.24539930e-01
      3.24539930e-01 1.33467928e-01 3.22691858e-01 2.55161107e-01
