%YAML:1.0
my_svm: !!opencv-ml-svm
   svm_type: C_SVC
   kernel: { type:RBF, gamma:8.9999999999999997e-002 }
   C: 10.
   term_criteria: { epsilon:1.1920928955078125e-007,
       iterations:2147483647 }
   var_all: 324
   var_count: 324
   class_count: 10
   class_labels: !!opencv-matrix
      rows: 1
      cols: 10
      dt: i
      data: [ 0, 1, 2, 3, 4, 5, 6, 7, 8, 9 ]
   sv_total: 48
   support_vectors:
      - [ 2.39651829e-001, 2.21842423e-001, 2.33267114e-001,
          1.82401687e-001, 1.25927240e-001, 3.64042483e-002,
          2.02938337e-002, 1.31075494e-002, 9.02614370e-002,
          2.39651829e-001, 2.32270002e-001, 2.39651829e-001,
          1.43810570e-001, 2.31306534e-002, 1.67824905e-002,
          2.44527049e-002, 3.64856757e-002, 2.30726242e-001,
          1.30150601e-001, 2.39651829e-001, 2.39651829e-001,
          2.39651829e-001, 2.39651829e-001, 8.44294801e-002,
          3.70615497e-002, 2.98349652e-002, 7.42095932e-002,
          2.35933661e-001, 2.05991477e-001, 2.39651829e-001,
          1.50985509e-001, 5.91598637e-002, 6.99351430e-002,
          1.11690044e-001, 1.16993859e-001, 2.39651829e-001,
          3.15171570e-001, 1.03882819e-001, 9.04564485e-002,
          4.36347350e-002, 1.42773809e-002, 1.91149730e-002,
          2.78236177e-002, 2.87372619e-002, 3.15171570e-001,
          3.15171570e-001, 2.69924216e-002, 1.16601754e-002,
          4.26259683e-003, 1.52057996e-002, 3.38238031e-002,
          1.39953196e-001, 1.36011854e-001, 3.15171570e-001,
          3.15171570e-001, 8.94621536e-002, 1.05530910e-001,
          2.14592069e-002, 4.16691303e-002, 1.18480876e-001,
          1.59750342e-001, 1.31418884e-001, 3.15171570e-001,
          3.15171570e-001, 3.95958535e-002, 3.12771536e-002,
          8.25264584e-003, 2.38318760e-002, 1.36929080e-001,
          1.54938698e-001, 1.21206328e-001, 3.15171570e-001,
          2.22086400e-001, 1.33504495e-002, 1.03006652e-002,
          5.99112315e-003, 1.18413568e-002, 1.08551934e-001,
          2.32966289e-001, 2.38294795e-001, 2.44290903e-001,
          1.10975206e-001, 2.23945994e-002, 1.26491990e-002,
          1.88398920e-002, 1.55172378e-001, 2.17211813e-001,
          2.44290903e-001, 2.30755404e-001, 2.44290903e-001,
          2.10894689e-001, 1.36920335e-002, 1.16970250e-002,
          1.43119637e-002, 3.06948740e-002, 2.01612517e-001,
          2.44290903e-001, 2.02575356e-001, 2.44290903e-001,
          7.45345950e-002, 1.78489275e-002, 1.00623192e-002,
          5.07925786e-002, 2.44290903e-001, 2.44290903e-001,
          2.44290903e-001, 2.44290903e-001, 1.17496103e-001,
          2.72838585e-002, 2.39732355e-001, 2.78897285e-001,
          2.78897285e-001, 2.78897285e-001, 1.91688299e-001,
          5.43006696e-002, 3.72936949e-002, 2.44444665e-002,
          4.15064469e-002, 1.52858749e-001, 2.05514893e-001,
          1.21040605e-001, 1.39571071e-001, 9.45273712e-002,
          1.44788340e-001, 9.85680223e-002, 9.55184326e-002,
          2.70926319e-002, 3.04986946e-002, 4.08821702e-002,
          1.58830017e-001, 2.78897285e-001, 2.78897285e-001,
          2.78897285e-001, 2.60899812e-001, 4.10702191e-002,
          8.26109722e-002, 3.16450894e-002, 2.14779694e-002,
          3.80252227e-002, 1.30810678e-001, 1.85256988e-001,
          2.74796218e-001, 1.79645389e-001, 1.14677474e-001,
          1.43606558e-001, 6.00214787e-002, 7.67805055e-002,
          1.77790541e-002, 6.81650639e-002, 1.85948446e-001,
          2.47768953e-001, 2.02457696e-001, 2.47768953e-001,
          1.98686600e-001, 4.77920510e-002, 6.15557544e-002,
          2.53399760e-002, 7.11691380e-002, 2.47768953e-001,
          2.47768953e-001, 2.47768953e-001, 2.47768953e-001,
          2.01507166e-001, 3.80943567e-002, 3.74602862e-002,
          3.08705233e-002, 3.40037681e-002, 8.86866301e-002,
          1.27609208e-001, 1.10462077e-001, 2.47768953e-001,
          2.44022205e-001, 6.86373934e-002, 7.28740245e-002,
          7.15194568e-002, 7.60019645e-002, 2.47768953e-001,
          2.43604884e-001, 2.47768953e-001, 2.47768953e-001,
          4.02250290e-002, 1.89840756e-002, 2.39861384e-002,
          4.43539917e-002, 1.13916732e-001, 2.20954791e-001,
          2.32028306e-001, 1.67458788e-001, 7.92920738e-002,
          1.04783038e-002, 1.81545969e-002, 3.17995436e-002,
          1.18361861e-001, 2.94985980e-001, 2.92651147e-001,
          2.94985980e-001, 1.84341639e-001, 2.87811738e-002,
          7.19140917e-002, 1.11014031e-001, 1.83510259e-001,
          1.44192249e-001, 1.24395147e-001, 2.17525870e-001,
          1.33060813e-001, 1.96704924e-001, 1.43243179e-001,
          1.61220729e-002, 2.00433448e-001, 2.94985980e-001,
          2.94985980e-001, 2.94985980e-001, 1.02507621e-001,
          5.74062243e-002, 6.62406906e-002, 3.56638171e-002,
          5.66576011e-002, 6.85446477e-003, 6.22169813e-003,
          4.18162309e-002, 1.96805149e-001, 2.51814574e-001,
          2.51814574e-001, 2.51814574e-001, 1.35628507e-001,
          2.44174466e-001, 1.10253645e-002, 5.82707208e-003,
          7.69873569e-003, 2.82321181e-002, 1.42063797e-001,
          2.51814574e-001, 1.96235880e-001, 2.51814574e-001,
          9.28324461e-002, 1.57141518e-002, 3.45955370e-003,
          7.42685981e-003, 1.06842585e-001, 1.87965631e-001,
          2.51814574e-001, 2.51814574e-001, 2.34445214e-001,
          2.51814574e-001, 1.64309032e-002, 9.63588804e-003,
          8.48583039e-003, 1.90927628e-002, 8.38413164e-002,
          2.51814574e-001, 2.51814574e-001, 2.51814574e-001,
          3.40973198e-001, 1.17434114e-002, 1.19993687e-002,
          1.03590116e-002, 1.24987876e-002, 3.03941350e-002,
          4.54265736e-002, 5.50757945e-002, 3.40973198e-001,
          3.40973198e-001, 4.51521873e-002, 3.53329964e-002,
          6.07782491e-002, 1.78030152e-002, 8.74769539e-002,
          7.18836859e-002, 1.00539766e-001, 3.40973198e-001,
          3.40973198e-001, 6.48903521e-003, 1.05628958e-002,
          1.23791583e-002, 2.68084258e-002, 1.64872017e-002,
          6.95912689e-002, 1.02120712e-001, 3.40973198e-001,
          3.40973198e-001, 7.68908113e-002, 4.67109829e-002,
          3.28774266e-002, 2.38274951e-002, 1.62288919e-002,
          2.68285517e-002, 4.90357503e-002, 3.40973198e-001,
          2.45054647e-001, 1.38249084e-001, 1.59312367e-001,
          1.90355897e-001, 3.30841802e-002, 8.14908966e-002,
          9.43611488e-002, 1.03298798e-001, 2.45054647e-001,
          1.25817806e-001, 2.37140179e-001, 2.45054647e-001,
          2.45054647e-001, 2.45054647e-001, 4.06095982e-002,
          3.81749719e-002, 5.06338552e-002, 8.77708048e-002,
          2.45054647e-001, 1.71416879e-001, 7.87319764e-002,
          1.67066634e-001, 6.78224415e-002, 5.32221794e-002,
          4.33979109e-002, 4.05492671e-002, 2.45054647e-001,
          2.45054647e-001, 2.17029020e-001, 1.71284512e-001,
          2.45054647e-001, 2.45054647e-001, 1.49389043e-001,
          4.19859663e-002, 2.70783976e-002, 1.66876882e-001 ]
      - [ 2.42224842e-001, 2.12220818e-001, 2.42224842e-001,
          1.76629141e-001, 1.05381750e-001, 1.87218841e-002,
          8.28694273e-003, 5.58396755e-003, 5.61433434e-002,
          2.42224842e-001, 2.28439361e-001, 2.13209882e-001,
          1.55247599e-001, 7.28614554e-002, 2.15156581e-002,
          3.33697461e-002, 4.97098826e-002, 2.42224842e-001,
          1.40378326e-001, 2.42224842e-001, 2.42224842e-001,
          2.42224842e-001, 2.42224842e-001, 3.08791995e-002,
          5.74319111e-003, 5.82071720e-003, 3.05888560e-002,
          2.03857884e-001, 2.14359790e-001, 2.42224842e-001,
          2.07977831e-001, 2.13747963e-001, 2.68006213e-002,
          4.93257791e-002, 6.02412932e-002, 2.06362218e-001,
          3.11368495e-001, 9.66629907e-002, 5.19701242e-002,
          7.10050985e-002, 6.76633939e-002, 1.11327330e-002,
          3.05408556e-002, 4.95091453e-002, 3.11368495e-001,
          3.11368495e-001, 2.83706859e-002, 1.07768113e-002,
          1.21730184e-002, 4.74723950e-002, 6.54674396e-002,
          8.74631107e-002, 9.90678370e-002, 3.11368495e-001,
          3.11368495e-001, 1.05567314e-001, 8.72880667e-002,
          1.10637508e-001, 3.11368495e-001, 3.61162685e-002,
          7.89385512e-002, 6.42294362e-002, 3.11368495e-001,
          3.11368495e-001, 5.05268052e-002, 2.96221785e-002,
          4.12058495e-002, 9.93443206e-002, 4.82162647e-002,
          1.05349377e-001, 5.48062697e-002, 3.11368495e-001,
          2.22794265e-001, 2.09274217e-002, 2.28427723e-003,
          1.22972019e-003, 3.72090340e-002, 1.15564145e-001,
          2.58970767e-001, 1.98884934e-001, 2.73000807e-001,
          9.18181017e-002, 1.77614540e-002, 1.01569733e-002,
          7.33352592e-003, 7.48311877e-002, 2.46072233e-001,
          2.73000807e-001, 1.99459106e-001, 2.73000807e-001,
          1.91562369e-001, 1.67413782e-002, 4.46745800e-003,
          7.67476903e-003, 3.74881700e-002, 1.50734901e-001,
          2.73000807e-001, 1.48175493e-001, 2.73000807e-001,
          5.89176416e-002, 1.19093005e-002, 3.23266955e-003,
          1.15733640e-002, 1.91689178e-001, 2.73000807e-001,
          2.73000807e-001, 1.87719241e-001, 1.74374998e-001,
          2.09673978e-002, 1.65859923e-001, 2.89262921e-001,
          2.67266452e-001, 2.89262921e-001, 8.79085511e-002,
          2.41793338e-002, 2.04712711e-002, 5.77229168e-003,
          4.19574194e-002, 1.22947074e-001, 2.32852653e-001,
          1.71976700e-001, 2.89262921e-001, 7.71770626e-002,
          6.72136918e-002, 5.57201803e-002, 5.59821241e-002,
          1.15484064e-002, 1.63245834e-002, 2.60659624e-002,
          9.46295708e-002, 2.89262921e-001, 2.89262921e-001,
          2.89262921e-001, 2.45003775e-001, 2.00720299e-002,
          7.84589350e-002, 2.79041100e-002, 2.48088986e-002,
          4.45579216e-002, 1.78395435e-001, 2.08177224e-001,
          2.54362583e-001, 1.95323452e-001, 1.07364349e-001,
          1.50857359e-001, 7.61136189e-002, 5.41782938e-002,
          1.12519942e-001, 2.51654685e-001, 1.44139275e-001,
          1.62446275e-001, 1.31032020e-001, 2.07658008e-001,
          2.20405638e-001, 5.25056310e-002, 4.44197431e-002,
          6.10518456e-002, 1.24163106e-001, 1.43354192e-001,
          1.99404761e-001, 1.80417955e-001, 2.51654685e-001,
          2.51654685e-001, 5.19272499e-002, 1.65411849e-002,
          4.68522348e-002, 1.10429764e-001, 1.60753801e-001,
          1.49378210e-001, 1.54917240e-001, 2.51654685e-001,
          2.51654685e-001, 7.24296719e-002, 8.77797380e-002,
          7.58958012e-002, 4.86687087e-002, 2.51654685e-001,
          2.51654685e-001, 2.51654685e-001, 2.51654685e-001,
          5.56968711e-002, 1.69759318e-002, 3.15597057e-002,
          3.34901847e-002, 1.12291716e-001, 1.61560297e-001,
          2.41877034e-001, 1.35268062e-001, 1.22312903e-001,
          1.56528857e-002, 2.29248740e-002, 2.80418321e-002,
          8.28272998e-002, 2.85284013e-001, 2.85284013e-001,
          2.85284013e-001, 1.36495784e-001, 3.09647750e-002,
          1.18480414e-001, 1.28864035e-001, 2.34037712e-001,
          1.33881882e-001, 1.33844316e-001, 1.67926818e-001,
          1.09193660e-001, 1.62046924e-001, 2.24089071e-001,
          4.00454327e-002, 2.85284013e-001, 2.85284013e-001,
          2.85284013e-001, 2.85284013e-001, 1.21577218e-001,
          5.16697764e-002, 6.10042773e-002, 5.31267114e-002,
          2.83860359e-002, 3.41945770e-003, 2.37938738e-003,
          9.79592372e-003, 1.54425427e-001, 2.47660562e-001,
          2.47660562e-001, 2.28866950e-001, 1.32777885e-001,
          2.29339227e-001, 7.32513936e-003, 2.50204070e-003,
          5.97517937e-003, 3.36899161e-002, 1.55073255e-001,
          2.47660562e-001, 2.03716591e-001, 2.47660562e-001,
          1.80897549e-001, 4.20178324e-002, 2.25720890e-002,
          2.51756757e-002, 5.81289828e-002, 2.08628520e-001,
          2.47660562e-001, 2.45081201e-001, 2.47660562e-001,
          2.47660562e-001, 3.55499685e-002, 1.46652684e-002,
          2.48855129e-002, 2.19453294e-002, 1.57587111e-001,
          2.47660562e-001, 2.47660562e-001, 2.47660562e-001,
          3.39133441e-001, 1.07352622e-002, 2.51844525e-003,
          1.03150634e-002, 2.44234130e-002, 4.19436097e-002,
          4.90998179e-002, 5.13149239e-002, 3.39133441e-001,
          3.39133441e-001, 4.61253561e-002, 3.68985124e-002,
          4.72901016e-002, 1.94142591e-002, 7.90228248e-002,
          7.33891502e-002, 5.60000464e-002, 3.39133441e-001,
          3.39133441e-001, 5.80027932e-003, 1.28447055e-003,
          1.80814397e-002, 2.45442223e-002, 5.72167225e-002,
          7.40615353e-002, 9.21405181e-002, 3.39133441e-001,
          3.39133441e-001, 1.05552077e-001, 8.98981094e-002,
          8.48507062e-002, 4.63728383e-002, 2.25222688e-002,
          1.60910189e-002, 2.16858946e-002, 3.39133441e-001,
          2.44057685e-001, 1.40780821e-001, 2.05683574e-001,
          1.37342319e-001, 3.37781869e-002, 6.97496533e-002,
          6.83770627e-002, 5.03966212e-002, 2.40510836e-001,
          2.11678132e-001, 2.44057685e-001, 2.44057685e-001,
          2.36737132e-001, 2.44057685e-001, 7.38743693e-002,
          5.10231666e-002, 3.10034305e-002, 7.41216838e-002,
          2.44057685e-001, 2.17179611e-001, 2.33240828e-001,
          1.73834413e-001, 2.73548570e-002, 2.07629725e-002,
          2.28428803e-002, 9.94260330e-003, 2.44057685e-001,
          2.44057685e-001, 2.32348278e-001, 2.44057685e-001,
          1.82189673e-001, 9.95272771e-002, 6.18859790e-002,
          4.96619605e-002, 2.01962814e-002, 1.27474129e-001 ]
      - [ 2.51992106e-001, 2.51992106e-001, 2.51992106e-001,
          1.13540538e-001, 1.00299582e-001, 4.38225158e-002,
          3.57112698e-002, 4.03429456e-002, 1.01504937e-001,
          2.51992106e-001, 2.35059664e-001, 2.50763893e-001,
          1.08316250e-001, 1.52235935e-002, 1.83643643e-002,
          1.20903281e-002, 2.91587301e-002, 2.51992106e-001,
          1.20564409e-001, 2.41461262e-001, 2.51992106e-001,
          2.51992106e-001, 2.43576899e-001, 8.43384787e-002,
          2.00735219e-002, 1.48626426e-002, 5.23838922e-002,
          2.51992106e-001, 1.35473475e-001, 2.51992106e-001,
          1.68725431e-001, 3.70955616e-002, 3.55810113e-002,
          2.00951248e-002, 2.12794747e-002, 2.51992106e-001,
          3.32869500e-001, 8.00406635e-002, 6.04308471e-002,
          5.18717095e-002, 1.68334991e-002, 1.06461961e-002,
          5.96763194e-003, 1.98667124e-002, 3.32869500e-001,
          3.32869500e-001, 2.85590868e-002, 8.62933323e-003,
          1.51251154e-002, 3.50227803e-002, 8.72900710e-002,
          8.74864459e-002, 1.56173095e-001, 3.32869500e-001,
          3.32869500e-001, 3.44146639e-002, 5.90330362e-002,
          2.70342138e-002, 1.99531633e-002, 2.41710804e-002,
          1.19911060e-002, 1.22456169e-002, 3.32869500e-001,
          3.32869500e-001, 3.53329629e-002, 3.16733159e-002,
          1.66071746e-002, 9.84833688e-002, 1.26507729e-001,
          8.44690725e-002, 1.12385929e-001, 3.32869500e-001,
          2.07991466e-001, 2.77916454e-002, 1.99737009e-002,
          1.17178392e-002, 3.74436043e-002, 1.71599671e-001,
          1.91346377e-001, 2.25001708e-001, 2.39917383e-001,
          1.51174486e-001, 2.82212440e-002, 2.32354458e-002,
          2.84977350e-002, 1.92863092e-001, 2.10060433e-001,
          2.39917383e-001, 1.78322122e-001, 2.39917383e-001,
          1.50515467e-001, 5.27964830e-002, 3.48701812e-002,
          3.05126011e-002, 1.18519023e-001, 1.94478616e-001,
          2.34401956e-001, 2.01387987e-001, 2.39917383e-001,
          8.24979991e-002, 4.63742018e-002, 2.84897946e-002,
          8.00628364e-002, 2.39917383e-001, 2.39917383e-001,
          2.39917383e-001, 2.39917383e-001, 2.12609470e-001,
          2.28960253e-002, 1.37959510e-001, 2.78557748e-001,
          2.78557748e-001, 2.78557748e-001, 1.41972840e-001,
          3.87722887e-002, 4.92517687e-002, 3.52182239e-002,
          7.93079063e-002, 8.10033008e-002, 2.04022661e-001,
          1.52476013e-001, 1.17978729e-001, 1.23662412e-001,
          7.64217451e-002, 8.68996754e-002, 9.86501127e-002,
          1.29782399e-002, 2.61901151e-002, 3.35415937e-002,
          1.38374180e-001, 2.78557748e-001, 2.78557748e-001,
          2.78557748e-001, 2.59718746e-001, 5.31991124e-002,
          4.83614132e-002, 3.88262011e-002, 2.40012426e-002,
          3.91790420e-002, 1.23266041e-001, 2.67091751e-001,
          2.78557748e-001, 2.78557748e-001, 1.32730231e-001,
          2.30459541e-001, 6.56900853e-002, 8.56124163e-002,
          5.15394509e-002, 6.96617588e-002, 1.31014138e-001,
          1.01573490e-001, 9.53707471e-002, 2.37529919e-001,
          2.37529919e-001, 1.01008944e-001, 1.06439210e-001,
          8.52002501e-002, 1.87845975e-001, 1.99867934e-001,
          1.52827412e-001, 8.78122598e-002, 2.37529919e-001,
          2.37529919e-001, 1.44880950e-001, 4.81728315e-002,
          3.56978253e-002, 6.88635558e-002, 2.37529919e-001,
          2.37529919e-001, 2.37529919e-001, 2.37529919e-001,
          2.37529919e-001, 2.37529919e-001, 1.63173079e-001,
          1.58364117e-001, 1.00753672e-001, 1.19297422e-001,
          1.01556845e-001, 1.31670862e-001, 2.37529919e-001,
          6.11748882e-002, 6.07074350e-002, 4.70552966e-002,
          8.92550349e-002, 1.25120983e-001, 1.96287006e-001,
          2.17158258e-001, 1.06998898e-001, 1.29641205e-001,
          2.24268567e-002, 5.65040223e-002, 4.30420376e-002,
          2.41352230e-001, 2.75463313e-001, 2.75463313e-001,
          2.75463313e-001, 1.64670199e-001, 8.44141096e-002,
          8.26363489e-002, 1.56148806e-001, 2.51775593e-001,
          2.13728100e-001, 6.50540739e-002, 1.22592874e-001,
          6.96840808e-002, 3.01056206e-002, 7.40326419e-002,
          2.51125544e-002, 2.02571437e-001, 2.75463313e-001,
          2.75463313e-001, 2.75463313e-001, 2.75463313e-001,
          8.68157744e-002, 2.20608898e-002, 1.91058926e-002,
          3.35118398e-002, 3.55669716e-003, 2.16751453e-003,
          2.43237019e-002, 2.33981833e-001, 2.26159960e-001,
          2.57444978e-001, 2.18936592e-001, 1.54515728e-001,
          1.88492328e-001, 2.80923937e-002, 2.29458348e-003,
          3.16353934e-003, 2.17391048e-002, 1.22237884e-001,
          2.57444978e-001, 2.22096324e-001, 2.57444978e-001,
          5.44552878e-002, 3.75010516e-003, 3.83670675e-003,
          8.66615772e-003, 1.12939306e-001, 1.39110267e-001,
          2.57444978e-001, 2.57444978e-001, 2.57444978e-001,
          2.57444978e-001, 1.37430811e-002, 1.74237310e-003,
          1.53482996e-003, 2.52233408e-002, 1.34646952e-001,
          2.57444978e-001, 2.57444978e-001, 2.57444978e-001,
          3.16334456e-001, 8.86940733e-002, 8.27569049e-003,
          7.59558938e-003, 1.04186079e-002, 7.03868791e-002,
          1.27581224e-001, 1.65853113e-001, 3.16334456e-001,
          3.16334456e-001, 1.19840577e-001, 7.41616338e-002,
          5.40720560e-002, 2.30818801e-002, 2.91071553e-002,
          2.31137760e-002, 8.52284357e-002, 3.16334456e-001,
          3.16334456e-001, 5.30864447e-002, 7.68027781e-003,
          7.64640374e-003, 4.13156562e-002, 6.23882450e-002,
          9.14910883e-002, 1.58167228e-001, 3.16334456e-001,
          3.16334456e-001, 1.73953637e-001, 1.20744459e-001,
          9.20414552e-002, 7.57324994e-002, 9.58507881e-003,
          1.01648364e-002, 7.95748755e-002, 3.16334456e-001,
          2.44191989e-001, 1.84231743e-001, 2.51018584e-001,
          1.54381901e-001, 2.67342832e-002, 1.96633097e-002,
          5.71077364e-003, 9.65563487e-003, 2.08642095e-001,
          1.58990905e-001, 2.31706887e-001, 2.51018584e-001,
          2.51018584e-001, 1.82802275e-001, 7.14514926e-002,
          1.60066020e-002, 4.24194662e-003, 6.93571717e-002,
          2.51018584e-001, 2.51018584e-001, 2.51018584e-001,
          1.52500972e-001, 5.26366793e-002, 1.26946839e-002,
          6.49637217e-003, 1.13292905e-002, 2.15026319e-001,
          2.51018584e-001, 2.51018584e-001, 2.51018584e-001,
          2.35127166e-001, 6.75222799e-002, 2.61624381e-002,
          1.17412796e-002, 1.10065816e-002, 1.10812783e-001 ]
      - [ 2.54364431e-001, 1.84264004e-001, 1.77546397e-001,
          1.09875433e-001, 1.73292518e-001, 2.36288514e-002,
          1.04076006e-002, 2.45564338e-002, 2.27417573e-001,
          2.54364431e-001, 1.89395651e-001, 2.13742375e-001,
          1.31137460e-001, 2.70037167e-002, 1.32255284e-002,
          3.00443266e-003, 1.16287423e-002, 2.54364431e-001,
          1.11247592e-001, 2.54364431e-001, 2.54364431e-001,
          2.54364431e-001, 2.54364431e-001, 4.39660400e-002,
          1.23244105e-002, 1.25660272e-002, 7.93485045e-002,
          2.54364431e-001, 1.72908977e-001, 2.54364431e-001,
          1.92336559e-001, 4.47299406e-002, 1.30686071e-002,
          5.11693023e-003, 8.52248538e-003, 2.54364431e-001,
          3.32156211e-001, 1.08340219e-001, 8.32372531e-002,
          5.88307381e-002, 3.21428180e-002, 1.24575039e-002,
          3.32965702e-003, 1.60918348e-002, 3.32156211e-001,
          3.32156211e-001, 5.42162918e-002, 1.97207220e-002,
          2.51735337e-002, 5.18147908e-002, 2.65225358e-002,
          6.18713088e-002, 2.39991084e-001, 3.32156211e-001,
          3.32156211e-001, 5.63640222e-002, 5.47987223e-002,
          3.73166315e-002, 1.94082800e-002, 1.38117075e-002,
          6.78297132e-003, 1.38000334e-002, 3.32156211e-001,
          3.32156211e-001, 2.23754179e-002, 1.59014463e-002,
          2.40337327e-002, 3.05425972e-002, 6.03836142e-002,
          4.80936542e-002, 7.14181215e-002, 3.32156211e-001,
          1.91403240e-001, 1.32369464e-002, 1.74691603e-002,
          1.17460024e-002, 2.58103199e-002, 6.70250282e-002,
          1.62892014e-001, 2.63377160e-001, 2.63377160e-001,
          6.91519454e-002, 1.59777887e-002, 4.05056737e-002,
          4.51198518e-002, 1.08692229e-001, 1.21125683e-001,
          2.56034106e-001, 2.63377160e-001, 2.05092341e-001,
          2.23019227e-001, 1.00695817e-002, 1.80417430e-002,
          1.11656077e-002, 4.54555303e-002, 2.03643620e-001,
          2.58483559e-001, 2.45882303e-001, 2.49845415e-001,
          3.72499861e-002, 1.39593892e-002, 5.58100305e-002,
          6.21921346e-002, 2.63377160e-001, 2.63377160e-001,
          2.63377160e-001, 2.63377160e-001, 8.91527086e-002,
          3.24225016e-002, 2.50393778e-001, 2.95622796e-001,
          2.95622796e-001, 2.95622796e-001, 1.41972229e-001,
          3.28378379e-002, 1.98526513e-002, 2.50199493e-002,
          8.26557875e-002, 1.41495958e-001, 2.01592714e-001,
          1.70374766e-001, 1.23168506e-001, 5.05133606e-002,
          1.99079961e-002, 1.63997877e-002, 6.79692999e-002,
          1.64986886e-002, 3.28540616e-002, 2.21527293e-002,
          1.19305544e-001, 2.95622796e-001, 2.95622796e-001,
          2.95622796e-001, 2.48327225e-001, 4.50486653e-002,
          7.21978545e-002, 3.14508788e-002, 1.88631974e-002,
          3.95431221e-002, 1.20635554e-001, 2.17179835e-001,
          2.68869042e-001, 1.64363906e-001, 1.35054320e-001,
          2.79301882e-001, 1.10547289e-001, 1.07200973e-001,
          9.05108005e-002, 9.78686959e-002, 7.80086294e-002,
          4.54154946e-002, 6.70233965e-002, 2.79301882e-001,
          2.79301882e-001, 8.26055929e-002, 7.77272433e-002,
          1.40088648e-001, 1.31358996e-001, 1.36881396e-001,
          1.01123214e-001, 1.35928482e-001, 2.79301882e-001,
          2.79301882e-001, 6.71684667e-002, 4.55145128e-002,
          5.08778431e-002, 1.10378481e-001, 1.30345732e-001,
          1.31905362e-001, 1.12833619e-001, 2.79301882e-001,
          2.79301882e-001, 1.62317291e-001, 2.10615396e-001,
          1.67507723e-001, 1.79330155e-001, 1.14586368e-001,
          6.42688349e-002, 7.18684942e-002, 2.79301882e-001,
          4.66901846e-002, 1.77518185e-002, 1.84980147e-002,
          3.46600860e-002, 1.16687648e-001, 1.48940668e-001,
          1.88674226e-001, 1.20100044e-001, 5.51659726e-002,
          6.16114354e-003, 2.46890020e-002, 3.50968018e-002,
          9.79292169e-002, 3.19164515e-001, 3.19164515e-001,
          3.19164515e-001, 1.86549127e-001, 9.17169172e-003,
          8.32656100e-002, 1.59612805e-001, 2.63574898e-001,
          1.61445007e-001, 1.28391996e-001, 4.86239195e-002,
          2.05468778e-002, 1.95854176e-002, 5.79317175e-002,
          1.45359896e-002, 2.89317936e-001, 3.19164515e-001,
          3.19164515e-001, 3.19164515e-001, 1.00460671e-001,
          2.97661144e-002, 2.04164255e-002, 9.48733371e-003,
          5.44308051e-002, 1.95778906e-002, 8.14172439e-003,
          4.09898236e-002, 2.25063637e-001, 2.54608244e-001,
          2.54608244e-001, 2.19787240e-001, 1.44542947e-001,
          2.13362083e-001, 1.79290548e-002, 8.06450378e-003,
          1.33657297e-002, 2.24523842e-002, 1.54812142e-001,
          2.51740932e-001, 1.70427486e-001, 2.54608244e-001,
          9.35727060e-002, 2.16970723e-002, 7.58813228e-003,
          3.10348757e-002, 1.16558991e-001, 1.51444793e-001,
          2.54608244e-001, 2.35683337e-001, 2.54608244e-001,
          2.54608244e-001, 2.14507375e-002, 9.65777878e-003,
          1.52343977e-002, 3.09435930e-002, 1.48475960e-001,
          2.54608244e-001, 2.54608244e-001, 2.54608244e-001,
          3.35961461e-001, 1.26775075e-002, 9.64777451e-003,
          7.84848817e-003, 1.33756623e-002, 3.08677107e-002,
          4.28356156e-002, 3.82391848e-002, 3.35961461e-001,
          3.35961461e-001, 6.70022964e-002, 8.52437094e-002,
          3.32128480e-002, 2.34385598e-002, 9.68139526e-003,
          1.01109389e-002, 7.08420156e-003, 3.35961461e-001,
          3.35961461e-001, 3.55975740e-002, 1.35792727e-002,
          1.00102993e-002, 2.04755627e-002, 5.43467738e-002,
          8.35185200e-002, 1.00520730e-001, 3.35961461e-001,
          3.35961461e-001, 1.68039754e-001, 1.27370179e-001,
          8.23964849e-002, 2.58931592e-002, 7.24782189e-003,
          1.83478766e-003, 3.61037478e-002, 3.35961461e-001,
          2.50484020e-001, 1.83511481e-001, 2.50484020e-001,
          1.30650997e-001, 2.78701875e-002, 5.42840967e-003,
          3.43440729e-003, 4.79452405e-003, 1.60834715e-001,
          1.40073702e-001, 2.50484020e-001, 2.50484020e-001,
          2.50484020e-001, 2.50484020e-001, 1.91937033e-002,
          7.75665976e-004, 9.73622128e-003, 5.24202846e-002,
          2.50484020e-001, 2.50484020e-001, 2.50484020e-001,
          1.57549784e-001, 2.50212140e-002, 2.13645608e-003,
          7.16695213e-004, 1.20981401e-002, 2.11604103e-001,
          2.50484020e-001, 2.21507698e-001, 2.50484020e-001,
          2.13686988e-001, 1.73787907e-001, 8.88058823e-003,
          9.36350902e-004, 8.63227062e-003, 1.07633069e-001 ]
      - [ 1.39404610e-001, 3.92067395e-002, 7.51952082e-002,
          9.65604112e-002, 2.88653672e-001, 1.43248945e-001,
          1.27946958e-001, 1.35343105e-001, 1.73175842e-001,
          3.72862406e-002, 1.73468925e-002, 1.14968382e-002,
          6.26687035e-002, 2.88653672e-001, 1.82509750e-001,
          1.93322614e-001, 1.49602458e-001, 1.01364225e-001,
          1.05316155e-001, 8.20791870e-002, 1.06780499e-001,
          1.65713772e-001, 2.88653672e-001, 2.03762293e-001,
          1.13894053e-001, 1.44373745e-001, 1.69630989e-001,
          2.88653672e-001, 7.80914351e-002, 3.59724760e-002,
          7.87568539e-002, 2.88653672e-001, 2.04949006e-001,
          1.25778526e-001, 1.86366960e-001, 2.88653672e-001,
          6.00916669e-002, 4.33192365e-002, 3.06994598e-002,
          4.98595200e-002, 2.03309849e-001, 1.35229826e-001,
          1.67296231e-001, 9.83156040e-002, 8.13426673e-002,
          1.61404923e-001, 5.35848178e-002, 3.08168512e-002,
          4.00215611e-002, 7.63166845e-002, 6.72011599e-002,
          5.45642450e-002, 7.59257004e-002, 1.36728510e-001,
          3.42194527e-001, 3.33196819e-001, 5.75763769e-002,
          4.20112051e-002, 2.26431265e-001, 1.06431372e-001,
          1.02084599e-001, 2.08714917e-001, 3.42194527e-001,
          3.42194527e-001, 3.11368793e-001, 1.98496114e-002,
          1.81470197e-002, 4.75037433e-002, 2.63554156e-002,
          3.05133946e-002, 1.09061971e-001, 3.42194527e-001,
          9.70935076e-002, 3.72792818e-002, 3.54109481e-002,
          8.02431107e-002, 9.92337316e-002, 3.10668536e-002,
          1.38566121e-002, 3.49611118e-002, 1.01032548e-001,
          1.93113744e-001, 1.02724083e-001, 1.07387364e-001,
          2.51207471e-001, 3.12868834e-001, 6.84070811e-002,
          4.17312123e-002, 5.10459319e-002, 2.50864655e-001,
          3.12868834e-001, 8.32002535e-002, 4.94942069e-002,
          1.10718988e-001, 9.93027687e-002, 1.22866854e-002,
          5.06304437e-003, 4.09758054e-002, 3.12868834e-001,
          3.12868834e-001, 1.09739624e-001, 1.59922525e-001,
          3.12868834e-001, 3.12868834e-001, 5.54136969e-002,
          2.85631437e-002, 3.77769433e-002, 3.12868834e-001,
          1.54234573e-001, 9.53401029e-002, 6.83739558e-002,
          8.25438574e-002, 3.32259029e-001, 1.33591920e-001,
          9.07654092e-002, 1.40377358e-001, 2.23099947e-001,
          3.32259029e-001, 6.33327290e-002, 2.94708107e-002,
          2.52815746e-002, 1.24901436e-001, 7.88386464e-002,
          5.64937741e-002, 1.56448260e-001, 3.32259029e-001,
          3.32259029e-001, 3.69382016e-002, 1.83997136e-002,
          1.50154717e-002, 8.84286240e-002, 7.51924962e-002,
          6.82198703e-002, 7.61559755e-002, 3.32259029e-001,
          3.32259029e-001, 1.45838782e-002, 1.19997673e-002,
          1.22961290e-002, 1.95935946e-002, 1.67703219e-002,
          1.12815751e-002, 4.26431485e-002, 3.32259029e-001,
          3.39943975e-001, 1.51420653e-001, 3.62648778e-002,
          1.01933694e-002, 2.34029405e-002, 1.50846792e-002,
          1.31202834e-002, 8.19259286e-002, 3.39943975e-001,
          3.39943975e-001, 1.36515319e-001, 2.63248663e-002,
          6.21074531e-003, 2.38926965e-003, 6.82719657e-003,
          6.96613034e-003, 4.37130444e-002, 3.39943975e-001,
          3.39943975e-001, 2.36842241e-002, 2.03784164e-002,
          1.35081057e-002, 1.40287708e-002, 9.08627920e-003,
          5.54651627e-003, 2.41496041e-002, 3.39943975e-001,
          3.39943975e-001, 4.09993641e-002, 2.67811194e-002,
          1.73554104e-002, 8.76185112e-003, 1.53456712e-002,
          3.89919318e-002, 1.10173084e-001, 3.39943975e-001,
          3.12571794e-001, 4.40228656e-002, 2.43579242e-002,
          2.67335400e-002, 1.61114056e-002, 3.14504816e-003,
          6.66723447e-003, 2.18991768e-002, 3.12571794e-001,
          2.99637705e-001, 4.60705161e-002, 6.10042773e-002,
          1.12910852e-001, 3.12571794e-001, 2.05425080e-002,
          1.43547095e-002, 2.17975639e-002, 2.16405362e-001,
          3.12571794e-001, 7.29570985e-002, 2.92264074e-002,
          4.38331962e-002, 6.00973517e-002, 3.79957817e-002,
          1.02521345e-001, 1.84176818e-001, 3.12571794e-001,
          2.62348711e-001, 5.39343096e-002, 3.22298519e-002,
          4.85096462e-002, 3.12571794e-001, 9.36535746e-002,
          1.52174309e-001, 1.08683050e-001, 2.71785706e-001,
          3.35992694e-001, 3.51552516e-002, 7.16527598e-003,
          2.43397336e-002, 3.79663073e-002, 7.51707107e-002,
          6.73762113e-002, 6.65906668e-002, 3.35992694e-001,
          3.35992694e-001, 3.73232700e-002, 1.32771693e-002,
          1.72769725e-002, 3.36081795e-002, 4.17450890e-002,
          2.90165059e-002, 6.02106377e-002, 3.35992694e-001,
          3.35992694e-001, 4.44349088e-002, 1.61014665e-002,
          5.67934699e-002, 2.91630495e-002, 6.99844956e-002,
          8.53880197e-002, 1.36699259e-001, 3.35992694e-001,
          3.35992694e-001, 7.04482272e-002, 2.22627763e-002,
          1.24208136e-002, 3.39060351e-002, 7.67478421e-002,
          5.99272214e-002, 1.13718539e-001, 3.35992694e-001,
          3.05932432e-001, 3.90136577e-002, 1.60494465e-002,
          2.83792969e-002, 4.20265421e-002, 4.18656729e-002,
          3.59821208e-002, 6.51073381e-002, 3.05932432e-001,
          3.05932432e-001, 4.93409596e-002, 2.01561488e-002,
          4.17535119e-002, 7.17314184e-002, 5.74863255e-002,
          8.80339667e-002, 1.58605874e-001, 3.05932432e-001,
          3.05932432e-001, 6.75802231e-002, 3.40411775e-002,
          2.09388137e-002, 7.84009248e-002, 1.69394985e-001,
          1.35152072e-001, 1.77226052e-001, 3.05932432e-001,
          2.75179863e-001, 7.98124000e-002, 3.63967977e-002,
          6.58348054e-002, 1.78504929e-001, 1.79017007e-001,
          1.56650797e-001, 1.31599873e-001, 3.05932432e-001,
          2.20886767e-001, 5.14998697e-002, 3.17394957e-002,
          9.24599990e-002, 2.00988799e-001, 1.01529248e-001,
          1.32830754e-001, 1.90730110e-001, 2.76659966e-001,
          1.94239095e-001, 6.75585642e-002, 6.74638599e-002,
          1.21970989e-001, 3.08613271e-001, 1.64087847e-001,
          1.80799142e-001, 1.01808101e-001, 2.15257391e-001,
          6.45595193e-002, 3.43220495e-002, 2.20686682e-002,
          1.06837064e-001, 3.08613271e-001, 1.57059908e-001,
          1.11385092e-001, 9.49149579e-002, 1.22969322e-001,
          1.92483962e-001, 1.28903612e-001, 6.96206093e-002,
          1.60332352e-001, 3.08613271e-001, 1.81303963e-001,
          1.59801304e-001, 1.07009076e-001, 2.41573706e-001 ]
      - [ 1.17247246e-001, 3.22681926e-002, 8.54343623e-002,
          9.30238888e-002, 3.02659512e-001, 1.67141601e-001,
          1.20851666e-001, 1.00192986e-001, 2.55941927e-001,
          8.60543102e-002, 6.58860207e-002, 2.30865590e-002,
          7.05267340e-002, 2.54730225e-001, 1.30377755e-001,
          1.26776934e-001, 1.22193046e-001, 1.57532901e-001,
          1.25888616e-001, 7.64595419e-002, 1.38741761e-001,
          1.59848675e-001, 3.02659512e-001, 2.33687043e-001,
          1.16022095e-001, 7.01031536e-002, 2.27053121e-001,
          3.02659512e-001, 3.64896171e-002, 7.40740588e-003,
          5.03639914e-002, 3.02659512e-001, 1.44705236e-001,
          1.05967820e-001, 8.97256359e-002, 3.02659512e-001,
          2.51017243e-001, 7.00021312e-002, 1.49965053e-002,
          2.49356925e-002, 4.18174043e-002, 4.58083265e-002,
          3.98027413e-002, 8.87569711e-002, 2.38432512e-001,
          3.73229086e-001, 5.40857501e-002, 1.25181302e-002,
          5.40390331e-003, 1.75243057e-002, 1.50881372e-002,
          8.09826609e-003, 5.67363836e-002, 3.73229086e-001,
          3.73229086e-001, 4.25278917e-002, 5.45782363e-003,
          1.23118516e-002, 2.52972599e-002, 2.51685306e-002,
          2.43628398e-002, 6.50800914e-002, 3.73229086e-001,
          3.73229086e-001, 4.85796779e-002, 8.56307335e-003,
          7.21909711e-003, 2.81332135e-002, 2.38207523e-002,
          1.13188140e-002, 5.06000184e-002, 3.73229086e-001,
          2.24573329e-001, 4.18399796e-002, 1.43600684e-002,
          1.67811476e-002, 8.70248303e-002, 3.61543447e-002,
          2.04733666e-002, 4.97506335e-002, 2.10379720e-001,
          1.75517499e-001, 6.78603202e-002, 4.19174694e-002,
          1.05026565e-001, 3.15311849e-001, 1.13890760e-001,
          1.03936814e-001, 1.94175124e-001, 2.58571059e-001,
          3.15311849e-001, 4.47156951e-002, 4.09098454e-002,
          3.59484926e-002, 1.60429105e-001, 4.68629636e-002,
          1.34070292e-002, 2.43798699e-002, 3.15311849e-001,
          2.96712250e-001, 8.44654515e-002, 1.42203793e-001,
          2.36665279e-001, 3.15311849e-001, 1.65510401e-001,
          5.09481728e-002, 6.35051578e-002, 2.73534089e-001,
          1.75893873e-001, 7.83980936e-002, 9.14609283e-002,
          8.21281597e-002, 3.41128707e-001, 1.24370106e-001,
          7.50957578e-002, 5.93053997e-002, 2.40042299e-001,
          3.41128707e-001, 1.92249808e-002, 3.60768195e-003,
          8.80367402e-003, 1.02034099e-001, 6.15646765e-002,
          5.90652414e-002, 6.79333583e-002, 3.41128707e-001,
          3.41128707e-001, 4.34225984e-002, 2.06926838e-002,
          1.86892934e-002, 1.06451534e-001, 6.50644600e-002,
          5.10647967e-002, 5.46457432e-002, 3.41128707e-001,
          3.41128707e-001, 1.25542758e-002, 5.09410165e-003,
          5.49601484e-003, 8.99631437e-003, 4.21901979e-003,
          1.15353977e-002, 2.31904835e-002, 3.41128707e-001,
          3.51733565e-001, 1.76790096e-002, 5.88109624e-003,
          4.51511471e-003, 7.92194624e-003, 4.95263934e-003,
          5.81955165e-003, 2.01121178e-002, 3.51733565e-001,
          3.51733565e-001, 1.70542113e-002, 7.59605831e-003,
          7.66310003e-003, 1.18205976e-002, 7.91050494e-003,
          2.76815519e-003, 1.98449902e-002, 3.51733565e-001,
          3.51733565e-001, 1.19965002e-002, 6.21454976e-003,
          6.38194894e-003, 8.35220702e-003, 4.15228959e-003,
          4.73774318e-003, 1.18400492e-002, 3.51733565e-001,
          3.51733565e-001, 9.96074732e-003, 8.16504750e-003,
          1.37281399e-002, 1.66036747e-002, 1.13442577e-002,
          1.44522367e-002, 5.83879724e-002, 3.51733565e-001,
          3.07978332e-001, 3.07592899e-002, 3.46090831e-002,
          2.41483971e-002, 4.76137400e-002, 9.42311808e-003,
          4.80566453e-003, 2.49326341e-002, 3.07978332e-001,
          3.03639263e-001, 6.67519346e-002, 9.80445147e-002,
          1.15539305e-001, 3.07978332e-001, 6.70437291e-002,
          7.48477690e-003, 1.85369048e-002, 2.37541124e-001,
          3.07978332e-001, 1.54027436e-002, 1.27190119e-002,
          2.19510850e-002, 3.04123014e-002, 3.65880094e-002,
          6.39353916e-002, 2.09125668e-001, 3.07978332e-001,
          1.35789886e-001, 2.08281782e-002, 1.33493561e-002,
          4.67293411e-002, 3.07978332e-001, 1.53968483e-001,
          1.01579793e-001, 2.00200975e-001, 3.07978332e-001,
          3.70435208e-001, 8.41297507e-002, 2.96983123e-002,
          7.51362815e-002, 2.12211326e-001, 1.06453218e-001,
          1.10695466e-001, 1.15847982e-001, 3.70435208e-001,
          3.70435208e-001, 2.45991927e-002, 1.56792123e-002,
          4.01572138e-002, 6.30121082e-002, 3.46919000e-002,
          5.50316498e-002, 4.42639478e-002, 3.70435208e-001,
          8.69960338e-002, 4.51060459e-002, 4.39270996e-002,
          1.85942501e-001, 2.53658593e-001, 1.45551279e-001,
          6.35755360e-002, 6.37629256e-002, 1.00133650e-001,
          8.87582228e-002, 3.83265093e-002, 2.50239242e-002,
          1.13031395e-001, 2.96978414e-001, 2.17741311e-001,
          8.77025723e-002, 1.05803959e-001, 1.10123806e-001,
          4.35361207e-001, 1.44214928e-002, 9.33102518e-003,
          1.80909988e-002, 5.09088673e-002, 3.73159945e-002,
          3.57751288e-002, 4.03473042e-002, 4.35361207e-001,
          4.35361207e-001, 2.29187757e-002, 1.72864478e-002,
          5.44848852e-002, 9.58772227e-002, 6.83256015e-002,
          6.98911250e-002, 1.30215093e-001, 4.35361207e-001,
          7.37481564e-002, 2.42790040e-002, 2.44975127e-002,
          3.91122028e-002, 2.39938915e-001, 2.08318576e-001,
          9.38912854e-002, 1.15896232e-001, 1.00918218e-001,
          7.38958344e-002, 5.24761975e-002, 2.78578252e-002,
          3.96401733e-002, 1.15385108e-001, 9.46644694e-002,
          7.14147314e-002, 6.65095896e-002, 8.10385644e-002,
          2.70453751e-001, 3.02251950e-002, 1.77976023e-002,
          5.90490550e-002, 1.14724323e-001, 9.63259786e-002,
          1.05092384e-001, 2.18174160e-001, 2.82697290e-001,
          1.63762137e-001, 4.92682382e-002, 5.57334945e-002,
          1.32022560e-001, 2.82697290e-001, 2.82697290e-001,
          2.11449519e-001, 2.69450724e-001, 2.82697290e-001,
          5.82188517e-002, 3.95971574e-002, 1.57673620e-002,
          5.32838255e-002, 9.87599790e-002, 5.04515059e-002,
          6.00703172e-002, 5.55492416e-002, 6.24432489e-002,
          2.28188351e-001, 8.32206681e-002, 7.83224255e-002,
          1.21782839e-001, 2.82697290e-001, 1.48506850e-001,
          1.79362983e-001, 1.62793592e-001, 2.82697290e-001 ]
      - [ 1.92847311e-001, 4.80003506e-002, 1.00129917e-001,
          8.16507414e-002, 3.32348585e-001, 1.11271158e-001,
          4.69234809e-002, 1.06192544e-001, 1.70897037e-001,
          5.80760464e-002, 2.28090864e-002, 1.78412367e-002,
          4.31298912e-002, 2.48806626e-001, 7.13047236e-002,
          3.67704779e-002, 5.58542944e-002, 7.15336576e-002,
          1.21073529e-001, 6.22376464e-002, 1.51109606e-001,
          1.70434669e-001, 3.32348585e-001, 2.47131452e-001,
          7.14091510e-002, 1.37769669e-001, 2.33897358e-001,
          3.32348585e-001, 1.41783291e-002, 1.01495273e-002,
          4.87799533e-002, 3.32348585e-001, 1.46841794e-001,
          5.52511774e-002, 1.13685310e-001, 3.32348585e-001,
          1.16267189e-001, 4.06226777e-002, 2.84954775e-002,
          4.49731648e-002, 8.92899185e-002, 3.65741514e-002,
          4.59026247e-002, 6.72895014e-002, 1.10230923e-001,
          2.30077296e-001, 4.91993986e-002, 3.42551991e-002,
          2.22947150e-002, 9.11569968e-002, 1.29561707e-001,
          1.16434872e-001, 1.47432640e-001, 2.98129976e-001,
          4.24123734e-001, 3.33866514e-002, 1.25995772e-002,
          4.33831289e-002, 7.02865347e-002, 2.31670626e-002,
          2.34623794e-002, 4.15554680e-002, 4.24123734e-001,
          4.24123734e-001, 3.44821736e-002, 1.15793552e-002,
          2.43098624e-002, 4.78341319e-002, 5.45843393e-002,
          4.24479097e-002, 6.28485084e-002, 4.24123734e-001,
          1.23323992e-001, 1.99092012e-002, 2.11526807e-002,
          3.04061472e-002, 1.19484775e-001, 1.58593357e-001,
          9.64670181e-002, 8.29183310e-002, 1.92397237e-001,
          1.35971233e-001, 4.78391759e-002, 3.06138247e-002,
          9.56257060e-002, 2.90428966e-001, 2.90428966e-001,
          1.82644814e-001, 1.33729741e-001, 2.50623822e-001,
          2.90428966e-001, 4.44255583e-002, 3.92245315e-002,
          4.65873592e-002, 1.30245954e-001, 1.15575910e-001,
          4.37061638e-002, 3.04465275e-002, 2.90428966e-001,
          2.70458311e-001, 9.06327069e-002, 1.23606645e-001,
          2.15174839e-001, 2.90428966e-001, 2.90428966e-001,
          7.61040896e-002, 3.25766429e-002, 2.18749970e-001,
          1.36483699e-001, 4.79886830e-002, 9.51268002e-002,
          8.66172388e-002, 3.41078132e-001, 1.24807045e-001,
          4.50033955e-002, 8.41099694e-002, 2.68906564e-001,
          3.41078132e-001, 6.03972888e-003, 2.78459559e-003,
          9.20440443e-003, 9.96420160e-002, 6.37874082e-002,
          3.01420949e-002, 8.38574916e-002, 3.41078132e-001,
          3.41078132e-001, 9.35162231e-003, 1.67942401e-002,
          1.61153134e-002, 1.20156161e-001, 4.28921580e-002,
          4.27049026e-002, 4.23090793e-002, 3.41078132e-001,
          3.41078132e-001, 1.58230513e-002, 3.28849722e-003,
          1.88284053e-003, 8.37932620e-003, 8.94682296e-003,
          1.55476639e-002, 6.73677176e-002, 3.41078132e-001,
          3.50298405e-001, 1.07402848e-002, 8.24609364e-004,
          3.80360242e-003, 8.74729175e-003, 6.40538475e-003,
          5.53044071e-003, 2.28077695e-002, 3.50298405e-001,
          3.50298405e-001, 2.79963482e-002, 4.40853136e-003,
          7.82239251e-003, 9.75783914e-003, 1.51678277e-002,
          7.79543770e-003, 3.30293737e-002, 3.50298405e-001,
          3.50298405e-001, 3.85231562e-002, 2.92337569e-003,
          1.83494284e-003, 5.77217108e-003, 1.51066147e-002,
          2.29928028e-002, 6.89457804e-002, 3.50298405e-001,
          3.50298405e-001, 4.69519198e-002, 7.19625084e-003,
          9.82257351e-003, 9.64410976e-003, 1.98602080e-002,
          1.68910231e-002, 3.90277579e-002, 3.50298405e-001,
          3.03147227e-001, 5.72972186e-002, 2.71995757e-002,
          2.52512340e-002, 3.44039537e-002, 2.64614355e-002,
          1.12115145e-002, 3.04995757e-002, 3.03147227e-001,
          3.03147227e-001, 8.38330016e-002, 8.01833346e-002,
          1.30817935e-001, 3.03147227e-001, 1.05026267e-001,
          2.60472205e-002, 2.37893518e-002, 2.41505891e-001,
          3.03147227e-001, 3.49169336e-002, 7.16459984e-003,
          1.07155330e-002, 5.82113825e-002, 3.85104753e-002,
          4.28490378e-002, 5.06169237e-002, 3.03147227e-001,
          2.92329878e-001, 2.62103770e-002, 1.23108905e-002,
          6.14116490e-002, 3.03147227e-001, 1.65039092e-001,
          1.31966799e-001, 8.74026194e-002, 3.03147227e-001,
          4.64168549e-001, 1.06062405e-002, 1.14499768e-002,
          6.12571742e-003, 6.05370216e-002, 3.91283929e-002,
          5.96726537e-002, 6.57214671e-002, 4.64168549e-001,
          4.64168549e-001, 5.49267381e-002, 7.36046908e-003,
          9.20985918e-003, 4.39788848e-002, 5.78502789e-002,
          9.83331352e-002, 2.14249656e-001, 4.64168549e-001,
          6.15947470e-002, 1.46854734e-002, 1.00136241e-002,
          1.26219606e-002, 5.55449054e-002, 2.68831588e-002,
          2.21732184e-002, 2.40139440e-002, 7.66484141e-002,
          7.94394612e-002, 3.01001668e-002, 1.46647459e-002,
          3.06561440e-002, 8.39420632e-002, 6.01413511e-002,
          6.64592087e-002, 8.35445449e-002, 1.03615500e-001,
          3.24643970e-001, 7.86099061e-002, 8.42141919e-003,
          6.29721861e-003, 3.72864679e-002, 1.22789830e-001,
          1.35892361e-001, 2.14334220e-001, 3.24643970e-001,
          3.24643970e-001, 7.48173818e-002, 3.09026502e-002,
          3.19112651e-002, 4.71857563e-002, 1.47107974e-001,
          1.15373492e-001, 1.72824726e-001, 3.24643970e-001,
          3.18834893e-002, 1.85863357e-002, 1.36465840e-002,
          1.09885819e-002, 5.69363683e-002, 1.58540353e-001,
          1.42811075e-001, 1.62552327e-001, 8.19736645e-002,
          5.47927432e-002, 2.93701831e-002, 4.26393040e-002,
          4.45465408e-002, 1.17092341e-001, 3.24643970e-001,
          2.62675941e-001, 3.24643970e-001, 1.69270352e-001,
          3.12793851e-001, 2.11933441e-002, 1.52404988e-002,
          2.29030866e-002, 1.84059292e-001, 9.03893486e-002,
          6.95518553e-002, 7.24668875e-002, 3.12793851e-001,
          2.28670910e-001, 4.66939174e-002, 4.29125056e-002,
          1.05139993e-001, 3.12793851e-001, 2.77112514e-001,
          1.85408413e-001, 1.01024359e-001, 2.88574040e-001,
          4.71187383e-002, 2.67529208e-002, 2.73660049e-002,
          4.81134951e-002, 1.67037115e-001, 1.40823618e-001,
          9.71038193e-002, 1.30343661e-001, 9.16624293e-002,
          1.79821044e-001, 1.00055128e-001, 7.45183304e-002,
          1.03337191e-001, 3.12793851e-001, 1.86480686e-001,
          1.20659649e-001, 1.13085814e-001, 2.66276747e-001 ]
      - [ 1.07778184e-001, 5.13007827e-002, 1.02238156e-001,
          1.04011007e-001, 3.05979997e-001, 1.50666639e-001,
          7.35359192e-002, 1.25927955e-001, 2.25932643e-001,
          5.48987761e-002, 1.82935558e-002, 2.80068982e-002,
          3.88115644e-002, 3.05979997e-001, 1.47859320e-001,
          7.23729506e-002, 8.22595879e-002, 9.54331085e-002,
          1.21394575e-001, 5.20167276e-002, 1.52745023e-001,
          1.78244635e-001, 3.05979997e-001, 2.82130837e-001,
          1.04702055e-001, 8.75618383e-002, 1.91792816e-001,
          3.05979997e-001, 3.88180874e-002, 7.62896333e-003,
          2.89281886e-002, 3.05979997e-001, 1.69548273e-001,
          1.08048171e-001, 7.53453597e-002, 3.05979997e-001,
          6.53480068e-002, 4.33980562e-002, 3.60430814e-002,
          4.13003415e-002, 1.41801700e-001, 1.07251979e-001,
          4.41379063e-002, 5.12122177e-002, 6.20893613e-002,
          6.58773631e-002, 5.11270277e-002, 4.55819257e-002,
          6.61544055e-002, 9.89318565e-002, 9.09643173e-002,
          2.09459607e-002, 5.78663759e-002, 6.42984882e-002,
          4.32160527e-001, 1.70452073e-001, 2.01284885e-002,
          2.18509492e-002, 8.39471221e-002, 6.06525838e-002,
          5.50711714e-002, 1.26903296e-001, 4.32160527e-001,
          4.32160527e-001, 1.47706598e-001, 2.43168753e-002,
          1.65132862e-002, 7.11955205e-002, 8.69883969e-002,
          3.02289948e-002, 2.53012002e-001, 4.32160527e-001,
          2.64555905e-002, 3.12327296e-002, 5.94025217e-002,
          7.27562830e-002, 1.25428230e-001, 4.02295999e-002,
          1.57178137e-002, 8.96965899e-003, 1.82370543e-002,
          1.69272587e-001, 1.12199984e-001, 1.91721976e-001,
          1.74468651e-001, 3.36877912e-001, 9.19160768e-002,
          4.36506830e-002, 5.76752722e-002, 1.64488867e-001,
          3.36877912e-001, 4.76253070e-002, 6.44856766e-002,
          5.75380959e-002, 2.04961747e-001, 3.94738764e-002,
          1.71090290e-002, 3.69508080e-002, 3.36877912e-001,
          3.36877912e-001, 1.18319392e-001, 2.19991788e-001,
          2.38225654e-001, 3.36877912e-001, 1.33003280e-001,
          3.00310198e-002, 3.12987901e-002, 2.40489155e-001,
          1.78126931e-001, 4.34706584e-002, 1.28632233e-001,
          1.28948152e-001, 3.20756674e-001, 1.60748839e-001,
          7.25574344e-002, 6.13024421e-002, 2.37854034e-001,
          3.20756674e-001, 3.51725332e-002, 5.09204715e-003,
          1.49323028e-002, 1.11178994e-001, 7.92748779e-002,
          6.50322884e-002, 6.26238212e-002, 3.20756674e-001,
          3.20756674e-001, 1.80363338e-002, 2.62603834e-002,
          3.41553800e-002, 1.09539807e-001, 6.65856823e-002,
          6.32740483e-002, 1.40954837e-001, 3.20756674e-001,
          3.20756674e-001, 1.23726636e-001, 3.74595635e-002,
          1.83150955e-002, 1.73779540e-002, 2.29359344e-002,
          5.70603795e-002, 1.62701905e-001, 3.20756674e-001,
          3.45773667e-001, 6.04268871e-002, 4.82980954e-003,
          1.01886466e-002, 1.84548553e-002, 5.40785026e-003,
          6.99984608e-003, 3.98141108e-002, 3.45773667e-001,
          3.45773667e-001, 4.80695739e-002, 1.19305365e-002,
          2.21501347e-002, 2.27777641e-002, 1.44793103e-002,
          1.25680882e-002, 7.60843009e-002, 3.45773667e-001,
          3.45773667e-001, 9.24874470e-002, 3.83363217e-002,
          1.91931017e-002, 2.22670808e-002, 1.24034844e-002,
          1.65744890e-002, 5.57269566e-002, 3.45773667e-001,
          3.45773667e-001, 4.09253053e-002, 1.96648985e-002,
          2.95007266e-002, 3.16162705e-002, 1.48055460e-002,
          2.81301104e-002, 7.28326440e-002, 3.45773667e-001,
          3.05794060e-001, 3.60214859e-002, 3.84927280e-002,
          2.93325987e-002, 5.25051355e-002, 1.51423840e-002,
          2.20795106e-002, 2.91174967e-002, 3.05794060e-001,
          3.05794060e-001, 7.50696957e-002, 1.09282695e-001,
          9.04311761e-002, 3.05794060e-001, 7.56487027e-002,
          1.78854819e-002, 1.26662739e-002, 2.56140977e-001,
          3.05794060e-001, 5.36556318e-002, 2.43346412e-002,
          3.49738784e-002, 5.74707165e-002, 3.41204070e-002,
          6.90495819e-002, 1.11292534e-001, 3.05794060e-001,
          2.20370144e-001, 5.33684678e-002, 3.67107727e-002,
          1.46421537e-001, 3.05794060e-001, 1.52036652e-001,
          1.15170293e-001, 8.02714378e-002, 3.05794060e-001,
          2.87996441e-001, 3.15933079e-002, 8.97246599e-003,
          3.31222527e-002, 6.10857159e-002, 6.05362840e-002,
          9.05706733e-002, 1.79908857e-001, 2.87996441e-001,
          2.87996441e-001, 1.45998538e-001, 5.77332452e-002,
          2.81694867e-002, 5.49364910e-002, 9.59134176e-002,
          1.46940887e-001, 2.72071600e-001, 2.87996441e-001,
          1.23399638e-001, 4.75042351e-002, 2.40855608e-002,
          7.88957700e-002, 1.96574047e-001, 2.00691253e-001,
          1.37217253e-001, 1.68561399e-001, 1.09959766e-001,
          1.48244560e-001, 4.35047187e-002, 1.57251880e-002,
          6.92111701e-002, 1.81091264e-001, 2.87996441e-001,
          2.28454456e-001, 2.87996441e-001, 1.99053809e-001,
          3.25142592e-001, 1.06393941e-001, 8.15199241e-002,
          3.51987034e-002, 9.52207148e-002, 6.21876456e-002,
          7.82083422e-002, 1.21391535e-001, 3.25142592e-001,
          3.25142592e-001, 6.43017963e-002, 9.52579677e-002,
          7.56267086e-002, 1.82844147e-001, 4.33832444e-002,
          6.63454756e-002, 1.40973642e-001, 3.25142592e-001,
          1.36187121e-001, 9.88481194e-003, 3.38680670e-002,
          6.48365915e-002, 2.81071216e-001, 1.59335747e-001,
          1.06484324e-001, 1.48102254e-001, 1.65164992e-001,
          1.10544533e-001, 3.28986123e-002, 1.45374358e-001,
          1.89625844e-001, 3.25142592e-001, 1.20225027e-001,
          8.49141032e-002, 1.33356214e-001, 1.94614068e-001,
          2.77851582e-001, 5.81340790e-002, 5.55511340e-002,
          6.52983114e-002, 1.71002254e-001, 9.80378315e-002,
          8.79744887e-002, 1.31931663e-001, 2.77851582e-001,
          1.20357543e-001, 5.15229292e-002, 3.97602022e-002,
          2.12626860e-001, 2.77851582e-001, 2.77851582e-001,
          1.94702551e-001, 1.38309360e-001, 2.77851582e-001,
          3.93506736e-002, 2.91822106e-002, 8.05138648e-002,
          1.01602048e-001, 2.77851582e-001, 1.23579159e-001,
          7.61375725e-002, 7.33553693e-002, 9.40971822e-002,
          6.11758046e-002, 5.02425693e-002, 4.27665263e-002,
          1.15553744e-001, 2.77851582e-001, 2.77851582e-001,
          1.91734836e-001, 1.82753295e-001, 1.94407985e-001 ]
      - [ 8.92658606e-002, 1.58059075e-001, 9.73521098e-002,
          1.38855487e-001, 2.61249870e-001, 1.51786044e-001,
          1.17052659e-001, 1.02005377e-001, 7.37429634e-002,
          3.95082831e-002, 4.02268618e-002, 1.18865753e-002,
          5.96177652e-002, 2.16521204e-001, 2.15958878e-001,
          2.55847454e-001, 1.46616697e-001, 1.28687724e-001,
          1.24751255e-001, 8.91936570e-002, 1.61091059e-001,
          2.59305328e-001, 2.61249870e-001, 1.86288759e-001,
          8.62926915e-002, 8.78198072e-002, 1.07272714e-001,
          2.61249870e-001, 6.52355552e-002, 2.17190366e-002,
          1.25007331e-001, 2.61249870e-001, 1.89469457e-001,
          2.00488552e-001, 2.51800567e-001, 2.61249870e-001,
          3.85975502e-002, 1.83551125e-002, 2.05645636e-002,
          4.28107306e-002, 1.26952961e-001, 1.77542642e-001,
          2.59998709e-001, 1.71876639e-001, 1.54447556e-001,
          6.14343695e-002, 3.18359360e-002, 5.34391887e-002,
          8.64911154e-002, 1.09273270e-001, 6.65800646e-002,
          8.41923431e-002, 8.57151598e-002, 1.05246723e-001,
          3.10893476e-001, 1.57265157e-001, 2.92480122e-002,
          4.43571620e-002, 9.29121524e-002, 1.84235007e-001,
          2.99802244e-001, 3.10893476e-001, 3.10893476e-001,
          3.10893476e-001, 1.48924470e-001, 3.51793021e-002,
          3.42706703e-002, 5.85566647e-002, 6.62661940e-002,
          1.47584230e-001, 2.63989329e-001, 3.10893476e-001,
          4.40780073e-002, 3.59688550e-002, 5.08915409e-002,
          7.74490833e-002, 1.34579092e-001, 4.26300019e-002,
          3.69124189e-002, 2.49771271e-002, 4.13195156e-002,
          1.90348715e-001, 1.06235132e-001, 1.54353261e-001,
          1.46793827e-001, 3.36458653e-001, 1.01570204e-001,
          6.74088895e-002, 6.73872307e-002, 1.66917711e-001,
          3.36458653e-001, 1.33534521e-001, 7.04335123e-002,
          5.80141954e-002, 1.97379321e-001, 4.33721878e-002,
          3.40122692e-002, 8.53747725e-002, 3.36458653e-001,
          2.66851723e-001, 1.46839783e-001, 2.04201907e-001,
          2.32323736e-001, 3.36458653e-001, 1.42588511e-001,
          4.75230031e-002, 8.36732462e-002, 2.73384333e-001,
          1.80999711e-001, 7.53466636e-002, 1.45612434e-001,
          2.12050959e-001, 3.09705406e-001, 8.67029652e-002,
          5.48021309e-002, 6.47696778e-002, 1.62290603e-001,
          3.09705406e-001, 6.57498091e-002, 1.78519264e-002,
          6.42785281e-002, 1.17222987e-001, 4.27642614e-002,
          7.79130086e-002, 1.55452013e-001, 3.09705406e-001,
          3.09705406e-001, 1.60060793e-001, 6.44403249e-002,
          1.19794160e-001, 1.14370234e-001, 5.51710315e-002,
          6.41337931e-002, 1.04354337e-001, 3.09705406e-001,
          3.09705406e-001, 1.45019352e-001, 5.10316230e-002,
          5.55981360e-002, 7.45336786e-002, 4.60550822e-002,
          7.26937503e-002, 1.01521820e-001, 3.09705406e-001,
          3.37554067e-001, 8.04736316e-002, 1.20813353e-002,
          1.46116056e-002, 8.86600278e-003, 1.71694178e-002,
          4.64592651e-002, 1.29601210e-001, 3.37554067e-001,
          3.37554067e-001, 7.40005374e-002, 7.41373049e-003,
          1.31184850e-002, 7.86390807e-003, 6.82128454e-003,
          2.96711680e-002, 1.10450000e-001, 3.37554067e-001,
          3.37554067e-001, 8.38415697e-002, 4.28448357e-002,
          2.31970008e-002, 5.47308624e-002, 2.72907428e-002,
          4.01495919e-002, 6.42817840e-002, 3.37554067e-001,
          3.37554067e-001, 5.59765995e-002, 1.91399753e-002,
          1.88990217e-002, 2.18762625e-002, 9.93370544e-003,
          2.90115830e-002, 1.25965580e-001, 3.37554067e-001,
          3.09695154e-001, 9.66225266e-002, 3.09311077e-002,
          1.87365562e-002, 4.30313125e-002, 7.77494535e-003,
          1.57837160e-002, 7.34274760e-002, 3.09695154e-001,
          2.70499676e-001, 1.11290500e-001, 9.37728956e-002,
          9.70235318e-002, 3.09695154e-001, 4.09147330e-002,
          1.94968507e-002, 4.87937033e-002, 2.27250651e-001,
          3.09695154e-001, 7.72799477e-002, 3.77060310e-003,
          2.83619985e-002, 4.93404679e-002, 1.81661118e-002,
          6.94438666e-002, 1.66009992e-001, 3.09695154e-001,
          2.91966915e-001, 8.21600184e-002, 1.04973549e-002,
          9.67338383e-002, 3.09695154e-001, 7.88380355e-002,
          1.16569377e-001, 6.41366020e-002, 2.75834918e-001,
          3.16759080e-001, 2.05041781e-001, 8.04118589e-002,
          9.73304808e-002, 1.07429020e-001, 1.02901518e-001,
          9.70526934e-002, 1.81663841e-001, 3.16759080e-001,
          3.16759080e-001, 2.11216480e-001, 1.19718485e-001,
          1.16028681e-001, 2.67608672e-001, 1.62724808e-001,
          1.72177896e-001, 1.96018055e-001, 3.16759080e-001,
          1.56944305e-001, 6.46266937e-002, 4.99568954e-002,
          5.60636446e-002, 9.66924727e-002, 6.92852139e-002,
          2.62072179e-002, 7.33641610e-002, 1.62836000e-001,
          1.87843263e-001, 8.32938924e-002, 7.46015012e-002,
          6.01720661e-002, 1.88167185e-001, 1.00653335e-001,
          6.56175539e-002, 1.05389282e-001, 2.02106372e-001,
          3.54528934e-001, 1.85913071e-001, 1.45495400e-001,
          1.11112721e-001, 2.74936914e-001, 1.34012625e-001,
          1.47151738e-001, 1.50533736e-001, 3.54528934e-001,
          3.54528934e-001, 1.14522323e-001, 7.67757297e-002,
          8.27199221e-002, 1.22578032e-001, 5.42593747e-002,
          1.01221710e-001, 2.32765973e-001, 3.54528934e-001,
          1.57322109e-001, 7.77434483e-002, 7.34074488e-002,
          6.82090074e-002, 1.69937208e-001, 8.34043175e-002,
          7.32663795e-002, 7.66015053e-002, 1.45959914e-001,
          1.28564626e-001, 6.53720051e-002, 5.34078069e-002,
          8.46790224e-002, 1.31874621e-001, 7.90816247e-002,
          5.50792217e-002, 4.31513377e-002, 1.04540050e-001,
          2.72817433e-001, 6.64146096e-002, 1.37368329e-002,
          7.30959773e-002, 1.98833123e-001, 6.12174869e-002,
          8.39024931e-002, 1.61999643e-001, 3.04827869e-001,
          2.71257013e-001, 9.11004022e-002, 4.44983542e-002,
          2.39852414e-001, 3.04827869e-001, 1.51191741e-001,
          1.35420144e-001, 9.54393968e-002, 2.43005246e-001,
          3.77295166e-002, 3.75808142e-002, 3.10874153e-002,
          6.33686930e-002, 2.29362950e-001, 8.77110586e-002,
          3.27511914e-002, 5.61703965e-002, 5.02789393e-002,
          2.85440296e-001, 1.26884475e-001, 9.33531895e-002,
          1.53609291e-001, 3.04827869e-001, 1.92957729e-001,
          9.38366205e-002, 1.40670091e-001, 1.89533442e-001 ]
      - [ 1.00935318e-001, 2.06408605e-001, 2.42035538e-001,
          3.11744541e-001, 3.11744541e-001, 1.37854621e-001,
          5.80708086e-002, 1.08219430e-001, 1.87835798e-001,
          3.89162078e-002, 7.30712712e-002, 6.36431202e-002,
          1.24815717e-001, 2.76549965e-001, 1.04032174e-001,
          6.74352422e-002, 8.18310902e-002, 1.02588333e-001,
          3.97398435e-002, 1.91130176e-001, 2.42668718e-001,
          3.11744541e-001, 3.11744541e-001, 1.64160177e-001,
          2.68151890e-002, 3.38567235e-002, 4.22991998e-002,
          3.27198431e-002, 8.05203021e-002, 8.81357789e-002,
          1.46597132e-001, 3.11744541e-001, 1.18923888e-001,
          6.35802820e-002, 9.34902355e-002, 5.76585867e-002,
          4.35893983e-002, 5.77983372e-002, 3.22829783e-002,
          4.09699231e-002, 1.62752181e-001, 8.47409889e-002,
          4.68347929e-002, 6.22175150e-002, 8.32438394e-002,
          2.10003611e-002, 1.54514909e-001, 3.71724486e-001,
          1.57293633e-001, 1.27361178e-001, 9.63588133e-002,
          3.62187177e-002, 4.81210425e-002, 5.63345738e-002,
          3.43443081e-002, 1.18855670e-001, 2.64932871e-001,
          1.19910553e-001, 1.39159143e-001, 1.65204942e-001,
          7.54555613e-002, 1.20142505e-001, 9.42493677e-002,
          5.53363003e-002, 4.03337210e-001, 4.03337210e-001,
          4.03337210e-001, 1.16523474e-001, 1.52192459e-001,
          4.12236676e-002, 5.60237840e-002, 1.16520457e-001,
          5.58903180e-002, 1.85353339e-001, 2.79132336e-001,
          1.77385449e-001, 4.29721586e-002, 2.25128587e-002,
          9.47534014e-003, 1.45616597e-002, 3.15303057e-002,
          2.46101707e-001, 1.90565333e-001, 2.38277525e-001,
          1.63751304e-001, 1.96755901e-001, 7.59277269e-002,
          3.64363268e-002, 5.69289997e-002, 2.34957278e-001,
          6.21706285e-002, 2.79132336e-001, 2.79132336e-001,
          2.79132336e-001, 8.52748826e-002, 5.17115481e-002,
          1.62627753e-002, 2.53078584e-002, 4.22483906e-002,
          1.05391152e-001, 2.35045344e-001, 2.79132336e-001,
          2.26405486e-001, 2.79132336e-001, 1.57455638e-001,
          5.36234863e-002, 7.64199644e-002, 6.91511407e-002,
          1.24753751e-002, 2.89271735e-002, 4.69577350e-002,
          1.62920550e-001, 3.06886584e-001, 1.50919467e-001,
          5.11321872e-002, 3.59636545e-002, 1.37144132e-002,
          3.16019990e-002, 5.58324046e-002, 9.22432169e-002,
          9.92682651e-002, 2.92068034e-001, 1.38219148e-001,
          6.65751472e-002, 1.05720080e-001, 4.07385044e-002,
          5.87406605e-002, 9.85667016e-003, 1.34979235e-002,
          1.11421287e-001, 3.06886584e-001, 3.01570058e-001,
          3.06886584e-001, 1.19621404e-001, 1.21183194e-001,
          1.69223636e-001, 1.38214514e-001, 2.62298554e-001,
          1.65437207e-001, 2.44234636e-001, 1.88863665e-001,
          2.35904038e-001, 1.44696847e-001, 2.48445123e-001,
          1.83930825e-002, 1.15313508e-001, 3.13909590e-001,
          1.05660155e-001, 5.71974590e-002, 6.29062280e-002,
          2.55395267e-002, 4.33305427e-002, 2.18924209e-002,
          1.95210483e-002, 3.04813266e-001, 3.13909590e-001,
          3.13909590e-001, 3.56372967e-002, 3.24078426e-002,
          1.52435685e-002, 8.95929709e-003, 1.39870914e-002,
          6.51904419e-002, 2.90747255e-001, 3.13909590e-001,
          2.44378984e-001, 8.70733708e-002, 5.14201447e-002,
          4.13455889e-002, 4.79299724e-002, 6.40525073e-002,
          4.73478548e-002, 3.13909590e-001, 3.13909590e-001,
          3.13909590e-001, 6.30068481e-002, 3.63112651e-002,
          1.91251580e-002, 2.84644756e-002, 1.96067225e-002,
          2.88186576e-002, 2.57750958e-001, 3.41444820e-001,
          2.94434309e-001, 1.39085665e-001, 4.12793979e-002,
          1.27673680e-002, 8.23866297e-003, 1.25547322e-002,
          3.22275162e-002, 1.31364584e-001, 2.34046057e-001,
          1.79074466e-001, 3.41444820e-001, 1.31162032e-001,
          2.08399370e-002, 2.12797821e-002, 1.31231351e-002,
          3.60483788e-002, 2.07563996e-001, 3.41444820e-001,
          2.65860647e-001, 2.32131138e-001, 6.37713820e-002,
          2.17423085e-002, 3.12164426e-002, 2.92244535e-002,
          1.16205765e-002, 3.63855846e-002, 8.39937702e-002,
          1.51507318e-001, 3.41444820e-001, 1.55285835e-001,
          1.18266251e-002, 1.38961701e-002, 1.48331188e-002,
          1.04892634e-001, 2.26490200e-002, 1.67896710e-002,
          4.69484851e-002, 1.48951828e-001, 2.45920584e-001,
          2.45920584e-001, 1.62057012e-001, 1.92548648e-001,
          2.45920584e-001, 1.26140758e-001, 2.34626174e-001,
          1.40855491e-001, 7.90138766e-002, 1.01987496e-001,
          1.50739923e-001, 8.74680355e-002, 2.45920584e-001,
          2.45920584e-001, 2.65158284e-002, 2.38834824e-002,
          2.91706994e-002, 6.63838759e-002, 2.45920584e-001,
          2.45920584e-001, 2.04434171e-001, 2.45920584e-001,
          2.45920584e-001, 1.74108207e-001, 1.98608711e-001,
          1.30112782e-001, 4.27486412e-002, 8.08732286e-002,
          9.49508399e-002, 5.50623946e-002, 2.45920584e-001,
          1.57313302e-001, 2.52137333e-001, 2.52137333e-001,
          2.52137333e-001, 6.42935112e-002, 4.39840332e-002,
          3.98213193e-002, 3.08932792e-002, 1.26087263e-001,
          1.54742911e-001, 2.52137333e-001, 2.52137333e-001,
          2.52137333e-001, 7.08099455e-002, 6.83306679e-002,
          3.03709693e-002, 5.37664294e-002, 1.29690781e-001,
          2.47740388e-001, 2.52137333e-001, 2.52137333e-001,
          2.30975345e-001, 5.22571616e-002, 9.16688144e-002,
          1.28982246e-001, 2.97208726e-002, 1.43896773e-001,
          2.52137333e-001, 1.67617947e-001, 1.48311123e-001,
          1.34543836e-001, 6.38245940e-002, 9.28941891e-002,
          1.05067037e-001, 4.70296852e-002, 2.52137333e-001,
          1.50623769e-001, 1.49032146e-001, 1.33268222e-001,
          1.60193712e-001, 2.55308360e-001, 7.62842447e-002,
          3.03199962e-002, 6.59236982e-002, 1.38998628e-001,
          7.55246654e-002, 5.43316416e-002, 5.57377711e-002,
          1.70056283e-001, 3.30985606e-001, 1.48759618e-001,
          2.51009781e-002, 3.15426849e-002, 7.11306036e-002,
          3.30985606e-001, 1.02072060e-001, 5.35028316e-002,
          6.13798089e-002, 1.03062503e-001, 3.38159725e-002,
          1.92019679e-002, 6.35789260e-002, 3.30985606e-001,
          3.14165443e-001, 1.00606956e-001, 7.89615512e-002,
          1.40024319e-001, 3.30985606e-001, 9.77202207e-002,
          5.08524068e-002, 1.24531776e-001, 3.30985606e-001 ]
      - [ 1.80252522e-001, 1.12234309e-001, 2.92791396e-001,
          2.92791396e-001, 2.92791396e-001, 1.70364037e-001,
          4.62563746e-002, 9.42934230e-002, 1.58892453e-001,
          5.82678914e-002, 3.87924090e-002, 9.83574390e-002,
          1.12590306e-001, 2.92791396e-001, 1.55609667e-001,
          4.64356020e-002, 6.95277229e-002, 1.00933053e-001,
          1.64057147e-002, 8.91226903e-002, 2.92791396e-001,
          2.92791396e-001, 2.92791396e-001, 2.65751123e-001,
          1.09099776e-001, 2.81937849e-002, 3.43309380e-002,
          1.91181302e-002, 5.03843240e-002, 1.20577708e-001,
          1.30259737e-001, 2.45442942e-001, 1.40691370e-001,
          8.13056678e-002, 4.78215255e-002, 4.35671397e-002,
          6.83978051e-002, 5.48365340e-002, 4.20398563e-002,
          7.82737881e-002, 1.63227454e-001, 9.03149247e-002,
          2.64539979e-002, 4.25903387e-002, 1.03873663e-001,
          6.44072443e-002, 2.35606417e-001, 3.48608911e-001,
          2.30595514e-001, 1.21530741e-001, 3.74788940e-002,
          2.63311248e-002, 2.68717259e-002, 7.24558756e-002,
          3.22308131e-002, 1.05201900e-001, 3.11272979e-001,
          1.65835872e-001, 1.15808561e-001, 4.76247221e-002,
          2.80594919e-002, 4.87015843e-002, 5.16855046e-002,
          6.71128929e-002, 4.04864460e-001, 4.04864460e-001,
          4.04864460e-001, 1.32232800e-001, 3.68919559e-002,
          2.02024952e-002, 2.23458093e-002, 3.25400569e-002,
          5.13283536e-002, 2.16548398e-001, 2.75311202e-001,
          1.92648515e-001, 3.57499868e-002, 1.65286753e-002,
          9.28061921e-003, 1.71338543e-002, 3.13303880e-002,
          2.23376691e-001, 2.12793916e-001, 2.75311202e-001,
          1.50935918e-001, 1.99805051e-001, 7.57789239e-002,
          3.12497765e-002, 6.97288588e-002, 1.87689409e-001,
          5.87663986e-002, 2.75311202e-001, 2.75311202e-001,
          2.75311202e-001, 7.92210400e-002, 3.95797454e-002,
          1.37188053e-002, 2.37486456e-002, 2.33411845e-002,
          1.10344209e-001, 2.50327528e-001, 2.75311202e-001,
          2.40011975e-001, 2.75311202e-001, 1.32223904e-001,
          4.04869355e-002, 7.22418427e-002, 5.52365705e-002,
          6.92573562e-003, 3.71557139e-002, 6.76574111e-002,
          2.29444563e-001, 2.71405458e-001, 2.71405458e-001,
          1.34618014e-001, 4.49802876e-002, 1.54285552e-002,
          9.56782605e-003, 5.75698279e-002, 9.94793847e-002,
          1.11193709e-001, 1.55070886e-001, 1.57894626e-001,
          1.20815791e-001, 4.25984561e-002, 2.17235722e-002,
          1.09247498e-001, 4.16013636e-002, 3.48617174e-002,
          1.35228798e-001, 2.71405458e-001, 2.71405458e-001,
          2.71405458e-001, 2.43671432e-001, 7.67229050e-002,
          2.23217294e-001, 2.28330374e-001, 2.71405458e-001,
          2.05867887e-001, 1.48891598e-001, 1.76738277e-001,
          2.05946296e-001, 1.82285964e-001, 1.13762327e-001,
          7.28462962e-003, 1.09230123e-001, 3.12620938e-001,
          1.31459221e-001, 2.56716572e-002, 1.68997385e-002,
          1.51810721e-002, 1.24247884e-002, 9.94979031e-003,
          9.14516300e-003, 3.12620938e-001, 3.12620938e-001,
          3.03806871e-001, 3.10531594e-002, 8.90105776e-003,
          6.65901694e-003, 1.49365943e-002, 5.08413929e-003,
          5.88893406e-002, 3.12620938e-001, 3.12620938e-001,
          2.79800475e-001, 2.60644276e-002, 3.07368767e-002,
          3.88363153e-002, 3.46073285e-002, 2.66726911e-002,
          2.17166264e-002, 3.12620938e-001, 3.12620938e-001,
          3.12620938e-001, 4.80084568e-002, 1.90845653e-002,
          1.25392023e-002, 2.22390667e-002, 4.23242943e-003,
          1.95335485e-002, 3.03113312e-001, 3.53787929e-001,
          2.69641221e-001, 1.41228914e-001, 4.09059264e-002,
          1.18784709e-002, 1.41076231e-002, 7.23455613e-003,
          3.07035036e-002, 1.46986559e-001, 1.97495624e-001,
          1.62376866e-001, 3.53787929e-001, 1.13403164e-001,
          2.54493579e-002, 2.36634109e-002, 8.95788800e-003,
          1.29904263e-002, 2.11323977e-001, 3.53787929e-001,
          2.35257894e-001, 1.97372407e-001, 3.49014252e-002,
          1.14569655e-002, 1.77747775e-002, 5.95723093e-003,
          2.91194092e-003, 4.17707153e-002, 1.37004033e-001,
          1.98832870e-001, 3.53787929e-001, 7.52508640e-002,
          1.10673839e-002, 8.81758332e-003, 2.76126689e-003,
          1.59642071e-001, 3.65167782e-002, 1.74740236e-002,
          8.55162516e-002, 1.91392317e-001, 2.34387919e-001,
          2.32382208e-001, 2.36267671e-001, 1.30642936e-001,
          2.36267671e-001, 1.77496448e-001, 2.36267671e-001,
          1.61497742e-001, 4.87276763e-002, 8.61981139e-002,
          1.11166805e-001, 1.61975026e-001, 1.84376702e-001,
          1.80686831e-001, 3.75482254e-002, 2.15462837e-002,
          6.61163926e-002, 8.69690776e-002, 1.29476398e-001,
          2.33619317e-001, 2.36267671e-001, 2.36267671e-001,
          2.36267671e-001, 1.72868580e-001, 2.36267671e-001,
          1.57826617e-001, 6.05854988e-002, 4.97794561e-002,
          1.19325720e-001, 1.45002484e-001, 2.36267671e-001,
          1.37821794e-001, 2.99024910e-001, 2.99024910e-001,
          2.99024910e-001, 3.98100950e-002, 3.17960531e-002,
          3.77512127e-002, 5.17539494e-002, 7.49662146e-002,
          3.51174101e-002, 2.99024910e-001, 2.99024910e-001,
          2.99024910e-001, 8.25622752e-002, 2.09140293e-002,
          1.17853424e-002, 2.15155780e-002, 1.58690959e-002,
          1.68762013e-001, 2.62376517e-001, 2.99024910e-001,
          2.99024910e-001, 8.26235935e-002, 5.76673485e-002,
          1.32614136e-001, 6.42193258e-002, 1.14766315e-001,
          1.86199602e-002, 1.18575126e-001, 2.03141123e-001,
          1.37829527e-001, 1.15473114e-001, 6.38030544e-002,
          5.73638119e-002, 3.76679674e-002, 4.34644260e-002,
          2.02191938e-002, 1.11180723e-001, 2.06276745e-001,
          2.26087630e-001, 2.95049280e-001, 5.00891060e-002,
          6.74011884e-003, 1.87791549e-002, 1.51808001e-002,
          1.82642378e-002, 1.93856079e-002, 1.47590727e-001,
          3.64362538e-001, 3.64362538e-001, 1.37565777e-001,
          1.01325782e-002, 1.69950761e-002, 1.20958006e-002,
          1.07212318e-002, 2.15497930e-002, 2.82473024e-002,
          9.48249251e-002, 3.64362538e-001, 1.05323046e-001,
          2.90411003e-002, 3.72677371e-002, 3.74046080e-002,
          2.09020168e-001, 1.21672891e-001, 8.75099748e-002,
          2.05426976e-001, 3.64362538e-001, 2.24959776e-001,
          6.65866584e-002, 1.25483856e-001, 1.50018007e-001 ]
      - [ 1.03442095e-001, 1.98419988e-001, 2.43593156e-001,
          2.46958122e-001, 2.67619222e-001, 2.67619222e-001,
          5.68664744e-002, 8.98947790e-002, 1.76305935e-001,
          7.16629401e-002, 1.06395662e-001, 1.32560328e-001,
          1.00066461e-001, 2.66879171e-001, 1.96975455e-001,
          6.41430989e-002, 6.94818050e-002, 1.37856051e-001,
          3.35525349e-002, 1.96715489e-001, 2.67619222e-001,
          2.67619222e-001, 2.67619222e-001, 2.30505109e-001,
          1.96607932e-002, 1.85660236e-002, 4.24202569e-002,
          5.36367148e-002, 8.38538408e-002, 1.27257749e-001,
          1.22151889e-001, 2.66868591e-001, 1.49710789e-001,
          5.96585386e-002, 5.29665239e-002, 8.89482871e-002,
          2.00470299e-001, 7.17796013e-002, 7.61007965e-002,
          7.32732937e-002, 1.96773514e-001, 1.10113204e-001,
          8.25467557e-002, 8.89117122e-002, 2.25326046e-001,
          2.08876029e-001, 1.57343417e-001, 2.22934023e-001,
          1.17263421e-001, 1.15389489e-001, 1.09413691e-001,
          8.70182812e-002, 7.76699632e-002, 1.63920000e-001,
          1.70549691e-001, 6.85170293e-002, 1.58646226e-001,
          1.04342192e-001, 1.74174666e-001, 1.69426680e-001,
          1.03972234e-001, 1.44427955e-001, 2.50247777e-001,
          2.36164421e-001, 2.56871551e-001, 2.56871551e-001,
          2.56871551e-001, 1.64683029e-001, 1.90816343e-001,
          1.04044951e-001, 1.27070248e-001, 2.44129702e-001,
          8.99525583e-002, 2.15340242e-001, 2.69535750e-001,
          1.63501471e-001, 2.87619140e-002, 2.46498734e-002,
          1.75812244e-002, 1.49462875e-002, 3.82549800e-002,
          2.49170929e-001, 1.98420614e-001, 2.69535750e-001,
          1.58520460e-001, 2.11749643e-001, 5.51903695e-002,
          4.51495238e-002, 5.74820116e-002, 2.21196041e-001,
          1.02413833e-001, 2.69535750e-001, 2.69535750e-001,
          2.69535750e-001, 6.03528991e-002, 6.51798546e-002,
          2.83362269e-002, 3.03901359e-002, 5.03110886e-002,
          1.49149433e-001, 1.62376627e-001, 2.69535750e-001,
          2.69535750e-001, 2.69535750e-001, 1.52699232e-001,
          3.01419925e-002, 6.13590293e-002, 5.91995381e-002,
          1.39360130e-002, 3.08575518e-002, 4.48069721e-002,
          2.37612978e-001, 3.00802261e-001, 2.40874648e-001,
          4.63918000e-002, 2.84237415e-002, 1.51774641e-002,
          1.57980844e-002, 3.27088088e-002, 1.35842428e-001,
          9.17050317e-002, 1.75279871e-001, 1.15021124e-001,
          5.70409745e-002, 3.26999873e-002, 3.01259588e-002,
          7.93516934e-002, 9.88441426e-003, 6.94967667e-003,
          1.30450785e-001, 3.00802261e-001, 3.00802261e-001,
          3.00802261e-001, 2.55374789e-001, 1.16662756e-001,
          2.10950196e-001, 1.38375446e-001, 3.00802261e-001,
          2.10311487e-001, 1.23620085e-001, 1.83377102e-001,
          1.39409453e-001, 1.27262592e-001, 2.27350086e-001,
          2.04209834e-002, 9.49719399e-002, 3.25282574e-001,
          9.64656249e-002, 2.23615561e-002, 3.51914316e-002,
          2.02165432e-002, 2.91151516e-002, 3.79325487e-002,
          3.94325964e-002, 2.92904407e-001, 3.25282574e-001,
          3.10027868e-001, 3.34310047e-002, 4.34991755e-002,
          2.28205528e-002, 2.51181927e-002, 4.22064848e-002,
          5.97415678e-002, 2.48356789e-001, 3.25282574e-001,
          2.75369316e-001, 2.11608838e-002, 3.16654369e-002,
          9.51727293e-003, 1.79770738e-002, 5.99543825e-002,
          2.45159324e-002, 3.25282574e-001, 3.25282574e-001,
          3.25282574e-001, 2.87160072e-002, 2.37537920e-002,
          1.65823195e-002, 1.59608815e-002, 1.60225164e-002,
          5.35843223e-002, 2.83871472e-001, 2.98460335e-001,
          2.98460335e-001, 7.45805427e-002, 7.13391528e-002,
          4.58479933e-002, 1.97770298e-002, 2.14826763e-002,
          6.91812709e-002, 9.91348401e-002, 1.87722802e-001,
          2.68135697e-001, 2.98460335e-001, 2.23490566e-001,
          6.10390380e-002, 3.21274176e-002, 2.86306366e-002,
          3.34995613e-002, 2.31870085e-001, 2.98460335e-001,
          2.15496957e-001, 1.46334320e-001, 1.14916027e-001,
          5.93048483e-002, 2.67643183e-002, 9.06316191e-003,
          2.32090112e-002, 4.05606292e-002, 5.34376092e-002,
          1.92667529e-001, 2.98460335e-001, 2.98460335e-001,
          7.10137710e-002, 2.40783654e-002, 1.29232649e-002,
          1.12013265e-001, 9.20795184e-003, 1.61364432e-002,
          3.97664048e-002, 2.40596920e-001, 2.42271811e-001,
          2.42271811e-001, 2.20936462e-001, 1.55217975e-001,
          2.42271811e-001, 1.28946185e-001, 2.42271811e-001,
          1.44432843e-001, 3.96797843e-002, 1.01541542e-001,
          8.86461064e-002, 9.36979130e-002, 2.42271811e-001,
          2.30784401e-001, 2.37997789e-002, 2.20124908e-002,
          3.28401104e-002, 1.44241497e-001, 1.61827490e-001,
          2.42271811e-001, 2.11589292e-001, 2.42271811e-001,
          2.42271811e-001, 1.71964437e-001, 2.42271811e-001,
          1.01680458e-001, 2.65227444e-002, 4.67469022e-002,
          7.11546242e-002, 6.57939911e-002, 2.42271811e-001,
          1.47474185e-001, 2.98687071e-001, 2.98687071e-001,
          2.98687071e-001, 3.97785418e-002, 3.15892808e-002,
          6.67156372e-003, 1.70915574e-002, 1.20420918e-001,
          2.28608977e-002, 2.98687071e-001, 2.98687071e-001,
          2.98687071e-001, 5.78087606e-002, 1.92238893e-002,
          1.07529880e-002, 2.15150248e-002, 2.61736847e-002,
          2.25554690e-001, 2.85099447e-001, 2.98687071e-001,
          2.28225246e-001, 3.25617045e-002, 1.65639296e-002,
          1.48273883e-002, 1.99399702e-002, 1.15377210e-001,
          4.18312289e-002, 1.47010982e-001, 2.63762236e-001,
          1.71210021e-001, 6.14093281e-002, 1.06235091e-002,
          1.60925891e-002, 3.00931241e-002, 3.24311741e-002,
          2.13418528e-002, 1.32199079e-001, 1.89124957e-001,
          1.30504116e-001, 2.74134547e-001, 1.18912771e-001,
          2.98064761e-002, 2.17942726e-002, 1.64945107e-002,
          1.69216562e-002, 2.72955038e-002, 2.54811924e-002,
          1.79387078e-001, 3.92734379e-001, 3.78690958e-001,
          4.83211204e-002, 1.53739648e-002, 2.50832811e-002,
          2.92352736e-002, 5.61474264e-002, 3.12359035e-002,
          1.12196036e-001, 2.32076928e-001, 6.79775998e-002,
          4.01173979e-002, 2.81532165e-002, 2.93822028e-002,
          1.40983343e-001, 5.74976467e-002, 4.55850512e-002,
          1.66801706e-001, 3.92734379e-001, 2.94197172e-001,
          1.73533872e-001, 1.37292206e-001, 2.78488696e-001 ]
      - [ 1.07528597e-001, 1.75121948e-001, 3.12524706e-001,
          3.12524706e-001, 3.12524706e-001, 1.31876349e-001,
          6.78843409e-002, 1.35535255e-001, 1.75985128e-001,
          3.62240151e-002, 6.49399459e-002, 1.03166752e-001,
          1.87191665e-001, 2.03987896e-001, 7.68968537e-002,
          5.02929501e-002, 6.55626282e-002, 5.64093180e-002,
          2.73974966e-002, 1.56974807e-001, 3.12524706e-001,
          3.12524706e-001, 3.12524706e-001, 9.21521857e-002,
          1.76243000e-002, 2.56956890e-002, 2.52529122e-002,
          5.14415950e-002, 9.01281014e-002, 1.37701482e-001,
          1.64779603e-001, 3.02454740e-001, 4.64705378e-002,
          1.55144725e-002, 2.55352594e-002, 4.02809344e-002,
          5.43686263e-002, 6.50006905e-002, 4.57170568e-002,
          7.82121792e-002, 8.74570385e-002, 4.95591052e-002,
          4.56660129e-002, 5.82347997e-002, 4.63015847e-002,
          8.23824331e-002, 1.05158605e-001, 2.12761804e-001,
          1.41685501e-001, 2.50746787e-001, 2.59794176e-001,
          2.97810823e-001, 3.09557408e-001, 1.82601184e-001,
          9.69059020e-002, 1.65185168e-001, 2.71681190e-001,
          1.46600306e-001, 1.01169817e-001, 4.48599644e-002,
          1.74218025e-002, 2.17079557e-002, 3.90050001e-002,
          9.18026641e-002, 3.30915123e-001, 3.30915123e-001,
          3.30915123e-001, 1.68087095e-001, 1.00645885e-001,
          6.50472194e-002, 5.93415275e-002, 5.06427921e-002,
          2.23365918e-001, 9.36354846e-002, 1.60839796e-001,
          1.20682240e-001, 1.72472596e-001, 1.39102697e-001,
          1.54701248e-001, 1.19027212e-001, 1.21284246e-001,
          2.70149797e-001, 8.05697441e-002, 6.89450055e-002,
          1.10554673e-001, 2.47464463e-001, 9.60610136e-002,
          6.79754913e-002, 7.15619773e-002, 2.59991109e-001,
          8.54992121e-002, 2.70149797e-001, 2.70149797e-001,
          2.70149797e-001, 1.67411327e-001, 5.85178882e-002,
          5.19931391e-002, 3.46509628e-002, 2.47676186e-002,
          1.70909196e-001, 2.03015849e-001, 2.49239638e-001,
          2.10007548e-001, 2.70149797e-001, 1.74124926e-001,
          5.53159751e-002, 6.86747059e-002, 4.58506495e-002,
          1.63143147e-002, 2.35304497e-002, 4.76920530e-002,
          1.30590796e-001, 3.18934023e-001, 1.59877852e-001,
          3.08242813e-002, 3.60525772e-002, 2.06845198e-002,
          3.83332036e-002, 5.80383986e-002, 1.07759222e-001,
          7.76388496e-002, 2.54591405e-001, 5.62722944e-002,
          4.21527997e-002, 4.77301292e-002, 4.67056111e-002,
          5.09946682e-002, 5.89632196e-003, 1.93926524e-002,
          9.60966945e-002, 3.18934023e-001, 3.18934023e-001,
          2.69237012e-001, 2.49701664e-001, 1.52842030e-001,
          1.64313808e-001, 1.81503609e-001, 3.06244493e-001,
          2.10256591e-001, 1.87322915e-001, 1.38506994e-001,
          1.40786365e-001, 1.34081900e-001, 2.93456942e-001,
          2.87559927e-002, 1.05621226e-001, 3.20504904e-001,
          1.04678415e-001, 3.75031009e-002, 1.19405799e-002,
          1.14091896e-002, 1.10605862e-002, 1.69276055e-002,
          3.51151712e-002, 3.07362974e-001, 3.20504904e-001,
          2.97909379e-001, 3.75431329e-002, 1.67026948e-002,
          2.81446544e-003, 2.83611217e-003, 1.00399591e-002,
          5.86602539e-002, 2.80263036e-001, 3.20504904e-001,
          2.78246343e-001, 4.10330519e-002, 1.56550780e-002,
          1.39211677e-002, 9.98764485e-003, 6.86901882e-002,
          2.47810613e-002, 3.20504904e-001, 3.20504904e-001,
          3.20504904e-001, 2.38702446e-002, 1.88459344e-002,
          1.94209870e-002, 7.03224773e-003, 2.91989278e-002,
          4.36092317e-002, 3.06874663e-001, 3.45142692e-001,
          2.79093206e-001, 1.56113401e-001, 4.16600220e-002,
          7.36712106e-003, 9.65951849e-003, 1.05431844e-002,
          6.02827743e-002, 1.44639507e-001, 2.06731021e-001,
          1.86133295e-001, 3.45142692e-001, 1.48661166e-001,
          3.14062722e-002, 3.09976656e-002, 2.41613463e-002,
          3.17359008e-002, 2.11815476e-001, 3.45142692e-001,
          2.00183451e-001, 2.32689902e-001, 4.88735102e-002,
          2.89519094e-002, 1.29551040e-002, 2.78692171e-002,
          2.01797802e-002, 4.52784337e-002, 7.87392184e-002,
          1.52703941e-001, 3.45142692e-001, 1.25957713e-001,
          1.70958582e-002, 1.83106009e-002, 2.06190944e-002,
          7.97249228e-002, 1.50172822e-002, 1.50933079e-002,
          4.67622280e-002, 2.42321894e-001, 2.40642175e-001,
          2.42321894e-001, 2.10228607e-001, 1.94329530e-001,
          2.32957989e-001, 1.52928129e-001, 2.42321894e-001,
          1.66304260e-001, 5.97834624e-002, 7.42407665e-002,
          9.16923806e-002, 1.00256480e-001, 2.42321894e-001,
          2.07237452e-001, 2.55388189e-002, 1.44061819e-002,
          2.34557483e-002, 1.21294677e-001, 1.84196755e-001,
          2.42321894e-001, 1.92305371e-001, 2.42321894e-001,
          2.42321894e-001, 1.56148940e-001, 2.42321894e-001,
          1.48207724e-001, 3.55090201e-002, 3.13380063e-002,
          6.33556843e-002, 6.92226216e-002, 2.42321894e-001,
          1.27472878e-001, 2.87370294e-001, 2.87370294e-001,
          2.87370294e-001, 4.54310849e-002, 2.48317719e-002,
          1.86978895e-002, 1.64466873e-002, 1.28483698e-001,
          4.17002887e-002, 2.87370294e-001, 2.87370294e-001,
          2.87370294e-001, 7.43936598e-002, 5.26456833e-002,
          7.41138309e-002, 3.52396704e-002, 8.16974714e-002,
          1.95070311e-001, 2.73149043e-001, 2.87370294e-001,
          2.87370294e-001, 4.82122488e-002, 3.00691389e-002,
          2.23330073e-002, 2.10888926e-002, 1.09396920e-001,
          3.02188136e-002, 1.54608458e-001, 1.98882848e-001,
          1.38073161e-001, 1.20560929e-001, 9.84487459e-002,
          1.53795391e-001, 7.52273574e-002, 1.05760559e-001,
          5.12259230e-002, 9.91544351e-002, 1.58250898e-001,
          1.08276032e-001, 3.13395947e-001, 8.83747190e-002,
          9.70282927e-002, 4.90797125e-002, 8.83929506e-002,
          2.86825616e-002, 3.00978292e-002, 2.21016295e-002,
          1.30098790e-001, 3.99246126e-001, 1.39054373e-001,
          5.11696897e-002, 2.57331617e-002, 3.40563953e-002,
          6.50145933e-002, 3.40196341e-002, 4.60430607e-002,
          4.57076095e-002, 2.87165463e-001, 1.55378863e-001,
          2.31664643e-001, 1.33224413e-001, 1.82422429e-001,
          1.99115112e-001, 1.17399216e-001, 8.27436820e-002,
          1.69834211e-001, 3.99246126e-001, 1.99575692e-001,
          1.50714576e-001, 1.36716634e-001, 2.61073321e-001 ]
      - [ 1.31620795e-001, 2.11394593e-001, 2.90872186e-001,
          2.90872186e-001, 2.90872186e-001, 6.22821301e-002,
          2.15169173e-002, 6.93345219e-002, 1.47622585e-001,
          1.15113489e-001, 1.11500762e-001, 1.21224433e-001,
          1.91603631e-001, 2.90872186e-001, 5.42005487e-002,
          2.74442155e-002, 4.22061533e-002, 7.75019825e-002,
          5.61005734e-002, 1.00511827e-001, 1.82981446e-001,
          2.52816558e-001, 2.90872186e-001, 2.59617567e-001,
          7.97040239e-002, 7.45014623e-002, 1.10215530e-001,
          1.03201441e-001, 1.09420195e-001, 9.03358161e-002,
          1.71128944e-001, 2.90872186e-001, 1.14392191e-001,
          6.64917976e-002, 8.65028203e-002, 1.44124329e-001,
          1.60656601e-001, 1.20301828e-001, 5.55589534e-002,
          1.39033630e-001, 3.75961542e-001, 8.48687515e-002,
          4.93644737e-002, 5.70764244e-002, 7.95311630e-002,
          1.21784396e-001, 8.19493011e-002, 3.67802978e-002,
          7.76839927e-002, 3.75961542e-001, 2.01019928e-001,
          9.12712142e-002, 1.12807520e-001, 9.46741328e-002,
          8.16433728e-002, 9.92209390e-002, 5.58569618e-002,
          2.33837396e-001, 3.75961542e-001, 1.84819371e-001,
          3.70677561e-002, 3.85829248e-002, 6.06495924e-002,
          4.17185165e-002, 4.71035764e-002, 3.19746174e-002,
          2.03910545e-001, 3.75961542e-001, 2.84369767e-001,
          5.82950562e-002, 3.96603346e-002, 4.64958362e-002,
          3.94702554e-002, 5.49996123e-002, 1.97540615e-002,
          9.45999175e-002, 3.08513552e-001, 1.65925682e-001,
          9.70899835e-002, 1.12416282e-001, 5.20118289e-002,
          1.01171903e-001, 8.78682807e-002, 1.52739761e-002,
          1.46677449e-001, 3.08513552e-001, 2.56640226e-001,
          3.08513552e-001, 2.37329364e-001, 1.59118399e-001,
          1.89206433e-002, 2.31891144e-002, 2.03558207e-002,
          1.15207292e-001, 3.08513552e-001, 1.66256592e-001,
          8.49385560e-002, 6.22847080e-002, 3.86775360e-002,
          2.17345078e-002, 2.30105408e-002, 1.95272323e-002,
          2.00158328e-001, 3.08513552e-001, 3.08513552e-001,
          2.35907719e-001, 1.38585329e-001, 3.57772782e-002,
          4.52780537e-002, 2.17288770e-002, 4.24221456e-002,
          1.66875511e-001, 2.33300641e-001, 2.33300641e-001,
          1.87591121e-001, 1.27474681e-001, 1.06090143e-001,
          1.29591286e-001, 1.17702380e-001, 9.21185985e-002,
          1.12165228e-001, 2.33300641e-001, 1.26684472e-001,
          1.59605563e-001, 1.43262014e-001, 1.90192416e-001,
          1.32966593e-001, 1.98485982e-002, 4.71694171e-002,
          1.17758267e-001, 2.33300641e-001, 2.33300641e-001,
          2.33300641e-001, 2.06089705e-001, 1.58045530e-001,
          2.33300641e-001, 1.62524790e-001, 2.33300641e-001,
          1.67733520e-001, 1.27228901e-001, 1.69281140e-001,
          1.93937778e-001, 1.56156451e-001, 2.33300641e-001,
          7.47753903e-002, 1.35393247e-001, 9.90897939e-002,
          1.79430932e-001, 2.85360217e-001, 1.40257910e-001,
          5.53754792e-002, 5.30017465e-002, 7.11765289e-002,
          1.22817038e-002, 3.55671830e-002, 4.23335880e-002,
          1.76038072e-001, 2.85360217e-001, 2.02476159e-001,
          1.01804920e-001, 8.82588178e-002, 1.86858624e-002,
          1.33789405e-001, 1.87285751e-001, 2.85360217e-001,
          2.06332833e-001, 2.85360217e-001, 1.70294389e-001,
          1.23346977e-001, 1.01188615e-001, 1.08722158e-001,
          5.12656346e-002, 8.21348429e-002, 1.23979039e-001,
          1.17766231e-001, 2.85360217e-001, 2.85360217e-001,
          2.36755714e-001, 2.36128569e-001, 7.79145584e-002,
          1.83836501e-002, 2.40286645e-002, 2.91501582e-002,
          1.13381773e-001, 3.05938125e-001, 1.28177166e-001,
          6.55531287e-002, 5.06792441e-002, 1.83009114e-002,
          2.07015201e-002, 2.75870468e-002, 2.56233122e-002,
          2.45512247e-001, 3.05938125e-001, 2.20708832e-001,
          3.61688398e-002, 1.89467743e-002, 1.61195043e-002,
          1.48273781e-001, 2.22191408e-001, 1.54131174e-001,
          9.07971337e-002, 3.05938125e-001, 1.76140949e-001,
          1.06849320e-001, 1.30562291e-001, 9.00805146e-002,
          1.20223880e-001, 3.05938125e-001, 2.89451033e-001,
          3.05938125e-001, 3.05938125e-001, 1.14776582e-001,
          1.84286740e-002, 1.38290627e-002, 3.79960313e-002,
          1.23692751e-001, 3.41336355e-002, 6.78937137e-002,
          5.14380448e-002, 1.22284010e-001, 1.95815831e-001,
          2.48736724e-001, 2.40698203e-001, 2.23860741e-001,
          2.48736724e-001, 1.59232765e-001, 2.48736724e-001,
          2.48736724e-001, 7.54897222e-002, 8.25093240e-002,
          9.47453603e-002, 9.20135900e-002, 2.48736724e-001,
          6.78286329e-002, 3.39176878e-002, 7.49915913e-002,
          5.74026331e-002, 8.16708952e-002, 9.46816355e-002,
          2.48736724e-001, 2.40889966e-001, 2.48736724e-001,
          8.13965574e-002, 1.11310102e-001, 2.48736724e-001,
          2.44463697e-001, 6.26421869e-002, 3.11972629e-002,
          1.13347091e-001, 1.24328777e-001, 2.48736724e-001,
          7.58280456e-002, 1.46706462e-001, 2.53691792e-001,
          2.26333007e-001, 2.37618119e-001, 1.88946754e-001,
          1.79911524e-001, 1.00804016e-001, 6.33943006e-002,
          8.68939087e-002, 8.72292444e-002, 9.63529795e-002,
          5.63798621e-002, 2.53691792e-001, 2.53691792e-001,
          2.53691792e-001, 2.53691792e-001, 1.58612996e-001,
          2.14215554e-002, 6.34355024e-002, 2.30614513e-001,
          1.54128328e-001, 9.27406549e-002, 1.10767305e-001,
          1.54069543e-001, 8.97645131e-002, 4.05954234e-002,
          1.12795487e-001, 3.74849141e-002, 1.58545244e-002,
          1.71876960e-002, 1.01801604e-001, 2.53691792e-001,
          2.53691792e-001, 2.53691792e-001, 2.27649257e-001,
          1.88002959e-001, 2.25390181e-001, 1.43022537e-001,
          4.22249325e-002, 1.60475224e-001, 1.28699720e-001,
          1.09052695e-001, 1.42050147e-001, 1.86069340e-001,
          1.17102206e-001, 2.41619736e-001, 2.41619736e-001,
          2.41619736e-001, 2.41619736e-001, 3.07396427e-002,
          6.73582824e-003, 1.55717675e-002, 6.37762249e-002,
          2.33530328e-001, 6.03525788e-002, 4.52793203e-002,
          6.52538389e-002, 7.49651790e-002, 1.42323196e-001,
          2.11506709e-001, 1.99913397e-001, 2.41619736e-001,
          1.33288056e-001, 1.64672211e-001, 2.41619736e-001,
          2.41619736e-001, 2.41619736e-001, 9.89390910e-002,
          7.27702081e-002, 9.87111852e-002, 2.22181067e-001 ]
      - [ 1.06748752e-001, 2.14560390e-001, 2.73818731e-001,
          2.17814863e-001, 3.38005155e-001, 1.23935550e-001,
          8.40302184e-002, 4.68964912e-002, 7.20791817e-002,
          1.30034834e-001, 5.34577742e-002, 6.36778995e-002,
          1.08834259e-001, 3.09496462e-001, 2.59966463e-001,
          2.21804976e-001, 9.18632671e-002, 1.15566559e-001,
          1.55030321e-002, 6.98368251e-002, 1.03631847e-001,
          1.66317970e-001, 3.38005155e-001, 1.37049332e-001,
          2.96624769e-002, 6.54510595e-003, 7.80041842e-003,
          5.33115678e-002, 5.16239814e-002, 5.84212542e-002,
          1.55024588e-001, 3.38005155e-001, 2.39840016e-001,
          1.26899973e-001, 4.57245000e-002, 4.72100526e-002,
          2.41873682e-001, 2.22767387e-002, 3.58507335e-002,
          4.55476828e-002, 2.01868221e-001, 2.36597613e-001,
          2.00838700e-001, 9.49681550e-002, 1.66300520e-001,
          1.93516716e-001, 3.16989310e-002, 4.30016741e-002,
          4.14634608e-002, 1.69606119e-001, 2.38300249e-001,
          1.99682817e-001, 1.04323998e-001, 1.64687634e-001,
          1.02217630e-001, 4.21685874e-002, 7.72862509e-002,
          1.99436709e-001, 2.79502749e-001, 2.79502749e-001,
          1.41149715e-001, 5.30776680e-002, 6.84508979e-002,
          1.28797337e-001, 3.99107225e-002, 1.23951852e-001,
          1.96952552e-001, 2.79502749e-001, 2.79502749e-001,
          2.27854699e-001, 1.07788011e-001, 1.47965550e-001,
          1.54640421e-001, 7.05359727e-002, 4.69134934e-002,
          4.17810902e-002, 1.09175019e-001, 2.18645200e-001,
          1.80200353e-001, 9.34556946e-002, 1.04911208e-001,
          2.20498681e-001, 7.35939965e-002, 4.08702381e-002,
          4.82910685e-002, 1.62347808e-001, 2.61810213e-001,
          2.61810213e-001, 1.76853329e-001, 1.57439381e-001,
          1.17874339e-001, 5.03524840e-002, 7.46870413e-002,
          9.74419713e-002, 2.18120426e-001, 2.61810213e-001,
          2.61810213e-001, 1.69888809e-001, 1.81452915e-001,
          5.31619377e-002, 4.95578013e-002, 5.84290922e-002,
          2.25005299e-001, 2.61810213e-001, 2.61810213e-001,
          2.61810213e-001, 1.59983218e-001, 8.09603557e-002,
          1.96269993e-002, 9.63829178e-003, 2.22558994e-003,
          6.94285184e-002, 2.75000811e-001, 1.83814421e-001,
          1.74904689e-001, 4.07856479e-002, 1.35111967e-002,
          4.80241664e-002, 9.28735957e-002, 9.84691456e-002,
          1.99394107e-001, 2.75000811e-001, 1.42216414e-001,
          1.25336021e-001, 5.44818006e-002, 3.45130749e-002,
          1.06118970e-001, 2.09722500e-002, 1.74937528e-002,
          3.81975211e-002, 2.75000811e-001, 2.39671826e-001,
          2.75000811e-001, 1.38249770e-001, 1.38918146e-001,
          2.75000811e-001, 1.88494176e-001, 2.13051721e-001,
          2.75000811e-001, 2.35073328e-001, 1.33348912e-001,
          1.87548563e-001, 1.12306282e-001, 2.45806217e-001,
          2.29696762e-002, 9.75529402e-002, 1.28970921e-001,
          2.44623944e-001, 2.76776731e-001, 1.45115435e-001,
          4.00614887e-002, 5.16606756e-002, 3.12337074e-002,
          4.84004021e-002, 3.74500044e-002, 7.98131302e-002,
          1.46196544e-001, 2.76776731e-001, 2.02920303e-001,
          1.16753563e-001, 1.45053715e-001, 1.23394661e-001,
          1.02796048e-001, 1.60964251e-001, 2.39855587e-001,
          2.76776731e-001, 2.76776731e-001, 1.35938376e-001,
          6.45785853e-002, 1.04504921e-001, 8.23703781e-002,
          6.35132566e-002, 5.34026884e-002, 9.96225178e-002,
          1.78233773e-001, 2.76776731e-001, 2.49172568e-001,
          2.10832477e-001, 2.57218391e-001, 1.52244821e-001,
          8.78547207e-002, 4.55944352e-002, 6.59919307e-002,
          8.99021104e-002, 2.15277463e-001, 1.49073169e-001,
          1.64913729e-001, 1.78415954e-001, 1.99267507e-001,
          4.10023592e-002, 5.56508005e-002, 7.94879124e-002,
          2.35776544e-001, 2.58490533e-001, 2.22301826e-001,
          1.24277897e-001, 1.12559512e-001, 8.63573328e-002,
          1.46521404e-001, 1.72567606e-001, 1.82368144e-001,
          1.21027388e-001, 2.15756282e-001, 1.31262466e-001,
          1.79305613e-001, 1.87089324e-001, 2.15890348e-001,
          1.00143887e-001, 2.58490533e-001, 2.58490533e-001,
          2.50136554e-001, 2.58490533e-001, 1.56081453e-001,
          7.65200555e-002, 6.44932613e-002, 7.25434497e-002,
          1.63944617e-001, 4.65343110e-002, 5.47999255e-002,
          4.20423374e-002, 1.39476404e-001, 2.30102822e-001,
          2.40090162e-001, 1.54996082e-001, 1.61266923e-001,
          2.40090162e-001, 2.40090162e-001, 2.40090162e-001,
          2.40090162e-001, 1.24328651e-001, 9.01290402e-002,
          7.58614019e-002, 4.98860404e-002, 2.37816289e-001,
          2.14688063e-001, 8.81323516e-002, 8.14536065e-002,
          5.83415814e-002, 2.40090162e-001, 2.38892585e-001,
          1.81594700e-001, 6.87326342e-002, 1.12522237e-001,
          2.40090162e-001, 1.94726005e-001, 2.40090162e-001,
          1.48667932e-001, 2.02566594e-001, 6.83561489e-002,
          2.86213383e-002, 8.22432805e-003, 1.17839620e-001,
          9.67216790e-002, 1.89008996e-001, 2.57075995e-001,
          2.57075995e-001, 2.57075995e-001, 1.51439294e-001,
          1.22235082e-001, 1.18721731e-001, 6.83887452e-002,
          9.44754109e-002, 6.42132983e-002, 7.76882246e-002,
          1.28320649e-001, 2.57075995e-001, 2.57075995e-001,
          2.57075995e-001, 2.57075995e-001, 1.77467957e-001,
          6.29546642e-002, 9.37714279e-002, 1.75205901e-001,
          7.93675482e-002, 9.98749137e-002, 1.03924066e-001,
          1.30841985e-001, 9.61648524e-002, 2.87003871e-002,
          1.24427840e-001, 2.56741717e-002, 1.59444921e-002,
          1.40874553e-002, 9.69605148e-002, 2.49402717e-001,
          2.57075995e-001, 2.57075995e-001, 2.18975589e-001,
          2.01012865e-001, 1.88149959e-001, 1.48470357e-001,
          6.01673312e-002, 1.22623689e-001, 9.79762301e-002,
          1.59119785e-001, 1.50148764e-001, 2.10505128e-001,
          1.49865016e-001, 2.41660461e-001, 2.41660461e-001,
          2.25051269e-001, 2.41660461e-001, 3.66654173e-002,
          3.66649255e-002, 3.56926918e-002, 5.98338582e-002,
          2.41660461e-001, 6.72322363e-002, 6.87050745e-002,
          2.50873249e-002, 4.29244079e-002, 9.18321237e-002,
          2.28480026e-001, 1.86581641e-001, 2.41660461e-001,
          2.41660461e-001, 2.20418751e-001, 2.41660461e-001,
          2.10186541e-001, 1.84869021e-001, 1.65458526e-002,
          2.12197453e-002, 3.47165056e-002, 2.31999516e-001 ]
      - [ 1.04524396e-001, 1.92841887e-001, 3.11639875e-001,
          2.24825561e-001, 3.47024918e-001, 1.15463808e-001,
          5.78340255e-002, 9.94307101e-002, 1.46949068e-001,
          3.06265540e-002, 7.63252601e-002, 4.82883640e-002,
          8.49512815e-002, 3.08778793e-001, 2.32265934e-001,
          2.09959000e-001, 1.71230122e-001, 7.46593997e-002,
          2.09815521e-002, 8.13650414e-002, 1.23157106e-001,
          1.76824257e-001, 3.47024918e-001, 1.78930268e-001,
          2.21275128e-002, 2.75419746e-002, 1.62310414e-002,
          2.20496897e-002, 6.33425266e-002, 7.37341121e-002,
          1.57264546e-001, 3.47024918e-001, 1.36168048e-001,
          6.38592988e-002, 4.61596474e-002, 1.72258392e-002,
