%YAML:1.0
my_svm: !!opencv-ml-svm
   svm_type: C_SVC
   kernel: { type:RBF, gamma:8.9999999999999997e-002 }
   C: 10.
   term_criteria: { epsilon:1.1920928955078125e-007,
       iterations:2147483647 }
   var_all: 324
   var_count: 324
   class_count: 9
   class_labels: !!opencv-matrix
      rows: 1
      cols: 9
      dt: i
      data: [ 1, 2, 3, 4, 5, 6, 7, 8, 9 ]
   sv_total: 38
   support_vectors:
      - [ 1.21271566e-001, 7.70317838e-002, 5.58083318e-002,
          6.31153509e-002, 8.28148201e-002, 5.18510900e-002,
          4.95389886e-002, 5.64056300e-002, 1.65248916e-001,
          4.42942604e-002, 1.67914666e-002, 8.63505900e-003,
          5.52847097e-003, 5.53883687e-002, 5.87252825e-002,
          4.35701758e-002, 4.26146835e-002, 8.34938884e-002,
          1.51944429e-001, 1.64026722e-001, 1.70243502e-001,
          3.20416123e-001, 4.44276661e-001, 2.46202305e-001,
          1.49070889e-001, 1.50088549e-001, 3.08406174e-001,
          8.89634043e-002, 4.62491997e-002, 3.95984203e-002,
          4.64513227e-002, 4.44276661e-001, 2.48806193e-001,
          1.22423820e-001, 9.97230411e-002, 1.68175057e-001,
          9.57357755e-004, 0., 0., 0., 3.14893313e-002, 2.25595329e-002,
          6.18029153e-003, 0., 9.57357755e-004, 7.74824934e-004,
          2.72760750e-004, 1.10254837e-002, 9.60800499e-002,
          3.30816805e-001, 0., 0., 0., 7.74824934e-004, 3.30816805e-001,
          5.35998456e-002, 2.48884130e-002, 1.88955050e-002,
          3.30816805e-001, 7.02851266e-002, 7.94608984e-003, 0.,
          3.09811980e-001, 3.30816805e-001, 7.37961009e-002,
          3.30816805e-001, 3.30816805e-001, 3.30816805e-001, 0., 0., 0.,
          3.30816805e-001, 3.43663581e-002, 2.07842588e-002,
          3.27768624e-002, 8.80471915e-002, 4.59504455e-001,
          1.47822276e-002, 1.00106001e-002, 9.41971783e-003,
          1.13984756e-002, 7.35214949e-002, 3.00969277e-002,
          4.35451940e-002, 8.99246633e-002, 4.59504455e-001,
          1.13710053e-001, 4.93050180e-002, 4.08187769e-002,
          3.06610800e-002, 2.37175524e-002, 1.35118058e-002,
          1.58492625e-001, 2.12862268e-001, 4.59504455e-001,
          1.67234114e-003, 4.82181582e-004, 0., 2.31014397e-002,
          2.63039768e-003, 5.16423536e-003, 1.00192130e-001,
          1.53979659e-001, 4.59504455e-001, 9.74348839e-003,
          2.08945363e-003, 0., 1.22376962e-003, 1.22884708e-002,
          1.58745106e-002, 4.78000976e-002, 9.66224819e-002,
          3.77107233e-001, 7.20468313e-002, 3.03176828e-002,
          2.81472597e-002, 3.84384990e-002, 8.97481218e-002,
          4.59016152e-002, 5.62422350e-002, 9.50828046e-002,
          3.77107233e-001, 7.22241178e-002, 3.08089461e-002,
          2.69085672e-002, 7.19108656e-002, 4.36506085e-002,
          2.95489351e-003, 1.76303998e-001, 2.03936338e-001,
          3.77107233e-001, 9.71994624e-002, 5.59093729e-002,
          4.92297970e-002, 9.40287858e-002, 3.07452589e-001,
          1.16101056e-001, 1.46414444e-001, 2.10601121e-001,
          3.77107233e-001, 9.29817781e-002, 7.32726976e-002,
          8.32481459e-002, 2.81772941e-001, 3.12091887e-001,
          7.13273957e-002, 6.86343983e-002, 1.15114696e-001,
          1.03346720e-001, 6.92749256e-003, 3.09840636e-003,
          3.91700864e-003, 2.36250058e-001, 3.12091887e-001,
          6.03721440e-002, 9.96821076e-002, 1.24518059e-001,
          5.82601577e-002, 1.49205467e-003, 0., 7.26183353e-004,
          3.12091887e-001, 3.12091887e-001, 1.59287199e-001,
          1.84524477e-001, 2.78724849e-001, 1.19901687e-001,
          8.02128483e-003, 1.32932067e-002, 2.73600053e-002,
          3.12091887e-001, 3.12091887e-001, 9.34603214e-002,
          1.02470793e-001, 1.31429821e-001, 6.11244924e-002,
          8.36889166e-003, 6.02401141e-003, 1.20548150e-002,
          3.12091887e-001, 1.62781134e-001, 6.45114928e-002,
          2.18487591e-001, 2.78954268e-001, 3.07361335e-001,
          5.64633170e-003, 1.11397915e-003, 2.54438026e-003,
          1.49823919e-001, 1.40772546e-002, 1.83172375e-002,
          1.29006952e-001, 1.67550862e-001, 4.01106417e-001,
          5.15772263e-003, 1.43225875e-003, 1.97896245e-003,
          1.71676986e-002, 2.66225547e-001, 1.00609303e-001,
          1.57401294e-001, 1.91798881e-001, 3.33733350e-001,
          5.66201136e-002, 2.59340033e-002, 3.55290957e-002,
          2.73942769e-001, 2.43855957e-002, 2.92507857e-002,
          7.07384869e-002, 8.35442841e-002, 4.01106417e-001,
          6.02968633e-002, 2.26228237e-002, 2.76337434e-002,
          5.48201837e-002, 2.05245480e-001, 4.59166653e-002,
          1.36631742e-001, 1.59249529e-001, 2.77052373e-001,
          5.59419654e-002, 4.08631377e-002, 3.25700678e-002,
          2.00562954e-001, 2.77052373e-001, 1.49297863e-001,
          1.48799077e-001, 2.31778666e-001, 1.06363058e-001,
          3.71956266e-002, 3.83205302e-002, 5.59236519e-002,
          2.77052373e-001, 2.77052373e-001, 1.34024709e-001,
          1.43371940e-001, 1.37084946e-001, 2.77052373e-001,
          6.02317825e-002, 4.47706021e-002, 2.63676532e-002,
          2.77052373e-001, 2.77052373e-001, 1.43964231e-001,
          1.27275512e-001, 1.75409406e-001, 4.50776257e-002,
          5.25438460e-004, 1.91587571e-003, 2.62667658e-003,
          2.77052373e-001, 3.01279426e-001, 1.79829150e-001,
          1.91782489e-001, 2.99546868e-001, 7.76112154e-002,
          2.09189509e-003, 7.42135663e-003, 2.35179495e-002,
          3.01279426e-001, 3.01279426e-001, 8.54563266e-002,
          9.04094353e-002, 1.02863401e-001, 9.22460034e-002,
          1.27267232e-002, 6.96708821e-003, 9.81347635e-003,
          3.01279426e-001, 3.01279426e-001, 1.35170519e-001,
          1.45952031e-001, 2.14271173e-001, 6.06077686e-002, 0.,
          5.06561482e-004, 2.07977952e-003, 2.44398072e-001,
          3.01279426e-001, 3.36118825e-002, 2.94596869e-002,
          3.38054076e-002, 1.24494143e-001, 2.29248554e-002,
          1.36374729e-003, 2.75847531e-004, 2.89752334e-001,
          2.32366934e-001, 7.33740106e-002, 1.03163540e-001,
          1.11946553e-001, 4.28904027e-001, 6.10715747e-002,
          2.49335654e-002, 2.35243049e-002, 2.15522796e-001,
          1.89920645e-002, 2.01782566e-002, 4.27814797e-002,
          5.49620688e-002, 4.28904027e-001, 5.99329360e-002,
          2.23746728e-002, 1.87429897e-002, 3.08480784e-002,
          1.26229987e-001, 3.61296907e-002, 3.15314010e-002,
          3.05319671e-002, 4.28904027e-001, 1.13609985e-001,
          4.07486185e-002, 2.84080338e-002, 1.35408729e-001,
          5.38775362e-002, 6.11852333e-002, 7.10601285e-002,
          1.48264527e-001, 4.28904027e-001, 1.11489072e-001,
          5.51549643e-002, 4.06293981e-002, 1.06214583e-001 ]
      - [ 1.21271566e-001, 7.70317838e-002, 5.58083318e-002,
          6.31153509e-002, 8.28148201e-002, 5.18510900e-002,
          4.95389886e-002, 5.64056300e-002, 1.65248916e-001,
          4.42942604e-002, 1.67914666e-002, 8.63505900e-003,
          5.52847097e-003, 5.53883687e-002, 5.87252825e-002,
          4.35701758e-002, 4.26146835e-002, 8.34938884e-002,
          1.51944429e-001, 1.64026722e-001, 1.70243502e-001,
          3.20416123e-001, 4.44276661e-001, 2.46202305e-001,
          1.49070889e-001, 1.50088549e-001, 3.08406174e-001,
          8.89634043e-002, 4.62491997e-002, 3.95984203e-002,
          4.64513227e-002, 4.44276661e-001, 2.48806193e-001,
          1.22423820e-001, 9.97230411e-002, 1.68175057e-001,
          9.57357755e-004, 0., 0., 0., 3.14893313e-002, 2.25595329e-002,
          6.18029153e-003, 0., 9.57357755e-004, 7.74824934e-004,
          2.72760750e-004, 1.10254837e-002, 9.60800499e-002,
          3.30816805e-001, 0., 0., 0., 7.74824934e-004, 3.30816805e-001,
          5.35998456e-002, 2.48884130e-002, 1.88955050e-002,
          3.30816805e-001, 7.02851266e-002, 7.94608984e-003, 0.,
          3.09811980e-001, 3.30816805e-001, 7.37961009e-002,
          3.30816805e-001, 3.30816805e-001, 3.30816805e-001, 0., 0., 0.,
          3.30816805e-001, 3.43663581e-002, 2.07842588e-002,
          3.27768624e-002, 8.80471915e-002, 4.59504455e-001,
          1.47822276e-002, 1.00106001e-002, 9.41971783e-003,
          1.13984756e-002, 7.35214949e-002, 3.00969277e-002,
          4.35451940e-002, 8.99246633e-002, 4.59504455e-001,
          1.13710053e-001, 4.93050180e-002, 4.08187769e-002,
          3.06610800e-002, 2.37175524e-002, 1.35118058e-002,
          1.58492625e-001, 2.12862268e-001, 4.59504455e-001,
          1.67234114e-003, 4.82181582e-004, 0., 2.31014397e-002,
          2.63039768e-003, 5.16423536e-003, 1.00192130e-001,
          1.53979659e-001, 4.59504455e-001, 9.74348839e-003,
          2.08945363e-003, 0., 1.22376962e-003, 1.21371066e-002,
          1.56789757e-002, 4.72113118e-002, 9.54323262e-002,
          3.73957664e-001, 7.11593851e-002, 2.99442429e-002,
          2.78005525e-002, 3.79650258e-002, 8.86426419e-002,
          4.53362167e-002, 5.55494688e-002, 9.39116180e-002,
          3.73957664e-001, 7.13344887e-002, 3.04294564e-002,
          2.65771169e-002, 7.10250959e-002, 4.08989266e-002,
          4.21075150e-003, 1.75836474e-001, 2.04615146e-001,
          3.73957664e-001, 9.77840349e-002, 5.52185960e-002,
          4.83462103e-002, 9.19404924e-002, 3.17664355e-001,
          1.15009002e-001, 1.64544731e-001, 2.01005325e-001,
          3.73957664e-001, 9.95577499e-002, 7.12939203e-002,
          7.77496099e-002, 2.87865132e-001, 3.16033810e-001,
          7.13716075e-002, 6.86769485e-002, 1.15186043e-001,
          1.03410788e-001, 6.93178689e-003, 3.10032675e-003,
          3.91943613e-003, 2.36396492e-001, 3.16033810e-001,
          6.04095683e-002, 9.97438952e-002, 1.24595240e-001,
          5.82962744e-002, 1.49297947e-003, 0., 7.26633472e-004,
          3.16033810e-001, 3.16033810e-001, 1.41082883e-001,
          1.91685066e-001, 2.56282657e-001, 1.19383827e-001,
          1.16211977e-002, 1.23471338e-002, 2.35275142e-002,
          3.16033810e-001, 3.16033810e-001, 8.67312700e-002,
          9.94217023e-002, 1.29006624e-001, 6.10646494e-002,
          8.37407820e-003, 6.02774508e-003, 1.19105028e-002,
          3.16033810e-001, 1.62781134e-001, 6.45114928e-002,
          2.18487591e-001, 2.78954268e-001, 3.07361335e-001,
          5.64633170e-003, 1.11397915e-003, 2.54438026e-003,
          1.49823919e-001, 1.40772546e-002, 1.83172375e-002,
          1.29006952e-001, 1.67550862e-001, 4.01106417e-001,
          5.15772263e-003, 1.43225875e-003, 1.97896245e-003,
          1.71676986e-002, 2.66225547e-001, 1.00609303e-001,
          1.57401294e-001, 1.91798881e-001, 3.33733350e-001,
          5.66201136e-002, 2.59340033e-002, 3.55290957e-002,
          2.73942769e-001, 2.43855957e-002, 2.92507857e-002,
          7.07384869e-002, 8.35442841e-002, 4.01106417e-001,
          6.02968633e-002, 2.26228237e-002, 2.76337434e-002,
          5.48201837e-002, 1.91714853e-001, 5.38757741e-002,
          1.48701772e-001, 1.75514594e-001, 2.60923862e-001,
          5.76053075e-002, 3.95879261e-002, 3.10273822e-002,
          1.75023869e-001, 2.60923862e-001, 1.52756572e-001,
          2.12787151e-001, 2.48588398e-001, 1.20166093e-001,
          5.07874824e-002, 3.50726657e-002, 4.58764620e-002,
          2.60923862e-001, 2.60923862e-001, 1.48083359e-001,
          1.57668099e-001, 1.53171301e-001, 2.60923862e-001,
          5.91435134e-002, 4.33769301e-002, 2.54252069e-002,
          2.36691669e-001, 2.60923862e-001, 1.50615707e-001,
          1.68915868e-001, 2.33238354e-001, 5.54107316e-002,
          3.91269755e-003, 1.38186559e-003, 6.87780266e-004,
          2.60923862e-001, 3.23447436e-001, 1.39094517e-001,
          1.84330031e-001, 2.18145162e-001, 6.92151636e-002,
          9.50951409e-003, 5.95795363e-003, 1.77325513e-002,
          3.23447436e-001, 3.23447436e-001, 7.08284900e-002,
          7.70602450e-002, 8.52905810e-002, 9.20507908e-002,
          1.35335308e-002, 7.40876421e-003, 1.02490382e-002,
          3.23447436e-001, 3.23447436e-001, 9.20388326e-002,
          1.08260341e-001, 1.63692906e-001, 4.14202251e-002,
          1.68115483e-003, 9.23955376e-005, 6.65143307e-004,
          2.58071452e-001, 3.23447436e-001, 2.40277294e-002,
          1.39278481e-002, 8.64757039e-003, 1.20424941e-001,
          2.43781693e-002, 1.45020173e-003, 2.80897453e-004,
          3.23447436e-001, 2.32366934e-001, 7.33740106e-002,
          1.03163540e-001, 1.11946553e-001, 4.28904027e-001,
          6.10715747e-002, 2.49335654e-002, 2.35243049e-002,
          2.15522796e-001, 1.89920645e-002, 2.01782566e-002,
          4.27814797e-002, 5.49620688e-002, 4.28904027e-001,
          5.99329360e-002, 2.23746728e-002, 1.87429897e-002,
          3.08480784e-002, 1.26229987e-001, 3.61296907e-002,
          3.15314010e-002, 3.05319671e-002, 4.28904027e-001,
          1.13609985e-001, 4.07486185e-002, 2.84080338e-002,
          1.35408729e-001, 5.38775362e-002, 6.11852333e-002,
          7.10601285e-002, 1.48264527e-001, 4.28904027e-001,
          1.11489072e-001, 5.51549643e-002, 4.06293981e-002,
          1.06214583e-001 ]
      - [ 1.62530974e-001, 1.09912515e-001, 1.90949321e-001,
          1.87075287e-001, 3.23755234e-001, 5.87508418e-002,
          2.85180490e-002, 9.81426686e-002, 1.85116142e-001,
          5.55028357e-002, 2.76925210e-002, 8.70010853e-002,
          5.41843809e-002, 1.68542311e-001, 6.61642328e-002,
          2.85923015e-002, 7.04835430e-002, 9.75833833e-002,
          8.84227976e-002, 1.39950797e-001, 3.54930222e-001,
          3.54930222e-001, 3.54930222e-001, 8.07241499e-002,
          1.81005951e-002, 8.24543312e-002, 1.07244521e-001,
          3.16636302e-002, 4.29215766e-002, 2.44125545e-001,
          2.02599466e-001, 3.54930222e-001, 6.66518435e-002,
          1.69926044e-002, 5.60553148e-002, 5.70784025e-002,
          7.35414331e-004, 5.92049025e-003, 1.18799787e-002,
          1.58183165e-002, 3.41598988e-002, 9.71964002e-003,
          2.99294572e-003, 3.11625074e-004, 7.35414331e-004,
          1.20517192e-002, 1.58262685e-001, 3.58605176e-001,
          3.58605176e-001, 1.36007488e-001, 1.33276936e-002,
          1.23161441e-002, 2.99043488e-002, 6.60426393e-002,
          2.56321933e-002, 6.68836385e-002, 2.34535381e-001,
          1.76730603e-001, 1.11171298e-001, 1.11234626e-002,
          1.36042992e-003, 4.11736779e-003, 1.18129039e-002,
          1.10484786e-001, 3.58605176e-001, 3.58605176e-001,
          3.58605176e-001, 3.58605176e-001, 1.03059702e-001,
          4.90433984e-002, 9.32991356e-002, 1.89492092e-001,
          3.59449908e-002, 1.02345511e-001, 3.59886050e-001,
          2.82217801e-001, 1.61628380e-001, 2.44293753e-002,
          2.52213683e-002, 3.56007256e-002, 6.87061027e-002,
          5.70229404e-002, 5.25641479e-002, 1.77639037e-001,
          1.43398523e-001, 3.76875758e-001, 7.78972358e-002,
          5.23124896e-002, 4.03296873e-002, 5.57279550e-002,
          3.00637037e-002, 1.43031076e-001, 3.01603585e-001,
          2.65424639e-001, 3.76875758e-001, 9.64200273e-002,
          6.60025477e-002, 8.01405683e-002, 1.47043258e-001,
          1.09303808e-002, 2.07379591e-002, 4.87774312e-002,
          4.60514016e-002, 3.76875758e-001, 7.74785280e-002,
          4.95846830e-002, 4.23244648e-002, 6.63793534e-002,
          2.58942530e-003, 2.46866047e-002, 2.02017903e-001,
          1.84575155e-001, 4.46808249e-001, 1.86557434e-002, 0.,
          2.06893310e-003, 1.44622219e-003, 5.02134068e-003,
          1.27809746e-002, 8.73638615e-002, 7.20539391e-002,
          4.11862642e-001, 7.22410530e-003, 2.09537611e-004,
          9.40424099e-004, 3.05161695e-003, 1.23733783e-003,
          1.85942184e-003, 1.89779513e-002, 1.93838328e-002,
          4.46808249e-001, 1.26900002e-001, 9.32423845e-002,
          1.59551147e-002, 3.91398370e-003, 3.82894725e-002,
          7.41885677e-002, 2.39681482e-001, 1.86413482e-001,
          4.46808249e-001, 8.70407075e-002, 6.85055703e-002,
          1.17526222e-002, 2.61801314e-002, 1.86660979e-002,
          6.13278560e-002, 2.88659811e-001, 1.90150678e-001,
          7.07557127e-002, 7.29212118e-003, 5.28068631e-004,
          2.62998976e-003, 1.06656440e-002, 4.72143032e-002,
          1.68891177e-001, 2.88659811e-001, 2.88659811e-001,
          2.88659811e-001, 2.83439029e-002, 7.32603157e-003,
          2.09361557e-002, 4.22792062e-002, 1.29313707e-001,
          1.98081508e-001, 2.88659811e-001, 2.88659811e-001,
          2.29809657e-001, 3.52559127e-002, 9.67956521e-003,
          9.76514246e-004, 6.48213550e-002, 1.18290260e-001,
          1.89074308e-001, 2.88659811e-001, 2.88659811e-001,
          2.88659811e-001, 2.40507536e-002, 3.60046816e-003,
          2.63077160e-003, 5.71076944e-002, 1.51370531e-002,
          6.86246455e-002, 1.55827567e-001, 1.41910851e-001,
          4.80019301e-001, 4.07755077e-002, 2.01415457e-002,
          2.42809169e-002, 3.92124653e-002, 1.71266112e-003,
          5.04083745e-003, 4.57131583e-003, 8.43901653e-003,
          4.80019301e-001, 3.00695468e-002, 1.48848929e-002,
          1.08781783e-002, 1.46970013e-002, 1.29550714e-002,
          2.77916100e-002, 1.02416582e-001, 7.97416270e-002,
          4.80019301e-001, 1.11754602e-002, 1.90320029e-003,
          1.40480988e-003, 7.35162059e-003, 3.02120861e-005,
          1.87550861e-004, 6.87850593e-003, 1.29547538e-002,
          4.80019301e-001, 1.34943174e-002, 2.48146243e-003,
          1.40773575e-003, 4.26383782e-003, 1.51732285e-002,
          9.03270394e-003, 1.76647734e-002, 1.63597763e-002,
          2.68130928e-001, 2.68130928e-001, 2.68130928e-001,
          6.97801262e-002, 4.04455923e-002, 6.40661791e-002,
          1.07162096e-001, 2.68130928e-001, 2.61970788e-001,
          2.38313496e-001, 1.53810173e-001, 1.46991685e-001,
          5.46064414e-002, 8.84866267e-002, 8.67487043e-002,
          2.04461310e-002, 2.88751554e-002, 2.73316409e-002,
          1.30223289e-001, 2.68130928e-001, 2.68130928e-001,
          1.37038767e-001, 1.34727493e-001, 1.89302191e-001,
          1.31578952e-001, 2.68130928e-001, 2.68130928e-001,
          9.02798027e-002, 1.49694338e-001, 1.58802375e-001,
          8.52109790e-002, 1.95152909e-001, 1.74361691e-001,
          2.83510238e-001, 3.10128421e-001, 3.10128421e-001,
          3.10128421e-001, 3.89826559e-002, 1.77642498e-002,
          9.33989976e-003, 1.06589958e-001, 1.37357622e-001,
          1.55749962e-001, 2.54368067e-001, 2.10064158e-001,
          3.10128421e-001, 2.59506386e-002, 4.82066488e-003,
          1.55024434e-004, 6.13362938e-002, 9.51424688e-002,
          1.80559278e-001, 3.10128421e-001, 3.10128421e-001,
          2.37662494e-001, 1.67495757e-002, 1.02332747e-002,
          1.13315284e-002, 6.68471828e-002, 8.27188883e-003,
          3.19400951e-002, 8.45802650e-002, 7.50889108e-002,
          1.48792908e-001, 1.28366202e-002, 3.23379156e-003,
          3.37158388e-004, 5.53053664e-003, 4.83087078e-002,
          3.57778147e-002, 6.43761978e-002, 4.62500080e-002,
          4.79296833e-001, 1.22067079e-001, 3.43673155e-002,
          4.93049212e-002, 7.72585496e-002, 9.05994922e-002,
          7.75216892e-002, 8.50407854e-002, 1.43969029e-001,
          4.79296833e-001, 1.33934647e-001, 4.07451913e-002,
          6.85474426e-002, 1.43668503e-001, 6.27857223e-002,
          2.25332808e-002, 1.34097505e-002, 1.38546666e-002,
          2.20612898e-001, 1.05700195e-001, 4.15937118e-002,
          6.48200214e-002, 1.15787007e-001, 1.83673188e-001,
          1.09230801e-001, 8.31992030e-002, 1.23813242e-001,
          4.36975867e-001, 1.07552096e-001, 4.55612093e-002,
          8.68108720e-002, 2.24097669e-001 ]
      - [ 1.62530974e-001, 1.09912515e-001, 1.90949321e-001,
          1.87075287e-001, 3.23755234e-001, 5.87508418e-002,
          2.85180490e-002, 9.81426686e-002, 1.85116142e-001,
          5.55028357e-002, 2.76925210e-002, 8.70010853e-002,
          5.41843809e-002, 1.68542311e-001, 6.61642328e-002,
          2.85923015e-002, 7.04835430e-002, 9.75833833e-002,
          8.84227976e-002, 1.39950797e-001, 3.54930222e-001,
          3.54930222e-001, 3.54930222e-001, 8.07241499e-002,
          1.81005951e-002, 8.24543312e-002, 1.07244521e-001,
          3.16636302e-002, 4.29215766e-002, 2.44125545e-001,
          2.02599466e-001, 3.54930222e-001, 6.66518435e-002,
          1.69926044e-002, 5.60553148e-002, 5.70784025e-002,
          3.64375557e-003, 2.08485289e-003, 1.64494931e-003,
          5.86450240e-003, 4.13310491e-002, 1.15024382e-002,
          3.78063926e-003, 5.00719820e-004, 4.13830904e-003,
          2.25967895e-002, 1.19741045e-001, 2.99382657e-001,
          2.90619671e-001, 2.99382657e-001, 6.26406968e-002,
          3.74450833e-002, 7.57784545e-002, 8.19898024e-002,
          3.86358276e-002, 5.05990051e-002, 2.04753980e-001,
          1.54581517e-001, 1.28276676e-001, 2.11648270e-002,
          6.50680345e-003, 7.52216717e-003, 7.64930546e-002,
          1.66172519e-001, 1.72047973e-001, 2.99382657e-001,
          2.99382657e-001, 2.99382657e-001, 2.99382657e-001,
          2.06966668e-001, 2.40412429e-001, 2.99382657e-001,
          3.83570828e-002, 9.08688158e-002, 3.46484363e-001,
          2.55731106e-001, 2.23064020e-001, 4.23449837e-002,
          3.66704799e-002, 6.00514300e-002, 7.11666644e-002,
          6.11003004e-002, 5.46455309e-002, 1.91827506e-001,
          1.52228206e-001, 4.06713694e-001, 8.58768299e-002,
          5.84797189e-002, 4.90302406e-002, 5.96003570e-002,
          3.79234068e-002, 4.53606211e-002, 1.39715955e-001,
          1.09690897e-001, 4.06713694e-001, 1.56326383e-001,
          1.21251330e-001, 1.45111769e-001, 2.02316999e-001,
          1.12692928e-002, 9.70024895e-003, 4.43263240e-002,
          3.21152657e-002, 4.06713694e-001, 8.62010792e-002,
          6.17616326e-002, 5.81126511e-002, 7.40643367e-002,
          2.50130543e-003, 2.38465033e-002, 1.95143089e-001,
          1.78293943e-001, 4.32097763e-001, 1.80208758e-002, 0.,
          1.99852581e-003, 1.39700621e-003, 4.07807855e-003,
          1.22220786e-002, 8.86999518e-002, 7.41496906e-002,
          3.93734068e-001, 5.54557238e-003, 0., 9.08420770e-004,
          2.27523828e-003, 1.19523040e-003, 1.79614453e-003,
          1.83148161e-002, 1.87576376e-002, 4.32097763e-001,
          1.22581512e-001, 9.00692791e-002, 1.54121527e-002,
          3.78078804e-003, 1.15054790e-002, 5.43930642e-002,
          3.39460105e-001, 2.08596721e-001, 4.32097763e-001,
          7.76390582e-002, 6.33866936e-002, 1.13505311e-002,
          9.70020425e-003, 1.31889451e-002, 5.38388528e-002,
          3.01147431e-001, 1.90421119e-001, 5.64450473e-002,
          5.20692533e-003, 1.23061659e-003, 3.27202561e-003,
          2.30564363e-002, 3.83994877e-002, 8.50139037e-002,
          3.11907768e-001, 3.09005529e-001, 3.11907768e-001,
          8.32806528e-002, 3.41088139e-002, 3.51955965e-002,
          1.11378603e-001, 1.48775401e-002, 1.58065900e-001,
          3.11907768e-001, 3.11907768e-001, 7.48989582e-002,
          7.78951403e-003, 2.12698244e-003, 1.02407928e-003,
          6.31284434e-003, 1.31904688e-002, 1.57128662e-001,
          3.11907768e-001, 3.11907768e-001, 3.11907768e-001,
          1.31863672e-002, 7.97537097e-004, 2.90398276e-003,
          1.41819287e-002, 1.57414861e-002, 1.63486023e-002,
          7.03146234e-002, 6.59371465e-002, 4.87419754e-001,
          7.27830902e-002, 4.08115648e-002, 3.77887897e-002,
          6.80232272e-002, 2.10747286e-003, 1.54487076e-004,
          7.23262638e-005, 4.36280417e-004, 4.87419754e-001,
          3.06911450e-002, 1.80381481e-002, 1.29995365e-002,
          1.64296813e-002, 3.67251458e-003, 2.28336044e-002,
          1.08928330e-001, 8.44499841e-002, 4.87419754e-001,
          1.63397789e-002, 2.28609890e-003, 1.53440773e-003,
          7.15931924e-003, 0., 0., 6.60107611e-003, 1.29594626e-002,
          4.87419754e-001, 1.36780581e-002, 2.51525035e-003,
          1.42690353e-003, 4.32189507e-003, 1.47740748e-002,
          9.31583531e-003, 1.60213057e-002, 1.67549085e-002,
          2.56460547e-001, 2.56460547e-001, 2.56460547e-001,
          6.79444596e-002, 3.93816084e-002, 5.83154894e-002,
          9.19519141e-002, 2.56460547e-001, 2.55905062e-001,
          2.24345982e-001, 1.53248116e-001, 1.42199427e-001,
          5.31671382e-002, 8.25232267e-002, 8.44666585e-002,
          2.21888833e-002, 2.49565206e-002, 2.66824476e-002,
          1.26778468e-001, 2.56460547e-001, 2.56460547e-001,
          1.33433774e-001, 1.31183296e-001, 2.56460547e-001,
          1.90802202e-001, 2.56460547e-001, 2.54823893e-001,
          1.45520002e-001, 1.51421741e-001, 1.54868558e-001,
          8.29687342e-002, 2.16501117e-001, 4.67543043e-002,
          1.76476344e-001, 2.94262856e-001, 2.94262856e-001,
          2.88012981e-001, 2.86334027e-002, 9.51452553e-003,
          7.37843011e-003, 3.74025851e-002, 9.08522215e-003,
          9.53487828e-002, 2.94262856e-001, 2.94262856e-001,
          2.59725779e-001, 1.28375320e-002, 1.46157341e-003,
          1.21016194e-004, 5.85764553e-003, 2.51137227e-001,
          2.32601210e-001, 2.94262856e-001, 2.94262856e-001,
          2.94262856e-001, 2.31665857e-002, 8.68113711e-003,
          8.95845704e-003, 9.79441032e-002, 2.82734912e-002,
          3.76292393e-002, 9.58718061e-002, 1.10304557e-001,
          2.10165754e-001, 1.19320937e-002, 2.69305450e-003,
          2.66235613e-004, 9.78761725e-003, 3.25645953e-002,
          3.05232704e-002, 9.07351449e-002, 6.70903325e-002,
          4.78339821e-001, 1.21731140e-001, 3.42727341e-002,
          4.91692275e-002, 7.37833679e-002, 9.03501436e-002,
          7.73083493e-002, 8.48067403e-002, 1.43572822e-001,
          4.78339821e-001, 1.33566052e-001, 4.06330563e-002,
          6.83587939e-002, 1.43273115e-001, 6.18133470e-002,
          2.20923051e-002, 1.63749326e-002, 1.77978426e-002,
          2.20860749e-001, 1.05409294e-001, 4.14792411e-002,
          6.46416321e-002, 1.15122370e-001, 1.83167711e-001,
          1.08930185e-001, 8.29702318e-002, 1.23472497e-001,
          4.35773283e-001, 1.07256100e-001, 4.54358198e-002,
          8.65719616e-002, 2.23480925e-001 ]
      - [ 1.59972146e-001, 1.07740790e-001, 1.82590529e-001,
          1.58280969e-001, 3.50393593e-001, 5.79694211e-002,
          2.81387381e-002, 9.68373045e-002, 1.82566896e-001,
          5.46930805e-002, 2.73138359e-002, 8.56909305e-002,
          5.20715341e-002, 1.68070599e-001, 6.52842000e-002,
          2.82120034e-002, 6.95460662e-002, 9.62854549e-002,
          8.26115981e-002, 1.15463145e-001, 3.60953063e-001,
          3.60953063e-001, 3.60953063e-001, 6.59544468e-002,
          1.78598445e-002, 8.13576356e-002, 1.05832271e-001,
          3.01695690e-002, 4.09805141e-002, 2.35114157e-001,
          1.94597915e-001, 3.60953063e-001, 6.26047030e-002,
          1.67665910e-002, 5.53097390e-002, 5.63192219e-002,
          7.35414331e-004, 5.92049025e-003, 1.18799787e-002,
          1.58183165e-002, 3.41598988e-002, 9.71964002e-003,
          2.99294572e-003, 3.11625074e-004, 7.35414331e-004,
          1.20517192e-002, 1.58262685e-001, 3.58605176e-001,
          3.58605176e-001, 1.36007488e-001, 1.33276936e-002,
          1.23161441e-002, 2.99043488e-002, 6.60426393e-002,
          2.56321933e-002, 6.68836385e-002, 2.34535381e-001,
          1.76730603e-001, 1.11171298e-001, 1.11234626e-002,
          1.36042992e-003, 4.11736779e-003, 1.18129039e-002,
          1.10484786e-001, 3.58605176e-001, 3.58605176e-001,
          3.58605176e-001, 3.58605176e-001, 1.03059702e-001,
          4.90433984e-002, 9.32991356e-002, 1.89492092e-001,
          3.59449908e-002, 1.02345511e-001, 3.59886050e-001,
          2.82217801e-001, 1.61628380e-001, 2.44293753e-002,
          2.52213683e-002, 3.56007256e-002, 6.87061027e-002,
          5.70229404e-002, 5.25641479e-002, 1.77639037e-001,
          1.43398523e-001, 3.76875758e-001, 7.78972358e-002,
          5.23124896e-002, 4.03296873e-002, 5.57279550e-002,
          3.00637037e-002, 1.43031076e-001, 3.01603585e-001,
          2.65424639e-001, 3.76875758e-001, 9.64200273e-002,
          6.60025477e-002, 8.01405683e-002, 1.47043258e-001,
          1.09303808e-002, 2.07379591e-002, 4.87774312e-002,
          4.60514016e-002, 3.76875758e-001, 7.74785280e-002,
          4.95846830e-002, 4.23244648e-002, 6.63793534e-002,
          1.21705607e-003, 2.42547095e-002, 2.21181482e-001,
          2.06059933e-001, 4.07708615e-001, 2.31670029e-002, 0.,
          2.08633789e-003, 1.76379806e-003, 3.86505644e-003,
          1.22548761e-002, 9.31920782e-002, 8.02647620e-002,
          3.91162515e-001, 6.79407874e-003, 0., 9.48335335e-004,
          2.37520854e-003, 1.33753463e-003, 1.04024950e-002,
          9.40666646e-002, 8.73436183e-002, 4.07708615e-001,
          1.39384151e-001, 9.40267816e-002, 1.60893369e-002,
          4.03669709e-003, 1.20110111e-002, 5.70556447e-002,
          3.57416302e-001, 2.20174372e-001, 4.07708615e-001,
          8.36849883e-002, 6.61717951e-002, 1.18492553e-002,
          1.01264147e-002, 1.37168849e-002, 5.76464087e-002,
          3.00782114e-001, 1.91249952e-001, 5.47242649e-002,
          1.39691774e-003, 0., 2.43288488e-003, 7.19027314e-003,
          4.04170267e-002, 1.57420203e-001, 3.12619627e-001,
          3.12619627e-001, 3.12619627e-001, 2.22349912e-002,
          6.55493932e-003, 1.93670932e-002, 3.70292291e-002,
          1.45628732e-002, 1.51632071e-001, 3.12619627e-001,
          3.12619627e-001, 7.16256350e-002, 6.81972038e-003,
          1.99052622e-003, 9.00194922e-004, 5.36385598e-003,
          1.41176367e-002, 1.54840320e-001, 3.12619627e-001,
          3.12619627e-001, 3.12619627e-001, 3.08218761e-003,
          8.39501154e-005, 2.43288488e-003, 1.06342752e-002,
          1.48330433e-002, 6.84938505e-002, 1.55213490e-001,
          1.42162219e-001, 4.79136765e-001, 4.06852923e-002,
          2.00969819e-002, 2.42271964e-002, 3.91257107e-002,
          1.70887192e-003, 5.02968533e-003, 4.56120213e-003,
          8.42034537e-003, 4.79136765e-001, 3.00030205e-002,
          1.48519613e-002, 1.08541111e-002, 1.46644851e-002,
          4.18487284e-003, 2.54389774e-002, 1.13298111e-001,
          8.87275413e-002, 4.79136765e-001, 1.11507364e-002,
          1.89898955e-003, 1.40170183e-003, 6.12524990e-003,
          3.01452419e-005, 1.87135913e-004, 6.86328765e-003,
          1.29260924e-002, 4.79136765e-001, 1.34644620e-002,
          2.47597229e-003, 1.40462117e-003, 4.25440446e-003,
          1.47852814e-002, 9.32290219e-003, 1.65235475e-002,
          2.07044613e-002, 2.56249011e-001, 2.56249011e-001,
          2.56249011e-001, 6.79959953e-002, 3.94114852e-002,
          5.83597273e-002, 9.20216590e-002, 2.56249011e-001,
          2.56220967e-001, 2.24319056e-001, 1.53420836e-001,
          1.42307296e-001, 5.32074682e-002, 8.25858191e-002,
          8.45307261e-002, 2.22057141e-002, 2.49754526e-002,
          2.67026853e-002, 1.26874641e-001, 2.56249011e-001,
          2.56249011e-001, 1.33534983e-001, 1.31282806e-001,
          2.56249011e-001, 1.90946922e-001, 2.56249011e-001,
          2.55017191e-001, 1.45630389e-001, 1.51536584e-001,
          1.54986024e-001, 8.30316767e-002, 2.16665342e-001,
          4.67543043e-002, 1.76476344e-001, 2.94262856e-001,
          2.94262856e-001, 2.88012981e-001, 2.86334027e-002,
          9.51452553e-003, 7.37843011e-003, 3.74025851e-002,
          9.08522215e-003, 9.53487828e-002, 2.94262856e-001,
          2.94262856e-001, 2.59725779e-001, 1.28375320e-002,
          1.46157341e-003, 1.21016194e-004, 5.85764553e-003,
          2.51137227e-001, 2.32601210e-001, 2.94262856e-001,
          2.94262856e-001, 2.94262856e-001, 2.31665857e-002,
          8.68113711e-003, 8.95845704e-003, 9.79441032e-002,
          2.82734912e-002, 3.76292393e-002, 9.58718061e-002,
          1.10304557e-001, 2.10165754e-001, 1.19320937e-002,
          2.69305450e-003, 2.66235613e-004, 9.78761725e-003,
          3.25645953e-002, 3.05232704e-002, 9.07351449e-002,
          6.70903325e-002, 4.78339821e-001, 1.21731140e-001,
          3.42727341e-002, 4.91692275e-002, 7.37833679e-002,
          9.03501436e-002, 7.73083493e-002, 8.48067403e-002,
          1.43572822e-001, 4.78339821e-001, 1.33566052e-001,
          4.06330563e-002, 6.83587939e-002, 1.43273115e-001,
          6.18133470e-002, 2.20923051e-002, 1.63749326e-002,
          1.77978426e-002, 2.20860749e-001, 1.05409294e-001,
          4.14792411e-002, 6.46416321e-002, 1.15122370e-001,
          1.83167711e-001, 1.08930185e-001, 8.29702318e-002,
          1.23472497e-001, 4.35773283e-001, 1.07256100e-001,
          4.54358198e-002, 8.65719616e-002, 2.23480925e-001 ]
      - [ 1.63897887e-001, 1.10836901e-001, 1.92555249e-001,
          1.88648626e-001, 3.26478124e-001, 5.92449531e-002,
          2.87578907e-002, 9.89680663e-002, 1.86673000e-001,
          5.59696257e-002, 2.79254206e-002, 8.77327845e-002,
          5.46400808e-002, 1.69959784e-001, 6.67206869e-002,
          2.88327690e-002, 7.10763261e-002, 9.84040797e-002,
          9.83842313e-002, 1.64106518e-001, 3.39169651e-001,
          3.39169651e-001, 3.39169651e-001, 7.51821846e-002,
          1.82528254e-002, 8.31477866e-002, 1.08146474e-001,
          3.25444452e-002, 4.88661863e-002, 2.68686146e-001,
          2.40031436e-001, 3.39169651e-001, 6.57768101e-002,
          1.71355158e-002, 5.65267466e-002, 5.75584434e-002,
          7.35414331e-004, 5.92049025e-003, 1.18799787e-002,
          1.58183165e-002, 3.41598988e-002, 9.71964002e-003,
          2.99294572e-003, 3.11625074e-004, 7.35414331e-004,
          1.20517192e-002, 1.58262685e-001, 3.58605176e-001,
          3.58605176e-001, 1.36007488e-001, 1.33276936e-002,
          1.23161441e-002, 2.99043488e-002, 6.60426393e-002,
          2.56321933e-002, 6.68836385e-002, 2.34535381e-001,
          1.76730603e-001, 1.11171298e-001, 1.11234626e-002,
          1.36042992e-003, 4.11736779e-003, 1.18129039e-002,
          1.10484786e-001, 3.58605176e-001, 3.58605176e-001,
          3.58605176e-001, 3.58605176e-001, 1.03059702e-001,
          4.90433984e-002, 9.32991356e-002, 1.89492092e-001,
          3.59449908e-002, 1.02345511e-001, 3.59886050e-001,
          2.82217801e-001, 1.61628380e-001, 2.44293753e-002,
          2.52213683e-002, 3.56007256e-002, 6.87061027e-002,
          5.70229404e-002, 5.25641479e-002, 1.77639037e-001,
          1.43398523e-001, 3.76875758e-001, 7.78972358e-002,
          5.23124896e-002, 4.03296873e-002, 5.57279550e-002,
          3.00637037e-002, 1.43031076e-001, 3.01603585e-001,
          2.65424639e-001, 3.76875758e-001, 9.64200273e-002,
          6.60025477e-002, 8.01405683e-002, 1.47043258e-001,
          1.09303808e-002, 2.07379591e-002, 4.87774312e-002,
          4.60514016e-002, 3.76875758e-001, 7.74785280e-002,
          4.95846830e-002, 4.23244648e-002, 6.63793534e-002,
          1.87749080e-002, 6.88971877e-002, 3.21660548e-001,
          3.21660548e-001, 3.21660548e-001, 9.35908929e-002,
          7.75011629e-002, 2.47306563e-002, 1.01993242e-002,
          5.66065637e-003, 2.35915445e-002, 1.40614375e-001,
          1.34021953e-001, 2.09328115e-001, 2.68444289e-002,
          2.38478649e-002, 6.02368684e-003, 3.13970703e-003,
          8.59973766e-003, 2.18964256e-002, 8.89330208e-002,
          1.27759784e-001, 3.21660548e-001, 3.02954644e-001,
          2.60369480e-001, 6.68244213e-002, 2.32358929e-002,
          1.34529127e-002, 6.58265799e-002, 3.21660548e-001,
          2.57682800e-001, 2.83670038e-001, 1.41098514e-001,
          1.18448123e-001, 2.37940513e-002, 1.21993776e-002,
          1.37168849e-002, 5.76464087e-002, 3.00782114e-001,
          1.91249952e-001, 5.47242649e-002, 1.39691774e-003, 0.,
          2.43288488e-003, 7.19027314e-003, 4.04170267e-002,
          1.57420203e-001, 3.12619627e-001, 3.12619627e-001,
          3.12619627e-001, 2.22349912e-002, 6.55493932e-003,
          1.93670932e-002, 3.70292291e-002, 1.45628732e-002,
          1.51632071e-001, 3.12619627e-001, 3.12619627e-001,
          7.16256350e-002, 6.81972038e-003, 1.99052622e-003,
          9.00194922e-004, 5.36385598e-003, 1.41176367e-002,
          1.54840320e-001, 3.12619627e-001, 3.12619627e-001,
          3.12619627e-001, 3.08218761e-003, 8.39501154e-005,
          2.43288488e-003, 1.06342752e-002, 1.48330433e-002,
          6.84938505e-002, 1.55213490e-001, 1.42162219e-001,
          4.79136765e-001, 4.06852923e-002, 2.00969819e-002,
          2.42271964e-002, 3.91257107e-002, 1.70887192e-003,
          5.02968533e-003, 4.56120213e-003, 8.42034537e-003,
          4.79136765e-001, 3.00030205e-002, 1.48519613e-002,
          1.08541111e-002, 1.46644851e-002, 4.18487284e-003,
          2.54389774e-002, 1.13298111e-001, 8.87275413e-002,
          4.79136765e-001, 1.11507364e-002, 1.89898955e-003,
          1.40170183e-003, 6.12524990e-003, 3.01452419e-005,
          1.87135913e-004, 6.86328765e-003, 1.29260924e-002,
          4.79136765e-001, 1.34644620e-002, 2.47597229e-003,
          1.40462117e-003, 4.25440446e-003, 1.49828941e-002,
          9.44750756e-003, 1.67193674e-002, 2.44746283e-002,
          2.55019158e-001, 2.55019158e-001, 2.55019158e-001,
          7.67838880e-002, 4.29613777e-002, 5.91397360e-002,
          9.32515711e-002, 2.55019158e-001, 2.55019158e-001,
          2.01735184e-001, 1.66076005e-001, 1.51815027e-001,
          5.56711294e-002, 8.38911682e-002, 8.56605247e-002,
          2.25025043e-002, 2.53092609e-002, 2.70595811e-002,
          1.28570378e-001, 2.55019158e-001, 2.55019158e-001,
          1.35319740e-001, 1.33037463e-001, 2.55019158e-001,
          1.93499044e-001, 2.55019158e-001, 2.55019158e-001,
          1.47576809e-001, 1.53561965e-001, 1.57057494e-001,
          8.41414258e-002, 2.19561189e-001, 4.67543043e-002,
          1.76476344e-001, 2.94262856e-001, 2.94262856e-001,
          2.88012981e-001, 2.86334027e-002, 9.51452553e-003,
          7.37843011e-003, 3.74025851e-002, 9.08522215e-003,
          9.53487828e-002, 2.94262856e-001, 2.94262856e-001,
          2.59725779e-001, 1.28375320e-002, 1.46157341e-003,
          1.21016194e-004, 5.85764553e-003, 2.51137227e-001,
          2.32601210e-001, 2.94262856e-001, 2.94262856e-001,
          2.94262856e-001, 2.31665857e-002, 8.68113711e-003,
          8.95845704e-003, 9.79441032e-002, 2.82734912e-002,
          3.76292393e-002, 9.58718061e-002, 1.10304557e-001,
          2.10165754e-001, 1.19320937e-002, 2.69305450e-003,
          2.66235613e-004, 9.78761725e-003, 3.25645953e-002,
          3.05232704e-002, 9.07351449e-002, 6.70903325e-002,
          4.78339821e-001, 1.21731140e-001, 3.42727341e-002,
          4.91692275e-002, 7.37833679e-002, 9.03501436e-002,
          7.73083493e-002, 8.48067403e-002, 1.43572822e-001,
          4.78339821e-001, 1.33566052e-001, 4.06330563e-002,
          6.83587939e-002, 1.43273115e-001, 6.18133470e-002,
          2.20923051e-002, 1.63749326e-002, 1.77978426e-002,
          2.20860749e-001, 1.05409294e-001, 4.14792411e-002,
          6.46416321e-002, 1.15122370e-001, 1.83167711e-001,
          1.08930185e-001, 8.29702318e-002, 1.23472497e-001,
          4.35773283e-001, 1.07256100e-001, 4.54358198e-002,
          8.65719616e-002, 2.23480925e-001 ]
      - [ 7.78102875e-002, 6.43756464e-002, 1.62464112e-001,
          2.22954616e-001, 3.32636058e-001, 4.64888215e-002,
          3.99288051e-002, 4.51212227e-002, 1.17492825e-001,
          6.71128556e-002, 5.46063222e-002, 1.11219950e-001,
          1.73917845e-001, 3.62764269e-001, 5.81007786e-002,
          4.30834703e-002, 5.15572280e-002, 1.02691576e-001,
          1.24441525e-002, 2.61115879e-002, 3.51184368e-001,
          3.62764269e-001, 3.62764269e-001, 3.79309617e-002,
          1.77104324e-002, 9.81312431e-003, 3.05149481e-002,
          1.12674432e-002, 2.07040310e-002, 1.33519664e-001,
          1.93313867e-001, 3.62764269e-001, 2.97457501e-002,
          1.90189369e-002, 1.40561089e-002, 2.74953172e-002,
          8.79711732e-002, 6.80374652e-002, 5.24671301e-002,
          1.29977793e-001, 4.65650558e-001, 9.20649096e-002,
          5.75645603e-002, 6.70995712e-002, 1.37288585e-001,
          2.97900867e-002, 1.61083564e-002, 3.52746993e-002,
          3.49678881e-002, 4.65650558e-001, 1.22663133e-001,
          9.93102044e-002, 5.10040484e-002, 6.73780665e-002,
          1.32730259e-002, 2.10499875e-002, 2.10757721e-002,
          9.07809436e-002, 4.65650558e-001, 5.96829280e-002,
          2.62341667e-002, 2.35594716e-002, 3.73433940e-002,
          4.86125145e-003, 5.85285900e-003, 2.72140205e-002,
          3.92329469e-002, 4.65650558e-001, 7.06582218e-002,
          4.28775661e-002, 1.49721419e-002, 1.76238865e-002,
          3.74614392e-005, 4.52303002e-003, 8.23576227e-002,
          4.91736382e-002, 4.46722597e-001, 1.61513403e-001,
          1.77284598e-001, 1.80315431e-002, 1.69987953e-003,
          2.26395408e-004, 3.78473639e-003, 5.85893579e-002,
          3.08443699e-002, 4.46722597e-001, 2.34413311e-001,
          1.98879346e-001, 3.37108150e-002, 5.13986731e-003,
          5.17690612e-004, 3.09747574e-003, 6.56138211e-002,
          8.85448307e-002, 4.46722597e-001, 5.91516830e-002,
          5.73511831e-002, 2.33950024e-003, 4.34946123e-004,
          4.31767316e-004, 2.40062946e-003, 4.21713069e-002,
          7.41071552e-002, 4.46722597e-001, 5.21159470e-002,
          3.49051431e-002, 2.00342108e-003, 2.39274610e-004,
          5.10785379e-004, 1.92759233e-003, 1.23945028e-001,
          1.38738155e-001, 4.44708169e-001, 1.30040087e-002, 0., 0.,
          5.10785379e-004, 2.30941991e-003, 1.00421940e-003,
          1.02035157e-001, 1.34511560e-001, 4.44708169e-001,
          8.91004503e-003, 1.14274281e-003, 2.02989019e-003,
          1.37850561e-003, 2.18117312e-002, 4.21704119e-003,
          1.28906062e-002, 3.43482867e-002, 4.44708169e-001,
          7.38721564e-002, 4.79520671e-002, 1.72384810e-002,
          1.95416044e-002, 8.21170062e-002, 2.52193641e-002,
          1.88151181e-001, 2.84860551e-001, 4.44708169e-001,
          5.81437536e-002, 3.91679481e-002, 2.46505830e-002,
          3.73079218e-002, 3.28336610e-003, 3.99462035e-004,
          6.42673969e-002, 9.67200324e-002, 3.26716661e-001,
          7.81183168e-002, 5.98258786e-002, 7.17994431e-003,
          1.06758112e-003, 3.49353487e-003, 1.20300632e-002,
          1.08039632e-001, 1.11514799e-001, 3.26716661e-001,
          1.08635686e-001, 9.45941135e-002, 7.64796184e-003,
          1.63131801e-003, 8.83730799e-002, 2.05777586e-002,
          1.53043881e-001, 2.19938099e-001, 3.26716661e-001,
          2.59390265e-001, 2.25794956e-001, 5.00875600e-002,
          3.51648405e-002, 1.06473446e-001, 7.90826753e-002,
          2.26784229e-001, 2.46219441e-001, 2.68955082e-001,
          3.26716661e-001, 2.94557989e-001, 8.51474106e-002,
          5.84528521e-002, 2.96399975e-003, 2.39969287e-002,
          2.72317380e-001, 2.90097952e-001, 3.15191805e-001,
          1.89582184e-002, 1.71220805e-002, 1.47227931e-003,
          1.37029635e-003, 2.01904029e-003, 2.44955942e-002,
          2.23494068e-001, 2.68584102e-001, 3.15191805e-001,
          3.06608574e-003, 9.50806774e-004, 0., 2.06138720e-004,
          5.73599003e-002, 8.47622827e-002, 3.15191805e-001,
          3.15191805e-001, 1.31367087e-001, 6.37200773e-002,
          5.08218333e-002, 2.34708712e-002, 2.15580575e-002,
          5.54005289e-003, 5.31584248e-002, 3.15191805e-001,
          3.15191805e-001, 2.83257872e-001, 5.06913150e-003,
          2.74254661e-003, 0., 1.85059616e-003, 8.76011327e-002,
          1.29995663e-002, 1.40117574e-002, 2.86115184e-002,
          2.70271182e-001, 2.07437754e-001, 1.61123633e-001,
          5.23595735e-002, 1.01903059e-001, 2.03528464e-001,
          6.76432624e-002, 1.45398796e-001, 2.41772816e-001,
          2.70271182e-001, 1.03800125e-001, 7.98699260e-002,
          4.63611782e-002, 1.29553571e-001, 2.01068774e-001,
          1.88215952e-002, 2.30058469e-002, 3.04863956e-002,
          2.70271182e-001, 2.26413071e-001, 1.37985677e-001,
          6.83286041e-002, 2.51457453e-001, 2.70271182e-001,
          8.59677196e-002, 2.61992931e-001, 2.70271182e-001,
          2.40701288e-001, 7.12146536e-002, 4.94760387e-002,
          3.49887758e-002, 2.37180591e-001, 1.39276996e-001,
          4.46252488e-002, 1.22769579e-001, 2.11185470e-001,
          2.36281306e-001, 2.36281306e-001, 2.36281306e-001,
          6.60718456e-002, 7.67100379e-002, 2.23924458e-001,
          7.96847939e-002, 1.55689180e-001, 1.68505222e-001,
          1.15312584e-001, 2.36281306e-001, 2.36281306e-001,
          1.12035699e-001, 2.02854007e-001, 1.23299457e-001,
          4.16903831e-002, 2.19771624e-001, 2.36281306e-001,
          2.36281306e-001, 1.87353224e-001, 1.73927709e-001,
          7.21206143e-002, 1.31535724e-001, 2.36281306e-001,
          4.85618226e-002, 7.43714944e-002, 8.66136774e-002,
          6.78592324e-002, 1.57140300e-001, 1.46203056e-001,
          9.26503912e-002, 2.36281306e-001, 2.14001536e-001,
          1.44398674e-001, 3.06294054e-001, 3.06294054e-001,
          1.40794739e-001, 6.06938750e-002, 4.44025546e-002,
          4.33829837e-002, 1.46590024e-001, 1.24054262e-002,
          5.66135570e-002, 3.06294054e-001, 3.06294054e-001,
          1.20308489e-001, 2.36892910e-003, 1.57437334e-003, 0.,
          5.11836121e-003, 3.06294054e-001, 1.29738584e-001,
          3.04918170e-001, 3.06294054e-001, 7.98313245e-002,
          1.47886276e-002, 1.42503958e-002, 2.16315575e-002,
          3.06294054e-001, 3.81808765e-002, 4.12629358e-002,
          1.88445091e-001, 2.19614118e-001, 5.22455238e-002,
          2.53115082e-004, 0., 0., 1.26884272e-002 ]
      - [ 1.10241555e-001, 7.15519190e-002, 9.05700102e-002,
          1.23186931e-001, 1.88359484e-001, 3.87223624e-002,
          4.97988090e-002, 4.14690338e-002, 1.44123659e-001,
          9.59917232e-002, 5.91648817e-002, 7.29336217e-002,
          1.17468841e-001, 2.50478089e-001, 4.96575497e-002,
          5.03742360e-002, 4.67729457e-002, 1.28238782e-001,
          7.61243701e-002, 1.08763523e-001, 3.71628493e-001,
          3.71628493e-001, 3.71628493e-001, 6.34466559e-002,
          6.10839278e-002, 3.50450203e-002, 1.20570302e-001,
          6.49107546e-002, 8.08970854e-002, 2.18004182e-001,
          3.18337530e-001, 3.71628493e-001, 6.91458136e-002,
          6.07333146e-002, 4.51852158e-002, 1.08473465e-001,
          1.23747796e-001, 7.32542872e-002, 5.41195795e-002,
          1.04685947e-001, 2.67693013e-001, 8.38901475e-002,
          5.04621342e-002, 6.48692697e-002, 1.68840826e-001,
          5.72489835e-002, 3.05991173e-002, 2.04356425e-002,
          5.55567592e-002, 4.35864002e-001, 1.35947317e-001,
          1.03672899e-001, 5.32297529e-002, 8.24674740e-002,
          8.29433426e-002, 7.94439465e-002, 6.37063161e-002,
          1.82410493e-001, 4.76081610e-001, 1.39554590e-001,
          6.06672391e-002, 7.32248053e-002, 1.48863718e-001,
          3.09189335e-002, 1.92947928e-002, 2.21377797e-002,
          3.16692591e-002, 4.76081610e-001, 1.76169604e-001,
          1.16525650e-001, 5.58843687e-002, 7.13570043e-002,
          2.50159670e-002, 3.44697759e-002, 2.20573284e-002,
          7.51612633e-002, 3.90011966e-001, 1.96896911e-001,
          2.01757982e-001, 5.30904979e-002, 1.99518073e-002,
          2.09896956e-002, 2.65304819e-002, 1.22008044e-002,
          4.10475433e-002, 3.90011966e-001, 3.20013016e-001,
          3.15535665e-001, 9.56088379e-002, 2.78330669e-002,
          4.96481487e-004, 2.50051520e-003, 2.16267165e-002,
          2.46398747e-002, 3.90011966e-001, 1.37470618e-001,
          1.47909939e-001, 1.82770509e-002, 6.58266712e-004,
          5.54573722e-004, 1.97339756e-003, 1.29768141e-002,
          2.19540782e-002, 3.90011966e-001, 1.49526924e-001,
          1.28244668e-001, 2.25376915e-002, 1.21567294e-003,
          2.44728266e-003, 1.84804257e-002, 2.01325715e-001,
          2.23140210e-001, 4.38232422e-001, 1.81461833e-002,
          4.59392089e-003, 5.73613099e-004, 6.16539922e-003,
          1.89506926e-003, 1.09025110e-002, 9.88306031e-002,
          1.23034596e-001, 4.38232422e-001, 1.19940238e-002,
          4.89849690e-003, 2.02187942e-003, 5.59570454e-003,
          1.17426384e-002, 3.70324054e-003, 4.02049869e-002,
          5.15810698e-002, 4.38232422e-001, 3.84245068e-002,
          2.94754859e-002, 6.79045077e-003, 9.30862408e-003,
          4.98934425e-002, 2.06723921e-002, 2.14243129e-001,
          2.28838027e-001, 4.38232422e-001, 4.00602259e-002,
          2.84879636e-002, 1.25029432e-002, 2.18716133e-002,
          1.24438736e-003, 5.62058203e-003, 3.90882902e-002,
          6.58729002e-002, 3.63964736e-001, 5.49793765e-002,
          3.06991898e-002, 8.50498676e-003, 7.02727446e-003,
          2.40933709e-003, 1.22967856e-002, 6.86551034e-002,
          5.40024564e-002, 3.63964736e-001, 6.59932196e-002,
          4.96974438e-002, 9.10153426e-003, 3.53597174e-003,
          6.17013499e-002, 1.89961027e-002, 1.73128188e-001,
          1.83477983e-001, 3.63964736e-001, 2.12549061e-001,
          2.03152642e-001, 4.68346886e-002, 2.78708674e-002,
          8.37151781e-002, 8.00684988e-002, 2.34075636e-001,
          2.08834216e-001, 3.63964736e-001, 2.88001806e-001,
          2.86447167e-001, 7.66032860e-002, 4.33220379e-002,
          2.33797380e-003, 2.75533218e-002, 1.83909610e-001,
          1.57828614e-001, 3.44261825e-001, 2.09854487e-002,
          1.99527442e-002, 3.02912318e-003, 7.93429732e-004,
          1.30077894e-003, 2.49868929e-002, 1.37910903e-001,
          1.53119415e-001, 3.44261825e-001, 1.28033692e-002,
          7.65353860e-003, 1.75455131e-003, 5.91700547e-004,
          4.72910181e-002, 1.11834288e-001, 3.44261825e-001,
          3.44261825e-001, 1.85895473e-001, 5.23699597e-002,
          4.89895567e-002, 2.09708363e-002, 1.56696495e-002,
          6.11423375e-003, 8.99256095e-002, 3.44261825e-001,
          3.44261825e-001, 3.44261825e-001, 3.66940326e-003,
          6.93722977e-004, 2.94416677e-003, 3.08934064e-003,
          7.51191527e-002, 1.42101897e-002, 1.02374712e-002,
          2.92540863e-002, 2.81607240e-001, 1.42999053e-001,
          1.49163797e-001, 4.83133830e-002, 8.78003836e-002,
          1.75669909e-001, 6.38277829e-002, 1.56462863e-001,
          2.33575955e-001, 2.81607240e-001, 7.78368786e-002,
          7.84231871e-002, 3.89218479e-002, 1.28741443e-001,
          1.98240697e-001, 2.49481071e-002, 2.10789274e-002,
          3.22666764e-002, 2.81607240e-001, 2.03312457e-001,
          1.75310925e-001, 7.90345594e-002, 2.43153319e-001,
          2.81607240e-001, 9.50441435e-002, 2.66119063e-001,
          2.81607240e-001, 2.45018274e-001, 6.22726642e-002,
          6.52168617e-002, 4.17755879e-002, 2.61238098e-001,
          1.28967151e-001, 4.40843627e-002, 1.32131979e-001,
          1.96096897e-001, 2.34236345e-001, 2.34236345e-001,
          2.34236345e-001, 7.40231201e-002, 8.07244331e-002,
          2.08423540e-001, 8.34395438e-002, 1.83156282e-001,
          1.68847561e-001, 1.09878130e-001, 2.34236345e-001,
          2.34236345e-001, 1.09161541e-001, 1.70465991e-001,
          1.28756955e-001, 4.87946793e-002, 2.10661098e-001,
          2.34236345e-001, 2.34236345e-001, 1.88240260e-001,
          1.94603622e-001, 8.35284069e-002, 1.48970097e-001,
          2.34236345e-001, 4.54523303e-002, 9.77420732e-002,
          8.05085301e-002, 6.43461943e-002, 1.67693764e-001,
          1.60470799e-001, 9.97153074e-002, 2.34236345e-001,
          1.89129800e-001, 1.58064261e-001, 3.04717362e-001,
          3.04717362e-001, 1.13727435e-001, 6.58566654e-002,
          5.56115396e-002, 3.85723300e-002, 1.10562064e-001,
          1.40818954e-002, 9.35109854e-002, 3.04717362e-001,
          3.04717362e-001, 1.35854647e-001, 3.74835567e-003,
          6.72178343e-004, 1.04946108e-003, 6.35662675e-003,
          3.04717362e-001, 1.19673848e-001, 3.04717362e-001,
          3.04717362e-001, 7.95430392e-002, 1.86017882e-002,
          1.37205711e-002, 2.20560227e-002, 2.97460735e-001,
          3.63356322e-002, 4.76538315e-002, 2.48944879e-001,
          2.13892788e-001, 5.52647635e-002, 1.73526656e-004, 0., 0.,
          1.34201255e-002 ]
      - [ 1.10265650e-001, 7.15675578e-002, 9.05898064e-002,
          1.23213857e-001, 1.88400656e-001, 3.87308262e-002,
          4.98096943e-002, 4.14780974e-002, 1.44155160e-001,
          9.60127041e-002, 5.91778122e-002, 7.29495585e-002,
          1.17494516e-001, 2.50532836e-001, 4.96684052e-002,
          5.03852442e-002, 4.67831679e-002, 1.28266811e-001,
          7.67388046e-002, 1.23638496e-001, 3.65331143e-001,
          3.65331143e-001, 3.65331143e-001, 6.59455582e-002,
          6.85230345e-002, 4.02707011e-002, 1.28061086e-001,
          6.50628954e-002, 8.44143778e-002, 2.20557913e-001,
          3.33156079e-001, 3.65331143e-001, 6.85129017e-002,
          6.07465878e-002, 4.55429591e-002, 1.08994804e-001,
          1.23747796e-001, 7.32542872e-002, 5.41195795e-002,
          1.04685947e-001, 2.67693013e-001, 8.38901475e-002,
          5.04621342e-002, 6.48692697e-002, 1.68840826e-001,
          5.72489835e-002, 3.05991173e-002, 2.04356425e-002,
          5.55567592e-002, 4.35864002e-001, 1.35947317e-001,
          1.03672899e-001, 5.32297529e-002, 8.24674740e-002,
          8.29433426e-002, 7.94439465e-002, 6.37063161e-002,
          1.82410493e-001, 4.76081610e-001, 1.39554590e-001,
          6.06672391e-002, 7.32248053e-002, 1.48863718e-001,
          3.09189335e-002, 1.92947928e-002, 2.21377797e-002,
          3.16692591e-002, 4.76081610e-001, 1.76169604e-001,
          1.16525650e-001, 5.58843687e-002, 7.13570043e-002,
          2.50159670e-002, 3.44697759e-002, 2.20573284e-002,
          7.51612633e-002, 3.90011966e-001, 1.96896911e-001,
          2.01757982e-001, 5.30904979e-002, 1.99518073e-002,
          2.09896956e-002, 2.65304819e-002, 1.22008044e-002,
          4.10475433e-002, 3.90011966e-001, 3.20013016e-001,
          3.15535665e-001, 9.56088379e-002, 2.78330669e-002,
          4.96481487e-004, 2.50051520e-003, 2.16267165e-002,
          2.46398747e-002, 3.90011966e-001, 1.37470618e-001,
          1.47909939e-001, 1.82770509e-002, 6.58266712e-004,
          5.54573722e-004, 1.97339756e-003, 1.29768141e-002,
          2.19540782e-002, 3.90011966e-001, 1.49526924e-001,
          1.28244668e-001, 2.25376915e-002, 1.21567294e-003,
          6.00137077e-002, 9.20638740e-002, 2.83088118e-001,
          3.31890941e-001, 3.31890941e-001, 3.83410938e-002,
          3.44550535e-002, 3.97771634e-002, 8.64111185e-002,
          1.38921440e-002, 3.13491672e-002, 1.46590546e-001,
          2.01865852e-001, 3.31890941e-001, 1.43796559e-002,
          6.47284510e-003, 3.90723580e-003, 1.46510005e-002,
          1.77821830e-001, 7.31443092e-002, 9.85895097e-002,
          1.31041735e-001, 2.63488293e-001, 6.20312914e-002,
          7.02681765e-002, 6.43538982e-002, 1.51080459e-001,
          1.00587651e-001, 4.39383872e-002, 3.00386459e-001,
          3.28357697e-001, 3.31890941e-001, 5.97807392e-002,
          5.06707728e-002, 2.47650538e-002, 4.86548245e-002,
          1.24438736e-003, 5.62058203e-003, 3.90882902e-002,
          6.58729002e-002, 3.63964736e-001, 5.49793765e-002,
          3.06991898e-002, 8.50498676e-003, 7.02727446e-003,
          2.40933709e-003, 1.22967856e-002, 6.86551034e-002,
          5.40024564e-002, 3.63964736e-001, 6.59932196e-002,
          4.96974438e-002, 9.10153426e-003, 3.53597174e-003,
          6.17013499e-002, 1.89961027e-002, 1.73128188e-001,
          1.83477983e-001, 3.63964736e-001, 2.12549061e-001,
          2.03152642e-001, 4.68346886e-002, 2.78708674e-002,
          8.37151781e-002, 8.00684988e-002, 2.34075636e-001,
          2.08834216e-001, 3.63964736e-001, 2.88001806e-001,
          2.86447167e-001, 7.66032860e-002, 4.33220379e-002,
          2.33797380e-003, 2.75533218e-002, 1.83909610e-001,
          1.57828614e-001, 3.44261825e-001, 2.09854487e-002,
          1.99527442e-002, 3.02912318e-003, 7.93429732e-004,
          1.30077894e-003, 2.49868929e-002, 1.37910903e-001,
          1.53119415e-001, 3.44261825e-001, 1.28033692e-002,
          7.65353860e-003, 1.75455131e-003, 5.91700547e-004,
          4.72910181e-002, 1.11834288e-001, 3.44261825e-001,
          3.44261825e-001, 1.85895473e-001, 5.23699597e-002,
          4.89895567e-002, 2.09708363e-002, 1.56696495e-002,
          6.11423375e-003, 8.99256095e-002, 3.44261825e-001,
          3.44261825e-001, 3.44261825e-001, 3.66940326e-003,
          6.93722977e-004, 2.94416677e-003, 3.08934064e-003,
          1.80672571e-001, 2.99702547e-002, 3.21377590e-002,
          8.67794529e-002, 2.56604642e-001, 9.19762924e-002,
          9.42737758e-002, 6.33090362e-002, 1.40491337e-001,
          2.21729323e-001, 7.54587948e-002, 1.80610284e-001,
          2.56604642e-001, 2.56604642e-001, 9.52583104e-002,
          1.04748130e-001, 5.07205874e-002, 1.55011863e-001,
          2.44052753e-001, 3.23969275e-002, 2.63712797e-002,
          5.66599071e-002, 2.56604642e-001, 1.29322976e-001,
          9.43800360e-002, 8.38782862e-002, 2.56604642e-001,
          2.56604642e-001, 1.09119609e-001, 2.56604642e-001,
          2.56604642e-001, 2.56604642e-001, 6.63345009e-002,
          7.60971159e-002, 4.86874282e-002, 2.56604642e-001,
          1.28967151e-001, 4.40843627e-002, 1.32131979e-001,
          1.96096897e-001, 2.34236345e-001, 2.34236345e-001,
          2.34236345e-001, 7.40231201e-002, 8.07244331e-002,
          2.08423540e-001, 8.34395438e-002, 1.83156282e-001,
          1.68847561e-001, 1.09878130e-001, 2.34236345e-001,
          2.34236345e-001, 1.09161541e-001, 1.70465991e-001,
          1.28756955e-001, 4.87946793e-002, 2.10661098e-001,
          2.34236345e-001, 2.34236345e-001, 1.88240260e-001,
          1.94603622e-001, 8.35284069e-002, 1.48970097e-001,
          2.34236345e-001, 4.54523303e-002, 9.77420732e-002,
          8.05085301e-002, 6.43461943e-002, 1.67693764e-001,
          1.60470799e-001, 9.97153074e-002, 2.34236345e-001,
          1.89129800e-001, 1.58064261e-001, 3.04717362e-001,
          3.04717362e-001, 1.13727435e-001, 6.58566654e-002,
          5.56115396e-002, 3.85723300e-002, 1.10562064e-001,
          1.40818954e-002, 9.35109854e-002, 3.04717362e-001,
          3.04717362e-001, 1.35854647e-001, 3.74835567e-003,
          6.72178343e-004, 1.04946108e-003, 6.35662675e-003,
          3.04717362e-001, 1.19673848e-001, 3.04717362e-001,
          3.04717362e-001, 7.95430392e-002, 1.86017882e-002,
          1.37205711e-002, 2.20560227e-002, 2.97460735e-001,
          3.63356322e-002, 4.76538315e-002, 2.48944879e-001,
          2.13892788e-001, 5.52647635e-002, 1.73526656e-004, 0., 0.,
          1.34201255e-002 ]
      - [ 7.78102875e-002, 6.43756464e-002, 1.62464112e-001,
          2.22954616e-001, 3.32636058e-001, 4.64888215e-002,
          3.99288051e-002, 4.51212227e-002, 1.17492825e-001,
          6.71128556e-002, 5.46063222e-002, 1.11219950e-001,
          1.73917845e-001, 3.62764269e-001, 5.81007786e-002,
          4.30834703e-002, 5.15572280e-002, 1.02691576e-001,
          1.24441525e-002, 2.61115879e-002, 3.51184368e-001,
          3.62764269e-001, 3.62764269e-001, 3.79309617e-002,
          1.77104324e-002, 9.81312431e-003, 3.05149481e-002,
          1.12674432e-002, 2.07040310e-002, 1.33519664e-001,
          1.93313867e-001, 3.62764269e-001, 2.97457501e-002,
          1.90189369e-002, 1.40561089e-002, 2.74953172e-002,
          8.87866169e-002, 6.86681271e-002, 5.29534668e-002,
          1.31182596e-001, 4.70490783e-001, 9.29182991e-002,
          5.80981523e-002, 6.77215457e-002, 1.38561159e-001,
          3.00662220e-002, 1.51264556e-002, 9.26019996e-003,
          1.72144696e-002, 4.70490783e-001, 9.04250816e-002,
          4.60082553e-002, 4.89178896e-002, 6.80026188e-002,
          1.33960592e-002, 2.12451089e-002, 2.12711301e-002,
          9.16224197e-002, 4.70490783e-001, 6.02361523e-002,
          2.64773425e-002, 2.37778537e-002, 3.76895443e-002,
          4.90631256e-003, 5.90711180e-003, 2.74662785e-002,
          3.95966098e-002, 4.70490783e-001, 5.87423928e-002,
          2.17042509e-002, 1.44869694e-002, 1.77872498e-002,
          3.58684629e-005, 1.52519776e-003, 3.66403698e-003, 0.,
          4.88265753e-001, 2.73202695e-002, 2.15321407e-002,
          1.05671436e-002, 7.53105502e-004, 2.16768371e-004,
          3.35543533e-003, 8.06088094e-003, 0., 4.88265753e-001,
          1.16588898e-001, 8.76534283e-002, 2.97202654e-002,
          2.99742655e-003, 4.95676766e-004, 3.06744128e-003,
          6.30679876e-002, 8.47796351e-002, 4.88265753e-001,
          4.27728472e-003, 3.89115041e-004, 3.60631384e-005,
          3.21932195e-004, 4.13407222e-004, 2.52224295e-003,
          4.09154445e-002, 7.09558949e-002, 4.88265753e-001,
          4.22432972e-003, 3.51194554e-004, 0., 2.11588049e-005,
          5.10785379e-004, 1.92759233e-003, 1.23945028e-001,
          1.38738155e-001, 4.44708169e-001, 1.30040087e-002, 0., 0.,
          5.10785379e-004, 2.30941991e-003, 1.00421940e-003,
          1.02035157e-001, 1.34511560e-001, 4.44708169e-001,
          8.91004503e-003, 1.14274281e-003, 2.02989019e-003,
          1.37850561e-003, 2.18117312e-002, 4.21704119e-003,
          1.28906062e-002, 3.43482867e-002, 4.44708169e-001,
          7.38721564e-002, 4.79520671e-002, 1.72384810e-002,
          1.95416044e-002, 8.21170062e-002, 2.52193641e-002,
          1.88151181e-001, 2.84860551e-001, 4.44708169e-001,
          5.81437536e-002, 3.91679481e-002, 2.46505830e-002,
          3.73079218e-002, 3.28336610e-003, 3.99462035e-004,
          6.42673969e-002, 9.67200324e-002, 3.26716661e-001,
          7.81183168e-002, 5.98258786e-002, 7.17994431e-003,
          1.06758112e-003, 3.49353487e-003, 1.20300632e-002,
          1.08039632e-001, 1.11514799e-001, 3.26716661e-001,
          1.08635686e-001, 9.45941135e-002, 7.64796184e-003,
          1.63131801e-003, 8.83730799e-002, 2.05777586e-002,
          1.53043881e-001, 2.19938099e-001, 3.26716661e-001,
          2.59390265e-001, 2.25794956e-001, 5.00875600e-002,
          3.51648405e-002, 1.06473446e-001, 7.90826753e-002,
          2.26784229e-001, 2.46219441e-001, 2.68955082e-001,
          3.26716661e-001, 2.94557989e-001, 8.51474106e-002,
          5.84528521e-002, 2.96399975e-003, 2.39969287e-002,
          2.72317380e-001, 2.90097952e-001, 3.15191805e-001,
          1.89582184e-002, 1.71220805e-002, 1.47227931e-003,
          1.37029635e-003, 2.01904029e-003, 2.44955942e-002,
          2.23494068e-001, 2.68584102e-001, 3.15191805e-001,
          3.06608574e-003, 9.50806774e-004, 0., 2.06138720e-004,
          5.73599003e-002, 8.47622827e-002, 3.15191805e-001,
          3.15191805e-001, 1.31367087e-001, 6.37200773e-002,
          5.08218333e-002, 2.34708712e-002, 2.15580575e-002,
          5.54005289e-003, 5.31584248e-002, 3.15191805e-001,
          3.15191805e-001, 2.83257872e-001, 5.06913150e-003,
          2.74254661e-003, 0., 1.85059616e-003, 8.76011327e-002,
          1.29995663e-002, 1.40117574e-002, 2.86115184e-002,
          2.70271182e-001, 2.07437754e-001, 1.61123633e-001,
          5.23595735e-002, 1.01903059e-001, 2.03528464e-001,
          6.76432624e-002, 1.45398796e-001, 2.41772816e-001,
          2.70271182e-001, 1.03800125e-001, 7.98699260e-002,
          4.63611782e-002, 1.29553571e-001, 2.01068774e-001,
          1.88215952e-002, 2.30058469e-002, 3.04863956e-002,
          2.70271182e-001, 2.26413071e-001, 1.37985677e-001,
          6.83286041e-002, 2.51457453e-001, 2.70271182e-001,
          8.59677196e-002, 2.61992931e-001, 2.70271182e-001,
          2.40701288e-001, 7.12146536e-002, 4.94760387e-002,
          3.49887758e-002, 2.37180591e-001, 1.39276996e-001,
          4.46252488e-002, 1.22769579e-001, 2.11185470e-001,
          2.36281306e-001, 2.36281306e-001, 2.36281306e-001,
          6.60718456e-002, 7.67100379e-002, 2.23924458e-001,
          7.96847939e-002, 1.55689180e-001, 1.68505222e-001,
          1.15312584e-001, 2.36281306e-001, 2.36281306e-001,
          1.12035699e-001, 2.02854007e-001, 1.23299457e-001,
          4.16903831e-002, 2.19771624e-001, 2.36281306e-001,
          2.36281306e-001, 1.87353224e-001, 1.73927709e-001,
          7.21206143e-002, 1.31535724e-001, 2.36281306e-001,
          4.85618226e-002, 7.43714944e-002, 8.66136774e-002,
          6.78592324e-002, 1.57140300e-001, 1.46203056e-001,
          9.26503912e-002, 2.36281306e-001, 2.14001536e-001,
          1.44398674e-001, 3.06294054e-001, 3.06294054e-001,
          1.40794739e-001, 6.06938750e-002, 4.44025546e-002,
          4.33829837e-002, 1.46590024e-001, 1.24054262e-002,
          5.66135570e-002, 3.06294054e-001, 3.06294054e-001,
          1.20308489e-001, 2.36892910e-003, 1.57437334e-003, 0.,
          5.11836121e-003, 3.06294054e-001, 1.29738584e-001,
          3.04918170e-001, 3.06294054e-001, 7.98313245e-002,
          1.47886276e-002, 1.42503958e-002, 2.16315575e-002,
          3.06294054e-001, 3.81808765e-002, 4.12629358e-002,
          1.88445091e-001, 2.19614118e-001, 5.22455238e-002,
          2.53115082e-004, 0., 0., 1.26884272e-002 ]
      - [ 1.11353860e-004, 1.48977793e-004, 1.18431018e-003,
          1.54707709e-003, 1.34910143e-003, 0., 0., 0., 1.11353860e-004,
          1.36126736e-002, 7.37015232e-002, 3.95906687e-001,
          2.74007231e-001, 7.82177001e-002, 0., 0., 0., 1.18921977e-002,
          1.21007048e-001, 4.50143926e-002, 9.52680111e-002,
          9.88066047e-002, 3.97893935e-002, 0., 8.00327305e-003,
          2.01419997e-003, 3.21255215e-002, 3.60622495e-001,
          3.33717614e-001, 4.34664547e-001, 4.34664547e-001,
          2.76795268e-001, 4.34044711e-002, 4.38139029e-002,
          3.62064503e-002, 1.12915926e-001, 2.54412629e-002,
          6.96345121e-002, 3.35500509e-001, 2.37916604e-001,
          5.08071408e-002, 4.76316828e-003, 4.49660188e-003,
          8.11975449e-003, 1.51332896e-002, 4.73652594e-002,
          7.37321973e-002, 3.35500509e-001, 2.24886373e-001,
          3.35500509e-001, 7.01102465e-002, 2.20857095e-002,
          5.14990389e-002, 4.93171997e-002, 7.73070678e-002,
          1.59848943e-001, 3.35500509e-001, 3.35500509e-001,
          1.95189953e-001, 4.16390561e-002, 2.16574408e-002,
          2.65139751e-002, 2.91909818e-002, 5.06947488e-002,
          1.00424424e-001, 2.63908237e-001, 1.55799121e-001,
          3.35500509e-001, 6.60274401e-002, 3.61792222e-002,
          3.86851840e-002, 1.99256521e-002, 3.35948244e-002,
          3.29680108e-002, 1.20080233e-001, 7.46339932e-002,
          6.24818444e-001, 1.64010599e-001, 3.80788147e-002,
          7.96325430e-002, 6.41280711e-002, 0., 0., 0., 0.,
          2.29890540e-001, 1.30585255e-002, 2.15194025e-003,
          1.73472008e-003, 6.12535048e-004, 2.41877921e-002,
          2.11101398e-002, 1.91149060e-002, 1.22411866e-002,
          6.24818444e-001, 3.91962044e-002, 2.11244561e-002,
          2.42217313e-002, 1.60881132e-002, 1.34585602e-002, 0., 0., 0.,
          3.06898981e-001, 1.15143426e-004, 0., 1.75343640e-003,
          1.35620032e-002, 8.17561373e-002, 5.89126125e-002,
          2.16717854e-001, 1.53802902e-001, 3.09242569e-002, 0.,
          9.24905762e-003, 1.50077080e-003, 1.65328979e-002,
          2.69203603e-001, 1.54514119e-001, 3.07478637e-001,
          3.07478637e-001, 8.70429054e-002, 1.94254890e-002,
          4.57214899e-002, 2.32281163e-002, 7.38396421e-002,
          7.59953186e-002, 1.47250429e-001, 3.07478637e-001,
          3.07478637e-001, 1.03260018e-001, 2.46661250e-002,
          2.63333283e-002, 1.56501066e-002, 3.84406969e-002,
          3.07478637e-001, 2.28621423e-001, 3.07478637e-001,
          3.07478637e-001, 1.12559848e-001, 2.88228020e-002,
          5.28217368e-002, 4.14298959e-002, 1.70969501e-001,
          1.39157489e-001, 1.20803580e-001, 3.44163239e-001,
          2.55413264e-001, 3.07504982e-001, 3.49980667e-002,
          2.03654878e-002, 2.04607453e-002, 5.20141833e-002,
          4.22680527e-002, 5.72314337e-002, 1.37811497e-001,
          8.10805485e-002, 3.44163239e-001, 4.44527417e-002,
          1.21843833e-002, 1.68950111e-002, 1.72987711e-002,
          3.18134606e-001, 1.34067699e-001, 2.57905483e-001,
          2.11140513e-001, 2.42767140e-001, 7.40297837e-003,
          1.16794975e-002, 1.23237185e-002, 1.63901404e-001,
          1.88305706e-001, 7.41224959e-002, 1.47397622e-001,
          1.04015373e-001, 3.44163239e-001, 5.22397272e-002,
          1.74775068e-002, 1.58148967e-002, 1.27110168e-001,
          1.09071910e-001, 3.00728567e-002, 4.51773927e-002,
          2.22621839e-002, 3.32579702e-001, 2.60195117e-002,
          7.27655413e-003, 2.47650035e-002, 8.38350728e-002,
          1.27549261e-001, 1.59277152e-002, 2.21347399e-002,
          8.33927933e-003, 1.57317653e-001, 4.27318588e-002,
          2.53422093e-002, 5.20013161e-002, 1.46401733e-001,
          3.01506311e-001, 8.75259042e-002, 2.33125195e-001,
          1.51131377e-001, 3.32579702e-001, 8.89570713e-002,
          3.60695459e-002, 5.78626692e-002, 2.78744578e-001,
          3.32579702e-001, 7.89588839e-002, 1.42172351e-001,
          1.57151669e-001, 3.32579702e-001, 1.38815045e-001,
          6.24250509e-002, 1.06200725e-001, 3.32398891e-001,
          1.11117326e-001, 8.04898292e-002, 2.63769925e-001,
          2.63769925e-001, 2.19279304e-001, 5.07875197e-002,
          3.21073830e-002, 3.20189558e-002, 1.17255166e-001,
          2.63769925e-001, 1.52146101e-001, 2.63769925e-001,
          2.63769925e-001, 8.75322372e-002, 4.10848483e-002,
          3.26407440e-002, 5.62389828e-002, 2.63769925e-001,
          2.63769925e-001, 1.01411961e-001, 1.55860871e-001,
          9.39898714e-002, 2.63769925e-001, 5.59543297e-002,
          2.29133479e-002, 3.50091346e-002, 2.63769925e-001,
          2.63769925e-001, 1.33755311e-001, 1.61019564e-001,
          1.27657980e-001, 3.09656933e-002, 1.26130320e-002,
          8.55269190e-003, 2.06358992e-002, 2.63769925e-001,
          2.55472451e-001, 1.49801672e-001, 2.35897616e-001,
          1.86795071e-001, 9.99055207e-002, 2.51985006e-002,
          1.84761342e-002, 3.88809741e-002, 2.55472451e-001,
          2.42573008e-001, 9.02866051e-002, 1.85924158e-001,
          1.29997373e-001, 2.55472451e-001, 7.52153322e-002,
          4.87126522e-002, 4.66388799e-002, 2.13145748e-001,
          2.55472451e-001, 1.24965869e-001, 1.62838608e-001,
          1.40208378e-001, 1.90046147e-001, 9.49557871e-002,
          4.26327959e-002, 5.42752631e-002, 2.55472451e-001,
          1.65943682e-001, 1.04726672e-001, 1.48024917e-001,
          2.15341508e-001, 2.55472451e-001, 1.96637079e-001,
          1.07540116e-001, 8.91895518e-002, 1.72163337e-001,
          2.58324325e-001, 1.40960097e-001, 2.58324325e-001,
          2.57734776e-001, 2.58324325e-001, 6.10856935e-002,
          4.16407771e-002, 4.25014980e-002, 2.38865867e-001,
          2.58324325e-001, 1.34481922e-001, 2.31158867e-001,
          2.36182883e-001, 2.58324325e-001, 5.30448519e-002,
          2.32876465e-002, 3.30726020e-002, 2.56221145e-001,
          1.35162339e-001, 1.49671301e-001, 2.58324325e-001,
          2.58324325e-001, 2.58324325e-001, 6.01895116e-002,
          4.23629805e-002, 2.99426354e-002, 8.11653659e-002,
          1.32488847e-001, 6.05946518e-002, 1.26993477e-001,
          9.32833105e-002, 9.65927020e-002, 0., 5.39333385e-004,
          9.22468840e-004, 8.11300874e-002 ]
      - [ 1.11353860e-004, 1.48977793e-004, 1.18431018e-003,
          1.54707709e-003, 1.34910143e-003, 0., 0., 0., 1.11353860e-004,
          1.36126736e-002, 7.37015232e-002, 3.95906687e-001,
          2.74007231e-001, 7.82177001e-002, 0., 0., 0., 1.18921977e-002,
          1.21007048e-001, 4.50143926e-002, 9.52680111e-002,
          9.88066047e-002, 3.97893935e-002, 0., 8.00327305e-003,
          2.01419997e-003, 3.21255215e-002, 3.60622495e-001,
          3.33717614e-001, 4.34664547e-001, 4.34664547e-001,
          2.76795268e-001, 4.34044711e-002, 4.38139029e-002,
          3.62064503e-002, 1.12915926e-001, 2.54412629e-002,
          6.96345121e-002, 3.35500509e-001, 2.37916604e-001,
          5.08071408e-002, 4.76316828e-003, 4.49660188e-003,
          8.11975449e-003, 1.51332896e-002, 4.73652594e-002,
          7.37321973e-002, 3.35500509e-001, 2.24886373e-001,
          3.35500509e-001, 7.01102465e-002, 2.20857095e-002,
          5.14990389e-002, 4.93171997e-002, 7.73070678e-002,
          1.59848943e-001, 3.35500509e-001, 3.35500509e-001,
          1.95189953e-001, 4.16390561e-002, 2.16574408e-002,
          2.65139751e-002, 2.91909818e-002, 5.06947488e-002,
          1.00424424e-001, 2.63908237e-001, 1.55799121e-001,
          3.35500509e-001, 6.60274401e-002, 3.61792222e-002,
          3.86851840e-002, 1.99256521e-002, 3.35948244e-002,
          3.29680108e-002, 1.20080233e-001, 7.46339932e-002,
          6.24818444e-001, 1.64010599e-001, 3.80788147e-002,
          7.96325430e-002, 6.41280711e-002, 0., 0., 0., 0.,
          2.29890540e-001, 1.30585255e-002, 2.15194025e-003,
          1.73472008e-003, 6.12535048e-004, 2.41877921e-002,
          2.11101398e-002, 1.91149060e-002, 1.22411866e-002,
          6.24818444e-001, 3.91962044e-002, 2.11244561e-002,
          2.42217313e-002, 1.60881132e-002, 1.34585602e-002, 0., 0., 0.,
          3.06898981e-001, 1.15143426e-004, 0., 1.75343640e-003,
          1.35620032e-002, 8.17561373e-002, 5.89126125e-002,
          2.16717854e-001, 1.53802902e-001, 3.09242569e-002, 0.,
          9.24905762e-003, 1.50077080e-003, 1.65328979e-002,
          2.69203603e-001, 1.54514119e-001, 3.07478637e-001,
          3.07478637e-001, 8.70429054e-002, 1.94254890e-002,
          4.57214899e-002, 2.32281163e-002, 7.38396421e-002,
          7.59953186e-002, 1.47250429e-001, 3.07478637e-001,
          3.07478637e-001, 1.03260018e-001, 2.46661250e-002,
          2.63333283e-002, 1.56501066e-002, 3.84406969e-002,
          3.07478637e-001, 2.28621423e-001, 3.07478637e-001,
          3.07478637e-001, 1.12559848e-001, 2.88228020e-002,
          5.28217368e-002, 4.14298959e-002, 1.70969501e-001,
          1.39157489e-001, 1.20803580e-001, 3.44163239e-001,
          2.55413264e-001, 3.07504982e-001, 3.49980667e-002,
          2.03654878e-002, 2.04607453e-002, 5.20141833e-002,
          4.22680527e-002, 5.72314337e-002, 1.37811497e-001,
          8.10805485e-002, 3.44163239e-001, 4.44527417e-002,
          1.21843833e-002, 1.68950111e-002, 1.72987711e-002,
          3.18134606e-001, 1.34067699e-001, 2.57905483e-001,
          2.11140513e-001, 2.42767140e-001, 7.40297837e-003,
          1.16794975e-002, 1.23237185e-002, 1.63901404e-001,
          1.88305706e-001, 7.41224959e-002, 1.47397622e-001,
          1.04015373e-001, 3.44163239e-001, 5.22397272e-002,
          1.74775068e-002, 1.58148967e-002, 1.27110168e-001,
          1.09071910e-001, 3.00728567e-002, 4.51773927e-002,
          2.22621839e-002, 3.32579702e-001, 2.60195117e-002,
          7.27655413e-003, 2.47650035e-002, 8.38350728e-002,
          1.27549261e-001, 1.59277152e-002, 2.21347399e-002,
          8.33927933e-003, 1.57317653e-001, 4.27318588e-002,
          2.53422093e-002, 5.20013161e-002, 1.46401733e-001,
          3.01506311e-001, 8.75259042e-002, 2.33125195e-001,
          1.51131377e-001, 3.32579702e-001, 8.89570713e-002,
          3.60695459e-002, 5.78626692e-002, 2.78744578e-001,
          3.32579702e-001, 7.89588839e-002, 1.42172351e-001,
          1.57151669e-001, 3.32579702e-001, 1.38815045e-001,
          6.24250509e-002, 1.06200725e-001, 3.32398891e-001,
          1.14789926e-001, 7.63626695e-002, 2.76258647e-001,
          2.76258647e-001, 1.96510732e-001, 6.23109266e-002,
          5.33630773e-002, 3.96000296e-002, 1.39249131e-001,
          2.76258647e-001, 1.56763494e-001, 2.76258647e-001,
          2.76258647e-001, 9.09871012e-002, 4.22971584e-002,
          3.48293073e-002, 5.88560030e-002, 2.76258647e-001,
          2.76258647e-001, 8.99808854e-003, 6.84139505e-002,
          5.68423048e-002, 1.77753136e-001, 6.45364001e-002,
          7.04264343e-002, 6.57744780e-002, 2.76258647e-001,
          2.76258647e-001, 1.21438906e-001, 1.56533077e-001,
          1.24498397e-001, 2.92075258e-002, 1.20530892e-002,
          1.07428404e-002, 2.26873830e-002, 2.76258647e-001,
          2.55472451e-001, 1.49801672e-001, 2.35897616e-001,
          1.86795071e-001, 9.99055207e-002, 2.51985006e-002,
          1.84761342e-002, 3.88809741e-002, 2.55472451e-001,
          2.42573008e-001, 9.02866051e-002, 1.85924158e-001,
          1.29997373e-001, 2.55472451e-001, 7.52153322e-002,
          4.87126522e-002, 4.66388799e-002, 2.13145748e-001,
          2.55472451e-001, 1.24965869e-001, 1.62838608e-001,
          1.40208378e-001, 1.90046147e-001, 9.49557871e-002,
          4.26327959e-002, 5.42752631e-002, 2.55472451e-001,
          1.65943682e-001, 1.04726672e-001, 1.48024917e-001,
          2.15341508e-001, 2.55472451e-001, 1.96637079e-001,
          1.07540116e-001, 8.91895518e-002, 1.72163337e-001,
          2.58324325e-001, 1.40960097e-001, 2.58324325e-001,
          2.57734776e-001, 2.58324325e-001, 6.10856935e-002,
          4.16407771e-002, 4.25014980e-002, 2.38865867e-001,
          2.58324325e-001, 1.34481922e-001, 2.31158867e-001,
          2.36182883e-001, 2.58324325e-001, 5.30448519e-002,
          2.32876465e-002, 3.30726020e-002, 2.56221145e-001,
          1.35162339e-001, 1.49671301e-001, 2.58324325e-001,
          2.58324325e-001, 2.58324325e-001, 6.01895116e-002,
          4.23629805e-002, 2.99426354e-002, 8.11653659e-002,
          1.32488847e-001, 6.05946518e-002, 1.26993477e-001,
          9.32833105e-002, 9.65927020e-002, 0., 5.39333385e-004,
          9.22468840e-004, 8.11300874e-002 ]
      - [ 1.63768954e-003, 2.84264097e-004, 0., 1.00404373e-003,
          4.09042608e-004, 0., 0., 0., 7.77744222e-004, 3.20143774e-002,
          4.26396122e-003, 9.41234734e-003, 6.83510303e-002,
          3.27464551e-001, 3.66656743e-002, 3.53363412e-003,
          3.42619978e-003, 2.94799730e-002, 2.36177519e-001,
          1.01195753e-001, 1.22689389e-001, 1.71902448e-001,
          6.09375648e-002, 0., 1.33232521e-002, 1.61366450e-004,
          6.32700175e-002, 3.27464551e-001, 3.27464551e-001,
          3.27464551e-001, 3.27464551e-001, 3.27464551e-001,
          1.61263853e-001, 1.10212132e-001, 2.85273105e-001,
          3.27464551e-001, 1.17981732e-002, 2.42192112e-002,
          1.50570676e-001, 1.34002492e-001, 2.84125686e-001,
          6.88645467e-002, 4.93373163e-002, 1.25094987e-002,
          8.18965118e-003, 3.23174521e-002, 5.08454926e-002,
          2.65497833e-001, 1.96437031e-001, 4.24178839e-001,
          1.58826232e-001, 9.30554792e-002, 6.35760427e-002,
          4.41096313e-002, 5.06726541e-002, 4.86933254e-002,
          5.19473031e-002, 7.03250468e-002, 4.24178839e-001,
          1.85086653e-001, 1.44558623e-001, 6.96826950e-002,
          4.14717011e-002, 2.03998876e-003, 3.38483276e-003,
          3.57041694e-002, 3.48740220e-002, 4.24178839e-001,
          2.33502477e-001, 2.02323779e-001, 4.03436460e-002,
          3.73629550e-003, 2.51512770e-002, 2.72599012e-002,
          1.13346606e-001, 6.98239282e-002, 6.23186529e-001,
          1.77270427e-001, 5.99937178e-002, 7.65318125e-002,
          5.68130650e-002, 0., 0., 0., 0., 2.26052135e-001,
          1.28404917e-002, 2.11600983e-003, 1.70575595e-003,
          6.02307729e-004, 7.56736239e-003, 1.06236420e-003,
          1.32563598e-002, 8.19352176e-003, 6.23186529e-001,
          7.53206015e-002, 6.95690885e-002, 1.66301094e-002,
          7.79113686e-003, 1.32338461e-002, 0., 0., 0., 3.01774770e-001,
          1.13220907e-004, 0., 1.72415993e-003, 1.33355623e-002,
          8.85518640e-002, 6.54567108e-002, 2.23174214e-001,
          1.63070336e-001, 3.08816619e-002, 0., 9.29621700e-003,
          1.12592439e-004, 1.87245719e-002, 2.35849366e-001,
          1.71783969e-001, 3.03844929e-001, 3.03844929e-001,
          1.55817807e-001, 1.70901790e-002, 4.69468385e-002,
          4.16442975e-002, 6.92242458e-002, 8.07807520e-002,
          1.56229705e-001, 3.03844929e-001, 3.03844929e-001,
          1.09016642e-001, 2.61366218e-002, 2.76740212e-002,
          1.59114450e-002, 4.12156247e-002, 2.86826760e-001,
          2.36609757e-001, 3.03844929e-001, 3.03844929e-001,
          1.34058759e-001, 2.74558291e-002, 5.28785549e-002,
          3.61144431e-002, 1.65479571e-001, 7.90677965e-002,
          7.12148249e-002, 1.13703050e-001, 1.28061429e-001,
          3.93026173e-001, 6.05530515e-002, 4.95745093e-002,
          4.01613601e-002, 4.25532945e-002, 2.28598882e-002,
          1.15910228e-002, 2.54283585e-002, 2.40583401e-002,
          3.93026173e-001, 7.85732195e-002, 4.73785661e-002,
          1.40536530e-002, 1.48120951e-002, 3.06063890e-001,
          1.36004999e-001, 2.74254292e-001, 2.35975355e-001,
          3.00912797e-001, 3.72996391e-003, 1.19430888e-002,
          1.05283344e-002, 1.70026317e-001, 2.05874011e-001,
          7.72075206e-002, 1.54625103e-001, 1.10227667e-001,
          3.93026173e-001, 5.70702441e-002, 2.01115832e-002,
          1.78099647e-002, 1.43415183e-001, 1.07152857e-001,
          2.61570159e-002, 4.40668203e-002, 2.22286247e-002,
          3.33437920e-001, 3.00835054e-002, 1.28057776e-002,
          2.30158195e-002, 8.31829011e-002, 1.27356991e-001,
          1.59037057e-002, 2.21013725e-002, 8.32670834e-003,
          1.57080516e-001, 4.26674448e-002, 2.53040083e-002,
          5.19229323e-002, 1.46181032e-001, 3.01051825e-001,
          8.73939693e-002, 2.32773796e-001, 1.50903553e-001,
          3.33437920e-001, 8.82815570e-002, 3.60010602e-002,
          5.76832443e-002, 2.78324395e-001, 3.33437920e-001,
          7.88398609e-002, 1.41958028e-001, 1.56914756e-001,
          3.33437920e-001, 1.38605803e-001, 6.23309463e-002,
          1.06040642e-001, 3.31897825e-001, 1.11142382e-001,
          8.05079788e-002, 2.63751924e-001, 2.63751924e-001,
          2.19328761e-001, 5.07989749e-002, 3.21146250e-002,
          3.20261754e-002, 1.17281608e-001, 2.63751924e-001,
          1.52180403e-001, 2.63751924e-001, 2.63751924e-001,
          8.75519738e-002, 4.10941094e-002, 3.26481052e-002,
          5.62516637e-002, 2.63751924e-001, 2.63751924e-001,
          1.01434819e-001, 1.55896008e-001, 9.40110683e-002,
          2.63751924e-001, 5.59669435e-002, 2.29185149e-002,
          3.50170285e-002, 2.63751924e-001, 2.63751924e-001,
          1.33785456e-001, 1.61055863e-001, 1.27686769e-001,
          3.09726764e-002, 1.26158753e-002, 8.55462067e-003,
          2.06405502e-002, 2.63751924e-001, 2.55439222e-001,
          1.49884433e-001, 2.34686285e-001, 1.87966838e-001,
          9.99607369e-002, 2.52124239e-002, 1.84863433e-002,
          3.89024615e-002, 2.55439222e-001, 2.42354006e-001,
          9.03364941e-002, 1.85937449e-001, 1.30140454e-001,
          2.55439222e-001, 7.52568990e-002, 4.87395674e-002,
          4.66646552e-002, 2.12910473e-001, 2.55439222e-001,
          1.25034913e-001, 1.62928596e-001, 1.40285864e-001,
          1.90151155e-001, 9.50082541e-002, 4.26563546e-002,
          5.43052554e-002, 2.55439222e-001, 1.66035384e-001,
          1.04784541e-001, 1.48106709e-001, 2.15460494e-001,
          2.55439222e-001, 1.96745723e-001, 1.07599534e-001,
          8.92388299e-002, 1.72258481e-001, 2.58324325e-001,
          1.40960097e-001, 2.58324325e-001, 2.57734776e-001,
          2.58324325e-001, 6.10856935e-002, 4.16407771e-002,
          4.25014980e-002, 2.38865867e-001, 2.58324325e-001,
          1.34481922e-001, 2.31158867e-001, 2.36182883e-001,
          2.58324325e-001, 5.30448519e-002, 2.32876465e-002,
          3.30726020e-002, 2.56221145e-001, 1.35162339e-001,
          1.49671301e-001, 2.58324325e-001, 2.58324325e-001,
          2.58324325e-001, 6.01895116e-002, 4.23629805e-002,
          2.99426354e-002, 8.11653659e-002, 1.32488847e-001,
          6.05946518e-002, 1.26993477e-001, 9.32833105e-002,
          9.65927020e-002, 0., 5.39333385e-004, 9.22468840e-004,
          8.11300874e-002 ]
      - [ 1.11353860e-004, 1.48977793e-004, 1.18431018e-003,
          1.54707709e-003, 1.34910143e-003, 0., 0., 0., 1.11353860e-004,
          1.36126736e-002, 7.37015232e-002, 3.95906687e-001,
          2.74007231e-001, 7.82177001e-002, 0., 0., 0., 1.18921977e-002,
          1.21007048e-001, 4.50143926e-002, 9.52680111e-002,
          9.88066047e-002, 3.97893935e-002, 0., 8.00327305e-003,
          2.01419997e-003, 3.21255215e-002, 3.60622495e-001,
          3.33717614e-001, 4.34664547e-001, 4.34664547e-001,
          2.76795268e-001, 4.34044711e-002, 4.38139029e-002,
          3.62064503e-002, 1.12915926e-001, 2.54412629e-002,
          6.96345121e-002, 3.35500509e-001, 2.37916604e-001,
          5.08071408e-002, 4.76316828e-003, 4.49660188e-003,
          8.11975449e-003, 1.51332896e-002, 4.73652594e-002,
          7.37321973e-002, 3.35500509e-001, 2.24886373e-001,
          3.35500509e-001, 7.01102465e-002, 2.20857095e-002,
          5.14990389e-002, 4.93171997e-002, 7.73070678e-002,
          1.59848943e-001, 3.35500509e-001, 3.35500509e-001,
          1.95189953e-001, 4.16390561e-002, 2.16574408e-002,
          2.65139751e-002, 2.91909818e-002, 5.06947488e-002,
          1.00424424e-001, 2.63908237e-001, 1.55799121e-001,
          3.35500509e-001, 6.60274401e-002, 3.61792222e-002,
          3.86851840e-002, 1.99256521e-002, 3.35948244e-002,
          3.29680108e-002, 1.20080233e-001, 7.46339932e-002,
          6.24818444e-001, 1.64010599e-001, 3.80788147e-002,
          7.96325430e-002, 6.41280711e-002, 0., 0., 0., 0.,
          2.29890540e-001, 1.30585255e-002, 2.15194025e-003,
          1.73472008e-003, 6.12535048e-004, 2.41877921e-002,
          2.11101398e-002, 1.91149060e-002, 1.22411866e-002,
          6.24818444e-001, 3.91962044e-002, 2.11244561e-002,
          2.42217313e-002, 1.60881132e-002, 1.34585602e-002, 0., 0., 0.,
          3.06898981e-001, 1.15143426e-004, 0., 1.75343640e-003,
          1.35620032e-002, 8.17561373e-002, 5.89126125e-002,
          2.16717854e-001, 1.53802902e-001, 3.09242569e-002, 0.,
          9.24905762e-003, 1.50077080e-003, 1.65328979e-002,
          2.69203603e-001, 1.54514119e-001, 3.07478637e-001,
          3.07478637e-001, 8.70429054e-002, 1.94254890e-002,
          4.57214899e-002, 2.32281163e-002, 7.38396421e-002,
          7.59953186e-002, 1.47250429e-001, 3.07478637e-001,
          3.07478637e-001, 1.03260018e-001, 2.46661250e-002,
          2.63333283e-002, 1.56501066e-002, 3.84406969e-002,
          3.07478637e-001, 2.28621423e-001, 3.07478637e-001,
          3.07478637e-001, 1.12559848e-001, 2.88228020e-002,
          5.28217368e-002, 4.14298959e-002, 1.70969501e-001,
          1.39157489e-001, 1.20803580e-001, 3.44163239e-001,
          2.55413264e-001, 3.07504982e-001, 3.49980667e-002,
          2.03654878e-002, 2.04607453e-002, 5.20141833e-002,
          4.22680527e-002, 5.72314337e-002, 1.37811497e-001,
          8.10805485e-002, 3.44163239e-001, 4.44527417e-002,
          1.21843833e-002, 1.68950111e-002, 1.72987711e-002,
          3.18134606e-001, 1.34067699e-001, 2.57905483e-001,
          2.11140513e-001, 2.42767140e-001, 7.40297837e-003,
          1.16794975e-002, 1.23237185e-002, 1.63901404e-001,
          1.88305706e-001, 7.41224959e-002, 1.47397622e-001,
          1.04015373e-001, 3.44163239e-001, 5.22397272e-002,
          1.74775068e-002, 1.58148967e-002, 1.27110168e-001,
          1.09071910e-001, 3.00728567e-002, 4.51773927e-002,
          2.22621839e-002, 3.32579702e-001, 2.60195117e-002,
          7.27655413e-003, 2.47650035e-002, 8.38350728e-002,
          1.27549261e-001, 1.59277152e-002, 2.21347399e-002,
          8.33927933e-003, 1.57317653e-001, 4.27318588e-002,
          2.53422093e-002, 5.20013161e-002, 1.46401733e-001,
          3.01506311e-001, 8.75259042e-002, 2.33125195e-001,
          1.51131377e-001, 3.32579702e-001, 8.89570713e-002,
          3.60695459e-002, 5.78626692e-002, 2.78744578e-001,
          3.32579702e-001, 7.89588839e-002, 1.42172351e-001,
          1.57151669e-001, 3.32579702e-001, 1.38815045e-001,
          6.24250509e-002, 1.06200725e-001, 3.32398891e-001,
          1.14789926e-001, 7.63626695e-002, 2.76258647e-001,
          2.76258647e-001, 1.96510732e-001, 6.23109266e-002,
          5.33630773e-002, 3.96000296e-002, 1.39249131e-001,
          2.76258647e-001, 1.56763494e-001, 2.76258647e-001,
          2.76258647e-001, 9.09871012e-002, 4.22971584e-002,
          3.48293073e-002, 5.88560030e-002, 2.76258647e-001,
          2.76258647e-001, 8.99808854e-003, 6.84139505e-002,
          5.68423048e-002, 1.77753136e-001, 6.45364001e-002,
          7.04264343e-002, 6.57744780e-002, 2.76258647e-001,
          2.76258647e-001, 1.21438906e-001, 1.56533077e-001,
          1.24498397e-001, 2.92075258e-002, 1.20530892e-002,
          1.07428404e-002, 2.26873830e-002, 2.76258647e-001,
          2.55472451e-001, 1.49801672e-001, 2.35897616e-001,
          1.86795071e-001, 9.99055207e-002, 2.51985006e-002,
          1.84761342e-002, 3.88809741e-002, 2.55472451e-001,
          2.42573008e-001, 9.02866051e-002, 1.85924158e-001,
          1.29997373e-001, 2.55472451e-001, 7.52153322e-002,
          4.87126522e-002, 4.66388799e-002, 2.13145748e-001,
          2.55472451e-001, 1.24965869e-001, 1.62838608e-001,
          1.40208378e-001, 1.90046147e-001, 9.49557871e-002,
          4.26327959e-002, 5.42752631e-002, 2.55472451e-001,
          1.65943682e-001, 1.04726672e-001, 1.48024917e-001,
          2.15341508e-001, 2.55472451e-001, 1.96637079e-001,
          1.07540116e-001, 8.91895518e-002, 1.72163337e-001,
          2.58324325e-001, 1.40960097e-001, 2.58324325e-001,
          2.57734776e-001, 2.58324325e-001, 6.10856935e-002,
          4.16407771e-002, 4.25014980e-002, 2.38865867e-001,
          2.58324325e-001, 1.34481922e-001, 2.31158867e-001,
          2.36182883e-001, 2.58324325e-001, 5.30448519e-002,
          2.32876465e-002, 3.30726020e-002, 2.56221145e-001,
          1.35162339e-001, 1.49671301e-001, 2.58324325e-001,
          2.58324325e-001, 2.58324325e-001, 6.01895116e-002,
          4.23629805e-002, 2.99426354e-002, 8.11653659e-002,
          1.32488847e-001, 6.05946518e-002, 1.26993477e-001,
          9.32833105e-002, 9.65927020e-002, 0., 5.39333385e-004,
          9.22468840e-004, 8.11300874e-002 ]
      - [ 2.74450630e-001, 6.70832321e-002, 1.59373805e-001,
          1.96729958e-001, 5.99575341e-002, 9.63452447e-004,
          1.37384821e-004, 1.41789962e-003, 2.24760368e-001,
          2.74450630e-001, 8.77458230e-002, 8.69654343e-002,
          1.11786097e-001, 2.40374535e-001, 3.28437835e-002,
          8.50762799e-003, 6.67395396e-003, 2.74450630e-001,
          2.38450542e-001, 8.41960013e-002, 2.31460825e-001,
          2.74450630e-001, 2.74450630e-001, 1.46312062e-002,
          1.20623587e-002, 1.73525009e-002, 1.85361534e-001,
          2.74450630e-001, 6.72296211e-002, 5.21279760e-002,
          5.89279532e-002, 2.74450630e-001, 1.08580075e-001,
          6.60725608e-002, 7.62502551e-002, 2.74450630e-001,
          2.62797177e-001, 9.01047662e-002, 1.01797096e-001,
          1.37040362e-001, 4.50553149e-001, 1.09351270e-001,
          2.83331871e-002, 5.79651678e-003, 1.32878587e-001,
          2.02684980e-002, 5.49127860e-003, 5.96814090e-003,
          8.67935549e-003, 4.50553149e-001, 4.25318331e-002,
          1.20213041e-002, 6.60922728e-004, 5.81602752e-003,
          1.02138259e-001, 2.55069435e-002, 1.81582477e-002,
          5.60192391e-003, 4.50553149e-001, 1.08877733e-001,
          4.36730050e-002, 4.54367101e-002, 1.21158645e-001,
          1.51380361e-003, 2.81388382e-003, 3.03454697e-002,
          3.41482610e-002, 4.50553149e-001, 1.20099494e-002, 0., 0.,
          1.21916621e-003, 1.46260372e-005, 1.54364784e-003,
          3.70836002e-003, 0., 4.88094240e-001, 2.16491427e-002,
          2.14985739e-002, 1.01474803e-002, 6.71461690e-004,
          2.19390582e-004, 3.39602493e-003, 8.15839227e-003, 0.,
          4.88094240e-001, 1.17999248e-001, 8.87137577e-002,
          3.00797839e-002, 3.03368596e-003, 5.26246848e-004,
          3.10454750e-003, 6.38309047e-002, 8.58052000e-002,
          4.88094240e-001, 7.85536715e-004, 8.20252826e-005, 0.,
          3.45795357e-004, 4.18408104e-004, 2.55275401e-003,
          4.14103903e-002, 7.18142316e-002, 4.88094240e-001,
          4.27543046e-003, 3.55442869e-004, 0., 2.14147585e-005,
          6.59583062e-002, 3.77861150e-002, 5.38621917e-002,
          9.88337025e-002, 4.52513695e-001, 1.36378398e-002,
          9.25227720e-003, 9.89043713e-003, 6.03456795e-002,
          8.14357549e-002, 2.76435819e-002, 1.94884799e-002,
          4.14253473e-002, 4.52513695e-001, 1.29114106e-001,
          6.72382563e-002, 4.08892594e-002, 1.12472303e-001,
          1.82354543e-003, 1.68593437e-003, 1.73057290e-003,
          1.08571937e-002, 4.52513695e-001, 1.26287201e-002,
          5.60126361e-003, 5.76434482e-004, 3.12858145e-003,
          2.61967583e-003, 1.31128216e-003, 1.29895401e-003,
          7.78874150e-003, 4.52513695e-001, 2.51222819e-001,
          2.12927535e-001, 7.28597539e-003, 6.19920949e-003,
          1.55155277e-002, 1.78761256e-004, 4.25387843e-004,
          7.04044825e-004, 3.28972340e-001, 1.93546236e-001,
          1.20714732e-001, 2.40269173e-002, 3.40606347e-002,
          7.63067836e-003, 1.32246558e-002, 1.17306508e-001,
          1.16686471e-001, 3.28972340e-001, 8.43631327e-002,
          6.89393580e-002, 6.02247287e-003, 8.90011899e-003,
          3.19263898e-002, 2.96631595e-003, 1.84334698e-003,
          4.33392450e-003, 3.28972340e-001, 3.28972340e-001,
          3.28972340e-001, 5.81731200e-002, 7.45638683e-002,
          1.92879200e-001, 1.01030722e-001, 2.34264642e-001,
          2.63854265e-001, 1.63499042e-001, 2.47535631e-001,
          2.21554041e-001, 7.68299475e-002, 1.92601398e-001,
          4.35411558e-003, 2.41646785e-002, 2.74221033e-001,
          2.92125881e-001, 3.12791109e-001, 5.80873154e-003,
          2.48243916e-003, 7.74253742e-004, 3.21927597e-003,
          2.03315448e-003, 2.46668328e-002, 2.25056410e-001,
          2.70461649e-001, 3.12791109e-001, 3.08751944e-003,
          9.57453391e-004, 0., 2.07579738e-004, 1.04200646e-001,
          1.15230247e-001, 3.12791109e-001, 3.12791109e-001,
          1.08355001e-001, 1.59088746e-002, 1.27999159e-002,
          1.51991677e-002, 5.12112640e-002, 1.52535690e-002,
          6.54877126e-002, 3.12791109e-001, 3.12791109e-001,
          2.83768594e-001, 4.99007851e-003, 2.76171835e-003,
          9.79606761e-004, 2.63398606e-003, 7.14524067e-005, 0.,
          1.05322944e-003, 4.22458071e-003, 4.41503435e-001,
          1.13237426e-002, 6.73667062e-003, 0., 7.14524067e-005,
          8.21294147e-004, 0., 2.43052957e-004, 2.77959742e-003,
          4.41503435e-001, 3.19128007e-001, 3.00361544e-001,
          2.66117398e-002, 5.67614473e-003, 1.01183518e-003,
          2.65255477e-002, 1.22071423e-001, 1.34505749e-001,
          4.41503435e-001, 2.10061185e-002, 8.02387134e-004,
          4.63718243e-006, 1.19455829e-002, 4.16539144e-003,
          6.85721822e-003, 3.08126919e-002, 4.73534763e-002,
          3.88120711e-001, 1.25516906e-001, 1.10749014e-001,
          3.30205560e-002, 2.29402222e-002, 8.48058537e-002,
          3.44156008e-003, 2.28233798e-003, 5.26256999e-003,
          1.66400433e-001, 2.68184155e-001, 2.68184155e-001,
          1.08050831e-001, 1.49552658e-001, 2.68184155e-001,
          1.54509574e-001, 1.81879073e-001, 2.40964472e-001,
          7.69345239e-002, 1.85486078e-001, 1.72678798e-001,
          1.04251623e-001, 2.68184155e-001, 1.60539955e-001,
          2.59369961e-003, 1.93915074e-003, 1.80971297e-003,
          6.61896467e-002, 2.56375045e-001, 2.39029020e-001,
          1.04312807e-001, 2.42324963e-001, 2.68184155e-001,
          1.16178766e-001, 1.29869625e-001, 1.60270467e-001,
          5.36116846e-002, 8.72300714e-002, 8.44557956e-002,
          6.70026988e-002, 2.68184155e-001, 3.04627627e-001,
          3.04627627e-001, 3.04627627e-001, 3.04627627e-001,
          1.12972513e-001, 9.72792506e-003, 1.40228327e-002,
          3.54270227e-002, 1.39940143e-001, 1.07363231e-001,
          1.29782677e-001, 3.04627627e-001, 3.04627627e-001,
          1.13697946e-001, 1.96067849e-003, 1.70348270e-003,
          3.12688062e-003, 7.06424797e-003, 3.04627627e-001,
          2.29938045e-001, 2.51333863e-001, 3.04627627e-001,
          7.06080198e-002, 0., 1.12321589e-003, 7.74781872e-003,
          1.42742544e-001, 9.17149633e-002, 7.25216344e-002,
          8.64586681e-002, 1.25566602e-001, 3.01747303e-002, 0., 0.,
          7.21587741e-004, 5.40441601e-003 ]
      - [ 2.74450630e-001, 6.70832321e-002, 1.59373805e-001,
          1.96729958e-001, 5.99575341e-002, 9.63452447e-004,
          1.37384821e-004, 1.41789962e-003, 2.24760368e-001,
          2.74450630e-001, 8.77458230e-002, 8.69654343e-002,
          1.11786097e-001, 2.40374535e-001, 3.28437835e-002,
          8.50762799e-003, 6.67395396e-003, 2.74450630e-001,
          2.38450542e-001, 8.41960013e-002, 2.31460825e-001,
          2.74450630e-001, 2.74450630e-001, 1.46312062e-002,
          1.20623587e-002, 1.73525009e-002, 1.85361534e-001,
          2.74450630e-001, 6.72296211e-002, 5.21279760e-002,
          5.89279532e-002, 2.74450630e-001, 1.08580075e-001,
          6.60725608e-002, 7.62502551e-002, 2.74450630e-001,
          2.62797177e-001, 9.01047662e-002, 1.01797096e-001,
          1.37040362e-001, 4.50553149e-001, 1.09351270e-001,
          2.83331871e-002, 5.79651678e-003, 1.32878587e-001,
          2.02684980e-002, 5.49127860e-003, 5.96814090e-003,
          8.67935549e-003, 4.50553149e-001, 4.25318331e-002,
          1.20213041e-002, 6.60922728e-004, 5.81602752e-003,
          1.02138259e-001, 2.55069435e-002, 1.81582477e-002,
          5.60192391e-003, 4.50553149e-001, 1.08877733e-001,
          4.36730050e-002, 4.54367101e-002, 1.21158645e-001,
          1.51380361e-003, 2.81388382e-003, 3.03454697e-002,
          3.41482610e-002, 4.50553149e-001, 1.20099494e-002, 0., 0.,
          1.21916621e-003, 1.46260372e-005, 1.54364784e-003,
          3.70836002e-003, 0., 4.88094240e-001, 2.16491427e-002,
          2.14985739e-002, 1.01474803e-002, 6.71461690e-004,
          2.19390582e-004, 3.39602493e-003, 8.15839227e-003, 0.,
          4.88094240e-001, 1.17999248e-001, 8.87137577e-002,
          3.00797839e-002, 3.03368596e-003, 5.26246848e-004,
          3.10454750e-003, 6.38309047e-002, 8.58052000e-002,
          4.88094240e-001, 7.85536715e-004, 8.20252826e-005, 0.,
          3.45795357e-004, 4.18408104e-004, 2.55275401e-003,
          4.14103903e-002, 7.18142316e-002, 4.88094240e-001,
          4.27543046e-003, 3.55442869e-004, 0., 2.14147585e-005,
          6.59583062e-002, 3.77861150e-002, 5.38621917e-002,
          9.88337025e-002, 4.52513695e-001, 1.36378398e-002,
          9.25227720e-003, 9.89043713e-003, 6.03456795e-002,
          8.14357549e-002, 2.76435819e-002, 1.94884799e-002,
          4.14253473e-002, 4.52513695e-001, 1.29114106e-001,
          6.72382563e-002, 4.08892594e-002, 1.12472303e-001,
          1.82354543e-003, 1.68593437e-003, 1.73057290e-003,
          1.08571937e-002, 4.52513695e-001, 1.26287201e-002,
          5.60126361e-003, 5.76434482e-004, 3.12858145e-003,
          2.61967583e-003, 1.31128216e-003, 1.29895401e-003,
          7.78874150e-003, 4.52513695e-001, 2.51222819e-001,
          2.12927535e-001, 7.28597539e-003, 6.19920949e-003,
          1.55155277e-002, 1.78761256e-004, 4.25387843e-004,
