%YAML:1.0
my_svm: !!opencv-ml-svm
   svm_type: C_SVC
   kernel: { type:RBF, gamma:8.9999999999999997e-002 }
   C: 10.
   term_criteria: { epsilon:1.1920928955078125e-007,
       iterations:2147483647 }
   var_all: 324
   var_count: 324
   class_count: 2
   class_labels: !!opencv-matrix
      rows: 1
      cols: 2
      dt: i
      data: [ 1, 2 ]
   sv_total: 11
   support_vectors:
      - [ 1.77828476e-001, 7.89709613e-002, 1.11800499e-001,
          2.17393905e-001, 2.43174955e-001, 8.42423365e-002,
          2.80618742e-002, 7.28643909e-002, 8.38854536e-002,
          1.83730856e-001, 8.60435963e-002, 1.02178656e-001,
          2.21420348e-001, 2.43174955e-001, 1.54899448e-001,
          5.76209575e-002, 1.36322469e-001, 1.57422215e-001,
          2.43174955e-001, 1.31185338e-001, 1.85285002e-001,
          1.68718278e-001, 2.43174955e-001, 1.55822933e-001,
          9.85308215e-002, 1.19634822e-001, 1.55547097e-001,
          2.06219137e-001, 1.34224698e-001, 1.87520370e-001,
          2.43174955e-001, 2.43174955e-001, 1.74523786e-001,
          1.23843022e-001, 1.30991086e-001, 2.06023276e-001,
          2.23086029e-001, 1.20353334e-001, 7.20288083e-002,
          1.78462669e-001, 2.29594186e-001, 9.43185315e-002,
          7.05633089e-002, 8.79620016e-002, 1.63017258e-001,
          2.29594186e-001, 1.94757804e-001, 1.91504136e-001,
          1.69156611e-001, 2.29594186e-001, 8.45117047e-002,
          7.68346786e-002, 8.73163640e-002, 1.86864957e-001,
          2.29594186e-001, 1.19598739e-001, 1.13624595e-001,
          2.09901199e-001, 2.29594186e-001, 9.75475237e-002,
          1.08357914e-001, 6.84317946e-002, 2.27082595e-001,
          2.29594186e-001, 1.88365251e-001, 1.47957981e-001,
          2.20962435e-001, 2.29594186e-001, 7.83848986e-002,
          6.36377260e-002, 5.04321046e-002, 2.29594186e-001,
          2.60773510e-001, 2.27995262e-001, 2.25225151e-001,
          1.45160109e-001, 1.26889497e-001, 4.40981090e-002,
          2.68893838e-002, 3.91364284e-002, 1.38389662e-001,
          1.63199633e-001, 2.13631228e-001, 1.85061231e-001,
          2.31302619e-001, 2.60773510e-001, 6.61027208e-002,
          3.24399807e-002, 4.14152443e-002, 6.53569698e-002,
          2.60773510e-001, 1.98280588e-001, 2.09972218e-001,
          1.05625786e-001, 1.33127257e-001, 2.71478333e-002,
          3.10698375e-002, 4.05681208e-002, 2.15170950e-001,
          2.60773510e-001, 2.36295968e-001, 2.60773510e-001,
          1.38227016e-001, 2.60773510e-001, 2.95094326e-002,
          5.21638580e-002, 6.09971695e-002, 1.02620535e-001,
          8.45293999e-002, 6.02895990e-002, 8.83092508e-002,
          6.19683005e-002, 2.35685661e-001, 1.88848361e-001,
          1.54083326e-001, 1.01404339e-001, 9.40135196e-002,
          9.48018357e-002, 1.20489344e-001, 2.06662089e-001,
          2.02101588e-001, 2.35685661e-001, 1.62174061e-001,
          1.75949663e-001, 1.37422681e-001, 2.00936720e-001,
          2.30084255e-001, 9.32755917e-002, 8.77990723e-002,
          7.68121183e-002, 1.95107996e-001, 1.63375452e-001,
          1.93924621e-001, 1.07848443e-001, 1.73845395e-001,
          2.35685661e-001, 1.72266796e-001, 2.35685661e-001,
          1.75594673e-001, 1.90458521e-001, 1.26977608e-001,
          1.77027211e-001, 1.77958220e-001, 2.35685661e-001,
          1.48568735e-001, 1.09480724e-001, 1.52105987e-001,
          1.68257251e-001, 1.85581595e-001, 6.60437346e-002,
          1.10295206e-001, 1.12448104e-001, 2.33969793e-001,
          2.36346290e-001, 2.02421486e-001, 1.83451444e-001,
          2.25381911e-001, 1.30188137e-001, 5.30444756e-002,
          6.63362816e-002, 1.05872221e-001, 2.36346290e-001,
          2.18938902e-001, 1.46895126e-001, 1.85016766e-001,
          1.93906412e-001, 1.36808664e-001, 9.05308053e-002,
          1.02558114e-001, 1.82556078e-001, 2.36346290e-001,
          2.36346290e-001, 1.94715932e-001, 1.66944325e-001,
          1.89117357e-001, 8.14831257e-002, 5.49975075e-002,
          6.53132200e-002, 1.61561102e-001, 2.36346290e-001,
          2.55473256e-001, 1.96526825e-001, 1.81089088e-001,
          1.27948985e-001, 6.54894263e-002, 2.30146572e-002,
          3.27719972e-002, 4.48340587e-002, 2.55473256e-001,
          2.55473256e-001, 1.75765887e-001, 2.12713048e-001,
          6.03721403e-002, 7.39606097e-002, 3.29021551e-002,
          4.16316167e-002, 6.26809001e-002, 2.55473256e-001,
          2.55473256e-001, 1.32942840e-001, 1.69122294e-001,
          1.95461407e-001, 1.81369856e-001, 6.54424429e-002,
          6.50413260e-002, 6.63691983e-002, 2.55473256e-001,
          2.55473256e-001, 1.25869900e-001, 1.77132457e-001,
          1.46327168e-001, 2.55473256e-001, 1.16003118e-001,
          7.45491907e-002, 6.64717630e-002, 2.55473256e-001,
          2.16916263e-001, 7.91715160e-002, 7.20605627e-002,
          1.06620982e-001, 2.68153518e-001, 1.58757210e-001,
          1.14909977e-001, 4.91621420e-002, 1.30456746e-001,
          2.68153518e-001, 1.30586579e-001, 1.58018574e-001,
          1.50608465e-001, 2.68153518e-001, 9.65169072e-002,
          6.64506257e-002, 7.05818534e-002, 2.68153518e-001,
          6.31652400e-002, 8.48474056e-002, 1.80917755e-001,
          1.56454846e-001, 2.68153518e-001, 1.34439915e-001,
          1.04379937e-001, 6.21639453e-002, 4.85189483e-002,
          2.68153518e-001, 1.14291698e-001, 2.17558622e-001,
          1.76761657e-001, 2.68153518e-001, 7.65034854e-002,
          7.46532083e-002, 6.53797239e-002, 2.68153518e-001,
          2.37077519e-001, 1.20621867e-001, 1.07371867e-001,
          1.58705443e-001, 2.37077519e-001, 9.02427137e-002,
          6.05379045e-002, 9.86000672e-002, 1.99576795e-001,
          2.37077519e-001, 1.38397679e-001, 1.00690499e-001,
          1.43333316e-001, 2.37077519e-001, 7.35588670e-002,
          4.42293994e-002, 8.42431858e-002, 2.37077519e-001,
          2.37077519e-001, 1.64946675e-001, 1.19460493e-001,
          1.25035688e-001, 2.37077519e-001, 6.85219690e-002,
          5.26024438e-002, 9.32234004e-002, 2.37077519e-001,
          2.37077519e-001, 2.37077519e-001, 1.96094051e-001,
          1.25260830e-001, 2.37077519e-001, 1.31484285e-001,
          3.86000238e-002, 1.16335936e-001, 2.06685245e-001,
          2.74262965e-001, 8.59352201e-002, 1.04359671e-001,
          1.64123282e-001, 2.74262965e-001, 8.47121105e-002,
          5.73191121e-002, 4.38949428e-002, 2.26306096e-001,
          1.99723452e-001, 7.07455128e-002, 1.08171612e-001,
          1.61716729e-001, 2.74262965e-001, 1.47196263e-001,
          9.40675139e-002, 9.07892436e-002, 1.64152861e-001,
          2.74262965e-001, 1.53290927e-001, 1.30344883e-001,
          9.37115476e-002, 1.84454978e-001, 7.58403093e-002,
          3.30300815e-002, 5.35801165e-002, 2.74262965e-001,
          2.74262965e-001, 9.51921493e-002, 5.59116714e-002,
          1.16505422e-001, 2.42842376e-001, 1.03242151e-001,
          1.00649282e-001, 1.22152984e-001, 2.74262965e-001 ]
      - [ 1.63367152e-001, 1.12636395e-001, 1.44202083e-001,
          1.42131194e-001, 2.35164315e-001, 1.32107034e-001,
          5.48460744e-002, 7.46741295e-002, 1.11586221e-001,
          2.35164315e-001, 1.16452560e-001, 1.67551070e-001,
          1.28507212e-001, 2.34268352e-001, 8.96437168e-002,
          6.38583824e-002, 7.62732551e-002, 2.35164315e-001,
          1.23705350e-001, 1.10020809e-001, 2.35164315e-001,
          2.35164315e-001, 2.35164315e-001, 1.36518016e-001,
          1.38810337e-001, 1.52337402e-001, 1.55535847e-001,
          2.35164315e-001, 1.44915849e-001, 2.35164315e-001,
          2.03917578e-001, 2.35164315e-001, 9.23382789e-002,
          7.62145445e-002, 7.19497055e-002, 2.35164315e-001,
          2.76466697e-001, 1.32341504e-001, 1.11629851e-001,
          1.18353009e-001, 5.16768880e-002, 9.08219442e-003,
          1.71310417e-002, 3.08332853e-002, 2.76466697e-001,
          2.76466697e-001, 2.03414887e-001, 1.34484634e-001,
          1.87350586e-001, 1.78308859e-001, 2.52828132e-002,
          2.68217176e-002, 5.58321476e-002, 2.76466697e-001,
          2.76466697e-001, 1.06697127e-001, 1.22556210e-001,
          8.68412256e-002, 3.51841226e-002, 1.39577184e-002,
          1.62381642e-002, 2.79083960e-002, 2.76466697e-001,
          2.76466697e-001, 2.36955911e-001, 2.00131342e-001,
          1.94008350e-001, 1.71995640e-001, 2.27741022e-002,
          2.18080431e-002, 7.81991407e-002, 2.76466697e-001,
          1.46960035e-001, 2.00086981e-001, 1.37963057e-001,
          1.76306024e-001, 2.56960094e-001, 5.63541278e-002,
          3.55033129e-002, 5.97869232e-002, 1.48016825e-001,
          5.69609627e-002, 1.34304032e-001, 1.28217682e-001,
          2.56960094e-001, 2.56960094e-001, 1.06076129e-001,
          3.30842733e-002, 5.52150570e-002, 3.88944708e-002,
          1.91870868e-001, 2.56960094e-001, 2.27653950e-001,
          1.98346153e-001, 2.56960094e-001, 4.36981507e-002,
          4.24759798e-002, 1.20237827e-001, 2.00794876e-001,
          1.80045918e-001, 1.86599955e-001, 2.13444278e-001,
          2.56960094e-001, 2.56960094e-001, 9.55936387e-002,
          4.36571538e-002, 8.96845683e-002, 1.43456489e-001,
          2.99765412e-002, 5.72936572e-002, 1.18743867e-001,
          1.85673416e-001, 2.42060214e-001, 1.07426137e-001,
          1.13524303e-001, 1.79191574e-001, 9.96524692e-002,
          2.42060214e-001, 1.80956781e-001, 2.42060214e-001,
          1.65713415e-001, 1.84438571e-001, 7.52409250e-002,
          7.55760297e-002, 1.39593795e-001, 2.42060214e-001,
          1.23768933e-001, 8.51804838e-002, 9.86116156e-002,
          1.45525753e-001, 2.42060214e-001, 9.60204229e-002,
          1.00372806e-001, 1.66882545e-001, 1.96579844e-001,
          2.42060214e-001, 2.28724435e-001, 2.42060214e-001,
          2.33259633e-001, 9.86934230e-002, 3.56989317e-002,
          6.14835583e-002, 1.54090554e-001, 2.42060214e-001,
          3.04978460e-001, 1.15673408e-001, 1.19811907e-001,
          8.00500438e-002, 2.84538064e-002, 1.61828529e-002,
          1.21594286e-002, 3.52537893e-002, 3.04978460e-001,
          3.04978460e-001, 1.63341656e-001, 1.34343877e-001,
          1.68751717e-001, 7.50358775e-002, 1.88424271e-002,
          9.44654830e-003, 7.54391924e-002, 3.04978460e-001,
          3.04978460e-001, 1.45356536e-001, 1.44638062e-001,
          1.75718963e-001, 2.71355547e-002, 5.92761254e-003,
          4.99136513e-003, 2.40376703e-002, 3.04978460e-001,
          3.04978460e-001, 1.42070979e-001, 6.73565939e-002,
          1.21249698e-001, 9.29687470e-002, 2.30984148e-002,
          4.26554754e-002, 8.10064152e-002, 3.04978460e-001,
          2.33827159e-001, 2.20641062e-001, 1.67276815e-001,
          1.81557387e-001, 1.19840905e-001, 4.59286347e-002,
          3.35561223e-002, 1.19885422e-001, 2.14194536e-001,
          2.33827159e-001, 1.62455469e-001, 1.15667693e-001,
          1.66301191e-001, 2.33827159e-001, 1.35917813e-001,
          7.25143701e-002, 8.43144879e-002, 1.42701641e-001,
          2.33827159e-001, 1.61790654e-001, 8.88293907e-002,
          2.33827159e-001, 2.33827159e-001, 9.19039547e-002,
          7.10153878e-002, 1.26467690e-001, 2.28602007e-001,
          2.33827159e-001, 1.07715696e-001, 7.47352988e-002,
          2.30008602e-001, 2.33827159e-001, 1.95974916e-001,
          1.21442236e-001, 9.26507935e-002, 8.07113349e-002,
          1.18997201e-001, 7.11443126e-002, 5.04801534e-002,
          1.50628939e-001, 2.87658066e-001, 1.40929133e-001,
          6.40417635e-002, 4.33800779e-002, 1.17007762e-001,
          2.87658066e-001, 1.62453651e-001, 8.59762654e-002,
          1.96423516e-001, 2.42604151e-001, 3.74616235e-002,
          3.11889499e-002, 3.93228829e-002, 2.87658066e-001,
          6.51144758e-002, 4.56007458e-002, 9.21307355e-002,
          2.48548225e-001, 2.87658066e-001, 1.82552531e-001,
          5.03132567e-002, 5.92419766e-002, 2.46669985e-002,
          2.87658066e-001, 1.13106705e-001, 1.04321271e-001,
          2.07683906e-001, 2.87658066e-001, 8.18369687e-002,
          5.50225452e-002, 7.52656758e-002, 2.87658066e-001,
          2.94809908e-001, 1.03767008e-001, 8.44355375e-002,
          1.35160550e-001, 3.97406183e-002, 2.07343698e-003,
          2.76431791e-003, 8.92082416e-003, 2.94809908e-001,
          2.94809908e-001, 1.61036193e-001, 7.55937248e-002,
          1.48394063e-001, 1.39932960e-001, 1.57718193e-002,
          5.10300994e-002, 7.30546713e-002, 2.94809908e-001,
          2.94809908e-001, 7.67961815e-002, 4.10318598e-002,
          6.80252612e-002, 5.24220169e-002, 1.18576502e-002,
          1.00570694e-002, 1.76517759e-002, 2.94809908e-001,
          2.94809908e-001, 2.24201530e-001, 1.47114635e-001,
          1.82611823e-001, 2.14644805e-001, 2.75577474e-002,
          3.33827920e-002, 1.17318861e-001, 2.94809908e-001,
          1.52362436e-001, 1.65412083e-001, 7.17961639e-002,
          2.21411318e-001, 2.48691350e-001, 8.65984410e-002,
          7.26545751e-002, 1.00056984e-001, 1.75040647e-001,
          9.70831290e-002, 8.24939087e-002, 7.71635696e-002,
          2.32559174e-001, 2.48691350e-001, 1.64828658e-001,
          6.95406497e-002, 7.08767250e-002, 1.23183504e-001,
          2.48691350e-001, 2.29069933e-001, 1.48656338e-001,
          1.60912454e-001, 2.48691350e-001, 4.74050790e-002,
          5.26940785e-002, 1.51129201e-001, 2.40488172e-001,
          2.08605498e-001, 1.47142917e-001, 1.57093957e-001,
          1.51851609e-001, 2.48691350e-001, 1.15087435e-001,
          1.23339608e-001, 1.10691436e-001, 2.48691350e-001 ]
      - [ 1.85293958e-001, 1.30922541e-001, 1.61753759e-001,
          1.98939443e-001, 2.34317288e-001, 9.23785567e-002,
          5.78577258e-002, 9.01392177e-002, 1.15996636e-001,
          8.98678526e-002, 1.97999910e-001, 1.58259258e-001,
          2.34317288e-001, 2.34317288e-001, 9.92770046e-002,
          6.98459148e-002, 1.85470030e-001, 1.31418452e-001,
          1.84106335e-001, 1.36745542e-001, 1.88918918e-001,
          1.38504237e-001, 2.34317288e-001, 1.82268083e-001,
          1.17276534e-001, 1.12514950e-001, 1.39620885e-001,
          1.38547435e-001, 2.16380835e-001, 1.91871151e-001,
          2.34317288e-001, 2.34317288e-001, 1.44179985e-001,
          1.09079331e-001, 1.81664959e-001, 1.53970018e-001,
          1.18732601e-001, 2.21008420e-001, 1.54436037e-001,
          1.19283393e-001, 1.74386516e-001, 6.87740222e-002,
          6.24518581e-002, 1.71348646e-001, 1.58353612e-001,
          1.60870209e-001, 2.21008420e-001, 2.11985171e-001,
          1.77379504e-001, 1.92830667e-001, 1.08458765e-001,
          8.30136985e-002, 1.57748848e-001, 2.00625703e-001,
          2.21008420e-001, 1.65558442e-001, 1.50996000e-001,
          1.44801855e-001, 1.27839863e-001, 9.81172249e-002,
          8.89171660e-002, 1.65549457e-001, 2.21008420e-001,
          2.21008420e-001, 1.44278258e-001, 2.08667785e-001,
          2.04741597e-001, 1.87330052e-001, 1.36412382e-001,
          1.00199386e-001, 1.82583943e-001, 2.21008420e-001,
          1.78992093e-001, 1.46320835e-001, 1.65441647e-001,
          2.03296766e-001, 2.24859640e-001, 9.02484208e-002,
          9.63700414e-002, 9.22046676e-002, 1.46081433e-001,
          1.15617320e-001, 7.65373409e-002, 1.36457533e-001,
          1.93449125e-001, 2.36323193e-001, 1.50345385e-001,
          1.44893512e-001, 7.75071979e-002, 5.69127239e-002,
          2.36323193e-001, 1.84891194e-001, 1.85489222e-001,
          2.36323193e-001, 2.00485200e-001, 1.07286595e-001,
          7.92926177e-002, 1.25597388e-001, 2.36323193e-001,
          1.55785799e-001, 2.36323193e-001, 2.36323193e-001,
          2.36323193e-001, 2.36323193e-001, 1.07465029e-001,
          5.94063215e-002, 7.78805688e-002, 1.22401118e-001,
          7.77710080e-002, 5.01656383e-002, 5.21924570e-002,
          9.31332782e-002, 2.24342212e-001, 1.65547326e-001,
          2.14018211e-001, 6.93832710e-002, 7.18237013e-002,
          1.69452846e-001, 1.58327356e-001, 1.52316391e-001,
          2.24342212e-001, 2.24342212e-001, 1.07520089e-001,
          1.94814369e-001, 1.37138039e-001, 1.58134848e-001,
          2.24342212e-001, 1.20419785e-001, 5.30515313e-002,
          5.94215952e-002, 2.17076898e-001, 1.11725405e-001,
          2.24342212e-001, 1.10993981e-001, 1.57997951e-001,
          2.24342212e-001, 2.24342212e-001, 1.67617872e-001,
          2.24342212e-001, 2.24342212e-001, 8.36898088e-002,
          1.99036062e-001, 1.68997630e-001, 2.24342212e-001,
          2.73204029e-001, 1.33383185e-001, 1.27794921e-001,
          1.28929123e-001, 6.71813861e-002, 6.21988215e-002,
          7.93324262e-002, 1.34944037e-001, 2.73204029e-001,
          2.73204029e-001, 1.31974131e-001, 1.81278497e-001,
          1.55673340e-001, 1.16004616e-001, 7.00728744e-002,
          8.23819637e-002, 1.04892336e-001, 2.73204029e-001,
          2.73204029e-001, 1.39568850e-001, 1.46297604e-001,
          1.59621015e-001, 1.34834394e-001, 6.81043491e-002,
          5.41488342e-002, 1.26427203e-001, 2.73204029e-001,
          2.73204029e-001, 1.32776901e-001, 1.34511843e-001,
          7.94649497e-002, 1.30332932e-001, 8.34675357e-002,
          9.24196616e-002, 1.52371734e-001, 2.73204029e-001,
          2.24068597e-001, 2.05286503e-001, 1.95101872e-001,
          2.02266738e-001, 1.45196557e-001, 7.88022354e-002,
          8.95833150e-002, 7.32899904e-002, 2.24068597e-001,
          1.96816772e-001, 1.86934054e-001, 1.85100555e-001,
          1.72506616e-001, 1.32348955e-001, 1.10207304e-001,
          7.39081800e-002, 1.05643049e-001, 2.06923157e-001,
          2.24068597e-001, 1.45440072e-001, 1.63488224e-001,
          1.74401492e-001, 2.24068597e-001, 1.16121374e-001,
          9.39171016e-002, 9.70173404e-002, 2.24068597e-001,
          2.24068597e-001, 1.20350122e-001, 1.62085548e-001,
          2.24068597e-001, 2.24068597e-001, 1.33883119e-001,
          5.57341129e-002, 9.22952667e-002, 1.64850846e-001,
          1.71841219e-001, 1.04547821e-001, 6.23249561e-002,
          7.92937949e-002, 2.80596495e-001, 1.11657813e-001,
          1.55866012e-001, 8.56824517e-002, 1.06579185e-001,
          2.22359300e-001, 1.67032704e-001, 1.06512599e-001,
          2.31957033e-001, 2.80596495e-001, 1.00884363e-001,
          1.07690811e-001, 1.09751403e-001, 1.96277931e-001,
          1.91693790e-002, 1.07934691e-001, 1.64197057e-001,
          2.08450958e-001, 2.80596495e-001, 1.35035798e-001,
          9.96593758e-002, 9.44156200e-002, 4.14231420e-002,
          1.21553637e-001, 1.63029253e-001, 1.37471467e-001,
          2.80596495e-001, 2.80596495e-001, 1.08934127e-001,
          1.10123515e-001, 1.72832042e-001, 2.17367828e-001,
          2.51642287e-001, 6.51381090e-002, 7.71836564e-002,
          1.63438007e-001, 2.54709810e-001, 7.01168180e-002,
          4.37243320e-002, 7.36493990e-002, 2.54709810e-001,
          2.54709810e-001, 4.93317619e-002, 9.21942145e-002,
          1.31283492e-001, 2.54709810e-001, 1.06823161e-001,
          4.58066352e-002, 9.74776596e-002, 2.54709810e-001,
          2.54709810e-001, 1.04155988e-001, 6.84649497e-002,
          1.39692366e-001, 2.23477796e-001, 5.20079806e-002,
          6.87288865e-002, 1.04395114e-001, 2.54709810e-001,
          2.54709810e-001, 6.86766803e-002, 1.31039903e-001,
          2.16177389e-001, 2.54709810e-001, 9.12928134e-002,
          5.06076701e-002, 4.66888808e-002, 2.54709810e-001,
          2.29773834e-001, 4.90896814e-002, 9.59063768e-002,
          1.97470307e-001, 2.55492806e-001, 1.40605971e-001,
          5.02596945e-002, 6.28286973e-002, 1.95138514e-001,
          1.55106336e-001, 4.63924259e-002, 7.35565796e-002,
          1.69426993e-001, 2.55492806e-001, 1.81043282e-001,
          6.77114576e-002, 1.12427659e-001, 1.39377609e-001,
          2.55492806e-001, 7.74042159e-002, 1.62070096e-001,
          2.08435252e-001, 2.55492806e-001, 1.02260701e-001,
          6.10394403e-002, 5.99780902e-002, 2.55492806e-001,
          2.55492806e-001, 9.02100354e-002, 1.17958799e-001,
          1.01330310e-001, 2.55492806e-001, 1.51872322e-001,
          8.57451484e-002, 1.46758392e-001, 2.55492806e-001 ]
      - [ 1.79568589e-001, 5.94478436e-002, 1.09557897e-001,
          1.79827571e-001, 2.41412550e-001, 9.18317139e-002,
          3.68812680e-002, 7.49933198e-002, 7.70894811e-002,
          2.41412550e-001, 7.88232237e-002, 1.09216593e-001,
          1.67245999e-001, 2.41412550e-001, 9.74654183e-002,
          4.78880592e-002, 8.22052211e-002, 2.00001076e-001,
          2.41412550e-001, 1.07131451e-001, 2.14222595e-001,
          1.19205326e-001, 2.41412550e-001, 2.29672074e-001,
          1.22929811e-001, 1.32403031e-001, 1.39328927e-001,
          2.41412550e-001, 1.14756696e-001, 2.16759592e-001,
          1.61851391e-001, 2.08671048e-001, 2.41412550e-001,
          8.97931978e-002, 1.04236268e-001, 2.41412550e-001,
          2.53222227e-001, 1.38395816e-001, 1.10559478e-001,
          1.10146336e-001, 1.62772298e-001, 5.55500984e-002,
          4.30598743e-002, 5.68700768e-002, 2.53222227e-001,
          2.53222227e-001, 1.94400817e-001, 1.94241151e-001,
          1.39795899e-001, 1.95887387e-001, 7.96350315e-002,
          4.90431339e-002, 1.00046717e-001, 2.42426962e-001,
          2.53222227e-001, 1.36709780e-001, 1.31881401e-001,
          8.47568437e-002, 1.58583492e-001, 9.44270045e-002,
          5.54992259e-002, 4.13634107e-002, 2.53222227e-001,
          2.53222227e-001, 2.37103149e-001, 1.32009238e-001,
          1.55202061e-001, 2.53222227e-001, 8.90266076e-002,
          6.06170446e-002, 6.24635406e-002, 2.53222227e-001,
          2.25213140e-001, 1.61686599e-001, 1.62098587e-001,
          1.51092336e-001, 2.35866383e-001, 9.70213115e-002,
          5.23949303e-002, 1.40663221e-001, 1.18635878e-001,
          7.24538565e-002, 1.76154822e-001, 1.37334719e-001,
          2.21738249e-001, 2.55716652e-001, 1.14093930e-001,
          5.70154153e-002, 1.30132020e-001, 6.52676448e-002,
          2.55716652e-001, 2.14936361e-001, 1.47322312e-001,
          1.48687318e-001, 1.65474609e-001, 8.67776275e-002,
          4.50800210e-002, 9.60125402e-002, 2.12229252e-001,
          2.10344359e-001, 2.36177176e-001, 2.55716652e-001,
          1.95514664e-001, 2.55716652e-001, 1.05607629e-001,
          7.56158605e-002, 1.36450753e-001, 1.07404068e-001,
          7.21814483e-002, 5.14578968e-002, 8.94868970e-002,
          4.28757034e-002, 2.27690563e-001, 2.27690563e-001,
          1.76089421e-001, 7.18254820e-002, 6.77733272e-002,
          2.27690563e-001, 1.57623500e-001, 1.84976652e-001,
          1.01078920e-001, 2.06602246e-001, 2.27690563e-001,
          1.52643472e-001, 8.47460851e-002, 1.99665606e-001,
          2.06070185e-001, 8.44724998e-002, 8.83220360e-002,
          9.82007235e-002, 1.79729804e-001, 1.99249968e-001,
          2.26237670e-001, 6.92527741e-002, 8.10668096e-002,
          2.27690563e-001, 2.27690563e-001, 2.27690563e-001,
          2.27690563e-001, 1.43116519e-001, 1.39209509e-001,
          1.87707111e-001, 1.16908066e-001, 2.27690563e-001,
          2.81880200e-001, 1.30712226e-001, 1.10481963e-001,
          5.21858335e-002, 8.63806158e-002, 7.92261139e-002,
          4.55642082e-002, 6.15279078e-002, 2.81880200e-001,
          2.81880200e-001, 1.64534196e-001, 8.66186693e-002,
          1.53920874e-001, 1.66171134e-001, 7.63296336e-002,
          5.97659238e-002, 1.00641236e-001, 2.81880200e-001,
          2.81880200e-001, 1.83767781e-001, 1.67281032e-001,
          1.22220382e-001, 5.58796823e-002, 6.09936565e-002,
          4.16462906e-002, 7.67319351e-002, 2.81880200e-001,
          2.81880200e-001, 1.60180300e-001, 1.24791637e-001,
          1.08234555e-001, 1.32848546e-001, 8.14216286e-002,
          9.51435566e-002, 1.64555207e-001, 2.81880200e-001,
          2.31316403e-001, 1.84416980e-001, 1.35251239e-001,
          1.63738504e-001, 1.09694615e-001, 4.03686948e-002,
          4.46963310e-002, 7.16456473e-002, 2.31316403e-001,
          2.31316403e-001, 1.83891609e-001, 2.29314163e-001,
          1.19502559e-001, 1.24354511e-001, 1.18080378e-001,
          9.57093388e-002, 1.30841628e-001, 1.52199104e-001,
          2.31316403e-001, 1.91287592e-001, 1.62546933e-001,
          1.84468538e-001, 2.31316403e-001, 6.88155740e-002,
          8.68609771e-002, 1.38056591e-001, 2.31316403e-001,
          2.31316403e-001, 1.37330055e-001, 9.93536860e-002,
          1.96980864e-001, 2.31316403e-001, 1.85568541e-001,
          1.23514675e-001, 1.51978195e-001, 1.46588653e-001,
          2.07321972e-001, 7.78206214e-002, 8.01386088e-002,
          1.09070681e-001, 2.44383201e-001, 1.99786946e-001,
          1.60266519e-001, 5.50547242e-002, 7.68249854e-002,
          2.44383201e-001, 1.84802562e-001, 1.92042992e-001,
          1.83198586e-001, 1.95253655e-001, 1.25368074e-001,
          1.46063223e-001, 1.20858110e-001, 2.44383201e-001,
          3.10158506e-002, 1.02597475e-001, 1.59046322e-001,
          1.33771122e-001, 2.44383201e-001, 1.56868622e-001,
          9.85089019e-002, 8.11721012e-002, 3.08628175e-002,
          2.44383201e-001, 1.52984187e-001, 1.43417105e-001,
          1.40625268e-001, 2.44383201e-001, 1.01639390e-001,
          1.40728936e-001, 2.29812086e-001, 2.44383201e-001,
          2.76499093e-001, 1.32044405e-001, 1.30301610e-001,
          1.05275221e-001, 6.00142181e-002, 5.18257804e-002,
          5.37435636e-002, 7.10103661e-002, 2.76499093e-001,
          2.76499093e-001, 1.24452271e-001, 9.92177799e-002,
          1.23466946e-001, 2.20079109e-001, 1.01132452e-001,
          8.04971680e-002, 1.42586648e-001, 2.76499093e-001,
          2.76499093e-001, 9.03320685e-002, 6.82055280e-002,
          5.99541925e-002, 5.68765327e-002, 3.09748854e-002,
          5.90153933e-002, 1.20513834e-001, 2.76499093e-001,
          2.76499093e-001, 1.73342615e-001, 1.45497531e-001,
          1.52973995e-001, 2.01011106e-001, 1.49131417e-001,
          5.00829294e-002, 1.46554753e-001, 2.76499093e-001,
          1.69838220e-001, 1.39079705e-001, 1.26544833e-001,
          1.54399231e-001, 2.56319135e-001, 1.11317635e-001,
          6.68258965e-002, 1.36907995e-001, 1.71624273e-001,
          1.60978958e-001, 7.30811283e-002, 7.58181512e-002,
          1.63446158e-001, 2.56319135e-001, 1.90151155e-001,
          9.19127390e-002, 1.17920667e-001, 1.47080123e-001,
          2.56319135e-001, 1.55894682e-001, 1.26696765e-001,
          1.34615794e-001, 2.56319135e-001, 1.46257833e-001,
          4.30980287e-002, 1.42879918e-001, 2.56319135e-001,
          2.56319135e-001, 8.29531029e-002, 6.65447041e-002,
          7.83084333e-002, 2.56319135e-001, 1.37977943e-001,
          1.08074218e-001, 1.56794667e-001, 2.56319135e-001 ]
      - [ 2.31608883e-001, 1.52562454e-001, 1.62872538e-001,
          1.67673722e-001, 2.38375217e-001, 7.73584247e-002,
          8.43949616e-002, 7.58775175e-002, 1.50467455e-001,
          2.38375217e-001, 1.61422014e-001, 1.83863595e-001,
          1.82250038e-001, 2.18897045e-001, 5.89054823e-002,
          4.09284085e-002, 9.36247334e-002, 2.38375217e-001,
          1.05807543e-001, 1.12617612e-001, 1.22510143e-001,
          1.10164687e-001, 2.38375217e-001, 1.88360557e-001,
          1.43508449e-001, 5.53942360e-002, 1.20435014e-001,
          1.96128502e-001, 1.81133822e-001, 1.98409081e-001,
          2.38375217e-001, 2.38375217e-001, 1.20000690e-001,
          1.02872074e-001, 1.39097735e-001, 2.21514195e-001,
          2.70846039e-001, 1.33026674e-001, 1.30498141e-001,
          9.42127332e-002, 5.91950752e-002, 1.88307185e-002,
          1.85369756e-002, 7.14997724e-002, 2.70846039e-001,
          2.70846039e-001, 1.63511604e-001, 1.75546959e-001,
          1.43629238e-001, 1.90235510e-001, 5.06230891e-002,
          3.73286158e-002, 6.24216385e-002, 2.42295071e-001,
          2.70846039e-001, 1.25752315e-001, 1.21849127e-001,
          1.29296064e-001, 6.03669733e-002, 2.79733092e-002,
          4.75020856e-002, 1.57350168e-001, 2.70846039e-001,
          2.70846039e-001, 2.44899124e-001, 2.19133675e-001,
          2.06020966e-001, 1.25116616e-001, 3.80370617e-002,
          3.57207954e-002, 4.80165221e-002, 2.70846039e-001,
          1.77069917e-001, 1.16338484e-001, 1.16366565e-001,
          1.65309578e-001, 2.54391879e-001, 8.03915188e-002,
          5.18570803e-002, 3.65928784e-002, 1.49174511e-001,
          1.85089305e-001, 1.11457698e-001, 1.23121597e-001,
          2.38017991e-001, 2.54391879e-001, 8.12181160e-002,
          3.50862630e-002, 8.16229265e-003, 1.15482330e-001,
          2.54391879e-001, 2.54391879e-001, 2.02019423e-001,
          2.29646012e-001, 1.89801738e-001, 6.98633119e-002,
          5.58489896e-002, 5.74754626e-002, 2.29566216e-001,
          2.54391879e-001, 1.98493585e-001, 1.68054268e-001,
          2.25692123e-001, 1.97230473e-001, 7.35992417e-002,
          6.99495748e-002, 7.18503594e-002, 2.21651614e-001,
          8.81086588e-002, 4.64678705e-002, 7.53286555e-002,
          4.26853113e-002, 2.26398215e-001, 2.05128983e-001,
          1.95419505e-001, 3.86667661e-002, 1.13883376e-001,
          2.26398215e-001, 1.69864297e-001, 1.82366207e-001,
          1.87303841e-001, 2.18123347e-001, 1.43141791e-001,
          1.68397635e-001, 1.07529074e-001, 2.26398215e-001,
          2.26398215e-001, 9.13306102e-002, 1.26701608e-001,
          9.68677700e-002, 1.48560673e-001, 1.51423261e-001,
          2.17847377e-001, 4.54185382e-002, 2.02733397e-001,
          2.26398215e-001, 2.26398215e-001, 2.25842044e-001,
          1.91717371e-001, 1.56276017e-001, 1.11916907e-001,
          1.19869821e-001, 1.14619203e-001, 2.26398215e-001,
          2.91337132e-001, 1.23925075e-001, 9.95199382e-002,
          1.15782619e-001, 5.03877811e-002, 4.68084924e-002,
          4.64614071e-002, 9.43382978e-002, 2.91337132e-001,
          2.91337132e-001, 1.68725416e-001, 1.28733486e-001,
          1.24347612e-001, 6.38987720e-002, 4.44562994e-002,
          7.13196248e-002, 5.04815690e-002, 2.91337132e-001,
          2.91337132e-001, 1.39612377e-001, 1.32234618e-001,
          1.38504550e-001, 1.27009675e-001, 6.66255504e-002,
          2.09468864e-002, 8.20037052e-002, 2.91337132e-001,
          2.91337132e-001, 1.82593510e-001, 9.17681083e-002,
          8.21897164e-002, 1.70545578e-001, 8.64349380e-002,
          6.32608980e-002, 1.28244773e-001, 2.91337132e-001,
          2.29400516e-001, 2.18727320e-001, 1.70001656e-001,
          1.61851048e-001, 1.07933529e-001, 7.78456032e-002,
          1.07690535e-001, 9.91320536e-002, 2.29400516e-001,
          1.99786112e-001, 1.84362248e-001, 1.26486182e-001,
          1.36114210e-001, 9.42715928e-002, 8.65314454e-002,
          1.15921356e-001, 1.66220129e-001, 2.29400516e-001,
          1.66758984e-001, 2.29400516e-001, 1.46322131e-001,
          1.83033243e-001, 2.29400516e-001, 1.54132158e-001,
          1.02965504e-001, 1.20058984e-001, 2.08395973e-001,
          1.63258910e-001, 2.12617204e-001, 1.14773035e-001,
          2.29400516e-001, 2.29400516e-001, 1.55950144e-001,
          8.19205865e-002, 1.03220433e-001, 1.40541539e-001,
          1.29307017e-001, 6.50441870e-002, 8.70621949e-002,
          1.39024779e-001, 2.63414592e-001, 1.39901832e-001,
          1.39892444e-001, 3.79793905e-002, 9.53946486e-002,
          2.15094775e-001, 1.63126051e-001, 1.57211229e-001,
          1.95648044e-001, 2.63414592e-001, 1.15750201e-001,
          5.89993000e-002, 1.15328744e-001, 2.13092402e-001,
          1.12398695e-002, 4.91092689e-002, 2.02946603e-001,
          2.42461383e-001, 2.63414592e-001, 1.64408252e-001,
          9.66063663e-002, 6.64716437e-002, 2.38037333e-002,
          1.32362247e-001, 2.31018066e-001, 2.30063260e-001,
          1.89660147e-001, 2.63414592e-001, 1.72151089e-001,
          1.14179552e-001, 1.69528648e-001, 1.89088151e-001,
          2.17693731e-001, 7.92763010e-002, 1.00029700e-001,
          1.16458893e-001, 2.54737645e-001, 8.00609961e-002,
          2.31090430e-002, 8.73216465e-002, 2.55644143e-001,
          2.44289219e-001, 9.96892676e-002, 1.02645278e-001,
          1.28278062e-001, 2.55644143e-001, 9.76518467e-002,
          3.06722801e-002, 1.10431723e-001, 2.55644143e-001,
          2.55644143e-001, 1.42402828e-001, 1.13589495e-001,
          6.52950555e-002, 2.08558664e-001, 6.45901561e-002,
          6.81764781e-002, 1.26836717e-001, 2.55644143e-001,
          2.55644143e-001, 9.86670926e-002, 1.78332418e-001,
          2.03476056e-001, 2.55644143e-001, 5.68262301e-002,
          5.00011593e-002, 6.41341284e-002, 2.55644143e-001,
          1.38445511e-001, 1.57183781e-001, 9.45156962e-002,
          1.82958826e-001, 2.53963470e-001, 1.25190243e-001,
          4.60483916e-002, 1.12475060e-001, 1.72524065e-001,
          1.31198466e-001, 1.05762921e-001, 5.03639840e-002,
          1.77863955e-001, 2.53963470e-001, 1.30299926e-001,
          8.04767534e-002, 1.10907488e-001, 1.65071696e-001,
          2.53963470e-001, 1.51787311e-001, 1.38291672e-001,
          1.95518792e-001, 2.53963470e-001, 8.01682770e-002,
          7.94963464e-002, 1.10641107e-001, 2.53963470e-001,
          2.53963470e-001, 1.57194093e-001, 8.15274790e-002,
          1.52029052e-001, 2.53963470e-001, 1.14597812e-001,
          1.12747535e-001, 1.54027671e-001, 2.53963470e-001 ]
      - [ 4.00646776e-002, 3.09431627e-002, 6.97100461e-002,
          1.76925346e-001, 2.56498218e-001, 2.47962475e-001,
          2.51816720e-001, 8.26367736e-002, 2.08155345e-002,
          8.79788846e-002, 4.89185750e-002, 4.63604629e-002,
          2.09596023e-001, 2.56498218e-001, 2.52581686e-001,
          1.67765856e-001, 7.37805516e-002, 4.15961519e-002,
          3.56196016e-002, 4.39587981e-002, 1.37006253e-001,
          2.56498218e-001, 2.56498218e-001, 2.56498218e-001,
          1.16559334e-001, 2.75229979e-002, 6.08470896e-003,
          2.56498218e-001, 1.37599513e-001, 1.79261103e-001,
          2.55138874e-001, 2.56498218e-001, 1.90941215e-001,
          1.00181289e-001, 6.13381825e-002, 8.89381915e-002,
          1.30204514e-001, 9.41013545e-002, 7.45962188e-002,
          1.63349450e-001, 2.49837920e-001, 1.79250330e-001,
          7.98116028e-002, 4.50941809e-002, 7.54302964e-002,
          1.36994272e-001, 1.43579632e-001, 1.62550852e-001,
          1.53067514e-001, 2.49837920e-001, 1.16875254e-001,
          1.22926176e-001, 6.47697076e-002, 7.44032040e-002,
          2.49837920e-001, 1.96529016e-001, 2.28004023e-001,
          1.45200923e-001, 1.89663097e-001, 7.66857117e-002,
          6.77395016e-002, 7.60864913e-002, 2.17620909e-001,
          2.49837920e-001, 2.42001832e-001, 2.49837920e-001,
          1.49035677e-001, 1.90828830e-001, 9.52864811e-002,
          1.75544307e-001, 1.50343925e-001, 2.49837920e-001,
          5.37760891e-002, 1.38031319e-001, 2.29223952e-001,
          2.37083003e-001, 2.37083003e-001, 5.91701493e-002,
          7.31851608e-002, 3.36811841e-002, 6.05140738e-002,
          4.89541888e-002, 1.51230708e-001, 2.34059170e-001,
          2.37083003e-001, 2.37083003e-001, 2.93222219e-002,
          1.70486253e-002, 7.28298444e-003, 6.59152940e-002,
          1.85304239e-001, 2.37083003e-001, 2.37083003e-001,
          1.91878006e-001, 2.37083003e-001, 8.97703096e-002,
          1.08046956e-001, 1.08125120e-001, 1.89284518e-001,
          2.37083003e-001, 2.19629675e-001, 2.28954986e-001,
          1.69672608e-001, 2.08874553e-001, 4.37878147e-002,
          1.95960831e-002, 6.50436282e-002, 2.37083003e-001,
          1.29175097e-001, 7.71335959e-002, 1.09338507e-001,
          2.41077095e-001, 2.41077095e-001, 1.95483416e-001,
          1.23561814e-001, 6.16634488e-002, 9.47082937e-002,
          2.41077095e-001, 1.23205632e-001, 1.18944407e-001,
          1.47275314e-001, 1.99722990e-001, 1.51777804e-001,
          9.79709998e-002, 9.96322185e-002, 2.40411729e-001,
          2.41077095e-001, 1.17891125e-001, 6.49044737e-002,
          2.01890022e-001, 2.41077095e-001, 1.27196193e-001,
          1.17732532e-001, 7.17389807e-002, 2.23061740e-001,
          2.41077095e-001, 8.22040811e-002, 4.88527827e-002,
          1.33949474e-001, 2.28809908e-001, 1.62720546e-001,
          1.84324086e-001, 1.22254878e-001, 2.41077095e-001,
          2.60465354e-001, 1.67995691e-001, 2.26904646e-001,
          6.45394996e-002, 3.87210138e-002, 3.27146985e-002,
          2.47535445e-002, 6.73493668e-002, 2.60465354e-001,
          2.60465354e-001, 2.13791132e-001, 2.60465354e-001,
          7.96705633e-002, 6.12325259e-002, 8.93450528e-002,
          8.05492327e-002, 1.15307018e-001, 2.60465354e-001,
          2.60465354e-001, 7.52721950e-002, 9.04193819e-002,
          6.89590052e-002, 4.58066314e-002, 8.82486999e-002,
          8.34464505e-002, 9.80382711e-002, 2.60465354e-001,
          2.60465354e-001, 8.17251280e-002, 1.14159018e-001,
          6.43355101e-002, 1.07325748e-001, 2.60465354e-001,
          1.46225348e-001, 2.04950094e-001, 2.60465354e-001,
          2.36768767e-001, 2.24439278e-001, 2.10617959e-001,
          6.16338030e-002, 9.83769968e-002, 9.85003635e-002,
          8.73504058e-002, 1.17397718e-001, 2.36768767e-001,
          2.36768767e-001, 2.36768767e-001, 2.36768767e-001,
          8.38299394e-002, 1.11955926e-001, 4.58999015e-002,
          3.07151265e-002, 8.06986168e-002, 2.36768767e-001,
          2.36768767e-001, 6.83704242e-002, 8.51652399e-002,
          5.16833439e-002, 1.69689327e-001, 2.36768767e-001,
          1.99705973e-001, 1.89814791e-001, 2.29654193e-001,
          1.96148172e-001, 1.03564464e-001, 1.16254620e-001,
          6.39400035e-002, 2.36768767e-001, 2.23337099e-001,
          1.32478893e-001, 1.06221445e-001, 8.41886625e-002,
          1.08859293e-001, 7.60730281e-002, 5.79622909e-002,
          1.96821198e-001, 2.79092908e-001, 7.03449026e-002,
          4.09786552e-002, 2.79889591e-002, 9.74515378e-002,
          2.06814378e-001, 9.11185965e-002, 8.68458301e-002,
          2.61983335e-001, 2.79092908e-001, 1.08572640e-001,
          1.07122816e-001, 7.16725960e-002, 1.62159577e-001,
          8.04970041e-002, 1.76490664e-001, 2.73333728e-001,
          2.16224149e-001, 2.79092908e-001, 9.03001428e-002,
          3.26831304e-002, 4.20646742e-002, 8.65480080e-002,
          1.08359605e-001, 1.81962028e-001, 2.79092908e-001,
          2.79092908e-001, 2.79092908e-001, 1.44054443e-001,
          5.18735722e-002, 9.44607481e-002, 1.28334001e-001,
          2.45253623e-001, 6.05789684e-002, 7.58678019e-002,
          2.25263432e-001, 2.27836579e-001, 9.32861716e-002,
          7.42570087e-002, 7.99064338e-002, 2.34342813e-001,
          1.65894359e-001, 2.55803950e-002, 3.18443589e-002,
          1.16587251e-001, 2.90460050e-001, 2.90460050e-001,
          1.23613417e-001, 1.52594820e-001, 1.77656651e-001,
          1.15365237e-001, 9.74014103e-002, 1.45816877e-001,
          2.90460050e-001, 2.90460050e-001, 1.30984202e-001,
          6.57205954e-002, 1.01594135e-001, 1.48542553e-001,
          1.02997549e-001, 5.89042120e-002, 1.18111841e-001,
          2.36205697e-001, 2.90460050e-001, 1.50076196e-001,
          4.11719568e-002, 4.90144752e-002, 7.90174380e-002,
          5.66744469e-002, 3.96786071e-003, 1.96663607e-002,
          6.36958778e-002, 2.90257305e-001, 2.90257305e-001,
          2.28098020e-001, 1.72895774e-001, 8.42703357e-002,
          1.78667884e-002, 7.84279499e-003, 3.66123281e-002,
          5.66589981e-002, 2.80774653e-001, 2.49764398e-001,
          2.90257305e-001, 2.11645737e-001, 6.43318817e-002,
          3.31202075e-002, 5.02413996e-002, 4.74357754e-002,
          1.29379705e-001, 2.90257305e-001, 1.32644132e-001,
          1.11351743e-001, 5.47687262e-002, 5.37898801e-002,
          6.34690970e-002, 1.53611153e-001, 2.11346224e-001,
          1.58016101e-001, 2.90257305e-001, 1.23456761e-001,
          2.90257305e-001, 1.45413831e-001, 8.76563117e-002 ]
      - [ 5.56989163e-002, 5.45726418e-002, 2.56655030e-002,
          1.30444944e-001, 3.71601403e-001, 1.73122957e-001,
          1.32557109e-001, 9.81683582e-002, 4.56498303e-002,
          9.00287405e-002, 5.41885011e-002, 4.69529703e-002,
          1.59349307e-001, 3.71601403e-001, 1.91403106e-001,
          1.70638859e-001, 8.09290037e-002, 6.58804774e-002,
          3.82949635e-002, 2.99404506e-002, 3.49194668e-002,
          1.64214581e-001, 3.71601403e-001, 1.38248980e-001,
          3.92919779e-002, 2.34082434e-002, 1.82273984e-002,
          2.81077802e-001, 1.61463678e-001, 1.39874607e-001,
          1.68301195e-001, 3.71601403e-001, 1.38990209e-001,
          7.47750625e-002, 3.64365540e-002, 1.19786404e-001,
          1.00093894e-001, 9.05397832e-002, 7.51154199e-002,
          1.95736513e-001, 2.45589286e-001, 1.30420744e-001,
          8.14703330e-002, 3.01056094e-002, 8.54809955e-002,
          6.98809922e-002, 1.40124291e-001, 1.44139454e-001,
          2.45589286e-001, 2.45589286e-001, 1.71772227e-001,
          6.94793537e-002, 2.35960223e-002, 6.50392622e-002,
          2.45589286e-001, 2.02253193e-001, 2.17680290e-001,
          1.41435117e-001, 2.04591140e-001, 9.02858451e-002,
          7.71866888e-002, 4.89547513e-002, 2.12836996e-001,
          1.87938869e-001, 1.95839763e-001, 2.39888370e-001,
          2.13432357e-001, 2.45589286e-001, 1.96347505e-001,
          1.55248865e-001, 1.14576921e-001, 2.30249777e-001,
          4.84220572e-002, 2.25615785e-001, 2.32144907e-001,
          2.32144907e-001, 2.32144907e-001, 1.04376204e-001,
          5.15263863e-002, 1.00349896e-002, 4.18132879e-002,
          7.63269365e-002, 2.25185752e-001, 2.32144907e-001,
          2.04266056e-001, 1.51008800e-001, 4.64648493e-002,
          2.82658618e-002, 7.91705027e-003, 6.26645982e-002,
          1.78301051e-001, 2.32144907e-001, 2.32144907e-001,
          2.31744513e-001, 2.32144907e-001, 1.37938172e-001,
          9.96803641e-002, 9.17749926e-002, 1.97820500e-001,
          2.32144907e-001, 2.32144907e-001, 2.32144907e-001,
          1.69120356e-001, 1.11622296e-001, 4.19073477e-002,
          2.74624992e-002, 5.13139479e-002, 2.32144907e-001,
          1.23576276e-001, 6.92477450e-002, 7.65189603e-002,
          1.63480759e-001, 2.72306412e-001, 8.96881521e-002,
          5.95382601e-002, 5.73474057e-002, 8.78988057e-002,
          2.72306412e-001, 1.26901120e-001, 9.10322890e-002,
          1.07936874e-001, 2.72306412e-001, 9.12773758e-002,
          6.14812039e-002, 7.65759572e-002, 2.60894567e-001,
          2.70902127e-001, 1.11133598e-001, 8.08717012e-002,
          1.73066124e-001, 2.72306412e-001, 1.66310549e-001,
          9.08049196e-002, 9.70766693e-002, 1.86142892e-001,
          2.72306412e-001, 1.05663382e-001, 7.84116238e-002,
          9.15331915e-002, 2.31848493e-001, 2.21224576e-001,
          1.20168909e-001, 1.00029632e-001, 2.72306412e-001,
          2.62584180e-001, 1.67829797e-001, 2.16581747e-001,
          6.22445345e-002, 5.24394065e-002, 4.28182967e-002,
          4.04774100e-002, 5.21883965e-002, 2.62584180e-001,
          2.62584180e-001, 1.65809676e-001, 2.59966075e-001,
          1.23295821e-001, 1.05257258e-001, 1.26394182e-001,
          8.29080865e-002, 1.46804675e-001, 2.20712140e-001,
          2.62584180e-001, 8.69185179e-002, 9.57352892e-002,
          6.17449135e-002, 4.93788645e-002, 1.02039129e-001,
          6.70410395e-002, 8.41931328e-002, 2.62584180e-001,
          2.62584180e-001, 9.31662098e-002, 1.24012962e-001,
          9.66437757e-002, 1.34462595e-001, 2.53135234e-001,
          9.54529643e-002, 2.06697449e-001, 2.62584180e-001,
          2.26525292e-001, 1.74515724e-001, 1.77163899e-001,
          1.15556516e-001, 9.03408453e-002, 1.08060151e-001,
          7.45609552e-002, 1.60301715e-001, 2.26525292e-001,
          2.26525292e-001, 2.26525292e-001, 2.26525292e-001,
          2.06283376e-001, 7.46748969e-002, 5.22692427e-002,
          4.64897044e-002, 1.11434266e-001, 2.26525292e-001,
          2.26525292e-001, 9.21644196e-002, 1.21061020e-001,
          1.05148062e-001, 1.55762106e-001, 2.26525292e-001,
          1.33837983e-001, 1.87152341e-001, 2.26525292e-001,
          2.01379120e-001, 1.39857665e-001, 1.23740181e-001,
          2.26525292e-001, 1.27557337e-001, 1.60732418e-001,
          1.35474548e-001, 1.73806205e-001, 1.23970285e-001,
          1.02220550e-001, 7.87815899e-002, 7.76461884e-002,
          1.69010028e-001, 2.60091990e-001, 1.36548236e-001,
          3.88930924e-002, 3.12920250e-002, 8.30127820e-002,
          1.88471213e-001, 1.62154332e-001, 1.77404329e-001,
          1.64918214e-001, 2.60091990e-001, 2.21083120e-001,
          1.00583598e-001, 4.05867994e-002, 1.96198866e-001,
          7.41758123e-002, 1.79186806e-001, 2.60091990e-001,
          2.06084341e-001, 2.60091990e-001, 9.55921635e-002,
          3.33656557e-002, 3.36849205e-002, 7.67061189e-002,
          1.22307114e-001, 2.16188282e-001, 2.60091990e-001,
          2.60091990e-001, 2.60091990e-001, 1.94013700e-001,
          5.72743975e-002, 5.33663779e-002, 1.48829922e-001,
          2.48430967e-001, 1.34194434e-001, 1.11792818e-001,
          1.86318547e-001, 2.00053513e-001, 1.34913251e-001,
          7.51071870e-002, 6.53325021e-002, 2.48430967e-001,
          1.82510272e-001, 5.83642498e-002, 4.09540497e-002,
          1.29135296e-001, 2.48430967e-001, 2.37392768e-001,
          7.39037916e-002, 1.19122960e-001, 2.48430967e-001,
          1.93596572e-001, 1.57526076e-001, 1.88343421e-001,
          2.48430967e-001, 2.48430967e-001, 1.62731245e-001,
          5.65168224e-002, 5.65594025e-002, 2.27452770e-001,
          1.22638211e-001, 6.46278337e-002, 1.01094179e-001,
          1.90729171e-001, 2.48430967e-001, 1.48938328e-001,
          4.09483649e-002, 4.88766171e-002, 1.63163885e-001,
          1.09069496e-001, 2.34177634e-002, 5.72141446e-002,
          1.18301451e-001, 2.35176608e-001, 2.35176608e-001,
          1.67104617e-001, 1.39996856e-001, 2.25056842e-001,
          9.31634754e-002, 5.08736596e-002, 9.49258134e-002,
          2.07734302e-001, 1.79702833e-001, 2.35176608e-001,
          2.35176608e-001, 2.03402087e-001, 9.14705321e-002,
          7.98402503e-002, 3.56866233e-002, 5.68272285e-002,
          1.16919935e-001, 2.35176608e-001, 2.32465863e-001,
          1.49673551e-001, 1.10669747e-001, 1.30782261e-001,
          1.31253675e-001, 1.34679154e-001, 2.35176608e-001,
          2.00487629e-001, 1.73839808e-001, 2.35176608e-001,
          2.35176608e-001, 1.79669544e-001, 1.15884870e-001 ]
      - [ 5.67946360e-002, 5.46938069e-002, 2.96417437e-002,
          1.41136348e-001, 3.78441989e-001, 1.74628660e-001,
          1.28065959e-001, 9.81882662e-002, 4.62080315e-002,
          9.76675227e-002, 5.14207631e-002, 5.22231348e-002,
          1.49630144e-001, 3.78441989e-001, 2.00853303e-001,
          1.72307938e-001, 7.72265494e-002, 6.97746053e-002,
          3.10889278e-002, 2.30146758e-002, 4.36284654e-002,
          1.52290553e-001, 3.78441989e-001, 1.40769616e-001,
          4.35469262e-002, 2.30052844e-002, 1.94093473e-002,
          1.59402490e-001, 1.76212519e-001, 1.82637110e-001,
          1.70035362e-001, 3.78441989e-001, 1.34795308e-001,
          9.81254801e-002, 5.31684272e-002, 1.44673437e-001,
          1.00780003e-001, 6.54965267e-002, 1.09432466e-001,
          1.58962339e-001, 2.46272564e-001, 1.27097741e-001,
          9.26789865e-002, 4.08176295e-002, 8.09856504e-002,
          8.63448009e-002, 1.44490942e-001, 2.37854302e-001,
          1.65551886e-001, 2.46272564e-001, 1.05421752e-001,
          1.17524035e-001, 6.88673705e-002, 6.34273961e-002,
          2.09653825e-001, 1.91392064e-001, 2.16045469e-001,
          1.96416050e-001, 2.16430128e-001, 8.72636735e-002,
          1.03934482e-001, 9.39194337e-002, 2.35583514e-001,
          2.07510218e-001, 1.91214874e-001, 2.46272564e-001,
          2.02350706e-001, 1.80364847e-001, 1.04623310e-001,
          1.78820759e-001, 1.81186244e-001, 2.46272564e-001,
          5.36952168e-002, 2.42021322e-001, 2.42021322e-001,
          1.98977485e-001, 2.42021322e-001, 7.16260225e-002,
          6.72800019e-002, 3.05277295e-002, 5.26905581e-002,
          7.62605667e-002, 2.39780486e-001, 2.42021322e-001,
          2.15976775e-001, 1.46786645e-001, 4.15789746e-002,
          2.15946566e-002, 4.65020165e-003, 6.79588318e-002,
          2.19781950e-001, 2.42021322e-001, 2.42021322e-001,
          1.85432434e-001, 1.60011351e-001, 7.12075755e-002,
          8.70203078e-002, 8.34700465e-002, 2.42021322e-001,
          2.42021322e-001, 2.42021322e-001, 2.42021322e-001,
          1.32268846e-001, 1.05156131e-001, 3.79611701e-002,
          1.79830622e-002, 2.94086151e-002, 2.42021322e-001,
          1.00040734e-001, 6.80744797e-002, 1.00869112e-001,
          1.58283830e-001, 2.73479640e-001, 7.51824901e-002,
          6.96745887e-002, 4.35413346e-002, 8.93069208e-002,
          1.86881110e-001, 1.78880483e-001, 1.62631184e-001,
          1.07265584e-001, 2.73479640e-001, 7.12777078e-002,
          9.29214284e-002, 1.01972900e-001, 2.08306596e-001,
          2.25849301e-001, 1.21335663e-001, 9.83427241e-002,
          1.75960630e-001, 2.73479640e-001, 1.04919642e-001,
          9.50500816e-002, 8.50085095e-002, 2.07037643e-001,
          2.73479640e-001, 2.15833053e-001, 1.28104806e-001,
          1.36409953e-001, 2.73479640e-001, 1.19002603e-001,
          1.56089261e-001, 9.62468386e-002, 2.73479640e-001,
          2.27755919e-001, 1.47494555e-001, 2.08425283e-001,
          1.48313284e-001, 8.29809010e-002, 3.58311981e-002,
          7.70471916e-002, 1.05652094e-001, 2.37143591e-001,
          2.37143591e-001, 1.02499276e-001, 2.33984411e-001,
          1.71113297e-001, 8.14046785e-002, 7.30608925e-002,
          1.24723740e-001, 1.56803802e-001, 2.37143591e-001,
          2.37143591e-001, 1.97390914e-001, 1.20212190e-001,
          7.42148831e-002, 1.20661125e-001, 5.05931266e-002,
          1.42015100e-001, 1.34713843e-001, 2.37143591e-001,
          2.36039251e-001, 9.00294185e-002, 9.76037234e-002,
          6.71758056e-002, 1.25358298e-001, 1.69783279e-001,
          2.37143591e-001, 2.37143591e-001, 2.37143591e-001,
          2.54761070e-001, 1.72690660e-001, 1.92480534e-001,
          7.58317932e-002, 5.69378473e-002, 7.00109005e-002,
          8.75064954e-002, 9.80376750e-002, 2.54761070e-001,
          2.54761070e-001, 2.54761070e-001, 2.54761070e-001,
          6.22793026e-002, 3.99352089e-002, 2.74218824e-002,
          2.19305754e-002, 4.22118977e-002, 2.54761070e-001,
          2.54761070e-001, 5.12716249e-002, 4.94177192e-002,
          3.29531357e-002, 1.04138725e-001, 2.23556608e-001,
          2.54761070e-001, 2.54761070e-001, 2.54761070e-001,
          2.54742682e-001, 1.07432693e-001, 9.68746692e-002,
          2.49667354e-002, 4.48118597e-002, 8.07526186e-002,
          1.86817259e-001, 1.68042243e-001, 1.29650936e-001,
          9.38982815e-002, 8.18094462e-002, 7.34258443e-002,
          1.85994670e-001, 2.74505615e-001, 9.25418139e-002,
          3.97114195e-002, 3.06389816e-002, 8.62635374e-002,
          1.50243253e-001, 1.91383809e-001, 1.79502755e-001,
          2.16079056e-001, 2.74505615e-001, 1.57321483e-001,
          1.23734623e-001, 4.38867696e-002, 1.16900817e-001,
          1.02136768e-001, 1.71629429e-001, 2.42303103e-001,
          2.33635694e-001, 2.74505615e-001, 7.61390701e-002,
          4.56285477e-002, 4.86099459e-002, 4.68955636e-002,
          1.46268234e-001, 1.84232160e-001, 2.74505615e-001,
          2.74505615e-001, 2.74505615e-001, 1.72982126e-001,
          8.81343931e-002, 1.10530116e-001, 8.05413872e-002,
          2.08854333e-001, 1.59656048e-001, 1.37486026e-001,
          1.26959383e-001, 2.43714914e-001, 1.23852991e-001,
          1.18203312e-001, 9.22760069e-002, 2.00667560e-001,
          1.13383941e-001, 4.81919087e-002, 5.39292842e-002,
          8.43482986e-002, 2.76972055e-001, 1.99937448e-001,
          1.81918502e-001, 1.88153192e-001, 2.36695990e-001,
          2.11381957e-001, 1.05694704e-001, 2.00727686e-001,
          2.22440735e-001, 2.76972055e-001, 1.51367545e-001,
          9.78716090e-002, 1.15285851e-001, 1.40369505e-001,
          1.40184283e-001, 7.44680539e-002, 1.42654002e-001,
          2.17216358e-001, 2.76972055e-001, 1.10547103e-001,
          5.12959026e-002, 6.08911142e-002, 1.15637302e-001,
          4.98972349e-002, 3.09566073e-002, 1.43682789e-002,
          4.98962477e-002, 2.69132972e-001, 2.12850243e-001,
          2.69132972e-001, 2.58309007e-001, 8.17613006e-002,
          4.12229039e-002, 3.97400670e-002, 3.05398330e-002,
          4.02418226e-002, 1.36016771e-001, 1.61077097e-001,
          2.69132972e-001, 2.65166849e-001, 3.40040512e-002,
          6.43462166e-002, 6.99095428e-002, 1.03824727e-001,
          1.47297904e-001, 2.69132972e-001, 1.63376033e-001,
          1.82860404e-001, 1.05231486e-001, 4.50180583e-002,
          1.15441814e-001, 7.25111216e-002, 2.50715047e-001,
          1.54633924e-001, 2.69132972e-001, 2.34926343e-001,
          2.69132972e-001, 1.83494166e-001, 8.46282020e-002 ]
      - [ 2.91338842e-002, 1.37201054e-002, 2.97868364e-002,
          7.61611462e-002, 3.64473790e-001, 2.72328734e-001,
          8.36506411e-002, 1.02364406e-001, 4.94337715e-002,
          9.05144140e-002, 4.25029099e-002, 5.99255525e-002,
          1.68501735e-001, 3.64473790e-001, 2.25859031e-001,
          7.17925653e-002, 8.62816349e-002, 6.66719079e-002,
          5.72301671e-002, 3.55147496e-002, 3.40104140e-002,
          1.51336670e-001, 3.64473790e-001, 1.60159856e-001,
          6.73615411e-002, 1.50021939e-002, 3.33029777e-002,
          2.34305754e-001, 1.13197170e-001, 8.65377933e-002,
          2.81820536e-001, 3.64473790e-001, 1.15837656e-001,
          7.88119286e-002, 6.37026951e-002, 1.21310316e-001,
          1.44262165e-001, 7.25389645e-002, 9.43892077e-002,
          1.98518872e-001, 2.34446719e-001, 1.19260989e-001,
          4.46326435e-002, 6.27300218e-002, 1.20490082e-001,
          1.61165163e-001, 1.02892496e-001, 1.69109091e-001,
          2.34446719e-001, 2.34446719e-001, 1.55636474e-001,
          5.21361604e-002, 1.47575930e-001, 1.73260093e-001,
          2.34446719e-001, 1.76825881e-001, 2.32616842e-001,
          2.23946452e-001, 1.50705978e-001, 8.28861445e-002,
          6.34425282e-002, 8.33631754e-002, 2.25991607e-001,
          2.34446719e-001, 2.15042874e-001, 2.34446719e-001,
          1.52991146e-001, 9.49792191e-002, 1.40538841e-001,
          7.06940666e-002, 1.71356872e-001, 2.34446719e-001,
          1.41905099e-001, 1.32864222e-001, 1.72678426e-001,
          2.28583008e-001, 2.28583008e-001, 1.64914981e-001,
          5.72856702e-002, 1.29525930e-001, 1.06681310e-001,
          1.52810544e-001, 1.35021478e-001, 1.39849022e-001,
          1.95701897e-001, 2.28583008e-001, 1.04796693e-001,
          5.12801409e-002, 5.54484501e-002, 7.61040896e-002,
          2.28583008e-001, 1.32796422e-001, 1.47730395e-001,
          2.03148648e-001, 1.69645980e-001, 1.18774243e-001,
          9.67897326e-002, 2.25641876e-001, 2.28583008e-001,
          2.28583008e-001, 1.55913740e-001, 2.22648248e-001,
          1.98225066e-001, 2.12468997e-001, 7.16301426e-002,
          1.02690890e-001, 1.60967320e-001, 2.28583008e-001,
          1.59975857e-001, 6.65626526e-002, 1.02877334e-001,
          1.52893826e-001, 2.42162749e-001, 1.10873565e-001,
          1.03729978e-001, 5.85681349e-002, 1.32629290e-001,
          2.19234288e-001, 1.35412440e-001, 9.75177884e-002,
          1.64240584e-001, 2.42162749e-001, 1.09901011e-001,
          1.37825161e-001, 1.42542854e-001, 2.20388979e-001,
          2.29673624e-001, 9.67315361e-002, 1.05218492e-001,
          1.25538737e-001, 2.42162749e-001, 1.48101106e-001,
          1.41542658e-001, 6.81210756e-002, 1.85546696e-001,
          2.37984359e-001, 1.26169980e-001, 1.18754603e-001,
          1.68720707e-001, 2.42162749e-001, 2.07371399e-001,
          2.13554949e-001, 1.40545040e-001, 2.42162749e-001,
          2.32512712e-001, 1.91952214e-001, 1.86879382e-001,
          1.11588404e-001, 5.53813651e-002, 7.44630173e-002,
          6.56613782e-002, 1.26907006e-001, 2.00174451e-001,
          2.32512712e-001, 2.00964794e-001, 2.19067529e-001,
          9.59200710e-002, 3.57594453e-002, 1.33265227e-001,
          7.92070627e-002, 1.83057055e-001, 2.32512712e-001,
          2.32512712e-001, 1.39135897e-001, 9.66276079e-002,
          1.24250211e-001, 6.76335171e-002, 1.08428739e-001,
          1.29171818e-001, 1.27538636e-001, 2.32512712e-001,
          2.32512712e-001, 1.24174014e-001, 7.84069896e-002,
          9.78010669e-002, 1.54174984e-001, 2.32512712e-001,
          2.30387464e-001, 2.32512712e-001, 2.32512712e-001,
          2.35334039e-001, 1.20858707e-001, 1.15385346e-001,
          1.12798631e-001, 7.71780387e-002, 1.11565441e-001,
          1.09183460e-001, 2.02424020e-001, 2.35334039e-001,
          2.35334039e-001, 1.50807381e-001, 2.00574487e-001,
          1.65024027e-001, 1.71401903e-001, 1.01392493e-001,
          1.26165614e-001, 1.13257594e-001, 2.15601981e-001,
          1.20273247e-001, 6.11694716e-002, 5.05029187e-002,
          1.22827128e-001, 1.82448104e-001, 2.35334039e-001,
          2.35334039e-001, 2.35334039e-001, 2.13946581e-001,
          9.99080017e-002, 3.47474888e-002, 4.36520688e-002,
          8.57469216e-002, 2.35334039e-001, 2.35334039e-001,
          2.35334039e-001, 1.93378419e-001, 9.70755517e-002,
          8.90386850e-002, 6.95708245e-002, 6.41770661e-002,
          1.48342565e-001, 2.78428882e-001, 1.02650471e-001,
          4.90143187e-002, 2.22413391e-002, 6.94869161e-002,
          1.31845832e-001, 1.27385229e-001, 1.39666483e-001,
          2.34702095e-001, 2.78428882e-001, 1.70011550e-001,
          9.05844495e-002, 5.50739765e-002, 1.40715599e-001,
          9.27972272e-002, 1.69620857e-001, 2.56363660e-001,
          2.24215716e-001, 2.78428882e-001, 1.13137789e-001,
          7.85096288e-002, 2.53502335e-002, 7.39991888e-002,
          1.44130468e-001, 2.42808208e-001, 2.78428882e-001,
          2.78428882e-001, 2.78428882e-001, 1.56903714e-001,
          1.15942113e-001, 2.47456729e-002, 9.95905250e-002,
          1.75177842e-001, 1.18786372e-001, 1.28799826e-001,
          2.03252241e-001, 2.72761494e-001, 1.06169105e-001,
          9.16270912e-002, 5.58993146e-002, 2.04572305e-001,
          1.29112199e-001, 5.37068807e-002, 5.26198596e-002,
          1.24995135e-001, 2.83290625e-001, 1.74025774e-001,
          1.84182227e-001, 1.30830675e-001, 1.76599577e-001,
          2.12610424e-001, 1.57688320e-001, 1.88528180e-001,
          2.81493634e-001, 2.83290625e-001, 1.18182734e-001,
          8.59325528e-002, 1.95206478e-002, 1.71105981e-001,
          1.60679281e-001, 8.14272985e-002, 1.18139274e-001,
          2.46924773e-001, 2.83290625e-001, 9.48177651e-002,
          4.76809181e-002, 2.04643738e-002, 9.63853374e-002,
          2.13077217e-002, 7.05827912e-003, 1.40164439e-002,
          7.76163414e-002, 2.68584371e-001, 2.68584371e-001,
          2.68584371e-001, 2.26982370e-001, 5.81208244e-002,
          2.78151445e-002, 6.24547526e-003, 3.03550847e-002,
          4.20292318e-002, 2.68584371e-001, 2.68584371e-001,
          2.68584371e-001, 2.37114683e-001, 4.15484831e-002,
          2.96666082e-002, 2.28336584e-002, 3.96662317e-002,
          1.01660252e-001, 2.68584371e-001, 2.04724923e-001,
          1.52454406e-001, 7.23357350e-002, 2.29095574e-002,
          5.13923280e-002, 3.39307636e-002, 1.35158449e-001,
          1.15316547e-001, 2.68584371e-001, 2.68584371e-001,
          2.68584371e-001, 1.66136950e-001, 7.54000768e-002 ]
      - [ 3.91233079e-002, 2.99254246e-002, 5.26496433e-002,
          1.31356448e-001, 3.89401197e-001, 1.48940012e-001,
          5.06041385e-002, 5.15735149e-002, 7.07276016e-002,
          1.00578479e-001, 7.41123557e-002, 1.29860893e-001,
          1.61930978e-001, 3.89401197e-001, 1.70022592e-001,
          5.43117188e-002, 6.33812025e-002, 6.71988279e-002,
          3.45649719e-002, 2.84643508e-002, 6.34361580e-002,
          1.70464620e-001, 3.89401197e-001, 1.15221687e-001,
          2.79625114e-002, 1.49178086e-002, 1.62430182e-002,
          1.65540114e-001, 2.26704091e-001, 2.09122285e-001,
          1.71403185e-001, 3.89401197e-001, 1.30904973e-001,
          6.89387545e-002, 5.30544892e-002, 9.68958884e-002,
          1.53619289e-001, 9.88378376e-002, 1.50849223e-001,
          1.31906837e-001, 2.42956787e-001, 1.56318367e-001,
          7.19560832e-002, 5.52599989e-002, 9.73516777e-002,
          1.48685470e-001, 1.98078468e-001, 1.86012805e-001,
          1.62318110e-001, 2.42956787e-001, 1.60185486e-001,
          1.61573291e-001, 6.54895231e-002, 9.60092619e-002,
          2.42956787e-001, 2.42956787e-001, 2.42956787e-001,
          1.15661167e-001, 9.21877548e-002, 7.75780827e-002,
          7.39154816e-002, 5.16995378e-002, 2.16292456e-001,
          2.42956787e-001, 2.42956787e-001, 2.42956787e-001,
          1.41940936e-001, 1.17559560e-001, 1.22677714e-001,
          1.58494547e-001, 7.83560351e-002, 2.42956787e-001,
          8.85561332e-002, 2.39112243e-001, 2.19980553e-001,
          2.39112243e-001, 2.39112243e-001, 8.44386443e-002,
          9.17718858e-002, 3.53444256e-002, 3.16357315e-002,
          6.80023953e-002, 1.47666171e-001, 1.52658969e-001,
          2.07723886e-001, 2.39112243e-001, 7.37513229e-002,
          5.58992773e-002, 5.68121783e-002, 8.88536349e-002,
          2.39112243e-001, 2.39112243e-001, 2.39112243e-001,
          1.60351232e-001, 1.34012833e-001, 8.13500583e-002,
          8.16037878e-002, 5.82967848e-002, 2.18845561e-001,
          2.11644024e-001, 2.39112243e-001, 2.39112243e-001,
          1.41823143e-001, 2.36451641e-001, 6.87451214e-002,
          6.69070855e-002, 9.70508531e-002, 2.20803499e-001,
          1.48621485e-001, 7.35606626e-002, 1.27864629e-001,
          1.56811416e-001, 2.49093100e-001, 1.04522608e-001,
          8.25026557e-002, 7.78562576e-002, 1.09626815e-001,
          2.49093100e-001, 1.63684294e-001, 1.23727642e-001,
          9.18311626e-002, 2.49093100e-001, 1.27298757e-001,
          1.26742512e-001, 1.06570475e-001, 2.10683867e-001,
          2.32071996e-001, 1.28603667e-001, 9.48560461e-002,
          1.45808682e-001, 2.49093100e-001, 1.51779979e-001,
          1.00238994e-001, 9.77261811e-002, 1.77906975e-001,
          2.49093100e-001, 1.74246177e-001, 1.27228484e-001,
          9.77583379e-002, 2.49093100e-001, 2.08516702e-001,
          1.39301151e-001, 1.62638888e-001, 2.49093100e-001,
          2.43960574e-001, 1.78673491e-001, 2.03474924e-001,
          5.10560349e-002, 3.97025980e-002, 6.02023564e-002,
          6.05533570e-002, 6.93026409e-002, 2.43960574e-001,
          2.43960574e-001, 1.96780100e-001, 2.37667009e-001,
          8.53894651e-002, 3.86906639e-002, 1.09414972e-001,
          1.05531439e-001, 1.18073232e-001, 2.43960574e-001,
          2.43960574e-001, 1.17267899e-001, 1.02853313e-001,
          6.73725903e-002, 7.43522123e-002, 9.76556242e-002,
          1.08429812e-001, 1.34328425e-001, 2.43960574e-001,
          2.43960574e-001, 1.11123420e-001, 7.65777156e-002,
          8.08568224e-002, 1.46048084e-001, 2.29474798e-001,
          2.43960574e-001, 2.42460266e-001, 2.43960574e-001,
          2.43368298e-001, 2.16166303e-001, 2.16921315e-001,
          9.97492671e-002, 4.53408360e-002, 1.02589414e-001,
          1.28946438e-001, 1.17585845e-001, 2.43368298e-001,
          2.34913617e-001, 2.43368298e-001, 2.43368298e-001,
          1.14506021e-001, 7.49706775e-002, 2.75672134e-002,
          6.59585670e-002, 7.06274584e-002, 1.91698700e-001,
          1.53219685e-001, 9.75781009e-002, 6.70865178e-002,
          1.38735011e-001, 1.61123052e-001, 2.43368298e-001,
          2.43368298e-001, 2.43368298e-001, 2.43368298e-001,
          7.01758489e-002, 1.15247145e-001, 1.26851022e-001,
          1.20510705e-001, 1.10850848e-001, 1.37826622e-001,
          2.43368298e-001, 1.58804283e-001, 9.46273953e-002,
          8.55272040e-002, 8.06405544e-002, 6.01256154e-002,
          1.69377863e-001, 2.79624075e-001, 1.05652690e-001,
          3.87522355e-002, 3.05946097e-002, 6.46971092e-002,
          1.31429762e-001, 1.46808460e-001, 1.55453146e-001,
          2.38444358e-001, 2.79624075e-001, 1.78572163e-001,
          8.68512765e-002, 6.87164739e-002, 1.36460319e-001,
          9.76370499e-002, 1.80010244e-001, 2.53905863e-001,
          2.43169874e-001, 2.79624075e-001, 9.94636267e-002,
          6.96270987e-002, 4.16322015e-002, 5.97435348e-002,
          1.03535496e-001, 2.47315064e-001, 2.58880228e-001,
          2.79624075e-001, 2.79624075e-001, 1.30849928e-001,
          8.68098289e-002, 5.72232231e-002, 8.55114609e-002,
          1.83849826e-001, 1.14932977e-001, 1.56089708e-001,
          2.01887384e-001, 2.81103700e-001, 1.06415115e-001,
          1.06909528e-001, 6.21752702e-002, 2.12408006e-001,
          1.51812807e-001, 6.38973787e-002, 7.27184713e-002,
          1.16279803e-001, 2.82323211e-001, 2.01432824e-001,
          2.16076568e-001, 1.09038189e-001, 1.66714594e-001,
          1.85232580e-001, 1.60637334e-001, 1.75734088e-001,
          2.78913081e-001, 2.82323211e-001, 9.21741277e-002,
          6.16262890e-002, 3.40151116e-002, 1.40834346e-001,
          1.75213218e-001, 1.08946465e-001, 1.20207340e-001,
          2.17062041e-001, 2.82323211e-001, 8.72074366e-002,
          5.20050712e-002, 1.72460061e-002, 7.39389136e-002,
          5.54093160e-002, 5.15841022e-002, 2.63000578e-002,
          7.50141218e-002, 2.72924632e-001, 2.72924632e-001,
          2.72924632e-001, 1.82249397e-001, 5.75853400e-002,
          2.08651703e-002, 3.20236012e-002, 5.01460135e-002,
          3.96266282e-002, 1.39419213e-001, 2.52513707e-001,
          2.72924632e-001, 2.29644939e-001, 2.88217086e-002,
          7.48129040e-002, 5.74980527e-002, 5.53769395e-002,
          1.13274068e-001, 2.72924632e-001, 1.87032253e-001,
          2.13632494e-001, 6.06680252e-002, 2.37602163e-002,
          1.28803536e-001, 6.74082711e-002, 2.32902810e-001,
          9.34185460e-002, 2.72924632e-001, 2.72924632e-001,
          2.72924632e-001, 1.24605596e-001, 3.43198366e-002 ]
      - [ 2.56489813e-002, 2.30335798e-002, 4.76111248e-002,
          9.23433527e-002, 3.71371001e-001, 1.71116889e-001,
          5.80450371e-002, 7.36850724e-002, 5.28606698e-002,
          1.14820749e-001, 6.10318668e-002, 9.40968394e-002,
          1.37645453e-001, 3.71371001e-001, 2.11542323e-001,
          8.47687498e-002, 8.42040926e-002, 6.48794547e-002,
          5.63260391e-002, 3.17356810e-002, 6.47706315e-002,
          1.53518781e-001, 3.71371001e-001, 1.05048731e-001,
          3.25716175e-002, 1.78346597e-002, 1.58283953e-002,
          3.52194637e-001, 1.51200116e-001, 1.76854774e-001,
          1.75693020e-001, 3.71371001e-001, 8.18492845e-002,
          5.79663925e-002, 5.95269427e-002, 1.28701434e-001,
          1.51193976e-001, 8.24848041e-002, 1.06040359e-001,
          1.56649709e-001, 2.37286523e-001, 1.74076527e-001,
          7.82335699e-002, 6.71969131e-002, 1.19452767e-001,
          9.50028598e-002, 1.36540309e-001, 1.62858516e-001,
          2.07514629e-001, 2.37286523e-001, 2.35404134e-001,
          1.16571113e-001, 5.74402064e-002, 1.03993341e-001,
          2.37286523e-001, 1.89605623e-001, 2.37286523e-001,
          1.36275977e-001, 1.25817195e-001, 6.15020320e-002,
          6.22135326e-002, 7.58889094e-002, 2.35949501e-001,
          2.26854354e-001, 2.37286523e-001, 2.37286523e-001,
          1.34034738e-001, 1.72016561e-001, 1.72057644e-001,
          1.35246694e-001, 1.26959503e-001, 2.37286523e-001,
          6.31102622e-002, 2.32132122e-001, 2.06633180e-001,
          2.37372637e-001, 2.37372637e-001, 1.28591776e-001,
          6.16420396e-002, 1.34314382e-002, 2.70650946e-002,
          6.59832656e-002, 1.73858002e-001, 1.41362354e-001,
          2.36671105e-001, 2.37372637e-001, 1.02071822e-001,
          3.82651091e-002, 1.46838557e-002, 1.99956317e-002,
          2.37372637e-001, 2.37372637e-001, 2.37372637e-001,
          1.51212126e-001, 1.47550046e-001, 9.68703255e-002,
          5.99554032e-002, 5.74247465e-002, 2.37372637e-001,
          2.37372637e-001, 2.37372637e-001, 2.37372637e-001,
          2.07381740e-001, 2.37372637e-001, 4.59076501e-002,
          5.52771948e-002, 7.34162405e-002, 1.35877401e-001,
          1.71854630e-001, 6.19126968e-002, 1.34823009e-001,
          1.45789266e-001, 2.62847036e-001, 1.09382443e-001,
          8.24550763e-002, 7.41357803e-002, 1.13600224e-001,
          2.62847036e-001, 8.25582743e-002, 1.15603134e-001,
          9.23484936e-002, 2.62847036e-001, 9.97453630e-002,
          8.66217092e-002, 9.93361771e-002, 2.62847036e-001,
          2.35008597e-001, 1.16706364e-001, 9.27673280e-002,
          1.27139285e-001, 2.62847036e-001, 1.65314123e-001,
          1.14315152e-001, 8.77043679e-002, 1.66415602e-001,
          2.62847036e-001, 1.33636072e-001, 1.04028054e-001,
          8.26875567e-002, 2.62847036e-001, 1.98510155e-001,
          1.46234080e-001, 1.13852277e-001, 2.62847036e-001,
          2.59281516e-001, 1.21340878e-001, 1.77760392e-001,
          5.58616705e-002, 3.94557863e-002, 4.13371176e-002,
          5.61045222e-002, 5.98888062e-002, 2.59281516e-001,
          2.59281516e-001, 1.74804971e-001, 2.10990682e-001,
          6.94110021e-002, 6.37125820e-002, 1.25722766e-001,
          1.74655735e-001, 1.31424665e-001, 2.59281516e-001,
          2.59281516e-001, 7.80003965e-002, 8.52075443e-002,
          5.04814349e-002, 7.00283125e-002, 7.60102123e-002,
          9.92502198e-002, 9.36281011e-002, 2.59281516e-001,
          2.59281516e-001, 5.79319261e-002, 6.05556555e-002,
          4.37755659e-002, 1.51665300e-001, 2.59281516e-001,
          2.59281516e-001, 2.02558234e-001, 2.59281516e-001,
          2.41392598e-001, 1.35148630e-001, 1.32397443e-001,
          6.79515377e-002, 8.64465162e-002, 1.21304236e-001,
          1.43071443e-001, 1.25477955e-001, 2.41392598e-001,
          2.41392598e-001, 2.01989546e-001, 2.41392598e-001,
          1.90304786e-001, 2.27316886e-001, 5.05369827e-002,
          5.13486452e-002, 8.71308446e-002, 1.96627811e-001,
          2.18237609e-001, 4.03256640e-002, 2.79490035e-002,
          6.82004243e-002, 2.41392598e-001, 2.41392598e-001,
          2.41392598e-001, 2.41392598e-001, 1.99025288e-001,
          8.87927115e-002, 3.84623706e-002, 6.13466054e-002,
          1.12504259e-001, 2.41392598e-001, 1.76863208e-001,
          1.16485074e-001, 1.43352270e-001, 9.34152529e-002,
          7.34751001e-002, 8.00641328e-002, 6.42656460e-002,
          1.69402167e-001, 2.74266362e-001, 9.65788588e-002,
          4.40777279e-002, 3.15202363e-002, 5.40770963e-002,
          1.50099441e-001, 1.45582333e-001, 2.19564632e-001,
          2.11851463e-001, 2.74266362e-001, 1.40635520e-001,
          9.09203365e-002, 9.56817344e-002, 1.29703000e-001,
          1.01792663e-001, 1.62138686e-001, 2.66272426e-001,
          2.41499826e-001, 2.74266362e-001, 9.26164091e-002,
          6.91509470e-002, 2.98171639e-002, 6.00212365e-002,
          1.58423930e-001, 1.87825069e-001, 2.74266362e-001,
          2.74266362e-001, 2.74266362e-001, 1.65993184e-001,
          1.07244022e-001, 5.05064838e-002, 9.77698043e-002,
          2.22567156e-001, 8.23865086e-002, 1.83198273e-001,
          1.65864378e-001, 2.42999226e-001, 9.21576321e-002,
          7.30294660e-002, 9.43717808e-002, 2.29194894e-001,
          1.74313217e-001, 2.00814810e-002, 5.06200269e-002,
          1.16298206e-001, 3.02444845e-001, 1.95644245e-001,
          9.08754170e-002, 1.37457341e-001, 1.88202038e-001,
          1.90807462e-001, 1.07798107e-001, 2.51183450e-001,
          2.31014416e-001, 3.02444845e-001, 1.19403176e-001,
          8.63529667e-002, 4.69608791e-002, 1.94082946e-001,
          1.24967009e-001, 6.81416616e-002, 8.14158693e-002,
          2.04319239e-001, 3.02444845e-001, 8.82791951e-002,
          2.42848527e-002, 3.49872783e-002, 1.37142017e-001,
          8.02901089e-002, 1.22972829e-002, 1.40736178e-002,
          8.51136744e-002, 3.10320854e-001, 2.88640618e-001,
          1.10473759e-001, 1.71994999e-001, 8.25380832e-002,
          5.06810993e-002, 2.72914991e-002, 5.56180887e-002,
          6.16195463e-002, 3.10320854e-001, 3.10320854e-001,
          2.02914178e-001, 1.25501424e-001, 3.72364074e-002,
          3.72687317e-002, 3.53513807e-002, 3.27812433e-002,
          1.22895516e-001, 3.10320854e-001, 2.16445714e-001,
          3.40579301e-002, 3.28692049e-002, 2.13001389e-002,
          5.87963350e-002, 1.43879220e-001, 2.55977571e-001,
          1.14142798e-001, 3.10320854e-001, 3.10320854e-001,
          1.77563369e-001, 4.40095998e-002, 1.00510046e-002 ]
   decision_functions:
      -
         sv_count: 11
         rho: -7.1511065224856138e-003
         alpha: [ 1.8486092291333427e+000, 3.0924989534838448e-001,
             4.1057021708294164e+000, 4.1357427008219494e-001,
             1.8962316253812097e+000, -1.6767401622096665e+000,
             -4.0952555744272114e+000, -2.1798863238859562e-001,
             -1.7605962987873505e+000, -4.4584225195330440e-001,
             -3.7694427100842015e-001 ]
         index: [ 0, 1, 2, 3, 4, 5, 6, 7, 8, 9, 10 ]
