%YAML:1.0
my_svm: !!opencv-ml-svm
   svm_type: C_SVC
   kernel: { type:RBF, gamma:8.9999999999999997e-002 }
   C: 10.
   term_criteria: { epsilon:1.1920928955078125e-007,
       iterations:2147483647 }
   var_all: 324
   var_count: 324
   class_count: 10
   class_labels: !!opencv-matrix
      rows: 1
      cols: 10
      dt: i
      data: [ 0, 1, 2, 3, 4, 5, 6, 7, 8, 9 ]
   sv_total: 84
   support_vectors:
      - [ 4.66833301e-002, 7.34629855e-002, 4.78726998e-002,
          2.37076029e-001, 3.23058456e-001, 2.57986277e-001,
          1.10033579e-001, 1.19081855e-001, 3.62827629e-002,
          5.63010573e-002, 8.47380832e-002, 8.43276531e-002,
          2.35696107e-001, 3.23058456e-001, 1.80109903e-001,
          3.54159102e-002, 4.47417125e-002, 2.82111317e-002,
          5.78639433e-002, 4.44305018e-002, 6.52157143e-002,
          1.95594773e-001, 3.23058456e-001, 2.71067142e-001,
          5.62761538e-002, 7.44865611e-002, 8.19093063e-002,
          9.39021930e-002, 8.56875256e-002, 1.22714750e-001,
          2.54452020e-001, 3.23058456e-001, 2.31453776e-001,
          3.81331518e-002, 9.89230275e-002, 1.09795287e-001,
          4.77530733e-002, 6.14471883e-002, 1.16693325e-001,
          1.54105678e-001, 2.80037969e-001, 1.09133273e-001,
          2.37787142e-002, 1.23792635e-002, 1.75496060e-002,
          6.66688681e-002, 1.87503055e-001, 2.80037969e-001,
          2.80037969e-001, 2.80037969e-001, 5.84898293e-002,
          3.66221890e-002, 3.21053453e-002, 4.09984924e-002,
          6.01437315e-002, 1.93900287e-001, 2.80037969e-001,
          2.31807292e-001, 2.80037969e-001, 1.16006456e-001,
          4.82139103e-002, 6.05602041e-002, 4.54767235e-002,
          4.74895462e-002, 2.20844850e-001, 2.80037969e-001,
          2.80037969e-001, 2.80037969e-001, 6.72343522e-002,
          1.10245921e-001, 5.80190122e-002, 2.09739991e-002,
          9.68972743e-002, 1.42434984e-001, 1.96827352e-001,
          2.23028615e-001, 3.11147571e-001, 1.28216431e-001,
          1.03610978e-001, 1.03731416e-001, 8.44549313e-002,
          6.15360774e-002, 4.00047749e-002, 3.57222259e-002,
          7.63073340e-002, 2.42208511e-001, 1.11660182e-001,
          8.06907713e-002, 1.02033049e-001, 9.90065858e-002,
          5.37716746e-002, 7.53808096e-002, 1.67178437e-001,
          2.87636489e-001, 3.11147571e-001, 1.64708689e-001,
          8.67237225e-002, 7.57627189e-002, 6.72904328e-002,
          8.25218633e-002, 3.25080641e-002, 9.14651528e-003,
          2.48711288e-001, 3.11147571e-001, 3.11147571e-001,
          9.50011462e-002, 1.47471279e-001, 2.67047226e-001,
          8.38788077e-002, 4.92791161e-002, 9.15778503e-002,
          1.90447599e-001, 2.69918263e-001, 2.01832622e-001,
          4.28293161e-002, 3.82244438e-002, 1.16366088e-001,
          2.26501226e-001, 1.11303464e-001, 1.56802520e-001,
          2.09210753e-001, 2.69918263e-001, 1.64824054e-001,
          6.43817484e-002, 8.86909515e-002, 1.93349719e-001,
          8.74298736e-002, 5.69759533e-002, 6.92600235e-002,
          1.65631726e-001, 2.69918263e-001, 2.69918263e-001,
          9.84038785e-002, 3.83732952e-002, 1.39970258e-001,
          2.17049658e-001, 1.15202695e-001, 9.21506807e-002,
          1.96635723e-001, 2.69918263e-001, 2.55025506e-001,
          1.46798074e-001, 1.01690292e-001, 1.85427278e-001,
          1.36296794e-001, 1.64196804e-001, 2.29396015e-001,
          1.70995235e-001, 2.29396015e-001, 8.83088186e-002,
          1.16965808e-001, 1.03564024e-001, 1.12507053e-001,
          6.31775856e-002, 1.43735260e-001, 2.27878198e-001,
          1.79573596e-001, 2.29396015e-001, 1.29411876e-001,
          2.29396015e-001, 1.50011376e-001, 2.92382017e-002,
          1.43060818e-001, 1.06463715e-001, 9.58113149e-002,
          1.64596781e-001, 2.29396015e-001, 1.61861077e-001,
          2.29396015e-001, 1.49778992e-001, 1.24430105e-001,
          1.11342371e-001, 1.48869604e-001, 9.50870067e-002,
          1.37302428e-001, 2.29396015e-001, 2.29396015e-001,
          2.29396015e-001, 2.25785941e-001, 9.95601416e-002,
          6.47924095e-002, 6.93242475e-002, 6.74484596e-002,
          1.67954326e-001, 2.64075845e-001, 1.34345755e-001,
          1.53783739e-001, 1.13391235e-001, 3.07619628e-002,
          6.42809197e-002, 5.51287197e-002, 3.21741290e-002,
          1.99924707e-001, 2.64075845e-001, 2.64075845e-001,
          1.56907901e-001, 9.17910710e-002, 8.10348839e-002,
          1.14757694e-001, 1.72944650e-001, 1.60640463e-001,
          1.67719796e-001, 2.64075845e-001, 1.64024144e-001,
          1.49580747e-001, 2.05231279e-001, 9.39194262e-002,
          1.21288754e-001, 1.22798532e-001, 2.30864808e-001,
          1.58999786e-001, 2.64075845e-001, 2.41428837e-001,
          2.50078321e-001, 1.68696374e-001, 9.34844390e-002,
          3.18750180e-002, 4.91651706e-002, 6.17627688e-002,
          1.42539740e-001, 3.24090958e-001, 2.81297773e-001,
          6.51570559e-002, 4.00629640e-002, 7.24784061e-002,
          4.06977050e-002, 4.14375439e-002, 5.15682623e-002,
          1.42327398e-001, 3.24090958e-001, 3.01089078e-001,
          8.98964703e-002, 4.80373539e-002, 6.28337488e-002,
          2.71943156e-002, 6.21849857e-002, 1.61331356e-001,
          2.19874039e-001, 3.24090958e-001, 2.92183340e-001,
          3.14498059e-002, 5.28873503e-002, 3.58311869e-002,
          3.19661498e-002, 1.27653526e-002, 9.94346067e-002,
          1.70036539e-001, 3.24090958e-001, 3.24090958e-001,
          7.04385936e-002, 5.15848026e-002, 7.40353540e-002,
          4.70031463e-002, 4.96407375e-002, 4.34056334e-002,
          1.18684195e-001, 2.99321622e-001, 2.26610690e-001,
          2.11043149e-001, 7.34213367e-002, 4.27067131e-002,
          5.95696643e-002, 8.66139010e-002, 5.89653701e-002,
          1.21392138e-001, 2.99321622e-001, 2.99321622e-001,
          2.99321622e-001, 1.61519751e-001, 7.83686340e-002,
          6.72994480e-002, 1.53609253e-002, 6.89533204e-002,
          1.18991159e-001, 2.99321622e-001, 2.52544075e-001,
          1.07173219e-001, 3.21163312e-002, 8.33741799e-002,
          4.54197228e-002, 2.19885521e-002, 4.77214418e-002,
          1.90992400e-001, 2.99321622e-001, 2.53153652e-001,
          1.99493915e-001, 1.23515896e-001, 8.26836601e-002,
          5.70020899e-002, 1.54053867e-001, 2.31659785e-001,
          2.07496971e-001, 2.47440532e-001, 1.83969721e-001,
          1.24403633e-001, 1.52667686e-001, 8.88705105e-002,
          9.74662825e-002, 1.72482356e-001, 2.47440532e-001,
          1.81182414e-001, 2.47440532e-001, 1.23069853e-001,
          1.90405652e-001, 2.04870969e-001, 1.32418111e-001,
          6.19999208e-002, 6.31660819e-002, 1.46165490e-001,
          2.39216119e-001, 2.47440532e-001, 2.03663304e-001,
          7.83131644e-002, 1.45476997e-001, 1.18557081e-001,
          1.23935513e-001, 1.14473589e-001, 1.88265979e-001,
          1.67164490e-001, 2.47440532e-001, 9.95091945e-002,
          6.20650575e-002, 1.18398435e-001, 1.23698279e-001 ]
      - [ 1.09346800e-001, 1.24918684e-001, 8.73304456e-002,
          1.23469986e-001, 3.86020660e-001, 1.35917410e-001,
          1.19549006e-001, 6.08791150e-002, 7.76833966e-002,
          6.60063848e-002, 4.48150672e-002, 1.18704580e-001,
          1.74039155e-001, 3.86020660e-001, 1.53934315e-001,
          4.98300493e-002, 4.10846248e-002, 4.11832519e-002,
          7.19568506e-002, 6.97853416e-002, 4.49067689e-002,
          1.33153513e-001, 3.86020660e-001, 1.79663911e-001,
          6.53208941e-002, 6.09847903e-002, 6.14239164e-002,
          1.30930871e-001, 8.18046778e-002, 9.40783173e-002,
          1.16206929e-001, 3.86020660e-001, 2.88574070e-001,
          6.74349293e-002, 8.08169469e-002, 1.11678652e-001,
          4.77072261e-002, 5.96304387e-002, 1.43255800e-001,
          1.26748383e-001, 2.70033300e-001, 8.35509524e-002,
          1.32129192e-002, 1.70474760e-002, 2.19123643e-002,
          5.30253612e-002, 1.47704333e-001, 2.70033300e-001,
          2.70033300e-001, 2.70033300e-001, 1.16346732e-001,
          7.94536918e-002, 4.37212549e-002, 2.17734221e-002,
          1.01050071e-001, 2.03658104e-001, 2.70033300e-001,
          1.43134400e-001, 2.70033300e-001, 1.45262629e-001,
          5.33583760e-002, 5.27558997e-002, 5.72149269e-002,
          6.48405924e-002, 2.14441344e-001, 2.70033300e-001,
          2.70033300e-001, 2.70033300e-001, 1.77317217e-001,
          1.92823082e-001, 1.50595516e-001, 1.26594454e-002,
          5.57445176e-002, 7.21272379e-002, 2.08499387e-001,
          1.59518942e-001, 2.91889131e-001, 2.51371950e-001,
          1.89579979e-001, 8.01270381e-002, 3.99551429e-002,
          2.66789142e-002, 1.07113421e-002, 2.35973243e-002,
          6.00223541e-002, 2.91889131e-001, 1.72351480e-001,
          1.64364114e-001, 9.66562554e-002, 8.03182125e-002,
          4.67411168e-002, 5.22979833e-002, 1.48469910e-001,
          1.72755092e-001, 2.91889131e-001, 2.71743923e-001,
          2.11465135e-001, 1.56879410e-001, 2.60833148e-002,
          2.46352516e-002, 9.10781696e-003, 1.52557911e-002,
          1.18208133e-001, 2.91889131e-001, 2.72434205e-001,
          2.47375146e-001, 1.94329634e-001, 7.53462389e-002,
          1.51279241e-001, 7.44128749e-002, 3.12071200e-002,
          1.66994810e-001, 3.15177888e-001, 1.14922121e-001,
          6.37664422e-002, 9.36566442e-002, 1.32648215e-001,
          2.69488931e-001, 1.56307593e-001, 9.82438251e-002,
          1.50283590e-001, 3.15177888e-001, 2.11819887e-001,
          9.03121009e-002, 1.05563655e-001, 2.28860602e-001,
          1.31521165e-001, 7.77176544e-002, 2.11878475e-002,
          2.01166049e-001, 3.15177888e-001, 1.32040709e-001,
          5.46857081e-002, 5.03319353e-002, 1.03766330e-001,
          1.63188517e-001, 1.41629964e-001, 5.50489463e-002,
          2.17275992e-001, 3.15177888e-001, 1.85306862e-001,
          6.74180239e-002, 4.86338995e-002, 1.28768772e-001,
          1.68068498e-001, 1.69402823e-001, 2.06615880e-001,
          1.11424513e-001, 2.01469496e-001, 1.81203425e-001,
          1.08797938e-001, 7.30825737e-002, 1.15644671e-001,
          8.14645886e-002, 1.40264168e-001, 2.15045005e-001,
          1.23363942e-001, 2.20542878e-001, 2.02655673e-001,
          2.38339096e-001, 2.38339096e-001, 7.18665421e-002,
          1.18160978e-001, 1.08327486e-001, 7.71921575e-002,
          1.16424158e-001, 2.38339096e-001, 2.38339096e-001,
          1.87700152e-001, 7.51643404e-002, 9.25114229e-002,
          9.18135047e-002, 1.08582459e-001, 1.08044177e-001,
          8.96736607e-002, 2.38339096e-001, 2.38339096e-001,
          2.38339096e-001, 2.16715798e-001, 1.40557587e-001,
          7.14747757e-002, 7.58671537e-002, 9.73698795e-002,
          8.60212669e-002, 2.71926135e-001, 1.56134501e-001,
          1.84111625e-001, 1.82340309e-001, 7.44724274e-002,
          4.40676995e-002, 4.21608724e-002, 3.78589183e-002,
          8.84839892e-002, 2.71926135e-001, 2.38149419e-001,
          2.31526837e-001, 1.17970303e-001, 8.17076266e-002,
          9.51624811e-002, 1.28903478e-001, 1.77578464e-001,
          1.21339813e-001, 2.71926135e-001, 1.99160889e-001,
          1.93620265e-001, 1.42226234e-001, 1.46203667e-001,
          1.04478985e-001, 1.06425717e-001, 2.00805202e-001,
          1.37997404e-001, 2.71926135e-001, 1.62419841e-001,
          2.49270111e-001, 1.37346566e-001, 2.30483592e-001,
          4.22200784e-002, 1.22242652e-001, 9.19534117e-002,
          1.63036272e-001, 3.28070134e-001, 1.35191858e-001,
          5.91484718e-002, 1.66889466e-002, 1.94393527e-002,
          2.62873527e-002, 5.56101874e-002, 5.68328165e-002,
          1.76113665e-001, 3.28070134e-001, 1.84384137e-001,
          1.08662486e-001, 4.61541340e-002, 2.61578541e-002,
          9.51560512e-002, 1.71623543e-001, 2.25308880e-001,
          2.71052003e-001, 3.28070134e-001, 1.25684440e-001,
          1.64884582e-001, 8.11612383e-002, 5.25895357e-002,
          6.92268088e-002, 7.70207793e-002, 1.98422417e-001,
          3.17491293e-001, 3.28070134e-001, 1.29511416e-001,
          1.19264074e-001, 6.67272285e-002, 6.27205223e-002,
          3.29900980e-002, 4.01294529e-002, 3.37131843e-002,
          1.41637728e-001, 2.95900792e-001, 2.17717066e-001,
          1.98724002e-001, 7.64180496e-002, 4.00271155e-002,
          8.93897936e-002, 5.75821362e-002, 9.43389162e-002,
          1.36223674e-001, 2.95900792e-001, 2.95900792e-001,
          2.95900792e-001, 1.52353555e-001, 9.39365327e-002,
          4.23323326e-002, 2.74379048e-002, 8.11844543e-002,
          1.68393582e-001, 2.95900792e-001, 1.10471822e-001,
          9.03172567e-002, 4.52123210e-002, 5.80075644e-002,
          7.01680481e-002, 2.47367918e-002, 1.05879031e-001,
          2.16067746e-001, 2.95900792e-001, 2.69983768e-001,
          2.70930856e-001, 7.40745440e-002, 6.47697896e-002,
          6.71991110e-002, 7.99376145e-002, 1.63005292e-001,
          1.62398547e-001, 3.02551508e-001, 1.88294843e-001,
          2.03464866e-001, 1.18089013e-001, 1.23132363e-001,
          6.55601993e-002, 7.86931515e-002, 1.73480988e-001,
          1.56947538e-001, 3.02551508e-001, 9.25761461e-002,
          2.03476548e-001, 1.23621881e-001, 1.82960421e-001,
          5.84759116e-002, 2.94125155e-002, 8.95606577e-002,
          2.04888269e-001, 3.02551508e-001, 2.22451419e-001,
          1.88392431e-001, 1.00116193e-001, 1.52859747e-001,
          2.71273870e-002, 2.73758806e-002, 3.83008942e-002,
          1.63972229e-001, 3.02551508e-001, 2.15137690e-001,
          1.49957463e-001, 7.77760819e-002, 1.40565872e-001 ]
      - [ 9.91117358e-002, 9.15773138e-002, 5.04236892e-002,
          1.98917210e-001, 3.44740152e-001, 1.63918644e-001,
          7.86379650e-002, 6.41323105e-002, 7.64180124e-002,
          8.41508582e-002, 4.27295454e-002, 8.28682855e-002,
          2.18745053e-001, 3.44740152e-001, 1.56981215e-001,
          3.39317322e-002, 3.57151330e-002, 4.96615767e-002,
          7.02974200e-002, 2.17753947e-002, 1.38861043e-002,
          2.28957593e-001, 3.44740152e-001, 2.17161044e-001,
          4.84737270e-002, 7.14165494e-002, 1.45296082e-001,
          2.02135950e-001, 4.45625037e-002, 4.89789620e-002,
          2.17935324e-001, 3.44740152e-001, 1.82001814e-001,
          8.33939239e-002, 1.09296694e-001, 2.14875892e-001,
          4.82993759e-002, 4.78630550e-002, 1.45580769e-001,
          1.77324414e-001, 2.72210240e-001, 1.05597191e-001,
          2.12290809e-002, 8.26249924e-003, 1.26790842e-002,
          5.04138432e-002, 2.07587272e-001, 2.72210240e-001,
          2.72210240e-001, 2.69555688e-001, 7.26149604e-002,
          4.07223143e-002, 2.13815998e-002, 3.68718505e-002,
          1.30064622e-001, 1.61862269e-001, 2.72210240e-001,
          2.14303195e-001, 2.72210240e-001, 1.05181426e-001,
          7.95480534e-002, 6.61197752e-002, 6.68374225e-002,
          5.84479682e-002, 2.05592528e-001, 2.72210240e-001,
          2.72210240e-001, 2.72210240e-001, 1.10626921e-001,
          1.34656057e-001, 1.29328743e-001, 1.74688809e-002,
          8.32171068e-002, 1.65073201e-001, 1.69578135e-001,
          1.91795081e-001, 2.78640062e-001, 1.16162069e-001,
          1.27805054e-001, 8.31348598e-002, 1.23032212e-001,
          1.03334114e-001, 6.00513443e-002, 1.75970048e-002,
          3.48269343e-002, 2.78640062e-001, 1.69234306e-001,
          2.78640062e-001, 2.00578436e-001, 2.78640062e-001,
          2.38596909e-002, 8.44187289e-002, 2.09430099e-001,
          2.58114368e-001, 2.78640062e-001, 1.28107667e-001,
          1.18596397e-001, 1.05697185e-001, 3.35583352e-002,
          2.23705359e-002, 1.82780083e-002, 4.67335880e-002,
          1.11257665e-001, 2.78640062e-001, 2.22742885e-001,
          2.08095267e-001, 1.47379324e-001, 6.41310364e-002,
          2.13450715e-001, 5.77828325e-002, 6.10868149e-002,
          1.29651636e-001, 2.72761554e-001, 1.26641363e-001,
          5.02114706e-002, 8.47316012e-002, 2.34498531e-001,
          2.72761554e-001, 8.28593671e-002, 7.54918084e-002,
          1.28526658e-001, 2.72761554e-001, 1.38467908e-001,
          9.21745673e-002, 1.13792107e-001, 2.72761554e-001,
          1.92635998e-001, 6.15002625e-002, 1.08816981e-001,
          1.50192454e-001, 2.72761554e-001, 1.59540236e-001,
          4.94177304e-002, 3.34348120e-002, 1.26624912e-001,
          2.71043301e-001, 9.97388959e-002, 9.78136212e-002,
          1.36791199e-001, 2.72761554e-001, 2.17584610e-001,
          4.99339662e-002, 3.24062221e-002, 2.19304636e-001,
          1.80071726e-001, 1.23609796e-001, 1.44810826e-001,
          1.42110124e-001, 2.24760890e-001, 1.60723999e-001,
          1.33082435e-001, 9.13483500e-002, 1.51942596e-001,
          7.72158131e-002, 1.31938800e-001, 1.86134189e-001,
          1.73456341e-001, 2.08274320e-001, 2.13319749e-001,
          2.35789329e-001, 2.35789329e-001, 9.20337737e-002,
          1.11112252e-001, 8.27623978e-002, 6.82542846e-002,
          9.28314105e-002, 2.35789329e-001, 2.35789329e-001,
          1.83636278e-001, 9.38822776e-002, 1.35039642e-001,
          7.40035623e-002, 1.05689183e-001, 1.04378358e-001,
          1.09080791e-001, 2.35789329e-001, 2.35789329e-001,
          2.35789329e-001, 2.20771432e-001, 1.64997771e-001,
          6.42063394e-002, 1.16107695e-001, 1.07760325e-001,
          1.45560801e-001, 2.40724280e-001, 1.60326272e-001,
          1.45515367e-001, 1.76735938e-001, 7.76275918e-002,
          3.93178985e-002, 8.94271508e-002, 5.37857153e-002,
          1.04347937e-001, 2.40724280e-001, 2.40724280e-001,
          1.95718125e-001, 9.93308350e-002, 3.99043635e-002,
          9.29232389e-002, 1.80335477e-001, 2.40724280e-001,
          1.63464025e-001, 2.40724280e-001, 1.69783309e-001,
          1.78565428e-001, 1.36961415e-001, 1.50042325e-001,
          9.74502712e-002, 2.11429358e-001, 2.40724280e-001,
          1.10463746e-001, 2.31610641e-001, 2.27941230e-001,
          2.40724280e-001, 1.29822657e-001, 1.60025954e-001,
          5.67864627e-002, 5.22402860e-002, 9.65300426e-002,
          1.25005707e-001, 2.62403816e-001, 1.82736352e-001,
          1.08357362e-001, 7.81634450e-002, 9.85281542e-002,
          3.42901386e-002, 3.79866287e-002, 6.92683607e-002,
          1.47566482e-001, 2.62403816e-001, 2.31858075e-001,
          8.29246417e-002, 6.55460209e-002, 6.05742745e-002,
          5.94648868e-002, 7.81530514e-002, 1.96299195e-001,
          1.35396093e-001, 2.62403816e-001, 2.52863020e-001,
          2.47589767e-001, 2.36427516e-001, 1.71236932e-001,
          4.22209352e-002, 6.16936274e-002, 2.09550500e-001,
          1.64078578e-001, 2.62403816e-001, 2.62403816e-001,
          2.06981435e-001, 2.13110656e-001, 1.47672981e-001,
          3.29776108e-002, 3.31462696e-002, 4.07194123e-002,
          1.15915716e-001, 3.15808445e-001, 2.28018239e-001,
          1.62357390e-001, 9.13717151e-002, 5.35750911e-002,
          3.70884016e-002, 4.87800986e-002, 6.43585324e-002,
          1.12926170e-001, 3.15808445e-001, 3.15808445e-001,
          3.15808445e-001, 2.10924119e-001, 6.77148253e-002,
          2.96678655e-002, 3.29626016e-002, 9.20019746e-002,
          1.04801320e-001, 3.15808445e-001, 1.48329914e-001,
          1.20496571e-001, 9.36568603e-002, 7.59751499e-002,
          2.78074313e-002, 1.87466852e-002, 2.34202109e-002,
          9.86411348e-002, 3.15808445e-001, 2.66512811e-001,
          2.10794717e-001, 1.46418020e-001, 3.27827409e-002,
          6.13827035e-002, 1.38941571e-001, 2.87304431e-001,
          2.38100722e-001, 2.91228920e-001, 2.33147606e-001,
          1.94163233e-001, 1.97608173e-001, 9.11529511e-002,
          8.52540508e-002, 1.69986054e-001, 2.91228920e-001,
          1.55804291e-001, 2.40343243e-001, 8.47910494e-002,
          1.62985384e-001, 1.50445685e-001, 1.58779100e-001,
          6.39940798e-002, 4.85118032e-002, 4.11422774e-002,
          1.40900388e-001, 2.91228920e-001, 2.07666740e-001,
          1.21574558e-001, 1.87891141e-001, 7.70685673e-002,
          5.34437336e-002, 4.82076965e-002, 4.74511273e-002,
          6.88315779e-002, 2.91228920e-001, 4.92724180e-002,
          2.60154121e-002, 7.42873996e-002, 9.14991200e-002 ]
      - [ 3.46370786e-002, 5.08599207e-002, 4.16909307e-002,
          1.73070893e-001, 3.96673888e-001, 1.20264627e-001,
          8.91754776e-002, 4.26004417e-002, 5.26721962e-002,
          4.95900065e-002, 5.71523793e-002, 5.75585477e-002,
          1.76485300e-001, 3.96673888e-001, 9.34718400e-002,
          9.60262045e-002, 9.98524278e-002, 4.01163958e-002,
          7.16803670e-002, 2.50334181e-002, 3.13972272e-002,
          1.53751910e-001, 3.96673888e-001, 1.42065004e-001,
          7.55513534e-002, 5.41374683e-002, 1.48295313e-001,
          1.49351880e-001, 7.39014670e-002, 1.15703754e-001,
          1.65301278e-001, 3.96673888e-001, 1.35696352e-001,
          5.96015230e-002, 1.20293170e-001, 2.19798535e-001,
          7.38862827e-002, 1.03437185e-001, 9.12601650e-002,
          1.05375186e-001, 2.46377423e-001, 7.19930455e-002,
          1.29829720e-001, 1.70880169e-001, 9.95402634e-002,
          1.25477076e-001, 1.54525951e-001, 2.29048103e-001,
          2.10031942e-001, 2.46377423e-001, 1.35274202e-001,
          1.00904167e-001, 1.45097241e-001, 1.42685875e-001,
          9.77603123e-002, 1.73480198e-001, 2.46377423e-001,
          1.16552331e-001, 2.46377423e-001, 9.40129310e-002,
          5.73632643e-002, 1.19896881e-001, 1.23173945e-001,
          1.27386227e-001, 1.78370580e-001, 2.46377423e-001,
          1.36933848e-001, 2.46377423e-001, 1.94028407e-001,
          2.46377423e-001, 2.31373668e-001, 1.30026221e-001,
          9.75872278e-002, 8.90570506e-002, 1.46369085e-001,
          1.61129579e-001, 2.89071798e-001, 2.16539383e-001,
          9.41431373e-002, 1.42272606e-001, 7.39701912e-002,
          4.56371494e-002, 1.04923984e-002, 1.60285998e-002,
          2.33823694e-002, 2.89071798e-001, 1.57781839e-001,
          7.81768486e-002, 1.72709927e-001, 5.76988757e-002,
          7.35841170e-002, 6.32104650e-002, 1.48485899e-001,
          1.05552904e-001, 2.89071798e-001, 2.62354314e-001,
          2.89071798e-001, 2.36445397e-001, 8.80450606e-002,
          4.32506427e-002, 1.77557413e-002, 6.88095763e-002,
          8.44434872e-002, 2.89071798e-001, 2.89071798e-001,
          2.15756968e-001, 2.02977821e-001, 7.33403936e-002,
          2.51695424e-001, 4.40627784e-002, 4.42315042e-002,
          9.06281844e-002, 2.75054783e-001, 8.29460323e-002,
          5.72756007e-002, 6.54553175e-002, 2.47363448e-001,
          2.75054783e-001, 8.23673829e-002, 1.16425067e-001,
          8.77336338e-002, 2.65865594e-001, 8.48929286e-002,
          6.10638633e-002, 9.04506370e-002, 2.75054783e-001,
          2.58844972e-001, 5.64942285e-002, 4.82618287e-002,
          1.44452795e-001, 2.75054783e-001, 1.47302032e-001,
          3.07285599e-002, 2.26738751e-002, 1.22317024e-001,
          2.75054783e-001, 1.04130492e-001, 7.81717896e-002,
          1.35337383e-001, 2.75054783e-001, 1.67113453e-001,
          5.42780608e-002, 3.29074599e-002, 2.75054783e-001,
          1.63783297e-001, 1.28340557e-001, 2.33563215e-001,
          9.95695814e-002, 1.93775460e-001, 1.22924559e-001,
          9.02310461e-002, 7.19847977e-002, 1.85458124e-001,
          7.09755048e-002, 1.01045646e-001, 2.26133704e-001,
          8.41856077e-002, 1.97404593e-001, 2.30936617e-001,
          2.33563215e-001, 2.33563215e-001, 9.75839049e-002,
          1.49889052e-001, 8.11727047e-002, 1.05165832e-001,
          8.94139484e-002, 2.33563215e-001, 2.33563215e-001,
          1.61502823e-001, 8.56975093e-002, 1.95285991e-001,
          8.91444534e-002, 7.01402277e-002, 1.77988201e-001,
          8.36310536e-002, 2.33563215e-001, 2.33563215e-001,
          2.33563215e-001, 1.90518081e-001, 1.57662183e-001,
          5.50069548e-002, 4.88052107e-002, 1.24021180e-001,
          6.43351898e-002, 2.33849123e-001, 2.02456847e-001,
          2.33849123e-001, 2.00834021e-001, 1.05129912e-001,
          3.43158171e-002, 4.07729149e-002, 1.02986716e-001,
          1.03367276e-001, 2.33849123e-001, 2.33849123e-001,
          2.33849123e-001, 1.08877085e-001, 7.52959251e-002,
          1.07726730e-001, 9.51578096e-002, 2.33849123e-001,
          1.37377322e-001, 2.25635529e-001, 1.92741558e-001,
          2.33849123e-001, 1.15868643e-001, 1.49000421e-001,
          6.81568459e-002, 1.04437515e-001, 2.33849123e-001,
          1.37008235e-001, 2.32358322e-001, 2.10358709e-001,
          2.33849123e-001, 1.14503212e-001, 1.94011047e-001,
          7.25835040e-002, 6.60389140e-002, 2.65954677e-002,
          1.51201919e-001, 3.61666828e-001, 1.64699137e-001,
          4.15190235e-002, 8.34080949e-003, 1.84171274e-002,
          7.83622861e-002, 4.26206589e-002, 3.16717476e-002,
          1.58748612e-001, 3.61666828e-001, 1.83331013e-001,
          8.19600299e-002, 3.66087407e-002, 4.96488288e-002,
          1.23132624e-001, 1.19730718e-001, 2.10394964e-001,
          2.11670801e-001, 3.61666828e-001, 1.56885654e-001,
          6.27639145e-002, 3.07983030e-002, 4.37893271e-002,
          1.01821035e-001, 7.09629133e-002, 2.27473825e-001,
          2.04092503e-001, 3.61666828e-001, 1.75738931e-001,
          1.47004381e-001, 1.05856359e-001, 9.96789113e-002,
          3.40804532e-002, 3.23821455e-002, 3.90964784e-002,
          8.97357240e-002, 3.03909749e-001, 2.25759804e-001,
          1.58642337e-001, 6.70519471e-002, 5.18601872e-002,
          3.90551612e-002, 3.75609323e-002, 1.00359395e-001,
          1.05935074e-001, 3.03909749e-001, 3.03909749e-001,
          3.03909749e-001, 1.46470830e-001, 6.49243221e-002,
          6.39977977e-002, 3.54582369e-002, 8.51805657e-002,
          1.37194112e-001, 3.03909749e-001, 1.53609365e-001,
          1.27517372e-001, 6.63842484e-002, 1.00934871e-001,
          4.86575440e-002, 1.80697795e-002, 3.05127241e-002,
          1.87947378e-001, 3.03909749e-001, 3.03909749e-001,
          2.48116985e-001, 1.24198496e-001, 6.00485243e-002,
          6.70506358e-002, 1.06722414e-001, 2.69965321e-001,
          2.24712953e-001, 2.69965321e-001, 2.09949091e-001,
          1.94935679e-001, 1.01169594e-001, 7.51921609e-002,
          7.89309591e-002, 1.36633769e-001, 2.69965321e-001,
          1.56685784e-001, 2.42792591e-001, 8.57931152e-002,
          2.69965321e-001, 1.00859761e-001, 1.86595306e-001,
          7.66382813e-002, 5.83994128e-002, 1.19671330e-001,
          2.35277131e-001, 2.69965321e-001, 2.01216742e-001,
          1.45938769e-001, 1.60445496e-001, 5.67065291e-002,
          8.25813338e-002, 7.39259794e-002, 1.46251604e-001,
          1.16725430e-001, 2.69965321e-001, 4.70401198e-002,
          8.51000994e-002, 6.37994260e-002, 6.62390143e-002 ]
      - [ 1.13632701e-001, 1.44577011e-001, 1.04207598e-001,
          2.16078311e-001, 3.50398570e-001, 8.85972008e-002,
          7.68483579e-002, 8.15067664e-002, 1.49822578e-001,
          1.14762090e-001, 9.08824131e-002, 1.22375548e-001,
          2.34522894e-001, 3.50398570e-001, 9.28779989e-002,
          2.82357186e-002, 3.28629352e-002, 7.65322894e-002,
          1.11683324e-001, 1.01748280e-001, 6.72002658e-002,
          2.21138269e-001, 3.50398570e-001, 1.32134378e-001,
          4.73203138e-002, 9.16893259e-002, 1.26653910e-001,
          1.18890181e-001, 1.28435224e-001, 1.11818485e-001,
          1.72198251e-001, 3.50398570e-001, 1.90456584e-001,
          7.05502778e-002, 1.16415851e-001, 1.24198750e-001,
          6.18830808e-002, 4.58794422e-002, 1.29840374e-001,
          1.23253107e-001, 2.93090791e-001, 7.97571763e-002,
          3.27945352e-002, 5.23320632e-003, 2.09076628e-002,
          8.27264786e-002, 1.52982101e-001, 2.93090791e-001,
          2.91439682e-001, 2.93090791e-001, 6.98214099e-002,
          4.47516628e-002, 2.06010230e-002, 2.89436430e-002,
          5.01972884e-002, 1.77836731e-001, 2.93090791e-001,
          1.62610218e-001, 2.93090791e-001, 1.28932342e-001,
          5.29526435e-002, 4.43282574e-002, 3.32592651e-002,
          5.64191975e-002, 1.93339214e-001, 2.93090791e-001,
          2.93090791e-001, 2.93090791e-001, 6.74896613e-002,
          8.95933732e-002, 6.33602068e-002, 1.99491493e-002,
          1.09029673e-001, 1.59486756e-001, 2.97045171e-001,
          2.02477306e-001, 3.26912612e-001, 1.73126668e-001,
          1.24163717e-001, 9.40273404e-002, 6.33618906e-002,
          4.21379507e-002, 3.46956775e-002, 4.24107201e-002,
          3.66192460e-002, 2.94228256e-001, 1.48720279e-001,
          9.99768004e-002, 1.26900345e-001, 6.80751204e-002,
          5.61134033e-002, 6.57691732e-002, 2.08376080e-001,
          2.27997929e-001, 3.26912612e-001, 1.42495751e-001,
          8.38950351e-002, 9.66977775e-002, 4.59433347e-002,
          4.37360555e-002, 1.55299231e-002, 1.02872541e-002,
          9.98311490e-002, 3.26912612e-001, 2.74884105e-001,
          1.42964005e-001, 2.17864648e-001, 9.16633755e-002,
          2.05016956e-001, 6.93468750e-002, 6.14888035e-002,
          1.16269112e-001, 2.40859970e-001, 1.08794086e-001,
          7.28031322e-002, 1.03115559e-001, 2.11457074e-001,
          2.25845635e-001, 1.91890061e-001, 1.41328588e-001,
          1.01725154e-001, 2.40859970e-001, 1.50460869e-001,
          1.34277448e-001, 1.89872578e-001, 2.13727742e-001,
          2.40859970e-001, 8.12128484e-002, 7.58920014e-002,
          1.52266786e-001, 2.40859970e-001, 1.28622279e-001,
          5.07612489e-002, 5.38057312e-002, 1.74308151e-001,
          2.40859970e-001, 1.68633088e-001, 1.70005634e-001,
          1.91034734e-001, 2.40859970e-001, 1.94312796e-001,
          1.09380715e-001, 1.17285728e-001, 1.64585009e-001,
          6.00741357e-002, 2.03998581e-001, 2.30449125e-001,
          1.29541606e-001, 2.08609819e-001, 1.15482561e-001,
          1.24135837e-001, 9.71908122e-002, 4.85167354e-002,
          5.14014773e-002, 1.23912640e-001, 2.30449125e-001,
          1.64005741e-001, 2.30449125e-001, 1.25017911e-001,
          2.30449125e-001, 1.85841873e-001, 2.16029696e-002,
          7.45400116e-002, 1.38484493e-001, 2.02515230e-001,
          1.81452841e-001, 2.30449125e-001, 1.99639753e-001,
          2.23903030e-001, 1.36848509e-001, 3.43834795e-002,
          6.05507940e-002, 7.57629126e-002, 1.97982967e-001,
          1.34744883e-001, 2.20894754e-001, 2.30449125e-001,
          2.30449125e-001, 2.30449125e-001, 8.43868554e-002,
          5.79081923e-002, 3.89928333e-002, 9.71990675e-002,
          1.44630551e-001, 2.59731829e-001, 9.57471728e-002,
          1.49416581e-001, 1.44435346e-001, 2.24984549e-002,
          3.84079739e-002, 3.83691378e-002, 3.02643776e-002,
          1.61627799e-001, 2.59731829e-001, 2.05401227e-001,
          1.77835032e-001, 1.16461553e-001, 1.71861872e-002,
          7.53010362e-002, 7.61580169e-002, 2.59731829e-001,
          1.58566549e-001, 2.59731829e-001, 1.54742286e-001,
          2.03794643e-001, 2.46534899e-001, 1.11559667e-001,
          1.13683537e-001, 1.41594976e-001, 2.47176528e-001,
          1.84476733e-001, 2.59731829e-001, 2.06749305e-001,
          2.54353106e-001, 1.76463962e-001, 1.11100763e-001,
          8.52160156e-002, 5.17703332e-002, 6.23283349e-002,
          1.26628399e-001, 3.61448020e-001, 1.26303568e-001,
          2.97711138e-002, 1.98453590e-002, 3.87870260e-002,
          6.88725337e-002, 4.53968570e-002, 8.70640874e-002,
          1.86823606e-001, 3.61448020e-001, 1.92575917e-001,
          5.72475456e-002, 4.38258611e-002, 2.88974177e-002,
          1.10941134e-001, 1.14762276e-001, 2.31777698e-001,
          1.99287936e-001, 3.61448020e-001, 1.54047564e-001,
          5.79830557e-002, 3.73767167e-002, 6.01779297e-002,
          8.27768818e-002, 6.78137392e-002, 2.27892056e-001,
          2.04065114e-001, 3.61448020e-001, 2.01852575e-001,
          1.42005637e-001, 9.07411277e-002, 8.72198790e-002,
          2.85926145e-002, 4.83683348e-002, 1.05609864e-001,
          1.59072161e-001, 3.00930291e-001, 1.97367504e-001,
          1.76258534e-001, 9.73256230e-002, 1.70627851e-002,
          3.05634439e-002, 4.91771996e-002, 1.17601410e-001,
          1.18873231e-001, 3.00930291e-001, 3.00930291e-001,
          3.00930291e-001, 2.44185477e-001, 7.88862258e-002,
          2.60556042e-002, 1.57342274e-002, 8.48198533e-002,
          1.21885151e-001, 3.00930291e-001, 1.25008911e-001,
          1.01331517e-001, 7.38999024e-002, 6.71985969e-002,
          2.15666257e-002, 1.84859186e-002, 3.85373496e-002,
          1.06790312e-001, 3.00930291e-001, 2.69528091e-001,
          2.34917939e-001, 1.86391532e-001, 4.42506932e-002,
          3.17463763e-002, 9.92078260e-002, 2.66338319e-001,
          1.95417255e-001, 2.66338319e-001, 1.66765362e-001,
          1.87808946e-001, 1.89759403e-001, 1.09410763e-001,
          9.15377960e-002, 1.66032270e-001, 2.66338319e-001,
          1.51477486e-001, 2.23707423e-001, 9.50483754e-002,
          1.82797074e-001, 1.54280588e-001, 1.73535407e-001,
          8.46438333e-002, 5.95889054e-002, 1.50693730e-001,
          1.97553560e-001, 2.66338319e-001, 1.80569097e-001,
          1.39748186e-001, 2.06804320e-001, 7.11079389e-002,
          1.16043322e-001, 7.00935349e-002, 1.86915144e-001,
          1.58535823e-001, 2.66338319e-001, 5.39940782e-002,
          6.71080947e-002, 9.29605216e-002, 1.01657592e-001 ]
      - [ 5.93215898e-002, 6.97770044e-002, 6.11182228e-002,
          1.94814891e-001, 3.73327792e-001, 1.75010249e-001,
          7.29554743e-002, 3.45589444e-002, 5.48812114e-002,
          5.10370508e-002, 2.36235075e-002, 7.01938793e-002,
          2.33766720e-001, 3.73327792e-001, 1.42545924e-001,
          2.61181891e-002, 1.41715799e-002, 4.25971560e-002,
          7.87089318e-002, 4.07320485e-002, 2.66992785e-002,
          1.59575984e-001, 3.73327792e-001, 1.81710586e-001,
          6.81031942e-002, 9.57376212e-002, 1.30484506e-001,
          1.74548671e-001, 6.64544478e-002, 1.13477230e-001,
          1.94293231e-001, 3.73327792e-001, 1.58886746e-001,
          8.42416734e-002, 7.51069635e-002, 2.03507364e-001,
          9.10117850e-002, 5.84380105e-002, 1.22070022e-001,
          1.52066126e-001, 2.73475260e-001, 1.16404258e-001,
          3.50501016e-002, 3.69184054e-002, 3.69358994e-002,
          1.47453532e-001, 1.68344274e-001, 2.73475260e-001,
          2.69859940e-001, 2.73475260e-001, 9.10675526e-002,
          3.92279513e-002, 7.82713369e-002, 6.51621595e-002,
          1.20240785e-001, 1.69808939e-001, 2.73475260e-001,
          1.80163935e-001, 2.73475260e-001, 1.34062216e-001,
          8.17189589e-002, 6.34954497e-002, 7.02025071e-002,
          9.33622271e-002, 1.84088096e-001, 2.73475260e-001,
          2.50930965e-001, 2.73475260e-001, 1.06555760e-001,
          1.48048580e-001, 1.17932357e-001, 3.59321721e-002,
          1.12921990e-001, 1.26769871e-001, 1.62756205e-001,
          1.84053913e-001, 3.36784303e-001, 1.79173723e-001,
          6.11030571e-002, 1.34347677e-001, 6.78192303e-002,
          6.93221465e-002, 1.42372558e-002, 1.90266315e-002,
          3.21950652e-002, 3.36784303e-001, 1.96525350e-001,
          8.77483562e-002, 1.81924567e-001, 6.72667474e-002,
          5.33550158e-002, 8.27347636e-002, 1.27490461e-001,
          1.87668487e-001, 3.36784303e-001, 1.54345587e-001,
          1.09541185e-001, 1.01279475e-001, 4.24808748e-002,
          5.46383932e-002, 3.48490626e-002, 4.09111306e-002,
          1.33407831e-001, 3.36784303e-001, 3.26447904e-001,
          1.66228786e-001, 1.87027857e-001, 5.49316779e-002,
          2.52808601e-001, 4.50638160e-002, 3.88839617e-002,
          8.83956775e-002, 2.77201623e-001, 9.07444730e-002,
          5.79219423e-002, 8.27428773e-002, 2.55743712e-001,
          2.77201623e-001, 8.77787098e-002, 1.12105019e-001,
          1.00248612e-001, 2.34779418e-001, 8.31019953e-002,
          8.08034614e-002, 7.59928823e-002, 2.77201623e-001,
          2.47488990e-001, 6.75008893e-002, 5.47581054e-002,
          1.28488988e-001, 2.77201623e-001, 1.17183357e-001,
          4.79783416e-002, 2.62108427e-002, 1.44444644e-001,
          2.77201623e-001, 1.20970249e-001, 5.55332340e-002,
          1.44067615e-001, 2.77201623e-001, 1.67432308e-001,
          7.16885850e-002, 3.21762934e-002, 2.77201623e-001,
          1.92340285e-001, 1.36971638e-001, 2.21566632e-001,
          1.38406068e-001, 1.75603122e-001, 1.25216827e-001,
          1.20311856e-001, 6.31617904e-002, 1.84388012e-001,
          7.33585283e-002, 1.15932964e-001, 2.04422623e-001,
          1.39926806e-001, 2.35485554e-001, 1.81475371e-001,
          2.35485554e-001, 1.50405481e-001, 8.66766945e-002,
          1.63897321e-001, 1.05470762e-001, 7.33928084e-002,
          1.01492941e-001, 2.35485554e-001, 2.35485554e-001,
          1.73412830e-001, 7.63999894e-002, 2.12816685e-001,
          9.79895592e-002, 8.49743038e-002, 1.62309512e-001,
          9.63169411e-002, 2.35485554e-001, 2.35485554e-001,
          2.35485554e-001, 1.59766689e-001, 1.74322560e-001,
          5.90223894e-002, 1.01940095e-001, 1.06318407e-001,
          1.28390774e-001, 2.41892889e-001, 1.41854465e-001,
          1.96199536e-001, 9.23473686e-002, 9.15350467e-002,
          7.18852505e-002, 1.05576634e-001, 1.14596993e-001,
          1.58816546e-001, 2.41892889e-001, 1.97982550e-001,
          1.77212641e-001, 7.40663335e-002, 8.08510706e-002,
          1.14000119e-001, 1.42816141e-001, 2.41892889e-001,
          1.69151396e-001, 2.41892889e-001, 1.80718973e-001,
          2.01965630e-001, 9.64031145e-002, 1.74659014e-001,
          1.41243070e-001, 1.95488662e-001, 2.41892889e-001,
          1.43512443e-001, 2.41892889e-001, 1.60748243e-001,
          2.20949769e-001, 1.16055414e-001, 2.23354623e-001,
          6.64410070e-002, 7.69055933e-002, 3.84569727e-002,
          1.51114643e-001, 3.50528806e-001, 1.42930865e-001,
          5.16885594e-002, 9.23017133e-003, 2.09668558e-002,
          8.71375352e-002, 5.75362183e-002, 1.26131661e-002,
          1.64729998e-001, 3.50528806e-001, 2.19704941e-001,
          7.64704794e-002, 3.19756493e-002, 5.42327911e-002,
          1.03184193e-001, 1.25145093e-001, 2.33146146e-001,
          2.33248919e-001, 3.50528806e-001, 1.51654735e-001,
          8.49739537e-002, 2.25674622e-002, 6.00339696e-002,
          7.55250156e-002, 6.14286065e-002, 2.34202787e-001,
          1.98278978e-001, 3.50528806e-001, 2.01539323e-001,
          1.36934802e-001, 8.13495666e-002, 1.06926449e-001,
          4.01301049e-002, 5.08528911e-002, 1.51916351e-002,
          8.63483250e-002, 3.05587143e-001, 2.93188423e-001,
          1.57080412e-001, 5.31468652e-002, 5.65554872e-002,
          4.25625630e-002, 3.36794108e-002, 1.06453449e-001,
          1.06661394e-001, 3.05587143e-001, 3.05587143e-001,
          3.05587143e-001, 1.32870123e-001, 6.63118511e-002,
          1.62710771e-002, 1.69838425e-002, 7.61114731e-002,
          1.37030780e-001, 3.05587143e-001, 1.75378248e-001,
          9.85946432e-002, 4.65156361e-002, 6.46009892e-002,
          1.51601564e-002, 8.20985902e-003, 3.13270092e-002,
          1.55983880e-001, 3.05587143e-001, 2.93170691e-001,
          2.44427666e-001, 1.26474291e-001, 3.40650305e-002,
          6.07726946e-002, 1.00340769e-001, 2.73483485e-001,
          2.31622741e-001, 2.73483485e-001, 2.00154468e-001,
          2.02524960e-001, 1.03021845e-001, 9.30894241e-002,
          8.98651332e-002, 1.50525168e-001, 2.73483485e-001,
          1.33154243e-001, 2.73483485e-001, 8.88529122e-002,
          2.09432408e-001, 1.26115531e-001, 1.96889192e-001,
          7.06472695e-002, 4.89455312e-002, 1.26984850e-001,
          2.20646977e-001, 2.73483485e-001, 1.81601822e-001,
          1.63716510e-001, 1.64313719e-001, 6.58940524e-002,
          7.13343099e-002, 6.01655841e-002, 1.52027503e-001,
          1.14005737e-001, 2.73483485e-001, 4.03338671e-002,
          7.54966512e-002, 6.66327849e-002, 7.70973116e-002 ]
      - [ 7.83590302e-002, 3.44604366e-002, 4.88750860e-002,
          1.02454968e-001, 3.48968267e-001, 1.11651570e-001,
          6.13733418e-002, 2.84589622e-002, 9.80161205e-002,
          4.00707200e-002, 4.90868762e-002, 8.55452418e-002,
          1.51266441e-001, 3.48968267e-001, 9.24352035e-002,
          4.46464382e-002, 2.23903432e-002, 3.35051343e-002,
          2.14924574e-001, 3.71262170e-002, 2.99336184e-002,
          8.70881602e-002, 3.48968267e-001, 1.32908762e-001,
          6.74753115e-002, 4.06615511e-002, 2.36562103e-001,
          3.44556600e-001, 1.27228573e-001, 1.72709092e-001,
          9.61259007e-002, 3.48968267e-001, 1.46705225e-001,
          7.67171383e-002, 2.58855280e-002, 2.79681176e-001,
          1.78694092e-002, 8.54049399e-002, 2.48310700e-001,
          1.71224713e-001, 2.65260518e-001, 4.46495824e-002,
          2.09558457e-002, 1.12824561e-002, 1.60683617e-002,
          7.46884942e-003, 1.81992188e-001, 2.65260518e-001,
          2.65260518e-001, 2.65260518e-001, 7.83034861e-002,
          8.30212608e-002, 7.39564151e-002, 2.80081462e-002,
          1.29397899e-001, 1.77333519e-001, 2.65260518e-001,
          1.75324410e-001, 2.65260518e-001, 1.12229258e-001,
          9.39279571e-002, 5.19592799e-002, 7.22763836e-002,
          3.80152278e-002, 1.42569050e-001, 2.65260518e-001,
          2.44814903e-001, 2.65260518e-001, 1.08892187e-001,
          2.40479887e-001, 1.35120764e-001, 5.15703633e-002,
          8.12125206e-003, 9.75200385e-002, 1.40090734e-001,
          1.74673006e-001, 3.24448347e-001, 2.05554947e-001,
          2.28151187e-001, 1.58724248e-001, 7.37062395e-002,
          9.97051038e-003, 1.06390025e-002, 1.87943187e-002,
          4.63255905e-002, 2.95985639e-001, 1.21825635e-001,
          1.68687418e-001, 1.19611390e-001, 7.75067434e-002,
          5.10659330e-002, 6.72356635e-002, 1.12614334e-001,
          1.82561964e-001, 3.24448347e-001, 1.59617841e-001,
          1.96069181e-001, 1.26222238e-001, 6.95004389e-002,
          2.86465213e-002, 2.38388442e-002, 1.73286702e-002,
          1.11311987e-001, 3.24448347e-001, 2.62858212e-001,
          2.89931983e-001, 1.83124080e-001, 6.15796372e-002,
          2.94545650e-001, 4.57847342e-002, 4.60092090e-002,
          8.51681381e-002, 3.05422872e-001, 8.73195231e-002,
          4.47812527e-002, 4.87441383e-002, 3.05422872e-001,
          3.05422872e-001, 9.04209018e-002, 1.30093098e-001,
          1.18858479e-001, 2.55753070e-001, 8.42451528e-002,
          9.20700356e-002, 6.69551641e-002, 3.05422872e-001,
          1.26346305e-001, 5.74107580e-002, 4.12539616e-002,
          1.16813682e-001, 3.05422872e-001, 8.14862400e-002,
          1.98403429e-002, 3.44935730e-002, 1.25068784e-001,
          1.51622638e-001, 2.52821408e-002, 8.09807107e-002,
          1.87015757e-001, 3.05422872e-001, 1.21531598e-001,
          9.58949029e-002, 7.51075521e-002, 2.21550167e-001,
          1.59111619e-001, 9.09921527e-002, 1.95635334e-001,
          1.34056553e-001, 1.98430613e-001, 1.19572818e-001,
          2.10455030e-001, 1.16556786e-001, 1.55598417e-001,
          1.17479131e-001, 1.05799325e-001, 1.60620555e-001,
          1.12157807e-001, 2.44880065e-001, 1.72628820e-001,
          2.44880065e-001, 2.11860389e-001, 8.67587402e-002,
          7.34336376e-002, 9.83077474e-003, 7.48505816e-002,
          1.13153763e-001, 2.44880065e-001, 2.19918162e-001,
          2.44880065e-001, 1.25137761e-001, 9.79603976e-002,
          1.18847877e-001, 7.55652338e-002, 1.51219249e-001,
          1.38865560e-001, 2.44880065e-001, 2.44880065e-001,
          2.44880065e-001, 2.07396671e-001, 6.39407784e-002,
          1.27430439e-001, 1.10934548e-001, 1.10785604e-001,
          1.11997150e-001, 2.43606806e-001, 1.37608796e-001,
          1.58541128e-001, 1.17487662e-001, 9.00769532e-002,
          7.44009241e-002, 6.62099943e-002, 7.99808353e-002,
          9.43679661e-002, 2.43606806e-001, 2.43606806e-001,
          2.43606806e-001, 1.12020262e-001, 5.59468269e-002,
          1.14105046e-001, 1.36500210e-001, 2.43606806e-001,
          2.43606806e-001, 2.43606806e-001, 1.50217399e-001,
          1.47172466e-001, 1.32955670e-001, 9.81724262e-002,
          9.37120020e-002, 1.36126786e-001, 2.43606806e-001,
          1.60669237e-001, 2.37288266e-001, 1.47398591e-001,
          2.43606806e-001, 2.19764248e-001, 1.43418044e-001,
          5.71519770e-002, 9.15002003e-002, 1.05774187e-001,
          1.43558994e-001, 3.12086076e-001, 1.12293623e-001,
          4.24204394e-002, 3.40527110e-002, 2.19590496e-002,
          6.04876764e-002, 3.75882424e-002, 1.01504490e-001,
          1.75075814e-001, 3.12086076e-001, 1.49371743e-001,
          9.29490030e-002, 5.91042042e-002, 2.22754367e-002,
          9.67553407e-002, 1.41574085e-001, 3.12086076e-001,
          2.90085524e-001, 3.12086076e-001, 1.06103234e-001,
          1.18243702e-001, 1.23467259e-001, 5.35368621e-002,
          1.23610564e-001, 1.00108147e-001, 3.12086076e-001,
          2.64440030e-001, 3.12086076e-001, 8.80584195e-002,
          8.39969814e-002, 6.68781027e-002, 2.49917340e-002,
          3.65439989e-002, 2.37491839e-002, 4.02750224e-002,
          9.48767886e-002, 3.42317879e-001, 2.09330082e-001,
          2.32658029e-001, 6.58756495e-002, 1.76960789e-002,
          4.07858752e-002, 2.70905960e-002, 1.14186630e-001,
          1.48812979e-001, 3.42317879e-001, 2.90663838e-001,
          3.42317879e-001, 1.80850044e-001, 1.84672177e-002,
          6.68085814e-002, 3.77132483e-002, 6.48510456e-002,
          8.23763460e-002, 3.42317879e-001, 7.79416710e-002,
          8.65895674e-002, 3.85807268e-002, 1.88278817e-002,
          3.23153846e-002, 1.18905073e-002, 3.24327201e-002,
          1.00381725e-001, 3.42317879e-001, 1.54710874e-001,
          2.32292056e-001, 1.33092880e-001, 1.47469398e-002,
          9.03095007e-002, 7.95123354e-002, 3.05904359e-001,
          3.05904359e-001, 3.05904359e-001, 1.33739293e-001,
          2.37368718e-001, 1.89396098e-001, 5.22273257e-002,
          9.71393660e-002, 9.78093296e-002, 3.05904359e-001,
          2.99816489e-001, 1.87478021e-001, 3.51853222e-002,
          1.49203882e-001, 2.13872895e-001, 1.52350172e-001,
          1.09278440e-001, 3.15849707e-002, 1.05069049e-001,
          1.99393108e-001, 3.05904359e-001, 9.34671760e-002,
          1.48035586e-001, 1.51747525e-001, 3.89826968e-002,
          6.88365325e-002, 2.58133467e-002, 8.08211789e-002,
          1.07380249e-001, 1.41005412e-001, 9.77968983e-003,
          1.68341678e-002, 3.33280563e-002, 3.85058448e-002 ]
      - [ 1.09887756e-001, 1.37851536e-001, 1.03058614e-001,
          1.68036357e-001, 3.73902500e-001, 1.19992249e-001,
          4.99589406e-002, 8.60750973e-002, 9.67265144e-002,
          9.04586017e-002, 6.43268898e-002, 1.06138393e-001,
          2.40205973e-001, 3.73902500e-001, 1.25896156e-001,
          3.64904478e-002, 3.64329070e-002, 6.83428645e-002,
          4.33971211e-002, 4.69186641e-002, 6.26878217e-002,
          1.81192473e-001, 3.73902500e-001, 1.89079165e-001,
          9.54441875e-002, 9.53087658e-002, 8.91448855e-002,
          1.06542274e-001, 6.25361577e-002, 9.21291709e-002,
          1.66828975e-001, 3.73902500e-001, 2.06589714e-001,
          7.36321434e-002, 7.52415285e-002, 1.44612864e-001,
          6.81598261e-002, 4.08937335e-002, 6.30713552e-002,
          1.26089886e-001, 3.21508825e-001, 1.27857432e-001,
          4.15673554e-002, 4.73212637e-002, 3.09929550e-002,
          1.30279288e-001, 1.59491092e-001, 1.90415218e-001,
          2.15406150e-001, 3.21508825e-001, 1.36931196e-001,
          6.55371770e-002, 9.56731141e-002, 3.85618173e-002,
          9.11705643e-002, 1.34046033e-001, 2.42150590e-001,
          1.47261918e-001, 3.21508825e-001, 1.38008580e-001,
          4.82573621e-002, 3.18286829e-002, 5.75350337e-002,
          6.75023273e-002, 1.54323220e-001, 3.21508825e-001,
          2.64331609e-001, 3.21508825e-001, 1.68923989e-001,
          9.88793299e-002, 5.91979064e-002, 3.69086899e-002,
          1.14362948e-001, 1.30216822e-001, 1.63005516e-001,
          1.76014349e-001, 3.61215711e-001, 1.90130368e-001,
          1.20887637e-001, 6.66070879e-002, 2.29077265e-002,
          5.13279177e-002, 4.71115187e-002, 7.63849318e-002,
          9.88172069e-002, 3.61215711e-001, 2.50173211e-001,
          1.55920431e-001, 5.06596267e-002, 2.08299309e-002,
          2.18371022e-002, 4.58426327e-002, 1.38520330e-001,
          1.99893638e-001, 3.61215711e-001, 1.57434493e-001,
          8.35564956e-002, 3.70556936e-002, 1.56508740e-002,
          1.03212176e-002, 2.13507656e-002, 7.00469613e-002,
          1.66714251e-001, 3.61215711e-001, 2.34833375e-001,
          1.74270034e-001, 7.64374137e-002, 3.30065377e-002,
          1.86295584e-001, 7.55100176e-002, 3.34852189e-002,
          1.15396746e-001, 2.63464957e-001, 9.69472826e-002,
          8.49903226e-002, 1.24618128e-001, 2.42321700e-001,
          2.63464957e-001, 1.12952545e-001, 1.25083342e-001,
          9.74601656e-002, 2.63464957e-001, 1.14400469e-001,
          7.47588649e-002, 9.65980440e-002, 2.63464957e-001,
          2.41886184e-001, 1.24686375e-001, 6.70372993e-002,
          1.35987967e-001, 2.63464957e-001, 1.25653535e-001,
          1.67402532e-002, 8.01724046e-002, 1.81820944e-001,
          2.63464957e-001, 1.31985724e-001, 1.16420835e-001,
          1.54822186e-001, 2.63464957e-001, 1.17176883e-001,
          5.66479936e-002, 7.71259591e-002, 2.63464957e-001,
          1.72959372e-001, 1.37758061e-001, 2.30241254e-001,
          1.25161648e-001, 2.14345694e-001, 1.14166439e-001,
          8.51810053e-002, 5.38709611e-002, 1.50677487e-001,
          7.58433267e-002, 9.91538614e-002, 2.30241254e-001,
          1.49141595e-001, 2.30241254e-001, 2.30241254e-001,
          2.10307315e-001, 8.43174681e-002, 8.15487728e-002,
          2.01022863e-001, 7.66773894e-002, 1.38432592e-001,
          1.60037413e-001, 2.30241254e-001, 1.20523572e-001,
          1.80435702e-001, 1.00960135e-001, 1.71188802e-001,
          1.27813905e-001, 1.00461364e-001, 2.30241254e-001,
          1.71164304e-001, 2.30241254e-001, 2.30241254e-001,
          2.30241254e-001, 1.51377648e-001, 1.09993137e-001,
          4.01322544e-002, 2.60828882e-002, 9.63488519e-002,
          1.30436897e-001, 2.89382160e-001, 1.93247974e-001,
          1.37517884e-001, 4.44801562e-002, 4.68968488e-002,
          1.31236538e-002, 1.36705441e-002, 5.86088970e-002,
          1.59014851e-001, 2.89382160e-001, 2.00279549e-001,
          1.92054883e-001, 7.56262466e-002, 2.57425103e-002,
          7.91523755e-002, 7.80765116e-002, 2.83865184e-001,
          1.93599224e-001, 2.89382160e-001, 2.13371411e-001,
          1.22265130e-001, 7.19868317e-002, 7.55427629e-002,
          5.77948876e-002, 1.96339563e-002, 2.00060323e-001,
          1.99984193e-001, 2.89382160e-001, 2.60803044e-001,
          2.89382160e-001, 9.76577923e-002, 1.17613681e-001,
          6.39207214e-002, 8.80977362e-002, 6.55988976e-002,
          1.43833265e-001, 3.46717328e-001, 1.58294737e-001,
          2.37243865e-002, 2.07850989e-002, 2.13184841e-002,
          9.79710668e-002, 5.15149347e-002, 5.23323081e-002,
          1.67729601e-001, 3.46717328e-001, 1.63891912e-001,
          6.24432974e-002, 4.17397395e-002, 5.79522923e-002,
          1.39314935e-001, 1.88668206e-001, 1.25242919e-001,
          2.38610283e-001, 3.46717328e-001, 1.95094928e-001,
          7.52615258e-002, 5.32401726e-002, 3.67053114e-002,
          1.53185546e-001, 1.39776200e-001, 8.11391100e-002,
          2.53053993e-001, 3.46717328e-001, 2.16395348e-001,
          1.60731003e-001, 8.23055878e-002, 6.90147951e-002,
          8.66266116e-002, 3.54145207e-002, 4.66003902e-002,
          1.33102238e-001, 3.24665457e-001, 1.47411048e-001,
          1.85929224e-001, 8.70479345e-002, 5.82847893e-002,
          1.67426661e-001, 1.20521255e-001, 2.50951231e-001,
          1.55560926e-001, 3.24665457e-001, 2.14642957e-001,
          2.59284526e-001, 1.49779588e-001, 8.56755674e-002,
          6.90504909e-002, 3.82013135e-002, 5.40485755e-002,
          1.31143719e-001, 3.24665457e-001, 1.27010554e-001,
          1.19401529e-001, 5.89810498e-002, 5.45530580e-002,
          9.70187411e-002, 6.98224902e-002, 6.21584915e-002,
          1.09483555e-001, 3.24665457e-001, 2.58349597e-001,
          1.91501454e-001, 8.92495215e-002, 4.10683416e-002,
          1.23491839e-001, 9.54076573e-002, 2.59901226e-001,
          2.00809255e-001, 3.36814612e-001, 1.34126857e-001,
          7.00360835e-002, 7.90280476e-002, 5.48510998e-002,
          7.90391341e-002, 1.83145683e-002, 2.25979373e-001,
          2.17348143e-001, 3.36814612e-001, 1.48042947e-001,
          2.21014619e-001, 8.80064219e-002, 1.43613026e-001,
          9.09210294e-002, 6.84653968e-002, 6.65213391e-002,
          1.33845314e-001, 3.36814612e-001, 2.20790699e-001,
          1.22590683e-001, 1.11914001e-001, 4.23169360e-002,
          4.13731597e-002, 2.35343836e-002, 5.70056364e-002,
          1.18092880e-001, 3.36814612e-001, 1.42354652e-001,
          1.17091693e-001, 6.95249364e-002, 5.29489890e-002 ]
      - [ 2.38617122e-001, 2.00858787e-001, 1.30061954e-001,
          5.25650941e-002, 1.19469181e-001, 7.24228173e-002,
          1.17711142e-001, 7.04224333e-002, 1.17077589e-001,
          2.60904223e-001, 2.60904223e-001, 2.09551290e-001,
          9.05086547e-002, 2.05573946e-001, 7.92468414e-002,
          3.48912328e-002, 1.01796970e-001, 1.98008597e-001,
          1.65944621e-001, 1.76989093e-001, 1.50607467e-001,
          1.11244731e-001, 2.60904223e-001, 1.21722735e-001,
          2.60904223e-001, 1.52836218e-001, 9.42605659e-002,
          2.11578786e-001, 1.99573547e-001, 1.86334208e-001,
          1.81180671e-001, 2.60904223e-001, 1.39326066e-001,
          8.48697796e-002, 8.38325545e-002, 9.91873369e-002,
          2.53393590e-001, 1.06649399e-001, 1.15236469e-001,
          9.17347670e-002, 2.50652790e-001, 1.03264757e-001,
          2.10643094e-002, 1.07070155e-001, 2.28563204e-001,
          2.80385315e-001, 1.55169711e-001, 1.45881593e-001,
          1.24016456e-001, 1.40938416e-001, 5.20308875e-002,
          4.93173487e-002, 3.68794166e-002, 2.80385315e-001,
          7.91469589e-002, 1.29484832e-001, 1.75410718e-001,
          1.57497510e-001, 2.80385315e-001, 1.52467221e-001,
          4.97318730e-002, 5.59344105e-002, 4.87121791e-002,
          5.44238389e-002, 2.72079676e-001, 2.80385315e-001,
          2.80179530e-001, 2.80385315e-001, 9.92554873e-002,
          5.66379167e-002, 3.52995507e-002, 4.97846194e-002,
          2.54300326e-001, 2.34634086e-001, 2.19497710e-001,
          2.22085953e-001, 2.08998829e-001, 8.27562734e-002,
          1.04715779e-001, 3.98258530e-002, 2.10781470e-001,
          2.24486172e-001, 7.25811943e-002, 6.57329634e-002,
          1.07210152e-001, 1.67241603e-001, 6.94211647e-002,
          6.68581799e-002, 4.72352207e-002, 2.54300326e-001,
          6.61565661e-002, 2.54300326e-001, 2.54300326e-001,
          2.54300326e-001, 2.54300326e-001, 1.46191865e-001,
          1.07035838e-001, 7.50160515e-002, 9.85930115e-002,
          8.05963427e-002, 7.83198550e-002, 7.60751069e-002,
          1.00049749e-001, 2.54300326e-001, 1.65267527e-001,
          1.86012834e-001, 1.27043709e-001, 1.21294238e-001,
          4.37803343e-002, 1.19818740e-001, 8.02650377e-002,
          9.43934321e-002, 2.66301781e-001, 1.95215777e-001,
          2.11334884e-001, 1.10170506e-001, 7.01671541e-002,
          1.42171606e-001, 1.16089046e-001, 8.68786275e-002,
          1.13615632e-001, 2.66301781e-001, 1.17306665e-001,
          1.18633479e-001, 8.70986059e-002, 1.61261603e-001,
          1.47326514e-001, 1.21202789e-001, 8.22059810e-002,
          1.03952534e-001, 2.66301781e-001, 2.60926247e-001,
          2.51391888e-001, 9.61487293e-002, 1.29640847e-001,
          2.66301781e-001, 1.77387789e-001, 1.25048801e-001,
          9.72799659e-002, 2.66301781e-001, 1.15220442e-001,
          1.43541053e-001, 1.51890308e-001, 2.66301781e-001,
          8.95571187e-002, 1.44859508e-001, 1.33950546e-001,
          1.00889117e-001, 2.43241146e-001, 7.29740113e-002,
          6.15503080e-002, 5.53270616e-002, 8.59658048e-002,
          4.58052456e-002, 2.22271219e-001, 2.43241146e-001,
          2.43241146e-001, 2.43241146e-001, 6.42668605e-002,
          1.40267551e-001, 1.08426020e-001, 3.71823423e-002,
          2.34219253e-001, 1.48143992e-001, 9.70536321e-002,
          1.16962858e-001, 2.43241146e-001, 8.86379331e-002,
          1.17994256e-001, 1.00693561e-001, 2.43241146e-001,
          1.26353666e-001, 1.62946165e-001, 1.38464659e-001,
          2.17299804e-001, 2.42617697e-001, 2.02162325e-001,
          2.43241146e-001, 2.43241146e-001, 1.36516079e-001,
          3.81837450e-002, 1.22968122e-001, 2.32609645e-001,
          1.91379592e-001, 2.56355196e-001, 7.35167786e-002,
          1.23447396e-001, 9.59195569e-002, 4.96873930e-002,
          5.29296137e-002, 4.58594486e-002, 3.83275412e-002,
          8.35338533e-002, 2.56355196e-001, 2.03061610e-001,
          1.71423420e-001, 8.83874893e-002, 4.91410568e-002,
          1.42783672e-001, 1.76241040e-001, 1.24840625e-001,
          1.78248927e-001, 2.56355196e-001, 1.69599637e-001,
          2.56355196e-001, 2.04951882e-001, 1.17529154e-001,
          1.50881842e-001, 1.58970118e-001, 2.06577539e-001,
          1.36366591e-001, 2.56355196e-001, 2.56355196e-001,
          2.19080895e-001, 1.43072858e-001, 9.02426690e-002,
          1.07793473e-001, 6.74956441e-002, 1.12824775e-001,
          1.23699762e-001, 2.69493490e-001, 1.21436179e-001,
          1.67901143e-001, 9.14811045e-002, 9.85526294e-002,
          1.58823654e-001, 7.75401890e-002, 1.01738684e-001,
          1.25004008e-001, 2.69493490e-001, 1.05537295e-001,
          1.67623103e-001, 1.13473974e-001, 1.27291471e-001,
          1.15808345e-001, 9.60096866e-002, 1.96044669e-001,
          2.31832892e-001, 2.69493490e-001, 8.97481889e-002,
          2.54424214e-001, 1.59532607e-001, 8.76762792e-002,
          9.16768014e-002, 1.53398097e-001, 2.69493490e-001,
          2.38572672e-001, 2.69493490e-001, 6.99158609e-002,
          2.65906274e-001, 1.13744728e-001, 7.28036687e-002,
          1.16951682e-001, 5.69721498e-002, 5.07288426e-002,
          1.33761153e-001, 2.92915612e-001, 1.30827114e-001,
          1.65018678e-001, 7.29976967e-002, 1.22727662e-001,
          9.77479741e-002, 6.66170940e-002, 3.58795114e-002,
          1.36916056e-001, 2.92915612e-001, 2.92915612e-001,
          2.92915612e-001, 2.12582394e-001, 1.09187275e-001,
          5.44084907e-002, 9.90911722e-002, 1.90562412e-001,
          1.42994553e-001, 2.92915612e-001, 7.54142553e-002,
          1.50970832e-001, 3.89613397e-002, 6.28401041e-002,
          4.72136736e-002, 3.06272879e-002, 3.97888683e-002,
          1.13641568e-001, 2.92915612e-001, 2.69380748e-001,
          2.87401944e-001, 8.85315835e-002, 6.96734563e-002,
          9.92071778e-002, 1.10760130e-001, 9.53150839e-002,
          1.34002700e-001, 2.33930275e-001, 1.83139428e-001,
          2.33930275e-001, 1.79941610e-001, 9.30206999e-002,
          1.28684908e-001, 1.52659088e-001, 2.30836362e-001,
          1.23806603e-001, 2.16560796e-001, 1.71061382e-001,
          1.81604028e-001, 2.09282413e-001, 1.09040752e-001,
          5.42309396e-002, 3.98860723e-002, 3.87267917e-002,
          1.44399703e-001, 2.33930275e-001, 2.08061516e-001,
          2.33930275e-001, 1.87800199e-001, 9.54335928e-002,
          5.62927946e-002, 5.03802150e-002, 6.56079128e-002,
          1.48581356e-001, 2.33930275e-001, 2.33930275e-001,
          2.33930275e-001, 2.33930275e-001, 1.27306148e-001 ]
      - [ 1.62926957e-001, 9.05614272e-002, 1.24479182e-001,
          6.89428747e-002, 2.29627684e-001, 1.38136387e-001,
          1.01728290e-001, 1.11665972e-001, 1.13786794e-001,
          1.48378342e-001, 1.35816053e-001, 2.21747100e-001,
          1.28144935e-001, 1.97021067e-001, 1.32989720e-001,
          5.01992963e-002, 7.34459311e-002, 1.25043765e-001,
          2.29627684e-001, 1.52530044e-001, 1.83038488e-001,
          1.72995344e-001, 2.29627684e-001, 2.29627684e-001,
          1.09707907e-001, 1.11014232e-001, 2.29627684e-001,
          1.88485771e-001, 1.75895184e-001, 2.06902042e-001,
          2.29627684e-001, 2.29627684e-001, 2.29627684e-001,
          1.55909583e-001, 1.36946261e-001, 1.28573179e-001,
          5.73040321e-002, 1.09163381e-001, 2.00463578e-001,
          1.51954159e-001, 2.44250804e-001, 1.12327769e-001,
          4.07188535e-002, 6.21817224e-002, 8.03367570e-002,
          8.75421390e-002, 8.30970779e-002, 1.94878399e-001,
          2.32475460e-001, 2.52438694e-001, 1.47557080e-001,
          1.00571744e-001, 2.50797004e-001, 1.59856856e-001,
          4.13401462e-002, 1.22835748e-001, 2.28813469e-001,
          2.24033400e-001, 2.52438694e-001, 1.84236988e-001,
          7.62436390e-002, 6.50564209e-002, 4.90720160e-002,
          1.09955959e-001, 2.26498902e-001, 2.52438694e-001,
          2.52438694e-001, 2.52438694e-001, 9.58273560e-002,
          1.85538575e-001, 1.11890785e-001, 6.26714826e-002,
          1.34879842e-001, 7.93566704e-002, 2.05930024e-001,
          2.10707381e-001, 2.78551459e-001, 1.74068123e-001,
          1.15999825e-001, 2.42428213e-001, 1.58596590e-001,
          8.24587420e-002, 3.46347876e-002, 7.24775046e-002,
          8.77428502e-002, 2.78551459e-001, 2.01160938e-001,
          1.04498744e-001, 9.95828435e-002, 1.30693778e-001,
          1.06396899e-001, 1.23337097e-001, 2.18639955e-001,
          2.30301499e-001, 2.78551459e-001, 1.71221197e-001,
          2.26825416e-001, 1.24566346e-001, 9.06721652e-002,
          6.94169775e-002, 1.57786701e-002, 3.07312924e-002,
          7.32842162e-002, 2.78551459e-001, 2.70343244e-001,
          1.13745265e-001, 9.84023362e-002, 9.78533253e-002,
          1.40451968e-001, 5.32824621e-002, 9.00654346e-002,
          1.13331154e-001, 2.64000624e-001, 2.24083543e-001,
          9.46521908e-002, 5.36619425e-002, 1.26829684e-001,
          9.70705077e-002, 7.60704651e-002, 1.57328308e-001,
          1.71736166e-001, 2.64000624e-001, 2.64000624e-001,
          1.24725886e-001, 6.56525791e-002, 7.86640719e-002,
          7.92722553e-002, 5.42320311e-002, 1.29924566e-001,
          1.93755478e-001, 2.64000624e-001, 2.26795390e-001,
          1.14429012e-001, 6.89411014e-002, 1.30463272e-001,
          1.49499401e-001, 1.53293595e-001, 2.64000624e-001,
          2.34391585e-001, 2.64000624e-001, 2.34470144e-001,
          1.16795406e-001, 1.24373585e-001, 1.64892465e-001,
          5.86201362e-002, 7.88440928e-002, 2.44626597e-001,
          2.01184094e-001, 2.60975599e-001, 1.15268432e-001,
          5.16412295e-002, 3.21995653e-002, 6.00707978e-002,
          9.10095274e-002, 1.38445139e-001, 2.60975599e-001,
          2.60975599e-001, 2.60975599e-001, 6.96274340e-002,
          9.75976586e-002, 5.46941943e-002, 5.72257377e-002,
          1.04295351e-001, 1.78691819e-001, 2.60975599e-001,
          2.60975599e-001, 2.60975599e-001, 1.03494443e-001,
          1.02245763e-001, 8.56358632e-002, 7.74479806e-002,
          4.85761352e-002, 1.18826687e-001, 2.60975599e-001,
          2.60975599e-001, 2.60975599e-001, 8.34268555e-002,
          1.55424327e-001, 9.47607309e-002, 6.13997579e-002,
          6.79991022e-002, 6.06618002e-002, 1.30308405e-001,
          1.34407759e-001, 3.29312623e-001, 1.40081748e-001,
          1.83320269e-001, 1.01343051e-001, 1.05794005e-001,
          1.59470476e-002, 2.85157049e-003, 2.65400689e-002,
          4.64539826e-002, 3.29312623e-001, 1.84064150e-001,
          1.47354141e-001, 1.32528096e-001, 8.02090243e-002,
          2.19413862e-002, 3.31515335e-002, 8.79886225e-002,
          2.14096919e-001, 3.29312623e-001, 1.62894577e-001,
          1.53359771e-001, 1.41134769e-001, 7.79588744e-002,
          5.69714652e-003, 4.98415018e-003, 3.38998660e-002,
          1.36680111e-001, 3.29312623e-001, 2.61747271e-001,
          2.92285621e-001, 2.33435541e-001, 5.13132177e-002,
          1.70663074e-001, 8.51952732e-002, 1.17331795e-001,
          1.55612871e-001, 2.13559374e-001, 1.34917900e-001,
          9.28828567e-002, 8.15267041e-002, 1.76839828e-001,
          2.58631438e-001, 1.67839587e-001, 2.44568348e-001,
          1.79943293e-001, 2.32508928e-001, 1.16984703e-001,
          1.01607837e-001, 1.22381836e-001, 2.58631438e-001,
          1.28053531e-001, 8.44034776e-002, 1.06749780e-001,
          1.15828998e-001, 2.58631438e-001, 1.39043525e-001,
          8.83983821e-002, 7.50159770e-002, 1.03916399e-001,
          2.57643729e-001, 1.54582098e-001, 1.29722014e-001,
          1.35688186e-001, 2.58631438e-001, 1.60160869e-001,
          1.19000457e-001, 8.71567875e-002, 2.58631438e-001,
          1.05837397e-001, 1.16977476e-001, 2.34143883e-001,
          1.73874915e-001, 1.32076114e-001, 1.37197867e-001,
          1.88742086e-001, 1.14058845e-001, 1.38472885e-001,
          5.72028793e-002, 7.35330209e-002, 1.60019755e-001,
          1.80792987e-001, 2.34143883e-001, 1.50622353e-001,
          2.34143883e-001, 1.72115460e-001, 1.15579054e-001,
          1.12265073e-001, 7.13821799e-002, 8.10418352e-002,
          9.21324044e-002, 2.34143883e-001, 2.34143883e-001,
          2.34143883e-001, 1.27544284e-001, 1.58965603e-001,
          1.38728008e-001, 8.46426487e-002, 1.71432212e-001,
          1.33014083e-001, 2.34143883e-001, 2.34143883e-001,
          2.34143883e-001, 1.87737361e-001, 1.71424225e-001,
          3.55315991e-002, 7.10449517e-002, 5.25229871e-002,
          1.60131752e-001, 2.60655642e-001, 1.66660339e-001,
          1.68099627e-001, 1.10710166e-001, 8.27797279e-002,
          1.20572029e-002, 4.20271531e-002, 1.87921897e-002,
          1.08999938e-001, 2.60655642e-001, 2.60655642e-001,
          2.60655642e-001, 1.22627951e-001, 2.09507998e-002,
          1.03455834e-001, 1.93853617e-001, 2.35256985e-001,
          1.35679141e-001, 2.60655642e-001, 1.75878420e-001,
          1.74414158e-001, 1.33479461e-001, 1.49872690e-001,
          4.97154519e-002, 1.76583454e-001, 1.26998886e-001,
          6.64358512e-002, 2.60655642e-001, 2.60655642e-001,
          2.60655642e-001, 1.70438424e-001, 8.64560753e-002 ]
      - [ 4.23930474e-002, 3.55422646e-002, 2.98339259e-002,
          1.52367398e-001, 3.65765661e-001, 1.58723697e-001,
          5.51315807e-002, 3.94812301e-002, 3.36352326e-002,
          3.50612402e-002, 4.22448069e-002, 5.76218106e-002,
          1.47283196e-001, 3.65765661e-001, 1.33975506e-001,
          1.66211817e-002, 2.93172821e-002, 3.68922241e-002,
          1.28788233e-001, 2.79309936e-002, 1.24706514e-002,
          1.31278217e-001, 3.65765661e-001, 1.46975487e-001,
          5.59535921e-002, 8.27944800e-002, 1.96706742e-001,
          2.86379278e-001, 1.13341048e-001, 8.38303044e-002,
          1.32870555e-001, 3.65765661e-001, 1.42303646e-001,
          7.97259212e-002, 9.68405902e-002, 3.06729168e-001,
          2.50394791e-002, 7.21406564e-002, 1.79864109e-001,
          1.31121948e-001, 2.74704546e-001, 8.88016373e-002,
          1.37986382e-002, 1.57429837e-002, 1.53172268e-002,
          2.47452576e-002, 1.52465299e-001, 2.74704546e-001,
          2.74704546e-001, 2.74704546e-001, 5.77358231e-002,
          3.70336436e-002, 1.67450439e-002, 3.68860587e-002,
          1.18727610e-001, 2.23103136e-001, 2.74704546e-001,
          1.48042724e-001, 2.74704546e-001, 1.00067712e-001,
          8.42740163e-002, 5.96999116e-002, 1.01638816e-001,
          4.76009995e-002, 1.90067068e-001, 2.74704546e-001,
          2.53960043e-001, 2.74704546e-001, 1.05987407e-001,
          2.33275041e-001, 1.16967857e-001, 1.99859720e-002,
          3.73208746e-002, 1.05023086e-001, 2.36190110e-001,
          2.09457725e-001, 3.31807286e-001, 1.41160756e-001,
          1.10659957e-001, 7.49800503e-002, 9.66786668e-002,
          2.80852877e-002, 6.13628794e-003, 1.95531305e-002,
          4.00176607e-002, 3.31807286e-001, 1.54646561e-001,
          1.55426085e-001, 1.29456475e-001, 1.15087382e-001,
          6.15567788e-002, 5.85982576e-002, 1.64873376e-001,
          1.98037848e-001, 3.31807286e-001, 1.28181607e-001,
          1.81993753e-001, 1.15757868e-001, 3.08443531e-002,
          2.86863744e-002, 1.51883028e-002, 3.26566100e-002,
          1.26236349e-001, 3.31807286e-001, 2.57976085e-001,
          2.38141835e-001, 1.86180532e-001, 5.17769232e-002,
          2.31789723e-001, 6.44621402e-002, 2.71530636e-002,
          7.78692514e-002, 2.72563010e-001, 9.56897140e-002,
          6.70085922e-002, 1.10486560e-001, 2.71731794e-001,
          2.72563010e-001, 1.23661079e-001, 9.30117741e-002,
          8.81384388e-002, 2.51965463e-001, 8.03163499e-002,
          1.17974155e-001, 1.17212616e-001, 2.72563010e-001,
          1.35930568e-001, 1.53942883e-001, 5.94231635e-002,
          1.40141770e-001, 2.72563010e-001, 1.29089922e-001,
          6.66330829e-002, 9.39696059e-002, 1.80626750e-001,
          2.00291470e-001, 1.18385375e-001, 9.36559364e-002,
          1.73466608e-001, 2.72563010e-001, 1.56766117e-001,
          1.10892244e-001, 1.04003780e-001, 2.52096802e-001,
          1.70644179e-001, 1.69442073e-001, 1.87406436e-001,
          1.08040757e-001, 1.95999205e-001, 9.55229402e-002,
          1.95866391e-001, 8.99757072e-002, 1.73203692e-001,
          1.06873080e-001, 1.58164531e-001, 1.71108305e-001,
          1.12965651e-001, 2.16635674e-001, 2.00683117e-001,
          2.49760613e-001, 1.80740014e-001, 7.73233399e-002,
          8.50066692e-002, 1.02950998e-001, 7.46927634e-002,
          1.14407666e-001, 2.49760613e-001, 2.05757946e-001,
          2.49760613e-001, 1.07257552e-001, 1.00806542e-001,
          1.02292337e-001, 1.35341048e-001, 9.68454778e-002,
          9.76114795e-002, 2.49760613e-001, 2.49760613e-001,
          2.49760613e-001, 1.88214719e-001, 8.16244632e-002,
          1.41381696e-001, 1.11996889e-001, 1.04779631e-001,
          1.10445052e-001, 2.44926929e-001, 1.48878634e-001,
          1.84152871e-001, 1.38885930e-001, 6.88251331e-002,
          8.84025693e-002, 6.94912374e-002, 8.81021693e-002,
          1.23148240e-001, 2.44926929e-001, 2.29222223e-001,
          2.26390764e-001, 1.14991844e-001, 4.18005250e-002,
          1.25885427e-001, 1.84534565e-001, 2.44926929e-001,
          1.62390292e-001, 2.44926929e-001, 1.89032629e-001,
          1.75903454e-001, 1.27662823e-001, 9.28918645e-002,
          1.42127290e-001, 1.90038428e-001, 2.44926929e-001,
          1.17061041e-001, 2.44926929e-001, 1.31492600e-001,
          2.01423809e-001, 1.90857425e-001, 1.23644128e-001,
          8.27355832e-002, 1.90120518e-001, 1.09273650e-001,
          1.93004340e-001, 2.58747548e-001, 1.11835182e-001,
          5.91428988e-002, 4.56233248e-002, 1.13280334e-001,
          1.04024261e-001, 1.07775301e-001, 1.27520129e-001,
          2.22147137e-001, 2.58747548e-001, 1.74169764e-001,
          8.44803452e-002, 9.81989726e-002, 1.72254816e-001,
          8.89212638e-002, 2.03762263e-001, 2.58747548e-001,
          2.48700187e-001, 2.58747548e-001, 8.20089728e-002,
          1.30649507e-001, 1.01307638e-001, 8.87068510e-002,
          1.29009023e-001, 2.07837775e-001, 2.58747548e-001,
          2.16725722e-001, 2.38313958e-001, 1.05897836e-001,
          8.35587755e-002, 1.01250224e-001, 1.71671629e-001,
          6.45098239e-002, 5.80519959e-002, 7.27893636e-002,
          1.13988318e-001, 2.59034842e-001, 2.50225484e-001,
          2.15780109e-001, 1.23267442e-001, 8.90066475e-002,
          4.42400500e-002, 5.63823506e-002, 6.70568794e-002,
          1.43997952e-001, 2.59034842e-001, 2.59034842e-001,
          2.59034842e-001, 2.17248008e-001, 5.55332825e-002,
          9.85354707e-002, 6.72466084e-002, 1.11133657e-001,
          1.17388755e-001, 1.63304538e-001, 1.61335468e-001,
          1.92714438e-001, 1.51802272e-001, 1.71216249e-001,
          4.75504175e-002, 2.68949885e-002, 8.17195252e-002,
          2.09343016e-001, 2.59034842e-001, 2.59034842e-001,
          2.59034842e-001, 2.05670342e-001, 1.03006244e-001,
          6.65458813e-002, 1.28798410e-001, 2.36826926e-001,
          2.48316363e-001, 2.48316363e-001, 1.80995539e-001,
          2.39708915e-001, 1.93485290e-001, 6.21307790e-002,
          1.16514869e-001, 1.56042963e-001, 2.48316363e-001,
          1.49154842e-001, 2.48316363e-001, 4.07532826e-002,
          1.07272185e-001, 1.61622703e-001, 9.91482139e-002,
          9.49013680e-002, 6.10597283e-002, 8.08290839e-002,
          2.09557086e-001, 2.48316363e-001, 2.48316363e-001,
          2.48316363e-001, 2.10720807e-001, 9.50908810e-002,
          1.19441219e-001, 4.82980609e-002, 4.65518720e-002,
          8.55491906e-002, 2.48316363e-001, 8.59493688e-002,
          9.04374421e-002, 1.24299586e-001, 1.12195522e-001 ]
      - [ 7.28589445e-002, 6.61163852e-002, 1.41088143e-001,
          1.18897982e-001, 3.24893206e-001, 1.67571381e-001,
          1.70525715e-001, 6.28623888e-002, 3.08044050e-002,
          7.56606385e-002, 7.92486295e-002, 1.27994612e-001,
          1.16706312e-001, 3.24893206e-001, 1.68550968e-001,
          1.24892160e-001, 4.39966433e-002, 2.86936499e-002,
          7.08026141e-002, 9.04299542e-002, 1.59548134e-001,
          1.36556774e-001, 3.24893206e-001, 2.50238627e-001,
          2.17215210e-001, 1.06961042e-001, 4.54907529e-002,
          6.41426891e-002, 1.05439499e-001, 1.39930919e-001,
          1.12144321e-001, 3.24893206e-001, 2.81358480e-001,
          2.41549805e-001, 9.50108469e-002, 7.37862289e-002,
          1.05685249e-001, 1.25753090e-001, 1.77097723e-001,
          1.21929035e-001, 3.38081896e-001, 1.16720915e-001,
          1.65370539e-001, 5.52319214e-002, 6.53078705e-002,
          1.51027605e-001, 1.60309806e-001, 2.88399369e-001,
          1.58450738e-001, 2.77539402e-001, 6.00523911e-002,
          2.15432063e-001, 1.55364782e-001, 1.92116156e-001,
          1.92580782e-002, 4.78124134e-002, 6.22517020e-002,
          9.84076485e-002, 3.38081896e-001, 1.54440060e-001,
          1.53180882e-001, 7.30689541e-002, 3.86427268e-002,
          7.05133975e-002, 8.00171420e-002, 1.07958980e-001,
          1.29049525e-001, 3.38081896e-001, 1.08707570e-001,
          1.96327925e-001, 1.22503608e-001, 1.09198205e-001,
          2.44458184e-001, 5.92599772e-002, 9.93159190e-002,
          7.70492032e-002, 1.31528631e-001, 3.83141302e-002,
          8.49391818e-002, 1.10092342e-001, 2.44458184e-001,
          2.02881411e-001, 1.45417023e-002, 1.79821663e-002,
          6.83721974e-002, 1.69701681e-001, 1.68188527e-001,
          7.71833956e-002, 8.75732154e-002, 2.44458184e-001,
          2.09844992e-001, 1.08188540e-001, 2.04716101e-001,
          1.24214329e-001, 2.44458184e-001, 1.21793576e-001,
          9.41151604e-002, 1.23151854e-001, 2.44458184e-001,
          2.15954036e-001, 6.17035180e-002, 1.23692065e-001,
          1.02515958e-001, 2.44458184e-001, 2.44458184e-001,
          2.38815978e-001, 2.44458184e-001, 2.44458184e-001,
          1.42008036e-001, 7.02334717e-002, 1.42618716e-001,
          1.13973349e-001, 2.46972829e-001, 1.70214802e-001,
          1.62773117e-001, 1.11560106e-001, 8.53925496e-002,
          1.64116398e-001, 1.47361323e-001, 1.46639124e-001,
          1.05421588e-001, 2.46972829e-001, 1.74549460e-001,
          2.36294612e-001, 1.46269888e-001, 1.38792008e-001,
          1.61212131e-001, 1.08955637e-001, 1.34616524e-001,
          1.53164938e-001, 2.46972829e-001, 1.22558013e-001,
          1.72432080e-001, 9.46389660e-002, 9.76146162e-002,
          2.01283827e-001, 1.47818536e-001, 1.67207897e-001,
          2.13204086e-001, 2.46972829e-001, 1.53443277e-001,
          2.43960395e-001, 1.76209062e-001, 1.38262406e-001,
          6.01403490e-002, 9.63041261e-002, 6.36793151e-002,
          7.47001842e-002, 3.61058056e-001, 1.42663211e-001,
          1.74950495e-001, 1.05860412e-001, 4.50790115e-002,
          2.12635007e-002, 3.59786227e-002, 6.74021840e-002,
          9.78032500e-002, 3.61058056e-001, 1.35309204e-001,
          6.75954595e-002, 3.01154722e-002, 1.41258193e-002,
          9.27458107e-002, 1.14549592e-001, 9.42892954e-002,
          1.79684415e-001, 3.61058056e-001, 1.97806552e-001,
          2.45469093e-001, 1.62056372e-001, 6.95034862e-002,
          7.84201846e-002, 5.49052618e-002, 4.32009958e-002,
          1.70019433e-001, 3.61058056e-001, 1.94398746e-001,
          2.10734650e-001, 1.43814877e-001, 1.10363916e-001,
          2.48679742e-002, 4.92305309e-002, 1.43391550e-001,
          1.10871442e-001, 3.30827057e-001, 1.32697225e-001,
          1.98214687e-002, 3.11433692e-002, 4.24637198e-002,
          8.14908594e-002, 1.13757402e-001, 1.23125821e-001,
          9.86920372e-002, 3.30827057e-001, 1.69129729e-001,
          1.79386720e-001, 1.80773452e-001, 2.12270185e-001,
          8.81019980e-002, 6.38537705e-002, 2.95549873e-002,
          1.42538369e-001, 3.30827057e-001, 1.23942055e-001,
          6.25402108e-002, 6.83864653e-002, 1.13132171e-001,
          1.58471704e-001, 3.29465210e-001, 1.75852865e-001,
          1.79325312e-001, 3.30827057e-001, 8.78292099e-002,
          4.70447354e-002, 1.13250963e-001, 1.73091099e-001,
          8.05808082e-002, 9.57176313e-002, 7.59181976e-002,
          1.69744447e-001, 2.88185954e-001, 1.33853838e-001,
          9.37074870e-002, 6.24774098e-002, 3.30819227e-002,
          1.21942639e-001, 8.88181180e-002, 1.33224323e-001,
          2.24147856e-001, 2.88185954e-001, 1.59338757e-001,
          2.04358906e-001, 1.49847537e-001, 4.76325862e-002,
          1.15360521e-001, 1.28388301e-001, 8.16858038e-002,
          1.92301929e-001, 2.88185954e-001, 1.42795190e-001,
          1.38107404e-001, 1.55122072e-001, 3.58254947e-002,
          1.60025045e-001, 1.08244635e-001, 9.72861871e-002,
          2.28761554e-001, 2.88185954e-001, 1.49203211e-001,
          2.47231483e-001, 2.73627460e-001, 6.87818900e-002,
          8.81331116e-002, 4.73453626e-002, 8.16298351e-002,
          1.73499554e-001, 2.40043238e-001, 1.36635184e-001,
          1.80314600e-001, 1.34576216e-001, 7.73125663e-002,
          1.56361938e-001, 6.46691546e-002, 7.30952471e-002,
          1.57200098e-001, 2.40043238e-001, 1.32281750e-001,
          2.40043238e-001, 1.99644536e-001, 1.95943654e-001,
          9.62372199e-002, 6.38299584e-002, 1.89934462e-001,
          2.40043238e-001, 2.40043238e-001, 1.41547233e-001,
          1.71720520e-001, 1.58482194e-001, 9.00239870e-002,
          1.12983361e-001, 9.96417850e-002, 2.40043238e-001,
          2.28810802e-001, 1.86482057e-001, 1.80980325e-001,
          2.40043238e-001, 1.62263736e-001, 1.29274219e-001,
          2.12923303e-001, 1.19710155e-001, 9.59803760e-002,
          1.07913159e-001, 2.14318499e-001, 8.75234231e-002,
          1.44581094e-001, 1.12745419e-001, 2.25357100e-001,
          2.25357100e-001, 2.25357100e-001, 2.25357100e-001,
          1.84179142e-001, 2.25357100e-001, 3.64577994e-002,
          2.50301119e-002, 6.34441897e-002, 2.25357100e-001,
          1.66807845e-001, 1.00336768e-001, 1.62757143e-001,
          8.22826698e-002, 5.90417050e-002, 1.46972597e-001,
          2.25357100e-001, 1.75518796e-001, 1.54275656e-001,
          2.25357100e-001, 1.64372995e-001, 1.80493295e-001,
          1.45576581e-001, 1.98477536e-001, 1.03561737e-001,
          2.25357100e-001, 1.18827239e-001, 1.92783937e-001 ]
      - [ 1.29926279e-001, 2.82746535e-002, 4.45510931e-002,
          1.04317315e-001, 3.73747677e-001, 1.03833295e-001,
          3.84731703e-002, 2.01126765e-002, 8.36025029e-002,
          3.43725443e-001, 1.58426568e-001, 1.92970574e-001,
          1.31207243e-001, 2.07425058e-001, 1.07823052e-001,
          1.08068556e-001, 7.10999966e-002, 1.82273954e-001,
          9.10186991e-002, 3.92655395e-002, 3.12073641e-002,
          1.24873519e-001, 3.73747677e-001, 1.27958372e-001,
          4.48251367e-002, 1.63960569e-002, 5.35522252e-002,
          1.63973197e-001, 1.19265765e-001, 1.20274313e-001,
          1.77772865e-001, 3.73747677e-001, 2.00536877e-001,
          1.77477241e-001, 8.58482420e-002, 1.02552481e-001,
          2.47255370e-001, 2.47255370e-001, 2.47255370e-001,
          1.10844895e-001, 1.77476436e-001, 7.05866665e-002,
          7.94076324e-002, 4.91305515e-002, 1.68701574e-001,
          9.02558118e-002, 1.22308254e-001, 1.97240010e-001,
          8.04888606e-002, 2.30673224e-001, 5.99504635e-002,
          6.37996122e-002, 3.63230929e-002, 9.22225565e-002,
          1.80692151e-001, 2.05575317e-001, 2.31780857e-001,
          1.41849294e-001, 2.47255370e-001, 1.08101875e-001,
          2.45000541e-001, 1.20274253e-001, 2.09304094e-001,
          2.47255370e-001, 1.27370536e-001, 1.61349639e-001,
          6.99500516e-002, 1.49809897e-001, 5.78517281e-002,
          1.93176568e-001, 1.28793210e-001, 2.47255370e-001,
          5.94123527e-002, 4.40161414e-002, 4.91587147e-002,
          5.30881956e-002, 1.68166786e-001, 2.34444272e-002,
          2.96239164e-002, 3.02640945e-002, 7.45461956e-002,
          5.79360723e-002, 1.52541623e-001, 2.76704758e-001,
          1.93657219e-001, 3.08199644e-001, 1.46845892e-001,
          5.99111542e-002, 9.45797265e-002, 1.19775683e-001,
          3.08199644e-001, 1.37183130e-001, 9.21334922e-002,
          6.07370175e-002, 1.80877820e-001, 5.75985573e-002,
          4.95338626e-002, 5.20473383e-002, 3.08199644e-001,
          2.50302732e-001, 2.50913918e-001, 2.40040079e-001,
          1.95586875e-001, 3.08199644e-001, 1.74084947e-001,
          1.18922688e-001, 6.99402094e-002, 1.94768801e-001,
          2.91300528e-002, 1.67337917e-002, 2.01085396e-002,
          7.95168057e-002, 4.64687794e-001, 7.59341642e-002,
          2.15741266e-002, 5.03892964e-003, 2.92442981e-002,
          1.38246706e-002, 1.92380734e-002, 2.19375659e-002,
          9.22169834e-002, 4.64687794e-001, 1.07355088e-001,
          5.46475314e-002, 1.95268244e-002, 1.33019248e-002,
          1.48599088e-001, 3.45717855e-002, 7.22638890e-002,
          8.81109238e-002, 4.64687794e-001, 7.74565116e-002,
          6.21326976e-002, 1.91921201e-002, 1.53931528e-001,
          3.53541486e-002, 1.05571011e-002, 1.93005465e-002,
          9.94243249e-002, 4.64687794e-001, 9.69827473e-002,
          9.80204623e-003, 7.43242772e-003, 2.59516388e-002,
          2.70325784e-002, 3.79523933e-002, 5.13963960e-002,
          7.65554383e-002, 4.08503503e-001, 1.08418532e-001,
          1.49049714e-001, 6.31579906e-002, 6.75358847e-002,
          2.46658504e-001, 6.94695637e-002, 7.82130063e-002,
          8.55333731e-002, 4.08503503e-001, 8.78181756e-002,
          1.15565017e-001, 8.31363797e-002, 2.97721773e-001,
          4.34798916e-004, 1.19749701e-003, 7.28354976e-003,
          8.93136486e-002, 4.08503503e-001, 9.93436947e-002,
          1.69073623e-002, 7.84909632e-003, 4.73874528e-003,
          6.55722469e-002, 4.52853851e-002, 7.21085146e-002,
          1.49234757e-001, 4.08503503e-001, 1.49105504e-001,
          3.02473083e-002, 2.68764459e-002, 5.95531166e-002,
          2.73462355e-001, 7.94534981e-002, 8.26591551e-002,
          9.58264917e-002, 2.73462355e-001, 6.84620366e-002,
          4.88838814e-002, 4.78908867e-002, 2.73462355e-001,
          1.72761306e-001, 9.21700224e-002, 7.20527470e-002,
          1.17581874e-001, 2.73462355e-001, 1.34649828e-001,
          2.55151212e-001, 1.35216609e-001, 1.68825090e-001,
          1.05530784e-001, 6.96018040e-002, 1.17126971e-001,
          1.68427438e-001, 2.73462355e-001, 1.50637269e-001,
          6.89393654e-002, 6.40517548e-002, 9.68629718e-002,
          1.49906814e-001, 7.95081258e-002, 6.86595589e-002,
          1.44445568e-001, 2.73462355e-001, 1.39208600e-001,
          2.73462355e-001, 2.35260770e-001, 1.63170263e-001,
          1.76764086e-001, 4.87801172e-002, 4.42721844e-002,
          8.50631967e-002, 4.31934267e-001, 9.00795236e-002,
          4.35332507e-002, 5.62026836e-002, 1.52172476e-001,
          4.19483818e-002, 1.43883685e-002, 1.28987003e-002,
          8.85596797e-002, 4.31934267e-001, 1.14908226e-001,
          2.05583200e-002, 2.67141741e-002, 3.88643853e-002,
          8.87922943e-002, 1.16820425e-001, 1.31094933e-001,
          1.44068316e-001, 4.31934267e-001, 1.01108700e-001,
          3.19661796e-002, 9.27980319e-002, 5.83208352e-002,
          3.43580954e-002, 5.14664017e-002, 6.66915327e-002,
          1.29251614e-001, 4.31934267e-001, 1.44749478e-001,
          5.11483662e-002, 6.86917827e-002, 9.18922722e-002,
          2.81315367e-003, 1.93482637e-002, 2.73230579e-002,
          8.78343657e-002, 3.73377353e-001, 1.07388198e-001,
          2.15801951e-002, 1.55823138e-002, 2.76806038e-002,
          4.50801924e-002, 6.12547509e-002, 8.50268304e-002,
          1.85384929e-001, 3.73377353e-001, 1.47433043e-001,
          5.80067970e-002, 5.11025712e-002, 4.31635715e-002,
          3.99329327e-002, 8.27261135e-002, 1.19862594e-001,
          1.69479221e-001, 3.73377353e-001, 1.36323109e-001,
          7.00359195e-002, 6.18225671e-002, 1.59234643e-001,
          1.53794065e-001, 1.49409771e-001, 2.20056251e-001,
          3.10316116e-001, 3.73377353e-001, 9.95403379e-002,
          8.93140733e-002, 8.46137926e-002, 1.41004667e-001,
          7.73768425e-002, 9.67212245e-002, 8.67003128e-002,
          1.90401673e-001, 2.55838811e-001, 1.53054029e-001,
          7.16046989e-002, 7.63189793e-002, 7.38660172e-002,
          1.53951272e-001, 2.19522282e-001, 1.41669288e-001,
          1.18543535e-001, 2.55838811e-001, 1.20031133e-001,
          8.64859596e-002, 1.30469844e-001, 1.23621710e-001,
          2.42725283e-001, 1.59613267e-001, 1.60539106e-001,
          2.43024483e-001, 2.55838811e-001, 6.78857118e-002,
          6.22011609e-002, 9.37772840e-002, 1.99090108e-001,
          1.92399293e-001, 2.55838811e-001, 2.55838811e-001,
          2.03912184e-001, 2.55838811e-001, 5.87298162e-002,
          4.30131219e-002, 8.78868327e-002, 1.66781262e-001 ]
      - [ 6.20256141e-002, 3.65462489e-002, 5.05407751e-002,
          1.15073256e-001, 3.96469325e-001, 1.37770832e-001,
          6.85751960e-002, 2.10103244e-002, 3.65805104e-002,
          1.45624921e-001, 1.61695182e-001, 2.20795736e-001,
          1.47534147e-001, 3.96469325e-001, 1.31311595e-001,
          1.88395992e-001, 8.19118842e-002, 1.31077692e-001,
          3.93988676e-002, 3.35402340e-002, 3.72868143e-002,
          1.23057149e-001, 3.96469325e-001, 1.37520775e-001,
          3.53899151e-002, 2.64543798e-002, 4.18115519e-002,
          5.26061133e-002, 3.86374407e-002, 4.25051041e-002,
          1.69380814e-001, 3.96469325e-001, 1.63606897e-001,
          1.23880185e-001, 6.04140833e-002, 6.32985085e-002,
          1.81367695e-001, 1.62905604e-001, 2.53161430e-001,
          1.07975930e-001, 2.42384627e-001, 4.89339270e-002,
          1.69476658e-001, 1.41459972e-001, 1.88693181e-001,
          2.80193180e-001, 4.24724370e-002, 7.32413456e-002,
          3.76389883e-002, 1.08559430e-001, 3.28855142e-002,
          7.81896710e-002, 9.28554386e-002, 2.80193180e-001,
          1.26243949e-001, 5.61614297e-002, 8.24806020e-002,
          1.63594976e-001, 2.80193180e-001, 1.30325496e-001,
          1.67631879e-001, 1.08177520e-001, 1.46814942e-001,
          2.80193180e-001, 6.18873984e-002, 1.14182919e-001,
          1.18910328e-001, 2.80193180e-001, 1.39769793e-001,
          1.06193379e-001, 1.28366545e-001, 2.80193180e-001,
          2.06893489e-001, 1.07159708e-002, 9.53900348e-003,
          1.54182687e-002, 1.28387436e-001, 8.67827088e-002,
          1.01057395e-001, 5.26797846e-002, 2.40085050e-001,
          4.74345349e-002, 5.16973957e-002, 2.79886872e-002,
          9.89723429e-002, 2.67899722e-001, 1.85232982e-001,
          1.39108092e-001, 6.37879819e-002, 5.28767519e-002,
          2.67899722e-001, 3.88868265e-002, 6.82322532e-002,
          4.35239002e-002, 2.67899722e-001, 1.93419874e-001,
          2.67899722e-001, 1.84457079e-001, 2.67899722e-001,
          1.91874132e-001, 8.65444466e-002, 1.05455361e-001,
          1.80311128e-001, 2.67899722e-001, 2.31843561e-001,
          2.67899722e-001, 2.05721170e-001, 1.32294118e-001,
          1.14249907e-001, 6.32957667e-002, 5.96948974e-002,
          9.58222076e-002, 4.29247200e-001, 9.01972950e-002,
          5.63248433e-002, 4.92624454e-002, 1.22269280e-001,
          3.36694270e-002, 1.67551581e-002, 2.27859076e-002,
          1.26321241e-001, 4.29247200e-001, 1.25446275e-001,
          2.99614705e-002, 1.20229656e-002, 2.49986853e-002,
          1.25628829e-001, 1.07894368e-001, 7.25268275e-002,
          1.41298831e-001, 4.29247200e-001, 1.21849515e-001,
          8.90190750e-002, 5.49818724e-002, 1.24833897e-001,
          4.97590639e-002, 6.91144243e-002, 4.63298187e-002,
          1.22286350e-001, 4.29247200e-001, 1.85511455e-001,
          6.14852682e-002, 5.51551133e-002, 7.27858990e-002,
          2.27546114e-002, 1.17955226e-002, 3.10562234e-002,
          1.48677573e-001, 4.15332079e-001, 1.44991994e-001,
          2.72275582e-002, 1.12953400e-002, 2.27737073e-002,
          8.67392644e-002, 2.37208102e-002, 6.61296770e-002,
          1.29128739e-001, 4.15332079e-001, 1.51310295e-001,
          3.15140337e-002, 5.40525801e-002, 7.38205090e-002,
          3.68535593e-002, 1.11862615e-001, 1.04250111e-001,
          1.13511212e-001, 4.15332079e-001, 2.12354466e-001,
          7.78980032e-002, 5.72938062e-002, 7.71535710e-002,
          8.66121799e-002, 8.70710686e-002, 1.09523304e-001,
          1.55325964e-001, 4.15332079e-001, 1.61530986e-001,
          7.32578635e-002, 7.75837973e-002, 1.07766688e-001,
          1.14972450e-001, 4.71927710e-002, 8.46630633e-002,
          5.25235273e-002, 2.52263397e-001, 1.15006268e-001,
          1.33648127e-001, 1.41068429e-001, 9.08828005e-002,
          2.12964594e-001, 1.10140488e-001, 1.67676702e-001,
          1.72967121e-001, 2.52263397e-001, 1.56847417e-001,
          2.52263397e-001, 2.04245001e-001, 1.21321753e-001,
          1.27454802e-001, 1.37493148e-001, 2.13366449e-001,
          1.38795510e-001, 2.52263397e-001, 5.37520275e-002,
          4.80409190e-002, 9.03684646e-002, 1.05109632e-001,
          2.25983962e-001, 1.95806652e-001, 2.52263397e-001,
          1.95376381e-001, 2.52263397e-001, 1.49033234e-001,
          1.67780221e-001, 1.06517754e-001, 1.44378260e-001,
          8.22844952e-002, 1.21919639e-001, 1.04432710e-001,
          1.49304166e-001, 3.30736995e-001, 1.14524551e-001,
          1.13857709e-001, 4.08033505e-002, 5.34374937e-002,
          9.94664282e-002, 7.81228840e-002, 1.01662584e-001,
          1.23137869e-001, 3.30736995e-001, 1.39177024e-001,
          9.70596969e-002, 7.09592625e-002, 1.11037046e-001,
          1.27409607e-001, 8.96953568e-002, 1.20802708e-001,
          1.99819550e-001, 3.30736995e-001, 1.23822801e-001,
          2.00141594e-001, 8.91980603e-002, 9.87148955e-002,
          8.64253566e-002, 1.00459270e-001, 3.30736995e-001,
          2.44096190e-001, 3.30736995e-001, 1.25103146e-001,
          1.20653391e-001, 6.17501624e-002, 1.16716035e-001,
          8.59499127e-002, 1.35405511e-001, 1.66879073e-001,
          8.99072066e-002, 2.45553285e-001, 1.59971222e-001,
          2.01359048e-001, 1.30774841e-001, 1.38028726e-001,
          2.45553285e-001, 2.00084284e-001, 1.66180730e-001,
          9.51914936e-002, 2.45553285e-001, 1.15388662e-001,
          1.94537342e-001, 1.62684217e-001, 2.45553285e-001,
          5.77705912e-002, 1.22707658e-001, 2.45553285e-001,
          1.45274818e-001, 2.45553285e-001, 7.45395720e-002,
          1.65733024e-001, 1.05952397e-001, 1.15541421e-001,
          2.45553285e-001, 1.81424111e-001, 1.09982789e-001,
          3.17065902e-002, 1.00451186e-001, 4.25938293e-002,
          1.59780085e-001, 1.27845362e-001, 2.45553285e-001,
          2.56496668e-001, 1.87136412e-001, 2.56496668e-001,
          1.53753683e-001, 2.04655215e-001, 2.67936904e-002,
          5.50806485e-002, 6.05648421e-002, 2.08762199e-001,
          1.45721406e-001, 1.49908513e-001, 2.56496668e-001,
          2.02363402e-001, 2.56496668e-001, 1.13137782e-001,
          8.29658136e-002, 2.82892026e-002, 1.00887798e-001,
          2.56496668e-001, 1.61844641e-001, 1.39136896e-001,
          1.10147893e-001, 1.16288647e-001, 3.82171720e-002,
          9.05638784e-002, 3.51657383e-002, 1.77336484e-001,
          1.57935321e-001, 1.87899604e-001, 1.83375761e-001,
          2.56496668e-001, 2.56496668e-001, 1.14084922e-001,
          1.94523454e-001, 3.41438316e-002, 1.02879867e-001 ]
      - [ 7.87084028e-002, 1.11612208e-001, 1.76524416e-001,
          2.09522814e-001, 3.08085650e-001, 8.75662342e-002,
          5.53195626e-002, 7.93555826e-002, 7.05389306e-002,
          1.70728505e-001, 1.52070269e-001, 9.87635329e-002,
          2.35673949e-001, 3.08085650e-001, 1.16926432e-001,
          1.83587953e-001, 1.17654815e-001, 1.40312076e-001,
          1.03938997e-001, 1.30136356e-001, 2.55347192e-001,
          2.23116949e-001, 3.08085650e-001, 1.25362828e-001,
          8.16069171e-002, 1.29309177e-001, 1.48203284e-001,
          5.26746400e-002, 8.17059502e-002, 9.54343155e-002,
          1.99489802e-001, 3.08085650e-001, 1.47340789e-001,
          9.51998383e-002, 6.71042725e-002, 7.51754493e-002,
          1.12880372e-001, 1.21194415e-001, 2.65686978e-002,
          1.52249202e-001, 3.07615161e-001, 1.44094780e-001,
          2.32304379e-001, 1.53775543e-001, 9.39479023e-002,
          2.88563818e-001, 1.17101818e-001, 4.05320302e-002,
          1.46459654e-001, 2.91831940e-001, 1.48894012e-001,
          1.88728571e-001, 1.45074248e-001, 2.76319653e-001,
          2.33498830e-002, 4.49102558e-002, 1.32269105e-002,
          1.31172121e-001, 3.07615161e-001, 1.44670218e-001,
          1.39403716e-001, 5.25015928e-002, 2.22783349e-002,
          1.33971930e-001, 1.13384970e-001, 2.79660430e-002,
          1.54888168e-001, 3.07615161e-001, 1.56964198e-001,
          1.49622366e-001, 6.77666217e-002, 1.52795315e-001,
          2.59909719e-001, 1.14597991e-001, 5.78136817e-002,
          6.04053698e-002, 1.31916344e-001, 8.41330886e-002,
          1.27914384e-001, 5.92093468e-002, 2.59909719e-001,
          1.84537888e-001, 7.27638453e-002, 4.53232527e-002,
          2.55604126e-002, 2.59909719e-001, 1.66210905e-001,
          2.59909719e-001, 9.58300009e-002, 9.34832990e-002,
          1.99997216e-001, 1.58866525e-001, 4.11813967e-002,
          1.49323210e-001, 2.59909719e-001, 1.46739826e-001,
          1.69126734e-001, 8.87699127e-002, 2.04193100e-001,
          1.55184865e-001, 1.26078099e-001, 5.65536544e-002,
          1.02914572e-001, 2.59909719e-001, 1.98999345e-001,
          2.59909719e-001, 2.59909719e-001, 1.50301203e-001,
          1.78790703e-001, 8.81750435e-002, 1.35015190e-001,
          1.06306352e-001, 3.21300805e-001, 1.35301545e-001,
          8.12649950e-002, 1.40236288e-001, 2.02891096e-001,
          5.04760593e-002, 5.38108125e-002, 7.66942054e-002,
          1.25597596e-001, 3.41353148e-001, 1.68012753e-001,
          7.85423368e-002, 7.35764056e-002, 7.08325729e-002,
          1.30739257e-001, 1.13322511e-001, 1.31430447e-001,
          1.34938389e-001, 3.41353148e-001, 2.21991628e-001,
          8.26217085e-002, 1.51792496e-001, 1.23493083e-001,
          7.26825297e-002, 1.15346029e-001, 1.55795366e-001,
          1.78831205e-001, 3.41353148e-001, 2.27976099e-001,
          1.31349996e-001, 8.11349750e-002, 7.99037516e-002,
          7.11715256e-004, 1.26810698e-002, 1.51207922e-002,
          1.01990931e-001, 4.10844147e-001, 1.12369813e-001,
          2.97772102e-002, 1.54275643e-002, 7.78109720e-003,
          1.35900909e-002, 6.41555563e-002, 3.31994556e-002,
          1.49607062e-001, 4.10844147e-001, 1.03093334e-001,
          4.84398417e-002, 5.27838431e-002, 3.43111455e-002,
          4.04240526e-002, 4.31883819e-002, 1.30406827e-001,
          1.39826536e-001, 4.10844147e-001, 1.39106974e-001,
          1.29884094e-001, 3.27583700e-002, 1.34938791e-001,
          2.60453057e-002, 4.91740853e-002, 1.87857985e-001,
          2.20841721e-001, 4.10844147e-001, 1.68211102e-001,
          1.17934160e-001, 1.01289801e-001, 1.27344072e-001,
          3.78129743e-002, 1.18603297e-001, 5.53997383e-002,
          1.55684009e-001, 2.80867070e-001, 1.05679542e-001,
          9.91130695e-002, 1.02939621e-001, 5.13982102e-002,
          1.38568521e-001, 1.73727393e-001, 7.00371191e-002,
          1.02792896e-001, 2.80867070e-001, 1.00152090e-001,
          2.68091440e-001, 2.00605050e-001, 1.30786836e-001,
          6.88030496e-002, 1.12664349e-001, 1.37922838e-001,
          1.62608325e-001, 2.80867070e-001, 1.87973276e-001,
          7.20284432e-002, 1.47882298e-001, 9.47787017e-002,
          1.99924886e-001, 2.80867070e-001, 2.68766820e-001,
          1.52648330e-001, 2.80867070e-001, 1.43738225e-001,
          6.97466657e-002, 1.16456561e-001, 1.12975806e-001,
          6.45930246e-002, 1.39729574e-001, 1.44100949e-001,
          1.42110795e-001, 3.20272207e-001, 1.35686189e-001,
          8.95206928e-002, 1.12677582e-001, 3.58845517e-002,
          6.24660142e-002, 9.91050303e-002, 1.58856779e-001,
          1.85696304e-001, 3.20272207e-001, 1.19233944e-001,
          1.14542790e-001, 5.88139929e-002, 7.07354546e-002,
          8.77524093e-002, 1.10968716e-001, 1.09073050e-001,
          1.74516663e-001, 3.20272207e-001, 8.47804174e-002,
          2.15220392e-001, 1.53774992e-001, 1.21117368e-001,
          6.30385727e-002, 1.27859563e-001, 2.60100633e-001,
          2.76203692e-001, 3.20272207e-001, 1.10974267e-001,
          1.52061477e-001, 7.71301538e-002, 1.11149184e-001,
          6.54450282e-002, 4.37273085e-002, 1.66051269e-001,
          1.48009151e-001, 2.94117838e-001, 9.21489298e-002,
          1.33217737e-001, 2.89379582e-002, 1.30291790e-001,
          7.58624673e-002, 7.35905170e-002, 2.61900365e-001,
          2.05325469e-001, 2.94117838e-001, 1.56054169e-001,
          1.26261637e-001, 6.41897172e-002, 1.20934397e-001,
          4.70927171e-002, 1.28587633e-001, 2.94117838e-001,
          2.47197911e-001, 2.94117838e-001, 9.01552364e-002,
          7.79959559e-002, 2.06417739e-002, 6.54501393e-002,
          9.36215222e-002, 1.77665219e-001, 2.94117838e-001,
          1.90405652e-001, 2.94117838e-001, 1.23052441e-001,
          4.46269289e-002, 2.28124782e-002, 6.57488927e-002,
          2.38723442e-001, 1.30815744e-001, 2.38723442e-001,
          1.45936176e-001, 2.38723442e-001, 1.45876944e-001,
          6.28704354e-002, 1.02875128e-001, 1.81483760e-001,
          2.38723442e-001, 2.31103942e-001, 2.38723442e-001,
          1.94949225e-001, 2.38723442e-001, 8.51860791e-002,
          2.11684443e-002, 8.78264382e-002, 1.42683938e-001,
          2.38723442e-001, 1.41022339e-001, 2.38723442e-001,
          7.27750510e-002, 2.38723442e-001, 5.75855970e-002,
          1.90287437e-002, 2.03963947e-002, 1.32623494e-001,
          2.38723442e-001, 1.14269122e-001, 1.72017798e-001,
          1.33437246e-001, 2.38723442e-001, 8.46788734e-002,
          4.64236736e-003, 3.42753604e-002, 1.43861160e-001 ]
      - [ 1.14272408e-001, 2.41189748e-002, 3.33153643e-002,
          9.54131335e-002, 3.87413710e-001, 1.13169976e-001,
          4.61456329e-002, 8.21144134e-003, 5.34449816e-002,
          1.29534170e-001, 7.62468800e-002, 6.60480782e-002,
          1.58325344e-001, 3.87413710e-001, 2.88186044e-001,
          1.10779420e-001, 1.11031361e-001, 1.28581673e-001,
          6.71602786e-002, 1.37684010e-002, 2.19827145e-002,
          1.30693570e-001, 3.87413710e-001, 1.55063465e-001,
          1.69197880e-002, 2.76797987e-003, 3.76120172e-002,
          1.00483529e-001, 4.53431644e-002, 5.94030023e-002,
          1.36193916e-001, 3.87413710e-001, 2.64939100e-001,
          1.30263209e-001, 6.87466338e-002, 6.09611720e-002,
