%YAML:1.0
my_svm: !!opencv-ml-svm
   svm_type: C_SVC
   kernel: { type:RBF, gamma:8.9999999999999997e-002 }
   C: 10.
   term_criteria: { epsilon:1.1920928955078125e-007,
       iterations:2147483647 }
   var_all: 324
   var_count: 324
   class_count: 3
   class_labels: !!opencv-matrix
      rows: 1
      cols: 3
      dt: i
      data: [ 0, 1, 2 ]
   sv_total: 21
   support_vectors:
      - [ 2.81871051e-001, 6.72912449e-002, 4.04702090e-002,
          7.03692511e-002, 1.68836817e-001, 2.96918601e-002,
          5.32786995e-002, 2.90311966e-002, 2.81871051e-001,
          2.81871051e-001, 5.74668460e-002, 3.65291163e-002,
          6.31784201e-002, 2.26264283e-001, 5.53858802e-002,
          9.00918618e-002, 4.99833040e-002, 2.81871051e-001,
          2.81871051e-001, 8.00629705e-002, 1.78749904e-001,
          6.86473548e-002, 2.81871051e-001, 9.27971900e-002,
          7.81785250e-002, 7.48257637e-002, 2.81871051e-001,
          2.81871051e-001, 8.74152556e-002, 1.35507062e-001,
          6.30877689e-002, 2.20898122e-001, 1.09265067e-001,
          5.32026663e-002, 8.65075588e-002, 2.81871051e-001,
          3.38666290e-001, 1.42370788e-002, 4.85839276e-003,
          9.47696343e-003, 4.45944965e-002, 1.42080719e-002,
          2.06211116e-002, 1.69518143e-002, 3.38666290e-001,
          3.38666290e-001, 1.02102160e-001, 3.88666429e-002,
          8.90905783e-002, 1.23913191e-001, 5.03578559e-002,
          2.16643736e-002, 3.89705971e-002, 3.38666290e-001,
          3.38666290e-001, 2.42681522e-002, 1.55207701e-002,
          1.19939772e-002, 3.65630388e-002, 2.38583274e-002,
          3.69744981e-003, 2.21147109e-002, 3.38666290e-001,
          3.38666290e-001, 7.35139474e-002, 3.56276631e-002,
          5.18147834e-002, 1.38836816e-001, 3.36479433e-002,
          2.26453878e-002, 4.92504202e-002, 3.38666290e-001,
          2.40109712e-001, 1.92422792e-001, 2.21357435e-001,
          9.52774435e-002, 1.60869181e-001, 7.17019662e-002,
          2.51970626e-002, 4.00072709e-002, 2.39795625e-001,
          2.02126801e-001, 2.39983708e-001, 2.40109712e-001,
          9.22902301e-002, 2.40109712e-001, 7.67389014e-002,
          6.02341890e-002, 5.37576675e-002, 1.38849869e-001,
          2.40109712e-001, 1.32775754e-001, 1.49425164e-001,
          8.88054594e-002, 2.40109712e-001, 8.11226070e-002,
          3.92446332e-002, 7.86948577e-002, 2.40109712e-001,
          2.40109712e-001, 2.18175381e-001, 2.40109712e-001,
          1.25531688e-001, 2.40109712e-001, 8.42011124e-002,
          5.67476787e-002, 8.87191519e-002, 1.02550738e-001,
          1.00090146e-001, 6.37554526e-002, 2.60697305e-001,
          5.73097095e-002, 2.65805155e-001, 1.41994506e-001,
          1.39543042e-001, 1.27120048e-001, 1.20844752e-001,
          2.68953860e-001, 8.81695300e-002, 2.08288997e-001,
          3.37260477e-002, 1.13734409e-001, 9.20346230e-002,
          7.09131733e-002, 9.81884226e-002, 2.68953860e-001,
          1.86082363e-001, 1.28840178e-001, 2.03235283e-001,
          1.07676007e-001, 2.68953860e-001, 1.59317210e-001,
          2.29161814e-001, 1.87573195e-001, 1.48897544e-001,
          2.68953860e-001, 9.04034302e-002, 1.79478914e-001,
          4.66830879e-002, 4.79753353e-002, 4.52482291e-002,
          1.51148811e-001, 1.08369052e-001, 2.68953860e-001,
          3.38728160e-001, 3.59938629e-002, 4.46017049e-002,
          3.61102968e-002, 2.14042328e-002, 1.93001200e-002,
          8.95746797e-003, 3.59724052e-002, 3.38728160e-001,
          3.38728160e-001, 7.06547275e-002, 5.30550368e-002,
          8.16434398e-002, 7.56211057e-002, 2.20338888e-002,
          2.69141719e-002, 4.06268984e-002, 3.38728160e-001,
          3.38728160e-001, 3.93495709e-002, 6.11301698e-002,
          5.72379455e-002, 1.16929635e-002, 4.16684384e-003,
          3.12347542e-002, 5.03083467e-002, 3.38728160e-001,
          3.38728160e-001, 7.65410066e-002, 7.39290640e-002,
          1.27979293e-001, 6.64767921e-002, 1.86899994e-002,
          4.36773822e-002, 4.76989746e-002, 3.38728160e-001,
          2.84382522e-001, 9.65753049e-002, 9.36397091e-002,
          6.07806444e-002, 1.71405911e-001, 5.61000034e-002,
          5.65283112e-002, 7.56110325e-002, 2.84382522e-001,
          2.84382522e-001, 2.10410818e-001, 2.84382522e-001,
          9.87227038e-002, 1.17008664e-001, 3.58149000e-002,
          3.39053795e-002, 5.31747155e-002, 1.86708167e-001,
          2.84382522e-001, 1.11527994e-001, 1.06429808e-001,
          9.14795622e-002, 1.76944435e-001, 4.12196405e-002,
          6.59188107e-002, 5.49894534e-002, 2.84382522e-001,
          2.84382522e-001, 1.63763434e-001, 2.25303158e-001,
          8.45322013e-002, 1.28258005e-001, 2.33371556e-002,
          4.02240530e-002, 5.71120642e-002, 2.84382522e-001,
          1.52951762e-001, 1.37905672e-001, 1.13458395e-001,
          1.55538142e-001, 3.05827439e-001, 1.42490938e-001,
          1.20787710e-001, 1.49435282e-001, 1.61519736e-001,
          3.05827439e-001, 8.10003057e-002, 7.38364160e-002,
          7.80179054e-002, 1.20343857e-001, 3.99557054e-002,
          7.51367435e-002, 6.86903596e-002, 3.05827439e-001,
          7.12702200e-002, 6.98394552e-002, 6.12882189e-002,
          1.76072761e-001, 3.05827439e-001, 1.72661379e-001,
          7.96621740e-002, 1.19547077e-001, 1.21019900e-001,
          3.05827439e-001, 5.90429455e-002, 3.35005559e-002,
          1.00197330e-001, 3.05827439e-001, 7.40666315e-002,
          6.16317466e-002, 3.39989178e-002, 3.05827439e-001,
          3.50998282e-001, 1.44424774e-002, 1.81177780e-002,
          1.73296444e-002, 1.00541562e-002, 1.27756549e-003,
          1.20591512e-002, 1.79163832e-002, 3.50998282e-001,
          3.50998282e-001, 3.22920978e-002, 2.07952932e-002,
          3.90437134e-002, 3.74041311e-002, 1.40227256e-002,
          1.91893093e-002, 3.07440199e-002, 3.50998282e-001,
          3.50998282e-001, 8.57256167e-003, 5.89104369e-003,
          7.27401953e-003, 2.41790190e-002, 6.32683421e-003,
          7.54993735e-003, 6.85834046e-003, 3.50998282e-001,
          3.50998282e-001, 7.30180042e-003, 5.07841399e-003,
          1.31112682e-002, 3.90385427e-002, 1.63853988e-002,
          6.77599292e-003, 2.45050956e-002, 3.50998282e-001,
          2.64457017e-001, 8.51672366e-002, 6.58316389e-002,
          7.63537511e-002, 9.38213319e-002, 6.32585660e-002,
          5.30494601e-002, 9.89565328e-002, 2.64457017e-001,
          2.64457017e-001, 1.77624643e-001, 1.64124131e-001,
          1.45300120e-001, 1.20799102e-001, 8.95188451e-002,
          5.16851731e-002, 1.38593629e-001, 2.64457017e-001,
          2.64457017e-001, 6.67782277e-002, 2.67482363e-002,
          9.91586968e-002, 1.16388887e-001, 8.80287215e-002,
          3.86471637e-002, 1.22126125e-001, 2.64457017e-001,
          2.09799752e-001, 1.85220301e-001, 1.21709839e-001,
          2.64457017e-001, 2.64457017e-001, 1.94210783e-001,
          9.47044790e-002, 1.50703534e-001, 2.36006781e-001 ]
      - [ 2.83935398e-001, 7.61391297e-002, 4.08758447e-002,
          4.28500660e-002, 2.09148213e-001, 7.09946528e-002,
          4.94541563e-002, 4.16720137e-002, 2.83935398e-001,
          2.83935398e-001, 6.90580159e-002, 3.12445816e-002,
          4.50193733e-002, 2.83935398e-001, 1.18320994e-001,
          7.59885013e-002, 6.18528947e-002, 2.83935398e-001,
          2.83935398e-001, 1.20933443e-001, 1.40025020e-001,
          8.17450061e-002, 1.57135665e-001, 6.93060011e-002,
          6.91151246e-002, 5.71407937e-002, 2.83935398e-001,
          2.83935398e-001, 1.41881809e-001, 9.16759819e-002,
          9.90422070e-002, 2.00962439e-001, 1.12310357e-001,
          6.87057376e-002, 5.85850291e-002, 2.83935398e-001,
          3.15393567e-001, 1.82850324e-002, 8.04875884e-003,
          1.12103308e-002, 7.61594623e-002, 2.51526069e-002,
          2.27741059e-002, 2.05780156e-002, 3.15393567e-001,
          3.15393567e-001, 7.16503039e-002, 5.42892627e-002,
          1.02275312e-001, 2.92936087e-001, 4.19750959e-002,
          1.72754545e-002, 4.41071279e-002, 3.15393567e-001,
          3.15393567e-001, 4.80991900e-002, 1.45833753e-002,
          1.76679511e-002, 3.97336818e-002, 2.45923493e-002,
          1.23157101e-002, 1.72575712e-002, 3.15393567e-001,
          3.15393567e-001, 7.48289004e-002, 6.52971193e-002,
          1.14676133e-001, 2.18188927e-001, 4.74230051e-002,
          6.86191097e-002, 4.19064388e-002, 3.15393567e-001,
          2.33898118e-001, 1.01125419e-001, 7.56366327e-002,
          1.61644727e-001, 2.43640706e-001, 6.82528913e-002,
          2.67001726e-002, 8.96573886e-002, 2.19537258e-001,
          1.62442833e-001, 1.22668132e-001, 1.74601972e-001,
          2.22686797e-001, 2.43640706e-001, 6.24498464e-002,
          4.45336550e-002, 1.29511312e-001, 2.27587357e-001,
          2.43640706e-001, 8.55759308e-002, 8.11375901e-002,
          1.45100668e-001, 2.43640706e-001, 1.03455946e-001,
          1.02492325e-001, 6.76144883e-002, 2.43640706e-001,
          2.27061495e-001, 1.21958099e-001, 1.59428015e-001,
          1.79752439e-001, 2.43640706e-001, 1.37224689e-001,
          1.00380272e-001, 1.17811859e-001, 2.43640706e-001,
          1.02495253e-001, 9.07455608e-002, 2.33211964e-001,
          1.04501069e-001, 1.52326941e-001, 1.02327876e-001,
          1.22067355e-001, 5.65644726e-002, 2.19823956e-001,
          2.83834428e-001, 1.51452154e-001, 1.54771641e-001,
          1.04382344e-001, 1.50392532e-001, 1.14536099e-001,
          6.72768652e-002, 5.97581901e-002, 2.83834428e-001,
          2.06163049e-001, 1.27520338e-001, 1.70123428e-001,
          1.19128495e-001, 1.61995843e-001, 1.69856295e-001,
          2.83834428e-001, 1.09049737e-001, 1.92334771e-001,
          2.83834428e-001, 1.71883389e-001, 1.44339532e-001,
          6.98259324e-002, 3.40907983e-002, 8.65062252e-002,
          1.75082713e-001, 9.03194994e-002, 2.83834428e-001,
          3.20235103e-001, 7.70130008e-002, 3.87857109e-002,
          2.33810637e-002, 2.75620911e-002, 2.12299116e-002,
          1.08175240e-002, 2.32134797e-002, 3.20235103e-001,
          3.20235103e-001, 1.14965446e-001, 9.29093808e-002,
          7.65812844e-002, 1.43954724e-001, 3.96091081e-002,
          7.55949393e-002, 3.76375876e-002, 3.20235103e-001,
          3.20235103e-001, 9.84024927e-002, 6.64021298e-002,
          1.95807703e-002, 9.27535631e-003, 6.60152035e-003,
          1.34897782e-002, 2.35446896e-002, 3.20235103e-001,
          3.20235103e-001, 1.90591380e-001, 1.32706940e-001,
          8.49868432e-002, 1.46936253e-001, 5.03025986e-002,
          8.53669643e-002, 3.87566537e-002, 3.20235103e-001,
          2.49821931e-001, 9.25997123e-002, 7.05197826e-002,
          9.35479701e-002, 2.02218041e-001, 7.16895014e-002,
          1.01714835e-001, 4.46354486e-002, 2.49821931e-001,
          2.49821931e-001, 1.62406325e-001, 1.49265826e-001,
          1.89192668e-001, 2.07149342e-001, 9.38235968e-002,
          8.76698941e-002, 6.48636520e-002, 2.49821931e-001,
          2.49821931e-001, 1.76986232e-001, 1.40791640e-001,
          1.09134719e-001, 1.60882354e-001, 6.29890338e-002,
          9.47001204e-002, 5.77340908e-002, 2.49821931e-001,
          2.49821931e-001, 1.95149481e-001, 2.32683852e-001,
          1.57163903e-001, 1.29100949e-001, 9.11534950e-002,
          8.50989893e-002, 1.23034440e-001, 2.49821931e-001,
          1.94491565e-001, 8.05189461e-002, 4.82999459e-002,
          1.15186937e-001, 3.01534146e-001, 1.48431510e-001,
          2.03503385e-001, 8.96895304e-002, 1.75507680e-001,
          3.01534146e-001, 7.58123696e-002, 5.51801212e-002,
          6.66535273e-002, 1.26675069e-001, 6.29488900e-002,
          1.21358961e-001, 5.43259978e-002, 3.01534146e-001,
          1.71535119e-001, 7.13300705e-002, 5.98555990e-002,
          1.37594238e-001, 3.01534146e-001, 1.29492864e-001,
          1.13917992e-001, 8.61614421e-002, 1.71937570e-001,
          3.01534146e-001, 3.85886095e-002, 4.14896533e-002,
          8.51428658e-002, 3.01534146e-001, 8.57352540e-002,
          7.00395778e-002, 3.04085892e-002, 3.01534146e-001,
          3.22548181e-001, 2.96373107e-002, 2.15466097e-002,
          8.46830849e-003, 1.48768481e-002, 4.76870593e-003,
          7.61726499e-003, 1.00442050e-002, 3.22548181e-001,
          3.22548181e-001, 1.06380746e-001, 5.79041988e-002,
          5.58679141e-002, 1.39307603e-001, 4.92964685e-002,
          6.42797798e-002, 3.87211181e-002, 3.22548181e-001,
          3.22548181e-001, 9.33341309e-003, 1.01979850e-002,
          8.57339893e-003, 4.65273522e-002, 1.07792513e-002,
          8.31570476e-003, 7.62868347e-003, 3.22548181e-001,
          3.22548181e-001, 4.03966680e-002, 6.49433136e-002,
          6.01431020e-002, 3.06858271e-001, 7.80342668e-002,
          5.16341105e-002, 4.84284274e-002, 3.22548181e-001,
          2.53753155e-001, 1.51234090e-001, 9.63402390e-002,
          7.82913715e-002, 1.72456339e-001, 6.17641322e-002,
          7.55178630e-002, 6.05913885e-002, 2.53753155e-001,
          2.53753155e-001, 1.39831260e-001, 1.99363351e-001,
          9.22864154e-002, 2.22878456e-001, 9.87490490e-002,
          5.39485291e-002, 1.14647515e-001, 2.53753155e-001,
          2.53753155e-001, 8.43815878e-002, 5.62313125e-002,
          8.78216028e-002, 2.53753155e-001, 1.03112638e-001,
          5.26008084e-002, 8.20847303e-002, 2.53753155e-001,
          2.53692657e-001, 1.20844975e-001, 1.26249045e-001,
          1.72022000e-001, 2.53753155e-001, 1.44409806e-001,
          5.31458817e-002, 8.44683647e-002, 2.53753155e-001 ]
      - [ 2.35490307e-001, 1.15193009e-001, 7.54623041e-002,
          5.81881031e-002, 1.83359385e-001, 7.05764070e-002,
          1.08468875e-001, 1.23014070e-001, 2.29816601e-001,
          2.35490307e-001, 1.31554946e-001, 1.01572677e-001,
          1.39966473e-001, 2.35490307e-001, 1.21007338e-001,
          2.07843229e-001, 1.16672941e-001, 2.35490307e-001,
          2.35490307e-001, 1.92587525e-001, 1.81350529e-001,
          6.92164972e-002, 1.34472206e-001, 9.88326594e-002,
          1.55216888e-001, 1.47370026e-001, 2.35490307e-001,
          2.35490307e-001, 1.30101800e-001, 1.25068322e-001,
          1.18170425e-001, 2.11998612e-001, 8.90186056e-002,
          1.63562298e-001, 1.41720220e-001, 2.35490307e-001,
          3.25201899e-001, 9.03991684e-002, 5.60073443e-002,
          8.27065781e-002, 1.51223809e-001, 3.74850668e-002,
          6.60814047e-002, 4.41791452e-002, 3.25201899e-001,
          3.25201899e-001, 2.19276264e-001, 9.89092737e-002,
          1.88849010e-002, 1.59109123e-002, 2.50998721e-003,
          9.76960524e-004, 4.79003228e-003, 3.25201899e-001,
          3.25201899e-001, 4.56390269e-002, 2.59893574e-002,
          3.91601585e-002, 6.76398948e-002, 1.75614897e-002,
          4.34947833e-002, 4.26039398e-002, 3.25201899e-001,
          3.25201899e-001, 1.62757128e-001, 6.35493770e-002,
          1.85624915e-004, 2.82636436e-004, 6.63238578e-004,
          3.87662498e-004, 6.51424471e-003, 3.25201899e-001,
          2.66749352e-001, 2.66749352e-001, 2.55987436e-001,
          1.13474410e-002, 8.22339673e-003, 2.18760245e-003,
          7.54514616e-003, 4.76171775e-003, 1.84230953e-001,
          2.66749352e-001, 2.08857909e-001, 2.66749352e-001,
          1.04590952e-001, 1.86304420e-001, 3.97835299e-002,
          3.54627185e-002, 4.82058786e-002, 1.65743276e-001,
          2.66749352e-001, 2.47920632e-001, 1.64119959e-001,
          5.31806052e-003, 7.51177920e-003, 4.82591073e-004,
          3.51756113e-003, 6.12499146e-003, 2.66749352e-001,
          2.66749352e-001, 2.09796876e-001, 2.66749352e-001,
          1.07319154e-001, 1.73081502e-001, 3.23758572e-002,
          5.65263815e-002, 7.28014112e-002, 1.51223138e-001,
          1.15631513e-001, 2.19692752e-001, 2.31043726e-001,
          6.85075596e-002, 1.54162794e-001, 1.02459267e-001,
          1.83523715e-001, 6.74726292e-002, 1.36834428e-001,
          2.53277034e-001, 1.16885297e-001, 1.76216617e-001,
          6.95647597e-002, 1.46340117e-001, 7.21149892e-002,
          1.69527903e-001, 7.15755671e-002, 2.53277034e-001,
          1.75841615e-001, 2.41837054e-001, 2.21078694e-001,
          1.35486767e-001, 1.86673924e-001, 1.57281190e-001,
          2.53277034e-001, 4.46665846e-002, 1.00506537e-001,
          2.53277034e-001, 1.35551870e-001, 1.50496379e-001,
          7.43788853e-002, 6.00548387e-002, 1.36911392e-001,
          2.38372594e-001, 4.13684361e-002, 2.53277034e-001,
          3.44270319e-001, 3.35833244e-002, 6.05586059e-002,
          2.52306070e-002, 3.17003652e-002, 8.92024953e-003,
          3.04190610e-002, 2.21563112e-002, 3.44270319e-001,
          3.44270319e-001, 4.31007594e-002, 7.33852163e-002,
          1.22672850e-002, 5.77550207e-004, 7.37943745e-004,
          1.47995993e-003, 9.02096089e-003, 3.44270319e-001,
          3.44270319e-001, 5.15886210e-002, 8.40764567e-002,
          2.25349590e-002, 5.09787491e-003, 1.72512978e-002,
          2.79836766e-002, 1.38723487e-002, 3.44270319e-001,
          3.44270319e-001, 5.68031818e-002, 1.31215394e-001,
          2.59263162e-002, 1.74368301e-003, 1.59917609e-003,
          3.83236795e-003, 1.73156615e-002, 3.44270319e-001,
          3.11654299e-001, 4.89603765e-002, 5.47117814e-002,
          4.88075102e-003, 2.39146920e-003, 1.40143605e-003,
          7.63704185e-004, 6.36984315e-003, 3.11654299e-001,
          3.11654299e-001, 2.20819905e-001, 2.87566572e-001,
          5.04937023e-002, 3.50286923e-002, 7.26050651e-003,
          1.09849069e-002, 2.31795385e-002, 2.85774112e-001,
          3.11654299e-001, 4.51921932e-002, 8.98399651e-002,
          1.14003383e-002, 3.40077211e-003, 4.61947452e-003,
          2.17368547e-003, 1.42751820e-002, 3.11654299e-001,
          3.11654299e-001, 2.03628495e-001, 2.03457609e-001,
          1.13997627e-002, 6.58474769e-003, 5.68052242e-003,
          1.28229905e-003, 1.90330558e-002, 3.11654299e-001,
          1.61120176e-001, 1.27827898e-001, 1.14393041e-001,
          1.42614231e-001, 2.95853436e-001, 1.88762635e-001,
          1.90463930e-001, 5.95781021e-002, 7.53706247e-002,
          2.95853436e-001, 9.70542207e-002, 7.86219761e-002,
          8.57611522e-002, 2.07730204e-001, 1.49912283e-001,
          1.73545688e-001, 4.25505117e-002, 2.95853436e-001,
          6.70946315e-002, 5.85029200e-002, 1.12442613e-001,
          1.24370895e-001, 2.95853436e-001, 1.22376412e-001,
          7.73825198e-002, 3.17623504e-002, 7.16230348e-002,
          2.95853436e-001, 4.90018874e-002, 1.07097708e-001,
          9.27757546e-002, 2.95853436e-001, 1.08264372e-001,
          9.05983448e-002, 3.76890004e-002, 2.95853436e-001,
          3.42848271e-001, 2.79779173e-002, 2.63862256e-002,
          1.31736696e-002, 1.80572215e-002, 1.40123870e-002,
          1.60069335e-002, 5.18096099e-003, 3.42848271e-001,
          3.42848271e-001, 4.94349785e-002, 3.25562693e-002,
          1.12945959e-002, 2.19096653e-002, 7.21705519e-003,
          1.47366868e-002, 2.34548450e-002, 3.42848271e-001,
          3.42848271e-001, 1.84143372e-002, 1.32284081e-002,
          9.10964329e-003, 7.14924634e-002, 1.28248017e-002,
          1.61117185e-002, 1.11876680e-002, 3.42848271e-001,
          3.42848271e-001, 8.38475674e-002, 2.46755034e-002,
          4.75196205e-002, 1.55600160e-001, 2.43696589e-002,
          7.37786293e-002, 4.92239632e-002, 3.42848271e-001,
          3.04494351e-001, 4.95203733e-002, 5.68238609e-002,
          8.64528026e-003, 3.24691534e-002, 1.68125872e-002,
          1.45320306e-002, 3.54898311e-002, 3.04494351e-001,
          3.04494351e-001, 1.62805706e-001, 1.48625463e-001,
          3.05610076e-002, 1.07595608e-001, 4.73189726e-002,
          1.26521047e-002, 6.04649335e-002, 3.04494351e-001,
          3.04494351e-001, 6.07147813e-002, 3.67949381e-002,
          5.47832064e-002, 1.72235385e-001, 3.87124680e-002,
          6.45746812e-002, 4.96204905e-002, 3.04494351e-001,
          3.04494351e-001, 9.19014513e-002, 9.24176499e-002,
          7.61802867e-002, 3.04494351e-001, 1.05515540e-001,
          5.53899854e-002, 6.28686324e-002, 3.04494351e-001 ]
      - [ 2.43569374e-001, 1.24864615e-001, 3.47348899e-002,
          7.94074908e-002, 2.01958954e-001, 6.36437684e-002,
          3.44110727e-002, 1.00243308e-001, 2.43569374e-001,
          2.43569374e-001, 1.65601864e-001, 7.02025294e-002,
          1.11086175e-001, 2.43569374e-001, 9.45299938e-002,
          5.79938143e-002, 1.25798076e-001, 2.43569374e-001,
          2.43569374e-001, 1.83743000e-001, 1.31679192e-001,
          1.44854307e-001, 1.75745845e-001, 1.11255623e-001,
          6.39902130e-002, 1.07917957e-001, 2.43569374e-001,
          2.43569374e-001, 2.03331754e-001, 1.21801093e-001,
          1.95232198e-001, 1.91988111e-001, 1.40381381e-001,
          1.03544213e-001, 1.37726724e-001, 2.43569374e-001,
          3.02325100e-001, 1.28792912e-001, 1.07137740e-001,
          4.59285080e-002, 1.07376680e-001, 3.62718962e-002,
          3.33259478e-002, 4.16909866e-002, 3.02325100e-001,
          3.02325100e-001, 2.70590007e-001, 3.02325100e-001,
          2.65577659e-002, 3.30252089e-002, 1.17826378e-002,
          1.06407041e-002, 5.02489228e-003, 2.58176744e-001,
          3.02325100e-001, 1.02497876e-001, 8.49918723e-002,
          5.29142916e-002, 5.58282696e-002, 3.80308330e-002,
          4.13839482e-002, 4.84359637e-002, 3.02325100e-001,
          3.02325100e-001, 1.38659805e-001, 1.70324683e-001,
          1.71043966e-002, 1.43161891e-002, 6.67238608e-003,
          4.69130743e-003, 2.38946546e-003, 3.02325100e-001,
          2.64669001e-001, 2.12981239e-001, 2.64669001e-001,
          5.71769923e-002, 1.90800682e-001, 6.04099184e-002,
          3.44375111e-002, 2.83363443e-002, 1.35334268e-001,
          1.00773297e-001, 6.73772171e-002, 1.82029858e-001,
          1.45823985e-001, 2.64669001e-001, 1.55456945e-001,
          8.07972774e-002, 7.29118586e-002, 1.15320809e-001,
          2.64669001e-001, 1.69823006e-001, 2.64669001e-001,
          1.14368416e-001, 9.12103206e-002, 3.43888812e-002,
          3.25221308e-002, 1.27868475e-002, 2.64669001e-001,
          1.36866763e-001, 1.61013395e-001, 2.64669001e-001,
          2.52352864e-001, 2.64669001e-001, 1.03174120e-001,
          9.07815099e-002, 4.81085330e-002, 1.65472046e-001,
          1.44238934e-001, 1.79033265e-001, 1.71161160e-001,
          1.19572423e-001, 1.57273158e-001, 8.90178159e-002,
          1.82379320e-001, 7.75292441e-002, 1.22846268e-001,
          2.43127823e-001, 2.03511834e-001, 1.44300863e-001,
          1.23171419e-001, 9.26765800e-002, 9.49122608e-002,
          1.10325709e-001, 1.36715844e-001, 2.43127823e-001,
          2.19055206e-001, 1.75489411e-001, 1.24168128e-001,
          1.36004925e-001, 2.19618395e-001, 1.48060560e-001,
          2.43127823e-001, 1.24590911e-001, 1.56476185e-001,
          2.43127823e-001, 2.41106346e-001, 1.60062239e-001,
          1.08119100e-001, 4.09964323e-002, 9.55971628e-002,
          1.47932410e-001, 2.04118207e-001, 2.43127823e-001,
          3.35048676e-001, 1.24375507e-001, 6.37129396e-002,
          3.10837384e-002, 4.14384976e-002, 2.89801918e-002,
          3.14497836e-002, 5.72106056e-002, 3.35048676e-001,
          3.35048676e-001, 9.27390456e-002, 5.87377064e-002,
          1.41937686e-002, 1.97143555e-002, 4.10662638e-003,
          4.37031640e-003, 6.95372745e-003, 3.35048676e-001,
          3.35048676e-001, 1.47315979e-001, 6.21173382e-002,
          2.92385444e-002, 3.20585221e-002, 2.94179618e-002,
          3.49376388e-002, 9.07642096e-002, 3.35048676e-001,
          3.35048676e-001, 1.24261178e-001, 5.71444146e-002,
          1.10392338e-002, 3.39452736e-002, 7.66038429e-003,
          1.02796350e-002, 2.53010243e-002, 3.35048676e-001,
          2.69874722e-001, 1.45678714e-001, 2.05846816e-001,
          9.83720720e-002, 2.09688265e-002, 2.71791476e-003,
          4.08823136e-003, 5.13067050e-003, 2.69874722e-001,
          2.25015849e-001, 1.43102631e-001, 2.36562237e-001,
          2.01207891e-001, 2.69874722e-001, 4.48778719e-002,
          3.24377120e-002, 3.87898348e-002, 1.56365395e-001,
          2.69874722e-001, 1.85435504e-001, 1.37123123e-001,
          4.09349501e-002, 2.44092792e-002, 1.12869842e-002,
          9.97232273e-003, 3.65148485e-002, 2.69874722e-001,
          2.69874722e-001, 1.46610171e-001, 2.21921518e-001,
          9.82002169e-002, 2.69874722e-001, 6.33319542e-002,
          4.07198370e-002, 1.29803136e-001, 2.39187807e-001,
          1.65750146e-001, 1.11430280e-001, 6.90649822e-002,
          1.28360987e-001, 2.51841456e-001, 1.72847390e-001,
          1.45108491e-001, 8.44213739e-002, 1.44175529e-001,
          2.51841456e-001, 1.88384920e-001, 1.46088511e-001,
          1.33044660e-001, 1.17356285e-001, 1.14528984e-001,
          8.52563754e-002, 1.35808915e-001, 2.51841456e-001,
          1.36169225e-001, 1.32610247e-001, 1.75311148e-001,
          2.17123017e-001, 2.51841456e-001, 1.68380529e-001,
          7.46118128e-002, 1.10809363e-001, 8.88350457e-002,
          2.51841456e-001, 1.73981637e-001, 1.74655870e-001,
          1.62450239e-001, 2.08310068e-001, 1.43589735e-001,
          8.36258680e-002, 1.53493077e-001, 2.51841456e-001,
          3.45793813e-001, 6.94539845e-002, 6.31443560e-002,
          4.14553136e-002, 2.05287356e-002, 2.51096748e-002,
          2.28171963e-002, 5.18630780e-002, 3.45793813e-001,
          3.45793813e-001, 4.47436795e-002, 2.21019778e-002,
          9.66557674e-003, 4.57125045e-002, 1.95107833e-002,
          1.17537780e-002, 3.23315039e-002, 3.45793813e-001,
          3.45793813e-001, 3.95601876e-002, 6.80712312e-002,
          4.48048115e-002, 3.41757759e-002, 2.65353266e-002,
          2.86719371e-002, 3.20077688e-002, 3.45793813e-001,
          3.45793813e-001, 2.63380036e-002, 2.23518852e-002,
          1.75091773e-002, 6.81511611e-002, 1.86319370e-002,
          6.08378462e-003, 2.17995979e-002, 3.45793813e-001,
          2.59888560e-001, 1.38300180e-001, 1.03822038e-001,
          6.31056502e-002, 1.64294809e-001, 5.89382686e-002,
          3.00329290e-002, 7.15513676e-002, 2.59888560e-001,
          1.91279709e-001, 1.72126338e-001, 2.58045077e-001,
          1.10755660e-001, 2.59888560e-001, 1.06108300e-001,
          6.26889318e-002, 1.22894093e-001, 1.29282564e-001,
          2.59888560e-001, 1.03508480e-001, 9.00086462e-002,
          1.05242714e-001, 2.59888560e-001, 7.79264942e-002,
          5.11907078e-002, 8.26818272e-002, 2.59888560e-001,
          2.59888560e-001, 1.35837004e-001, 1.63597465e-001,
          2.25246444e-001, 2.59888560e-001, 1.44104674e-001,
          1.26900151e-001, 8.75808969e-002, 9.32828337e-002 ]
      - [ 1.32428229e-001, 1.53712347e-001, 9.16099399e-002,
          1.07182123e-001, 2.53480017e-001, 1.58116028e-001,
          6.31771460e-002, 1.83019772e-001, 1.27645165e-001,
          2.38021553e-001, 9.12543461e-002, 6.41729832e-002,
          5.98073192e-002, 2.53480017e-001, 1.47344947e-001,
          7.27277249e-002, 9.88029987e-002, 2.53480017e-001,
          2.53480017e-001, 2.15816930e-001, 8.53354186e-002,
          1.28788978e-001, 1.83928356e-001, 1.10731937e-001,
          1.24813445e-001, 2.53480017e-001, 2.53480017e-001,
          2.53480017e-001, 1.52835712e-001, 6.76771700e-002,
          9.19823572e-002, 1.90597773e-001, 7.63834938e-002,
          1.07983299e-001, 1.08846605e-001, 2.53480017e-001,
          3.35642070e-001, 1.66677982e-002, 2.16984544e-002,
          1.58200562e-002, 1.04265384e-001, 3.90862934e-002,
          1.53895812e-002, 3.07652671e-002, 3.35642070e-001,
          3.35642070e-001, 9.31643620e-002, 1.46127909e-001,
          3.08677908e-002, 1.56521965e-002, 2.15105899e-003,
          6.03947509e-003, 1.13975089e-002, 3.22215587e-001,
          3.35642070e-001, 6.23891279e-002, 1.22680999e-002,
          1.39191328e-002, 3.60383242e-002, 1.33751333e-002,
          1.71491597e-002, 5.77271134e-002, 3.35642070e-001,
          3.35642070e-001, 1.62919447e-001, 1.44952863e-001,
          2.04305295e-002, 9.62453079e-004, 1.45816687e-003,
          3.76339233e-003, 3.03615462e-002, 3.35642070e-001,
          2.53974795e-001, 2.20535487e-001, 2.27697387e-001,
          3.17168571e-002, 7.49212736e-003, 2.56152498e-003,
          7.05746561e-003, 6.35909382e-003, 2.25521758e-001,
          2.53974795e-001, 2.53974795e-001, 2.53974795e-001,
          6.18238710e-002, 1.48816973e-001, 3.98770347e-002,
          2.97239907e-002, 5.40525019e-002, 1.52886242e-001,
          2.53974795e-001, 2.38223910e-001, 2.35985309e-001,
          2.23696083e-002, 1.02020316e-002, 3.81136243e-003,
          5.27673680e-003, 9.42665245e-003, 2.53974795e-001,
          2.53974795e-001, 2.53974795e-001, 2.53974795e-001,
          7.76869208e-002, 2.06973627e-001, 5.85840419e-002,
          3.90787236e-002, 1.13681234e-001, 1.72518000e-001,
          1.26658112e-001, 8.49899352e-002, 5.97276315e-002,
          1.21497564e-001, 2.95402020e-001, 1.25487551e-001,
          1.25868335e-001, 1.97904333e-001, 2.37048402e-001,
          2.95402020e-001, 1.06882595e-001, 7.28643015e-002,
          8.76167044e-002, 1.88393846e-001, 6.45877048e-002,
          1.20166227e-001, 8.83906335e-002, 2.95402020e-001,
          1.38913363e-001, 7.29189664e-002, 5.37483767e-002,
          8.05831552e-002, 2.95402020e-001, 1.54860809e-001,
          1.29562020e-001, 9.14980397e-002, 2.49925673e-001,
          2.95402020e-001, 1.51188105e-001, 9.88274366e-002,
          4.18898873e-002, 1.32986188e-001, 6.06261529e-002,
          9.63348150e-002, 8.93579498e-002, 2.95402020e-001,
          3.45025569e-001, 5.59985824e-002, 2.93813180e-002,
          1.01083657e-002, 2.28745788e-002, 1.02224723e-002,
          1.72721427e-002, 2.68983636e-002, 3.45025569e-001,
          3.45025569e-001, 7.72948414e-002, 4.50843796e-002,
          1.68395834e-003, 1.35759648e-003, 1.42518245e-003,
          1.04223774e-003, 1.10442061e-002, 3.45025569e-001,
          3.45025569e-001, 8.89956430e-002, 6.12471029e-002,
          4.42772591e-003, 6.10333495e-003, 8.30754358e-003,
          9.04185418e-003, 1.27923582e-002, 3.45025569e-001,
          3.45025569e-001, 1.09559387e-001, 7.91736618e-002, 0.,
          1.18951034e-003, 2.72161374e-003, 8.05363583e-004,
          9.85524093e-005, 3.45025569e-001, 3.15448195e-001,
          8.18436593e-002, 5.78077808e-002, 2.44022324e-003,
          3.40909581e-003, 1.59880915e-003, 1.16290525e-003,
          3.15690576e-003, 3.15448195e-001, 3.15448195e-001,
          2.24068463e-001, 3.12194943e-001, 5.58845066e-002,
          3.86730954e-002, 1.68209150e-002, 9.63422563e-003,
          3.26099806e-002, 2.39011556e-001, 3.15448195e-001,
          5.48018478e-002, 5.44657521e-002, 1.24537647e-002,
          2.65259924e-003, 6.01434289e-003, 5.08638145e-003,
          5.11948997e-003, 3.15448195e-001, 3.15448195e-001,
          1.82612658e-001, 1.92258149e-001, 4.75237034e-002,
          1.22361286e-002, 1.40873492e-002, 1.05001079e-002,
          1.09142438e-002, 3.15448195e-001, 1.36804834e-001,
          5.63465431e-002, 4.66606133e-002, 3.52863222e-002,
          2.92427450e-001, 1.97889850e-001, 1.93899915e-001,
          7.33685270e-002, 1.48012981e-001, 2.92427450e-001,
          8.32789540e-002, 7.25334659e-002, 2.22375579e-002,
          1.27681553e-001, 9.81984884e-002, 1.04457006e-001,
          7.33390599e-002, 2.92427450e-001, 8.30060616e-002,
          4.84948494e-002, 1.09112076e-001, 1.13129802e-001,
          2.92427450e-001, 2.08902791e-001, 1.88811719e-001,
          4.79206964e-002, 6.17504939e-002, 2.92427450e-001,
          3.34247872e-002, 6.57001361e-002, 4.98164482e-002,
          2.61299878e-001, 2.44011149e-001, 1.97047606e-001,
          7.61574134e-002, 2.92427450e-001, 3.51700306e-001,
          3.44019011e-002, 2.37383079e-002, 1.76890183e-003,
          5.52920625e-003, 5.02038514e-003, 4.41474747e-003,
          8.70470610e-003, 3.51700306e-001, 3.51700306e-001,
          3.89263071e-002, 2.47878712e-002, 1.31803434e-004,
          9.90711735e-004, 1.74024503e-003, 1.10351329e-003,
          2.24992586e-003, 3.51700306e-001, 3.51700306e-001,
          4.36160760e-003, 4.91000433e-003, 3.15565406e-003,
          2.16527786e-002, 3.48510817e-002, 2.64602620e-002,
          1.68991610e-002, 3.51700306e-001, 3.51700306e-001,
          4.67528263e-003, 4.57042595e-004, 1.97705138e-003,
          7.93071743e-003, 5.41551085e-003, 4.68951277e-003,
          6.14332780e-003, 3.51700306e-001, 3.03138107e-001,
          3.57807390e-002, 4.71275821e-002, 1.75607409e-002,
          1.44178346e-002, 1.99106354e-002, 2.32183896e-002,
          3.25752124e-002, 3.03138107e-001, 3.03138107e-001,
          1.38134763e-001, 1.57658681e-001, 7.60062635e-002,
          9.22826380e-002, 6.39680326e-002, 6.19094595e-002,
          6.22548833e-002, 3.03138107e-001, 3.03138107e-001,
          3.53240594e-002, 9.52318497e-003, 2.07213126e-002,
          6.04820698e-002, 3.33989114e-002, 2.55118217e-002,
          3.71144339e-002, 3.03138107e-001, 3.03138107e-001,
          1.32338598e-001, 1.12336777e-001, 1.43950611e-001,
          3.03138107e-001, 1.29029244e-001, 1.06141008e-001,
          8.09477121e-002, 3.03138107e-001 ]
      - [ 1.23819992e-001, 1.64701030e-001, 1.78616181e-001,
          1.08893096e-001, 2.40117669e-001, 6.21658526e-002,
          1.58201307e-001, 1.17410630e-001, 1.02188520e-001,
          2.50640601e-001, 2.50640601e-001, 2.50640601e-001,
          1.09266914e-001, 1.28367051e-001, 5.61346970e-002,
          4.72624041e-002, 9.07882079e-002, 2.50640601e-001,
          9.61355418e-002, 9.42673832e-002, 1.12952799e-001,
          1.26123801e-001, 2.50640601e-001, 1.21123284e-001,
          1.72399163e-001, 7.30445907e-002, 9.41892266e-002,
          2.50640601e-001, 2.17641816e-001, 2.12669462e-001,
          1.32570550e-001, 2.50640601e-001, 1.13988824e-001,
          1.51110977e-001, 6.70570433e-002, 2.50640601e-001,
          3.07872355e-001, 2.55962044e-001, 1.60058022e-001,
          2.90760007e-002, 1.69280637e-002, 1.00534074e-002,
          1.53996712e-002, 3.59122008e-002, 3.07872355e-001,
          3.07872355e-001, 2.06590444e-001, 9.29542780e-002,
          3.82827059e-003, 1.58203542e-002, 2.81286513e-004,
          3.86634357e-002, 7.32682794e-002, 3.07872355e-001,
          3.07872355e-001, 1.85055166e-001, 1.36558980e-001,
          3.81336398e-002, 9.30888355e-002, 6.86693639e-002,
          4.20972556e-002, 3.08737773e-002, 3.07872355e-001,
          3.07872355e-001, 1.00006059e-001, 3.99134085e-002,
          3.80917429e-003, 2.52719056e-002, 2.98328809e-002,
          1.63311940e-002, 4.93859574e-002, 3.07872355e-001,
          2.81373680e-001, 1.40264362e-001, 1.09978579e-001,
          8.07023793e-003, 1.09308278e-002, 9.15721117e-004,
          2.09042709e-002, 4.50593755e-002, 2.81373680e-001,
          2.81373680e-001, 2.56500959e-001, 2.81373680e-001,
          5.19774482e-002, 3.96920368e-002, 9.25364159e-003,
          2.07933430e-002, 2.11627632e-002, 2.55701333e-001,
          2.81373680e-001, 1.38357267e-001, 1.12451136e-001,
          2.04942375e-002, 7.30401278e-003, 1.41692879e-002,
          2.45275255e-002, 8.17817524e-002, 2.81373680e-001,
          2.81373680e-001, 2.81373680e-001, 2.81373680e-001,
          6.93774894e-002, 6.18055053e-002, 4.72093560e-002,
          4.66618650e-002, 8.84598494e-002, 2.30631024e-001,
          3.23900022e-002, 4.10528891e-002, 5.82087897e-002,
          1.15656190e-001, 3.06288451e-001, 1.21066384e-001,
          1.27240866e-001, 3.61781791e-002, 5.64093441e-002,
          6.99909776e-002, 1.43158823e-001, 2.02756837e-001,
          2.12310195e-001, 3.06288451e-001, 1.75951391e-001,
          1.28787473e-001, 3.55932973e-002, 1.05967171e-001,
          1.66046679e-001, 6.57105669e-002, 1.20806769e-001,
          1.19721860e-001, 3.06288451e-001, 1.30034640e-001,
          1.53095558e-001, 1.34179741e-001, 1.80781066e-001,
          1.65589303e-001, 1.02250725e-001, 1.60475850e-001,
          2.30676383e-001, 3.06288451e-001, 2.73369104e-001,
          1.68660045e-001, 8.95148218e-002, 1.23904884e-001,
          1.76073581e-001, 1.58901453e-001, 1.56455249e-001,
          1.32779092e-001, 2.88373798e-001, 1.59553126e-001,
          7.67245293e-002, 2.57490035e-002, 1.47601500e-001,
          2.88373798e-001, 1.21416688e-001, 6.80904463e-002,
          5.36789373e-002, 1.06074370e-001, 9.11153257e-002,
          6.01002611e-002, 4.42181677e-002, 2.88373798e-001,
          1.98535368e-001, 6.84618503e-002, 1.27636001e-001,
          2.10534692e-001, 2.88373798e-001, 1.83107823e-001,
          1.25846103e-001, 7.92661756e-002, 1.71642601e-001,
          2.88373798e-001, 1.14733487e-001, 1.09885655e-001,
          1.29938856e-001, 1.35660604e-001, 1.22764170e-001,
          1.46015555e-001, 1.08998291e-001, 2.88373798e-001,
          2.53901660e-001, 1.24697782e-001, 7.18986541e-002,
          2.20855772e-002, 2.48367731e-002, 5.26034273e-002,
          9.04595852e-002, 6.94705546e-002, 2.53901660e-001,
          2.06189707e-001, 2.28248700e-001, 2.14931518e-001,
          1.25786081e-001, 1.55475751e-001, 1.28944695e-001,
          1.32814690e-001, 7.65594691e-002, 1.91477358e-001,
          2.53901660e-001, 1.23514868e-001, 8.14522207e-002,
          3.85693349e-002, 6.14766479e-002, 1.34777397e-001,
          1.70052558e-001, 1.22135609e-001, 2.53901660e-001,
          1.72193155e-001, 2.53901660e-001, 2.48186141e-001,
          2.00283080e-001, 1.77712098e-001, 2.10298553e-001,
          2.41389722e-001, 9.42317098e-002, 1.28320530e-001,
          2.22278744e-001, 1.07019134e-001, 9.15506408e-002,
          6.93446472e-002, 1.14040405e-001, 9.82040241e-002,
          1.14350922e-001, 1.73347041e-001, 2.22278744e-001,
          2.22278744e-001, 1.23062596e-001, 9.07159746e-002,
          1.00987770e-001, 2.02299595e-001, 1.73942432e-001,
          1.35161743e-001, 1.80819035e-001, 2.21943408e-001,
          1.78577662e-001, 1.77603334e-001, 6.21766895e-002,
          1.03120372e-001, 2.22278744e-001, 1.57754242e-001,
          1.37992740e-001, 1.91772297e-001, 1.98390424e-001,
          2.22278744e-001, 1.74594522e-001, 1.08410344e-001,
          1.05897240e-001, 2.22278744e-001, 2.22278744e-001,
          1.57257497e-001, 2.22278744e-001, 1.75910726e-001,
          2.68299311e-001, 1.05899096e-001, 6.49498701e-002,
          8.42682645e-002, 1.43760890e-001, 1.05213933e-001,
          1.02695949e-001, 1.41523406e-001, 2.68299311e-001,
          2.68299311e-001, 1.24061003e-001, 6.16816469e-002,
          7.54573867e-002, 1.02632239e-001, 8.03561285e-002,
          1.41818389e-001, 1.34846330e-001, 2.68299311e-001,
          2.68299311e-001, 1.88914984e-001, 1.05071217e-001,
          7.07235560e-002, 1.00229830e-001, 9.06070173e-002,
          1.15973763e-001, 1.96887255e-001, 2.68299311e-001,
          2.68299311e-001, 2.36128762e-001, 1.46671340e-001,
          1.42405674e-001, 1.22470267e-001, 3.18903849e-002,
          1.12141199e-001, 8.98826942e-002, 2.68299311e-001,
          2.60921359e-001, 8.95285308e-002, 7.09136873e-002,
          6.44029677e-002, 9.41390842e-002, 1.04661264e-001,
          1.39117077e-001, 1.14446446e-001, 2.60921359e-001,
          1.61868379e-001, 1.67618483e-001, 1.36698142e-001,
          1.53340921e-001, 1.09704897e-001, 1.59517989e-001,
          2.60921359e-001, 1.70308113e-001, 1.85868561e-001,
          2.60921359e-001, 1.45853952e-001, 1.18964791e-001,
          7.86992237e-002, 1.11961603e-001, 4.07365225e-002,
          1.30861655e-001, 6.70871064e-002, 2.60921359e-001,
          2.60921359e-001, 7.05351681e-002, 4.80630398e-002,
          4.71663736e-002, 1.19468480e-001, 1.28297955e-001,
          2.60921359e-001, 2.60921359e-001, 2.60921359e-001 ]
      - [ 1.22910105e-001, 7.42563158e-002, 1.89748928e-001,
          8.19812492e-002, 2.55624503e-001, 4.82218713e-002,
          1.92201689e-001, 1.24275677e-001, 1.80324510e-001,
          2.55624503e-001, 2.00474873e-001, 2.55624503e-001,
          7.86217600e-002, 1.15248054e-001, 4.14237790e-002,
          1.23493955e-001, 9.10743251e-002, 2.55624503e-001,
          1.03188828e-001, 6.18666634e-002, 1.12634271e-001,
          1.06995627e-001, 2.55624503e-001, 1.34242058e-001,
          1.33942619e-001, 9.21412334e-002, 1.14414930e-001,
          2.55624503e-001, 1.76519334e-001, 2.37608165e-001,
          1.30150810e-001, 2.55624503e-001, 1.45003393e-001,
          6.23913035e-002, 1.16523698e-001, 2.55624503e-001,
          3.25844467e-001, 1.33827895e-001, 2.23885924e-001,
          2.21353956e-002, 1.82430912e-002, 8.30210559e-003,
          1.98936611e-002, 3.33954766e-002, 3.25844467e-001,
          3.25844467e-001, 6.61773756e-002, 1.11111984e-001,
          6.88969111e-003, 1.87846534e-002, 6.47960184e-003,
          3.80279642e-004, 9.12975240e-003, 3.25844467e-001,
          3.25844467e-001, 1.17298596e-001, 1.63164794e-001,
          4.49561849e-002, 7.30540603e-002, 6.28939718e-002,
          1.22028058e-002, 3.72554958e-002, 3.25844467e-001,
          3.25844467e-001, 4.67558280e-002, 5.64401671e-002,
          8.30879156e-003, 1.27677592e-002, 2.53683031e-002,
          7.56025966e-003, 1.10584572e-002, 3.25844467e-001,
          2.88807452e-001, 9.70340893e-002, 1.32839978e-001,
          1.60054024e-002, 1.22884326e-002, 5.77601511e-003,
          3.17588961e-003, 7.38781178e-003, 2.88807452e-001,
          2.88807452e-001, 2.88807452e-001, 2.88807452e-001,
          7.43029639e-002, 3.12589817e-002, 1.24318385e-002,
          2.41894666e-002, 1.37377661e-002, 1.64827034e-001,
          2.88807452e-001, 1.54095516e-001, 1.41737819e-001,
          2.92061791e-002, 7.59853097e-003, 2.51055993e-002,
          2.95606013e-002, 2.87225544e-002, 2.88807452e-001,
          2.88807452e-001, 2.88807452e-001, 2.88807452e-001,
          6.95432872e-002, 1.12638231e-002, 4.97803129e-002,
          5.36376759e-002, 6.44641742e-002, 1.98257685e-001,
          3.05766799e-002, 4.10918891e-002, 5.34913540e-002,
          1.13354117e-001, 2.99148142e-001, 1.49035320e-001,
          7.46009797e-002, 4.66747619e-002, 2.62706857e-002,
          9.02531445e-002, 1.42938122e-001, 2.19195217e-001,
          2.42755890e-001, 2.99148142e-001, 2.16459334e-001,
          4.73844670e-002, 6.84885979e-002, 8.69919732e-002,
          2.06078485e-001, 7.94244632e-002, 9.49540362e-002,
          1.22450374e-001, 2.99148142e-001, 9.99684408e-002,
          7.66416714e-002, 5.95364235e-002, 1.94944695e-001,
          1.56066522e-001, 9.31240916e-002, 1.86499700e-001,
          2.47252718e-001, 2.99148142e-001, 2.45307207e-001,
          1.97434872e-001, 9.48964432e-002, 1.60785273e-001,
          2.22185567e-001, 1.12137198e-001, 1.81317374e-001,
          1.38045192e-001, 2.81433225e-001, 1.49013504e-001,
          3.33428644e-002, 5.32303713e-002, 1.84263572e-001,
          2.81433225e-001, 7.08926469e-002, 8.28412771e-002,
          4.64071371e-002, 6.35001734e-002, 8.10514912e-002,
          4.70220968e-002, 5.86623810e-002, 2.81433225e-001,
          1.93130732e-001, 1.04003623e-001, 1.44128695e-001,
          2.13535801e-001, 2.81433225e-001, 1.92641541e-001,
          1.40101835e-001, 7.82354325e-002, 1.88003749e-001,
          2.81433225e-001, 1.37075692e-001, 1.19195081e-001,
          1.14194170e-001, 7.35398978e-002, 1.28923938e-001,
          1.52613342e-001, 1.16775170e-001, 2.81433225e-001,
          2.51992255e-001, 1.02737106e-001, 8.89770463e-002,
          4.45273034e-002, 4.58173566e-002, 6.38517216e-002,
          9.97727066e-002, 6.34932071e-002, 2.51992255e-001,
          2.09918454e-001, 2.24209264e-001, 2.12187067e-001,
          1.11874774e-001, 9.24875587e-002, 1.17961735e-001,
          1.25977308e-001, 1.15621999e-001, 1.82771102e-001,
          2.51992255e-001, 1.12335652e-001, 1.40146509e-001,
          7.38066137e-002, 1.60789624e-001, 1.36781290e-001,
          1.44345134e-001, 1.38183549e-001, 2.51992255e-001,
          1.90267041e-001, 2.51992255e-001, 2.51992255e-001,
          2.19914272e-001, 2.51992255e-001, 1.42726004e-001,
          1.32420063e-001, 1.53623894e-001, 8.42981786e-002,
          2.51191169e-001, 1.16472319e-001, 9.91514325e-002,
          7.58113861e-002, 1.11045443e-001, 6.83895275e-002,
          7.54687712e-002, 1.09848022e-001, 2.51191169e-001,
          2.51191169e-001, 9.49725211e-002, 1.30584955e-001,
          9.53359008e-002, 1.55668035e-001, 1.03694841e-001,
          1.19032010e-001, 9.79887173e-002, 2.51191169e-001,
          2.43646920e-001, 1.13320798e-001, 1.20492026e-001,
          9.88352150e-002, 2.51191169e-001, 1.24979377e-001,
          2.10759893e-001, 1.41287357e-001, 2.19783306e-001,
          2.51191169e-001, 2.16913834e-001, 1.71165779e-001,
          1.29899919e-001, 2.38428473e-001, 8.05715844e-002,
          1.00180827e-001, 8.11258256e-002, 2.51191169e-001,
          2.79859990e-001, 9.01997015e-002, 9.81859267e-002,
          9.35660154e-002, 7.52109662e-002, 8.59265104e-002,
          1.07411787e-001, 6.36279285e-002, 2.79859990e-001,
          2.79859990e-001, 1.03132769e-001, 7.71371871e-002,
          1.12646565e-001, 5.78332059e-002, 7.81373456e-002,
          1.52281031e-001, 1.05078980e-001, 2.79859990e-001,
          2.79859990e-001, 2.73260862e-001, 1.95066288e-001,
          7.30537251e-002, 3.57092470e-002, 1.88812204e-002,
          5.18959686e-002, 4.26208526e-002, 2.79859990e-001,
          2.79859990e-001, 2.51020700e-001, 1.78717688e-001,
          1.15604065e-001, 6.94094673e-002, 1.38336243e-002,
          4.01556827e-002, 5.81266396e-002, 2.79859990e-001,
          2.54333079e-001, 7.50955269e-002, 9.57435966e-002,
          1.02747582e-001, 1.22668579e-001, 9.52105001e-002,
          1.21244639e-001, 1.41940221e-001, 2.54333079e-001,
          2.23864034e-001, 1.64858952e-001, 1.59345269e-001,
          1.77662238e-001, 1.58160791e-001, 7.52469748e-002,
          1.46950498e-001, 1.86901703e-001, 2.48360991e-001,
          2.54333079e-001, 1.11006334e-001, 7.80975223e-002,
          8.25164840e-002, 8.31943601e-002, 2.87711900e-002,
          1.02332689e-001, 1.88657820e-001, 2.54333079e-001,
          2.54333079e-001, 6.80890903e-002, 4.97934334e-002,
          9.24705267e-002, 1.66772589e-001, 6.19353913e-002,
          2.25485772e-001, 2.54333079e-001, 2.54333079e-001 ]
      - [ 7.78310373e-002, 1.02612101e-001, 1.76792756e-001,
          9.03367549e-002, 1.25078633e-001, 6.53303936e-002,
          2.23746344e-001, 2.28163660e-001, 2.00989038e-001,
          2.32283160e-001, 2.32283160e-001, 2.32283160e-001,
          1.34586602e-001, 9.78608355e-002, 1.25476465e-001,
          8.22210386e-002, 1.84441805e-001, 2.32283160e-001,
          9.41324085e-002, 8.53236020e-002, 1.60532340e-001,
          1.18515126e-001, 2.32283160e-001, 1.45820633e-001,
          1.44483760e-001, 9.43806097e-002, 1.27386481e-001,
          2.32283160e-001, 2.04355806e-001, 1.96288645e-001,
          1.41788557e-001, 2.13835090e-001, 1.41669810e-001,
          1.10675059e-001, 1.25186697e-001, 2.32283160e-001,
          2.85310954e-001, 2.39344552e-001, 1.71345502e-001,
          1.93641722e-001, 1.38523370e-001, 1.26774088e-001,
          5.65772578e-002, 1.29536167e-001, 1.70038879e-001,
          2.85310954e-001, 1.14276767e-001, 7.39009306e-002,
          1.23392299e-001, 1.30162984e-001, 7.17695728e-002,
          3.56805585e-002, 6.43447936e-002, 2.85310954e-001,
          2.85310954e-001, 1.83754846e-001, 1.04963325e-001,
          1.57291293e-001, 1.54446796e-001, 1.25619918e-001,
          7.23575503e-002, 1.14670098e-001, 2.77494192e-001,
          2.85310954e-001, 7.59993643e-002, 3.70051488e-002,
          9.44031477e-002, 9.01437774e-002, 7.19100088e-002,
          3.16984244e-002, 6.54304847e-002, 2.85310954e-001,
          2.92720765e-001, 5.56361228e-002, 6.91277161e-002,
          1.12891858e-002, 1.56492162e-002, 8.47158208e-003,
          7.08904257e-003, 8.73179454e-003, 2.92720765e-001,
          2.92720765e-001, 2.06880972e-001, 2.92720765e-001,
          3.64425778e-002, 1.67638548e-002, 1.82439461e-002,
          4.38099317e-002, 3.50150391e-002, 2.81400830e-001,
          2.92720765e-001, 1.33387208e-001, 9.72178653e-002,
          1.27880005e-002, 1.19074052e-002, 1.04135331e-002,
          9.65998881e-003, 2.29754150e-002, 2.92720765e-001,
          2.92720765e-001, 2.92720765e-001, 2.92720765e-001,
          5.01198098e-002, 4.08653542e-002, 2.14681346e-002,
          2.79100891e-002, 3.40331122e-002, 2.35646918e-001,
          3.67033482e-002, 3.96560691e-002, 6.55120611e-002,
          8.34923908e-002, 2.94208795e-001, 1.40978917e-001,
          1.29866108e-001, 5.38356379e-002, 6.45173267e-002,
          1.64585814e-001, 1.09205075e-001, 1.48517504e-001,
          1.76187977e-001, 2.94208795e-001, 1.95136964e-001,
          1.43832505e-001, 8.88338685e-002, 2.34543160e-001,
          1.80514306e-001, 9.88133103e-002, 6.85616732e-002,
          1.32688388e-001, 2.94208795e-001, 9.58755836e-002,
          8.18897486e-002, 3.14698182e-002, 1.31651416e-001,
          9.40396264e-002, 1.37395322e-001, 1.89867437e-001,
          2.82750428e-001, 2.94208795e-001, 2.34256238e-001,
          2.15364322e-001, 1.23807169e-001, 1.40989810e-001,
          2.47455314e-001, 9.77056250e-002, 1.12380080e-001,
          1.75118893e-001, 2.52138078e-001, 1.20004065e-001,
          8.33207816e-002, 8.73320773e-002, 2.21162528e-001,
          2.74990797e-001, 6.24410249e-002, 5.93520217e-002,
          1.10226184e-001, 9.79508013e-002, 4.40155044e-002,
          3.01435571e-002, 6.83157966e-002, 2.74990797e-001,
          1.25092819e-001, 1.09018281e-001, 1.80772677e-001,
          2.27421016e-001, 2.74990797e-001, 2.27374837e-001,
          1.16087481e-001, 1.20873965e-001, 1.65482372e-001,
          2.74990797e-001, 8.53564441e-002, 1.38042241e-001,
          1.36063397e-001, 1.63283810e-001, 1.40927196e-001,
          8.21231157e-002, 9.85735878e-002, 2.74990797e-001,
          2.62275577e-001, 9.90945995e-002, 5.12844212e-002,
          4.53158133e-002, 3.81068178e-002, 3.60262506e-002,
          3.34971882e-002, 5.61090522e-002, 2.62275577e-001,
          2.62275577e-001, 2.13067591e-001, 2.11568385e-001,
          1.24374896e-001, 1.63641721e-001, 7.32252523e-002,
          7.27241039e-002, 7.63035417e-002, 2.48105496e-001,
          2.62275577e-001, 7.33187348e-002, 7.63301849e-002,
          1.33391425e-001, 8.28675330e-002, 6.39364868e-002,
          9.29601043e-002, 1.09966606e-001, 2.62275577e-001,
          2.45583698e-001, 1.86530724e-001, 2.62275577e-001,
          2.62275577e-001, 2.30750620e-001, 1.00918412e-001,
          1.09860018e-001, 1.11729451e-001, 2.00318500e-001,
          2.47053266e-001, 1.36388868e-001, 6.65766448e-002,
          9.45870876e-002, 1.60300687e-001, 5.79369813e-002,
          7.30650052e-002, 7.48769939e-002, 2.38432124e-001,
          2.20333591e-001, 1.32422626e-001, 1.47480160e-001,
          1.52899444e-001, 2.47053266e-001, 1.40347868e-001,
          1.46004617e-001, 1.50224939e-001, 1.65074661e-001,
          1.94987506e-001, 1.38114229e-001, 1.15344033e-001,
          9.97714326e-002, 2.47053266e-001, 7.16880187e-002,
          1.90717012e-001, 1.32427558e-001, 2.08279312e-001,
          2.47053266e-001, 1.55481040e-001, 2.47053266e-001,
          1.93694696e-001, 2.47053266e-001, 7.78081194e-002,
          8.80895033e-002, 1.35761857e-001, 1.54032066e-001,
          1.75429791e-001, 1.35412097e-001, 1.69758558e-001,
          9.70910043e-002, 2.16517225e-001, 1.68648586e-001,
          1.23917587e-001, 1.31066427e-001, 1.75656274e-001,
          2.50105947e-001, 1.02707490e-001, 1.12612858e-001,
          5.25135063e-002, 1.04963094e-001, 1.59557790e-001,
          1.35558426e-001, 9.66876745e-002, 2.50105947e-001,
          2.50105947e-001, 2.05407739e-001, 2.50105947e-001,
          9.07984301e-002, 2.37438232e-001, 5.62756062e-002,
          8.52025896e-002, 1.22014359e-001, 2.02599108e-001,
          2.50105947e-001, 2.42506728e-001, 2.29643956e-001,
          4.01275903e-002, 6.23173937e-002, 8.22004750e-002,
          6.47568777e-002, 6.90091699e-002, 2.50105947e-001,
          2.56018370e-001, 7.85307512e-002, 7.24739954e-002,
          9.45045799e-002, 1.07516684e-001, 8.35790858e-002,
          1.13502674e-001, 9.86777022e-002, 2.56018370e-001,
          2.49406680e-001, 1.22564368e-001, 2.23819464e-001,
          2.12830082e-001, 1.58536032e-001, 9.77698863e-002,
          1.89462706e-001, 1.38181552e-001, 1.89477786e-001,
          2.56018370e-001, 1.56257719e-001, 9.24187079e-002,
          4.89963405e-002, 7.96042308e-002, 9.01622474e-002,
          7.70013332e-002, 8.35317895e-002, 2.56018370e-001,
          2.56018370e-001, 9.77461860e-002, 7.07790703e-002,
          4.66192923e-002, 8.27294439e-002, 1.64460912e-001,
          2.56018370e-001, 2.56018370e-001, 2.56018370e-001 ]
      - [ 1.53959855e-001, 1.05141200e-001, 1.12983346e-001,
          8.91916007e-002, 1.10201448e-001, 5.24266548e-002,
          2.34230429e-001, 2.26780578e-001, 2.34230429e-001,
          2.34230429e-001, 2.10170239e-001, 2.34230429e-001,
          1.48100883e-001, 1.40778974e-001, 1.13683984e-001,
          1.66704625e-001, 1.22875646e-001, 2.34230429e-001,
          1.28003180e-001, 1.11921467e-001, 1.36961162e-001,
          9.47945565e-002, 2.34230429e-001, 8.99313018e-002,
          1.41885936e-001, 1.13786377e-001, 1.52367771e-001,
          2.34230429e-001, 1.91486403e-001, 2.34230429e-001,
          9.53470767e-002, 1.94190249e-001, 7.86879584e-002,
          1.17008001e-001, 1.26322314e-001, 2.34230429e-001,
          1.87257215e-001, 2.18262315e-001, 2.33590439e-001,
          1.15547262e-001, 1.47823378e-001, 1.02702267e-001,
          1.29653290e-001, 1.40889093e-001, 1.71657488e-001,
          2.33590439e-001, 2.11042553e-001, 1.79926440e-001,
          6.55761883e-002, 1.04143165e-001, 7.46572167e-002,
          1.18491501e-001, 1.53149158e-001, 2.33590439e-001,
          2.33590439e-001, 1.78749442e-001, 2.07179412e-001,
          6.96023256e-002, 1.11309431e-001, 8.44321027e-002,
          1.22076675e-001, 1.75796092e-001, 2.33590439e-001,
          2.33590439e-001, 1.73234999e-001, 1.45813316e-001,
          7.87949711e-002, 8.48740637e-002, 1.04446702e-001,
          1.60694420e-001, 1.98861539e-001, 2.33590439e-001,
          2.61163563e-001, 1.19393550e-001, 1.10728472e-001,
          2.47026868e-002, 3.62431295e-002, 3.16733159e-002,
          6.11853227e-002, 9.99697223e-002, 2.61163563e-001,
          2.61163563e-001, 2.36100420e-001, 2.61163563e-001,
          7.11344555e-002, 1.00328974e-001, 3.10530812e-002,
          1.36873215e-001, 1.20327786e-001, 2.61163563e-001,
          2.61163563e-001, 1.99402660e-001, 2.03665107e-001,
          7.31555894e-002, 3.52691785e-002, 5.31940609e-002,
          8.40242133e-002, 1.01387091e-001, 2.61163563e-001,
          2.61163563e-001, 2.61163563e-001, 2.61163563e-001,
          9.89279747e-002, 7.11686090e-002, 2.48394366e-002,
          5.71300015e-002, 5.87414280e-002, 1.92120329e-001,
          6.66832030e-002, 4.67681549e-002, 7.01880828e-002,
          8.33274052e-002, 3.08510125e-001, 1.08212143e-001,
          1.44183353e-001, 6.44509643e-002, 5.85961640e-002,
          2.02291310e-001, 1.18255176e-001, 2.46824205e-001,
          1.52874738e-001, 3.08510125e-001, 1.40980348e-001,
          1.26514912e-001, 6.78010955e-002, 1.74777091e-001,
          1.43387958e-001, 5.50992787e-002, 1.07903540e-001,
          1.29862592e-001, 3.08510125e-001, 1.25440985e-001,
          8.13304633e-002, 4.02526036e-002, 1.28727466e-001,
          9.26079825e-002, 8.97729322e-002, 2.66201466e-001,
          2.13811681e-001, 3.08510125e-001, 2.73789674e-001,
          1.86042055e-001, 5.97444400e-002, 9.15891230e-002,
          1.92079410e-001, 1.12522990e-001, 1.79766372e-001,
          1.32288173e-001, 2.51634866e-001, 1.44175872e-001,
          9.15129110e-002, 6.24511503e-002, 1.84790879e-001,
          2.51634866e-001, 1.37816325e-001, 6.33185878e-002,
          1.05553947e-001, 1.84178889e-001, 1.43895760e-001,
          8.30814242e-002, 8.24129060e-002, 2.51634866e-001,
          9.87133086e-002, 8.07726532e-002, 1.73409954e-001,
          2.24940911e-001, 2.51634866e-001, 2.23710984e-001,
          1.18741691e-001, 4.80247326e-002, 1.31055459e-001,
          2.51634866e-001, 1.56798154e-001, 1.21382482e-001,
          1.80976704e-001, 2.38685593e-001, 1.52906477e-001,
          9.98856574e-002, 7.45031163e-002, 2.51634866e-001,
          2.43634969e-001, 1.70518100e-001, 1.22389980e-001,
          9.20685157e-002, 7.64652193e-002, 7.89864808e-002,
          6.53775632e-002, 6.69281706e-002, 2.43634969e-001,
          2.32085705e-001, 2.43634969e-001, 2.43634969e-001,
          1.01380780e-001, 1.60948157e-001, 6.05824329e-002,
          7.94681087e-002, 4.49614860e-002, 1.84729308e-001,
          2.43634969e-001, 1.63293317e-001, 1.60712078e-001,
          9.24592987e-002, 1.63262397e-001, 1.28284350e-001,
          9.16686356e-002, 7.63175562e-002, 2.43634969e-001,
          2.28780732e-001, 2.43634969e-001, 2.43634969e-001,
          1.76474437e-001, 2.43634969e-001, 1.23038612e-001,
          9.71548557e-002, 6.84572458e-002, 1.50547996e-001,
          2.45748267e-001, 9.89810377e-002, 1.03771478e-001,
          7.75030032e-002, 1.45647570e-001, 7.40111768e-002,
          7.82976300e-002, 8.99798498e-002, 2.45748267e-001,
          2.45748267e-001, 8.86969864e-002, 1.48131788e-001,
          9.01574716e-002, 2.28796512e-001, 1.59717470e-001,
          1.38487011e-001, 8.76910239e-002, 2.45748267e-001,
          2.45748267e-001, 1.26318604e-001, 1.35644749e-001,
          7.47220591e-002, 2.45748267e-001, 1.18612841e-001,
          1.55407712e-001, 1.39857173e-001, 2.36332729e-001,
          2.45748267e-001, 2.05385774e-001, 1.80926055e-001,
          8.88068676e-002, 1.99642003e-001, 1.06548257e-001,
          1.00085966e-001, 8.15344155e-002, 2.45748267e-001,
          2.78287023e-001, 8.07301328e-002, 1.08287252e-001,
          9.52016935e-002, 1.51254356e-001, 1.21966839e-001,
          6.96520433e-002, 4.75330614e-002, 2.78287023e-001,
          2.78287023e-001, 1.31662875e-001, 1.20563291e-001,
          1.30657300e-001, 1.15239486e-001, 8.10087100e-002,
          9.87011492e-002, 6.78941533e-002, 2.78287023e-001,
          2.78287023e-001, 2.43075982e-001, 1.72514558e-001,
          2.42411550e-002, 3.32906730e-002, 5.09479791e-002,
          5.02134860e-002, 3.22307982e-002, 2.78287023e-001,
          2.78287023e-001, 2.17827380e-001, 1.59506723e-001,
          5.37421890e-002, 1.75140247e-001, 5.46567515e-002,
          1.21032067e-001, 3.96683514e-002, 2.78287023e-001,
          2.37581253e-001, 1.30965889e-001, 1.46421030e-001,
          8.84672552e-002, 1.41674057e-001, 1.24386519e-001,
          1.11826591e-001, 7.69017264e-002, 2.37581253e-001,
          1.49257794e-001, 1.96524918e-001, 2.29606658e-001,
          1.35497898e-001, 1.96346954e-001, 1.34172261e-001,
          1.42545760e-001, 1.02192849e-001, 1.78920373e-001,
          2.37581253e-001, 1.25441149e-001, 1.27636969e-001,
          6.43364862e-002, 1.97864056e-001, 1.30635768e-001,
          1.91436395e-001, 9.43303406e-002, 2.37581253e-001,
          1.91880330e-001, 9.10688937e-002, 8.30565691e-002,
          3.81371193e-002, 1.72841713e-001, 1.96498469e-001,
          2.37581253e-001, 2.17692018e-001, 2.37581253e-001 ]
      - [ 1.13063417e-001, 1.10891640e-001, 1.83335260e-001,
          1.16290726e-001, 1.38607770e-001, 4.90729958e-002,
          2.06364006e-001, 1.84472993e-001, 1.85892269e-001,
          1.83662906e-001, 1.74062625e-001, 2.28333995e-001,
          2.03618258e-001, 1.44433916e-001, 1.40025258e-001,
          1.19504742e-001, 1.58910349e-001, 2.28333995e-001,
          8.63697901e-002, 7.43495524e-002, 1.65725216e-001,
          1.11170910e-001, 2.28333995e-001, 1.97664574e-001,
          1.72556981e-001, 4.16744985e-002, 1.35999739e-001,
          2.28333995e-001, 1.45359382e-001, 1.81704089e-001,
          1.62917778e-001, 2.04793781e-001, 1.85127214e-001,
          1.82857931e-001, 1.19609766e-001, 2.28333995e-001,
          1.68525070e-001, 1.11802354e-001, 2.13104293e-001,
          1.39599115e-001, 1.13099650e-001, 1.87568337e-001,
          1.71821311e-001, 1.44172594e-001, 2.59904832e-001,
          2.62082815e-001, 8.77899379e-002, 1.61323488e-001,
          6.30024150e-002, 6.50559366e-002, 8.37131292e-002,
          1.01621345e-001, 7.22469315e-002, 2.62082815e-001,
          1.92459419e-001, 1.17171213e-001, 1.40265375e-001,
          1.55905902e-001, 1.11244448e-001, 1.87072083e-001,
          2.19642371e-001, 1.83699772e-001, 2.62082815e-001,
          2.62082815e-001, 7.25810453e-002, 1.16578676e-001,
          1.04689837e-001, 5.02524637e-002, 9.56479535e-002,
          1.65738568e-001, 1.57318965e-001, 2.62082815e-001,
          2.93872744e-001, 4.89825457e-002, 7.96790794e-002,
          1.02283740e-002, 1.80940051e-002, 1.59137230e-002,
          7.13777216e-003, 1.05638802e-002, 2.93872744e-001,
          2.93872744e-001, 1.80008754e-001, 2.93872744e-001,
          5.17061837e-002, 1.89404301e-002, 2.92466786e-002,
          4.78087068e-002, 3.20381708e-002, 2.93872744e-001,
          2.93872744e-001, 1.26478255e-001, 1.20728314e-001,
          2.87003331e-002, 7.24359043e-003, 1.34537918e-002,
          1.92327835e-002, 4.31015566e-002, 2.93872744e-001,
          2.93872744e-001, 2.93872744e-001, 2.93872744e-001,
          4.97657657e-002, 3.09949648e-002, 3.07570677e-002,
          2.79930644e-002, 5.22067025e-002, 2.06163868e-001,
          3.66254672e-002, 3.77311036e-002, 7.30926320e-002,
          8.72028619e-002, 3.03127319e-001, 1.97325215e-001,
          1.46576524e-001, 1.26875872e-002, 5.55609912e-002,
          9.98218134e-002, 1.65837809e-001, 1.66701242e-001,
          2.12368488e-001, 3.03127319e-001, 1.90662757e-001,
          1.58850282e-001, 5.38991354e-002, 1.58451974e-001,
          1.94561705e-001, 1.17910281e-001, 3.30616198e-002,
          1.65325999e-001, 3.03127319e-001, 1.18502721e-001,
          5.95809333e-002, 2.33454071e-002, 1.32840186e-001,
          1.16020612e-001, 2.05200955e-001, 9.63482484e-002,
          2.39673942e-001, 3.03127319e-001, 2.77151167e-001,
          1.33230954e-001, 7.06603304e-002, 1.10780351e-001,
          8.49457309e-002, 1.23181462e-001, 1.37035474e-001,
          1.98084205e-001, 2.45359018e-001, 1.42288998e-001,
          1.72738865e-001, 9.19762179e-002, 1.22967139e-001,
          2.45359018e-001, 5.45649193e-002, 9.94378179e-002,
          1.68851390e-001, 1.94023564e-001, 8.46825764e-002,
          1.77456364e-001, 1.20601393e-001, 2.45359018e-001,
          9.98075679e-002, 1.14307530e-001, 1.09170087e-001,
          1.68943420e-001, 2.45359018e-001, 1.95667401e-001,
          1.37446940e-001, 6.29577339e-002, 1.29282773e-001,
          1.88662231e-001, 7.22488612e-002, 8.72623324e-002,
          2.01759711e-001, 2.45359018e-001, 1.44955039e-001,
          2.45359018e-001, 1.95836559e-001, 2.45359018e-001,
          2.36511618e-001, 8.81344825e-002, 6.69662729e-002,
          7.05451667e-002, 9.83648896e-002, 5.80665655e-002,
          6.85296133e-002, 8.33940357e-002, 2.36511618e-001,
          2.36511618e-001, 1.91357657e-001, 1.93905681e-001,
          1.00283071e-001, 1.64158255e-001, 1.13292389e-001,
          7.67268091e-002, 8.13606903e-002, 1.53330117e-001,
          2.15953290e-001, 7.17339590e-002, 5.65070510e-002,
          1.34446040e-001, 2.36511618e-001, 1.97270140e-001,
          2.13162050e-001, 1.67922556e-001, 2.36511618e-001,
          2.36511618e-001, 1.90774649e-001, 2.36511618e-001,
          1.82074875e-001, 2.36511618e-001, 2.36511618e-001,
          1.17065579e-001, 7.35554174e-002, 1.33913711e-001,
          2.23380879e-001, 1.45722538e-001, 4.64559309e-002,
          9.75971296e-002, 1.63081303e-001, 6.73606321e-002,
          6.65488616e-002, 6.85215741e-002, 2.23380879e-001,
          2.23380879e-001, 1.64544791e-001, 9.68259797e-002,
          9.93655100e-002, 2.23380879e-001, 1.47651821e-001,
          1.38320982e-001, 9.23815444e-002, 2.23380879e-001,
          2.23380879e-001, 1.46771908e-001, 1.09045044e-001,
          9.27456021e-002, 2.23380879e-001, 1.01625755e-001,
          2.22971275e-001, 1.52330682e-001, 1.91493064e-001,
          2.23380879e-001, 1.98365927e-001, 2.23380879e-001,
          1.46485299e-001, 2.13194266e-001, 8.61210302e-002,
          2.05153599e-001, 1.09971277e-001, 2.23380879e-001,
          2.35883519e-001, 1.42093211e-001, 1.02236696e-001,
          4.74114753e-002, 1.70141086e-001, 1.06159389e-001,
          1.03456102e-001, 7.39648491e-002, 2.35883519e-001,
          2.35883519e-001, 1.16860837e-001, 6.72578365e-002,
          1.09368265e-001, 2.35883519e-001, 1.57830119e-001,
          2.35883519e-001, 1.52798519e-001, 2.35883519e-001,
          2.35883519e-001, 2.35883519e-001, 2.27037549e-001,
          4.45051864e-002, 3.09613980e-002, 3.06966621e-002,
          1.03984959e-001, 6.60866573e-002, 2.35883519e-001,
          2.35883519e-001, 2.30045542e-001, 1.97677717e-001,
          4.21693027e-002, 1.19552404e-001, 1.46183953e-001,
          9.32695344e-002, 9.57288370e-002, 2.35883519e-001,
          1.20691374e-001, 6.62373230e-002, 5.98515794e-002,
          1.13625318e-001, 2.20370874e-001, 2.20370874e-001,
          1.95540786e-001, 1.34344533e-001, 1.64156511e-001,
          1.79008633e-001, 9.31071490e-002, 1.82938010e-001,
          1.16730250e-001, 1.97812572e-001, 2.11519316e-001,
          1.94264695e-001, 9.77788940e-002, 1.36832267e-001,
          2.20370874e-001, 8.73133913e-002, 1.31181702e-001,
          7.98593834e-002, 2.09156349e-001, 2.20370874e-001,
          2.13300496e-001, 1.85315743e-001, 1.94793195e-001,
          1.32393256e-001, 3.90233845e-002, 9.33165178e-002,
          9.53169242e-002, 1.81216642e-001, 1.97621718e-001,
          2.20370874e-001, 2.20370874e-001, 2.20370874e-001 ]
      - [ 1.52268767e-001, 7.69141987e-002, 1.76542252e-001,
          8.42206478e-002, 1.28885567e-001, 6.32729754e-002,
          2.52440274e-001, 1.39182284e-001, 1.93285078e-001,
          2.52440274e-001, 2.52440274e-001, 2.52440274e-001,
          1.23520687e-001, 1.38785958e-001, 6.21258728e-002,
          9.69424471e-002, 8.17614645e-002, 2.52440274e-001,
          1.32972375e-001, 8.95692408e-002, 1.73195302e-001,
          1.20146543e-001, 2.52440274e-001, 1.03820212e-001,
          1.28021255e-001, 5.04969619e-002, 1.61396548e-001,
          2.52440274e-001, 2.02265173e-001, 2.52440274e-001,
          1.17160589e-001, 1.70044720e-001, 6.99008033e-002,
          8.06289464e-002, 6.26929998e-002, 2.52440274e-001,
          3.16076666e-001, 2.40761101e-001, 2.57022977e-001,
          6.54387325e-002, 3.64692062e-002, 2.30371039e-002,
          2.13410053e-002, 1.24734724e-002, 2.37768531e-001,
          3.16076666e-001, 1.20013595e-001, 1.51331544e-001,
          3.70801203e-002, 2.95504536e-002, 1.74836107e-002,
          1.16237607e-002, 8.55098292e-003, 3.16076666e-001,
          3.16076666e-001, 1.53394341e-001, 1.70893058e-001,
          5.00463024e-002, 2.74555441e-002, 2.80326121e-002,
          1.27870534e-002, 3.14853415e-002, 3.16076666e-001,
          3.16076666e-001, 8.36576223e-002, 5.98304197e-002,
          1.23941200e-002, 8.19021929e-003, 9.85728018e-003,
          5.16158005e-004, 3.60536948e-002, 3.16076666e-001,
          2.87130177e-001, 5.88061176e-002, 5.55070862e-002,
          2.33837627e-002, 2.00912748e-002, 6.56782743e-003,
          6.21756725e-003, 2.14555487e-002, 2.87130177e-001,
          2.87130177e-001, 2.26923823e-001, 2.87130177e-001,
          6.67610243e-002, 3.49305831e-002, 1.43873729e-002,
          4.53330465e-002, 4.19906788e-002, 2.87130177e-001,
          2.87130177e-001, 1.40581280e-001, 1.03032418e-001,
          2.11735051e-002, 1.23653738e-002, 8.08336493e-003,
          3.80116329e-003, 2.60441378e-002, 2.87130177e-001,
          2.87130177e-001, 2.87130177e-001, 2.87130177e-001,
          6.48974031e-002, 2.06372663e-002, 2.06015017e-002,
          1.08223483e-002, 3.99146900e-002, 2.54861563e-001,
          6.72947541e-002, 5.34804836e-002, 5.23906089e-002,
          9.20301974e-002, 3.26753736e-001, 1.68787628e-001,
          1.59922272e-001, 3.96222323e-002, 7.44000003e-002,
          2.30512843e-001, 1.24998324e-001, 1.69941872e-001,
          1.75923780e-001, 3.26753736e-001, 1.57249376e-001,
          1.51555091e-001, 6.21453300e-002, 2.23326743e-001,
          6.23805150e-002, 5.39902858e-002, 6.31059781e-002,
          1.41069487e-001, 3.26753736e-001, 1.13643415e-001,
          6.71391785e-002, 1.65020488e-002, 5.06356508e-002,
          3.78890522e-002, 1.00354068e-001, 1.83654353e-001,
          3.26753736e-001, 3.26753736e-001, 1.68955445e-001,
          1.56333655e-001, 4.80971336e-002, 4.02007923e-002,
          2.86318928e-001, 1.29180700e-001, 1.36995003e-001,
          8.37216899e-002, 2.02730402e-001, 1.06890365e-001,
          8.18451717e-002, 5.82858510e-002, 2.83406287e-001,
          2.87946105e-001, 1.37078539e-001, 4.39679138e-002,
          1.55262873e-002, 6.73961565e-002, 6.03795722e-002,
          4.01299410e-002, 7.73154870e-002, 2.87946105e-001,
          9.08040032e-002, 8.63594115e-002, 1.27293959e-001,
          2.49293104e-001, 2.87946105e-001, 1.72940269e-001,
          1.22967944e-001, 5.50565943e-002, 9.33538154e-002,
          2.87946105e-001, 1.34664685e-001, 9.23276767e-002,
          1.10359319e-001, 2.19220057e-001, 1.34367108e-001,
          8.34142864e-002, 1.25283599e-001, 2.87946105e-001,
          2.62923807e-001, 1.43326312e-001, 6.79803863e-002,
          3.06759551e-002, 2.34539844e-002, 2.91485675e-002,
          2.77914647e-002, 5.91610894e-002, 2.62923807e-001,
          2.62923807e-001, 2.62923807e-001, 2.12539300e-001,
          8.61313790e-002, 1.07473426e-001, 8.77737775e-002,
          4.52705175e-002, 8.02345350e-002, 2.42037490e-001,
          2.62923807e-001, 1.09967209e-001, 6.44086748e-002,
          9.43358019e-002, 1.18827559e-001, 7.58458599e-002,
          9.09966305e-002, 1.33041561e-001, 2.62923807e-001,
          2.51596600e-001, 2.01248065e-001, 2.29937762e-001,
          1.94764242e-001, 2.62923807e-001, 1.72535226e-001,
          9.89627317e-002, 9.52513665e-002, 1.68947056e-001,
          2.49122724e-001, 1.04497403e-001, 4.95976619e-002,
          1.02501251e-001, 2.62841851e-001, 5.84222674e-002,
          6.38807341e-002, 4.45894599e-002, 2.29754493e-001,
          2.30809301e-001, 1.06783234e-001, 8.73693973e-002,
          1.59084484e-001, 2.62841851e-001, 1.14062406e-001,
          1.54484466e-001, 8.74672756e-002, 2.16900125e-001,
          2.62841851e-001, 2.04249874e-001, 5.92340976e-002,
          1.49004534e-001, 1.46760345e-001, 9.58699360e-002,
          9.66725647e-002, 9.85407978e-002, 2.62841851e-001,
          2.62841851e-001, 2.26647258e-001, 8.61143470e-002,
          1.61311060e-001, 1.67356849e-001, 4.92211692e-002,
          8.18156302e-002, 7.94155002e-002, 2.62841851e-001,
          2.48033106e-001, 7.64030442e-002, 5.91398701e-002,
          1.47975892e-001, 2.88168371e-001, 1.13425478e-001,
          1.00463770e-001, 7.60824457e-002, 2.13260710e-001,
          2.88168371e-001, 8.36887881e-002, 6.60692975e-002,
          1.02521054e-001, 1.43144622e-001, 9.53599066e-002,
          1.36027366e-001, 1.61302686e-001, 2.88168371e-001,
          2.88168371e-001, 1.54649317e-001, 8.57333764e-002,
          8.84170309e-002, 8.93885866e-002, 2.79981177e-002,
          6.67725503e-002, 8.21652412e-002, 2.88168371e-001,
          2.88168371e-001, 1.64080009e-001, 1.20270461e-001,
          5.85727580e-002, 8.77256691e-002, 6.29686341e-002,
          1.46677554e-001, 1.25728294e-001, 2.88168371e-001,
          2.48237878e-001, 7.82423615e-002, 6.89382255e-002,
          9.80880484e-002, 1.41410574e-001, 7.61564896e-002,
          1.27536386e-001, 1.49484143e-001, 2.48237878e-001,
          2.31230587e-001, 1.41437173e-001, 2.48237878e-001,
          1.73101887e-001, 2.48237878e-001, 1.32596985e-001,
          1.36570618e-001, 7.20250756e-002, 1.24101423e-001,
          2.48237878e-001, 1.13482811e-001, 8.97013322e-002,
          6.09168857e-002, 1.17539257e-001, 8.62084702e-002,
          1.42255694e-001, 1.25003740e-001, 2.48237878e-001,
          2.48237878e-001, 5.80412596e-002, 1.38184890e-001,
          8.23839307e-002, 1.64067104e-001, 1.35431767e-001,
          2.48237878e-001, 2.03721926e-001, 2.48237878e-001 ]
      - [ 6.78588226e-002, 7.42748603e-002, 1.06316157e-001,
          4.45699506e-002, 2.33806193e-001, 6.78922608e-002,
          2.42965922e-001, 2.42965922e-001, 1.63593516e-001,
          2.42965922e-001, 1.47783026e-001, 1.91573799e-001,
          5.98199815e-002, 1.75211072e-001, 1.01147838e-001,
          1.88043669e-001, 1.89068154e-001, 2.42965922e-001,
          6.05972819e-002, 8.19952115e-002, 1.15501545e-001,
          7.85323381e-002, 2.42965922e-001, 1.58363611e-001,
          1.77642509e-001, 1.49815962e-001, 8.64279792e-002,
          2.42965922e-001, 1.56975389e-001, 2.33524829e-001,
          8.16097856e-002, 2.42965922e-001, 1.30956292e-001,
          8.58065262e-002, 1.22092567e-001, 2.42965922e-001,
          2.75779605e-001, 2.32735321e-001, 2.36392289e-001,
          5.05347401e-002, 1.12129904e-001, 7.03921169e-002,
          1.03915103e-001, 7.24078640e-002, 1.86567858e-001,
          2.75779605e-001, 2.14759693e-001, 2.16595009e-001,
          6.85719103e-002, 4.09626141e-002, 1.79682244e-002,
          3.19985300e-002, 3.07528619e-002, 2.75779605e-001,
          2.75779605e-001, 1.58367202e-001, 2.72424877e-001,
          7.25733265e-002, 8.08384195e-002, 9.41642746e-002,
          6.55577183e-002, 1.09358810e-001, 2.75779605e-001,
          2.75779605e-001, 1.04602411e-001, 1.46284759e-001,
          4.95628081e-002, 4.76680808e-002, 4.36939709e-002,
          3.82528938e-002, 7.42607266e-002, 2.75779605e-001,
          2.91427821e-001, 7.09985122e-002, 6.66421428e-002,
          2.80080568e-002, 2.05544233e-002, 4.55673086e-003,
          5.90012455e-003, 6.59770751e-003, 2.91427821e-001,
          2.91427821e-001, 1.53293267e-001, 2.91427821e-001,
          3.05513255e-002, 3.83062661e-002, 1.84414815e-002,
          7.59053379e-002, 3.52678150e-002, 2.91427821e-001,
          2.91427821e-001, 1.21821336e-001, 8.31268057e-002,
          9.51764174e-003, 1.77969187e-002, 5.73572190e-003,
          6.63496926e-003, 1.30931139e-002, 2.91427821e-001,
          2.91427821e-001, 2.91427821e-001, 2.91427821e-001,
          2.54912097e-002, 2.51308754e-002, 4.09404514e-003,
          2.66158506e-002, 1.78400464e-002, 2.81108797e-001,
          3.83537300e-002, 2.00772453e-002, 5.90352826e-002,
          6.92459047e-002, 3.30160320e-001, 2.14627564e-001,
          1.71516478e-001, 1.22221932e-001, 7.24964961e-002,
          1.34499833e-001, 8.08941722e-002, 1.86588570e-001,
          1.39019877e-001, 3.30160320e-001, 1.76965624e-001,
          8.93147662e-002, 1.13853671e-001, 1.24398589e-001,
          1.11546338e-001, 6.91402107e-002, 5.43488078e-002,
          9.73366275e-002, 3.30160320e-001, 2.12803304e-001,
          7.23001733e-002, 1.77263424e-001, 1.30513147e-001,
          9.26517323e-002, 9.49071273e-002, 1.47119135e-001,
          2.08219931e-001, 3.30160320e-001, 2.61422336e-001,
          8.86679962e-002, 1.06881395e-001, 9.74728465e-002,
          1.73707128e-001, 9.55225676e-002, 2.12543413e-001,
          1.48423955e-001, 2.67040402e-001, 1.40822664e-001,
          1.11854784e-001, 7.41769597e-002, 1.35487378e-001,
          2.67040402e-001, 5.92094548e-002, 7.45779201e-002,
          1.00277677e-001, 1.45802900e-001, 9.62654278e-002,
          1.00281902e-001, 5.43510653e-002, 2.67040402e-001,
          1.11656129e-001, 9.95109081e-002, 1.52364746e-001,
          2.40798533e-001, 2.67040402e-001, 2.46807322e-001,
          1.24744661e-001, 5.28096110e-002, 1.03171743e-001,
          2.67040402e-001, 9.52393636e-002, 9.59933549e-002,
          1.97701514e-001, 1.76995322e-001, 1.73727423e-001,
          1.71788648e-001, 4.72875163e-002, 2.67040402e-001,
          2.63030648e-001, 9.12827551e-002, 4.29422669e-002,
          3.57317850e-002, 5.52065410e-002, 3.31158042e-002,
          3.24713439e-002, 4.54393104e-002, 2.63030648e-001,
          2.63030648e-001, 2.54730493e-001, 2.51075417e-001,
          6.16463870e-002, 1.52773306e-001, 4.12969925e-002,
          7.31408447e-002, 4.25317064e-002, 2.36672834e-001,
          2.63030648e-001, 6.81652874e-002, 4.45850380e-002,
          1.02856539e-001, 1.16007455e-001, 1.01347707e-001,
          9.20265168e-002, 8.76388028e-002, 2.63030648e-001,
          2.52395123e-001, 2.05024451e-001, 2.38968506e-001,
          1.70743808e-001, 2.63030648e-001, 1.50052309e-001,
          9.74612236e-002, 8.44789371e-002, 2.35283390e-001,
          1.86220095e-001, 1.13732271e-001, 7.65676200e-002,
          9.30796042e-002, 2.23770022e-001, 1.19347699e-001,
          7.95473456e-002, 1.95307955e-001, 2.13554621e-001,
          2.23770022e-001, 1.19192965e-001, 7.29027539e-002,
          1.35511085e-001, 2.06229925e-001, 1.72573194e-001,
          7.79101923e-002, 1.42023146e-001, 2.23770022e-001,
          1.39401466e-001, 5.70835955e-002, 1.39942989e-001,
          1.14167325e-001, 2.23770022e-001, 1.90327764e-001,
          2.23770022e-001, 1.62513882e-001, 1.82329401e-001,
          2.23770022e-001, 1.67809099e-001, 1.64297253e-001,
          2.04576328e-001, 2.23770022e-001, 1.32519364e-001,
          1.45669147e-001, 8.54686424e-002, 2.23770022e-001,
          2.76806802e-001, 8.75247121e-002, 7.80489072e-002,
          1.09484315e-001, 1.48354352e-001, 1.56036437e-001,
          6.81003854e-002, 6.75050169e-002, 2.76806802e-001,
          2.76806802e-001, 9.83583108e-002, 8.27279761e-002,
          1.13104746e-001, 5.26571423e-002, 1.15679756e-001,
          1.63766116e-001, 6.17222041e-002, 2.76806802e-001,
          2.76806802e-001, 2.52488494e-001, 1.33041218e-001,
          6.80277720e-002, 4.31796350e-002, 5.01428954e-002,
          9.76640135e-002, 3.48622166e-002, 2.76806802e-001,
          2.76806802e-001, 2.76806802e-001, 1.90528780e-001,
          5.62971458e-002, 2.11249050e-002, 3.85632068e-002,
          7.87462816e-002, 3.78902890e-002, 2.76806802e-001,
          2.63662755e-001, 7.25245923e-002, 4.24377732e-002,
          1.15770154e-001, 7.49285072e-002, 9.26895142e-002,
          1.42300859e-001, 7.63170943e-002, 2.63662755e-001,
          2.28518352e-001, 1.23948976e-001, 1.79623514e-001,
          1.92229584e-001, 1.82394594e-001, 1.06366083e-001,
          1.90511733e-001, 1.21687889e-001, 2.51173496e-001,
          2.63662755e-001, 1.78581491e-001, 1.12855330e-001,
          9.34105441e-002, 4.42707092e-002, 5.59450909e-002,
          1.17355786e-001, 4.30002883e-002, 2.63662755e-001,
          2.63662755e-001, 7.44893327e-002, 8.46715346e-002,
          9.18627679e-002, 7.15585351e-002, 1.05221584e-001,
          2.63662755e-001, 2.07387716e-001, 2.63662755e-001 ]
      - [ 1.22209609e-001, 9.03363004e-002, 1.17064245e-001,
          4.14007232e-002, 6.18514158e-002, 7.32775852e-002,
          2.45138004e-001, 2.43873715e-001, 2.08990842e-001,
          2.45138004e-001, 2.37603948e-001, 1.98613659e-001,
          7.74508640e-002, 9.26912650e-002, 6.43738136e-002,
          1.12177715e-001, 9.21192989e-002, 2.22454756e-001,
          1.29548609e-001, 1.66559830e-001, 2.06168056e-001,
          6.18718751e-002, 2.45138004e-001, 1.59238130e-001,
          2.02656925e-001, 1.44189626e-001, 1.41995847e-001,
          2.45138004e-001, 2.45138004e-001, 2.40689829e-001,
          7.12546334e-002, 1.06747426e-001, 9.60983261e-002,
          8.08502361e-002, 1.11920938e-001, 2.45138004e-001,
          3.25520724e-001, 2.02405393e-001, 2.01160893e-001,
          8.11993927e-002, 4.49213721e-002, 1.17535256e-002,
          2.85897274e-002, 1.98881663e-002, 2.31231436e-001,
          3.25520724e-001, 1.16487853e-001, 1.29703283e-001,
          7.39774778e-002, 3.97421308e-002, 1.52730104e-003,
          2.94858385e-002, 2.46510692e-002, 3.25520724e-001,
          3.25520724e-001, 1.76244348e-001, 1.46563202e-001,
          3.00033018e-002, 2.43448000e-002, 1.62129812e-002,
          1.21973315e-002, 2.31127236e-002, 3.25520724e-001,
          3.25520724e-001, 9.63989571e-002, 7.96646550e-002,
          1.26156397e-002, 2.65507190e-003, 1.21600798e-003,
          1.20653003e-003, 2.05784440e-002, 3.25520724e-001,
          2.75402397e-001, 9.88427177e-002, 8.67370591e-002,
          2.47942563e-002, 3.16450596e-002, 1.10405590e-002,
          4.89419661e-002, 5.74539118e-002, 2.75402397e-001,
          2.45879933e-001, 2.44182184e-001, 2.49111891e-001,
          5.47687784e-002, 9.62465703e-002, 1.17734455e-001,
          1.67664319e-001, 1.57527849e-001, 1.64054364e-001,
          2.75402397e-001, 2.42503390e-001, 2.19365418e-001,
          1.63909066e-002, 9.91505850e-003, 7.38934567e-003,
          5.89020457e-003, 4.27944362e-002, 2.75402397e-001,
          2.75402397e-001, 2.75402397e-001, 2.75402397e-001,
          4.58008274e-002, 7.55270347e-002, 9.25263092e-002,
          7.90825635e-002, 8.57904702e-002, 1.19573541e-001,
          6.97023496e-002, 9.76397619e-002, 7.74513260e-002,
          8.75918567e-002, 2.92356879e-001, 1.94918275e-001,
          1.44188821e-001, 1.07580297e-001, 7.46374205e-002,
          2.69646615e-001, 2.00405300e-001, 1.90752953e-001,
          1.19316645e-001, 2.92356879e-001, 1.41504183e-001,
          9.14287791e-002, 1.26386702e-001, 2.52185196e-001,
          1.08877875e-001, 6.30875453e-002, 6.85139298e-002,
          1.47302523e-001, 2.92356879e-001, 1.22007050e-001,
          9.64582190e-002, 3.85938995e-002, 1.03487626e-001,
          9.36964527e-002, 1.18659265e-001, 2.03291059e-001,
          2.25677773e-001, 2.92356879e-001, 2.06217617e-001,
          1.60014749e-001, 7.71692544e-002, 1.09230846e-001,
          3.09004635e-001, 9.97066498e-002, 1.11659899e-001,
          5.98854944e-002, 1.63518369e-001, 6.22205026e-002,
          5.03920577e-002, 4.73558903e-002, 3.09004635e-001,
          3.09004635e-001, 6.70190677e-002, 4.70094308e-002,
          3.07072084e-002, 3.51857953e-002, 2.26911511e-002,
          2.97655463e-002, 4.65253033e-002, 3.09004635e-001,
          2.56923527e-001, 5.98239787e-002, 1.72350809e-001,
          1.36770293e-001, 3.09004635e-001, 1.52014390e-001,
          9.97116640e-002, 8.21212009e-002, 1.72913909e-001,
          3.09004635e-001, 6.40705377e-002, 8.67155120e-002,
          8.15880820e-002, 1.29164532e-001, 7.85995722e-002,
          1.02830380e-001, 1.23612575e-001, 3.09004635e-001,
          2.56566703e-001, 2.03538552e-001, 1.65724799e-001,
          5.11258468e-002, 2.84182932e-002, 4.70516682e-002,
          3.65782492e-002, 8.33984986e-002, 2.56566703e-001,
          1.95507169e-001, 2.56566703e-001, 2.56566703e-001,
          1.03793621e-001, 1.08406156e-001, 1.11136682e-001,
          4.82962430e-002, 8.25321525e-002, 9.79328975e-002,
          2.56566703e-001, 1.50490806e-001, 1.52391970e-001,
          1.10005759e-001, 1.32026732e-001, 1.28149152e-001,
          1.23310074e-001, 1.17100276e-001, 2.56566703e-001,
          1.54403076e-001, 2.56566703e-001, 2.56566703e-001,
          2.46008381e-001, 2.36321896e-001, 1.36768192e-001,
          5.98132722e-002, 7.89617673e-002, 8.18466768e-002,
          2.50108123e-001, 7.95874149e-002, 7.15418383e-002,
          8.29685330e-002, 2.38340676e-001, 6.46295846e-002,
          8.67361873e-002, 5.03501073e-002, 2.50108123e-001,
          2.50108123e-001, 9.59200710e-002, 8.47508013e-002,
          9.12448540e-002, 2.50108123e-001, 1.23806670e-001,
          1.20711364e-001, 5.20503893e-002, 2.50108123e-001,
          2.50108123e-001, 1.06314868e-001, 1.12711787e-001,
          1.51060313e-001, 2.10600421e-001, 8.63180161e-002,
          2.06804544e-001, 1.04739234e-001, 2.35740229e-001,
          2.50108123e-001, 2.50108123e-001, 1.33423433e-001,
          1.21062420e-001, 1.69094816e-001, 9.55463424e-002,
          6.92153648e-002, 7.00480789e-002, 2.50108123e-001,
          2.76625067e-001, 6.46942928e-002, 1.04736194e-001,
          5.51571511e-002, 2.47127518e-001, 8.82635713e-002,
          8.34419280e-002, 6.51272088e-002, 2.76625067e-001,
          2.76625067e-001, 6.49051517e-002, 9.62088332e-002,
          6.44095540e-002, 1.19476154e-001, 5.44223636e-002,
          1.25742018e-001, 1.26604915e-001, 2.76625067e-001,
          2.76625067e-001, 2.66130984e-001, 1.80154979e-001,
          2.85158101e-002, 5.29389009e-002, 3.50307003e-002,
          3.96110155e-002, 4.71169278e-002, 2.76625067e-001,
          2.76625067e-001, 2.36834466e-001, 1.70488015e-001,
          7.49049708e-002, 7.43313804e-002, 3.14134099e-002,
          7.31106251e-002, 7.46235624e-002, 2.76625067e-001,
          2.52649724e-001, 8.66682306e-002, 1.53855696e-001,
          1.23127416e-001, 1.22348845e-001, 1.04498111e-001,
          1.71059608e-001, 1.26475215e-001, 2.52649724e-001,
          1.62639111e-001, 1.60351917e-001, 2.52649724e-001,
          1.90777853e-001, 1.35658011e-001, 9.66046751e-002,
          1.62794098e-001, 1.09421425e-001, 1.09230556e-001,
          2.52649724e-001, 1.18429653e-001, 8.59414712e-002,
          8.98924395e-002, 8.11666250e-002, 8.23140740e-002,
          2.37998858e-001, 1.34257749e-001, 2.52649724e-001,
          1.84917971e-001, 3.59742083e-002, 5.27627878e-002,
          8.16923603e-002, 1.40375644e-001, 1.43009722e-001,
          2.52649724e-001, 2.52649724e-001, 2.52649724e-001 ]
      - [ 3.70822288e-002, 7.08583221e-002, 7.59057775e-002,
          1.09649830e-001, 2.71688521e-001, 1.33836508e-001,
          1.66585103e-001, 9.80309620e-002, 7.79865459e-002,
          8.49411935e-002, 7.55060464e-002, 5.66520318e-002,
          8.66887048e-002, 2.71688521e-001, 2.71688521e-001,
          2.71688521e-001, 2.23436162e-001, 1.54690295e-001,
          8.83529484e-002, 5.59859499e-002, 5.02068922e-002,
          1.34914041e-001, 2.71688521e-001, 1.31098196e-001,
          5.65057546e-002, 6.68242052e-002, 1.08246446e-001,
          2.71688521e-001, 1.76088005e-001, 1.23112611e-001,
          1.01354755e-001, 2.71688521e-001, 2.21278816e-001,
          1.78624496e-001, 1.34928256e-001, 2.71688521e-001,
          6.89713806e-002, 1.00720949e-001, 1.88058645e-001,
          1.10551380e-001, 2.20094427e-001, 1.59872651e-001,
          2.20094427e-001, 1.44571140e-001, 7.39979818e-002,
          1.00614637e-001, 1.38978302e-001, 2.20094427e-001,
          1.38322562e-001, 2.20094427e-001, 7.82824159e-002,
          1.12546951e-001, 9.12587941e-002, 5.72254695e-002,
          2.20094427e-001, 1.70943946e-001, 1.59262791e-001,
          8.08409676e-002, 1.61483631e-001, 1.46909684e-001,
          1.92946166e-001, 1.75347969e-001, 2.20094427e-001,
          2.20094427e-001, 2.20094427e-001, 2.20094427e-001,
          1.73411965e-001, 1.99613228e-001, 1.10272624e-001,
          1.82748049e-001, 2.10569590e-001, 1.78498551e-001,
          3.34174521e-002, 1.35420933e-001, 2.61568069e-001,
          2.08108634e-001, 2.58021683e-001, 6.43265396e-002,
          3.06929741e-002, 4.17271964e-002, 1.60452500e-002,
          1.09247817e-002, 1.78188875e-001, 2.61568069e-001,
          2.61568069e-001, 2.61568069e-001, 5.23151681e-002,
          2.47506350e-002, 1.75707489e-002, 1.19162071e-002,
          8.20702389e-002, 2.29651138e-001, 2.61568069e-001,
          1.95778757e-001, 2.61568069e-001, 9.98974219e-002,
          9.81197953e-002, 1.10347092e-001, 6.62101582e-002,
          4.66093384e-002, 2.53832966e-001, 2.61568069e-001,
          2.28279158e-001, 2.61568069e-001, 1.18674487e-001,
          7.64897540e-002, 4.45663743e-002, 5.78522421e-002,
          1.94087371e-001, 5.86826354e-002, 7.41583258e-002,
          1.10585496e-001, 2.91644067e-001, 8.92670453e-002,
          6.49273023e-002, 1.13905244e-001, 2.50877678e-001,
          2.91644067e-001, 1.40302420e-001, 8.97552520e-002,
          5.27033508e-002, 1.55348942e-001, 9.30529609e-002,
          7.47857019e-002, 1.17543653e-001, 2.91644067e-001,
          2.91644067e-001, 8.00280273e-002, 5.97981997e-002,
          1.35048613e-001, 2.68287301e-001, 9.59287062e-002,
          8.19841102e-002, 1.37522534e-001, 2.91644067e-001,
          2.91644067e-001, 6.21679798e-002, 2.58097723e-002,
          6.14903383e-002, 9.11768526e-002, 6.08782656e-002,
          8.11469331e-002, 1.00411646e-001, 2.91644067e-001,
          2.52232194e-001, 9.93319377e-002, 7.57438168e-002,
          4.73087132e-002, 1.03378586e-001, 7.06999078e-002,
          7.94041306e-002, 1.11727543e-001, 2.52232194e-001,
          2.02882245e-001, 1.46483094e-001, 1.15766503e-001,
          1.90170914e-001, 1.95814356e-001, 1.03890002e-001,
          1.59303173e-001, 2.07666233e-001, 2.52232194e-001,
          2.52232194e-001, 4.09309864e-002, 4.26348001e-002,
          4.61852364e-002, 5.48392497e-002, 4.73616384e-002,
          1.18056089e-001, 1.09052807e-001, 2.52232194e-001,
          2.52232194e-001, 8.72195885e-002, 1.18373953e-001,
          1.28508329e-001, 2.03872561e-001, 1.62310675e-001,
          2.52232194e-001, 2.52232194e-001, 2.52232194e-001,
          1.07308581e-001, 1.99148655e-001, 1.49267375e-001,
          1.86480820e-001, 2.22616956e-001, 1.00373380e-001,
          1.22546896e-001, 1.75571397e-001, 2.03301817e-001,
          1.11953586e-001, 2.01353163e-001, 1.66455522e-001,
          1.52480453e-001, 2.22616956e-001, 1.50547326e-001,
          1.41353473e-001, 6.53626174e-002, 1.54686719e-001,
          1.38433740e-001, 1.31556168e-001, 2.13420436e-001,
          2.10200131e-001, 2.22616956e-001, 1.44990519e-001,
          1.31105408e-001, 2.22616956e-001, 2.22616956e-001,
          1.05721265e-001, 1.04634888e-001, 1.68409228e-001,
          2.22616956e-001, 2.22616956e-001, 9.52363461e-002,
          7.26815313e-002, 8.64982754e-002, 1.83766603e-001,
          1.80636063e-001, 5.54761179e-002, 9.86978561e-002,
          1.23648189e-001, 2.78655976e-001, 1.15378462e-001,
          7.68999979e-002, 6.48215264e-002, 1.51120871e-001,
          2.78655976e-001, 6.41264021e-002, 1.17854021e-001,
          1.21706598e-001, 2.20033184e-001, 1.01027675e-001,
          1.00669853e-001, 8.98035169e-002, 2.78655976e-001,
          4.13903408e-002, 9.18814912e-002, 2.78655976e-001,
          1.38383985e-001, 2.78655976e-001, 1.32454172e-001,
          1.20331623e-001, 7.61676878e-002, 4.77439426e-002,
          1.42696232e-001, 1.26766220e-001, 2.78655976e-001,
          2.03405142e-001, 2.78655976e-001, 1.54113486e-001,
          1.24695763e-001, 1.71802104e-001, 1.44923508e-001,
          2.47425780e-001, 5.21297045e-002, 8.88044834e-002,
          7.61443973e-002, 1.24949753e-001, 5.32993898e-002,
          1.00357533e-001, 1.13146961e-001, 2.47425780e-001,
          1.45187408e-001, 8.63491297e-002, 1.70100152e-001,
          1.33844391e-001, 2.47425780e-001, 1.67938888e-001,
          2.47425780e-001, 2.47425780e-001, 1.64342269e-001,
          1.65910855e-001, 1.17470130e-001, 2.40467578e-001,
          1.35862634e-001, 2.47425780e-001, 8.68229792e-002,
          5.31367548e-002, 1.12881109e-001, 1.45646125e-001,
          1.42142877e-001, 1.45510346e-001, 2.47425780e-001,
          2.08425760e-001, 2.47425780e-001, 1.76724195e-001,
          1.37419060e-001, 1.19513407e-001, 9.11207870e-002,
          9.43312868e-002, 1.06184736e-001, 2.51681536e-001,
          1.93849236e-001, 2.62502819e-001, 1.92096621e-001,
          2.38464057e-001, 2.16783583e-001, 9.67741385e-002,
          5.06121702e-002, 4.40941453e-002, 1.19947843e-001,
          1.13371581e-001, 2.27849886e-001, 7.09847286e-002,
          1.21487945e-001, 8.31307173e-002, 6.57857731e-002,
          1.06282748e-001, 1.41213536e-001, 1.81532353e-001,
          1.91684946e-001, 2.62502819e-001, 2.62502819e-001,
          2.62502819e-001, 1.36623740e-001, 4.30709422e-002,
          3.48816104e-002, 3.97072360e-002, 5.91378994e-002,
          9.85418707e-002, 2.62502819e-001, 2.19502479e-001,
          2.62502819e-001, 1.09550245e-001, 1.92634091e-002 ]
      - [ 7.03784898e-002, 1.16528422e-001, 2.44184852e-001,
          2.44184852e-001, 2.44184852e-001, 7.30604455e-002,
          4.68064956e-002, 6.16766363e-002, 1.08089499e-001,
          6.88990280e-002, 9.34324786e-002, 2.44184852e-001,
          2.44184852e-001, 2.44184852e-001, 8.73115137e-002,
          1.36286050e-001, 9.08163488e-002, 1.72631145e-001,
          7.08401427e-002, 1.44878089e-001, 2.44184852e-001,
          2.44184852e-001, 2.44184852e-001, 6.50196746e-002,
          4.48137671e-002, 5.10800034e-002, 1.44568220e-001,
          2.27770880e-001, 1.49353251e-001, 1.62726745e-001,
          1.77212507e-001, 2.44184852e-001, 1.02258675e-001,
          1.41669050e-001, 9.09244493e-002, 2.35390708e-001,
          9.88186970e-002, 6.90504536e-002, 1.30432725e-001,
          1.42586723e-001, 2.61609912e-001, 1.13302760e-001,
          2.01504171e-001, 6.83006570e-002, 1.52198270e-001,
          7.57997707e-002, 1.64059162e-001, 2.61609912e-001,
          2.08562568e-001, 2.61609912e-001, 9.06732231e-002,
          1.36546761e-001, 7.30242059e-002, 1.61648706e-001,
          2.61609912e-001, 1.30681351e-001, 1.12318277e-001,
          8.67860541e-002, 1.82300135e-001, 6.64300248e-002,
          1.16751581e-001, 6.21527769e-002, 2.61609912e-001,
          2.61609912e-001, 1.81173757e-001, 2.61609912e-001,
          1.30171984e-001, 1.45870402e-001, 5.20599149e-002,
          9.97151062e-002, 7.85252899e-002, 2.61609912e-001,
          4.47271690e-002, 1.95029259e-001, 3.00564140e-001,
          1.55388936e-001, 1.91455349e-001, 6.19399585e-002,
          7.09997341e-002, 5.67508563e-002, 1.13126583e-001,
          1.95964929e-002, 2.64593244e-001, 3.00564140e-001,
          2.06784859e-001, 1.10365815e-001, 2.93053221e-002,
          1.41541446e-002, 9.65914875e-003, 2.68950444e-002,
          1.78794280e-001, 3.00564140e-001, 3.00564140e-001,
          9.85595062e-002, 7.75011256e-002, 6.35192990e-002,
          4.79069911e-002, 6.34765252e-002, 2.51122683e-001,
          1.89095363e-001, 2.87391573e-001, 3.00564140e-001,
          8.28731060e-002, 2.75268760e-002, 3.12927328e-002,
          8.29608180e-003, 1.18314642e-002, 2.09964037e-001,
          2.29383677e-001, 8.23676437e-002, 2.41143823e-001,
          2.53353924e-001, 2.53353924e-001, 6.76833168e-002,
          5.52228428e-002, 3.84370349e-002, 2.53353924e-001,
          2.53353924e-001, 8.77078995e-002, 1.03914604e-001,
          8.33334625e-002, 1.56720951e-001, 7.22552314e-002,
          9.56611633e-002, 7.17569888e-002, 2.53353924e-001,
          2.53353924e-001, 7.32402354e-002, 1.50460124e-001,
          1.64560020e-001, 2.53353924e-001, 1.16258994e-001,
          8.79457220e-002, 4.03461456e-002, 2.53353924e-001,
          2.53353924e-001, 6.16661124e-002, 7.51020387e-002,
          5.27161807e-002, 2.01929733e-001, 1.05201222e-001,
          9.30540115e-002, 9.34012830e-002, 2.53353924e-001,
          3.16426843e-001, 8.26350972e-002, 8.10950622e-002,
          2.62724385e-002, 3.05185225e-002, 2.61543151e-002,
          4.75414805e-002, 4.97269034e-002, 3.16426843e-001,
          3.16426843e-001, 1.15515701e-001, 2.08463386e-001,
          5.10877892e-002, 5.07677272e-002, 4.71162237e-002,
          7.67170638e-002, 4.82821986e-002, 3.16426843e-001,
          3.16426843e-001, 4.50801328e-002, 4.60807011e-002,
          1.70851070e-002, 3.31952274e-002, 4.33731899e-002,
          4.31724414e-002, 5.69302440e-002, 3.16426843e-001,
          3.16426843e-001, 5.85689507e-002, 9.36486498e-002,
          3.15267108e-002, 9.37170088e-002, 1.15319185e-001,
          2.12784722e-001, 9.93664861e-002, 3.16426843e-001,
          2.73764938e-001, 1.47239000e-001, 2.51010954e-001,
          3.55499908e-002, 7.07895085e-002, 5.97015582e-002,
          7.25938901e-002, 4.23841998e-002, 2.73764938e-001,
          2.73764938e-001, 8.39987621e-002, 1.71307266e-001,
          8.78160633e-003, 1.98283754e-002, 1.67193450e-002,
          2.67732181e-002, 3.36689316e-002, 2.73764938e-001,
          2.73764938e-001, 4.67188768e-002, 5.32229841e-002,
          2.84846388e-002, 1.05640374e-001, 1.06967986e-001,
          2.73764938e-001, 1.94899276e-001, 2.73764938e-001,
          2.73764938e-001, 1.20358579e-002, 7.01534282e-003,
          6.81237224e-003, 5.43497950e-002, 3.75826806e-002,
          2.73764938e-001, 1.90202773e-001, 2.73764938e-001,
          8.01889747e-002, 8.63204822e-002, 1.85515404e-001,
          1.99170828e-001, 2.63226807e-001, 1.08909272e-001,
          9.75807607e-002, 6.13566078e-002, 8.46328214e-002,
          2.01684222e-001, 1.15400441e-001, 1.57340646e-001,
          1.18062966e-001, 2.63226807e-001, 1.32894233e-001,
          1.29112706e-001, 8.50127041e-002, 2.63226807e-001,
          4.65812087e-002, 1.05189137e-001, 2.63226807e-001,
          2.07295284e-001, 2.63226807e-001, 8.44657123e-002,
          1.36542231e-001, 8.03652853e-002, 1.94495115e-002,
          6.38887733e-002, 1.65371612e-001, 2.63226807e-001,
          2.17344522e-001, 2.63226807e-001, 1.70785695e-001,
          2.12636217e-001, 1.08593844e-001, 6.45247921e-002,
          2.59219110e-001, 1.03995383e-001, 1.16343394e-001,
          7.91108310e-002, 1.21049277e-001, 7.17769265e-002,
          8.42194632e-002, 5.45564815e-002, 2.59219110e-001,
          2.59219110e-001, 5.12769818e-002, 8.94480944e-002,
          1.00769393e-001, 2.59219110e-001, 9.05413330e-002,
          1.83563754e-001, 1.13017716e-001, 2.59219110e-001,
          1.61490753e-001, 1.65754899e-001, 2.59219110e-001,
          1.68268800e-001, 2.59219110e-001, 1.46819666e-001,
          1.31965816e-001, 8.31383318e-002, 1.21305652e-001,
          1.92109108e-001, 1.11863241e-001, 2.19349474e-001,
          1.76525578e-001, 2.59219110e-001, 1.38654917e-001,
          8.04016888e-002, 7.75474608e-002, 1.45100832e-001,
          1.12136349e-001, 1.28609492e-002, 2.73773987e-002,
          6.28286302e-002, 2.81074613e-001, 9.12700444e-002,
          2.92768449e-001, 2.58874059e-001, 1.96859151e-001,
          6.92234635e-002, 2.99888733e-003, 2.94136093e-003,
          1.46102160e-002, 1.33544654e-001, 1.02885827e-001,
          2.92768449e-001, 2.92768449e-001, 1.19496927e-001,
          4.30602208e-002, 2.53873263e-002, 5.41146994e-002,
          9.35068950e-002, 2.92768449e-001, 1.05786778e-001,
          2.43697047e-001, 1.22577578e-001, 5.01381420e-002,
          1.06713008e-002, 1.83284506e-002, 3.91055234e-002,
          5.66867702e-002, 2.61693954e-001, 2.17543125e-001,
          2.92768449e-001, 2.92768449e-001, 3.52566056e-002 ]
      - [ 4.04050648e-002, 4.92866971e-002, 5.93301170e-002,
          1.27072230e-001, 2.82448590e-001, 1.24349758e-001,
          1.10091224e-001, 6.61974102e-002, 9.06274617e-002,
          7.25203604e-002, 1.08856373e-001, 1.79793432e-001,
          2.50018477e-001, 2.82448590e-001, 1.31288812e-001,
          1.61312446e-001, 1.20520264e-001, 1.39481470e-001,
          2.10981131e-001, 9.68505442e-002, 6.17958196e-002,
          1.12731323e-001, 2.82448590e-001, 9.20041278e-002,
          8.95981044e-002, 9.56880301e-002, 2.36862347e-001,
          2.82448590e-001, 2.09248692e-001, 2.82448590e-001,
          1.11149341e-001, 1.79943323e-001, 8.00739750e-002,
          7.48071969e-002, 1.12804405e-001, 2.82448590e-001,
