%YAML:1.0
my_svm: !!opencv-ml-svm
   svm_type: C_SVC
   kernel: { type:RBF, gamma:8.9999999999999997e-002 }
   C: 10.
   term_criteria: { epsilon:1.1920928955078125e-007,
       iterations:2147483647 }
   var_all: 324
   var_count: 324
   class_count: 4
   class_labels: !!opencv-matrix
      rows: 1
      cols: 4
      dt: i
      data: [ 1, 2, 3, 4 ]
   sv_total: 80
   support_vectors:
      - [ 2.67669857e-001, 5.92049286e-002, 4.48095612e-002,
          3.05641033e-002, 1.05967201e-001, 1.23690762e-001,
          1.37891591e-001, 6.71599433e-002, 2.67669857e-001,
          2.67669857e-001, 8.55998620e-002, 9.05014873e-002,
          3.46210301e-002, 1.58336177e-001, 1.52767107e-001,
          1.60723835e-001, 1.37400270e-001, 2.67669857e-001,
          2.67669857e-001, 5.77415228e-002, 9.77256596e-002,
          7.64981955e-002, 1.05319895e-001, 1.58832029e-001,
          1.10779919e-001, 1.09135933e-001, 2.67669857e-001,
          2.67669857e-001, 1.55320764e-001, 2.11549267e-001,
          6.92610368e-002, 1.13904543e-001, 1.78200155e-001,
          1.10703953e-001, 2.18890712e-001, 2.67669857e-001,
          1.99307755e-001, 4.63423692e-002, 3.23114879e-002,
          7.53491074e-002, 2.58496076e-001, 8.64796489e-002,
          3.56429070e-002, 6.41672686e-002, 1.63782850e-001,
          2.31476665e-001, 1.01451546e-001, 2.26936657e-002,
          1.18964307e-001, 2.58496076e-001, 2.12289989e-001,
          7.97636062e-002, 1.40799269e-001, 1.92827657e-001,
          2.58496076e-001, 9.94877145e-002, 6.48975000e-002,
          7.23373666e-002, 1.46004871e-001, 1.22745946e-001,
          7.42975324e-002, 8.15382600e-002, 2.58496076e-001,
          2.58496076e-001, 1.70841068e-001, 5.32589890e-002,
          1.63984999e-001, 2.58496076e-001, 2.58496076e-001,
          2.13482991e-001, 1.23325609e-001, 2.58496076e-001,
          2.37286806e-001, 2.27329403e-001, 7.68060610e-002,
          5.66614531e-002, 2.37286806e-001, 1.06457010e-001,
          6.65278807e-002, 1.02594912e-001, 1.92854494e-001,
          2.37286806e-001, 2.37286806e-001, 1.71314597e-001,
          1.10875815e-001, 2.05066398e-001, 5.44795208e-002,
          1.16999507e-001, 1.10658668e-001, 9.26229656e-002,
          2.37286806e-001, 2.37286806e-001, 1.15934685e-001,
          8.03280994e-002, 1.88981473e-001, 1.65344536e-001,
          1.35394901e-001, 1.09721795e-001, 2.37286806e-001,
          2.37286806e-001, 2.37286806e-001, 2.07990393e-001,
          6.54290766e-002, 4.53709587e-002, 2.22836714e-002,
          1.13142937e-001, 1.13676287e-001, 2.37286806e-001,
          1.25082299e-001, 5.31555638e-002, 1.19297281e-001,
          8.93023983e-002, 1.75692976e-001, 1.47196144e-001,
          1.77625611e-001, 1.20541006e-001, 1.22819148e-001,
          2.80874342e-001, 1.65870905e-001, 1.95001543e-001,
          8.26635286e-002, 1.56115130e-001, 1.44879520e-001,
          1.61736622e-001, 2.22135052e-001, 2.80874342e-001,
          1.78996459e-001, 5.14404997e-002, 1.95430085e-001,
          8.77266228e-002, 1.94363594e-001, 1.32283792e-001,
          1.20986693e-001, 1.26341522e-001, 1.94247156e-001,
          2.80874342e-001, 1.19372271e-001, 1.73205286e-001,
          7.66605809e-002, 1.35695741e-001, 6.59717023e-002,
          9.32806507e-002, 2.19636917e-001, 2.80874342e-001,
          2.58177966e-001, 8.83694664e-002, 3.74672636e-002,
          7.65691474e-002, 1.02329545e-001, 9.97336358e-002,
          3.63838412e-002, 7.52594545e-002, 2.58177966e-001,
          2.58177966e-001, 1.27200663e-001, 4.68100086e-002,
          2.00353533e-001, 2.58177966e-001, 2.58177966e-001,
          1.07815720e-001, 1.03818431e-001, 2.58177966e-001,
          2.58177966e-001, 7.98448250e-002, 9.76073276e-003,
          6.64735064e-002, 6.88595623e-002, 4.07935716e-002,
          1.50044682e-002, 8.30345377e-002, 2.58177966e-001,
          2.58177966e-001, 9.23457742e-002, 1.29210195e-002,
          1.59710839e-001, 2.31702477e-001, 2.58177966e-001,
          6.40332699e-002, 1.56222001e-001, 2.58177966e-001,
          2.59035200e-001, 1.26928985e-001, 8.41175020e-002,
          9.28452536e-002, 2.59035200e-001, 2.34501392e-001,
          8.37196484e-002, 1.03767283e-001, 2.59035200e-001,
          2.59035200e-001, 2.19760269e-001, 1.66982904e-001,
          2.79009994e-002, 8.46162140e-002, 2.43206453e-002,
          5.81303947e-002, 8.78195539e-002, 2.59035200e-001,
          2.59035200e-001, 7.77650476e-002, 3.75545882e-002,
          6.72145784e-002, 1.64106742e-001, 2.25886092e-001,
          6.97953403e-002, 1.44088402e-001, 2.59035200e-001,
          2.59035200e-001, 1.40050560e-001, 9.84613299e-002,
          7.82692060e-002, 8.84746909e-002, 2.91733369e-002,
          8.06452706e-002, 1.64204627e-001, 2.59035200e-001,
          2.35449657e-001, 4.76872399e-002, 8.67693052e-002,
          5.02741784e-002, 2.42999524e-001, 1.56333953e-001,
          1.74852625e-001, 1.08286500e-001, 2.56308168e-001,
          2.86333531e-001, 4.99936230e-002, 6.68941960e-002,
          2.24125721e-002, 3.77745926e-002, 3.79238315e-002,
          1.71161816e-002, 9.58155021e-002, 2.86333531e-001,
          2.86333531e-001, 1.00456595e-001, 4.79879305e-002,
          5.21311872e-002, 2.86333531e-001, 7.77323022e-002,
          2.86333531e-001, 1.89225897e-001, 2.86333531e-001,
          2.86333531e-001, 1.97606236e-002, 1.15467096e-002,
          8.36743694e-003, 1.78861972e-002, 3.68114724e-003,
          2.90075094e-002, 5.87332733e-002, 2.86333531e-001,
          3.40360075e-001, 7.48744085e-002, 9.06635355e-003,
          3.49565633e-002, 2.26633176e-002, 5.32034878e-003,
          1.38273714e-002, 8.19877833e-002, 3.40360075e-001,
          3.40360075e-001, 9.49483141e-002, 4.54985583e-003,
          7.48633221e-002, 7.39436373e-002, 1.06387042e-001,
          5.21284267e-002, 1.45363003e-001, 3.40360075e-001,
          3.40360075e-001, 2.85248109e-003, 1.54587650e-003, 0., 0., 0.,
          1.40773284e-003, 4.28450247e-003, 3.40360075e-001,
          3.40360075e-001, 6.84659090e-003, 3.84589401e-003,
          2.14821612e-003, 5.75370574e-003, 2.37657805e-003,
          4.22476279e-003, 6.79762941e-003, 3.40360075e-001,
          2.74735630e-001, 3.55351642e-002, 1.60993878e-002,
          2.79974286e-002, 4.19515856e-002, 4.97353636e-002,
          2.34774407e-002, 5.76553121e-002, 2.74735630e-001,
          2.74735630e-001, 4.68358360e-002, 7.00163022e-002,
          1.86880186e-001, 1.81911439e-001, 9.50600505e-002,
          7.88716152e-002, 8.83470923e-002, 2.74735630e-001,
          2.65000820e-001, 1.65515952e-002, 1.78791359e-002,
          4.41674925e-002, 8.71290118e-002, 3.15747187e-002,
          7.17469165e-003, 5.61771309e-003, 2.14519218e-001,
          2.74735630e-001, 3.19938734e-002, 2.05096513e-001,
          2.74735630e-001, 2.74735630e-001, 2.74735630e-001,
          1.74184024e-001, 9.45459530e-002, 2.73864061e-001 ]
      - [ 2.15085402e-001, 9.05920118e-002, 7.01864138e-002,
          1.09588958e-001, 2.64111787e-001, 1.82069093e-001,
          9.74257514e-002, 6.64192960e-002, 2.18676582e-001,
          2.64111787e-001, 1.21021859e-001, 4.86174859e-002,
          7.26267174e-002, 1.98992446e-001, 9.28646177e-002,
          1.02662779e-001, 8.44673440e-002, 2.64111787e-001,
          2.07854211e-001, 9.74770710e-002, 9.27471593e-002,
          1.06679596e-001, 2.64111787e-001, 1.74760640e-001,
          1.58380061e-001, 1.26579285e-001, 1.93184778e-001,
          2.64111787e-001, 2.51589805e-001, 1.02595441e-001,
          8.01709071e-002, 1.70220509e-001, 6.17200099e-002,
          1.16217785e-001, 1.27183229e-001, 2.64111787e-001,
          3.20207745e-001, 1.36636168e-001, 1.35121448e-002,
          1.60438530e-002, 3.61698382e-002, 1.21758711e-002,
          2.47549992e-002, 4.49572355e-002, 3.08409840e-001,
          3.20207745e-001, 3.11524034e-001, 1.78849529e-002,
          6.12412160e-003, 3.92310182e-003, 6.21746469e-004,
          5.41622611e-003, 3.15799713e-002, 2.56003857e-001,
          3.20207745e-001, 1.77152902e-001, 2.12477800e-002,
          1.27214398e-002, 2.10059974e-002, 4.63751191e-003,
          1.86438207e-002, 4.99404669e-002, 3.20207745e-001,
          3.20207745e-001, 2.50748694e-001, 1.33921839e-002,
          1.37217646e-003, 2.56774528e-003, 6.51585695e-004,
          2.75842333e-003, 3.04842144e-002, 3.20207745e-001,
          2.74628043e-001, 2.74628043e-001, 6.91366792e-002,
          1.80965308e-002, 1.41036222e-002, 1.28898313e-002,
          4.03254330e-002, 2.43304372e-002, 1.20804891e-001,
          1.85743198e-001, 2.74628043e-001, 2.74628043e-001,
          9.67091918e-002, 7.46574253e-002, 6.40173331e-002,
          1.63569942e-001, 1.03239648e-001, 5.84345162e-002,
          2.74628043e-001, 2.74628043e-001, 4.27697524e-002,
          1.30762961e-002, 2.79050171e-002, 1.59272403e-002,
          3.54033373e-002, 2.45500356e-002, 2.74628043e-001,
          2.74628043e-001, 2.74628043e-001, 2.74628043e-001,
          1.25658765e-001, 1.43143252e-001, 7.14562237e-002,
          1.38315827e-001, 1.26553148e-001, 2.12110236e-001,
          6.62934780e-002, 7.11658597e-002, 6.43510893e-002,
          7.22509250e-002, 2.61933059e-001, 1.88343763e-001,
          1.68332145e-001, 1.25036225e-001, 7.64853358e-002,
          2.61933059e-001, 2.26825863e-001, 1.16100550e-001,
          4.52274457e-002, 1.27401575e-001, 9.09729302e-002,
          1.35221034e-001, 1.22538440e-001, 2.61933059e-001,
          5.98623306e-002, 7.54346550e-002, 6.61604777e-002,
          1.57135472e-001, 2.61933059e-001, 1.83411032e-001,
          1.22680478e-001, 1.06627949e-001, 5.10282926e-002,
          2.61933059e-001, 2.18921140e-001, 1.45555004e-001,
          1.19878799e-001, 2.61933059e-001, 1.36289909e-001,
          2.16433421e-001, 1.95743710e-001, 2.61933059e-001,
          3.47253114e-001, 8.63030478e-002, 2.45256647e-002,
          4.45802743e-003, 6.64773537e-003, 7.42396666e-003,
          1.92121733e-002, 3.34720872e-002, 3.47253114e-001,
          3.47253114e-001, 5.28028980e-002, 3.76552646e-003,
          2.39573346e-004, 9.46955697e-004, 6.21014857e-004,
          8.37037864e-004, 1.31618492e-002, 3.47253114e-001,
          3.47253114e-001, 7.18250349e-002, 3.15856859e-002,
          1.60692912e-002, 6.66553006e-002, 1.91829335e-002,
          6.22735471e-002, 6.27475604e-002, 3.47253114e-001,
          3.47253114e-001, 6.01404533e-003, 1.27377466e-003,
          2.01467439e-004, 6.79331060e-005, 2.31512080e-004,
          3.65805952e-003, 1.11587532e-002, 3.47253114e-001,
          3.03779185e-001, 1.55521914e-001, 1.56553648e-002,
          3.36248823e-003, 7.48109678e-003, 4.18018736e-003,
          7.47989723e-003, 1.41731072e-002, 3.03779185e-001,
          3.03779185e-001, 2.98192769e-001, 1.64982140e-001,
          6.82228208e-002, 3.88157219e-002, 1.57605875e-002,
          3.63148712e-002, 3.71438749e-002, 2.90247530e-001,
          3.03779185e-001, 4.47617471e-002, 1.56022953e-002,
          1.39554022e-002, 4.65800874e-002, 2.01767087e-002,
          3.23699377e-002, 3.22119407e-002, 3.03779185e-001,
          3.03779185e-001, 2.31073692e-001, 8.44377875e-002,
          1.09167501e-001, 1.42923415e-001, 5.99607080e-002,
          7.66370818e-002, 8.53633955e-002, 3.03779185e-001,
          4.27245274e-002, 4.96679023e-002, 7.84752890e-002,
          1.10204250e-001, 2.84618199e-001, 1.31820023e-001,
          7.32464492e-002, 5.82344308e-002, 3.81812938e-002,
          2.40440518e-001, 1.16174288e-001, 1.42365143e-001,
          1.33069053e-001, 2.84618199e-001, 1.52504429e-001,
          2.34736055e-001, 1.62603393e-001, 2.49741182e-001,
          4.35987450e-002, 8.46834257e-002, 1.10959381e-001,
          6.48916662e-002, 2.84618199e-001, 1.25398234e-001,
          8.07010978e-002, 6.49413094e-002, 8.10787305e-002,
          1.70640990e-001, 1.40190780e-001, 1.62369624e-001,
          1.59167096e-001, 2.84618199e-001, 2.68002063e-001,
          1.80883944e-001, 1.40599996e-001, 2.51159519e-001,
          3.19743603e-001, 5.43415882e-002, 3.38312238e-002,
          4.44461219e-002, 1.22431248e-001, 4.20677103e-002,
          9.39485505e-002, 7.10885897e-002, 3.19743603e-001,
          3.19743603e-001, 9.09307227e-003, 1.68287102e-003,
          1.39449653e-003, 4.57615301e-004, 2.11905455e-004,
          3.14956880e-003, 6.95366738e-003, 3.19743603e-001,
          3.19743603e-001, 6.26060441e-002, 3.57684046e-002,
          1.04731947e-001, 3.19743603e-001, 1.03637725e-001,
          7.06846938e-002, 7.84254074e-002, 3.19743603e-001,
          3.19743603e-001, 1.34087969e-002, 7.32010510e-003,
          8.98495130e-003, 3.48933823e-002, 5.92423696e-003,
          5.21017518e-003, 1.32028433e-002, 3.19743603e-001,
          3.16326708e-001, 4.64660302e-002, 2.46160664e-002,
          2.11063139e-002, 6.05100505e-002, 1.80358272e-002,
          2.24547237e-002, 2.96954643e-002, 3.16326708e-001,
          3.16326708e-001, 1.29696414e-001, 1.42172217e-001,
          1.07168466e-001, 2.16631219e-001, 6.89617693e-002,
          5.22228926e-002, 1.59039199e-001, 3.16326708e-001,
          3.16326708e-001, 3.06940489e-002, 1.67824216e-002,
          8.76089372e-003, 4.99072149e-002, 5.91563340e-003,
          5.40739018e-003, 2.32830215e-002, 3.16326708e-001,
          3.16326708e-001, 6.37831986e-002, 1.32111683e-001,
          4.22117338e-002, 1.41738117e-001, 2.46657822e-002,
          2.19817273e-002, 1.03190877e-001, 3.16326708e-001 ]
      - [ 6.60590455e-002, 3.09786107e-002, 9.28255543e-003,
          4.34364714e-002, 4.04658876e-002, 1.56972408e-002,
          7.56694796e-003, 1.40618645e-002, 5.99560812e-002,
          9.83173698e-002, 5.12920991e-002, 1.55017795e-002,
          6.02398552e-002, 5.92096485e-002, 4.30842787e-002,
          1.81938224e-002, 4.22326438e-002, 1.02209993e-001,
          3.13601017e-001, 1.84158102e-001, 8.67067724e-002,
          2.23016158e-001, 2.25389838e-001, 7.92356879e-002,
          7.07259923e-002, 7.57915825e-002, 3.13601017e-001,
          3.13601017e-001, 2.30686262e-001, 1.40636846e-001,
          3.13601017e-001, 3.13601017e-001, 2.67901570e-001,
          1.40739605e-001, 1.90014303e-001, 3.13601017e-001,
          4.82836291e-002, 2.49620825e-002, 1.65660493e-002,
          4.00132313e-002, 4.75713462e-002, 3.99409458e-002,
          1.72695089e-002, 3.41841504e-002, 5.48094101e-002,
          9.34304744e-002, 3.88073474e-002, 2.07268242e-002,
          3.74985859e-002, 5.16236015e-002, 2.65259407e-002,
          1.48015032e-002, 2.58978717e-002, 6.43600598e-002,
          3.93662184e-001, 2.49298453e-001, 1.35807902e-001,
          9.91318002e-002, 1.64993718e-001, 1.36809021e-001,
          6.31640851e-002, 9.42565724e-002, 3.93662184e-001,
          3.93662184e-001, 3.93662184e-001, 1.92436203e-001,
          1.22375358e-002, 1.45993615e-002, 1.44894980e-002,
          7.35521456e-003, 2.63455994e-002, 3.93662184e-001,
          1.24461226e-001, 5.92689812e-002, 3.51474248e-002,
          2.01956928e-002, 4.89838123e-002, 1.25108110e-002,
          7.51556410e-003, 2.84270942e-002, 9.58597511e-002,
          2.84544140e-001, 1.55222341e-001, 1.07199483e-001,
          6.55209124e-002, 7.36911297e-002, 3.29669751e-002,
          2.59299781e-002, 6.64686859e-002, 2.25054324e-001,
          3.14821750e-001, 3.14821750e-001, 1.23992383e-001,
          4.48404439e-002, 2.28999369e-002, 2.41803825e-002,
          3.55924591e-002, 3.24393995e-002, 3.14821750e-001,
          3.14821750e-001, 3.14821750e-001, 3.14821750e-001,
          2.52279848e-001, 6.83727935e-002, 1.43466458e-001,
          1.89290002e-001, 6.38469085e-002, 1.90257311e-001,
          2.53204256e-001, 7.21628889e-002, 8.47071186e-002,
          6.71994016e-002, 9.83580202e-002, 7.11031854e-002,
          5.85509501e-002, 6.69664964e-002, 2.53204256e-001,
          2.53204256e-001, 1.62265435e-001, 1.42011613e-001,
          1.16781995e-001, 1.10120162e-001, 1.18747853e-001,
          6.68692738e-002, 1.59428254e-001, 2.53204256e-001,
          1.98589891e-001, 4.12671939e-002, 1.10622503e-001,
          7.73178414e-002, 2.11245865e-001, 1.37714773e-001,
          1.67260692e-001, 1.07140556e-001, 2.53204256e-001,
          2.53204256e-001, 2.34537989e-001, 2.01171800e-001,
          8.09328184e-002, 9.21256617e-002, 1.64062768e-001,
          1.72516808e-001, 2.51582682e-001, 2.53204256e-001,
          3.28183204e-001, 1.36630997e-001, 7.33098015e-002,
          2.77302619e-002, 2.38353964e-002, 2.36796010e-002,
          1.59576386e-002, 5.69408834e-002, 3.28183204e-001,
          3.28183204e-001, 2.25893751e-001, 6.19344898e-002,
          8.17653956e-004, 2.32953648e-003, 1.10566989e-003,
          2.40705651e-003, 8.63900222e-003, 3.28183204e-001,
          3.28183204e-001, 1.36764288e-001, 8.10433924e-002,
          1.98359899e-002, 2.00505108e-002, 2.90517155e-002,
          6.07696734e-002, 1.13862216e-001, 3.28183204e-001,
          3.28183204e-001, 7.30379671e-002, 2.91119162e-002,
          1.87124149e-003, 6.40803203e-003, 5.33456821e-003,
          2.46774685e-002, 1.62712391e-002, 3.28183204e-001,
          2.87517965e-001, 2.73351461e-001, 5.81760406e-002,
          1.60902627e-002, 5.08663338e-003, 1.14250286e-002,
          2.56763138e-002, 1.61030665e-002, 2.87517965e-001,
          2.87517965e-001, 2.76642025e-001, 1.73549443e-001,
          9.23608989e-002, 2.83145681e-002, 7.97069594e-002,
          1.32538497e-001, 4.56057377e-002, 1.77284539e-001,
          2.87517965e-001, 1.40348405e-001, 4.03965935e-002,
          5.29214647e-003, 9.84521117e-003, 5.24077797e-003,
          2.04279125e-002, 1.85202006e-002, 2.87517965e-001,
          2.87517965e-001, 2.87517965e-001, 2.19534636e-001,
          4.63151485e-002, 4.63015698e-002, 3.35412323e-002,
          7.50731006e-002, 3.81529853e-002, 2.87517965e-001,
          7.35315308e-002, 6.06062748e-002, 1.51597723e-001,
          5.99457435e-002, 2.59624690e-001, 8.38482976e-002,
          1.84411883e-001, 1.13458328e-001, 1.74529850e-001,
          2.59624690e-001, 1.75410047e-001, 1.80725858e-001,
          5.21120355e-002, 1.49331018e-001, 1.26236632e-001,
          2.31515437e-001, 2.22158566e-001, 2.59624690e-001,
          7.86810964e-002, 5.00236228e-002, 1.42386481e-001,
          3.88633423e-002, 2.59624690e-001, 7.23177120e-002,
          1.04266547e-001, 6.83160871e-002, 2.59624690e-001,
          2.59624690e-001, 9.81472358e-002, 1.32272497e-001,
          4.96553406e-002, 2.56862521e-001, 1.16009168e-001,
          1.56129271e-001, 1.16424866e-001, 2.59624690e-001,
          3.08948547e-001, 7.96903595e-002, 6.43414930e-002,
          1.34420739e-002, 6.50354624e-002, 5.88637963e-002,
          1.51082337e-001, 1.05543785e-001, 3.08948547e-001,
          3.08948547e-001, 2.99517922e-002, 3.91371585e-002,
          3.97685217e-003, 2.11277083e-002, 2.18862537e-002,
          8.67703110e-002, 2.79417727e-002, 3.08948547e-001,
          3.08948547e-001, 6.11470677e-002, 5.16947471e-002,
          2.87610758e-002, 2.00657696e-001, 9.63753462e-002,
          2.18560696e-001, 7.49457255e-002, 3.08948547e-001,
          3.08948547e-001, 4.21262272e-002, 4.88696247e-002,
          1.78609882e-002, 1.54552013e-001, 5.33559658e-002,
          1.64344460e-001, 3.01398337e-002, 3.08948547e-001,
          3.25181067e-001, 5.28777950e-002, 2.94516012e-002,
          6.85428455e-003, 3.01995613e-002, 1.00333188e-002,
          3.46817449e-002, 3.24100405e-002, 3.25181067e-001,
          3.25181067e-001, 1.76443085e-001, 2.18095571e-001,
          3.51154767e-002, 1.17181793e-001, 1.62276048e-002,
          9.56130400e-002, 6.08209819e-002, 3.25181067e-001,
          3.25181067e-001, 3.20560038e-002, 1.96517594e-002,
          1.00390874e-002, 4.21944968e-002, 1.16438270e-002,
          2.78388541e-002, 1.19895320e-002, 3.25181067e-001,
          3.25181067e-001, 5.86262941e-002, 1.20658629e-001,
          3.71532105e-002, 9.23231244e-002, 1.77998897e-002,
          5.71611002e-002, 3.51119004e-002, 3.25181067e-001 ]
      - [ 2.95797706e-001, 6.47156909e-002, 5.16083837e-002,
          4.42149378e-002, 1.06010124e-001, 2.57545356e-002,
          4.03049365e-002, 5.57453111e-002, 2.95797706e-001,
          2.95797706e-001, 1.12473398e-001, 7.45338500e-002,
          4.90592271e-002, 2.15592578e-001, 1.90657564e-002,
          3.65414955e-002, 1.41023383e-001, 2.95797706e-001,
          2.95797706e-001, 6.09395690e-002, 1.07636862e-001,
          9.43146944e-002, 1.02436684e-001, 8.15906450e-002,
          9.30581391e-002, 9.76130739e-002, 2.95797706e-001,
          2.95797706e-001, 1.88839868e-001, 1.57706752e-001,
          1.13269813e-001, 8.97429883e-002, 6.82554618e-002,
          8.34630951e-002, 1.74302459e-001, 2.95797706e-001,
          3.22343349e-001, 1.09029211e-001, 4.24894169e-002,
          1.33548696e-002, 7.85608515e-002, 6.55067246e-003,
          1.55168008e-002, 5.55363186e-002, 3.22343349e-001,
          3.22343349e-001, 2.98157632e-001, 3.70363630e-002,
          1.40923576e-003, 1.31246215e-002, 4.90924763e-003,
          2.48385244e-003, 4.77772113e-003, 2.90286988e-001,
          3.22343349e-001, 1.43991724e-001, 6.15788288e-002,
          1.78834293e-002, 9.60830506e-003, 5.61250886e-003,
          1.13225142e-002, 4.71948013e-002, 3.22343349e-001,
          3.22343349e-001, 2.05867559e-001, 3.84395234e-002,
          2.65373121e-004, 9.11499956e-004, 4.87811922e-004,
          1.97609377e-004, 9.10565630e-003, 3.22343349e-001,
          2.69145578e-001, 2.69145578e-001, 8.71538147e-002,
          1.60028245e-002, 1.13815879e-002, 2.39757802e-002,
          3.04316971e-002, 1.95458271e-002, 1.30774051e-001,
          2.04048753e-001, 2.69145578e-001, 2.62271732e-001,
          7.65870661e-002, 8.20303783e-002, 6.03728853e-002,
          1.80972397e-001, 7.39357471e-002, 6.87208623e-002,
          2.69145578e-001, 2.69145578e-001, 7.90776238e-002,
          1.16452761e-002, 1.67206582e-002, 2.46382393e-002,
          3.05317640e-002, 1.77606270e-002, 2.69145578e-001,
          2.69145578e-001, 2.69145578e-001, 2.69145578e-001,
          7.11682215e-002, 1.74733445e-001, 7.21939057e-002,
          1.76913947e-001, 6.31497055e-002, 2.53318131e-001,
          1.44712716e-001, 6.86795339e-002, 1.33542761e-001,
          9.29101259e-002, 1.89995393e-001, 1.10604249e-001,
          1.51602566e-001, 7.31767043e-002, 1.25808433e-001,
          2.78887600e-001, 1.93545699e-001, 1.92750424e-001,
          1.06337696e-001, 9.50549990e-002, 1.23030022e-001,
          1.49883494e-001, 1.19701743e-001, 2.78887600e-001,
          7.19285458e-002, 7.05157891e-002, 1.10692836e-001,
          7.02518001e-002, 2.32866913e-001, 1.41330197e-001,
          2.25094661e-001, 8.80858824e-002, 4.47465666e-002,
          2.78887600e-001, 1.58556968e-001, 1.66603804e-001,
          1.48394302e-001, 2.46045783e-001, 2.02137098e-001,
          2.04367861e-001, 1.20603874e-001, 2.78887600e-001,
          3.47879380e-001, 6.49986640e-002, 3.07557043e-002,
          1.04327025e-002, 3.27669317e-003, 1.20103909e-002,
          9.62497946e-003, 2.00889595e-002, 3.47879380e-001,
          3.47879380e-001, 3.79986130e-002, 9.30333324e-003,
          1.05451001e-003, 1.65616977e-004, 3.22642009e-004, 0.,
          3.09176277e-003, 3.47879380e-001, 3.47879380e-001,
          4.14360352e-002, 3.83877456e-002, 4.91885468e-002,
          9.01251659e-002, 6.12873212e-002, 1.42534478e-002,
          3.51477154e-002, 3.47879380e-001, 3.47879380e-001,
          5.30801760e-003, 9.11666639e-003, 1.87503900e-002,
          3.15787010e-002, 1.74991060e-002, 2.37032305e-003,
          1.38823874e-002, 3.47879380e-001, 3.13433409e-001,
          1.19389057e-001, 3.86913083e-002, 3.46683385e-003,
          4.28113481e-003, 3.69392079e-003, 5.55417920e-003,
          7.66041316e-003, 3.13433409e-001, 3.13433409e-001,
          2.74516046e-001, 1.77356929e-001, 4.41057757e-002,
          5.39204776e-002, 1.18510947e-002, 3.14804800e-002,
          3.10870316e-002, 3.13433409e-001, 3.13433409e-001,
          2.47116014e-002, 1.12449871e-002, 1.53773269e-002,
          4.77661006e-002, 2.10372619e-002, 2.17611846e-002,
          2.70210113e-002, 3.13433409e-001, 3.13433409e-001,
          1.60549074e-001, 7.62967840e-002, 9.67088938e-002,
          1.50698781e-001, 5.57389110e-002, 4.75125536e-002,
          8.58430192e-002, 3.13433409e-001, 6.75884858e-002,
          8.41836780e-002, 1.91123441e-001, 8.21431279e-002,
          2.16899455e-001, 1.36523306e-001, 1.30233735e-001,
          9.61050242e-002, 9.78349149e-002, 2.88924873e-001,
          1.23200826e-001, 2.18213692e-001, 1.43507928e-001,
          2.88924873e-001, 1.96484163e-001, 1.33257389e-001,
          2.05430329e-001, 2.88924873e-001, 1.27688527e-001,
          4.77739125e-002, 1.20519884e-001, 2.75327563e-002,
          1.06406584e-001, 7.44988769e-002, 8.51406604e-002,
          1.13494329e-001, 1.90438822e-001, 2.88924873e-001,
          5.77582717e-002, 1.18992478e-001, 4.78512198e-002,
          2.04169720e-001, 1.21471554e-001, 9.13426727e-002,
          2.22886220e-001, 2.88924873e-001, 3.10966104e-001,
          5.07457033e-002, 5.90177886e-002, 5.56102693e-002,
          1.39946148e-001, 7.82885402e-002, 1.94511320e-002,
          1.01494685e-001, 3.10966104e-001, 3.10966104e-001,
          2.33307164e-002, 2.39462126e-002, 2.20839754e-002,
          5.18398024e-002, 2.90632378e-002, 7.41889002e-003,
          4.26112786e-002, 3.10966104e-001, 3.10966104e-001,
          3.63843329e-002, 6.57409504e-002, 6.54347911e-002,
          2.78423548e-001, 1.02515429e-001, 6.29592538e-002,
          1.23181432e-001, 3.10966104e-001, 3.10966104e-001,
          3.08387242e-002, 6.16918728e-002, 4.36036550e-002,
          2.00165883e-001, 4.23213355e-002, 4.59452718e-002,
          5.49570620e-002, 3.10966104e-001, 3.24485391e-001,
          3.69708315e-002, 2.13901512e-002, 2.68591437e-002,
          6.57043755e-002, 2.05763057e-002, 2.04514340e-002,
          1.84469838e-002, 3.24485391e-001, 3.24485391e-001,
          1.11938588e-001, 9.36538130e-002, 1.27939239e-001,
          2.37121493e-001, 7.07300156e-002, 5.31455651e-002,
          1.31008819e-001, 3.24485391e-001, 3.24485391e-001,
          2.18217373e-002, 1.84987318e-002, 1.02861896e-002,
          2.94381902e-002, 3.10234353e-003, 1.05458070e-002,
          1.38536245e-002, 3.24485391e-001, 3.24485391e-001,
          8.36961567e-002, 6.80489391e-002, 7.10064024e-002,
          6.35644570e-002, 1.22691467e-002, 1.92241929e-002,
          6.44863620e-002, 3.24485391e-001 ]
      - [ 2.45760828e-001, 5.74414954e-002, 5.17840646e-002,
          4.11283374e-002, 1.55882537e-001, 2.69840304e-002,
          4.14811149e-002, 4.87827100e-002, 1.76822722e-001,
          1.96827918e-001, 5.77402674e-002, 7.67720714e-002,
          7.65152648e-002, 3.05830449e-001, 1.55107588e-001,
          7.34880418e-002, 1.38250247e-001, 2.44039044e-001,
          3.05830449e-001, 9.11046416e-002, 8.30193833e-002,
          6.79546744e-002, 1.08227603e-001, 6.95233047e-002,
          9.23867449e-002, 9.15105715e-002, 3.05830449e-001,
          3.05830449e-001, 1.28644153e-001, 1.37867540e-001,
          8.12541544e-002, 2.80689925e-001, 1.45194098e-001,
          1.36148587e-001, 1.58230394e-001, 3.05830449e-001,
          1.37784496e-001, 3.37872133e-002, 3.45144123e-002,
          5.86432852e-002, 2.84675270e-001, 2.20486671e-001,
          2.82966606e-002, 1.42238200e-001, 1.47243246e-001,
          2.16522232e-001, 1.04952693e-001, 6.60694242e-002,
          3.68780568e-002, 2.84675270e-001, 1.49853602e-001,
          9.04691219e-003, 1.00918524e-001, 1.52401552e-001,
          2.84675270e-001, 8.17406252e-002, 8.98448601e-002,
          4.10269275e-002, 2.84675270e-001, 1.65598229e-001,
          7.46597946e-002, 7.44591951e-002, 2.84675270e-001,
          2.84675270e-001, 2.13649437e-001, 1.33298039e-001,
          3.93321067e-002, 2.39304647e-001, 1.18273258e-001,
          3.29263061e-002, 4.40674350e-002, 2.84675270e-001,
          2.17412502e-001, 1.88698947e-001, 8.80413577e-002,
          1.87810753e-002, 7.81606436e-002, 3.36306915e-002,
          9.18257050e-003, 1.30952988e-002, 1.03111148e-001,
          1.49234772e-001, 2.38625214e-001, 1.57100752e-001,
          8.49010125e-002, 2.53967345e-001, 2.53967345e-001,
          1.40548825e-001, 1.38681337e-001, 5.88637330e-002,
          2.53967345e-001, 2.53967345e-001, 1.45310879e-001,
          2.06651669e-002, 6.17980324e-002, 4.28562053e-002,
          2.28524059e-002, 3.04970238e-002, 2.32698411e-001,
          2.53967345e-001, 2.44496077e-001, 2.26065218e-001,
          7.91003257e-002, 2.53967345e-001, 2.53967345e-001,
          1.22978590e-001, 2.00622201e-001, 1.67311162e-001,
          2.58103549e-001, 5.10072522e-002, 1.07485056e-001,
          7.35262111e-002, 8.43628794e-002, 1.00007340e-001,
          9.93843451e-002, 5.36998734e-002, 1.85856000e-001,
          2.58103549e-001, 1.45616293e-001, 1.38551086e-001,
          7.41354823e-002, 4.56665717e-002, 1.00733928e-001,
          1.22237749e-001, 8.22458416e-002, 2.58103549e-001,
          1.25655562e-001, 6.07963763e-002, 9.61156860e-002,
          9.26085636e-002, 2.13765502e-001, 2.15603247e-001,
          2.16431558e-001, 9.30749923e-002, 6.30107895e-002,
          2.58103549e-001, 2.44556069e-001, 1.73080951e-001,
          1.25663862e-001, 1.51992723e-001, 2.58103549e-001,
          2.58103549e-001, 2.22857893e-001, 2.58103549e-001,
          2.95462906e-001, 8.49112719e-002, 6.20499365e-002,
          2.22184677e-002, 1.88702513e-002, 3.06040887e-002,
          5.51662892e-002, 4.88963090e-002, 2.95462906e-001,
          2.95462906e-001, 1.21765487e-001, 1.20702654e-001,
          6.60800785e-002, 5.21602146e-002, 7.79416636e-002,
          3.51321138e-002, 9.18544680e-002, 2.95462906e-001,
          2.95462906e-001, 1.26014262e-001, 7.64575899e-002,
          3.86450104e-002, 8.13667327e-002, 1.18341230e-001,
          7.55657852e-002, 1.42669603e-001, 2.95462906e-001,
          2.95462906e-001, 5.78285195e-002, 1.58184305e-001,
          1.19046584e-001, 2.39607707e-001, 1.81724757e-001,
          4.06719334e-002, 1.53666809e-001, 2.95462906e-001,
          2.75495946e-001, 1.80659428e-001, 1.38274148e-001,
          5.54893501e-002, 5.64226322e-002, 5.20316549e-002,
          2.07918379e-002, 7.05979243e-002, 2.75495946e-001,
          2.75495946e-001, 2.49963358e-001, 1.78716466e-001,
          7.98170641e-002, 1.09399289e-001, 1.55226886e-001,
          6.14732690e-002, 9.35115293e-002, 2.59242415e-001,
          2.75495946e-001, 7.73056149e-002, 1.50284871e-001,
          1.12011522e-001, 2.05371082e-001, 1.23727232e-001,
          3.03178485e-002, 1.22350663e-001, 2.75495946e-001,
          2.75495946e-001, 1.58313796e-001, 1.42124251e-001,
          8.79377797e-002, 8.82998183e-002, 6.40405938e-002,
          1.03367064e-002, 6.12230785e-002, 2.75495946e-001,
          3.43648121e-002, 5.14509827e-002, 6.31313771e-002,
          8.19260478e-002, 2.07406163e-001, 1.56892702e-001,
          1.46513015e-001, 8.49317312e-002, 5.67531250e-002,
          2.29912415e-001, 1.41178414e-001, 1.70594290e-001,
          1.48688525e-001, 2.36475751e-001, 2.43660286e-001,
          2.43660286e-001, 2.43460044e-001, 2.43660286e-001,
          1.95032023e-002, 4.22507823e-002, 5.98682836e-002,
          6.79697320e-002, 1.94466442e-001, 1.09965034e-001,
          1.01008639e-001, 6.98392317e-002, 1.08910501e-001,
          1.64984167e-001, 6.83800951e-002, 1.57863051e-001,
          1.86703265e-001, 2.43660286e-001, 2.43660286e-001,
          2.23211542e-001, 2.43660286e-001, 2.43660286e-001,
          2.51152635e-001, 8.49504694e-002, 1.04353055e-001,
          7.24025741e-002, 1.52683139e-001, 1.70917928e-001,
          8.73870999e-002, 1.40611604e-001, 2.51152635e-001,
          2.51152635e-001, 4.31915037e-002, 1.06327735e-001,
          9.30694193e-002, 2.51152635e-001, 1.42010033e-001,
          5.62056862e-002, 9.37555879e-002, 2.51152635e-001,
          2.51152635e-001, 4.25142758e-002, 9.58952159e-002,
          1.18552692e-001, 2.51152635e-001, 2.03313932e-001,
          9.50131342e-002, 1.81722030e-001, 2.51152635e-001,
          2.33119473e-001, 4.08765748e-002, 5.77731803e-002,
          8.48472342e-002, 2.51152635e-001, 1.24792852e-001,
          9.66190472e-002, 9.78629366e-002, 2.51152635e-001,
          2.52118319e-001, 5.67350984e-002, 9.68443155e-002,
          1.07073292e-001, 2.52118319e-001, 1.26993492e-001,
          5.16522937e-002, 1.05914265e-001, 2.52118319e-001,
          2.52118319e-001, 1.27762780e-001, 1.05966777e-001,
          1.01679698e-001, 1.66701078e-001, 8.22901055e-002,
          3.37554775e-002, 1.09336480e-001, 2.52118319e-001,
          1.60297975e-001, 6.64962679e-002, 5.39313480e-002,
          1.66470543e-001, 2.52118319e-001, 1.20894387e-001,
          1.28461167e-001, 1.87421098e-001, 2.35118270e-001,
          2.32402518e-001, 1.79378301e-001, 1.10450134e-001,
          1.50063232e-001, 2.52118319e-001, 7.07456023e-002,
          1.17024302e-001, 2.10944787e-001, 2.15747908e-001 ]
      - [ 2.67528743e-001, 5.36678061e-002, 3.91750187e-002,
          4.40953970e-002, 1.48335621e-001, 2.28119884e-002,
          5.63062280e-002, 4.40051593e-002, 2.67528743e-001,
          2.67528743e-001, 8.51794705e-002, 6.03810623e-002,
          3.72881740e-002, 2.60263801e-001, 4.25974987e-002,
          8.99227336e-002, 8.21531266e-002, 2.67528743e-001,
          2.67528743e-001, 6.64755255e-002, 9.10727307e-002,
          1.12008139e-001, 1.04559787e-001, 5.19944504e-002,
          1.26587272e-001, 8.89429897e-002, 2.67528743e-001,
          2.67528743e-001, 1.69002756e-001, 1.55745283e-001,
          1.70116693e-001, 1.54465437e-001, 9.47290584e-002,
          2.67528743e-001, 2.12347209e-001, 2.67528743e-001,
          3.01027715e-001, 6.58477619e-002, 3.56411114e-002,
          2.16389187e-002, 9.82462019e-002, 4.19527665e-002,
          3.92058305e-002, 2.98287738e-002, 3.01027715e-001,
          3.01027715e-001, 2.71320701e-001, 4.77115549e-002,
          1.54918209e-002, 4.70775925e-002, 2.11577881e-002,
          1.92232970e-002, 1.93430204e-002, 2.87648052e-001,
          3.01027715e-001, 9.66716185e-002, 9.09474120e-002,
          1.23149350e-001, 1.64975598e-001, 1.24376640e-001,
          1.56588718e-001, 1.00511782e-001, 3.01027715e-001,
          3.01027715e-001, 2.14048088e-001, 6.53067827e-002,
          5.72026186e-002, 8.98452029e-002, 6.53964952e-002,
          6.32361770e-002, 2.61006840e-002, 3.01027715e-001,
          2.54364699e-001, 2.54364699e-001, 1.42150104e-001,
          6.33399710e-002, 6.82298839e-002, 3.97688709e-002,
          4.84536253e-002, 4.96344790e-002, 1.67339429e-001,
          1.14935286e-001, 2.54364699e-001, 2.54364699e-001,
          1.49485275e-001, 1.29864424e-001, 7.32136518e-002,
          1.95921123e-001, 9.61814970e-002, 1.17407076e-001,
          2.54364699e-001, 2.54364699e-001, 1.43117771e-001,
          2.83114035e-002, 5.94225600e-002, 3.86861600e-002,
          3.38732749e-002, 4.91389558e-002, 2.54364699e-001,
          2.54364699e-001, 2.54364699e-001, 2.54364699e-001,
          7.76110664e-002, 2.05503985e-001, 7.19306991e-002,
          1.47847995e-001, 1.12014964e-001, 2.24195316e-001,
          1.21070921e-001, 7.57617205e-002, 7.66633153e-002,
          1.07891440e-001, 1.89720780e-001, 1.04412399e-001,
          1.56902850e-001, 7.42966756e-002, 9.15300101e-002,
          2.44058326e-001, 1.65148512e-001, 1.43299446e-001,
          2.17579097e-001, 1.52675599e-001, 1.71484411e-001,
          2.44058326e-001, 1.87151521e-001, 2.44058326e-001,
          5.63501753e-002, 6.16045669e-002, 5.57397343e-002,
          4.22804207e-002, 2.44058326e-001, 1.30517513e-001,
          1.88108429e-001, 8.39538053e-002, 3.17978598e-002,
          2.44058326e-001, 1.34139583e-001, 1.14101425e-001,
          2.07481399e-001, 2.44058326e-001, 2.14177892e-001,
          2.44058326e-001, 1.50160328e-001, 2.44058326e-001,
          2.89460033e-001, 9.46527272e-002, 7.96807185e-002,
          1.43564418e-001, 6.24666922e-002, 1.25730887e-001,
          1.12330638e-001, 9.15087909e-002, 2.89460033e-001,
          2.89460033e-001, 8.65635052e-002, 4.54981253e-002,
          7.87222385e-002, 2.84747258e-002, 8.17679018e-002,
          4.99274135e-002, 3.93263735e-002, 2.89460033e-001,
          2.89460033e-001, 9.42291319e-002, 1.08578272e-001,
          1.36596560e-001, 2.14518771e-001, 1.56009465e-001,
          2.01759472e-001, 1.02316864e-001, 2.88387328e-001,
          2.89460033e-001, 4.90450710e-002, 7.35152736e-002,
          4.66882549e-002, 1.01412632e-001, 1.26119107e-001,
          1.50616348e-001, 6.15392216e-002, 2.89460033e-001,
          3.03693026e-001, 1.51891783e-001, 5.93945794e-002,
          1.05575081e-002, 1.14689190e-002, 1.15725063e-002,
          7.18996581e-003, 1.69956349e-002, 3.03693026e-001,
          3.03693026e-001, 2.94446975e-001, 2.06903696e-001,
          3.68092842e-002, 5.49990460e-002, 1.09841125e-002,
          2.23917998e-002, 4.00655828e-002, 3.03693026e-001,
          3.03693026e-001, 3.11166868e-002, 1.81051344e-002,
          1.83351822e-002, 6.94114044e-002, 3.66918705e-002,
          4.04288843e-002, 3.53844985e-002, 3.03693026e-001,
          3.03693026e-001, 1.66919619e-001, 8.65924805e-002,
          1.00039452e-001, 1.66754887e-001, 4.76316884e-002,
          5.01630791e-002, 8.39913338e-002, 3.03693026e-001,
          5.67764156e-002, 6.14663213e-002, 1.86929002e-001,
          8.37395340e-002, 2.94044584e-001, 1.11619569e-001,
          9.89276022e-002, 7.98085630e-002, 8.69850069e-002,
          2.94044584e-001, 8.56425315e-002, 2.23446980e-001,
          2.48159736e-001, 2.94044584e-001, 1.39211938e-001,
          2.18927965e-001, 1.88072622e-001, 2.94044584e-001,
          1.19342938e-001, 3.50345187e-002, 1.23655118e-001,
          3.99971306e-002, 1.22462191e-001, 6.12060130e-002,
          6.88793883e-002, 1.10244110e-001, 1.86877847e-001,
          2.94044584e-001, 3.52762304e-002, 1.21678025e-001,
          6.02092743e-002, 1.17618032e-001, 7.17107654e-002,
          9.24998522e-002, 1.46596521e-001, 2.94044584e-001,
          2.66108155e-001, 3.88860814e-002, 9.24941972e-002,
          8.25507194e-002, 2.37092122e-001, 9.54698473e-002,
          2.05674052e-001, 1.24506198e-001, 2.66108155e-001,
          2.66108155e-001, 4.01599593e-002, 6.29051626e-002,
          1.09996004e-002, 1.50348410e-001, 1.09484747e-001,
          1.64890870e-001, 6.64279610e-002, 2.66108155e-001,
          2.66108155e-001, 3.54411118e-002, 3.18337455e-002,
          2.02157795e-002, 1.49423689e-001, 1.29493415e-001,
          7.80806467e-002, 1.52149692e-001, 2.66108155e-001,
          2.66108155e-001, 7.84525499e-002, 2.52526700e-002,
          1.46921566e-002, 2.66108155e-001, 1.90539047e-001,
          7.05845132e-002, 1.69723555e-001, 2.66108155e-001,
          3.16859931e-001, 3.96584012e-002, 1.83338504e-002,
          2.54120883e-002, 9.90892947e-002, 3.91011015e-002,
          4.58465703e-002, 2.63237990e-002, 3.16859931e-001,
          3.16859931e-001, 1.14222609e-001, 8.46097991e-002,
          1.33979976e-001, 2.47876823e-001, 5.49160875e-002,
          4.30477597e-002, 1.30367741e-001, 3.16859931e-001,
          3.16859931e-001, 4.12577279e-002, 1.44067546e-002,
          1.30123543e-002, 1.36943087e-001, 4.88072447e-002,
          1.55861676e-002, 3.67894769e-002, 3.16859931e-001,
          3.16859931e-001, 8.42629373e-002, 6.72589988e-002,
          7.72320256e-002, 9.22966748e-002, 1.21610910e-002,
          1.22464160e-002, 6.52288571e-002, 3.16859931e-001 ]
      - [ 2.77027279e-001, 6.77238852e-002, 5.52326180e-002,
          5.12188748e-002, 1.16886273e-001, 3.14973667e-002,
          5.26732467e-002, 4.47748415e-002, 2.77027279e-001,
          2.77027279e-001, 1.08520262e-001, 5.61080091e-002,
          6.45718873e-002, 2.33816683e-001, 4.79326509e-002,
          9.98995826e-002, 8.99854675e-002, 2.77027279e-001,
          2.77027279e-001, 8.08844194e-002, 8.37347358e-002,
          6.66050017e-002, 1.54656485e-001, 8.67876634e-002,
          7.99658969e-002, 9.70938429e-002, 2.77027279e-001,
          2.77027279e-001, 1.94662407e-001, 1.47082120e-001,
          1.06171779e-001, 2.13645190e-001, 9.65819061e-002,
          1.65682063e-001, 2.02387929e-001, 2.77027279e-001,
          3.07762355e-001, 1.01722874e-001, 1.70736983e-002,
          2.96956021e-002, 9.65664685e-002, 1.92637052e-002,
          4.48622108e-002, 2.60638315e-002, 3.07762355e-001,
          3.07762355e-001, 3.07762355e-001, 2.24743616e-002,
          1.29419351e-002, 2.13334020e-002, 3.70313996e-003,
          4.83298814e-003, 8.08599871e-003, 2.70778626e-001,
          3.07762355e-001, 1.14231497e-001, 9.19121951e-002,
          7.00073764e-002, 1.66890934e-001, 6.09960780e-002,
          1.24655843e-001, 8.47498998e-002, 3.07762355e-001,
          3.07762355e-001, 2.29334474e-001, 4.83221076e-002,
          2.34888252e-002, 4.92526554e-002, 1.46680474e-002,
          3.73182036e-002, 2.27217413e-002, 3.07762355e-001,
          2.58112103e-001, 2.58112103e-001, 8.43719020e-002,
          3.74155752e-002, 2.24088505e-002, 1.64824482e-002,
          2.69930642e-002, 2.90389117e-002, 1.15614407e-001,
          2.10830286e-001, 2.58112103e-001, 2.58112103e-001,
          1.25891089e-001, 1.05422027e-001, 4.99859266e-002,
          1.83147460e-001, 9.56549272e-002, 9.02950540e-002,
          2.58112103e-001, 2.58112103e-001, 1.42340377e-001,
          5.21686338e-002, 7.69871622e-002, 3.76713686e-002,
          4.36398648e-002, 4.02778834e-002, 2.58112103e-001,
          2.35064849e-001, 2.58112103e-001, 2.58112103e-001,
          1.43038183e-001, 2.21342519e-001, 9.77980420e-002,
          1.86485738e-001, 1.17612287e-001, 1.79162070e-001,
          1.26586676e-001, 6.90814555e-002, 7.21095279e-002,
          9.18638185e-002, 2.35714555e-001, 1.63340077e-001,
          9.63428989e-002, 6.93210214e-002, 1.17132492e-001,
          2.35714555e-001, 2.18981609e-001, 1.68688342e-001,
          1.57994524e-001, 1.63721621e-001, 1.78208351e-001,
          1.55847073e-001, 1.83754236e-001, 2.35714555e-001,
          2.95657609e-002, 4.66983356e-002, 6.76015541e-002,
          1.11781746e-001, 2.35714555e-001, 2.35714555e-001,
          1.18550919e-001, 3.54160555e-002, 3.10760308e-002,
          2.35714555e-001, 2.17327416e-001, 1.29078940e-001,
          2.18116194e-001, 2.35714555e-001, 2.35714555e-001,
          1.17618881e-001, 1.70252502e-001, 2.35714555e-001,
          2.88401753e-001, 1.23436116e-001, 1.24489747e-001,
          6.97567612e-002, 5.81763685e-002, 7.57167563e-002,
          1.04430802e-001, 1.08090967e-001, 2.88401753e-001,
          2.88401753e-001, 9.01944041e-002, 8.22845399e-002,
          2.47029644e-002, 1.93890911e-002, 2.19594073e-002,
          8.24360698e-002, 7.39735141e-002, 2.88401753e-001,
          2.88401753e-001, 1.82335585e-001, 9.81349200e-002,
          8.17611963e-002, 9.12484974e-002, 8.00588951e-002,
          7.34337419e-002, 1.28687933e-001, 2.88401753e-001,
          2.88401753e-001, 1.14087768e-001, 1.33370489e-001,
          1.16540335e-001, 2.53331304e-001, 1.11627169e-001,
          1.25998795e-001, 1.12319559e-001, 2.88401753e-001,
          2.44691834e-001, 1.28067076e-001, 9.62576568e-002,
          5.16087338e-002, 1.05610386e-001, 5.09652868e-002,
          6.97663277e-002, 4.61858660e-002, 2.44691834e-001,
          2.44691834e-001, 2.44691834e-001, 2.02639818e-001,
          1.13214746e-001, 2.16870904e-001, 1.13360494e-001,
          9.34097022e-002, 6.98759109e-002, 1.73903614e-001,
          2.44691834e-001, 5.92834763e-002, 7.58196041e-002,
          1.09134637e-001, 2.21829385e-001, 1.33227497e-001,
          1.02988288e-001, 1.43687189e-001, 2.44691834e-001,
          2.44691834e-001, 1.69150859e-001, 8.60206708e-002,
          1.95893064e-001, 2.44691834e-001, 1.51567742e-001,
          1.02022260e-001, 1.95561171e-001, 2.15570033e-001,
          4.24648486e-002, 3.42292711e-002, 1.56660631e-001,
          1.07556455e-001, 2.88000613e-001, 2.03485399e-001,
          1.00908875e-001, 1.11722007e-001, 5.92607372e-002,
          2.88000613e-001, 1.17024317e-001, 1.46323293e-001,
          1.52779222e-001, 2.88000613e-001, 1.84176788e-001,
          8.51114392e-002, 2.57127941e-001, 2.88000613e-001,
          1.14070408e-001, 3.70854177e-002, 1.06527753e-001,
          5.38433827e-002, 1.19816720e-001, 7.21204579e-002,
          1.29050002e-001, 1.79983020e-001, 9.60357934e-002,
          2.88000613e-001, 1.02188379e-001, 9.47101340e-002,
          5.70160523e-002, 1.42461240e-001, 4.97456305e-002,
          9.91473645e-002, 2.55607158e-001, 2.88000613e-001,
          2.81891197e-001, 8.87179300e-002, 5.49482591e-002,
          4.73812446e-002, 1.00736968e-001, 4.25068960e-002,
          2.63822190e-002, 9.42454040e-002, 2.81891197e-001,
          2.81891197e-001, 9.03689489e-002, 1.16650991e-001,
          9.66835320e-002, 2.81891197e-001, 1.33372843e-001,
          1.06745824e-001, 1.05226927e-001, 2.81891197e-001,
          2.81891197e-001, 5.28550968e-002, 2.26424057e-002,
          1.21339448e-002, 6.37891889e-002, 2.51587071e-002,
          2.20091585e-002, 6.90525770e-002, 2.81891197e-001,
          2.81891197e-001, 7.97607750e-002, 7.22045004e-002,
          5.53467385e-002, 2.18733072e-001, 1.82751283e-001,
          1.61934540e-001, 2.01151535e-001, 2.81891197e-001,
          2.68392861e-001, 8.26556906e-002, 6.15649261e-002,
          7.53906220e-002, 2.14379981e-001, 1.23927057e-001,
          9.26135704e-002, 1.45546630e-001, 2.68392861e-001,
          2.68392861e-001, 1.32514849e-001, 7.65191689e-002,
          1.59335613e-001, 2.19842941e-001, 9.53291133e-002,
          5.62514849e-002, 2.18294501e-001, 2.68392861e-001,
          2.68392861e-001, 8.02699327e-002, 6.63593337e-002,
          8.18284228e-002, 2.18696684e-001, 1.42887279e-001,
          1.21874474e-001, 1.41725719e-001, 2.68392861e-001,
          2.68392861e-001, 9.49604586e-002, 7.68559575e-002,
          8.90391245e-002, 8.93273726e-002, 2.53001861e-002,
          2.65203677e-002, 6.09561279e-002, 2.68392861e-001 ]
      - [ 2.85455614e-001, 5.93227968e-002, 7.55273774e-002,
          3.52939032e-002, 9.25023481e-002, 3.15704681e-002,
          5.28954491e-002, 6.70010224e-002, 2.85455614e-001,
          2.85455614e-001, 9.28640440e-002, 1.14113480e-001,
          6.41320199e-002, 1.82767659e-001, 9.25448611e-002,
          8.26722607e-002, 1.34987131e-001, 2.85455614e-001,
          2.85455614e-001, 7.98309073e-002, 1.22035213e-001,
          4.21879813e-002, 1.56536117e-001, 1.14632010e-001,
          9.96756703e-002, 1.13115318e-001, 2.85455614e-001,
          2.85455614e-001, 2.10788772e-001, 2.03064114e-001,
          5.30286171e-002, 1.08793348e-001, 1.32708460e-001,
          7.97965899e-002, 1.32143199e-001, 2.85455614e-001,
          3.04017514e-001, 1.35303468e-001, 5.21615893e-002,
          5.10649718e-002, 1.33154139e-001, 8.98927450e-002,
          8.21589008e-002, 1.17391713e-001, 2.97177017e-001,
          3.04017514e-001, 2.11967334e-001, 4.94680479e-002,
          2.94431504e-002, 7.89950192e-002, 3.82341780e-002,
          5.89995719e-002, 8.23748335e-002, 3.04017514e-001,
          3.04017514e-001, 1.95217550e-001, 6.49644956e-002,
          2.47472245e-002, 2.10492965e-002, 3.06783691e-002,
          4.27446701e-002, 8.59591812e-002, 3.04017514e-001,
          3.04017514e-001, 2.39223853e-001, 4.73755524e-002,
          8.75582267e-003, 7.48432055e-003, 1.69236362e-002,
          5.83287254e-002, 9.29250047e-002, 3.04017514e-001,
          2.85409361e-001, 2.41923869e-001, 5.18547855e-002,
          2.94604935e-002, 1.77904367e-002, 6.29506586e-003,
          2.97975559e-002, 2.60748100e-002, 2.16770962e-001,
          2.85409361e-001, 2.46976361e-001, 1.89909458e-001,
          1.02863163e-001, 9.74408761e-002, 3.19932476e-002,
          1.11349501e-001, 8.34518820e-002, 1.38046756e-001,
          2.85409361e-001, 2.72358805e-001, 5.95545620e-002,
          1.54618742e-002, 2.49823974e-003, 7.93740526e-003,
          3.39305811e-002, 3.71554792e-002, 2.85409361e-001,
          2.85409361e-001, 2.85409361e-001, 2.01460764e-001,
          8.79110917e-002, 5.66249937e-002, 3.50733697e-002,
          1.30400389e-001, 9.50649455e-002, 2.85409361e-001,
          1.17029592e-001, 8.95110071e-002, 1.32859960e-001,
          5.76081760e-002, 2.15305299e-001, 1.65370747e-001,
          1.60365090e-001, 1.06588423e-001, 1.01775996e-001,
          3.05342168e-001, 2.31807142e-001, 1.91665933e-001,
          6.82558939e-002, 1.43952832e-001, 1.70532048e-001,
          1.65409669e-001, 1.10140473e-001, 3.05342168e-001,
          1.10582896e-001, 7.15278238e-002, 1.85185641e-001,
          5.52585460e-002, 1.35392904e-001, 1.23039819e-001,
          1.52198523e-001, 6.97572827e-002, 2.01519459e-001,
          3.05342168e-001, 1.49241790e-001, 1.82322308e-001,
          6.05541021e-002, 9.07473788e-002, 8.95740315e-002,
          1.82925791e-001, 1.00330651e-001, 3.05342168e-001,
          3.49118948e-001, 8.28581452e-002, 2.85306238e-002,
          1.32157980e-002, 1.65206287e-002, 1.51571725e-002,
          2.56655775e-002, 3.72933708e-002, 3.49118948e-001,
          3.49118948e-001, 7.44442642e-002, 1.81212239e-002,
          2.97891744e-003, 5.96996257e-003, 5.56257879e-003,
          2.28779148e-002, 4.33074944e-002, 3.49118948e-001,
          3.49118948e-001, 3.54099013e-002, 1.05738332e-002,
          9.41641722e-003, 1.24915857e-002, 3.64520540e-003,
          1.80480387e-002, 1.76735390e-002, 3.49118948e-001,
          3.49118948e-001, 1.77662540e-002, 1.24605501e-003,
          1.79416500e-003, 3.60815437e-003, 1.06629683e-003,
          2.59106676e-003, 9.24925227e-003, 3.49118948e-001,
          3.21031302e-001, 1.02039360e-001, 2.78070085e-002,
          8.27584695e-003, 2.19306517e-002, 1.11327553e-002,
          1.97765641e-002, 3.33610624e-002, 3.21031302e-001,
          3.21031302e-001, 2.26138622e-001, 1.55375212e-001,
          4.53056172e-002, 9.60373059e-002, 2.67818309e-002,
          4.59690616e-002, 6.11724593e-002, 3.21031302e-001,
          3.21031302e-001, 3.92371677e-002, 1.32664433e-002,
          9.00486857e-003, 2.74140127e-002, 1.26638031e-002,
          1.49032101e-002, 3.10787428e-002, 3.21031302e-001,
          3.21031302e-001, 1.50987610e-001, 1.23483568e-001,
          3.09580285e-002, 1.17682919e-001, 4.51146699e-002,
          4.13439944e-002, 7.29262531e-002, 3.21031302e-001,
          2.47443810e-001, 6.61223009e-002, 1.53552771e-001,
          3.96936424e-002, 1.33519784e-001, 1.09871224e-001,
          1.23064905e-001, 3.61254551e-002, 3.95273656e-001,
          3.95273656e-001, 1.14268593e-001, 1.29572809e-001,
          2.69042738e-002, 5.83582260e-002, 6.06915951e-002,
          1.33239850e-001, 6.28467798e-002, 3.95273656e-001,
          2.24605113e-001, 3.52973565e-002, 1.13838119e-002,
          8.51738919e-003, 3.95421572e-002, 1.75923817e-002,
          2.26546694e-002, 4.29342277e-002, 2.43610188e-001,
          3.08264732e-001, 1.62532516e-002, 4.48195776e-003,
          1.34314806e-003, 4.75445390e-003, 6.55590184e-003,
          1.20294495e-002, 2.36456804e-002, 3.45409691e-001,
          4.42414999e-001, 3.24808359e-002, 4.66011651e-003,
          2.40935106e-003, 4.27600229e-003, 6.72926777e-004,
          1.15095442e-002, 2.34655961e-002, 4.42414999e-001,
          4.42414999e-001, 2.75455788e-002, 4.11678717e-004,
          1.88564777e-003, 1.28458708e-003, 0., 2.13219132e-003,
          2.40809228e-002, 4.42414999e-001, 2.14817673e-001,
          6.84307655e-003, 2.09300051e-004, 0., 5.06906013e-004, 0.,
          2.06565936e-004, 2.87916372e-003, 2.15435013e-001,
          2.46437415e-001, 1.40278907e-002, 3.20194609e-004,
          2.04042462e-003, 1.55183894e-003, 0., 2.30915705e-003,
          7.95053877e-003, 2.36443952e-001, 3.38645667e-001,
          3.73720787e-002, 1.19553693e-002, 1.54206203e-002,
          2.02358235e-002, 5.69851045e-003, 2.07253806e-002,
          4.31922600e-002, 3.38645667e-001, 3.38645667e-001,
          1.78461954e-001, 1.28998816e-001, 5.89472950e-002,
          1.71195850e-001, 4.36947607e-002, 4.15466242e-002,
          8.01671445e-002, 3.38645667e-001, 1.76926181e-001,
          4.71023209e-002, 1.03404168e-002, 5.94834164e-002,
          5.53369075e-002, 2.44045313e-002, 1.37231844e-002,
          1.98305696e-002, 1.51561260e-001, 1.93691418e-001,
          2.33611003e-001, 4.19711843e-002, 2.57608324e-001,
          3.38645667e-001, 1.88692421e-001, 4.29823212e-002,
          7.82758370e-002, 2.43295521e-001 ]
      - [ 4.23267111e-002, 2.42452845e-002, 4.56815846e-002,
          1.12144701e-001, 3.14931482e-001, 7.80017674e-002,
          1.44139200e-001, 1.19893305e-001, 7.85049200e-002,
          8.96238908e-002, 6.86447024e-002, 9.97456163e-002,
          9.26765352e-002, 3.14931482e-001, 6.30240589e-002,
          1.50676414e-001, 1.09045006e-001, 9.87111628e-002,
          2.39790902e-001, 1.00628681e-001, 1.12205192e-001,
          7.11409897e-002, 3.14931482e-001, 4.16734964e-002,
          1.03893511e-001, 1.06765658e-001, 2.76005119e-001,
          3.14931482e-001, 1.15989633e-001, 1.18810691e-001,
          5.16025797e-002, 3.14931482e-001, 5.25599793e-002,
          9.29712504e-002, 1.75228864e-001, 3.14931482e-001,
          7.47998208e-002, 5.38431890e-002, 7.08132535e-002,
          6.13198169e-002, 2.05136314e-001, 4.04024571e-002,
          6.98140189e-002, 5.80639504e-002, 6.48337752e-002,
          7.65612125e-002, 7.15804696e-002, 8.94880071e-002,
          8.77487138e-002, 2.93251246e-001, 2.10298121e-001,
          1.14535607e-001, 2.06575513e-001, 9.99051854e-002,
          3.24399710e-001, 2.79478490e-001, 9.11125988e-002,
          3.08857709e-002, 1.06387831e-001, 3.73030193e-002,
          5.68997823e-002, 1.89882383e-001, 3.24399710e-001,
          3.24399710e-001, 3.24399710e-001, 6.07934967e-002,
          3.32026593e-002, 2.98884176e-002, 3.62449661e-002,
          2.65788548e-002, 1.65487349e-001, 3.24399710e-001,
          7.41491392e-002, 6.67896047e-002, 6.91345781e-002,
          8.90166909e-002, 1.61974847e-001, 1.41142115e-001,
          7.56684467e-002, 1.01887122e-001, 6.68177828e-002,
          1.30576909e-001, 6.25312030e-002, 9.14455578e-002,
          4.79914285e-002, 2.20839530e-001, 2.02967361e-001,
          2.81229675e-001, 1.08982489e-001, 8.32375810e-002,
          2.81229675e-001, 2.81229675e-001, 1.52199522e-001,
          4.89991046e-002, 2.95867678e-002, 2.85053737e-002,
          3.88366990e-002, 5.29563390e-002, 2.81229675e-001,
          2.81229675e-001, 2.81229675e-001, 2.81229675e-001,
          1.97480246e-001, 1.82623357e-001, 1.17738128e-001,
          1.90852404e-001, 1.56128407e-001, 1.87594190e-001,
          2.72741050e-001, 9.20693502e-002, 1.06335811e-001,
          3.26053351e-002, 2.32188299e-001, 2.85494346e-002,
          1.15359977e-001, 1.10543273e-001, 2.72741050e-001,
          2.72741050e-001, 1.76682830e-001, 1.32139742e-001,
          2.31930520e-002, 1.18054807e-001, 3.76442634e-002,
          1.03717431e-001, 1.75265446e-001, 2.72741050e-001,
          2.15079352e-001, 5.94388470e-002, 1.11750945e-001,
          3.50412577e-002, 1.59037963e-001, 9.30514708e-002,
          1.21867895e-001, 1.14745766e-001, 2.17433468e-001,
          2.72741050e-001, 2.26919785e-001, 1.98830217e-001,
          3.84862535e-002, 1.13963932e-001, 8.65150094e-002,
          1.55242190e-001, 1.84299663e-001, 2.72741050e-001,
          2.91166633e-001, 2.10285395e-001, 5.46453781e-002,
          1.48138786e-002, 1.62330549e-002, 2.44548675e-002,
          3.76067758e-002, 1.15243405e-001, 2.91166633e-001,
          2.91166633e-001, 2.73860455e-001, 4.56718132e-002,
          2.71691605e-002, 4.13330365e-003, 1.78082287e-002,
          2.58012377e-002, 1.00947082e-001, 2.91166633e-001,
          2.91166633e-001, 2.15398654e-001, 1.07124738e-001,
          2.09985562e-002, 1.12835467e-002, 3.28729264e-002,
          6.19611889e-002, 1.55469418e-001, 2.91166633e-001,
          2.91166633e-001, 2.24154800e-001, 6.47267252e-002,
          3.14036310e-002, 7.39735179e-003, 2.23441347e-002,
          6.67116418e-002, 1.37526512e-001, 2.91166633e-001,
          2.85348833e-001, 2.85348833e-001, 9.13249254e-002,
          2.55055185e-002, 8.98184534e-003, 1.76265612e-002,
          2.74781585e-002, 2.93290596e-002, 2.62770653e-001,
          2.85348833e-001, 2.85348833e-001, 2.13923037e-001,
          1.00873284e-001, 5.84018864e-002, 5.88232130e-002,
          9.79706869e-002, 1.30348220e-001, 1.59888193e-001,
          2.85348833e-001, 1.72450438e-001, 4.13429365e-002,
          1.70300882e-002, 7.74372648e-003, 1.24836313e-002,
          2.72622313e-002, 2.96666417e-002, 2.85348833e-001,
          2.85348833e-001, 2.85348833e-001, 1.26213178e-001,
          8.68357792e-002, 4.93899882e-002, 3.37525494e-002,
          5.72462529e-002, 7.36287460e-002, 2.85348833e-001,
          8.21766257e-002, 1.05657190e-001, 1.52244300e-001,
          8.51022378e-002, 1.71973065e-001, 1.69047445e-001,
          1.47990987e-001, 1.35764137e-001, 1.34933025e-001,
          3.03646803e-001, 2.19664916e-001, 2.19394371e-001,
          1.27125636e-001, 1.12627156e-001, 1.56465277e-001,
          2.16979131e-001, 1.92086995e-001, 3.03646803e-001,
          9.84702483e-002, 8.81433040e-002, 1.00397371e-001,
          5.61824292e-002, 1.20707504e-001, 8.23489502e-002,
          4.99729998e-002, 7.48226345e-002, 2.89018303e-001,
          3.03646803e-001, 9.52047035e-002, 1.23753153e-001,
          7.49382377e-002, 1.53235704e-001, 1.02415517e-001,
          9.34072807e-002, 1.14324257e-001, 3.03646803e-001,
          2.96111315e-001, 1.30214974e-001, 9.38948467e-002,
          4.04486284e-002, 2.21847724e-002, 4.94987853e-002,
          5.82799911e-002, 1.23389371e-001, 2.96111315e-001,
          2.96111315e-001, 1.34571552e-001, 5.97193278e-002,
          3.86586599e-002, 2.01662742e-002, 4.10166010e-002,
          6.06647171e-002, 1.00629851e-001, 2.96111315e-001,
          2.96111315e-001, 8.32085535e-002, 1.05492242e-001,
          1.04957588e-001, 2.67244101e-001, 8.06512088e-002,
          2.80164536e-002, 5.71536124e-002, 2.96111315e-001,
          2.96111315e-001, 1.07910201e-001, 9.99565497e-002,
          1.46546692e-001, 2.18987271e-001, 6.07376136e-002,
          2.53892522e-002, 3.32120843e-002, 2.96111315e-001,
          3.25016439e-001, 8.33125263e-002, 2.18057856e-002,
          2.44835690e-002, 1.29659614e-002, 2.21062209e-002,
          3.80228348e-002, 3.80270444e-002, 3.25016439e-001,
          3.25016439e-001, 2.37166002e-001, 6.65413961e-002,
          1.49156436e-001, 6.20956905e-002, 4.41438481e-002,
          9.35014710e-002, 7.97737613e-002, 3.25016439e-001,
          3.25016439e-001, 4.98150811e-002, 1.95942055e-002,
          4.02292535e-002, 2.79734228e-002, 1.50741404e-002,
          1.75740067e-002, 1.49335172e-002, 3.25016439e-001,
          3.25016439e-001, 7.09118396e-002, 2.71895360e-002,
          1.21571980e-001, 5.47372513e-002, 2.43489463e-002,
          5.49003184e-002, 5.56097887e-002, 3.25016439e-001 ]
      - [ 2.77667314e-001, 1.02331556e-001, 9.29864421e-002,
          4.65546884e-002, 1.78083494e-001, 7.29990304e-002,
          7.43596479e-002, 1.02997549e-001, 2.77667314e-001,
          2.77667314e-001, 1.20600924e-001, 1.70496807e-001,
          4.86549921e-002, 1.57731563e-001, 5.50083108e-002,
          8.47603753e-002, 1.38032153e-001, 2.77667314e-001,
          2.77667314e-001, 6.87495545e-002, 1.29190549e-001,
          4.60207462e-002, 1.36840090e-001, 1.11661904e-001,
          1.13459677e-001, 1.12044640e-001, 2.77667314e-001,
          2.77667314e-001, 1.66473240e-001, 2.16152832e-001,
          4.21255827e-002, 7.80375227e-002, 1.26660287e-001,
          1.03848703e-001, 1.28686488e-001, 2.77667314e-001,
          3.24951261e-001, 1.18488692e-001, 8.98228735e-002,
          1.79199167e-002, 7.95042515e-002, 2.51844935e-002,
          3.12904194e-002, 5.96846305e-002, 2.89272666e-001,
          3.18568617e-001, 1.79406047e-001, 1.49234474e-001,
          6.69054240e-002, 2.81488691e-002, 4.20835353e-002,
          8.88652503e-002, 6.91441372e-002, 3.24951261e-001,
          3.24951261e-001, 1.41534880e-001, 8.42251256e-002,
          9.55455657e-003, 1.26110297e-002, 1.79017689e-002,
          1.75514910e-002, 3.13616134e-002, 3.24951261e-001,
          3.24951261e-001, 1.06489062e-001, 9.21807885e-002,
          8.40843916e-002, 4.23562676e-002, 4.64239195e-002,
          6.12837337e-002, 7.95455799e-002, 3.24951261e-001,
          2.68242568e-001, 2.46947467e-001, 1.31177038e-001,
          6.51381165e-002, 1.61419045e-002, 3.87442634e-002,
          1.02314256e-001, 6.21227324e-002, 2.26840824e-001,
          2.47022524e-001, 2.69606411e-001, 2.21983552e-001,
          8.87300372e-002, 6.69401512e-002, 3.07040066e-002,
          1.36562318e-001, 5.32999560e-002, 1.42471746e-001,
          2.69606411e-001, 1.74147710e-001, 1.19600929e-001,
          8.89242887e-002, 3.35834473e-002, 5.93598597e-002,
          7.87802711e-002, 9.12169889e-002, 2.69606411e-001,
          2.69606411e-001, 2.69606411e-001, 2.47188076e-001,
          9.78552327e-002, 4.72605750e-002, 3.77967432e-002,
          1.48552775e-001, 7.57581517e-002, 2.69606411e-001,
          1.30837172e-001, 5.49453050e-002, 1.38526618e-001,
          6.02723248e-002, 1.93251431e-001, 1.14596702e-001,
          1.82818562e-001, 1.21069327e-001, 1.50905207e-001,
          3.17812562e-001, 1.89469591e-001, 1.97024480e-001,
          4.19628434e-002, 1.49787202e-001, 1.40094861e-001,
          1.68106169e-001, 1.45971373e-001, 3.17812562e-001,
          1.18513040e-001, 6.85449988e-002, 1.69877768e-001,
          5.80584779e-002, 1.55973718e-001, 4.29910943e-002,
          1.46018103e-001, 9.61916298e-002, 2.04192013e-001,
          3.17812562e-001, 1.21463269e-001, 1.71052158e-001,
          3.85829359e-002, 1.32407978e-001, 3.84993181e-002,
          1.49871066e-001, 1.54957667e-001, 3.17812562e-001,
          3.51419002e-001, 5.35421520e-002, 2.52681505e-002,
          4.06245142e-003, 1.54668884e-002, 1.21855484e-002,
          1.16428407e-002, 1.67245287e-002, 3.51419002e-001,
          3.51419002e-001, 1.47514483e-002, 1.06135532e-002,
          1.40413139e-002, 1.60838664e-002, 7.39394967e-003,
          9.87942424e-003, 2.35587321e-002, 3.51419002e-001,
          3.51419002e-001, 2.15309970e-002, 1.05518987e-002,
          2.85398541e-003, 1.46002248e-002, 2.71205395e-003,
          1.18355183e-002, 2.27328818e-002, 3.51419002e-001,
          3.51419002e-001, 1.91265978e-002, 5.20543614e-003,
          1.56974857e-004, 1.13967098e-002, 6.07466465e-003,
          7.45239435e-003, 2.51516551e-002, 3.51419002e-001,
          3.09165329e-001, 5.98595403e-002, 4.19663005e-002,
          1.99798066e-002, 4.02341597e-002, 1.61195323e-002,
          2.56838929e-002, 6.21491745e-002, 3.09165329e-001,
          3.09165329e-001, 2.25299552e-001, 1.80619374e-001,
          3.30341160e-002, 8.00052658e-002, 1.99841708e-002,
          4.15993221e-002, 6.57564104e-002, 3.09165329e-001,
          3.09165329e-001, 8.61686021e-002, 3.77683342e-002,
          5.61154587e-003, 6.12656772e-002, 3.14208567e-002,
          4.44543660e-002, 9.08408985e-002, 3.09165329e-001,
          3.09165329e-001, 1.77545846e-001, 1.03649877e-001,
          4.76928726e-002, 1.38229206e-001, 8.13248008e-002,
          8.27406123e-002, 1.47689968e-001, 3.09165329e-001,
          2.75485873e-001, 5.53632826e-002, 1.54750854e-001,
          5.31000644e-002, 1.65209010e-001, 4.13573086e-002,
          1.20419778e-001, 5.87019734e-002, 4.14741665e-001,
          4.14741665e-001, 5.91970459e-002, 1.35443687e-001,
          3.02099790e-002, 9.21583176e-002, 2.06922796e-002,
          1.27004385e-001, 1.14629030e-001, 4.14741665e-001,
          2.01364294e-001, 1.26784211e-002, 5.64280292e-003,
          6.16875826e-004, 3.70601416e-002, 1.48303555e-002,
          1.09102074e-002, 1.79782417e-002, 2.42703065e-001,
          2.65866995e-001, 3.10529466e-003, 3.64992744e-003, 0.,
          1.32627487e-002, 2.80725933e-003, 7.05211796e-003,
          8.62864312e-003, 3.05774808e-001, 4.58081722e-001,
          1.34231336e-002, 1.21950312e-002, 1.22494553e-003,
          7.65313208e-003, 1.16178293e-004, 1.62223764e-002,
          2.39036418e-002, 4.58081722e-001, 4.58081722e-001,
          2.63413712e-002, 7.89179374e-003, 2.08673114e-003,
          5.09600081e-002, 3.63141447e-002, 3.03829033e-002,
          6.39409274e-002, 4.58081722e-001, 1.80464357e-001,
          2.02426733e-003, 2.28196150e-003, 0., 2.95394193e-003, 0.,
          2.68472871e-003, 1.57841237e-003, 1.79282263e-001,
          1.94926664e-001, 9.98112932e-003, 1.35479530e-003,
          8.63468554e-003, 7.73330033e-002, 2.13698316e-002,
          1.16719315e-002, 9.94462054e-003, 1.88615710e-001,
          2.95359075e-001, 7.79218376e-002, 3.33526544e-002,
          2.85574514e-002, 2.28128001e-001, 9.97933224e-002,
          1.02041222e-001, 1.24418110e-001, 2.95359075e-001,
          2.95359075e-001, 1.63615003e-001, 7.26747736e-002,
          1.25664413e-001, 2.95359075e-001, 1.91761255e-001,
          1.56143218e-001, 2.01924220e-001, 2.95359075e-001,
          6.73860013e-002, 2.18758639e-002, 5.04979026e-003,
          7.63477907e-002, 2.95359075e-001, 9.26378742e-002,
          4.29166630e-002, 2.91972999e-002, 6.09065741e-002,
          5.95949702e-002, 4.04563546e-002, 2.84436867e-002,
          2.21572489e-001, 2.95359075e-001, 2.09846050e-001,
          7.29420260e-002, 7.36600980e-002, 7.06701502e-002 ]
      - [ 2.84678966e-001, 6.85979128e-002, 4.35281433e-002,
          4.73261103e-002, 1.41564488e-001, 3.05246245e-002,
          5.80452122e-002, 4.14263308e-002, 2.84678966e-001,
          2.84678966e-001, 8.68718028e-002, 8.46010670e-002,
          8.76912475e-002, 2.84678966e-001, 5.73208146e-002,
          6.76871613e-002, 8.57543200e-002, 2.84678966e-001,
          2.84678966e-001, 5.41926436e-002, 1.14564098e-001,
          6.31157085e-002, 7.28852153e-002, 7.53971711e-002,
          1.31124035e-001, 9.60783437e-002, 2.84678966e-001,
          2.84678966e-001, 1.64920062e-001, 2.13078275e-001,
          8.55373219e-002, 1.02992095e-001, 8.01510438e-002,
          1.63666070e-001, 1.18579328e-001, 2.84678966e-001,
          2.41673619e-001, 8.43937770e-002, 7.31029660e-002,
          1.06070302e-001, 2.41673619e-001, 7.78509676e-002,
          3.83429788e-002, 2.26525981e-002, 2.29481682e-001,
          2.41673619e-001, 2.35470250e-001, 1.13966346e-001,
          8.58357400e-002, 2.41673619e-001, 7.94863030e-002,
          5.17666601e-002, 6.72773272e-003, 1.95140138e-001,
          2.41673619e-001, 1.65453270e-001, 1.49120152e-001,
          1.05341785e-001, 1.64571807e-001, 1.16700538e-001,
          7.79470950e-002, 3.80207673e-002, 2.41673619e-001,
          2.41673619e-001, 2.41673619e-001, 1.93896443e-001,
          1.14609055e-001, 1.98612779e-001, 1.90011427e-001,
          1.63135588e-001, 5.24669699e-002, 2.41673619e-001,
          2.53712088e-001, 2.53712088e-001, 1.14011958e-001,
          3.61438841e-002, 5.55274338e-002, 4.51160707e-002,
          5.60271293e-002, 2.46410221e-002, 1.25084534e-001,
          2.48418063e-001, 2.53712088e-001, 2.53712088e-001,
          8.91269147e-002, 4.22709845e-002, 8.37624371e-002,
          1.57738835e-001, 1.19151786e-001, 5.98436147e-002,
          2.53712088e-001, 2.53712088e-001, 1.25313655e-001,
          4.32470813e-002, 5.85810393e-002, 1.15057513e-001,
          1.38118088e-001, 4.27045822e-002, 2.53712088e-001,
          2.53712088e-001, 2.53712088e-001, 2.53712088e-001,
          1.39506012e-001, 6.54548109e-002, 1.09985642e-001,
          2.27804735e-001, 1.35971263e-001, 1.80171371e-001,
          1.69566408e-001, 5.22124693e-002, 9.98709053e-002,
          8.87511447e-002, 1.26719937e-001, 1.00175947e-001,
          2.08987936e-001, 7.21526816e-002, 1.51409671e-001,
          2.71504372e-001, 1.79021865e-001, 2.08608285e-001,
          8.20732713e-002, 9.66700837e-002, 9.92074907e-002,
          2.53106713e-001, 1.11578181e-001, 2.71504372e-001,
          1.18579373e-001, 5.61407395e-002, 7.79379383e-002,
          8.38114992e-002, 2.02617362e-001, 8.80766064e-002,
          2.71504372e-001, 8.14138129e-002, 5.31929508e-002,
          2.71504372e-001, 1.57804117e-001, 1.61336511e-001,
          9.42495838e-002, 2.26665691e-001, 1.04097918e-001,
          2.71504372e-001, 1.38413370e-001, 2.71504372e-001,
          2.86483735e-001, 1.01441689e-001, 1.17383182e-001,
          7.92460814e-002, 1.24754049e-001, 8.10445026e-002,
          9.68423560e-002, 4.59976047e-002, 2.86483735e-001,
          2.86483735e-001, 9.88036767e-002, 1.20670713e-001,
          9.26093906e-002, 1.51294649e-001, 1.31191000e-001,
          1.37539148e-001, 5.46336211e-002, 2.86483735e-001,
          2.86483735e-001, 6.54440820e-002, 6.65674806e-002,
          1.00582108e-001, 1.52561754e-001, 1.36786610e-001,
          8.66503119e-002, 9.87475142e-002, 2.86483735e-001,
          2.86483735e-001, 5.46511784e-002, 4.91842777e-002,
          1.40423656e-001, 1.47659943e-001, 1.75600648e-001,
          1.30056143e-001, 9.44520906e-002, 2.86483735e-001,
          3.02424759e-001, 1.56428009e-001, 4.78572100e-002,
          2.15643346e-002, 2.78110299e-002, 5.00558130e-002,
          5.57516739e-002, 2.55216993e-002, 3.02424759e-001,
          3.02424759e-001, 2.93388546e-001, 1.82166591e-001,
          7.32850060e-002, 3.57082970e-002, 1.67270489e-002,
          3.98522876e-002, 3.83835733e-002, 2.98562557e-001,
          3.02424759e-001, 4.59449328e-002, 2.09518280e-002,
          3.83722261e-002, 6.48126155e-002, 4.63868231e-002,
          5.11490032e-002, 5.97884916e-002, 3.02424759e-001,
          3.02424759e-001, 1.57682478e-001, 1.35406226e-001,
          7.08254725e-002, 1.64765313e-001, 2.72512641e-002,
          4.40236479e-002, 9.74293873e-002, 3.02424759e-001,
          5.65765165e-002, 7.79333636e-002, 1.93708003e-001,
          4.61487547e-002, 2.79010624e-001, 6.15423992e-002,
          1.64455310e-001, 9.91130844e-002, 8.29033107e-002,
          2.79010624e-001, 1.18371829e-001, 2.08310843e-001,
          7.75566399e-002, 2.79010624e-001, 8.20512027e-002,
          1.92008480e-001, 2.07660392e-001, 2.79010624e-001,
          8.00542235e-002, 5.47619872e-002, 1.16802201e-001,
          1.48019595e-002, 1.67498678e-001, 3.74794602e-002,
          8.65845829e-002, 1.19211651e-001, 1.89888567e-001,
          2.79010624e-001, 7.69849196e-002, 1.36638716e-001,
          4.55697887e-002, 2.79010624e-001, 1.05190732e-001,
          1.33755550e-001, 1.98895067e-001, 2.79010624e-001,
          2.71500289e-001, 4.24355306e-002, 2.89165992e-002,
          8.73018727e-002, 1.33166179e-001, 1.17087446e-001,
          8.58015344e-002, 1.29597694e-001, 2.71500289e-001,
          2.71500289e-001, 4.61185426e-002, 8.07255507e-003,
          1.32503167e-001, 1.21512614e-001, 1.87687963e-001,
          1.42456785e-001, 1.25997737e-001, 2.71500289e-001,
          2.71500289e-001, 5.37421703e-002, 6.08916692e-002,
          7.60960057e-002, 2.71500289e-001, 1.00976095e-001,
          8.67285952e-002, 8.33568871e-002, 2.71500289e-001,
          2.71500289e-001, 7.82598928e-002, 4.33978923e-002,
          1.62994415e-001, 2.62972355e-001, 9.85923037e-002,
          7.77553469e-002, 7.45446235e-002, 2.71500289e-001,
          3.14247042e-001, 4.91828285e-002, 2.18657497e-002,
          4.72594984e-002, 9.39096361e-002, 7.35857859e-002,
          6.94033653e-002, 7.20541552e-002, 3.14247042e-001,
          3.14247042e-001, 9.02431756e-002, 1.40075579e-001,
          1.01729997e-001, 2.54760802e-001, 3.99722978e-002,
          6.41437620e-002, 1.15716241e-001, 3.14247042e-001,
          3.14247042e-001, 5.40899299e-002, 2.17068754e-002,
          7.17888176e-002, 1.10086508e-001, 3.12737450e-002,
          2.37588305e-002, 3.45354192e-002, 3.14247042e-001,
          3.14247042e-001, 4.98874374e-002, 1.03894636e-001,
          7.13970810e-002, 1.02630332e-001, 9.99752153e-003,
          2.02692375e-002, 5.02879098e-002, 3.14247042e-001 ]
      - [ 1.43131822e-001, 3.51936780e-002, 9.81353149e-002,
          1.41810343e-001, 3.04560602e-001, 3.90808471e-002,
          4.09499556e-002, 7.14844838e-002, 2.15907201e-001,
          6.21994697e-002, 4.76378500e-002, 8.34295899e-002,
          4.59359027e-002, 1.39162645e-001, 1.02956593e-002,
          3.19755860e-002, 4.82497215e-002, 5.81635498e-002,
          3.04560602e-001, 1.47194758e-001, 1.44286320e-001,
          9.91263613e-002, 1.97226852e-001, 3.87342796e-002,
          8.14661682e-002, 1.09829560e-001, 3.04560602e-001,
          3.04560602e-001, 2.08110139e-001, 2.06073701e-001,
          1.07263245e-001, 3.04560602e-001, 7.66896680e-002,
          1.38642415e-001, 2.42507234e-001, 3.04560602e-001,
          4.49874364e-002, 4.60163280e-002, 7.30389059e-002,
          2.82681771e-002, 5.31446859e-002, 2.14355905e-002,
          2.34995671e-002, 2.37154961e-002, 3.99334952e-002,
          5.34009375e-002, 7.06298575e-002, 8.70667621e-002,
          8.84577408e-002, 3.14990729e-001, 2.69973218e-001,
          2.79151350e-001, 1.00612380e-001, 8.51901397e-002,
          3.14990729e-001, 1.91245526e-001, 9.51685980e-002,
          1.77532453e-002, 9.28108618e-002, 2.39143539e-002,
          4.75819372e-002, 1.05532058e-001, 3.14990729e-001,
          3.14990729e-001, 3.14990729e-001, 9.05997977e-002,
          4.77368645e-002, 2.83080518e-001, 1.06778823e-001,
          1.20583214e-001, 9.34606567e-002, 3.14990729e-001,
          2.52951533e-002, 5.45270555e-002, 3.89395878e-002,
          7.77150542e-002, 2.58408487e-001, 1.76195517e-001,
          2.58408487e-001, 1.50174662e-001, 8.14055055e-002,
          1.84661508e-001, 5.92287704e-002, 1.29216239e-001,
          1.33467704e-001, 2.58408487e-001, 1.59126431e-001,
          2.58408487e-001, 2.58408487e-001, 2.58408487e-001,
          2.58408487e-001, 1.95702836e-001, 6.59934729e-002,
          6.71308786e-002, 2.58408487e-001, 6.32048249e-002,
          8.12560767e-002, 2.65639815e-002, 1.78908080e-001,
          2.24313110e-001, 2.49696895e-001, 1.43521577e-001,
          9.45976228e-002, 2.02631488e-001, 3.72111686e-002,
          4.94740084e-002, 5.35231270e-002, 1.18087046e-001,
          2.64212817e-001, 9.07370523e-002, 6.27948046e-002,
          3.25088762e-002, 7.47191086e-002, 1.70750227e-002,
          6.44033924e-002, 7.78850317e-002, 2.64212817e-001,
          2.64212817e-001, 1.57439798e-001, 8.79199654e-002,
          2.71724612e-002, 8.27644244e-002, 2.47593615e-002,
          8.48809108e-002, 1.36165023e-001, 2.64212817e-001,
          2.32256576e-001, 8.94665197e-002, 1.27023071e-001,
          1.33586586e-001, 2.64212817e-001, 1.15608551e-001,
          1.43251404e-001, 1.46207035e-001, 2.07780391e-001,
          2.64212817e-001, 1.91370308e-001, 1.54448867e-001,
          1.28693387e-001, 2.64212817e-001, 1.12596698e-001,
          1.79272458e-001, 1.63974151e-001, 2.64212817e-001,
          3.36342663e-001, 1.35951102e-001, 4.66074832e-002,
          4.08820901e-003, 1.72802079e-002, 7.60697946e-003,
          2.76319403e-002, 6.27087578e-002, 3.36342663e-001,
          3.36342663e-001, 1.89387128e-001, 3.29392403e-002,
          5.31518506e-003, 1.23753464e-002, 4.56107967e-003,
          1.40700191e-002, 4.01447043e-002, 3.36342663e-001,
          3.36342663e-001, 1.04310915e-001, 4.53155227e-002,
          2.58760154e-002, 3.68408822e-002, 2.90362891e-002,
          3.44723202e-002, 5.48958220e-002, 3.36342663e-001,
          3.36342663e-001, 7.86540881e-002, 1.67236198e-002,
          4.88390448e-003, 3.03192413e-003, 1.07608698e-002,
          3.20515479e-003, 1.75670758e-002, 3.36342663e-001,
          2.89607137e-001, 2.67708480e-001, 6.61221296e-002,
          2.33653970e-002, 2.93648820e-002, 1.29409973e-002,
          1.17560159e-002, 2.17040293e-002, 2.53808886e-001,
          2.89607137e-001, 2.89607137e-001, 1.99366182e-001,
          9.29545239e-002, 1.00285709e-001, 2.81315744e-002,
          3.40900458e-002, 1.15919508e-001, 1.48038194e-001,
          2.89607137e-001, 1.61741793e-001, 2.26190463e-002,
          9.56250262e-003, 5.07846661e-003, 7.91708566e-003,
          7.59361172e-003, 2.36272886e-002, 2.89607137e-001,
          2.89607137e-001, 2.89607137e-001, 1.51494667e-001,
          9.96086970e-002, 1.24851920e-001, 3.11237089e-002,
          3.07896510e-002, 9.94383767e-002, 2.89607137e-001,
          7.39945024e-002, 2.28816438e-002, 8.35026503e-002,
          1.80219248e-001, 2.51295477e-001, 1.58641204e-001,
          1.06921546e-001, 1.05977289e-001, 3.59690264e-002,
          2.24776596e-001, 6.19230494e-002, 9.24881920e-002,
          2.10958168e-001, 2.51295477e-001, 1.63843453e-001,
          1.27039269e-001, 1.25316456e-001, 1.90826714e-001,
          5.15692011e-002, 1.30081438e-002, 4.58968878e-002,
          1.54397398e-001, 2.51295477e-001, 2.30176255e-001,
          2.12118447e-001, 1.39055073e-001, 3.03384829e-002,
          1.67289600e-001, 3.52324396e-002, 7.33756796e-002,
          2.37195179e-001, 2.51295477e-001, 2.51295477e-001,
          2.51295477e-001, 2.40086570e-001, 1.61177844e-001,
          2.93848485e-001, 5.74712828e-002, 5.77156059e-002,
          9.48946103e-002, 9.39661637e-002, 8.09312612e-002,
          5.45127317e-002, 9.26035345e-002, 2.93848485e-001,
          2.93848485e-001, 2.30736546e-002, 2.97607612e-002,
          2.16052290e-002, 1.14150373e-002, 4.20626737e-002,
          1.99953858e-002, 4.08867188e-002, 2.93848485e-001,
          2.70743906e-001, 5.16732633e-002, 8.13224316e-002,
          1.62208140e-001, 2.93848485e-001, 1.63755760e-001,
          1.99526727e-001, 1.80455908e-001, 2.93848485e-001,
          2.93848485e-001, 3.53008658e-002, 6.10583648e-002,
          8.17166939e-002, 1.64676204e-001, 5.98905683e-002,
          5.53720072e-002, 6.59963116e-002, 2.93848485e-001,
          3.19939256e-001, 7.98910037e-002, 3.75827253e-002,
          1.69289820e-002, 9.62200633e-004, 1.97938457e-002,
          2.56694425e-002, 5.28539270e-002, 3.19939256e-001,
          3.19939256e-001, 2.39447579e-001, 1.31935731e-001,
          1.40802592e-001, 5.30994646e-002, 6.44220859e-002,
          7.89570957e-002, 1.21795475e-001, 3.19939256e-001,
          3.19939256e-001, 4.57992703e-002, 4.29839343e-002,
          2.78825480e-002, 2.97061075e-002, 2.06665844e-002,
          2.01299675e-002, 3.69327404e-002, 3.19939256e-001,
          3.19939256e-001, 9.46668386e-002, 6.14682324e-002,
          1.13765158e-001, 2.51630712e-002, 4.49200869e-002,
          4.79826890e-002, 7.03171417e-002, 3.19939256e-001 ]
      - [ 9.65033025e-002, 4.24140878e-002, 3.01146992e-002,
          1.50264114e-001, 3.17988247e-001, 8.72854739e-002,
          1.03371732e-001, 7.43800104e-002, 1.14434972e-001,
          1.37046993e-001, 3.69468592e-002, 2.91052256e-002,
          4.72534820e-002, 3.17988247e-001, 4.88159806e-002,
          6.13158755e-002, 8.55580866e-002, 1.76927656e-001,
          1.79942384e-001, 1.25982076e-001, 2.98429914e-002,
          1.86551526e-001, 3.17988247e-001, 1.25190422e-001,
          1.71820953e-001, 1.47882387e-001, 2.29751736e-001,
          3.17988247e-001, 1.61544353e-001, 5.73240519e-002,
          8.05554092e-002, 2.80759871e-001, 5.56554198e-002,
          9.95602980e-002, 1.42183095e-001, 3.17988247e-001,
          2.23292425e-001, 6.29801750e-002, 1.57991145e-002,
          7.85380602e-003, 4.90411222e-002, 1.48099251e-002,
          1.28816981e-002, 4.72779088e-002, 2.66581297e-001,
          2.57740408e-001, 2.31166676e-001, 4.24734280e-002,
          1.14266528e-002, 1.87071543e-002, 1.10661089e-002,
          1.61489341e-002, 4.21243794e-002, 2.33156517e-001,
          3.11932087e-001, 2.50599563e-001, 6.20390549e-002,
          2.29558647e-002, 2.84754056e-002, 1.56254191e-002,
          5.92443645e-002, 1.07496805e-001, 3.11932087e-001,
          3.11932087e-001, 3.11932087e-001, 1.16605684e-001,
          1.33588880e-001, 1.42374575e-001, 1.47676095e-001,
          1.68990642e-001, 1.26880124e-001, 3.11932087e-001,
          2.09284440e-001, 2.08935261e-001, 6.07850291e-002,
          3.21802795e-002, 1.19862273e-001, 8.71696100e-002,
          4.02169190e-002, 2.53150668e-002, 1.15260623e-001,
          2.03212008e-001, 2.04373986e-001, 1.35272309e-001,
          1.65628359e-001, 2.45694622e-001, 2.45694622e-001,
          1.43804088e-001, 3.39140408e-002, 9.30043012e-002,
          2.45694622e-001, 2.45694622e-001, 1.24550961e-001,
          1.20041050e-001, 1.88812017e-001, 1.40110478e-001,
          1.33935526e-001, 7.38589466e-002, 2.09441870e-001,
          2.45694622e-001, 2.45694622e-001, 2.15539768e-001,
          1.43349424e-001, 1.79880410e-001, 2.06878990e-001,
          1.72977448e-001, 8.27132612e-002, 1.22446701e-001,
          1.10429369e-001, 9.54923779e-002, 4.79429699e-002,
          1.61226630e-001, 2.89005190e-001, 1.81466356e-001,
          1.33883253e-001, 9.62509960e-002, 8.30178931e-002,
          2.89005190e-001, 1.52307242e-001, 7.90160894e-002,
          8.55127797e-002, 2.21230790e-001, 8.76572207e-002,
          1.37867019e-001, 1.25034466e-001, 2.67679811e-001,
          1.73667729e-001, 1.05622321e-001, 8.17838013e-002,
          9.32926089e-002, 2.89005190e-001, 1.63319841e-001,
          1.15422338e-001, 1.64976776e-001, 1.03510581e-001,
          2.89005190e-001, 1.56283259e-001, 7.79646486e-002,
          7.18026534e-002, 2.07895115e-001, 1.01601966e-001,
          1.35494843e-001, 1.44930199e-001, 2.89005190e-001,
          3.05400342e-001, 1.24320708e-001, 4.10114005e-002,
          2.33368203e-002, 8.00513290e-003, 9.96414479e-003,
          6.69375211e-002, 7.29158893e-002, 3.05400342e-001,
          3.05400342e-001, 1.20186411e-001, 6.59868047e-002,
          1.55177355e-001, 9.37547162e-002, 9.22601745e-002,
          1.89446107e-001, 8.90009403e-002, 3.05400342e-001,
          3.05400342e-001, 7.85706267e-002, 1.58028584e-002,
          2.04497613e-002, 2.53527854e-002, 1.24934493e-002,
          3.73009779e-002, 6.05722032e-002, 3.05400342e-001,
          3.05400342e-001, 8.53878781e-002, 3.15913521e-002,
          1.45985767e-001, 1.64756551e-001, 5.11746630e-002,
          1.82175964e-001, 1.17920659e-001, 3.05400342e-001,
          2.46704385e-001, 1.78444073e-001, 6.11362793e-002,
          1.52509451e-001, 1.42255411e-001, 1.09465227e-001,
          2.00879946e-001, 1.02773018e-001, 1.71631500e-001,
          2.46704385e-001, 2.46704385e-001, 1.26678407e-001,
          7.02091902e-002, 9.53978747e-002, 9.46869478e-002,
          1.03053913e-001, 8.11059400e-002, 1.56497672e-001,
          2.46704385e-001, 1.49431512e-001, 4.72843014e-002,
          1.88483894e-001, 2.46704385e-001, 9.03500989e-002,
          2.22272307e-001, 1.61212727e-001, 2.09432706e-001,
          2.46704385e-001, 2.46704385e-001, 9.19538066e-002,
          1.21875793e-001, 1.72678411e-001, 5.50180487e-002,
          8.81304517e-002, 1.43309385e-001, 2.17622101e-001,
          1.84462428e-001, 1.31571889e-001, 1.24901369e-001,
          1.21038035e-001, 2.66787797e-001, 9.62444171e-002,
          1.01024687e-001, 1.43741563e-001, 2.40317464e-001,
          2.91136324e-001, 1.76553726e-001, 1.17880784e-001,
          1.21116623e-001, 2.16098189e-001, 8.99623334e-002,
          1.26190796e-001, 2.02160433e-001, 2.91136324e-001,
          7.58586973e-002, 4.36870866e-002, 6.18595704e-002,
          6.46819100e-002, 6.84417337e-002, 4.14939225e-002,
          6.27095029e-002, 3.57566625e-002, 2.22716674e-001,
          2.91136324e-001, 7.16552511e-002, 9.44070518e-002,
          6.81922138e-002, 2.91136324e-001, 1.28534585e-001,
          1.41854554e-001, 1.38154700e-001, 2.91136324e-001,
          3.06594372e-001, 5.42783290e-002, 2.77670976e-002,
          2.10004877e-002, 5.40279672e-002, 1.62550826e-002,
          2.58665849e-002, 5.96088246e-002, 3.06594372e-001,
          3.06594372e-001, 8.97328407e-002, 4.83935215e-002,
          6.77371770e-002, 1.72787443e-001, 4.71808277e-002,
          9.03397724e-002, 8.65695551e-002, 3.06594372e-001,
          3.06594372e-001, 4.77211103e-002, 6.00163117e-002,
          3.45794521e-002, 2.91740000e-001, 9.91264656e-002,
          9.56185311e-002, 8.56538415e-002, 3.06594372e-001,
          3.06594372e-001, 7.85390362e-002, 5.15955873e-002,
          2.62745079e-002, 1.51895106e-001, 4.02544290e-002,
          8.82159024e-002, 1.00818761e-001, 3.06594372e-001,
          2.34000191e-001, 1.16584852e-001, 6.77579716e-002,
          9.23048109e-002, 2.34000191e-001, 9.73442867e-002,
          1.17497042e-001, 1.35416508e-001, 2.14039817e-001,
          2.34000191e-001, 1.01534717e-001, 1.14667237e-001,
          9.79549736e-002, 2.34000191e-001, 1.21811286e-001,
          1.09611824e-001, 1.88691884e-001, 2.34000191e-001,
          2.34000191e-001, 9.88504961e-002, 5.99666834e-002,
          1.68289095e-002, 1.15658388e-001, 7.65481889e-002,
          1.07147753e-001, 1.26117975e-001, 2.34000191e-001,
          2.34000191e-001, 5.94489425e-002, 9.06695351e-002,
          6.44777641e-002, 2.34000191e-001, 2.34000191e-001,
          2.34000191e-001, 2.34000191e-001, 2.34000191e-001 ]
      - [ 2.55030364e-001, 4.86594774e-002, 2.03855243e-002,
          7.57455304e-002, 2.50584573e-001, 1.32840827e-001,
          1.89322874e-001, 1.47338033e-001, 2.55030364e-001,
          2.55030364e-001, 4.43199910e-002, 4.96485867e-002,
          6.31541759e-002, 1.59445286e-001, 7.41796419e-002,
          7.12381601e-002, 1.37863949e-001, 2.55030364e-001,
          2.55030364e-001, 4.19114903e-002, 8.49226862e-002,
          1.34121612e-001, 2.48176545e-001, 1.09798826e-001,
          1.17233753e-001, 1.45870626e-001, 2.55030364e-001,
          2.55030364e-001, 1.39103860e-001, 1.73354611e-001,
          1.38100475e-001, 1.67029768e-001, 1.10527441e-001,
          5.57874180e-002, 1.40939787e-001, 2.55030364e-001,
          3.42991561e-001, 9.23451111e-002, 4.89275828e-002,
          1.12100365e-002, 2.73712333e-002, 1.25576947e-002,
          1.48279294e-002, 4.02651019e-002, 3.02403688e-001,
          3.42991561e-001, 2.12867528e-001, 3.70332785e-002,
          3.14257364e-003, 3.96078592e-003, 4.29489743e-003,
          4.45848377e-003, 9.46068484e-003, 2.83729225e-001,
          3.42991561e-001, 1.32287145e-001, 8.31625238e-002,
          1.56838987e-002, 7.93905277e-003, 1.27043705e-002,
          7.91114196e-003, 3.91304046e-002, 3.42991561e-001,
          3.42991561e-001, 1.74446315e-001, 2.71918382e-002,
          6.05021371e-003, 2.35625380e-003, 4.65036806e-004,
          1.38879949e-002, 1.56361591e-002, 3.42991561e-001,
          2.82891482e-001, 2.62383610e-001, 6.54200241e-002,
          3.08395959e-002, 1.23848002e-002, 8.18605814e-003,
          3.42821144e-002, 6.11251639e-003, 2.03500807e-001,
          1.98124304e-001, 2.63611436e-001, 1.75797805e-001,
          1.40210003e-001, 1.16301082e-001, 6.44515380e-002,
          1.60952151e-001, 8.20864514e-002, 1.20558403e-001,
          2.82891482e-001, 2.68604308e-001, 4.05037552e-002,
          2.13765930e-002, 7.48707494e-003, 7.73029681e-003,
          4.90052514e-002, 1.10374689e-002, 2.82891482e-001,
          2.82891482e-001, 2.82891482e-001, 1.53143704e-001,
          1.51375458e-001, 8.58969837e-002, 7.40896016e-002,
          1.74845278e-001, 9.60688516e-002, 2.82891482e-001,
          7.09526986e-002, 5.88129610e-002, 1.51618510e-001,
          1.54846609e-001, 2.53942162e-001, 8.24031457e-002,
          1.35238305e-001, 1.38445899e-001, 1.05859794e-001,
          3.10543507e-001, 1.82059214e-001, 2.07537219e-001,
          1.39076054e-001, 1.92895621e-001, 9.13286656e-002,
          1.25343099e-001, 1.54037654e-001, 3.10543507e-001,
          1.25100672e-001, 7.13564456e-002, 1.85105219e-001,
          6.60210401e-002, 1.47194952e-001, 6.94013238e-002,
          1.22492731e-001, 9.45133567e-002, 2.14127183e-001,
          3.10543507e-001, 1.09771460e-001, 1.74107045e-001,
          4.99762297e-002, 1.21716440e-001, 4.97121923e-002,
          1.29920334e-001, 1.43318385e-001, 3.10543507e-001,
          3.49846184e-001, 5.67205064e-002, 3.24224308e-002,
          9.54783149e-003, 1.26555972e-002, 7.80934514e-003,
          1.07494108e-002, 2.12076511e-002, 3.49846184e-001,
          3.49846184e-001, 3.07370946e-002, 1.66819729e-002,
          2.67613996e-002, 2.91949250e-002, 9.68398806e-003,
          4.72996905e-002, 3.27257104e-002, 3.49846184e-001,
          3.49846184e-001, 2.12171003e-002, 1.00895977e-002,
          5.58996107e-003, 1.19022224e-002, 2.11281516e-003,
          1.05977859e-002, 2.17706412e-002, 3.49846184e-001,
          3.49846184e-001, 8.76106322e-003, 1.59621499e-002,
          2.37870533e-002, 3.34902368e-002, 1.22517236e-002,
          3.74678895e-002, 3.37268263e-002, 3.49846184e-001,
          3.07988018e-001, 1.11299284e-001, 6.43804967e-002,
          7.45311677e-002, 6.25619143e-002, 2.30760667e-002,
          7.08554611e-002, 6.37696013e-002, 3.07988018e-001,
          3.07988018e-001, 2.17181742e-001, 1.75806254e-001,
          1.00476049e-001, 9.98776257e-002, 8.01415369e-002,
          7.30053857e-002, 8.53986889e-002, 2.87835836e-001,
          3.07988018e-001, 4.77131493e-002, 7.16930479e-002,
          6.92201927e-002, 6.99152425e-002, 2.76235715e-002,
          5.31399623e-002, 7.31246546e-002, 3.07988018e-001,
          3.07988018e-001, 1.21272050e-001, 1.25750452e-001,
          7.68263042e-002, 1.08832195e-001, 1.04870312e-001,
          5.20108491e-002, 9.62495282e-002, 3.07988018e-001,
          2.64723063e-001, 5.84854521e-002, 1.52245238e-001,
          5.84072694e-002, 2.44530305e-001, 9.63884518e-002,
          1.01273522e-001, 4.95693311e-002, 3.77155751e-001,
          3.77155751e-001, 5.71209528e-002, 1.23241983e-001,
          2.21239515e-002, 6.74148798e-002, 3.96987833e-002,
          8.38383213e-002, 7.37724155e-002, 3.77155751e-001,
          1.86970562e-001, 1.84147079e-002, 1.25286384e-002,
          3.20928097e-002, 3.14003885e-001, 1.46964580e-001,
          1.04145266e-001, 3.55009139e-002, 2.48346493e-001,
          2.36908510e-001, 5.26670879e-003, 1.07078021e-003,
          6.47215033e-003, 8.06973968e-003, 6.74231863e-003,
          6.00755634e-003, 4.94276173e-003, 2.51476377e-001,
          4.61103261e-001, 8.45192093e-003, 5.38507849e-003,
          2.20639445e-003, 5.14513114e-003, 2.71626952e-004,
          5.47442166e-003, 1.70795526e-002, 4.61103261e-001,
          4.61103261e-001, 1.52387575e-003, 6.21776329e-003,
          3.79027752e-003, 1.45895705e-002, 6.02878211e-003,
          1.43121346e-003, 1.74586736e-002, 4.61103261e-001,
          1.82489812e-001, 6.16344449e-004, 0., 0., 0., 0., 0., 0.,
          1.73960969e-001, 2.03557014e-001, 3.92788230e-003, 0.,
          8.31584563e-004, 4.68377396e-003, 4.74064116e-004,
          1.31068577e-003, 7.72269384e-004, 1.97035208e-001,
          3.87385100e-001, 1.70441251e-002, 3.11413296e-002,
          1.85590722e-002, 3.72209102e-002, 1.27716335e-002,
          4.35929187e-003, 3.61332931e-002, 3.87385100e-001,
          3.87385100e-001, 8.76372978e-002, 8.76396671e-002,
          1.10009931e-001, 2.35785604e-001, 8.63147005e-002,
          7.04262629e-002, 1.55172676e-001, 3.87385100e-001,
          1.71209738e-001, 1.84684303e-002, 7.83115160e-003,
          1.76316295e-002, 5.07233478e-002, 5.59975626e-003,
          8.79445765e-003, 9.76402964e-003, 1.40767738e-001,
          1.72408879e-001, 3.04898527e-002, 5.70370555e-002,
          1.33485273e-001, 3.87385100e-001, 3.88914496e-002,
          2.21970752e-002, 4.19964679e-002, 1.16858400e-001 ]
      - [ 1.77439123e-001, 2.84290928e-002, 4.37741950e-002,
          2.16341391e-002, 1.48998141e-001, 5.94991930e-002,
          3.74044701e-002, 3.36878002e-002, 1.93433523e-001,
          1.51449993e-001, 4.78396714e-002, 6.11987300e-002,
          7.06251115e-002, 2.54318446e-001, 2.51102418e-001,
          2.54318446e-001, 1.44974142e-001, 1.56304151e-001,
          2.54318446e-001, 6.10654056e-002, 9.35046524e-002,
          6.67706281e-002, 2.54318446e-001, 1.30204737e-001,
          9.48437452e-002, 1.19538717e-001, 2.54318446e-001,
          2.54318446e-001, 1.44633234e-001, 1.33019000e-001,
          1.03167154e-001, 2.54318446e-001, 1.81550279e-001,
          2.29705513e-001, 2.12267414e-001, 2.54318446e-001,
          1.09139696e-001, 2.14831661e-002, 1.52534330e-002,
          6.16483130e-002, 2.29949400e-001, 1.94441855e-001,
          2.29949400e-001, 1.57125905e-001, 1.38034075e-001,
          1.59343824e-001, 6.25812933e-002, 1.65893510e-002,
          4.19999734e-002, 2.04266965e-001, 1.34953380e-001,
          1.98882923e-001, 1.17294587e-001, 2.22907275e-001,
          2.15226918e-001, 6.72754571e-002, 5.84818199e-002,
          1.04825288e-001, 1.88827053e-001, 1.80628523e-001,
          2.29949400e-001, 2.07836971e-001, 2.29949400e-001,
          2.29949400e-001, 1.67708576e-001, 7.76384994e-002,
          1.28400430e-001, 1.47331148e-001, 2.01170355e-001,
          2.29949400e-001, 2.13947013e-001, 2.29949400e-001,
          2.37113357e-001, 2.47517094e-001, 7.18736649e-002,
          3.07091661e-002, 3.48066501e-002, 6.19735941e-002,
          6.31775260e-002, 4.50010486e-002, 1.83995575e-001,
          1.95648193e-001, 2.47517094e-001, 2.33718753e-001,
          6.73613250e-002, 4.24520522e-002, 3.72077227e-002,
          8.35530832e-002, 4.70278561e-002, 7.99083933e-002,
          2.47517094e-001, 2.47517094e-001, 1.59124568e-001,
          9.13109630e-002, 5.15006632e-002, 1.38719842e-001,
          1.31516531e-001, 1.16377957e-001, 2.47517094e-001,
          2.47517094e-001, 2.47517094e-001, 2.39377946e-001,
          1.38968408e-001, 1.47796005e-001, 1.36304185e-001,
          2.47517094e-001, 1.38757095e-001, 2.47517094e-001,
          1.51044399e-001, 4.42459360e-002, 9.56972390e-002,
          9.28337052e-002, 2.61869460e-001, 1.60344660e-001,
          1.42973140e-001, 7.69984499e-002, 1.30969092e-001,
          2.61869460e-001, 1.42981753e-001, 1.51459083e-001,
          1.12328611e-001, 1.60953298e-001, 1.49811372e-001,
          1.60955265e-001, 1.42938510e-001, 2.61869460e-001,
          1.23183265e-001, 3.67030539e-002, 7.51600266e-002,
          2.00329989e-001, 2.61869460e-001, 1.36672750e-001,
          2.26526603e-001, 2.60778535e-002, 6.78939074e-002,
          2.61869460e-001, 1.19655952e-001, 1.31573275e-001,
          1.90645278e-001, 2.61869460e-001, 1.45330012e-001,
          1.56967476e-001, 5.96944727e-002, 2.61869460e-001,
          2.84934640e-001, 8.08934495e-002, 9.24129337e-002,
          1.28194988e-001, 6.83685616e-002, 1.44151554e-001,
          1.87228724e-001, 1.18647240e-001, 2.84934640e-001,
          2.84934640e-001, 1.10434987e-001, 8.85719806e-002,
          1.29313618e-001, 7.86052942e-002, 1.80361837e-001,
          1.86458081e-001, 1.23213626e-001, 2.84934640e-001,
          2.84934640e-001, 7.87115246e-002, 7.21853450e-002,
          1.35218590e-001, 7.37293288e-002, 1.40977740e-001,
          7.61464834e-002, 6.73115477e-002, 2.84934640e-001,
          2.84934640e-001, 8.26303288e-002, 4.45053279e-002,
          1.40640631e-001, 5.20310737e-002, 1.11330882e-001,
          7.19065145e-002, 4.40039411e-002, 2.84934640e-001,
          2.58163780e-001, 1.72523960e-001, 9.70675424e-002,
          5.19047268e-002, 2.09753215e-002, 7.74410293e-002,
          5.68486862e-002, 7.96209797e-002, 2.58163780e-001,
          2.58163780e-001, 2.35799655e-001, 1.60343632e-001,
          1.33847386e-001, 1.94115788e-001, 6.76369667e-002,
          1.17414184e-001, 1.13395214e-001, 2.58163780e-001,
          2.58163780e-001, 7.97768459e-002, 5.45606054e-002,
          5.57927117e-002, 4.05368917e-002, 3.52117270e-002,
          2.56199837e-002, 6.35899305e-002, 2.58163780e-001,
          2.58163780e-001, 1.59260049e-001, 1.61426663e-001,
          2.06737235e-001, 2.58163780e-001, 1.03559136e-001,
          1.00109048e-001, 1.91366449e-001, 2.58163780e-001,
          7.62894526e-002, 2.41920277e-002, 5.58096692e-002,
          2.05962881e-001, 2.77423471e-001, 1.50141582e-001,
          1.19907528e-001, 4.56833802e-002, 6.01342246e-002,
          2.77423471e-001, 5.12949899e-002, 7.94303939e-002,
          1.79678142e-001, 2.77423471e-001, 1.57499686e-001,
          7.97881037e-002, 6.65909499e-002, 2.77423471e-001,
          7.05166906e-002, 4.01459634e-002, 8.61150026e-002,
          1.60932571e-001, 2.77423471e-001, 2.22238615e-001,
          1.54183969e-001, 6.69715032e-002, 9.20187235e-002,
          2.77423471e-001, 5.34657128e-002, 9.54878926e-002,
          1.18059628e-001, 2.77423471e-001, 1.91218302e-001,
          1.23078071e-001, 8.04985464e-002, 2.77423471e-001,
          3.39239687e-001, 3.81277911e-002, 3.27081345e-002,
          8.73752236e-002, 1.18395470e-001, 1.02816626e-001,
          2.76860669e-002, 4.06644307e-002, 3.39239687e-001,
          3.39239687e-001, 5.17988354e-002, 1.92324184e-002,
          1.16348892e-001, 7.27964416e-002, 6.43210486e-002,
          2.04173923e-002, 1.64841544e-002, 3.39239687e-001,
          3.39239687e-001, 2.23774575e-002, 1.43674742e-002,
          2.13501137e-002, 8.77786800e-002, 3.27240787e-002,
          2.25310810e-002, 2.60525011e-002, 3.39239687e-001,
          3.39239687e-001, 8.26004706e-003, 4.83641075e-003,
          1.65348779e-002, 2.22616158e-002, 6.72848662e-003,
          2.64913868e-003, 4.65547852e-003, 3.39239687e-001,
          2.93008655e-001, 3.31612006e-002, 2.58171260e-002,
          7.12886900e-002, 7.71674961e-002, 2.36885399e-002,
          1.37529392e-002, 3.76874730e-002, 2.93008655e-001,
          2.93008655e-001, 6.17255829e-002, 9.97470692e-002,
          2.00784132e-001, 2.93008655e-001, 1.23849384e-001,
          8.08677450e-002, 1.41203538e-001, 2.29467705e-001,
          2.93008655e-001, 1.22603597e-002, 1.51435640e-002,
          2.76041199e-002, 4.21178825e-002, 8.94965697e-003,
          8.96034576e-003, 2.07194649e-002, 2.93008655e-001,
          2.93008655e-001, 2.70935837e-002, 7.34725222e-002,
          9.74394903e-002, 2.93008655e-001, 1.52894735e-001,
          9.39089060e-002, 9.76647586e-002, 2.93008655e-001 ]
      - [ 2.82121181e-001, 1.09091632e-001, 6.63821697e-002,
          4.80357520e-002, 1.86099976e-001, 4.03049812e-002,
          6.11840934e-002, 6.44686818e-002, 2.84088016e-001,
          2.84088016e-001, 9.85636488e-002, 5.97787313e-002,
          3.94249000e-002, 1.86247841e-001, 3.93285304e-002,
          6.67565614e-002, 9.83758271e-002, 2.84088016e-001,
          2.84088016e-001, 7.78131261e-002, 4.38335612e-002,
          2.58598235e-002, 2.84088016e-001, 8.51265267e-002,
          1.18035614e-001, 1.20208442e-001, 2.84088016e-001,
          2.84088016e-001, 1.93402007e-001, 1.23623073e-001,
          2.46106461e-002, 1.11323103e-001, 6.52046874e-002,
          9.18415859e-002, 1.45912901e-001, 2.84088016e-001,
          3.25722247e-001, 7.81107843e-002, 4.26902883e-002,
          6.34471793e-003, 3.88095900e-002, 8.48826393e-003,
          1.67583115e-002, 2.26166174e-002, 3.25722247e-001,
          3.25722247e-001, 2.23523453e-001, 1.04961172e-001,
          2.06633634e-003, 4.88409447e-003, 2.52980506e-003,
